<?xml version="1.0"?>
<MethodSetup Method="MLP::XS_66_163_0_cap">
  <GeneralInfo>
    <Info name="TMVA Release" value="4.2.0 [262656]"/>
    <Info name="ROOT Release" value="5.34/32 [336416]"/>
    <Info name="Creator" value="thiollie"/>
    <Info name="Date" value="Fri Mar 25 00:24:17 2016"/>
    <Info name="Host" value="Darwin nanpc193.in2p3.fr 14.4.0 Darwin Kernel Version 14.4.0: Thu May 28 11:35:04 PDT 2015; root:xnu-2782.30.5~1/RELEASE_X86_64 x86_64"/>
    <Info name="Dir" value="/Users/thiollie/PROGS/CLASS/BuildModel/Utils/XSM/MLP/Train"/>
    <Info name="Training events" value="1389"/>
    <Info name="TrainingTime" value="1.18392878e+02"/>
    <Info name="AnalysisType" value="Regression"/>
  </GeneralInfo>
  <Options>
    <Option name="NCycles" modified="Yes">20000</Option>
    <Option name="HiddenLayers" modified="Yes">N,N</Option>
    <Option name="NeuronType" modified="Yes">tanh</Option>
    <Option name="RandomSeed" modified="No">1</Option>
    <Option name="EstimatorType" modified="No">MSE</Option>
    <Option name="NeuronInputType" modified="No">sum</Option>
    <Option name="V" modified="Yes">False</Option>
    <Option name="VerbosityLevel" modified="No">Default</Option>
    <Option name="VarTransform" modified="Yes">Norm</Option>
    <Option name="H" modified="Yes">False</Option>
    <Option name="CreateMVAPdfs" modified="No">False</Option>
    <Option name="IgnoreNegWeightsInTraining" modified="No">False</Option>
    <Option name="TrainingMethod" modified="Yes">BFGS</Option>
    <Option name="LearningRate" modified="No">2.000000e-02</Option>
    <Option name="DecayRate" modified="No">1.000000e-02</Option>
    <Option name="TestRate" modified="Yes">6</Option>
    <Option name="EpochMonitoring" modified="No">False</Option>
    <Option name="Sampling" modified="Yes">3.000000e-01</Option>
    <Option name="SamplingEpoch" modified="Yes">8.000000e-01</Option>
    <Option name="SamplingImportance" modified="No">1.000000e+00</Option>
    <Option name="SamplingTraining" modified="No">True</Option>
    <Option name="SamplingTesting" modified="No">False</Option>
    <Option name="ResetStep" modified="No">50</Option>
    <Option name="Tau" modified="No">3.000000e+00</Option>
    <Option name="BPMode" modified="No">sequential</Option>
    <Option name="BatchSize" modified="No">-1</Option>
    <Option name="ConvergenceImprove" modified="Yes">1.000000e-06</Option>
    <Option name="ConvergenceTests" modified="Yes">15</Option>
    <Option name="UseRegulator" modified="Yes">False</Option>
    <Option name="UpdateLimit" modified="No">10000</Option>
    <Option name="CalculateErrors" modified="No">False</Option>
    <Option name="WeightRange" modified="No">1.000000e+00</Option>
  </Options>
  <Variables NVar="13">
    <Variable VarIndex="0" Expression="MA_93_237" Label="MA_93_237" Title="Np 237" Unit="FractionIsotopic" Internal="MA_93_237" Type="F" Min="3.21065984e-03" Max="4.72011417e-01"/>
    <Variable VarIndex="1" Expression="Pu_94_238" Label="Pu_94_238" Title="Pu 238" Unit="FractionIsotopic" Internal="Pu_94_238" Type="F" Min="3.68860929e-05" Max="2.47458607e-01"/>
    <Variable VarIndex="2" Expression="Pu_94_239" Label="Pu_94_239" Title="Pu 239" Unit="FractionIsotopic" Internal="Pu_94_239" Type="F" Min="3.37636471e-03" Max="2.23870575e-01"/>
    <Variable VarIndex="3" Expression="Pu_94_240" Label="Pu_94_240" Title="Pu 240" Unit="FractionIsotopic" Internal="Pu_94_240" Type="F" Min="1.15393021e-04" Max="2.51328260e-01"/>
    <Variable VarIndex="4" Expression="Pu_94_241" Label="Pu_94_241" Title="Pu 241" Unit="FractionIsotopic" Internal="Pu_94_241" Type="F" Min="1.28546992e-04" Max="8.55372697e-02"/>
    <Variable VarIndex="5" Expression="Pu_94_242" Label="Pu_94_242" Title="Pu 242" Unit="FractionIsotopic" Internal="Pu_94_242" Type="F" Min="1.81331543e-05" Max="1.18410327e-01"/>
    <Variable VarIndex="6" Expression="MA_95_241" Label="MA_95_241" Title="Am 241" Unit="FractionIsotopic" Internal="MA_95_241" Type="F" Min="2.19029468e-03" Max="6.41448259e-01"/>
    <Variable VarIndex="7" Expression="MA_95_242" Label="MA_95_242" Title="Am 242" Unit="FractionIsotopic" Internal="MA_95_242" Type="F" Min="2.78117295e-05" Max="4.86099720e-02"/>
    <Variable VarIndex="8" Expression="MA_95_243" Label="MA_95_243" Title="Am 243" Unit="FractionIsotopic" Internal="MA_95_243" Type="F" Min="3.80090787e-03" Max="3.49846095e-01"/>
    <Variable VarIndex="9" Expression="MA_96_244" Label="MA_96_244" Title="Cm 244" Unit="FractionIsotopic" Internal="MA_96_244" Type="F" Min="1.23171703e-05" Max="1.41019285e-01"/>
    <Variable VarIndex="10" Expression="MA_96_245" Label="MA_96_245" Title="Cm 245" Unit="FractionIsotopic" Internal="MA_96_245" Type="F" Min="5.14694730e-05" Max="9.74799842e-02"/>
    <Variable VarIndex="11" Expression="MA_96_246" Label="MA_96_246" Title="Cm 246" Unit="FractionIsotopic" Internal="MA_96_246" Type="F" Min="8.24415929e-06" Max="4.63430397e-02"/>
    <Variable VarIndex="12" Expression="Time" Label="Time" Title="Time" Unit="seconds" Internal="Time" Type="F" Min="0.00000000e+00" Max="9.46728000e+07"/>
  </Variables>
  <Spectators NSpec="0"/>
  <Classes NClass="1">
    <Class Name="Regression" Index="0"/>
  </Classes>
  <Targets NTrgt="1">
    <Target TargetIndex="0" Expression="XS_66_163_0_cap" Label="XS_66_163_0_cap" Title="XS_66_163_0_cap" Unit="" Internal="XS_66_163_0_cap" Type="F" Min="7.27410555e-01" Max="1.15129244e+00"/>
  </Targets>
  <Transformations NTransformations="1">
    <Transform Name="Normalize">
      <Selection>
        <Input NInputs="14">
          <Input Type="Variable" Label="MA_93_237" Expression="MA_93_237"/>
          <Input Type="Variable" Label="Pu_94_238" Expression="Pu_94_238"/>
          <Input Type="Variable" Label="Pu_94_239" Expression="Pu_94_239"/>
          <Input Type="Variable" Label="Pu_94_240" Expression="Pu_94_240"/>
          <Input Type="Variable" Label="Pu_94_241" Expression="Pu_94_241"/>
          <Input Type="Variable" Label="Pu_94_242" Expression="Pu_94_242"/>
          <Input Type="Variable" Label="MA_95_241" Expression="MA_95_241"/>
          <Input Type="Variable" Label="MA_95_242" Expression="MA_95_242"/>
          <Input Type="Variable" Label="MA_95_243" Expression="MA_95_243"/>
          <Input Type="Variable" Label="MA_96_244" Expression="MA_96_244"/>
          <Input Type="Variable" Label="MA_96_245" Expression="MA_96_245"/>
          <Input Type="Variable" Label="MA_96_246" Expression="MA_96_246"/>
          <Input Type="Variable" Label="Time" Expression="Time"/>
          <Input Type="Target" Label="XS_66_163_0_cap" Expression="XS_66_163_0_cap"/>
        </Input>
        <Output NOutputs="14">
          <Output Type="Variable" Label="MA_93_237" Expression="MA_93_237"/>
          <Output Type="Variable" Label="Pu_94_238" Expression="Pu_94_238"/>
          <Output Type="Variable" Label="Pu_94_239" Expression="Pu_94_239"/>
          <Output Type="Variable" Label="Pu_94_240" Expression="Pu_94_240"/>
          <Output Type="Variable" Label="Pu_94_241" Expression="Pu_94_241"/>
          <Output Type="Variable" Label="Pu_94_242" Expression="Pu_94_242"/>
          <Output Type="Variable" Label="MA_95_241" Expression="MA_95_241"/>
          <Output Type="Variable" Label="MA_95_242" Expression="MA_95_242"/>
          <Output Type="Variable" Label="MA_95_243" Expression="MA_95_243"/>
          <Output Type="Variable" Label="MA_96_244" Expression="MA_96_244"/>
          <Output Type="Variable" Label="MA_96_245" Expression="MA_96_245"/>
          <Output Type="Variable" Label="MA_96_246" Expression="MA_96_246"/>
          <Output Type="Variable" Label="Time" Expression="Time"/>
          <Output Type="Target" Label="XS_66_163_0_cap" Expression="XS_66_163_0_cap"/>
        </Output>
      </Selection>
      <Class ClassIndex="0">
        <Ranges>
          <Range Index="0" Min="3.2106598373502493e-03" Max="4.7201141715049744e-01"/>
          <Range Index="1" Min="3.6886092857457697e-05" Max="2.4745860695838928e-01"/>
          <Range Index="2" Min="3.3763647079467773e-03" Max="2.2387057542800903e-01"/>
          <Range Index="3" Min="1.1539302067831159e-04" Max="2.5132825970649719e-01"/>
          <Range Index="4" Min="1.2854699161835015e-04" Max="8.5537269711494446e-02"/>
          <Range Index="5" Min="1.8133154298993759e-05" Max="1.1841032654047012e-01"/>
          <Range Index="6" Min="2.1902946755290031e-03" Max="6.4144825935363770e-01"/>
          <Range Index="7" Min="2.7811729523818940e-05" Max="4.8609972000122070e-02"/>
          <Range Index="8" Min="3.8009078707545996e-03" Max="3.4984609484672546e-01"/>
          <Range Index="9" Min="1.2317170330788940e-05" Max="1.4101928472518921e-01"/>
          <Range Index="10" Min="5.1469472964527085e-05" Max="9.7479984164237976e-02"/>
          <Range Index="11" Min="8.2441592894610949e-06" Max="4.6343039721250534e-02"/>
          <Range Index="12" Min="0.0000000000000000e+00" Max="9.4672800000000000e+07"/>
          <Range Index="13" Min="7.2741055488586426e-01" Max="1.1512924432754517e+00"/>
        </Ranges>
      </Class>
    </Transform>
  </Transformations>
  <MVAPdfs/>
  <Weights>
    <Layout NLayers="4">
      <Layer Index="0" NNeurons="14">
        <Neuron NSynapses="13">
          -2.8770938343524084e-02 6.9654334920842009e-01 1.9464279911854668e-01 1.1298374991256079e+00 -3.2847035184269269e-01 -1.4017603048811054e+00 -8.0144680972733606e-01 6.8287187416718909e-01 -8.0932918924141162e-01 -7.8393247295281840e-02 -1.9465203809221425e+00 -4.0570114668659524e-01 -6.4052639084498797e-01 
        </Neuron>
        <Neuron NSynapses="13">
          7.0461897351336078e-01 2.5781059305021239e-02 -2.9826388681674437e-01 8.8170006718446237e-01 1.1826085590997053e+00 -4.6616545592596514e-01 1.8076764661835563e+00 2.7565060970470384e-01 -1.6245914487145015e+00 9.1764066684924317e-01 2.1330661992736533e-01 -8.7562063112260280e-01 9.7040744735791196e-01 
        </Neuron>
        <Neuron NSynapses="13">
          1.0555227200356516e+00 -1.2725722528804395e+00 -1.7406572892298504e+00 1.2363638529378654e-01 4.1672529819182630e-01 1.3304747065296045e+00 -3.2020297195999120e-01 1.5439965849858261e-01 -9.0505812994282131e-01 9.1441818306787259e-01 -9.7958848758299377e-01 8.9819205184440609e-01 -1.4486720714939982e+00 
        </Neuron>
        <Neuron NSynapses="13">
          1.1244104557478356e+00 1.7704420564104715e+00 3.6152699430636209e-01 9.8376844436653588e-01 7.1424539171522938e-01 -9.4308359900587513e-01 -1.3456672548405881e+00 4.0091980302264174e-01 -1.0809348264421532e+00 6.0102581000922606e-01 1.3639986629668381e+00 4.3870490796165817e-01 1.9498542945511999e+00 
        </Neuron>
        <Neuron NSynapses="13">
          -1.3546188177987750e+00 7.1710654563244977e-02 -2.2299542190187522e+00 -5.1648881896891552e-01 -9.5055542207195098e-01 -2.0879343421008141e+00 1.8747757208870925e+00 3.5523243909610078e-02 -2.0536306808788800e+00 1.9843465669188284e-01 -7.5940770813942671e-01 1.2913798589040315e+00 2.3268155868869638e+00 
        </Neuron>
        <Neuron NSynapses="13">
          2.9790295205052475e-01 7.4411617337413105e-01 -1.5132491743592085e+00 -1.1686722318820673e-01 -4.4400499551872630e-01 -8.3978855859510748e-01 -9.9562983774049096e-01 2.0393625996890408e-01 -5.9755382906449783e-01 3.3031938268388672e-01 3.5257063478638234e-01 -8.5554626503776904e-02 -4.9795132117508084e-01 
        </Neuron>
        <Neuron NSynapses="13">
          7.9519823121270095e-02 6.1658069437782348e-02 1.6504377585839975e+00 2.1178964015080823e+00 -4.2063580245471070e-02 -9.0624606556020315e-01 -8.0117995405910580e-01 9.2328264808177685e-01 1.1098905940625653e-01 -3.7775933814609886e-01 -1.1347921957989084e+00 -1.4619214724226974e+00 -1.0302403172172356e+00 
        </Neuron>
        <Neuron NSynapses="13">
          8.5131008543374811e-02 8.2661547813974035e-01 -1.7289191766288061e+00 -5.6341360150936104e-01 -3.5332124773820278e-01 -5.1845036533420052e-01 -1.2450169164199894e+00 -1.3217850225311484e-02 -6.4727158769799698e-01 2.9791746381815326e-01 -1.1856096292684020e+00 9.2431150400486783e-01 1.0340951918422565e+00 
        </Neuron>
        <Neuron NSynapses="13">
          -5.5559018148041395e-01 3.3837871109753759e+00 -6.3923856070908747e-01 -1.0099476570911836e+00 -7.4485208933036318e-01 -2.5185033966553028e-01 -1.8082928056598633e+00 5.2841177226552671e-01 -2.8711587187184856e-01 -9.9654677209701753e-02 -2.4256194866140643e+00 1.6238847618471541e+00 8.2535065408841535e-01 
        </Neuron>
        <Neuron NSynapses="13">
          6.4021247779537194e-01 -5.4721998968303676e-01 -1.2555875132657530e+00 7.9883877676111359e-01 2.9376909448897298e-01 -7.5131913797727734e-01 1.4927890897915468e+00 2.0882095382401866e-01 -6.4031498977162560e-01 4.0131652078249319e-01 3.4091485802603749e-01 -4.5233527984065025e-01 1.4005084962382313e+00 
        </Neuron>
        <Neuron NSynapses="13">
          -5.4021260514755143e-01 -9.0821475813389618e-01 -5.7102248814537104e-01 -6.2006727112924509e-01 8.2924765379614393e-02 5.8929308173354855e-01 1.6427405366803849e+00 -1.2779172347684031e-02 -1.0756563126025280e+00 6.8700336967503872e-01 6.2854123295767395e-01 1.2934829324358055e+00 -1.0338965314123756e+00 
        </Neuron>
        <Neuron NSynapses="13">
          1.9594124074543440e-01 -4.4749380740773331e-01 1.3211338542945339e+00 2.0922191012761771e-01 1.0369575447179838e-01 -7.8117279521626315e-01 3.9145324107160023e-01 7.5594489917017810e-02 -6.4622505943524799e-01 1.7122781262714576e-01 -8.9314105357572476e-02 1.5651985124063689e-01 9.5103276816726856e-01 
        </Neuron>
        <Neuron NSynapses="13">
          1.5526362187007008e+00 3.6881360902423310e-01 1.7445691135706257e-01 -1.5577114134549890e+00 1.6389524085748586e+00 -7.0369768495654822e-02 2.8470695042577776e-01 5.3240468811863402e-02 -3.2093579942630845e-01 -9.4982170115999742e-02 -2.5269872867727479e-02 2.1658293800196557e+00 1.4834232136235442e-01 
        </Neuron>
        <Neuron NSynapses="13">
          -8.9692345188733724e-01 1.7863817082739468e+00 2.3409937539453298e+00 -1.6393709818265905e+00 2.0827257298116404e+00 2.7526440372493637e+00 -2.3134405827733948e+00 4.1965116583857126e-02 2.5841786724735134e+00 -5.1713665879885196e-01 -1.5901243641504410e+00 -1.9563936244720823e+00 3.0708707431659454e-01 
        </Neuron>
      </Layer>
      <Layer Index="1" NNeurons="14">
        <Neuron NSynapses="13">
          8.0676415309722438e-01 -1.4801294667660161e+00 2.1052793139588102e-01 -9.7353974437327118e-03 3.1349816760064819e-01 1.4633075845098709e+00 -5.7549117265905148e-01 -9.2977767586913751e-01 -7.0318060210796574e-01 1.1393385246545313e+00 8.7403223082100823e-01 1.0453415232918324e+00 9.5347346988669812e-02 
        </Neuron>
        <Neuron NSynapses="13">
          2.2801059570757880e-02 -1.7075849545713713e+00 3.0492088249916238e-01 -1.3650226053586698e-04 -8.3219000296663292e-01 -7.7506821762807487e-01 4.2096273809550122e-01 1.9594289578668159e-01 -1.5208837301462617e+00 1.2013392140207146e+00 8.0887958947826843e-01 -5.2573722804851752e-01 1.7327602044240559e-01 
        </Neuron>
        <Neuron NSynapses="13">
          1.6681965027867933e+00 1.1227436469520486e+00 -2.1385962572297262e-01 -3.6750769411622135e-02 -1.9968267324418425e+00 -5.7292516834518925e-01 2.0101219012077385e+00 1.5762536627310622e+00 1.2904998524590339e+00 -3.5337036429546315e-01 1.9455462976196167e+00 -1.7402233351958150e+00 -7.8165866500029202e-01 
        </Neuron>
        <Neuron NSynapses="13">
          -3.5136863735714458e-01 -1.1405076216601358e+00 1.8355549065507906e+00 1.2160763538318201e-02 -1.1365560440841616e+00 8.0402238040060958e-01 -5.4440222660178239e-01 -1.4190926533538908e+00 -4.8511522455247236e-01 8.1394343984618067e-01 3.7283289397634423e-01 1.0160817538447096e+00 -1.2963518769717488e+00 
        </Neuron>
        <Neuron NSynapses="13">
          1.1403989188048393e-02 -1.9870209912597816e+00 8.8113604830805092e-01 6.0714283732734610e-03 -1.1804482556009162e+00 -1.0588732095502897e+00 -1.6683651266778612e+00 -4.9730671599204512e-01 -1.3230639955743697e+00 -1.8061068864471206e+00 -1.7431260459060181e+00 2.5231739823610183e-02 -1.1120016830241475e+00 
        </Neuron>
        <Neuron NSynapses="13">
          -1.5028836964032160e+00 1.5497905668727403e+00 -1.1607553134787805e+00 -3.1109307384496222e-03 -1.5400895708963622e+00 3.4170503550578291e-01 1.9648961345250660e+00 1.7172236857328684e+00 -4.8790947234515203e-01 -1.7588032674561693e+00 -1.0011417807969198e+00 -9.5782858320840991e-01 -1.8612953674018984e+00 
        </Neuron>
        <Neuron NSynapses="13">
          7.6883042452052061e-02 -1.1055871914329665e-01 1.1158147130503571e+00 -1.2911718926251800e-03 2.1837386546469696e-02 -9.6749801867964458e-01 -1.8102579927505715e+00 6.1588294140574307e-01 8.5704810128680475e-01 -2.1739433422996490e-01 -1.2798998454609962e+00 9.4359019431627067e-01 1.4426346476973471e+00 
        </Neuron>
        <Neuron NSynapses="13">
          1.0901776068735849e+00 -1.0610255067522928e-01 -1.3614647237494757e+00 2.3303835765656973e+00 1.0967615518342471e+00 5.0753632030203522e-01 2.8844086861910197e-02 7.2668300843319578e-01 -8.3824818879317242e-01 -1.5721674438971613e+00 -9.1275067662694365e-01 -1.7008286137959714e+00 -1.0443881577815390e+00 
        </Neuron>
        <Neuron NSynapses="13">
          -1.2517756832441702e+00 1.6734220248495428e+00 -1.6384632575128442e+00 1.9917065978365303e+00 -1.6495539871835274e+00 1.2020341049877772e+00 -8.5584835539951887e-01 7.2791300846374529e-01 1.0445052943849360e+00 -2.1169575463683801e+00 2.4986767654282480e-01 5.4332013130768442e-01 -2.1804842763238619e+00 
        </Neuron>
        <Neuron NSynapses="13">
          -1.2272061509163568e+00 -2.1043639660443425e+00 -4.0171133409353132e-01 4.5243408126782814e-01 -3.5665176586308084e-01 -5.3097365579308789e-02 -9.1158542866240866e-01 -1.1206537139479174e+00 -9.5105994487782253e-01 -5.6794578335273505e-01 -1.4861754741470719e+00 1.0152689284103675e+00 -1.1764238577467911e+00 
        </Neuron>
        <Neuron NSynapses="13">
          -7.2511604822607423e-01 1.2399612779634384e+00 -5.6314586751180196e-01 4.4835466624164703e-03 1.7824985770490358e+00 -1.8749334524108994e+00 1.4470067383142846e+00 9.1297418366308647e-01 -3.2888757886757974e-01 -6.3239420934923829e-01 4.5253897113684792e-02 -1.0911997206141923e+00 7.1817819943637606e-01 
        </Neuron>
        <Neuron NSynapses="13">
          1.8614681117021739e+00 1.1671171915196732e+00 2.0442045365233885e+00 5.2906079017723331e-03 1.1554507912849576e+00 -1.8816918404712784e+00 2.5210833761194401e-01 -1.8560500391990837e+00 -1.3439462196109853e-01 5.0929951791676209e-01 1.4955733647877918e+00 4.1274359174812958e-01 8.3389878880138690e-01 
        </Neuron>
        <Neuron NSynapses="13">
          -2.3631317970435101e-01 -3.1687995774088429e-01 8.4452788759365197e-02 2.5768277654341165e-03 2.0951086171782061e+00 -1.4390389590296671e+00 3.7888918085068818e-01 -5.5944611642939313e-01 -2.4622501822103554e-01 2.7185240285951595e-01 3.9706610533976880e-02 -1.1629420498886391e+00 1.1413505757430407e+00 
        </Neuron>
        <Neuron NSynapses="13">
          2.0509676103531360e+00 8.7933983359652201e-01 -6.3168191440373578e-01 3.6624879961518553e-01 -1.5140515536093466e+00 -1.6036410377657977e+00 1.3785867025542695e+00 2.1865391218787569e-01 -1.0701457018033675e+00 7.2754662859577407e-02 -1.7184180651708993e+00 -1.2339695052687276e+00 -1.4177756863161994e+00 
        </Neuron>
      </Layer>
      <Layer Index="2" NNeurons="14">
        <Neuron NSynapses="1">
          1.6526778615684638e-02 
        </Neuron>
        <Neuron NSynapses="1">
          -5.5879114480175573e-01 
        </Neuron>
        <Neuron NSynapses="1">
          5.3346776233241588e-01 
        </Neuron>
        <Neuron NSynapses="1">
          3.1421679506695135e+00 
        </Neuron>
        <Neuron NSynapses="1">
          -1.6732673791388958e-01 
        </Neuron>
        <Neuron NSynapses="1">
          3.3893612820340363e-03 
        </Neuron>
        <Neuron NSynapses="1">
          4.0245136474745669e-01 
        </Neuron>
        <Neuron NSynapses="1">
          -5.1670712880234593e-01 
        </Neuron>
        <Neuron NSynapses="1">
          -1.8075401165032184e-02 
        </Neuron>
        <Neuron NSynapses="1">
          -2.4205628890618347e-01 
        </Neuron>
        <Neuron NSynapses="1">
          -4.1064436875248500e-03 
        </Neuron>
        <Neuron NSynapses="1">
          6.7061820152059304e-01 
        </Neuron>
        <Neuron NSynapses="1">
          4.3474683081100585e-01 
        </Neuron>
        <Neuron NSynapses="1">
          8.9907667215018594e-01 
        </Neuron>
      </Layer>
      <Layer Index="3" NNeurons="1">
        <Neuron NSynapses="0"/>
      </Layer>
    </Layout>
  </Weights>
</MethodSetup>
