<?xml version="1.0"?>
<MethodSetup Method="MLP::XS_90_227_0_fis">
  <GeneralInfo>
    <Info name="TMVA Release" value="4.2.0 [262656]"/>
    <Info name="ROOT Release" value="5.34/32 [336416]"/>
    <Info name="Creator" value="thiollie"/>
    <Info name="Date" value="Fri Mar 25 03:49:51 2016"/>
    <Info name="Host" value="Darwin nanpc193.in2p3.fr 14.4.0 Darwin Kernel Version 14.4.0: Thu May 28 11:35:04 PDT 2015; root:xnu-2782.30.5~1/RELEASE_X86_64 x86_64"/>
    <Info name="Dir" value="/Users/thiollie/PROGS/CLASS/BuildModel/Utils/XSM/MLP/Train"/>
    <Info name="Training events" value="1389"/>
    <Info name="TrainingTime" value="1.12579269e+02"/>
    <Info name="AnalysisType" value="Regression"/>
  </GeneralInfo>
  <Options>
    <Option name="NCycles" modified="Yes">20000</Option>
    <Option name="HiddenLayers" modified="Yes">N,N</Option>
    <Option name="NeuronType" modified="Yes">tanh</Option>
    <Option name="RandomSeed" modified="No">1</Option>
    <Option name="EstimatorType" modified="No">MSE</Option>
    <Option name="NeuronInputType" modified="No">sum</Option>
    <Option name="V" modified="Yes">False</Option>
    <Option name="VerbosityLevel" modified="No">Default</Option>
    <Option name="VarTransform" modified="Yes">Norm</Option>
    <Option name="H" modified="Yes">False</Option>
    <Option name="CreateMVAPdfs" modified="No">False</Option>
    <Option name="IgnoreNegWeightsInTraining" modified="No">False</Option>
    <Option name="TrainingMethod" modified="Yes">BFGS</Option>
    <Option name="LearningRate" modified="No">2.000000e-02</Option>
    <Option name="DecayRate" modified="No">1.000000e-02</Option>
    <Option name="TestRate" modified="Yes">6</Option>
    <Option name="EpochMonitoring" modified="No">False</Option>
    <Option name="Sampling" modified="Yes">3.000000e-01</Option>
    <Option name="SamplingEpoch" modified="Yes">8.000000e-01</Option>
    <Option name="SamplingImportance" modified="No">1.000000e+00</Option>
    <Option name="SamplingTraining" modified="No">True</Option>
    <Option name="SamplingTesting" modified="No">False</Option>
    <Option name="ResetStep" modified="No">50</Option>
    <Option name="Tau" modified="No">3.000000e+00</Option>
    <Option name="BPMode" modified="No">sequential</Option>
    <Option name="BatchSize" modified="No">-1</Option>
    <Option name="ConvergenceImprove" modified="Yes">1.000000e-06</Option>
    <Option name="ConvergenceTests" modified="Yes">15</Option>
    <Option name="UseRegulator" modified="Yes">False</Option>
    <Option name="UpdateLimit" modified="No">10000</Option>
    <Option name="CalculateErrors" modified="No">False</Option>
    <Option name="WeightRange" modified="No">1.000000e+00</Option>
  </Options>
  <Variables NVar="13">
    <Variable VarIndex="0" Expression="MA_93_237" Label="MA_93_237" Title="Np 237" Unit="FractionIsotopic" Internal="MA_93_237" Type="F" Min="3.21065984e-03" Max="4.72011417e-01"/>
    <Variable VarIndex="1" Expression="Pu_94_238" Label="Pu_94_238" Title="Pu 238" Unit="FractionIsotopic" Internal="Pu_94_238" Type="F" Min="3.68860929e-05" Max="2.47458607e-01"/>
    <Variable VarIndex="2" Expression="Pu_94_239" Label="Pu_94_239" Title="Pu 239" Unit="FractionIsotopic" Internal="Pu_94_239" Type="F" Min="3.37636471e-03" Max="2.23870575e-01"/>
    <Variable VarIndex="3" Expression="Pu_94_240" Label="Pu_94_240" Title="Pu 240" Unit="FractionIsotopic" Internal="Pu_94_240" Type="F" Min="1.15393021e-04" Max="2.51328260e-01"/>
    <Variable VarIndex="4" Expression="Pu_94_241" Label="Pu_94_241" Title="Pu 241" Unit="FractionIsotopic" Internal="Pu_94_241" Type="F" Min="1.28546992e-04" Max="8.55372697e-02"/>
    <Variable VarIndex="5" Expression="Pu_94_242" Label="Pu_94_242" Title="Pu 242" Unit="FractionIsotopic" Internal="Pu_94_242" Type="F" Min="1.81331543e-05" Max="1.18410327e-01"/>
    <Variable VarIndex="6" Expression="MA_95_241" Label="MA_95_241" Title="Am 241" Unit="FractionIsotopic" Internal="MA_95_241" Type="F" Min="2.19029468e-03" Max="6.41448259e-01"/>
    <Variable VarIndex="7" Expression="MA_95_242" Label="MA_95_242" Title="Am 242" Unit="FractionIsotopic" Internal="MA_95_242" Type="F" Min="2.78117295e-05" Max="4.86099720e-02"/>
    <Variable VarIndex="8" Expression="MA_95_243" Label="MA_95_243" Title="Am 243" Unit="FractionIsotopic" Internal="MA_95_243" Type="F" Min="3.80090787e-03" Max="3.49846095e-01"/>
    <Variable VarIndex="9" Expression="MA_96_244" Label="MA_96_244" Title="Cm 244" Unit="FractionIsotopic" Internal="MA_96_244" Type="F" Min="1.23171703e-05" Max="1.41019285e-01"/>
    <Variable VarIndex="10" Expression="MA_96_245" Label="MA_96_245" Title="Cm 245" Unit="FractionIsotopic" Internal="MA_96_245" Type="F" Min="5.14694730e-05" Max="9.74799842e-02"/>
    <Variable VarIndex="11" Expression="MA_96_246" Label="MA_96_246" Title="Cm 246" Unit="FractionIsotopic" Internal="MA_96_246" Type="F" Min="8.24415929e-06" Max="4.63430397e-02"/>
    <Variable VarIndex="12" Expression="Time" Label="Time" Title="Time" Unit="seconds" Internal="Time" Type="F" Min="0.00000000e+00" Max="9.46728000e+07"/>
  </Variables>
  <Spectators NSpec="0"/>
  <Classes NClass="1">
    <Class Name="Regression" Index="0"/>
  </Classes>
  <Targets NTrgt="1">
    <Target TargetIndex="0" Expression="XS_90_227_0_fis" Label="XS_90_227_0_fis" Title="XS_90_227_0_fis" Unit="" Internal="XS_90_227_0_fis" Type="F" Min="4.34902936e-01" Max="5.83094418e-01"/>
  </Targets>
  <Transformations NTransformations="1">
    <Transform Name="Normalize">
      <Selection>
        <Input NInputs="14">
          <Input Type="Variable" Label="MA_93_237" Expression="MA_93_237"/>
          <Input Type="Variable" Label="Pu_94_238" Expression="Pu_94_238"/>
          <Input Type="Variable" Label="Pu_94_239" Expression="Pu_94_239"/>
          <Input Type="Variable" Label="Pu_94_240" Expression="Pu_94_240"/>
          <Input Type="Variable" Label="Pu_94_241" Expression="Pu_94_241"/>
          <Input Type="Variable" Label="Pu_94_242" Expression="Pu_94_242"/>
          <Input Type="Variable" Label="MA_95_241" Expression="MA_95_241"/>
          <Input Type="Variable" Label="MA_95_242" Expression="MA_95_242"/>
          <Input Type="Variable" Label="MA_95_243" Expression="MA_95_243"/>
          <Input Type="Variable" Label="MA_96_244" Expression="MA_96_244"/>
          <Input Type="Variable" Label="MA_96_245" Expression="MA_96_245"/>
          <Input Type="Variable" Label="MA_96_246" Expression="MA_96_246"/>
          <Input Type="Variable" Label="Time" Expression="Time"/>
          <Input Type="Target" Label="XS_90_227_0_fis" Expression="XS_90_227_0_fis"/>
        </Input>
        <Output NOutputs="14">
          <Output Type="Variable" Label="MA_93_237" Expression="MA_93_237"/>
          <Output Type="Variable" Label="Pu_94_238" Expression="Pu_94_238"/>
          <Output Type="Variable" Label="Pu_94_239" Expression="Pu_94_239"/>
          <Output Type="Variable" Label="Pu_94_240" Expression="Pu_94_240"/>
          <Output Type="Variable" Label="Pu_94_241" Expression="Pu_94_241"/>
          <Output Type="Variable" Label="Pu_94_242" Expression="Pu_94_242"/>
          <Output Type="Variable" Label="MA_95_241" Expression="MA_95_241"/>
          <Output Type="Variable" Label="MA_95_242" Expression="MA_95_242"/>
          <Output Type="Variable" Label="MA_95_243" Expression="MA_95_243"/>
          <Output Type="Variable" Label="MA_96_244" Expression="MA_96_244"/>
          <Output Type="Variable" Label="MA_96_245" Expression="MA_96_245"/>
          <Output Type="Variable" Label="MA_96_246" Expression="MA_96_246"/>
          <Output Type="Variable" Label="Time" Expression="Time"/>
          <Output Type="Target" Label="XS_90_227_0_fis" Expression="XS_90_227_0_fis"/>
        </Output>
      </Selection>
      <Class ClassIndex="0">
        <Ranges>
          <Range Index="0" Min="3.2106598373502493e-03" Max="4.7201141715049744e-01"/>
          <Range Index="1" Min="3.6886092857457697e-05" Max="2.4745860695838928e-01"/>
          <Range Index="2" Min="3.3763647079467773e-03" Max="2.2387057542800903e-01"/>
          <Range Index="3" Min="1.1539302067831159e-04" Max="2.5132825970649719e-01"/>
          <Range Index="4" Min="1.2854699161835015e-04" Max="8.5537269711494446e-02"/>
          <Range Index="5" Min="1.8133154298993759e-05" Max="1.1841032654047012e-01"/>
          <Range Index="6" Min="2.1902946755290031e-03" Max="6.4144825935363770e-01"/>
          <Range Index="7" Min="2.7811729523818940e-05" Max="4.8609972000122070e-02"/>
          <Range Index="8" Min="3.8009078707545996e-03" Max="3.4984609484672546e-01"/>
          <Range Index="9" Min="1.2317170330788940e-05" Max="1.4101928472518921e-01"/>
          <Range Index="10" Min="5.1469472964527085e-05" Max="9.7479984164237976e-02"/>
          <Range Index="11" Min="8.2441592894610949e-06" Max="4.6343039721250534e-02"/>
          <Range Index="12" Min="0.0000000000000000e+00" Max="9.4672800000000000e+07"/>
          <Range Index="13" Min="4.3490293622016907e-01" Max="5.8309441804885864e-01"/>
        </Ranges>
      </Class>
    </Transform>
  </Transformations>
  <MVAPdfs/>
  <Weights>
    <Layout NLayers="4">
      <Layer Index="0" NNeurons="14">
        <Neuron NSynapses="13">
          2.5787482560598551e-01 1.0525015696796030e+00 4.8095268140737701e-01 7.7747147044461307e-01 9.0719839806946358e-04 -1.6264725168689875e+00 -4.8864120602867295e-01 7.0826428510411521e-01 -9.3547571808784113e-01 -2.2667565654103941e-01 -1.1009118053159483e+00 -5.2700488447179297e-02 -8.5261087758473553e-01 
        </Neuron>
        <Neuron NSynapses="13">
          1.1425148572689943e+00 -1.0514966724720081e+00 -9.1427089898988345e-01 1.5633591167667216e-01 6.9985759931730662e-01 -7.2239473341984647e-02 2.0311723520516205e+00 -9.5893736586111528e-02 -1.5683261041379954e+00 7.1906033702637973e-01 9.0323048072519885e-01 -3.1021418024611253e-01 4.2968927909382038e-01 
        </Neuron>
        <Neuron NSynapses="13">
          9.5378363888872730e-01 -8.1981140433572819e-01 -1.9441733740889096e+00 -3.8754400679233675e-01 9.2148816865088190e-01 6.6184583404036001e-01 3.9048122864667034e-01 -5.4303736898803123e-01 -1.0460100789346365e+00 3.9460907763461284e-01 -6.1416165027063019e-01 2.5600402453005331e+00 -1.2573281689357241e+00 
        </Neuron>
        <Neuron NSynapses="13">
          1.1651684149298931e+00 8.5728628770767445e-01 2.2000759887993088e-01 6.3135442665965957e-01 5.4387295370135158e-01 -8.4005059486120026e-01 -1.0190517935970660e+00 4.4306098542178146e-01 -9.6460049630736544e-01 8.7508304402695247e-01 1.8164804865922650e+00 2.0602769166933013e+00 1.4729635462982913e+00 
        </Neuron>
        <Neuron NSynapses="13">
          -1.4276941304189654e+00 8.0745019404503371e-01 -1.3622106586997078e+00 -4.5329077190057659e-01 7.3547148942417617e-01 -1.6457155420778842e+00 1.5973631934712043e+00 -3.9908239622298086e-01 -1.8447564434244668e+00 -1.0746096190436472e-02 2.5416060986660294e-01 1.5191883216384756e+00 2.3377850946873648e+00 
        </Neuron>
        <Neuron NSynapses="13">
          2.0846424351740769e-01 8.6314165384192931e-01 -1.3465548209091835e+00 3.1131356761283879e-01 4.2587386841344993e-01 -8.0983777144406832e-01 -8.4283386481623390e-01 2.3615763268898712e-01 -1.2019692539452852e-02 4.4412850387883263e-01 -2.1486630521265762e-01 -7.2708151780845609e-01 -1.2501375817352043e+00 
        </Neuron>
        <Neuron NSynapses="13">
          7.8011944642212638e-01 9.5751125256951575e-01 8.1684984675087702e-01 1.3030139975777950e+00 -2.6001775925494497e-01 -1.0280573050696502e+00 -8.8197736404928506e-01 9.6218868126029433e-01 1.7646197551214785e-01 -9.0597530407826887e-01 -1.8225336336800955e+00 -1.1107361201323687e+00 -3.7801179130309426e-01 
        </Neuron>
        <Neuron NSynapses="13">
          -7.2672808372558795e-02 1.7566876243441026e-01 -3.0722027122209226e+00 -3.8398740325412345e-01 5.2064419746714741e-01 -9.1754939727605589e-01 -8.5176152714699871e-01 -3.8740441010025967e-01 -4.5100848993322790e-01 8.2006696905937079e-03 -3.6830296745782382e-01 1.0584275812573902e+00 1.2738675794124141e+00 
        </Neuron>
        <Neuron NSynapses="13">
          -1.0633592160335807e+00 2.0717069852449241e+00 -5.9143562371056757e-01 5.0313691540408390e-01 3.2804976958930304e-01 -4.6438196215229188e-01 -1.4214500608245326e+00 5.9639107927331358e-01 -1.1078008278933484e-01 -1.4537383467101653e-01 -1.0029419844061045e+00 1.0798489299162868e+00 2.4792651928429293e-01 
        </Neuron>
        <Neuron NSynapses="13">
          5.1515257225453281e-01 -5.0486255528445878e-02 -1.5240110268556541e+00 2.2165989826900989e-01 1.5608924279889130e-01 -9.6194849421393425e-01 1.5197617400361596e+00 2.1259795372235166e-01 -3.1629758993716051e-01 5.7131470878187129e-01 5.9045871977997455e-01 -5.1984460052948134e-01 1.4995882122708681e+00 
        </Neuron>
        <Neuron NSynapses="13">
          7.3703424074510338e-01 -4.9807305725270901e-01 -1.4602462729046390e+00 -6.3524983600172513e-01 7.9798846764906861e-01 2.3798556963654241e-01 1.8597855927932072e+00 -6.5287805801279886e-01 -6.8970472066253552e-01 1.8233127751326103e-01 8.2763163337726131e-01 2.5871904551909486e-01 -1.3585166524937258e+00 
        </Neuron>
        <Neuron NSynapses="13">
          -2.7170807253928800e-02 8.6008018437424727e-02 1.2746727191819993e-01 1.0866270473238870e-01 7.8709980308441396e-02 -4.9507420216475667e-01 5.8343828808052489e-01 9.9398657057334305e-02 -9.4073295846234889e-02 1.9885171417126377e-01 6.3816524970876609e-01 -1.8966114413026500e-01 6.4803248059317498e-01 
        </Neuron>
        <Neuron NSynapses="13">
          2.5257476539930673e-01 -9.1600893676957396e-01 -8.1949088771143264e-01 -2.3726475533064731e-01 6.7613250444242767e-01 2.7241452433459656e-01 2.5686453742538015e-02 2.2205516285079108e-01 8.4648938857652428e-02 4.7424092863035205e-01 -8.2057007732608334e-01 4.4511830379295597e-01 3.3896652967784285e-01 
        </Neuron>
        <Neuron NSynapses="13">
          -1.6773443095648570e+00 1.6920821387987377e+00 3.3814879648972238e+00 -8.7077988655436689e-01 1.1674507384435622e+00 3.1730807254478242e+00 -3.0878850617999820e+00 4.3175804120581146e-01 2.2292122741330656e+00 2.4377292713101001e-01 -2.8957987968605794e+00 -3.2316890534413512e+00 5.8122312816520261e-01 
        </Neuron>
      </Layer>
      <Layer Index="1" NNeurons="14">
        <Neuron NSynapses="13">
          1.9582957789584807e+00 -1.7224016548410901e+00 5.7179467044425247e-01 -1.5597628271565092e-01 7.2701785466675806e-01 1.8497909103897658e+00 -4.4037935946303608e-01 -9.4939491376426011e-01 -1.5920620441232303e-01 1.6073724744530078e+00 1.6266610859497859e+00 1.0780521074610654e+00 3.8215032712908265e-01 
        </Neuron>
        <Neuron NSynapses="13">
          9.8242754595959329e-03 -1.2316304273596581e+00 3.1286864655679542e-01 5.2715845143023167e-02 -1.5589246992360217e+00 -7.2137689001901417e-01 2.1809042313410393e-01 1.0626448846775149e-01 -1.3228705326663570e-01 1.4790063970819070e+00 3.8527856922186521e-01 -4.4406871016530147e-01 -8.1559625008952433e-02 
        </Neuron>
        <Neuron NSynapses="13">
          2.6306393454238219e+00 1.8738062738184500e+00 -2.2308556536104179e-01 2.4310836719540835e-01 -1.6119902083292623e+00 -9.5801657889913949e-01 1.9349290447097600e+00 1.7515580816255625e+00 6.0164582491504692e-01 -2.7185026363817999e-01 1.7024927591525532e+00 -1.8231541458164784e+00 -1.1889647157643726e+00 
        </Neuron>
        <Neuron NSynapses="13">
          -3.7025677568016208e-01 -1.1027552158878235e+00 1.9852764750366532e+00 6.7865199955067579e-01 -6.9775875851857894e-01 1.1105660738766674e+00 -4.2748417167888086e-01 -1.3859625610297392e+00 -8.7180641345665255e-01 4.2973794675535226e-01 3.9277820983144468e-01 1.0699905059952328e+00 -1.1057283882252784e+00 
        </Neuron>
        <Neuron NSynapses="13">
          1.7720765806079128e+00 -9.5517696869909929e-01 1.0157084557927929e+00 2.4031152064880282e-01 -1.1018223901463557e+00 -1.3849111124947200e+00 -1.7389642953226541e+00 -4.1576216501732910e-01 -6.5047117348467565e-01 -9.4148546560983115e-01 -2.2173109135895475e+00 -5.6295886174930088e-02 -8.9032764610797455e-01 
        </Neuron>
        <Neuron NSynapses="13">
          -6.4815780046504623e-01 1.8311517445014982e+00 -1.1114151251434399e+00 1.4788412253397387e-01 -1.8343932288605214e+00 -2.3136918633062886e-02 2.0920889912793434e+00 1.8209320726086249e+00 -6.0338970753705801e-01 -1.7380346164760736e+00 -1.3668678914574033e+00 -1.0467699298197815e+00 -1.7538611862008435e+00 
        </Neuron>
        <Neuron NSynapses="13">
          -2.6299575599872149e-01 -8.8570184153091069e-01 8.9490596243555887e-01 2.0174325188377271e-03 4.2157820140795377e-01 -6.7845879891489813e-01 -1.8775240620335998e+00 4.9554791575884993e-01 1.0721225718241987e+00 -7.6063465235862465e-02 -7.2033778903958601e-01 9.9216990409923544e-01 1.4839477006983022e+00 
        </Neuron>
        <Neuron NSynapses="13">
          1.4391988442631696e+00 5.5873758699045017e-01 -1.1518694381996808e+00 9.9801037617373167e-01 5.1893344790709872e-01 5.0741317917530515e-01 -8.5790396381760073e-02 8.3447618590789419e-01 -7.9265459756524514e-01 -1.4311112074400305e+00 -1.2284638925008358e+00 -1.6099219256332700e+00 -1.2726990515055465e+00 
        </Neuron>
        <Neuron NSynapses="13">
          -5.6335690198878974e-01 2.6122346292226939e+00 -1.3440871825193326e+00 1.4952601052091252e+00 -1.6280360283712121e+00 8.4965772328919631e-01 -8.8537187685495644e-01 8.4014304163569797e-01 9.0409652637761850e-01 -2.2712657564932646e+00 -4.7234565976448400e-02 4.5362642634196343e-01 -2.1498108428295142e+00 
        </Neuron>
        <Neuron NSynapses="13">
          -8.1343334307739912e-01 -1.1127945014460106e+00 -4.0121828582308816e-01 2.5467840115709167e-01 7.6288378325137490e-02 2.7333132237270102e-01 -9.7116720024204084e-01 -1.0014521221851926e+00 -4.4998281172793031e-01 -6.7844361268155862e-01 -1.7642256227303361e+00 1.1146321720621024e+00 -1.1477503139026801e+00 
        </Neuron>
        <Neuron NSynapses="13">
          -6.3891952408572206e-01 1.3423545415809475e+00 -5.2554798019555871e-01 4.0337108424711415e-02 1.5456918084084998e+00 -1.8400114171759474e+00 1.3684759974654372e+00 9.1735421215328505e-01 -6.7213887399387240e-01 -3.6159183454373978e-01 5.0572654443722997e-02 -1.0298696494985102e+00 4.9272594666836494e-01 
        </Neuron>
        <Neuron NSynapses="13">
          9.1609106941322493e-01 6.4136351177013018e-01 2.1789790057503207e+00 2.0651753355847294e-01 1.4784005426262883e+00 -1.5883791190871013e+00 2.9461884909648139e-01 -1.7272697054123491e+00 -1.4430390169582754e+00 3.9226226889970611e-01 1.2556296924301849e+00 4.2201547386659266e-01 1.0621493424324657e+00 
        </Neuron>
        <Neuron NSynapses="13">
          4.6072421372737773e-02 -7.5516531724474437e-02 -2.8445238161935521e-01 1.1433795442770659e-02 1.7468084935469550e+00 -8.9355186775007267e-01 2.5256770271789281e-01 -8.5248216550859024e-01 -9.6895612495124638e-03 -3.3800090293207374e-01 7.3581997922644138e-02 -1.0808975977790392e+00 8.4421604992520860e-01 
        </Neuron>
        <Neuron NSynapses="13">
          2.6553505918114131e+00 1.6597149967967881e+00 -6.0278921037641053e-01 -1.0566911531339243e+00 -1.9481846150447266e+00 -1.9543852819746137e+00 1.2802420831458798e+00 3.3787338735780775e-01 -1.1443415550582650e+00 1.6645067695224380e-01 -1.9663191468706189e+00 -1.3228959619560052e+00 -1.7079239235207535e+00 
        </Neuron>
      </Layer>
      <Layer Index="2" NNeurons="14">
        <Neuron NSynapses="1">
          4.8301167196847244e-01 
        </Neuron>
        <Neuron NSynapses="1">
          -5.8021797498536209e-01 
        </Neuron>
        <Neuron NSynapses="1">
          2.0132811922986316e-01 
        </Neuron>
        <Neuron NSynapses="1">
          6.4403831160841241e-01 
        </Neuron>
        <Neuron NSynapses="1">
          -2.1056963258334904e+00 
        </Neuron>
        <Neuron NSynapses="1">
          8.7316624985179624e-03 
        </Neuron>
        <Neuron NSynapses="1">
          1.7443509737015866e-01 
        </Neuron>
        <Neuron NSynapses="1">
          -5.9423436683729025e-01 
        </Neuron>
        <Neuron NSynapses="1">
          -3.8922914861518720e-01 
        </Neuron>
        <Neuron NSynapses="1">
          -5.7548895353286701e-02 
        </Neuron>
        <Neuron NSynapses="1">
          -4.7125580906659775e-02 
        </Neuron>
        <Neuron NSynapses="1">
          1.0219306718595671e+00 
        </Neuron>
        <Neuron NSynapses="1">
          9.1463301209935899e-01 
        </Neuron>
        <Neuron NSynapses="1">
          4.6807567617592483e-01 
        </Neuron>
      </Layer>
      <Layer Index="3" NNeurons="1">
        <Neuron NSynapses="0"/>
      </Layer>
    </Layout>
  </Weights>
</MethodSetup>
