<?xml version="1.0"?>
<MethodSetup Method="MLP::XS_90_228_0_cap">
  <GeneralInfo>
    <Info name="TMVA Release" value="4.2.0 [262656]"/>
    <Info name="ROOT Release" value="5.34/14 [336398]"/>
    <Info name="Creator" value="courtin"/>
    <Info name="Date" value="Thu Dec 17 23:41:38 2015"/>
    <Info name="Host" value="Linux nansl3.in2p3.fr 2.6.32-431.20.3.el6.x86_64 #1 SMP Thu Jun 19 14:01:59 CDT 2014 x86_64 x86_64 x86_64 GNU/Linux"/>
    <Info name="Dir" value="/scratch/spallati/courtin/WORK/BdD_MOxEUS/MOxEUS_NN/XSM/MLP/Train"/>
    <Info name="Training events" value="59870"/>
    <Info name="TrainingTime" value="2.92947130e+03"/>
    <Info name="AnalysisType" value="Regression"/>
  </GeneralInfo>
  <Options>
    <Option name="NCycles" modified="Yes">20000</Option>
    <Option name="HiddenLayers" modified="Yes">N,N</Option>
    <Option name="NeuronType" modified="Yes">tanh</Option>
    <Option name="RandomSeed" modified="No">1</Option>
    <Option name="EstimatorType" modified="No">MSE</Option>
    <Option name="NeuronInputType" modified="No">sum</Option>
    <Option name="V" modified="Yes">False</Option>
    <Option name="VerbosityLevel" modified="No">Default</Option>
    <Option name="VarTransform" modified="Yes">Norm</Option>
    <Option name="H" modified="Yes">False</Option>
    <Option name="CreateMVAPdfs" modified="No">False</Option>
    <Option name="IgnoreNegWeightsInTraining" modified="No">False</Option>
    <Option name="TrainingMethod" modified="Yes">BFGS</Option>
    <Option name="LearningRate" modified="No">2.000000e-02</Option>
    <Option name="DecayRate" modified="No">1.000000e-02</Option>
    <Option name="TestRate" modified="Yes">6</Option>
    <Option name="EpochMonitoring" modified="No">False</Option>
    <Option name="Sampling" modified="Yes">3.000000e-01</Option>
    <Option name="SamplingEpoch" modified="Yes">8.000000e-01</Option>
    <Option name="SamplingImportance" modified="No">1.000000e+00</Option>
    <Option name="SamplingTraining" modified="No">True</Option>
    <Option name="SamplingTesting" modified="No">False</Option>
    <Option name="ResetStep" modified="No">50</Option>
    <Option name="Tau" modified="No">3.000000e+00</Option>
    <Option name="BPMode" modified="No">sequential</Option>
    <Option name="BatchSize" modified="No">-1</Option>
    <Option name="ConvergenceImprove" modified="Yes">1.000000e-06</Option>
    <Option name="ConvergenceTests" modified="Yes">15</Option>
    <Option name="UseRegulator" modified="Yes">False</Option>
    <Option name="UpdateLimit" modified="No">10000</Option>
    <Option name="CalculateErrors" modified="No">False</Option>
    <Option name="WeightRange" modified="No">1.000000e+00</Option>
  </Options>
  <Variables NVar="9">
    <Variable VarIndex="0" Expression="U5" Label="U5" Title="U 235" Unit="FractionIsotopic" Internal="U5" Type="F" Min="2.30270298e-03" Max="4.67000641e-02"/>
    <Variable VarIndex="1" Expression="U8" Label="U8" Title="U 238" Unit="FractionIsotopic" Internal="U8" Type="F" Min="8.04198325e-01" Max="9.53872919e-01"/>
    <Variable VarIndex="2" Expression="Pu8" Label="Pu8" Title="Pu 238" Unit="FractionIsotopic" Internal="Pu8" Type="F" Min="2.39272078e-04" Max="1.25759691e-02"/>
    <Variable VarIndex="3" Expression="Pu9" Label="Pu9" Title="Pu 239" Unit="FractionIsotopic" Internal="Pu9" Type="F" Min="3.92307848e-04" Max="1.18448287e-01"/>
    <Variable VarIndex="4" Expression="Pu10" Label="Pu10" Title="Pu 240" Unit="FractionIsotopic" Internal="Pu10" Type="F" Min="4.57230024e-03" Max="6.08281456e-02"/>
    <Variable VarIndex="5" Expression="Pu11" Label="Pu11" Title="Pu 241" Unit="FractionIsotopic" Internal="Pu11" Type="F" Min="2.07281264e-05" Max="3.61828022e-02"/>
    <Variable VarIndex="6" Expression="Pu12" Label="Pu12" Title="Pu 242" Unit="FractionIsotopic" Internal="Pu12" Type="F" Min="6.52248855e-04" Max="5.31211868e-02"/>
    <Variable VarIndex="7" Expression="Am1" Label="Am1" Title="Am 241" Unit="FractionIsotopic" Internal="Am1" Type="F" Min="6.82462883e-07" Max="1.22549152e-02"/>
    <Variable VarIndex="8" Expression="Time" Label="Time" Title="Time" Unit="seconds" Internal="Time" Type="F" Min="0.00000000e+00" Max="1.89328304e+08"/>
  </Variables>
  <Spectators NSpec="0"/>
  <Classes NClass="1">
    <Class Name="Regression" Index="0"/>
  </Classes>
  <Targets NTrgt="1">
    <Target TargetIndex="0" Expression="XS_90_228_0_cap" Label="XS_90_228_0_cap" Title="XS_90_228_0_cap" Unit="" Internal="XS_90_228_0_cap" Type="F" Min="2.12307606e+01" Max="3.51706505e+01"/>
  </Targets>
  <Transformations NTransformations="1">
    <Transform Name="Normalize">
      <Selection>
        <Input NInputs="10">
          <Input Type="Variable" Label="U5" Expression="U5"/>
          <Input Type="Variable" Label="U8" Expression="U8"/>
          <Input Type="Variable" Label="Pu8" Expression="Pu8"/>
          <Input Type="Variable" Label="Pu9" Expression="Pu9"/>
          <Input Type="Variable" Label="Pu10" Expression="Pu10"/>
          <Input Type="Variable" Label="Pu11" Expression="Pu11"/>
          <Input Type="Variable" Label="Pu12" Expression="Pu12"/>
          <Input Type="Variable" Label="Am1" Expression="Am1"/>
          <Input Type="Variable" Label="Time" Expression="Time"/>
          <Input Type="Target" Label="XS_90_228_0_cap" Expression="XS_90_228_0_cap"/>
        </Input>
        <Output NOutputs="10">
          <Output Type="Variable" Label="U5" Expression="U5"/>
          <Output Type="Variable" Label="U8" Expression="U8"/>
          <Output Type="Variable" Label="Pu8" Expression="Pu8"/>
          <Output Type="Variable" Label="Pu9" Expression="Pu9"/>
          <Output Type="Variable" Label="Pu10" Expression="Pu10"/>
          <Output Type="Variable" Label="Pu11" Expression="Pu11"/>
          <Output Type="Variable" Label="Pu12" Expression="Pu12"/>
          <Output Type="Variable" Label="Am1" Expression="Am1"/>
          <Output Type="Variable" Label="Time" Expression="Time"/>
          <Output Type="Target" Label="XS_90_228_0_cap" Expression="XS_90_228_0_cap"/>
        </Output>
      </Selection>
      <Class ClassIndex="0">
        <Ranges>
          <Range Index="0" Min="2.3027029819786549e-03" Max="4.6700064092874527e-02"/>
          <Range Index="1" Min="8.0419832468032837e-01" Max="9.5387291908264160e-01"/>
          <Range Index="2" Min="2.3927207803353667e-04" Max="1.2575969099998474e-02"/>
          <Range Index="3" Min="3.9230784750543535e-04" Max="1.1844828724861145e-01"/>
          <Range Index="4" Min="4.5723002403974533e-03" Max="6.0828145593404770e-02"/>
          <Range Index="5" Min="2.0728126401081681e-05" Max="3.6182802170515060e-02"/>
          <Range Index="6" Min="6.5224885474890471e-04" Max="5.3121186792850494e-02"/>
          <Range Index="7" Min="6.8246288265072508e-07" Max="1.2254915200173855e-02"/>
          <Range Index="8" Min="0.0000000000000000e+00" Max="1.8932830400000000e+08"/>
          <Range Index="9" Min="2.1230760574340820e+01" Max="3.5170650482177734e+01"/>
        </Ranges>
      </Class>
    </Transform>
  </Transformations>
  <MVAPdfs/>
  <Weights>
    <Layout NLayers="4">
      <Layer Index="0" NNeurons="10">
        <Neuron NSynapses="9">
          -5.1415286008586658e-01 5.1077594079702049e-01 -2.5157417908380120e-01 8.9291372325128970e-01 -3.7389777578785194e-01 -1.9860554641964182e-02 9.3425526104284784e-02 1.2601972711425284e+00 -7.6299629295377658e-01 
        </Neuron>
        <Neuron NSynapses="9">
          -1.4715241738570013e+00 -2.9238493992931693e+00 -1.1374882071498913e+00 -1.6955220716879880e+00 -1.5543189865803630e+00 -4.0457370678616694e-01 1.0041060187629529e+00 -2.2172116203528311e+00 2.2537243533983138e+00 
        </Neuron>
        <Neuron NSynapses="9">
          -5.6797793003118921e-02 -3.3311628066088084e-01 -8.4560368984136658e-02 2.3165543960172227e-01 -7.0492584243383921e-02 8.7605589851489900e-03 -1.9582076137630475e-01 9.3639578423242845e-02 -3.4584373905695520e-02 
        </Neuron>
        <Neuron NSynapses="9">
          -1.1883295057529759e+00 7.3622413077725057e-01 -7.0954311585354468e-01 1.0984842702218747e+00 3.2651585461790122e+00 6.5677246444055315e-02 5.7406650487472188e-01 1.5505164772749238e+00 -1.9287056177093751e+00 
        </Neuron>
        <Neuron NSynapses="9">
          -1.3973278155757374e-01 7.3245682874570572e-01 -4.7478208004600975e-01 2.4019619819921048e-01 -4.1389727740816556e-01 1.0970103121995574e-01 1.3409529569204828e+00 1.1417903540631873e+00 -9.6953006799135166e-01 
        </Neuron>
        <Neuron NSynapses="9">
          -7.8846364264007318e-01 1.5497000082277161e+00 -1.9766013085284864e-01 1.8933330696539636e+00 1.1364013312727266e+00 -1.7296793271004023e-02 1.3269060097078780e+00 1.3859178696463474e+00 2.6134061307745743e-01 
        </Neuron>
        <Neuron NSynapses="9">
          -4.6745643953085303e-01 1.0671588380514696e+00 -4.9945230245332040e-01 -5.0521054631765017e-01 -6.2604881740089480e-01 6.7902118120585081e-02 -2.1821845210111224e-01 1.1297697302277163e+00 1.5732771252715967e+00 
        </Neuron>
        <Neuron NSynapses="9">
          -3.5175590739359414e-01 1.0360109205564043e+00 8.1604143708034357e-02 1.8506020092984001e+00 -7.6871379394402783e-01 -1.8888978223728852e-02 3.6294398181242482e-01 8.9250764173513364e-01 1.5594161217933836e-01 
        </Neuron>
        <Neuron NSynapses="9">
          5.1915184236062950e-01 -2.8371752478758788e-01 4.7007975690934378e-01 -2.6096718371888622e-01 -8.4225278003838666e-01 -4.5372281737761949e-02 3.6266653454304326e-02 -3.5708982881678314e-01 2.5661588673091179e-01 
        </Neuron>
        <Neuron NSynapses="9">
          -8.5123023440382792e-02 1.0696639645895151e-01 8.4727725215499983e-01 -9.7299305929538993e-01 9.3955212142397193e-01 1.1499833950864977e+00 -3.4253740030800630e+00 -1.7988144865965201e+00 -1.3224470631309186e+00 
        </Neuron>
      </Layer>
      <Layer Index="1" NNeurons="10">
        <Neuron NSynapses="9">
          6.0597154783566554e-01 -4.0772294749729576e-01 1.0420363084243724e+00 -1.7324991432256871e+00 -1.7732909490278564e-01 2.3640939178837530e+00 -6.9887229909551707e-01 -1.8198107251942954e+00 -1.7942228789843673e+00 
        </Neuron>
        <Neuron NSynapses="9">
          5.1503843223381751e-01 -1.8666504178728938e+00 -1.3861374549385563e+00 1.6924869120120187e+00 2.0920675567561126e-02 -2.7600834978098698e-01 1.4540417345779197e+00 -1.2410709667258237e+00 -4.9264517934230045e-01 
        </Neuron>
        <Neuron NSynapses="9">
          4.9660628782243460e-01 -7.5669359309127504e-01 -2.2084627970373352e+00 2.1820009534245726e+00 9.5229999442639135e-01 5.2371292633767508e-01 -1.3893440129605819e+00 1.1696527734972790e+00 1.9663562092610934e-01 
        </Neuron>
        <Neuron NSynapses="9">
          -6.1646811873338569e-01 3.6224390957026886e-01 -1.2255604354906300e+00 -4.8835642414258668e-01 7.1967872695620615e-03 -1.0591569597252002e+00 1.4466171628742031e+00 1.0621192129441297e+00 3.8339101433715506e-01 
        </Neuron>
        <Neuron NSynapses="9">
          -9.1790121004712566e-01 -6.0718819405959501e-01 -1.5281535479035024e+00 -1.3823469691533483e-01 2.5907011959579850e-02 -1.5329790401356931e+00 1.1617307464556577e+00 -1.0255756239576457e+00 3.3869047671134517e-01 
        </Neuron>
        <Neuron NSynapses="9">
          8.4842419883109454e-01 1.7487351334304264e+00 -1.5168956027174718e+00 2.9520670441717152e+00 1.5661737964875180e+00 1.8614488032208487e+00 4.3577908736343585e-01 -1.8269381991374296e+00 -4.8570028977460482e-02 
        </Neuron>
        <Neuron NSynapses="9">
          -7.5681001634494127e-01 1.2460919579818470e+00 9.8564123634461309e-01 7.8131000366954820e-02 -3.3875907488916601e-01 -1.8595372898966200e-01 -1.3363714248035583e+00 4.9182350157573301e-01 1.4650742769171701e+00 
        </Neuron>
        <Neuron NSynapses="9">
          -8.0823891897914002e-01 -2.1210404375305308e-01 5.6892833946087080e-02 1.4067578104429002e+00 2.7649645041810268e-02 4.6070595207457438e-01 -1.2230325051917768e+00 1.3253135384214545e+00 1.0176089410297384e+00 
        </Neuron>
        <Neuron NSynapses="9">
          -1.7599927383255237e-01 5.1950565506570090e-01 5.7783148254540828e-01 2.8511141504094284e-01 -3.1100004899528487e-02 4.2065655951572212e-01 -8.5904529159465437e-01 -2.9355441183390679e-01 1.1567655415954212e+00 
        </Neuron>
        <Neuron NSynapses="9">
          2.1667517439627666e+00 -1.1084100488817362e-01 9.6584678091564480e-01 1.8372547805376085e+00 -2.1481869410986199e+00 1.3021212733160024e+00 1.0026221052365433e-01 1.7767816644035334e-01 -2.0875143892463304e+00 
        </Neuron>
      </Layer>
      <Layer Index="2" NNeurons="10">
        <Neuron NSynapses="1">
          1.0622779710420429e+00 
        </Neuron>
        <Neuron NSynapses="1">
          -3.1489099232732555e-02 
        </Neuron>
        <Neuron NSynapses="1">
          -7.7308287632765825e-04 
        </Neuron>
        <Neuron NSynapses="1">
          -1.4572392789399042e+00 
        </Neuron>
        <Neuron NSynapses="1">
          -1.8096146258580421e+00 
        </Neuron>
        <Neuron NSynapses="1">
          -1.6578137283417175e-02 
        </Neuron>
        <Neuron NSynapses="1">
          1.0006559983183642e-02 
        </Neuron>
        <Neuron NSynapses="1">
          -1.3580645109006109e-03 
        </Neuron>
        <Neuron NSynapses="1">
          -3.1642559350997562e-01 
        </Neuron>
        <Neuron NSynapses="1">
          9.7384925206521672e-02 
        </Neuron>
      </Layer>
      <Layer Index="3" NNeurons="1">
        <Neuron NSynapses="0"/>
      </Layer>
    </Layout>
  </Weights>
</MethodSetup>
