<?xml version="1.0"?>
<MethodSetup Method="MLP::XS_82_206_0_cap">
  <GeneralInfo>
    <Info name="TMVA Release" value="4.2.0 [262656]"/>
    <Info name="ROOT Release" value="5.34/14 [336398]"/>
    <Info name="Creator" value="courtin"/>
    <Info name="Date" value="Thu Dec 17 17:41:40 2015"/>
    <Info name="Host" value="Linux nansl3.in2p3.fr 2.6.32-431.20.3.el6.x86_64 #1 SMP Thu Jun 19 14:01:59 CDT 2014 x86_64 x86_64 x86_64 GNU/Linux"/>
    <Info name="Dir" value="/scratch/spallati/courtin/WORK/BdD_MOxEUS/MOxEUS_NN/XSM/MLP/Train"/>
    <Info name="Training events" value="59870"/>
    <Info name="TrainingTime" value="1.04142550e+03"/>
    <Info name="AnalysisType" value="Regression"/>
  </GeneralInfo>
  <Options>
    <Option name="NCycles" modified="Yes">20000</Option>
    <Option name="HiddenLayers" modified="Yes">N,N</Option>
    <Option name="NeuronType" modified="Yes">tanh</Option>
    <Option name="RandomSeed" modified="No">1</Option>
    <Option name="EstimatorType" modified="No">MSE</Option>
    <Option name="NeuronInputType" modified="No">sum</Option>
    <Option name="V" modified="Yes">False</Option>
    <Option name="VerbosityLevel" modified="No">Default</Option>
    <Option name="VarTransform" modified="Yes">Norm</Option>
    <Option name="H" modified="Yes">False</Option>
    <Option name="CreateMVAPdfs" modified="No">False</Option>
    <Option name="IgnoreNegWeightsInTraining" modified="No">False</Option>
    <Option name="TrainingMethod" modified="Yes">BFGS</Option>
    <Option name="LearningRate" modified="No">2.000000e-02</Option>
    <Option name="DecayRate" modified="No">1.000000e-02</Option>
    <Option name="TestRate" modified="Yes">6</Option>
    <Option name="EpochMonitoring" modified="No">False</Option>
    <Option name="Sampling" modified="Yes">3.000000e-01</Option>
    <Option name="SamplingEpoch" modified="Yes">8.000000e-01</Option>
    <Option name="SamplingImportance" modified="No">1.000000e+00</Option>
    <Option name="SamplingTraining" modified="No">True</Option>
    <Option name="SamplingTesting" modified="No">False</Option>
    <Option name="ResetStep" modified="No">50</Option>
    <Option name="Tau" modified="No">3.000000e+00</Option>
    <Option name="BPMode" modified="No">sequential</Option>
    <Option name="BatchSize" modified="No">-1</Option>
    <Option name="ConvergenceImprove" modified="Yes">1.000000e-06</Option>
    <Option name="ConvergenceTests" modified="Yes">15</Option>
    <Option name="UseRegulator" modified="Yes">False</Option>
    <Option name="UpdateLimit" modified="No">10000</Option>
    <Option name="CalculateErrors" modified="No">False</Option>
    <Option name="WeightRange" modified="No">1.000000e+00</Option>
  </Options>
  <Variables NVar="9">
    <Variable VarIndex="0" Expression="U5" Label="U5" Title="U 235" Unit="FractionIsotopic" Internal="U5" Type="F" Min="2.30270298e-03" Max="4.67000641e-02"/>
    <Variable VarIndex="1" Expression="U8" Label="U8" Title="U 238" Unit="FractionIsotopic" Internal="U8" Type="F" Min="8.04198325e-01" Max="9.53872919e-01"/>
    <Variable VarIndex="2" Expression="Pu8" Label="Pu8" Title="Pu 238" Unit="FractionIsotopic" Internal="Pu8" Type="F" Min="2.39272078e-04" Max="1.25759691e-02"/>
    <Variable VarIndex="3" Expression="Pu9" Label="Pu9" Title="Pu 239" Unit="FractionIsotopic" Internal="Pu9" Type="F" Min="3.92307848e-04" Max="1.18448287e-01"/>
    <Variable VarIndex="4" Expression="Pu10" Label="Pu10" Title="Pu 240" Unit="FractionIsotopic" Internal="Pu10" Type="F" Min="4.57230024e-03" Max="6.08281456e-02"/>
    <Variable VarIndex="5" Expression="Pu11" Label="Pu11" Title="Pu 241" Unit="FractionIsotopic" Internal="Pu11" Type="F" Min="2.07281264e-05" Max="3.61828022e-02"/>
    <Variable VarIndex="6" Expression="Pu12" Label="Pu12" Title="Pu 242" Unit="FractionIsotopic" Internal="Pu12" Type="F" Min="6.52248855e-04" Max="5.31211868e-02"/>
    <Variable VarIndex="7" Expression="Am1" Label="Am1" Title="Am 241" Unit="FractionIsotopic" Internal="Am1" Type="F" Min="6.82462883e-07" Max="1.22549152e-02"/>
    <Variable VarIndex="8" Expression="Time" Label="Time" Title="Time" Unit="seconds" Internal="Time" Type="F" Min="0.00000000e+00" Max="1.89328304e+08"/>
  </Variables>
  <Spectators NSpec="0"/>
  <Classes NClass="1">
    <Class Name="Regression" Index="0"/>
  </Classes>
  <Targets NTrgt="1">
    <Target TargetIndex="0" Expression="XS_82_206_0_cap" Label="XS_82_206_0_cap" Title="XS_82_206_0_cap" Unit="" Internal="XS_82_206_0_cap" Type="F" Min="5.04379719e-03" Max="6.40964182e-03"/>
  </Targets>
  <Transformations NTransformations="1">
    <Transform Name="Normalize">
      <Selection>
        <Input NInputs="10">
          <Input Type="Variable" Label="U5" Expression="U5"/>
          <Input Type="Variable" Label="U8" Expression="U8"/>
          <Input Type="Variable" Label="Pu8" Expression="Pu8"/>
          <Input Type="Variable" Label="Pu9" Expression="Pu9"/>
          <Input Type="Variable" Label="Pu10" Expression="Pu10"/>
          <Input Type="Variable" Label="Pu11" Expression="Pu11"/>
          <Input Type="Variable" Label="Pu12" Expression="Pu12"/>
          <Input Type="Variable" Label="Am1" Expression="Am1"/>
          <Input Type="Variable" Label="Time" Expression="Time"/>
          <Input Type="Target" Label="XS_82_206_0_cap" Expression="XS_82_206_0_cap"/>
        </Input>
        <Output NOutputs="10">
          <Output Type="Variable" Label="U5" Expression="U5"/>
          <Output Type="Variable" Label="U8" Expression="U8"/>
          <Output Type="Variable" Label="Pu8" Expression="Pu8"/>
          <Output Type="Variable" Label="Pu9" Expression="Pu9"/>
          <Output Type="Variable" Label="Pu10" Expression="Pu10"/>
          <Output Type="Variable" Label="Pu11" Expression="Pu11"/>
          <Output Type="Variable" Label="Pu12" Expression="Pu12"/>
          <Output Type="Variable" Label="Am1" Expression="Am1"/>
          <Output Type="Variable" Label="Time" Expression="Time"/>
          <Output Type="Target" Label="XS_82_206_0_cap" Expression="XS_82_206_0_cap"/>
        </Output>
      </Selection>
      <Class ClassIndex="0">
        <Ranges>
          <Range Index="0" Min="2.3027029819786549e-03" Max="4.6700064092874527e-02"/>
          <Range Index="1" Min="8.0419832468032837e-01" Max="9.5387291908264160e-01"/>
          <Range Index="2" Min="2.3927207803353667e-04" Max="1.2575969099998474e-02"/>
          <Range Index="3" Min="3.9230784750543535e-04" Max="1.1844828724861145e-01"/>
          <Range Index="4" Min="4.5723002403974533e-03" Max="6.0828145593404770e-02"/>
          <Range Index="5" Min="2.0728126401081681e-05" Max="3.6182802170515060e-02"/>
          <Range Index="6" Min="6.5224885474890471e-04" Max="5.3121186792850494e-02"/>
          <Range Index="7" Min="6.8246288265072508e-07" Max="1.2254915200173855e-02"/>
          <Range Index="8" Min="0.0000000000000000e+00" Max="1.8932830400000000e+08"/>
          <Range Index="9" Min="5.0437971949577332e-03" Max="6.4096418209373951e-03"/>
        </Ranges>
      </Class>
    </Transform>
  </Transformations>
  <MVAPdfs/>
  <Weights>
    <Layout NLayers="4">
      <Layer Index="0" NNeurons="10">
        <Neuron NSynapses="9">
          -7.0771676225600844e-01 7.7281855094759833e-01 -6.9017694712636224e-01 7.3171004662827732e-01 -8.8004765449546107e-02 -1.3319318580556396e+00 -3.9674992568809014e-01 1.0795664494231036e+00 -4.5316994961999313e-02 
        </Neuron>
        <Neuron NSynapses="9">
          -1.9220991524317768e+00 -1.4348491219833142e+00 -7.8861562136584407e-01 1.0124095047326866e+00 2.2195985779963770e-01 -1.5598446087694056e+00 1.0420135920660369e+00 -1.3179473857837378e+00 9.4689081629963534e-01 
        </Neuron>
        <Neuron NSynapses="9">
          2.4855223329431456e-01 1.8317373367300851e+00 -1.0271242663323294e+00 3.3069375336778889e-01 -1.1859820879608042e-01 -5.8065497275268929e-01 -1.2123828872581117e-01 1.0313557545268237e+00 -9.5240805750082980e-02 
        </Neuron>
        <Neuron NSynapses="9">
          -2.3139702067281647e+00 8.1543975978623162e-01 4.4288101078458292e-01 8.8318658358978674e-01 1.6090722814390159e+00 7.0490667711697430e-01 6.4885270614564483e-01 2.4488530921042218e+00 -6.6581679704077468e-01 
        </Neuron>
        <Neuron NSynapses="9">
          -5.8579293792638587e-01 2.0496103564162516e+00 -1.8202159337172641e+00 8.6245283951797513e-01 -7.9237294622128307e-02 -2.9637318900359511e-01 1.3817902055482605e+00 2.2346674583997506e+00 -3.1113767476987603e-01 
        </Neuron>
        <Neuron NSynapses="9">
          -1.2240396512709630e+00 1.8073786456409069e+00 -8.1495657800561128e-01 1.6774268824085499e+00 2.1882780211871197e-01 -8.4458414055370246e-02 1.5964952154266818e+00 3.8023986873925425e-01 -9.9063358537708784e-02 
        </Neuron>
        <Neuron NSynapses="9">
          -1.2148438892011175e+00 -7.5393046455622537e-01 -2.4420086015040523e+00 7.6038894507056964e-01 -1.1677566166846205e-01 -1.9842606214200134e+00 3.3806322849785841e-01 1.1424089313888981e+00 2.6849098408750793e-01 
        </Neuron>
        <Neuron NSynapses="9">
          -6.7745009091103559e-01 2.3270081585746172e+00 -1.6790813748110553e+00 8.2704973458153419e-01 9.2217861200622891e-02 -1.4216997692381461e+00 8.0333814630425882e-01 1.9675392124088311e+00 -8.0136855796290776e-02 
        </Neuron>
        <Neuron NSynapses="9">
          5.5853033358877158e-01 -1.1113188404074266e+00 1.0450538920735143e-01 -2.4705629770624554e-02 -8.0338894256048066e-01 -8.0605787387896555e-01 -2.2692422440969984e-01 1.1570553464191445e-02 2.1208916613639239e-01 
        </Neuron>
        <Neuron NSynapses="9">
          2.6339347806474120e+00 -2.4714180749241401e+00 1.4521452161084998e+00 -5.2509516899447579e+00 -5.1079989696982804e-02 4.0936558064604371e+00 -3.8041791504664073e+00 -4.4609305661984378e+00 -7.3254253428476368e-01 
        </Neuron>
      </Layer>
      <Layer Index="1" NNeurons="10">
        <Neuron NSynapses="9">
          1.6545296905399216e+00 9.4201976410060151e-01 7.1798383389654952e-01 6.0729496604464223e-02 -2.4613033782441076e+00 2.0957316053884978e+00 -5.6231070803275895e-01 -1.7859640155644172e+00 -2.2078845646396066e+00 
        </Neuron>
        <Neuron NSynapses="9">
          1.3095756594179966e+00 -2.1096055255450681e+00 8.4166801030855665e-02 2.3394454576890178e+00 -3.6796141444419878e-01 3.7903579906369372e-01 -2.7083984086553194e-02 -3.7898239017709345e-01 -3.1340260187441138e-01 
        </Neuron>
        <Neuron NSynapses="9">
          7.7840225312546618e-01 -2.2672123145557965e-01 -1.9663441124000545e+00 5.3665658317815557e-01 1.6512291567171200e+00 6.4255568028019405e-02 -2.5741731733471918e-01 1.3429609373496383e+00 1.3290987315713232e-01 
        </Neuron>
        <Neuron NSynapses="9">
          7.2144921324060154e-02 1.2845197130332089e-01 -1.5461554016643033e+00 1.2548111259091749e-01 5.1664832975384756e-01 -7.2384529881908699e-01 1.4955198793202193e+00 1.1508245262572561e+00 1.1505853182199905e+00 
        </Neuron>
        <Neuron NSynapses="9">
          -1.2077737991299000e+00 1.6631166710249998e-01 -2.5688547795158412e+00 1.1081635977254214e-01 7.5062638691496164e-01 -2.8861566784124872e+00 7.4904759688069544e-01 -1.3999486499343552e+00 5.5786230338715148e-01 
        </Neuron>
        <Neuron NSynapses="9">
          8.9534847809457652e-01 2.6879455593108235e+00 -1.8691480538608363e+00 2.3535280978999649e+00 -5.2719212163534340e-02 1.3234014606627251e+00 4.2744937004018706e-02 -1.8145440570791893e+00 2.9086221869801854e-02 
        </Neuron>
        <Neuron NSynapses="9">
          3.0591413202627524e-02 3.4449823373754151e-01 1.1584690627241201e+00 7.9655233251244961e-01 4.1993946707422447e-01 1.0225986548074883e-01 -1.4350770396515591e+00 4.0643762495132263e-01 1.0690729073619798e+00 
        </Neuron>
        <Neuron NSynapses="9">
          -1.0436640419892549e+00 -1.3045587472766071e+00 5.1338781873028183e-01 2.8016301421527351e-01 7.1417271851017838e-01 5.5418832203518964e-01 -8.0198407308940267e-01 1.4338383215489665e+00 1.6200433249314503e+00 
        </Neuron>
        <Neuron NSynapses="9">
          -1.2745107717103175e+00 -9.4657640833324830e-01 2.6387157763569609e+00 -2.5095158710895298e+00 1.4967375418902358e+00 9.8930052866985252e-02 -7.6570912002955860e-01 -2.7928007877929839e-01 4.5095497652074368e-01 
        </Neuron>
        <Neuron NSynapses="9">
          3.8436990426136228e+00 9.7900296726028924e-01 9.3326942553088998e-01 3.4452029899012260e+00 -4.1504644890137277e+00 1.1822306113640013e+00 2.7281209477344320e-01 2.5184697595480299e-01 -2.8701493526185327e+00 
        </Neuron>
      </Layer>
      <Layer Index="2" NNeurons="10">
        <Neuron NSynapses="1">
          2.3070961928593512e+00 
        </Neuron>
        <Neuron NSynapses="1">
          -1.2603700714089808e-01 
        </Neuron>
        <Neuron NSynapses="1">
          2.8835583835310492e-02 
        </Neuron>
        <Neuron NSynapses="1">
          -1.4025664234568518e+00 
        </Neuron>
        <Neuron NSynapses="1">
          -4.9915878837945513e+00 
        </Neuron>
        <Neuron NSynapses="1">
          6.6095535978565345e-01 
        </Neuron>
        <Neuron NSynapses="1">
          -1.5257594237599717e-01 
        </Neuron>
        <Neuron NSynapses="1">
          6.7332524674759109e-01 
        </Neuron>
        <Neuron NSynapses="1">
          3.2784683435345614e+00 
        </Neuron>
        <Neuron NSynapses="1">
          -2.6217825630744267e+00 
        </Neuron>
      </Layer>
      <Layer Index="3" NNeurons="1">
        <Neuron NSynapses="0"/>
      </Layer>
    </Layout>
  </Weights>
</MethodSetup>
