<?xml version="1.0"?>
<MethodSetup Method="MLP::XS_29_63_0_n2n">
  <GeneralInfo>
    <Info name="TMVA Release" value="4.2.0 [262656]"/>
    <Info name="ROOT Release" value="5.34/14 [336398]"/>
    <Info name="Creator" value="courtin"/>
    <Info name="Date" value="Thu Dec 17 21:45:52 2015"/>
    <Info name="Host" value="Linux nansl3.in2p3.fr 2.6.32-431.20.3.el6.x86_64 #1 SMP Thu Jun 19 14:01:59 CDT 2014 x86_64 x86_64 x86_64 GNU/Linux"/>
    <Info name="Dir" value="/scratch/spallati/courtin/WORK/BdD_MOxEUS/MOxEUS_NN/XSM/MLP/Train"/>
    <Info name="Training events" value="59870"/>
    <Info name="TrainingTime" value="9.00997743e+02"/>
    <Info name="AnalysisType" value="Regression"/>
  </GeneralInfo>
  <Options>
    <Option name="NCycles" modified="Yes">20000</Option>
    <Option name="HiddenLayers" modified="Yes">N,N</Option>
    <Option name="NeuronType" modified="Yes">tanh</Option>
    <Option name="RandomSeed" modified="No">1</Option>
    <Option name="EstimatorType" modified="No">MSE</Option>
    <Option name="NeuronInputType" modified="No">sum</Option>
    <Option name="V" modified="Yes">False</Option>
    <Option name="VerbosityLevel" modified="No">Default</Option>
    <Option name="VarTransform" modified="Yes">Norm</Option>
    <Option name="H" modified="Yes">False</Option>
    <Option name="CreateMVAPdfs" modified="No">False</Option>
    <Option name="IgnoreNegWeightsInTraining" modified="No">False</Option>
    <Option name="TrainingMethod" modified="Yes">BFGS</Option>
    <Option name="LearningRate" modified="No">2.000000e-02</Option>
    <Option name="DecayRate" modified="No">1.000000e-02</Option>
    <Option name="TestRate" modified="Yes">6</Option>
    <Option name="EpochMonitoring" modified="No">False</Option>
    <Option name="Sampling" modified="Yes">3.000000e-01</Option>
    <Option name="SamplingEpoch" modified="Yes">8.000000e-01</Option>
    <Option name="SamplingImportance" modified="No">1.000000e+00</Option>
    <Option name="SamplingTraining" modified="No">True</Option>
    <Option name="SamplingTesting" modified="No">False</Option>
    <Option name="ResetStep" modified="No">50</Option>
    <Option name="Tau" modified="No">3.000000e+00</Option>
    <Option name="BPMode" modified="No">sequential</Option>
    <Option name="BatchSize" modified="No">-1</Option>
    <Option name="ConvergenceImprove" modified="Yes">1.000000e-06</Option>
    <Option name="ConvergenceTests" modified="Yes">15</Option>
    <Option name="UseRegulator" modified="Yes">False</Option>
    <Option name="UpdateLimit" modified="No">10000</Option>
    <Option name="CalculateErrors" modified="No">False</Option>
    <Option name="WeightRange" modified="No">1.000000e+00</Option>
  </Options>
  <Variables NVar="9">
    <Variable VarIndex="0" Expression="U5" Label="U5" Title="U 235" Unit="FractionIsotopic" Internal="U5" Type="F" Min="2.30270298e-03" Max="4.67000641e-02"/>
    <Variable VarIndex="1" Expression="U8" Label="U8" Title="U 238" Unit="FractionIsotopic" Internal="U8" Type="F" Min="8.04198325e-01" Max="9.53872919e-01"/>
    <Variable VarIndex="2" Expression="Pu8" Label="Pu8" Title="Pu 238" Unit="FractionIsotopic" Internal="Pu8" Type="F" Min="2.39272078e-04" Max="1.25759691e-02"/>
    <Variable VarIndex="3" Expression="Pu9" Label="Pu9" Title="Pu 239" Unit="FractionIsotopic" Internal="Pu9" Type="F" Min="3.92307848e-04" Max="1.18448287e-01"/>
    <Variable VarIndex="4" Expression="Pu10" Label="Pu10" Title="Pu 240" Unit="FractionIsotopic" Internal="Pu10" Type="F" Min="4.57230024e-03" Max="6.08281456e-02"/>
    <Variable VarIndex="5" Expression="Pu11" Label="Pu11" Title="Pu 241" Unit="FractionIsotopic" Internal="Pu11" Type="F" Min="2.07281264e-05" Max="3.61828022e-02"/>
    <Variable VarIndex="6" Expression="Pu12" Label="Pu12" Title="Pu 242" Unit="FractionIsotopic" Internal="Pu12" Type="F" Min="6.52248855e-04" Max="5.31211868e-02"/>
    <Variable VarIndex="7" Expression="Am1" Label="Am1" Title="Am 241" Unit="FractionIsotopic" Internal="Am1" Type="F" Min="6.82462883e-07" Max="1.22549152e-02"/>
    <Variable VarIndex="8" Expression="Time" Label="Time" Title="Time" Unit="seconds" Internal="Time" Type="F" Min="0.00000000e+00" Max="1.89328304e+08"/>
  </Variables>
  <Spectators NSpec="0"/>
  <Classes NClass="1">
    <Class Name="Regression" Index="0"/>
  </Classes>
  <Targets NTrgt="1">
    <Target TargetIndex="0" Expression="XS_29_63_0_n2n" Label="XS_29_63_0_n2n" Title="XS_29_63_0_n2n" Unit="" Internal="XS_29_63_0_n2n" Type="F" Min="2.40867703e-05" Max="1.02561396e-04"/>
  </Targets>
  <Transformations NTransformations="1">
    <Transform Name="Normalize">
      <Selection>
        <Input NInputs="10">
          <Input Type="Variable" Label="U5" Expression="U5"/>
          <Input Type="Variable" Label="U8" Expression="U8"/>
          <Input Type="Variable" Label="Pu8" Expression="Pu8"/>
          <Input Type="Variable" Label="Pu9" Expression="Pu9"/>
          <Input Type="Variable" Label="Pu10" Expression="Pu10"/>
          <Input Type="Variable" Label="Pu11" Expression="Pu11"/>
          <Input Type="Variable" Label="Pu12" Expression="Pu12"/>
          <Input Type="Variable" Label="Am1" Expression="Am1"/>
          <Input Type="Variable" Label="Time" Expression="Time"/>
          <Input Type="Target" Label="XS_29_63_0_n2n" Expression="XS_29_63_0_n2n"/>
        </Input>
        <Output NOutputs="10">
          <Output Type="Variable" Label="U5" Expression="U5"/>
          <Output Type="Variable" Label="U8" Expression="U8"/>
          <Output Type="Variable" Label="Pu8" Expression="Pu8"/>
          <Output Type="Variable" Label="Pu9" Expression="Pu9"/>
          <Output Type="Variable" Label="Pu10" Expression="Pu10"/>
          <Output Type="Variable" Label="Pu11" Expression="Pu11"/>
          <Output Type="Variable" Label="Pu12" Expression="Pu12"/>
          <Output Type="Variable" Label="Am1" Expression="Am1"/>
          <Output Type="Variable" Label="Time" Expression="Time"/>
          <Output Type="Target" Label="XS_29_63_0_n2n" Expression="XS_29_63_0_n2n"/>
        </Output>
      </Selection>
      <Class ClassIndex="0">
        <Ranges>
          <Range Index="0" Min="2.3027029819786549e-03" Max="4.6700064092874527e-02"/>
          <Range Index="1" Min="8.0419832468032837e-01" Max="9.5387291908264160e-01"/>
          <Range Index="2" Min="2.3927207803353667e-04" Max="1.2575969099998474e-02"/>
          <Range Index="3" Min="3.9230784750543535e-04" Max="1.1844828724861145e-01"/>
          <Range Index="4" Min="4.5723002403974533e-03" Max="6.0828145593404770e-02"/>
          <Range Index="5" Min="2.0728126401081681e-05" Max="3.6182802170515060e-02"/>
          <Range Index="6" Min="6.5224885474890471e-04" Max="5.3121186792850494e-02"/>
          <Range Index="7" Min="6.8246288265072508e-07" Max="1.2254915200173855e-02"/>
          <Range Index="8" Min="0.0000000000000000e+00" Max="1.8932830400000000e+08"/>
          <Range Index="9" Min="2.4086770281428471e-05" Max="1.0256139648845419e-04"/>
        </Ranges>
      </Class>
    </Transform>
  </Transformations>
  <MVAPdfs/>
  <Weights>
    <Layout NLayers="4">
      <Layer Index="0" NNeurons="10">
        <Neuron NSynapses="9">
          -5.1196110234355086e-01 1.3040348752052624e+00 6.1677080162766262e-01 6.9764456777371164e-01 -1.9984805745552949e+00 -1.8477758769156025e+00 -1.2025911851984334e+00 3.3362373672899959e-01 -1.3824203151750993e+00 
        </Neuron>
        <Neuron NSynapses="9">
          -1.5122514618571579e+00 -2.3790177509040649e+00 6.0115178943881764e-01 -1.0599270942072685e+00 1.3562340977057938e-01 -9.4875606578375760e-01 2.9872511598625073e-01 8.6840559749698909e-01 1.4495666690206994e+00 
        </Neuron>
        <Neuron NSynapses="9">
          3.4109016153632604e-01 7.5602205149466362e-01 -4.4613762310869443e-02 -3.2116134422692066e-01 4.3327276289684674e-01 -1.0509549780233206e-01 -3.4487470966617549e-02 -5.7980051304693435e-02 1.8591286209962721e+00 
        </Neuron>
        <Neuron NSynapses="9">
          -1.6513309318243452e+00 -7.8759800914367095e-01 -7.1064242069138273e-01 9.8033900165367083e-01 1.5059218720914878e+00 5.8727905291064819e-01 2.4719514799384940e-01 1.9070287484318693e-01 -5.9064665825735808e-02 
        </Neuron>
        <Neuron NSynapses="9">
          -1.1995189511925308e+00 1.4471996112339804e+00 -8.3638407576000884e-01 1.0582539107094697e+00 1.5761727542570203e+00 1.4795848067475015e+00 2.2212601507854708e+00 1.0313207664032067e+00 -2.3423691265581228e-01 
        </Neuron>
        <Neuron NSynapses="9">
          -1.4925947606069117e+00 1.0013154331628185e+00 -7.2875419720454737e-01 1.9336154529500700e+00 2.1389656256477059e+00 1.7474799390563229e+00 1.5159954851475070e+00 -1.6649602483548136e+00 1.6294760596446058e+00 
        </Neuron>
        <Neuron NSynapses="9">
          -1.3820084165379001e+00 -1.0022782287436656e+00 -1.1994122846972209e-01 -6.3161035534766530e-01 1.9021977478944900e+00 5.8481332765677596e-01 -8.4368640417413709e-01 3.0259793412394281e-01 4.5493622293927560e-02 
        </Neuron>
        <Neuron NSynapses="9">
          2.5211021579763526e-01 1.7157098735067671e+00 -3.5763135096816651e-01 3.4370580131136885e-01 -2.1701784759575421e-01 4.5076442251856985e-01 1.8701541299040611e-01 5.8057636698429904e-01 -9.8439938885828226e-01 
        </Neuron>
        <Neuron NSynapses="9">
          4.4752604407189572e-01 2.2624342818921828e+00 -7.3891977422944996e-02 1.9181579086952968e-01 -8.4793221040020106e-01 -2.7614567747025331e-01 5.9984991663699239e-01 -2.0637418793384472e+00 1.4657408765639603e+00 
        </Neuron>
        <Neuron NSynapses="9">
          1.6205374877950263e+00 1.3251334496177212e+00 -1.7300894983379309e+00 -1.8010508184970879e+00 -1.5703810685029842e+00 4.7924109985206298e-01 -1.7487593141457520e+00 -2.6875895949482480e+00 -2.1961125621565443e+00 
        </Neuron>
      </Layer>
      <Layer Index="1" NNeurons="10">
        <Neuron NSynapses="9">
          4.9956912357454114e-01 -8.5565842989761109e-02 1.8324890120747093e+00 -1.4377464337180135e+00 -1.1625839949244778e+00 1.5419073905346188e+00 -1.0486849098995359e+00 -1.4895906731856012e+00 -1.9328348445639898e+00 
        </Neuron>
        <Neuron NSynapses="9">
          5.7080092277260785e-01 -1.3820105182478906e+00 -1.6521388620757771e+00 1.9170483556713203e-01 1.2110282269384243e+00 -6.2966156621888847e-01 1.5833852407945919e+00 1.0699953275075856e-01 -4.9931490564870151e-01 
        </Neuron>
        <Neuron NSynapses="9">
          -1.9969370607984331e+00 9.9908766942127705e-02 -1.1985289945496971e+00 1.1952441485338419e+00 1.0657241620229330e+00 1.0012079945474085e-02 -7.7214184792948104e-01 1.4557520225050866e+00 2.1430312034399260e-01 
        </Neuron>
        <Neuron NSynapses="9">
          3.5835139510353975e-01 8.0044345377567871e-01 -2.7094928706997068e-01 -6.0474766808022340e-01 9.0627520881445067e-01 -9.5900993401562207e-01 1.9036173737430993e+00 8.8607360106834876e-01 5.8172371941711321e-01 
        </Neuron>
        <Neuron NSynapses="9">
          -7.5806157300449473e-01 -8.1541655402838392e-02 -2.2330952989319361e+00 -3.1493585067124535e-01 3.0417659709012701e-01 -1.2723558027013513e+00 4.7042462826320630e-01 -1.3009940178042574e+00 3.7776380438481949e-01 
        </Neuron>
        <Neuron NSynapses="9">
          9.2682215071427287e-01 1.9447103336666118e+00 -1.8266576596988473e+00 -1.5950551436048510e-01 1.1270668932373915e+00 2.0249984510292958e+00 -1.3656540179824381e-01 -9.1097989787670441e-01 -9.9036210136454347e-02 
        </Neuron>
        <Neuron NSynapses="9">
          -9.5967583492561914e-01 1.3172154547279771e+00 5.1026213188301517e-01 -7.3177574102455678e-01 -2.2781267607989292e-01 2.0640059659782434e-01 -1.0271872322002569e+00 2.9090823381778969e-01 1.1398046284682719e+00 
        </Neuron>
        <Neuron NSynapses="9">
          -1.3609220150003040e-01 -9.5290787250415843e-01 3.8229778003072262e-01 1.3458913539626971e+00 5.7647698137636161e-01 1.0867916590152009e+00 -1.3857608749915242e+00 1.9509827513238400e+00 1.1740592754128054e+00 
        </Neuron>
        <Neuron NSynapses="9">
          -3.8849363785498903e-01 4.1797626406461075e-01 2.9286160017196922e-01 -1.7309874710350420e-01 -4.0524322583223427e-01 8.1505004976730522e-01 -6.0968410533695916e-01 -6.3605189145973717e-01 1.0838396173788021e+00 
        </Neuron>
        <Neuron NSynapses="9">
          2.3330483283153809e+00 -1.1133499876343361e-01 1.7771825139038286e+00 1.8035701255152066e+00 -2.3921207838057401e+00 6.9103768664093479e-01 -1.4340866805678026e-01 5.4391068015771604e-01 -2.3266269682827945e+00 
        </Neuron>
      </Layer>
      <Layer Index="2" NNeurons="10">
        <Neuron NSynapses="1">
          7.5763592299061655e-01 
        </Neuron>
        <Neuron NSynapses="1">
          1.6505251469027104e-02 
        </Neuron>
        <Neuron NSynapses="1">
          -2.2423537412888838e-02 
        </Neuron>
        <Neuron NSynapses="1">
          -5.7219638303282479e-02 
        </Neuron>
        <Neuron NSynapses="1">
          -3.3816543606653143e-01 
        </Neuron>
        <Neuron NSynapses="1">
          1.9528197236941058e-02 
        </Neuron>
        <Neuron NSynapses="1">
          2.4022746444424415e-02 
        </Neuron>
        <Neuron NSynapses="1">
          -5.2346050515922601e-02 
        </Neuron>
        <Neuron NSynapses="1">
          8.0804703782327125e-01 
        </Neuron>
        <Neuron NSynapses="1">
          -5.1946206987302135e-01 
        </Neuron>
      </Layer>
      <Layer Index="3" NNeurons="1">
        <Neuron NSynapses="0"/>
      </Layer>
    </Layout>
  </Weights>
</MethodSetup>
