<?xml version="1.0"?>
<MethodSetup Method="MLP::XS_63_154_0_n2n">
  <GeneralInfo>
    <Info name="TMVA Release" value="4.2.0 [262656]"/>
    <Info name="ROOT Release" value="5.34/14 [336398]"/>
    <Info name="Creator" value="courtin"/>
    <Info name="Date" value="Thu Dec 17 20:08:57 2015"/>
    <Info name="Host" value="Linux nansl3.in2p3.fr 2.6.32-431.20.3.el6.x86_64 #1 SMP Thu Jun 19 14:01:59 CDT 2014 x86_64 x86_64 x86_64 GNU/Linux"/>
    <Info name="Dir" value="/scratch/spallati/courtin/WORK/BdD_MOxEUS/MOxEUS_NN/XSM/MLP/Train"/>
    <Info name="Training events" value="59870"/>
    <Info name="TrainingTime" value="8.62887360e+02"/>
    <Info name="AnalysisType" value="Regression"/>
  </GeneralInfo>
  <Options>
    <Option name="NCycles" modified="Yes">20000</Option>
    <Option name="HiddenLayers" modified="Yes">N,N</Option>
    <Option name="NeuronType" modified="Yes">tanh</Option>
    <Option name="RandomSeed" modified="No">1</Option>
    <Option name="EstimatorType" modified="No">MSE</Option>
    <Option name="NeuronInputType" modified="No">sum</Option>
    <Option name="V" modified="Yes">False</Option>
    <Option name="VerbosityLevel" modified="No">Default</Option>
    <Option name="VarTransform" modified="Yes">Norm</Option>
    <Option name="H" modified="Yes">False</Option>
    <Option name="CreateMVAPdfs" modified="No">False</Option>
    <Option name="IgnoreNegWeightsInTraining" modified="No">False</Option>
    <Option name="TrainingMethod" modified="Yes">BFGS</Option>
    <Option name="LearningRate" modified="No">2.000000e-02</Option>
    <Option name="DecayRate" modified="No">1.000000e-02</Option>
    <Option name="TestRate" modified="Yes">6</Option>
    <Option name="EpochMonitoring" modified="No">False</Option>
    <Option name="Sampling" modified="Yes">3.000000e-01</Option>
    <Option name="SamplingEpoch" modified="Yes">8.000000e-01</Option>
    <Option name="SamplingImportance" modified="No">1.000000e+00</Option>
    <Option name="SamplingTraining" modified="No">True</Option>
    <Option name="SamplingTesting" modified="No">False</Option>
    <Option name="ResetStep" modified="No">50</Option>
    <Option name="Tau" modified="No">3.000000e+00</Option>
    <Option name="BPMode" modified="No">sequential</Option>
    <Option name="BatchSize" modified="No">-1</Option>
    <Option name="ConvergenceImprove" modified="Yes">1.000000e-06</Option>
    <Option name="ConvergenceTests" modified="Yes">15</Option>
    <Option name="UseRegulator" modified="Yes">False</Option>
    <Option name="UpdateLimit" modified="No">10000</Option>
    <Option name="CalculateErrors" modified="No">False</Option>
    <Option name="WeightRange" modified="No">1.000000e+00</Option>
  </Options>
  <Variables NVar="9">
    <Variable VarIndex="0" Expression="U5" Label="U5" Title="U 235" Unit="FractionIsotopic" Internal="U5" Type="F" Min="2.30270298e-03" Max="4.67000641e-02"/>
    <Variable VarIndex="1" Expression="U8" Label="U8" Title="U 238" Unit="FractionIsotopic" Internal="U8" Type="F" Min="8.04198325e-01" Max="9.53872919e-01"/>
    <Variable VarIndex="2" Expression="Pu8" Label="Pu8" Title="Pu 238" Unit="FractionIsotopic" Internal="Pu8" Type="F" Min="2.39272078e-04" Max="1.25759691e-02"/>
    <Variable VarIndex="3" Expression="Pu9" Label="Pu9" Title="Pu 239" Unit="FractionIsotopic" Internal="Pu9" Type="F" Min="3.92307848e-04" Max="1.18448287e-01"/>
    <Variable VarIndex="4" Expression="Pu10" Label="Pu10" Title="Pu 240" Unit="FractionIsotopic" Internal="Pu10" Type="F" Min="4.57230024e-03" Max="6.08281456e-02"/>
    <Variable VarIndex="5" Expression="Pu11" Label="Pu11" Title="Pu 241" Unit="FractionIsotopic" Internal="Pu11" Type="F" Min="2.07281264e-05" Max="3.61828022e-02"/>
    <Variable VarIndex="6" Expression="Pu12" Label="Pu12" Title="Pu 242" Unit="FractionIsotopic" Internal="Pu12" Type="F" Min="6.52248855e-04" Max="5.31211868e-02"/>
    <Variable VarIndex="7" Expression="Am1" Label="Am1" Title="Am 241" Unit="FractionIsotopic" Internal="Am1" Type="F" Min="6.82462883e-07" Max="1.22549152e-02"/>
    <Variable VarIndex="8" Expression="Time" Label="Time" Title="Time" Unit="seconds" Internal="Time" Type="F" Min="0.00000000e+00" Max="1.89328304e+08"/>
  </Variables>
  <Spectators NSpec="0"/>
  <Classes NClass="1">
    <Class Name="Regression" Index="0"/>
  </Classes>
  <Targets NTrgt="1">
    <Target TargetIndex="0" Expression="XS_63_154_0_n2n" Label="XS_63_154_0_n2n" Title="XS_63_154_0_n2n" Unit="" Internal="XS_63_154_0_n2n" Type="F" Min="2.70256400e-03" Max="4.20263410e-03"/>
  </Targets>
  <Transformations NTransformations="1">
    <Transform Name="Normalize">
      <Selection>
        <Input NInputs="10">
          <Input Type="Variable" Label="U5" Expression="U5"/>
          <Input Type="Variable" Label="U8" Expression="U8"/>
          <Input Type="Variable" Label="Pu8" Expression="Pu8"/>
          <Input Type="Variable" Label="Pu9" Expression="Pu9"/>
          <Input Type="Variable" Label="Pu10" Expression="Pu10"/>
          <Input Type="Variable" Label="Pu11" Expression="Pu11"/>
          <Input Type="Variable" Label="Pu12" Expression="Pu12"/>
          <Input Type="Variable" Label="Am1" Expression="Am1"/>
          <Input Type="Variable" Label="Time" Expression="Time"/>
          <Input Type="Target" Label="XS_63_154_0_n2n" Expression="XS_63_154_0_n2n"/>
        </Input>
        <Output NOutputs="10">
          <Output Type="Variable" Label="U5" Expression="U5"/>
          <Output Type="Variable" Label="U8" Expression="U8"/>
          <Output Type="Variable" Label="Pu8" Expression="Pu8"/>
          <Output Type="Variable" Label="Pu9" Expression="Pu9"/>
          <Output Type="Variable" Label="Pu10" Expression="Pu10"/>
          <Output Type="Variable" Label="Pu11" Expression="Pu11"/>
          <Output Type="Variable" Label="Pu12" Expression="Pu12"/>
          <Output Type="Variable" Label="Am1" Expression="Am1"/>
          <Output Type="Variable" Label="Time" Expression="Time"/>
          <Output Type="Target" Label="XS_63_154_0_n2n" Expression="XS_63_154_0_n2n"/>
        </Output>
      </Selection>
      <Class ClassIndex="0">
        <Ranges>
          <Range Index="0" Min="2.3027029819786549e-03" Max="4.6700064092874527e-02"/>
          <Range Index="1" Min="8.0419832468032837e-01" Max="9.5387291908264160e-01"/>
          <Range Index="2" Min="2.3927207803353667e-04" Max="1.2575969099998474e-02"/>
          <Range Index="3" Min="3.9230784750543535e-04" Max="1.1844828724861145e-01"/>
          <Range Index="4" Min="4.5723002403974533e-03" Max="6.0828145593404770e-02"/>
          <Range Index="5" Min="2.0728126401081681e-05" Max="3.6182802170515060e-02"/>
          <Range Index="6" Min="6.5224885474890471e-04" Max="5.3121186792850494e-02"/>
          <Range Index="7" Min="6.8246288265072508e-07" Max="1.2254915200173855e-02"/>
          <Range Index="8" Min="0.0000000000000000e+00" Max="1.8932830400000000e+08"/>
          <Range Index="9" Min="2.7025640010833740e-03" Max="4.2026340961456299e-03"/>
        </Ranges>
      </Class>
    </Transform>
  </Transformations>
  <MVAPdfs/>
  <Weights>
    <Layout NLayers="4">
      <Layer Index="0" NNeurons="10">
        <Neuron NSynapses="9">
          -3.5230089179149510e-01 8.6129020364345821e-01 8.3518336621690914e-01 -8.2371392254756071e-01 -1.7319807593403227e+00 -9.6769987547413439e-01 -5.4169965323864822e-01 6.1377959149790340e-01 -9.3244925548585234e-01 
        </Neuron>
        <Neuron NSynapses="9">
          -1.4438194111488949e+00 -2.6658285424115209e+00 1.6421991572642360e+00 -2.0656255203189220e+00 -1.3384079346943214e+00 -1.0288390952837434e+00 8.2115166012763752e-01 1.2910396766665362e+00 2.0575469534697848e+00 
        </Neuron>
        <Neuron NSynapses="9">
          3.1000669491182509e-01 1.1249394638041341e+00 -1.4234313929661202e-01 -2.6961493646483881e-01 2.9056593064611003e-01 2.1970292770444017e-01 -5.2796825628384680e-01 1.5960456941438997e-01 1.3925338064695643e+00 
        </Neuron>
        <Neuron NSynapses="9">
          -1.5927986768318183e+00 -5.4827810817152034e-01 -1.2049006245286431e+00 1.4427515670990558e+00 2.1231552838118861e+00 1.8825142242071089e+00 4.7454949794059117e-03 -4.7064262496680159e-01 -1.3498689955513149e-01 
        </Neuron>
        <Neuron NSynapses="9">
          -1.1553856662756226e+00 2.2548119552753985e+00 -1.0383893063021852e+00 9.7155871377261838e-01 1.1501439828324009e+00 8.3008260502744580e-01 1.9253647377298488e+00 7.0831197671471902e-01 -7.6981841445726251e-01 
        </Neuron>
        <Neuron NSynapses="9">
          -1.5589267352990921e+00 5.7645504835593309e-01 -3.8204427157577453e-01 1.6541198510010071e+00 1.2415293747940617e+00 1.6836143074485117e+00 1.6886895143367409e+00 -1.4477908215171311e+00 1.7993482122675819e+00 
        </Neuron>
        <Neuron NSynapses="9">
          -1.6274592587542980e+00 -9.9379375884789345e-01 1.1640275741031000e-01 -1.1161784069357581e+00 1.2334982204408815e+00 -3.1214947714712938e-02 -7.1266380961499398e-01 5.4767385185008499e-01 1.8247772604166451e-01 
        </Neuron>
        <Neuron NSynapses="9">
          1.2728388760371706e-01 1.5681917871010362e+00 -2.7333517144867059e-01 8.3070590284181012e-01 -5.9046079213218450e-01 4.3599119877046694e-01 9.6521212815806699e-03 2.4724798318319979e-01 -3.8246474731530894e-01 
        </Neuron>
        <Neuron NSynapses="9">
          3.3167132959264406e-01 2.1291369022234572e+00 2.0396721755676925e-01 3.3237258751164289e-01 -9.0485946503933698e-02 -2.1882918674757548e-01 -5.7126097793009284e-02 -1.1931191849823131e+00 4.9829122618176647e-01 
        </Neuron>
        <Neuron NSynapses="9">
          1.5309049909093564e+00 1.3352319426501758e+00 -2.8636294506367057e+00 5.3794231080968438e-02 6.2744915997959816e-01 -5.7989416899189494e-01 -2.3798608246719675e+00 -2.6759384426387776e+00 -3.0125114243167825e+00 
        </Neuron>
      </Layer>
      <Layer Index="1" NNeurons="10">
        <Neuron NSynapses="9">
          -5.9015206613483207e-01 -3.9154331887942223e-01 2.1829540566867598e+00 -7.0169280327610073e-01 -1.2060528990079729e+00 1.1496447830664105e+00 -2.4635282559109303e-01 -8.8590920206470258e-01 -2.0778927770628628e+00 
        </Neuron>
        <Neuron NSynapses="9">
          1.8717813125274951e-01 -1.3399238842147518e+00 -1.0653294430171667e+00 -3.2683999619145848e-01 9.8583820491013496e-01 -1.3964335271594930e+00 3.6066694199369356e+00 -3.0533283252344893e-02 -3.9336237649421057e-01 
        </Neuron>
        <Neuron NSynapses="9">
          -5.2580820960152108e-01 3.8230788658127646e-01 -9.1922017043804671e-01 4.9011292149428332e-01 1.7081533804833011e+00 -4.4708272812078598e-01 -7.0558758999475890e-01 2.3552779654230811e+00 1.5147179357260962e-01 
        </Neuron>
        <Neuron NSynapses="9">
          -7.0333090665525497e-02 6.9978281143817223e-01 2.5680466069043195e-01 -1.9869708657824534e+00 6.6789281944876322e-01 -6.2183090763312165e-01 1.8107484108080356e+00 -2.6081867478934523e-01 6.9272711577570811e-01 
        </Neuron>
        <Neuron NSynapses="9">
          -4.3305772982190904e-02 5.1973731200423634e-01 -2.6189665077497861e+00 4.2866570507888682e-02 2.6423151849463489e-01 -1.1651160739046913e+00 9.2594114158837870e-01 -6.4451062223868094e-01 4.7977394727440492e-01 
        </Neuron>
        <Neuron NSynapses="9">
          1.8103212545549054e+00 2.1627099040023756e+00 -1.7198949125683971e+00 -9.0998888561485336e-01 6.4146739993846158e-01 2.5503932502852238e+00 -1.6308983031096798e+00 -1.9293288180410899e+00 -3.8947300718203667e-02 
        </Neuron>
        <Neuron NSynapses="9">
          -2.1998169695313341e-01 1.8141141795326348e+00 6.3617293232351957e-01 -1.0300635327388297e+00 5.0495394130195027e-02 4.9139849054982737e-01 -1.0963194277921624e+00 -5.6409759890993083e-01 9.1297241213605740e-01 
        </Neuron>
        <Neuron NSynapses="9">
          -9.1369587024507881e-01 -3.1333510955079302e-01 -3.0877887298865928e-02 8.0851901111049895e-01 3.6974291897263090e-01 4.8018159083634682e-01 -6.8557687494126881e-03 1.6081169947323095e+00 1.2418496476440641e+00 
        </Neuron>
        <Neuron NSynapses="9">
          -7.5862971321942907e-01 4.9792773784466060e-01 7.4515182672133362e-01 -8.0430619067298847e-01 1.6670623140705146e-01 8.2071626117363561e-01 -1.0399373021187115e+00 -3.6442310515610127e-01 1.0254064394520117e+00 
        </Neuron>
        <Neuron NSynapses="9">
          9.1742717868043588e-01 -4.2431444307826749e-01 2.0565199968373618e+00 2.7282780976997492e+00 -2.5710451356544541e+00 5.0831115462281229e-01 6.2040060429722022e-01 1.1148121347308277e+00 -2.4578606956301914e+00 
        </Neuron>
      </Layer>
      <Layer Index="2" NNeurons="10">
        <Neuron NSynapses="1">
          2.8764635026397406e-01 
        </Neuron>
        <Neuron NSynapses="1">
          1.3000815586397268e-02 
        </Neuron>
        <Neuron NSynapses="1">
          -2.8045168143339086e-02 
        </Neuron>
        <Neuron NSynapses="1">
          -2.9983333878233195e-02 
        </Neuron>
        <Neuron NSynapses="1">
          -8.4324869847004791e-01 
        </Neuron>
        <Neuron NSynapses="1">
          3.4171668210746291e-02 
        </Neuron>
        <Neuron NSynapses="1">
          7.7016705170425180e-03 
        </Neuron>
        <Neuron NSynapses="1">
          -1.2162682510051542e-01 
        </Neuron>
        <Neuron NSynapses="1">
          6.0864367045966228e-01 
        </Neuron>
        <Neuron NSynapses="1">
          -3.3972749328364271e-01 
        </Neuron>
      </Layer>
      <Layer Index="3" NNeurons="1">
        <Neuron NSynapses="0"/>
      </Layer>
    </Layout>
  </Weights>
</MethodSetup>
