<?xml version="1.0"?>
<MethodSetup Method="MLP::MLP_Alpha_0">
  <GeneralInfo>
    <Info name="TMVA Release" value="4.2.0 [262656]"/>
    <Info name="ROOT Release" value="5.34/19 [336403]"/>
    <Info name="Creator" value="leniau"/>
    <Info name="Date" value="Tue Mar  3 15:40:46 2015"/>
    <Info name="Host" value="Darwin MacBook-Pro-de-leniau.local 13.3.0 Darwin Kernel Version 13.3.0: Tue Jun 3 21:27:35 PDT 2014; root:xnu-2422.110.17~1/RELEASE_X86_64 x86_64"/>
    <Info name="Dir" value="/scratch/leniau/Projets_CLASS/TMVA/BASE_MONOMOX_MLP/Predict_Pol2/TrainMLP"/>
    <Info name="Training events" value="2380"/>
    <Info name="TrainingTime" value="1.47359074e+02"/>
    <Info name="AnalysisType" value="Regression"/>
  </GeneralInfo>
  <Options>
    <Option name="NCycles" modified="Yes">16000</Option>
    <Option name="HiddenLayers" modified="Yes">20</Option>
    <Option name="NeuronType" modified="Yes">tanh</Option>
    <Option name="RandomSeed" modified="No">1</Option>
    <Option name="EstimatorType" modified="No">MSE</Option>
    <Option name="NeuronInputType" modified="No">sum</Option>
    <Option name="V" modified="Yes">True</Option>
    <Option name="VerbosityLevel" modified="No">Verbose</Option>
    <Option name="VarTransform" modified="Yes">Norm</Option>
    <Option name="H" modified="Yes">False</Option>
    <Option name="CreateMVAPdfs" modified="No">False</Option>
    <Option name="IgnoreNegWeightsInTraining" modified="No">False</Option>
    <Option name="TrainingMethod" modified="Yes">BFGS</Option>
    <Option name="LearningRate" modified="No">2.000000e-02</Option>
    <Option name="DecayRate" modified="No">1.000000e-02</Option>
    <Option name="TestRate" modified="Yes">6</Option>
    <Option name="EpochMonitoring" modified="No">False</Option>
    <Option name="Sampling" modified="Yes">3.000000e-01</Option>
    <Option name="SamplingEpoch" modified="Yes">8.000000e-01</Option>
    <Option name="SamplingImportance" modified="No">1.000000e+00</Option>
    <Option name="SamplingTraining" modified="No">True</Option>
    <Option name="SamplingTesting" modified="No">False</Option>
    <Option name="ResetStep" modified="No">50</Option>
    <Option name="Tau" modified="No">3.000000e+00</Option>
    <Option name="BPMode" modified="No">sequential</Option>
    <Option name="BatchSize" modified="No">-1</Option>
    <Option name="ConvergenceImprove" modified="Yes">1.000000e-06</Option>
    <Option name="ConvergenceTests" modified="Yes">15</Option>
    <Option name="UseRegulator" modified="Yes">False</Option>
    <Option name="UpdateLimit" modified="No">10000</Option>
    <Option name="CalculateErrors" modified="No">False</Option>
    <Option name="WeightRange" modified="No">1.000000e+00</Option>
  </Options>
  <Variables NVar="8">
    <Variable VarIndex="0" Expression="U5" Label="U5" Title="U 235" Unit="FractionIsotopic" Internal="U5" Type="F" Min="1.71467941e-03" Max="3.82024585e-03"/>
    <Variable VarIndex="1" Expression="U8" Label="U8" Title="U 238 " Unit="FractionIsotopic" Internal="U8" Type="F" Min="8.47241700e-01" Max="9.57580924e-01"/>
    <Variable VarIndex="2" Expression="Pu8" Label="Pu8" Title="Pu 238" Unit="FractionIsotopic" Internal="Pu8" Type="F" Min="2.04457741e-04" Max="1.07518081e-02"/>
    <Variable VarIndex="3" Expression="Pu9" Label="Pu9" Title="Pu 239" Unit="FractionIsotopic" Internal="Pu9" Type="F" Min="1.37443952e-02" Max="1.10575892e-01"/>
    <Variable VarIndex="4" Expression="Pu10" Label="Pu10" Title="Pu 240" Unit="FractionIsotopic" Internal="Pu10" Type="F" Min="5.85060008e-03" Max="4.69908006e-02"/>
    <Variable VarIndex="5" Expression="Pu11" Label="Pu11" Title="Pu 241" Unit="FractionIsotopic" Internal="Pu11" Type="F" Min="2.84885010e-03" Max="2.77698915e-02"/>
    <Variable VarIndex="6" Expression="Pu12" Label="Pu12" Title="Pu 242" Unit="FractionIsotopic" Internal="Pu12" Type="F" Min="8.39043350e-04" Max="2.91712042e-02"/>
    <Variable VarIndex="7" Expression="Am1" Label="Am1" Title="Am 241" Unit="FractionIsotopic" Internal="Am1" Type="F" Min="4.26072947e-05" Max="1.08477855e-02"/>
  </Variables>
  <Spectators NSpec="0"/>
  <Classes NClass="1">
    <Class Name="Regression" Index="0"/>
  </Classes>
  <Targets NTrgt="1">
    <Target TargetIndex="0" Expression="Alpha_0" Label="Alpha_0" Title="Alpha_0" Unit="" Internal="Alpha_0" Type="F" Min="9.67351913e-01" Max="1.32517552e+00"/>
  </Targets>
  <Transformations NTransformations="1">
    <Transform Name="Normalize">
      <Selection>
        <Input NInputs="9">
          <Input Type="Variable" Label="U5" Expression="U5"/>
          <Input Type="Variable" Label="U8" Expression="U8"/>
          <Input Type="Variable" Label="Pu8" Expression="Pu8"/>
          <Input Type="Variable" Label="Pu9" Expression="Pu9"/>
          <Input Type="Variable" Label="Pu10" Expression="Pu10"/>
          <Input Type="Variable" Label="Pu11" Expression="Pu11"/>
          <Input Type="Variable" Label="Pu12" Expression="Pu12"/>
          <Input Type="Variable" Label="Am1" Expression="Am1"/>
          <Input Type="Target" Label="Alpha_0" Expression="Alpha_0"/>
        </Input>
        <Output NOutputs="9">
          <Output Type="Variable" Label="U5" Expression="U5"/>
          <Output Type="Variable" Label="U8" Expression="U8"/>
          <Output Type="Variable" Label="Pu8" Expression="Pu8"/>
          <Output Type="Variable" Label="Pu9" Expression="Pu9"/>
          <Output Type="Variable" Label="Pu10" Expression="Pu10"/>
          <Output Type="Variable" Label="Pu11" Expression="Pu11"/>
          <Output Type="Variable" Label="Pu12" Expression="Pu12"/>
          <Output Type="Variable" Label="Am1" Expression="Am1"/>
          <Output Type="Target" Label="Alpha_0" Expression="Alpha_0"/>
        </Output>
      </Selection>
      <Class ClassIndex="0">
        <Ranges>
          <Range Index="0" Min="1.7146794125437737e-03" Max="3.8202458526939154e-03"/>
          <Range Index="1" Min="8.4724169969558716e-01" Max="9.5758092403411865e-01"/>
          <Range Index="2" Min="2.0445774134714156e-04" Max="1.0751808062195778e-02"/>
          <Range Index="3" Min="1.3744395226240158e-02" Max="1.1057589203119278e-01"/>
          <Range Index="4" Min="5.8506000787019730e-03" Max="4.6990800648927689e-02"/>
          <Range Index="5" Min="2.8488500975072384e-03" Max="2.7769891545176506e-02"/>
          <Range Index="6" Min="8.3904335042461753e-04" Max="2.9171204194426537e-02"/>
          <Range Index="7" Min="4.2607294744811952e-05" Max="1.0847785510122776e-02"/>
          <Range Index="8" Min="9.6735191345214844e-01" Max="1.3251755237579346e+00"/>
        </Ranges>
      </Class>
    </Transform>
  </Transformations>
  <MVAPdfs/>
  <Weights>
    <Layout NLayers="3">
      <Layer Index="0" NNeurons="9">
        <Neuron NSynapses="20">
          -1.3253739607092689e-02 1.6649044780553099e+00 1.1668531294188504e+00 9.3404692595863137e-01 -1.8449287893614941e+00 -1.0534491818533376e+00 1.2872941139365175e-02 5.7588802051938370e-01 -2.2415535616263811e-02 -1.0902972660976133e-01 -1.2098969975203131e+00 3.6072467095912220e-02 -7.5040156258879798e-01 3.2059022563706453e-03 -5.2637706162762310e-01 6.7714713752951650e-01 -5.1847453866363788e-02 1.6290759563635153e+00 8.7979253607671754e-02 3.0647735300456841e-01 
        </Neuron>
        <Neuron NSynapses="20">
          -9.1015072633690897e-01 -5.4524242348052410e-01 2.6507458110528570e-01 -1.9426690380284337e-01 -1.2685662683487031e+00 -4.2570385197269639e-01 7.9267237169089355e-01 -2.0269651101178345e+00 -1.2849468733848080e+00 -2.4766514569312759e-01 6.6603383141974726e-01 1.3347301123034903e+00 2.1741602472926977e-01 -8.5133541475516750e-01 2.4829687090633240e-01 -5.4089506647659359e-02 -1.9857067290141845e+00 1.8025226847131743e+00 -6.6954910611728857e-01 1.5427102762881719e+00 
        </Neuron>
        <Neuron NSynapses="20">
          -4.4800566333266338e-03 1.0099375849936332e+00 1.2669309683606116e+00 1.4030581927802033e+00 -7.0090818797436694e-01 -1.3938031324846649e+00 3.8702000945903198e-01 -6.8085665278054674e-01 -1.2982680299148144e-01 9.3479444220570107e-01 1.7464184614686877e+00 1.1087112908598424e+00 -1.1729984860573881e+00 -1.4871695249807879e-01 -1.8822963422262686e+00 -8.2781887245710439e-01 -1.4277927185349179e-01 -1.7366356572347112e+00 1.3281172197051225e+00 5.5712652576670330e-01 
        </Neuron>
        <Neuron NSynapses="20">
          -6.4627343563734674e-01 5.3129342020351822e-01 5.4296743607116826e-01 7.5088145475237500e-01 2.0144613294142655e+00 6.8400687723471673e-02 7.6245020187730037e-02 -1.1119043233109078e+00 -8.2891797649655274e-01 -6.9460831990562122e-01 -8.0469494511746698e-01 -1.4222615165733057e+00 5.4606590433217927e-01 7.8456518516025553e-01 1.4231536710832329e+00 -2.6313115582947355e-01 -1.6436966668613779e+00 -1.8089823034607027e+00 9.1257058380126121e-01 8.0884991296076147e-01 
        </Neuron>
        <Neuron NSynapses="20">
          3.5819150537426275e-01 4.9019782961111941e-01 5.5089787369008014e-01 -1.5656715550717248e-01 -9.0977792041651728e-01 4.1561095304904350e-01 8.0500018796900541e-01 -6.4460871513274409e-01 -5.6990336005440589e-01 -2.0005114931818939e+00 -2.9718236731520858e-01 -3.9887425235994445e-01 8.3531415037599310e-01 -5.2742987517744522e-01 -9.6014127548283468e-01 1.3259102542339958e+00 -1.7585512208901122e-01 -1.5911359970447851e+00 -1.8634788204793329e+00 4.4014089492842767e-01 
        </Neuron>
        <Neuron NSynapses="20">
          -2.4908016233835198e-01 -1.5135273363511852e+00 9.6659257107217378e-01 1.6060397005123324e+00 -1.0087190656270677e+00 1.8350213523661105e+00 -2.7046293294316520e-01 -7.6562728073747077e-01 -1.0988283780297686e-01 -1.6796518641061153e-01 -1.8148207638547369e+00 -1.9994583757929441e-01 5.9893201336732937e-01 3.8355926029001580e-01 -1.2038346632013674e+00 1.7148089505774007e+00 -4.9340499222993073e-01 -8.8563029837141238e-01 6.5693079160468870e-01 -6.8518953131610760e-01 
        </Neuron>
        <Neuron NSynapses="20">
          -2.6470346175051629e-01 7.0365264371835012e-01 -5.2858436054417902e-02 1.0749422957965209e+00 8.2531401116171987e-01 -1.2908596978495807e-01 -2.6919320044012977e-02 -2.6287893150068020e-01 -3.7263385540742855e-01 1.7020977389546266e+00 3.3925906907162906e-01 -1.3254948393935277e+00 1.4054451047555361e+00 -1.9857802998890337e-01 -3.1859347851431706e-02 1.1503997227213654e+00 4.3080063218277059e-01 -1.7583922375558696e+00 5.5999212691668732e-01 7.7951752533458818e-01 
        </Neuron>
        <Neuron NSynapses="20">
          3.4956731459652224e-01 6.5867936866184662e-01 -1.0251187975122298e+00 -2.1821653609417563e-01 -1.2585901582276584e+00 1.5082366297612073e+00 6.7621329810855058e-01 -5.7339342958109940e-01 -2.1545897860234120e-01 4.3276318531350827e-01 -7.3267327827372919e-01 7.3659869844369574e-01 1.3608287081535526e+00 -2.1062607385454526e-01 -5.3250358049475033e-01 4.7813443864853133e-01 -2.0114200688606262e-01 4.2590718670044975e-01 8.2136020098086182e-01 -5.6525854007219301e-01 
        </Neuron>
        <Neuron NSynapses="20">
          1.3036802129593301e+00 -6.1082816842836361e-02 1.2661281937709937e-01 8.9322823694994535e-01 7.9464772386879978e-01 -1.2903502676819161e+00 5.6847600273395393e-01 2.4607763520719961e+00 -6.4020473494353192e-01 -6.8394368387406451e-02 1.5523853110461585e+00 1.6302566499475117e+00 -8.5155803942933728e-01 2.1180133601043352e+00 1.7537809486841964e+00 -2.2505226168438401e+00 1.5750511149838926e+00 -1.7048768010597401e-01 -7.5363020269672842e-03 -2.9409050987155925e+00 
        </Neuron>
      </Layer>
      <Layer Index="1" NNeurons="21">
        <Neuron NSynapses="1">
          -1.3167592667553341e+00 
        </Neuron>
        <Neuron NSynapses="1">
          3.1049231402303576e-03 
        </Neuron>
        <Neuron NSynapses="1">
          4.5107587464562260e-03 
        </Neuron>
        <Neuron NSynapses="1">
          -2.1100470708639001e-03 
        </Neuron>
        <Neuron NSynapses="1">
          1.2575272028526824e-03 
        </Neuron>
        <Neuron NSynapses="1">
          -4.7266716200538260e-03 
        </Neuron>
        <Neuron NSynapses="1">
          -6.4680168587739353e-02 
        </Neuron>
        <Neuron NSynapses="1">
          1.1033336281078632e+00 
        </Neuron>
        <Neuron NSynapses="1">
          2.2012228638706883e+00 
        </Neuron>
        <Neuron NSynapses="1">
          1.7731945492612058e-02 
        </Neuron>
        <Neuron NSynapses="1">
          2.6345486189953671e-03 
        </Neuron>
        <Neuron NSynapses="1">
          5.7503350359194901e-03 
        </Neuron>
        <Neuron NSynapses="1">
          1.1558205802418405e-02 
        </Neuron>
        <Neuron NSynapses="1">
          2.3687693220209334e+00 
        </Neuron>
        <Neuron NSynapses="1">
          -6.7752724837255227e-04 
        </Neuron>
        <Neuron NSynapses="1">
          6.8109630885082612e-03 
        </Neuron>
        <Neuron NSynapses="1">
          -1.8304003742049604e+00 
        </Neuron>
        <Neuron NSynapses="1">
          2.6274214950585905e-03 
        </Neuron>
        <Neuron NSynapses="1">
          3.1833317514393870e-03 
        </Neuron>
        <Neuron NSynapses="1">
          2.2841969187212233e-01 
        </Neuron>
        <Neuron NSynapses="1">
          -4.8665188920454838e-01 
        </Neuron>
      </Layer>
      <Layer Index="2" NNeurons="1">
        <Neuron NSynapses="0"/>
      </Layer>
    </Layout>
  </Weights>
</MethodSetup>
