<?xml version="1.0"?>
<MethodSetup Method="MLP::XS_92_232_0_fis">
  <GeneralInfo>
    <Info name="TMVA Release" value="4.2.0 [262656]"/>
    <Info name="ROOT Release" value="5.34/23 [336407]"/>
    <Info name="Creator" value="hoarau"/>
    <Info name="Date" value="Sat May 28 01:29:48 2016"/>
    <Info name="Host" value="Linux ipns2i5 3.13.0-40-generic #69-Ubuntu SMP Thu Nov 13 17:53:56 UTC 2014 x86_64 x86_64 x86_64 GNU/Linux"/>
    <Info name="Dir" value="/projet/pacsmure/hoarau/MLP/XSM/MLPt"/>
    <Info name="Training events" value="54589"/>
    <Info name="TrainingTime" value="3.02549629e+03"/>
    <Info name="AnalysisType" value="Regression"/>
  </GeneralInfo>
  <Options>
    <Option name="NCycles" modified="Yes">20000</Option>
    <Option name="HiddenLayers" modified="Yes">N,N</Option>
    <Option name="NeuronType" modified="Yes">tanh</Option>
    <Option name="RandomSeed" modified="No">1</Option>
    <Option name="EstimatorType" modified="No">MSE</Option>
    <Option name="NeuronInputType" modified="No">sum</Option>
    <Option name="V" modified="Yes">False</Option>
    <Option name="VerbosityLevel" modified="No">Default</Option>
    <Option name="VarTransform" modified="Yes">Norm</Option>
    <Option name="H" modified="Yes">False</Option>
    <Option name="CreateMVAPdfs" modified="No">False</Option>
    <Option name="IgnoreNegWeightsInTraining" modified="No">False</Option>
    <Option name="TrainingMethod" modified="Yes">BFGS</Option>
    <Option name="LearningRate" modified="No">2.000000e-02</Option>
    <Option name="DecayRate" modified="No">1.000000e-02</Option>
    <Option name="TestRate" modified="Yes">6</Option>
    <Option name="EpochMonitoring" modified="No">False</Option>
    <Option name="Sampling" modified="Yes">3.000000e-01</Option>
    <Option name="SamplingEpoch" modified="Yes">8.000000e-01</Option>
    <Option name="SamplingImportance" modified="No">1.000000e+00</Option>
    <Option name="SamplingTraining" modified="No">True</Option>
    <Option name="SamplingTesting" modified="No">False</Option>
    <Option name="ResetStep" modified="No">50</Option>
    <Option name="Tau" modified="No">3.000000e+00</Option>
    <Option name="BPMode" modified="No">sequential</Option>
    <Option name="BatchSize" modified="No">-1</Option>
    <Option name="ConvergenceImprove" modified="Yes">1.000000e-06</Option>
    <Option name="ConvergenceTests" modified="Yes">15</Option>
    <Option name="UseRegulator" modified="Yes">False</Option>
    <Option name="UpdateLimit" modified="No">10000</Option>
    <Option name="CalculateErrors" modified="No">False</Option>
    <Option name="WeightRange" modified="No">1.000000e+00</Option>
  </Options>
  <Variables NVar="11">
    <Variable VarIndex="0" Expression="U5" Label="U5" Title="U 235" Unit="FractionIsotopic" Internal="U5" Type="F" Min="2.05017393e-03" Max="2.34996830e-03"/>
    <Variable VarIndex="1" Expression="U8" Label="U8" Title="U 238" Unit="FractionIsotopic" Internal="U8" Type="F" Min="8.18019390e-01" Max="9.37637389e-01"/>
    <Variable VarIndex="2" Expression="Pu8" Label="Pu8" Title="Pu 238" Unit="FractionIsotopic" Internal="Pu8" Type="F" Min="2.64126458e-04" Max="1.41914384e-02"/>
    <Variable VarIndex="3" Expression="Pu9" Label="Pu9" Title="Pu 239" Unit="FractionIsotopic" Internal="Pu9" Type="F" Min="1.93645954e-02" Max="1.28417522e-01"/>
    <Variable VarIndex="4" Expression="Pu10" Label="Pu10" Title="Pu 240" Unit="FractionIsotopic" Internal="Pu10" Type="F" Min="8.03337898e-03" Max="4.94363718e-02"/>
    <Variable VarIndex="5" Expression="Pu11" Label="Pu11" Title="Pu 241" Unit="FractionIsotopic" Internal="Pu11" Type="F" Min="2.77327024e-04" Max="2.11146176e-02"/>
    <Variable VarIndex="6" Expression="Pu12" Label="Pu12" Title="Pu 242" Unit="FractionIsotopic" Internal="Pu12" Type="F" Min="1.73819531e-03" Max="2.50623114e-02"/>
    <Variable VarIndex="7" Expression="Am1" Label="Am1" Title="Am 241" Unit="FractionIsotopic" Internal="Am1" Type="F" Min="2.85643673e-05" Max="2.14658137e-02"/>
    <Variable VarIndex="8" Expression="Am2" Label="Am2" Title="Am 242" Unit="FractionIsotopic" Internal="Am2" Type="F" Min="2.76984019e-06" Max="1.78909861e-04"/>
    <Variable VarIndex="9" Expression="Am3" Label="Am3" Title="Am 243" Unit="FractionIsotopic" Internal="Am3" Type="F" Min="3.85613414e-04" Max="7.08262110e-03"/>
    <Variable VarIndex="10" Expression="Time" Label="Time" Title="Time" Unit="seconds" Internal="Time" Type="F" Min="0.00000000e+00" Max="1.73566800e+08"/>
  </Variables>
  <Spectators NSpec="0"/>
  <Classes NClass="1">
    <Class Name="Regression" Index="0"/>
  </Classes>
  <Targets NTrgt="1">
    <Target TargetIndex="0" Expression="XS_92_232_0_fis" Label="XS_92_232_0_fis" Title="XS_92_232_0_fis" Unit="" Internal="XS_92_232_0_fis" Type="F" Min="1.16343918e+01" Max="1.48971024e+01"/>
  </Targets>
  <Transformations NTransformations="1">
    <Transform Name="Normalize">
      <Selection>
        <Input NInputs="12">
          <Input Type="Variable" Label="U5" Expression="U5"/>
          <Input Type="Variable" Label="U8" Expression="U8"/>
          <Input Type="Variable" Label="Pu8" Expression="Pu8"/>
          <Input Type="Variable" Label="Pu9" Expression="Pu9"/>
          <Input Type="Variable" Label="Pu10" Expression="Pu10"/>
          <Input Type="Variable" Label="Pu11" Expression="Pu11"/>
          <Input Type="Variable" Label="Pu12" Expression="Pu12"/>
          <Input Type="Variable" Label="Am1" Expression="Am1"/>
          <Input Type="Variable" Label="Am2" Expression="Am2"/>
          <Input Type="Variable" Label="Am3" Expression="Am3"/>
          <Input Type="Variable" Label="Time" Expression="Time"/>
          <Input Type="Target" Label="XS_92_232_0_fis" Expression="XS_92_232_0_fis"/>
        </Input>
        <Output NOutputs="12">
          <Output Type="Variable" Label="U5" Expression="U5"/>
          <Output Type="Variable" Label="U8" Expression="U8"/>
          <Output Type="Variable" Label="Pu8" Expression="Pu8"/>
          <Output Type="Variable" Label="Pu9" Expression="Pu9"/>
          <Output Type="Variable" Label="Pu10" Expression="Pu10"/>
          <Output Type="Variable" Label="Pu11" Expression="Pu11"/>
          <Output Type="Variable" Label="Pu12" Expression="Pu12"/>
          <Output Type="Variable" Label="Am1" Expression="Am1"/>
          <Output Type="Variable" Label="Am2" Expression="Am2"/>
          <Output Type="Variable" Label="Am3" Expression="Am3"/>
          <Output Type="Variable" Label="Time" Expression="Time"/>
          <Output Type="Target" Label="XS_92_232_0_fis" Expression="XS_92_232_0_fis"/>
        </Output>
      </Selection>
      <Class ClassIndex="0">
        <Ranges>
          <Range Index="0" Min="2.0501739345490932e-03" Max="2.3499683011323214e-03"/>
          <Range Index="1" Min="8.1801939010620117e-01" Max="9.3763738870620728e-01"/>
          <Range Index="2" Min="2.6412645820528269e-04" Max="1.4191438443958759e-02"/>
          <Range Index="3" Min="1.9364595413208008e-02" Max="1.2841752171516418e-01"/>
          <Range Index="4" Min="8.0333789810538292e-03" Max="4.9436371773481369e-02"/>
          <Range Index="5" Min="2.7732702437788248e-04" Max="2.1114617586135864e-02"/>
          <Range Index="6" Min="1.7381953075528145e-03" Max="2.5062311440706253e-02"/>
          <Range Index="7" Min="2.8564367312355898e-05" Max="2.1465813741087914e-02"/>
          <Range Index="8" Min="2.7698401936504524e-06" Max="1.7890986055135727e-04"/>
          <Range Index="9" Min="3.8561341352760792e-04" Max="7.0826211012899876e-03"/>
          <Range Index="10" Min="0.0000000000000000e+00" Max="1.7356680000000000e+08"/>
          <Range Index="11" Min="1.1634391784667969e+01" Max="1.4897102355957031e+01"/>
        </Ranges>
      </Class>
    </Transform>
  </Transformations>
  <MVAPdfs/>
  <Weights>
    <Layout NLayers="4">
      <Layer Index="0" NNeurons="12">
        <Neuron NSynapses="11">
          1.8577600362136856e-01 2.7677556871346942e+00 4.7235202390115166e-01 1.5048375927095625e+00 -1.7347206957799393e+00 -1.5193027870417855e+00 -2.4225523078460749e+00 1.7686076135498685e+00 -1.2464658776257282e+00 -1.8162789129162062e-02 -2.4049580515208242e+00 
        </Neuron>
        <Neuron NSynapses="11">
          1.0400752236419639e-01 -4.7594321344680329e-01 -8.5730434336875871e-01 -8.4318747264871163e-01 9.4380542077257779e-01 -4.4473066147105084e-01 1.1027471725279507e-01 -7.2286438403466310e-02 1.5517787311232933e+00 7.1426209591597289e-01 -1.5212175004836999e+00 
        </Neuron>
        <Neuron NSynapses="11">
          1.4030897144806018e-01 -7.2722152379348659e-01 1.7116363535955199e-02 3.0898988575257004e-02 -1.3974254377346373e-01 -1.0661593796858937e+00 -4.7349307341181851e-01 2.3093763290659025e-01 1.4401468014580146e-01 1.9949161631605239e-01 -1.6579921122128974e-01 
        </Neuron>
        <Neuron NSynapses="11">
          -1.3097912518455177e+00 -4.5009693339167806e-01 -2.5896919052505962e-01 -1.1625807611886635e-01 2.6575478299866093e+00 -1.7166892341405917e+00 1.8106423791557911e+00 1.2391212848106155e+00 5.8270922334136388e-01 2.3194468577917373e+00 9.2270359396719148e-01 
        </Neuron>
        <Neuron NSynapses="11">
          8.3525101197248791e-02 -1.6806738995837907e+00 4.2529674272713525e-01 -2.2055276733855985e-02 7.1133537895197863e-01 7.5890780636083288e-01 1.8196870993054584e+00 7.5593675916925196e-01 3.0990822687411979e-01 5.8375130302473421e-01 -6.8113063761975701e-01 
        </Neuron>
        <Neuron NSynapses="11">
          -7.0563178073488830e-01 -8.8557991675432390e-01 -8.4462825279869502e-01 1.1529125927311364e-01 -4.8322962533331304e-01 -1.6521393954092332e+00 4.9559941944727309e-01 1.9417747349711842e-02 2.7807036649896583e-01 6.5516335948947657e-01 9.4980525602623184e-02 
        </Neuron>
        <Neuron NSynapses="11">
          3.1722094950189440e-02 -7.5271206751361397e-01 1.7236709661358479e-01 7.2512038519705072e-02 1.1648196991349774e-01 -1.9180815019595456e+00 3.2322313230233013e-01 3.6495673040736631e-01 1.1382184125707968e-01 2.7300505765471295e-01 -8.0734438503393757e-01 
        </Neuron>
        <Neuron NSynapses="11">
          3.8309001057536540e-02 1.1589001695060282e-01 -5.7783316084232740e-02 4.5341637644142639e-02 -1.0989605924253354e-02 -7.1435762502478933e-02 4.9791647163928554e-01 2.5935466620443759e-01 2.5557394282305246e-01 4.2498349503993965e-01 6.5592877466496308e-02 
        </Neuron>
        <Neuron NSynapses="11">
          1.6330647361235850e-02 -1.4537772953600916e+00 2.6126412317676449e-02 -4.2124794070879149e-04 -1.3035329107130944e-01 -1.4388788244094537e+00 -2.1053318541861288e-01 -4.2060463943334077e-03 6.0058112073074297e-03 1.2325418766830208e-02 -3.8478753479110289e-01 
        </Neuron>
        <Neuron NSynapses="11">
          -2.7634266092716253e-01 -1.1820550733496824e+00 -1.3272010251504990e-01 2.9338062704679736e-02 -2.7247439867493323e-01 -1.1952244973765136e+00 9.3683708333571991e-01 3.2538581831301372e-02 8.5300401366306677e-02 2.3451542447020399e-01 -4.3833316514632931e-01 
        </Neuron>
        <Neuron NSynapses="11">
          -6.1288655295201022e-01 1.7495333108136876e-02 6.8501093780170630e-01 3.0979330850063913e-01 -1.3347031414771660e+00 5.6368064215927283e-01 -2.0872666730685022e-01 -6.5304194663431636e-01 2.7341934447511318e-01 -1.9901903932373136e-02 -8.7776157558389925e-02 
        </Neuron>
        <Neuron NSynapses="11">
          5.8568992448848875e-02 -5.3386380162863600e-01 2.5160681049130726e+00 -3.3447075157175238e-01 -7.7130224903425981e-01 1.8196035326329107e+00 1.4565983340845579e+00 -1.3518641973894292e+00 3.1768728983414785e-01 -1.5863218908026013e+00 -1.5000900366736734e+00 
        </Neuron>
      </Layer>
      <Layer Index="1" NNeurons="12">
        <Neuron NSynapses="11">
          5.2376867771228353e-01 -1.5524586942325560e+00 3.5350174508801641e-01 1.6797837236717461e+00 1.6465561200008518e+00 -9.6702301140375246e-01 8.8996060887968043e-01 1.9460039839610825e+00 4.0186136771226136e-02 5.3156856684952092e-01 -3.5242308894198976e-01 
        </Neuron>
        <Neuron NSynapses="11">
          -1.9263903923388698e-01 -1.7380594314283777e+00 1.0384981775545579e+00 1.0419591732613189e+00 1.0120814024808056e-01 -4.6034105909861089e-01 -3.4815032893694906e-02 -6.8841077365954806e-01 -3.1100312898637420e-03 7.0872924498760426e-01 -3.1500833940437267e-01 
        </Neuron>
        <Neuron NSynapses="11">
          -7.6698624760108391e-01 8.3696276530648983e-02 1.2539955319392460e+00 1.0948448990252178e+00 6.9924678063701962e-01 -1.6689765163373218e+00 1.4943166309121427e+00 7.9011397867016220e-01 9.5339515620907278e-01 2.9408224651167370e-02 1.3245572865168715e+00 
        </Neuron>
        <Neuron NSynapses="11">
          9.1932291284760770e-02 -9.7883146803665899e-01 1.5285418994668372e+00 -7.4299745747889023e-01 -3.2865037013545684e-01 2.8955594049634228e+00 8.7918145548102555e-01 8.4346634792311689e-03 6.2435433590352196e-01 2.5378686060744742e+00 -2.3822088447847283e+00 
        </Neuron>
        <Neuron NSynapses="11">
          1.3273238502334923e+00 8.1769271404860205e-02 -2.7309497260858034e-01 -1.6173167355207771e+00 -1.5700422947385027e+00 1.2819183425328313e+00 1.4260680436593953e+00 -1.3366520859237350e+00 -2.2039759370876661e-03 4.2957808780260459e-01 5.7249285143222924e-02 
        </Neuron>
        <Neuron NSynapses="11">
          1.4082021815828547e+00 -3.1200746940600432e-01 -7.1936821094995762e-01 -5.9944595670533807e-01 1.3381230239864955e-01 1.3635359343557634e+00 1.0814335759222480e+00 2.5462251382572126e-01 4.8454251350170667e-04 -2.0977323150437281e+00 7.2029440021737945e-01 
        </Neuron>
        <Neuron NSynapses="11">
          -1.5997997274985820e-01 -8.6342427463909832e-01 1.4335410009646449e-01 3.2435767338522764e-01 -1.5263053703482843e-01 -1.8065959173548602e+00 1.5629132578739173e+00 4.3818178643384642e-01 -1.2034210320242599e-03 -7.9840925590756617e-02 7.3081246272220390e-01 
        </Neuron>
        <Neuron NSynapses="11">
          1.7180025210058052e+00 6.0436401580850863e-01 -4.2512614580675873e-01 -2.3572195374212424e+00 -1.3649373734839967e+00 1.1088071641433241e+00 1.2351538928253551e+00 9.1878446882721421e-01 1.9836091566616778e+00 3.0144711390298160e+00 -2.1471561843683715e+00 
        </Neuron>
        <Neuron NSynapses="11">
          -1.9443537809355800e+00 1.7765033679596834e-01 -1.2220218535268643e+00 1.2225245977382400e+00 2.0789543975662297e+00 -1.8320466929630281e+00 1.0037584389738652e+00 -2.7625133640528532e-01 -2.8116990148701942e-01 -1.4906879411483214e+00 1.2974419688239931e+00 
        </Neuron>
        <Neuron NSynapses="11">
          -2.5830083302213919e-01 1.3168263865107968e+00 -1.6390445433126104e+00 1.2250992361639939e+00 -1.5231482395956102e+00 9.4657648203783606e-01 1.6622888440592454e-01 -1.4016879698900979e+00 -5.7049921610924703e-01 -1.3450179094324552e+00 -4.7061206672141434e-02 
        </Neuron>
        <Neuron NSynapses="11">
          -8.0255399190923149e-01 -1.2839378161464299e+00 -1.2019641255835025e+00 -3.9390949556407533e-02 -8.9327190860398231e-01 -1.3416226671417302e+00 1.1200511378835416e+00 -6.1081938141668124e-01 1.3197630205706795e-03 -2.7789954577640041e-01 -1.9943097339816052e-03 
        </Neuron>
        <Neuron NSynapses="11">
          1.4454494798226993e+00 1.2262515959893057e+00 -3.9703466829930989e-01 -9.4273081121972091e-01 -5.3088869739838784e-01 -1.1701086782385501e+00 -1.7072734312222662e+00 2.8964818585879243e-01 2.7043663221119218e-01 7.6808695682020089e-01 4.7642611441363608e-01 
        </Neuron>
      </Layer>
      <Layer Index="2" NNeurons="12">
        <Neuron NSynapses="1">
          -4.5274919492852526e-03 
        </Neuron>
        <Neuron NSynapses="1">
          -2.6530055245584604e-03 
        </Neuron>
        <Neuron NSynapses="1">
          5.8131935630557048e-03 
        </Neuron>
        <Neuron NSynapses="1">
          2.9386190159975886e-03 
        </Neuron>
        <Neuron NSynapses="1">
          -2.0922369261466879e-03 
        </Neuron>
        <Neuron NSynapses="1">
          6.1878056039377649e-01 
        </Neuron>
        <Neuron NSynapses="1">
          -1.4283730583195681e-03 
        </Neuron>
        <Neuron NSynapses="1">
          4.2967553410479531e-03 
        </Neuron>
        <Neuron NSynapses="1">
          1.2814139961743207e+00 
        </Neuron>
        <Neuron NSynapses="1">
          2.3565375731965535e-01 
        </Neuron>
        <Neuron NSynapses="1">
          5.9439755316618448e-01 
        </Neuron>
        <Neuron NSynapses="1">
          3.9720722637539124e-01 
        </Neuron>
      </Layer>
      <Layer Index="3" NNeurons="1">
        <Neuron NSynapses="0"/>
      </Layer>
    </Layout>
  </Weights>
</MethodSetup>
