<?xml version="1.0"?>
<MethodSetup Method="MLP::XS_96_248_0_n2n">
  <GeneralInfo>
    <Info name="TMVA Release" value="4.2.0 [262656]"/>
    <Info name="ROOT Release" value="5.34/23 [336407]"/>
    <Info name="Creator" value="hoarau"/>
    <Info name="Date" value="Fri May 27 10:18:04 2016"/>
    <Info name="Host" value="Linux ipns2i5 3.13.0-40-generic #69-Ubuntu SMP Thu Nov 13 17:53:56 UTC 2014 x86_64 x86_64 x86_64 GNU/Linux"/>
    <Info name="Dir" value="/projet/pacsmure/hoarau/MLP/XSM/MLPt"/>
    <Info name="Training events" value="54589"/>
    <Info name="TrainingTime" value="2.27055726e+03"/>
    <Info name="AnalysisType" value="Regression"/>
  </GeneralInfo>
  <Options>
    <Option name="NCycles" modified="Yes">20000</Option>
    <Option name="HiddenLayers" modified="Yes">N,N</Option>
    <Option name="NeuronType" modified="Yes">tanh</Option>
    <Option name="RandomSeed" modified="No">1</Option>
    <Option name="EstimatorType" modified="No">MSE</Option>
    <Option name="NeuronInputType" modified="No">sum</Option>
    <Option name="V" modified="Yes">False</Option>
    <Option name="VerbosityLevel" modified="No">Default</Option>
    <Option name="VarTransform" modified="Yes">Norm</Option>
    <Option name="H" modified="Yes">False</Option>
    <Option name="CreateMVAPdfs" modified="No">False</Option>
    <Option name="IgnoreNegWeightsInTraining" modified="No">False</Option>
    <Option name="TrainingMethod" modified="Yes">BFGS</Option>
    <Option name="LearningRate" modified="No">2.000000e-02</Option>
    <Option name="DecayRate" modified="No">1.000000e-02</Option>
    <Option name="TestRate" modified="Yes">6</Option>
    <Option name="EpochMonitoring" modified="No">False</Option>
    <Option name="Sampling" modified="Yes">3.000000e-01</Option>
    <Option name="SamplingEpoch" modified="Yes">8.000000e-01</Option>
    <Option name="SamplingImportance" modified="No">1.000000e+00</Option>
    <Option name="SamplingTraining" modified="No">True</Option>
    <Option name="SamplingTesting" modified="No">False</Option>
    <Option name="ResetStep" modified="No">50</Option>
    <Option name="Tau" modified="No">3.000000e+00</Option>
    <Option name="BPMode" modified="No">sequential</Option>
    <Option name="BatchSize" modified="No">-1</Option>
    <Option name="ConvergenceImprove" modified="Yes">1.000000e-06</Option>
    <Option name="ConvergenceTests" modified="Yes">15</Option>
    <Option name="UseRegulator" modified="Yes">False</Option>
    <Option name="UpdateLimit" modified="No">10000</Option>
    <Option name="CalculateErrors" modified="No">False</Option>
    <Option name="WeightRange" modified="No">1.000000e+00</Option>
  </Options>
  <Variables NVar="11">
    <Variable VarIndex="0" Expression="U5" Label="U5" Title="U 235" Unit="FractionIsotopic" Internal="U5" Type="F" Min="2.05017393e-03" Max="2.34996830e-03"/>
    <Variable VarIndex="1" Expression="U8" Label="U8" Title="U 238" Unit="FractionIsotopic" Internal="U8" Type="F" Min="8.18019390e-01" Max="9.37637389e-01"/>
    <Variable VarIndex="2" Expression="Pu8" Label="Pu8" Title="Pu 238" Unit="FractionIsotopic" Internal="Pu8" Type="F" Min="2.64126458e-04" Max="1.41914384e-02"/>
    <Variable VarIndex="3" Expression="Pu9" Label="Pu9" Title="Pu 239" Unit="FractionIsotopic" Internal="Pu9" Type="F" Min="1.93645954e-02" Max="1.28417522e-01"/>
    <Variable VarIndex="4" Expression="Pu10" Label="Pu10" Title="Pu 240" Unit="FractionIsotopic" Internal="Pu10" Type="F" Min="8.03337898e-03" Max="4.94363718e-02"/>
    <Variable VarIndex="5" Expression="Pu11" Label="Pu11" Title="Pu 241" Unit="FractionIsotopic" Internal="Pu11" Type="F" Min="2.77327024e-04" Max="2.11146176e-02"/>
    <Variable VarIndex="6" Expression="Pu12" Label="Pu12" Title="Pu 242" Unit="FractionIsotopic" Internal="Pu12" Type="F" Min="1.73819531e-03" Max="2.50623114e-02"/>
    <Variable VarIndex="7" Expression="Am1" Label="Am1" Title="Am 241" Unit="FractionIsotopic" Internal="Am1" Type="F" Min="2.85643673e-05" Max="2.14658137e-02"/>
    <Variable VarIndex="8" Expression="Am2" Label="Am2" Title="Am 242" Unit="FractionIsotopic" Internal="Am2" Type="F" Min="2.76984019e-06" Max="1.78909861e-04"/>
    <Variable VarIndex="9" Expression="Am3" Label="Am3" Title="Am 243" Unit="FractionIsotopic" Internal="Am3" Type="F" Min="3.85613414e-04" Max="7.08262110e-03"/>
    <Variable VarIndex="10" Expression="Time" Label="Time" Title="Time" Unit="seconds" Internal="Time" Type="F" Min="0.00000000e+00" Max="1.73566800e+08"/>
  </Variables>
  <Spectators NSpec="0"/>
  <Classes NClass="1">
    <Class Name="Regression" Index="0"/>
  </Classes>
  <Targets NTrgt="1">
    <Target TargetIndex="0" Expression="XS_96_248_0_n2n" Label="XS_96_248_0_n2n" Title="XS_96_248_0_n2n" Unit="" Internal="XS_96_248_0_n2n" Type="F" Min="3.23909521e-03" Max="4.28381050e-03"/>
  </Targets>
  <Transformations NTransformations="1">
    <Transform Name="Normalize">
      <Selection>
        <Input NInputs="12">
          <Input Type="Variable" Label="U5" Expression="U5"/>
          <Input Type="Variable" Label="U8" Expression="U8"/>
          <Input Type="Variable" Label="Pu8" Expression="Pu8"/>
          <Input Type="Variable" Label="Pu9" Expression="Pu9"/>
          <Input Type="Variable" Label="Pu10" Expression="Pu10"/>
          <Input Type="Variable" Label="Pu11" Expression="Pu11"/>
          <Input Type="Variable" Label="Pu12" Expression="Pu12"/>
          <Input Type="Variable" Label="Am1" Expression="Am1"/>
          <Input Type="Variable" Label="Am2" Expression="Am2"/>
          <Input Type="Variable" Label="Am3" Expression="Am3"/>
          <Input Type="Variable" Label="Time" Expression="Time"/>
          <Input Type="Target" Label="XS_96_248_0_n2n" Expression="XS_96_248_0_n2n"/>
        </Input>
        <Output NOutputs="12">
          <Output Type="Variable" Label="U5" Expression="U5"/>
          <Output Type="Variable" Label="U8" Expression="U8"/>
          <Output Type="Variable" Label="Pu8" Expression="Pu8"/>
          <Output Type="Variable" Label="Pu9" Expression="Pu9"/>
          <Output Type="Variable" Label="Pu10" Expression="Pu10"/>
          <Output Type="Variable" Label="Pu11" Expression="Pu11"/>
          <Output Type="Variable" Label="Pu12" Expression="Pu12"/>
          <Output Type="Variable" Label="Am1" Expression="Am1"/>
          <Output Type="Variable" Label="Am2" Expression="Am2"/>
          <Output Type="Variable" Label="Am3" Expression="Am3"/>
          <Output Type="Variable" Label="Time" Expression="Time"/>
          <Output Type="Target" Label="XS_96_248_0_n2n" Expression="XS_96_248_0_n2n"/>
        </Output>
      </Selection>
      <Class ClassIndex="0">
        <Ranges>
          <Range Index="0" Min="2.0501739345490932e-03" Max="2.3499683011323214e-03"/>
          <Range Index="1" Min="8.1801939010620117e-01" Max="9.3763738870620728e-01"/>
          <Range Index="2" Min="2.6412645820528269e-04" Max="1.4191438443958759e-02"/>
          <Range Index="3" Min="1.9364595413208008e-02" Max="1.2841752171516418e-01"/>
          <Range Index="4" Min="8.0333789810538292e-03" Max="4.9436371773481369e-02"/>
          <Range Index="5" Min="2.7732702437788248e-04" Max="2.1114617586135864e-02"/>
          <Range Index="6" Min="1.7381953075528145e-03" Max="2.5062311440706253e-02"/>
          <Range Index="7" Min="2.8564367312355898e-05" Max="2.1465813741087914e-02"/>
          <Range Index="8" Min="2.7698401936504524e-06" Max="1.7890986055135727e-04"/>
          <Range Index="9" Min="3.8561341352760792e-04" Max="7.0826211012899876e-03"/>
          <Range Index="10" Min="0.0000000000000000e+00" Max="1.7356680000000000e+08"/>
          <Range Index="11" Min="3.2390952110290527e-03" Max="4.2838105000555515e-03"/>
        </Ranges>
      </Class>
    </Transform>
  </Transformations>
  <MVAPdfs/>
  <Weights>
    <Layout NLayers="4">
      <Layer Index="0" NNeurons="12">
        <Neuron NSynapses="11">
          6.6724310441642887e-01 2.2139857508888454e+00 3.9043560257212234e-01 2.5305432486322483e+00 -2.5031906900562748e+00 -9.1038716047843327e-01 -7.5728461134080660e-02 2.4496435041172662e+00 -1.6391267156544129e+00 -3.1073808467276798e-01 -1.8734661633294656e+00 
        </Neuron>
        <Neuron NSynapses="11">
          5.8548094755790647e-01 -1.0297131891068689e+00 -9.3922039528147394e-01 1.8255445477201832e-01 1.7533846810158069e-01 1.6418738064500868e-01 2.4570971810189017e+00 6.0874623640359693e-01 1.1591121980303960e+00 4.2168870828356309e-01 -9.8972562077218806e-01 
        </Neuron>
        <Neuron NSynapses="11">
          1.2039153714312774e+00 3.8966343907623385e-01 -7.9788908205122111e-01 -1.9572891921054536e-01 3.7960870865254742e-01 -1.4571793815684391e+00 -2.1655702560625669e+00 1.9610090596500943e-01 4.0421910861385850e-02 3.5496618136611174e-01 -3.3604369100284032e-01 
        </Neuron>
        <Neuron NSynapses="11">
          -9.9903267997112377e-01 7.5578347238935362e-02 -6.1370889693965558e-01 -1.7776964623035827e+00 2.6267475159455138e+00 -2.3671715977670451e+00 -1.7392247867952813e-02 7.5954152273038478e-01 6.2975786403744105e-01 1.7237447541864190e+00 6.7267200031774643e-01 
        </Neuron>
        <Neuron NSynapses="11">
          -1.4195617880526343e+00 -1.1273047912822367e+00 5.2902406833415805e-01 -2.3863906564192078e-01 1.1494602878058235e+00 9.7062968759898990e-02 1.4472510761064177e+00 1.2886001990840110e+00 2.7689914417452544e-01 6.4423333317036868e-01 -3.9554313756094484e-01 
        </Neuron>
        <Neuron NSynapses="11">
          -1.8279035993629345e-01 -9.5670446883230398e-02 -9.5501429485334854e-01 -1.3962685549525652e-01 9.0535750683390859e-01 -1.0864279583842535e+00 -1.8953685364387729e-01 -6.6445838455608219e-01 5.8419687979068900e-02 6.0754850786166836e-01 2.9730119668909066e-01 
        </Neuron>
        <Neuron NSynapses="11">
          -2.3987526613637655e-01 -3.5275068916157631e-01 1.5061551729422828e-01 -2.9452514669773960e-01 5.0907108555249614e-01 -1.4356766168453015e+00 -1.0236836422703102e-01 6.6535201114005527e-01 4.5149541563100921e-02 1.0648563518157410e-01 -3.3892633867361099e-01 
        </Neuron>
        <Neuron NSynapses="11">
          -5.6960590413366385e-01 6.8514176232488078e-01 3.3572481726452225e-01 -4.8418248332818603e-02 -6.5466937234122358e-01 6.0881012617972463e-01 -6.1769620728478702e-01 -7.3007794665718856e-03 1.5779177268387390e-01 5.7345703368109402e-01 6.4404992402079719e-01 
        </Neuron>
        <Neuron NSynapses="11">
          -7.4557455911483317e-01 -7.5040716005455654e-01 -2.3018852296694789e-01 -1.0498503561500321e+00 6.8368345931586838e-01 -1.4914202173052060e+00 -1.3923993697478556e+00 -9.5397218761249569e-02 -3.4136839361711566e-02 4.9681024023402943e-02 -7.9924593474946948e-01 
        </Neuron>
        <Neuron NSynapses="11">
          -5.8663258471692584e-02 -1.1196223560215939e+00 -6.3820521416755904e-01 -3.7405325837645459e-01 9.3245545367726634e-01 -1.5735946318002916e+00 6.2884968542533193e-01 2.3936006560690233e-02 8.5548425484124439e-03 2.8707125251496141e-01 -4.9534823906044612e-01 
        </Neuron>
        <Neuron NSynapses="11">
          4.9189290008403425e-01 1.0574454593468390e+00 1.0583581844171812e+00 1.1777196829111458e+00 -1.7488879449084422e+00 1.4737867450840376e+00 -5.3732626972769693e-01 -7.2562406395498524e-01 -2.3583752404620945e-01 -3.4224513203859336e-01 -6.8821184269684232e-01 
        </Neuron>
        <Neuron NSynapses="11">
          -5.9042745825095677e-01 -1.7233353383868208e+00 3.4506739987368498e+00 1.2254469181917023e+00 -1.1223220366429067e-01 1.7440562661431425e+00 1.5844823427350356e+00 -2.0156732740294228e+00 1.2558351546587141e+00 1.0740824268315267e-01 -2.7786712699198639e+00 
        </Neuron>
      </Layer>
      <Layer Index="1" NNeurons="12">
        <Neuron NSynapses="11">
          3.3866640403347370e-01 -8.0131338199468582e-01 -5.7750605215505679e-01 8.2703661582077570e-01 1.0462161487116142e+00 -1.9925566974759199e+00 5.6495136110820576e-01 1.1065907421305949e+00 3.2271043004975680e-01 2.8099439272788573e-01 -9.6723982053438429e-01 
        </Neuron>
        <Neuron NSynapses="11">
          1.9206513926161031e-01 -1.5505216084861366e+00 4.7049904282334992e-02 1.1639866338090834e+00 -3.0875306854065554e-01 -4.7924583836718920e-01 -1.0782679106354798e-01 -8.6939777559173881e-01 3.2248179330569648e-01 2.3300995028765130e+00 -6.1267087260913866e-01 
        </Neuron>
        <Neuron NSynapses="11">
          -6.8261266535020504e-01 -1.5344383885400142e-01 -4.8756801663759980e-02 5.5941402119954131e-01 8.3312232532802777e-01 -1.4532017865213374e+00 1.4976154229389331e+00 5.9640620645141695e-01 2.2017312799274347e-01 8.8471377704138621e-01 1.3868238000383397e+00 
        </Neuron>
        <Neuron NSynapses="11">
          -6.0733912946632185e-01 -1.2432299052486064e+00 1.0924283178012570e+00 -7.7915860666741354e-01 2.7423663512839719e-01 1.4265826772010579e+00 3.2168657006353557e-01 2.5398820655218063e-01 1.1090421861965143e+00 8.6136627474652772e-01 -1.7748072425076868e+00 
        </Neuron>
        <Neuron NSynapses="11">
          7.8653907837432424e-02 8.9283914817331012e-01 3.6420796179198756e-01 -1.6910742498306053e+00 -1.2544376661906014e+00 1.3083378221273625e+00 1.4883251843627989e+00 -1.8155515296721689e+00 2.3321790710552082e-01 -9.8719310021944029e-01 3.1718698376121846e-02 
        </Neuron>
        <Neuron NSynapses="11">
          7.6410726998219536e-01 -8.8007299617156387e-01 -1.3199363237221760e+00 -6.4007792354591864e-01 2.0752940070817744e-01 1.6077607383637340e+00 8.5888436527720291e-01 8.1009867110710287e-01 -9.4099866110659924e-01 -1.4864495526881740e+00 1.2875936441532898e+00 
        </Neuron>
        <Neuron NSynapses="11">
          1.7031601919977918e-01 -1.1298909101562373e+00 -1.6320758826212306e-01 5.1191414697949217e-02 5.0549201395637282e-02 -1.9515146840249871e+00 2.2510255939387385e+00 7.2528162560915166e-01 -1.7853602549137114e-02 -2.1641790443746647e-01 1.8292880009295942e+00 
        </Neuron>
        <Neuron NSynapses="11">
          1.8244037480788440e+00 8.4914055538707978e-01 8.6410777835352420e-02 -2.1485347792631173e+00 -1.0404330043733081e+00 1.6876409293778878e+00 1.4000947033625759e+00 1.0153990729633842e+00 1.0613557931939144e+00 1.7743597781303604e+00 -1.7325322896211997e+00 
        </Neuron>
        <Neuron NSynapses="11">
          -2.4670351027073818e+00 -4.7038350916778565e-01 -1.4248235065696659e+00 1.1478265963349943e+00 2.5099280496617502e+00 -1.1713486785526033e+00 6.4961702552656464e-01 -1.5056613263897034e-01 -2.4772650087928634e+00 -1.1290897704065206e+00 1.1042746899610594e+00 
        </Neuron>
        <Neuron NSynapses="11">
          -5.3901203800782183e-01 1.2774535201882358e+00 -9.9503055197673207e-01 1.8853874727175786e+00 -1.5032147093950072e+00 8.4997207161738009e-01 -1.6889980767608084e-01 -5.0379198906677458e-01 -1.1275156345605988e+00 -1.9297109008865674e+00 -6.9226213033412332e-01 
        </Neuron>
        <Neuron NSynapses="11">
          -1.8950885528293502e+00 -1.3244824923149923e+00 -1.0417397555425207e+00 2.2472888685132195e-01 -3.1458009901667394e-01 -1.5965133425076905e+00 1.2421408495096742e+00 -1.0017329528241605e+00 1.9957063212055476e-01 -9.2216884554920941e-01 1.2684050696024957e-01 
        </Neuron>
        <Neuron NSynapses="11">
          1.5076656709872611e+00 9.7410276748435454e-01 -1.9744491309517866e+00 -1.5097027589002912e+00 -1.1130931703358948e-01 -8.6528517907925584e-01 -1.7260751376555585e+00 2.9289274442609148e-01 -7.1394937114013166e-02 2.0543426304661603e+00 1.2798182734462452e-01 
        </Neuron>
      </Layer>
      <Layer Index="2" NNeurons="12">
        <Neuron NSynapses="1">
          -1.2333362684323766e-01 
        </Neuron>
        <Neuron NSynapses="1">
          1.2322831316361159e-02 
        </Neuron>
        <Neuron NSynapses="1">
          -8.7979384524360693e-01 
        </Neuron>
        <Neuron NSynapses="1">
          8.1390332008387037e-03 
        </Neuron>
        <Neuron NSynapses="1">
          -2.1744332321887677e-01 
        </Neuron>
        <Neuron NSynapses="1">
          -8.1019643374468132e-03 
        </Neuron>
        <Neuron NSynapses="1">
          1.1602591703950716e-02 
        </Neuron>
        <Neuron NSynapses="1">
          -3.4727027128258967e-02 
        </Neuron>
        <Neuron NSynapses="1">
          -8.8320093958527454e-02 
        </Neuron>
        <Neuron NSynapses="1">
          -1.9234583533876491e-02 
        </Neuron>
        <Neuron NSynapses="1">
          -3.0124737316722772e-01 
        </Neuron>
        <Neuron NSynapses="1">
          -4.2446352895830997e-01 
        </Neuron>
      </Layer>
      <Layer Index="3" NNeurons="1">
        <Neuron NSynapses="0"/>
      </Layer>
    </Layout>
  </Weights>
</MethodSetup>
