<?xml version="1.0"?>
<MethodSetup Method="MLP::XS_95_242_0_n2n">
  <GeneralInfo>
    <Info name="TMVA Release" value="4.2.0 [262656]"/>
    <Info name="ROOT Release" value="5.34/32 [336416]"/>
    <Info name="Creator" value="thiollie"/>
    <Info name="Date" value="Fri Mar 25 07:12:14 2016"/>
    <Info name="Host" value="Darwin nanpc193.in2p3.fr 14.4.0 Darwin Kernel Version 14.4.0: Thu May 28 11:35:04 PDT 2015; root:xnu-2782.30.5~1/RELEASE_X86_64 x86_64"/>
    <Info name="Dir" value="/Users/thiollie/PROGS/CLASS/BuildModel/Utils/XSM/MLP/Train"/>
    <Info name="Training events" value="1389"/>
    <Info name="TrainingTime" value="4.56339049e+01"/>
    <Info name="AnalysisType" value="Regression"/>
  </GeneralInfo>
  <Options>
    <Option name="NCycles" modified="Yes">20000</Option>
    <Option name="HiddenLayers" modified="Yes">N,N</Option>
    <Option name="NeuronType" modified="Yes">tanh</Option>
    <Option name="RandomSeed" modified="No">1</Option>
    <Option name="EstimatorType" modified="No">MSE</Option>
    <Option name="NeuronInputType" modified="No">sum</Option>
    <Option name="V" modified="Yes">False</Option>
    <Option name="VerbosityLevel" modified="No">Default</Option>
    <Option name="VarTransform" modified="Yes">Norm</Option>
    <Option name="H" modified="Yes">False</Option>
    <Option name="CreateMVAPdfs" modified="No">False</Option>
    <Option name="IgnoreNegWeightsInTraining" modified="No">False</Option>
    <Option name="TrainingMethod" modified="Yes">BFGS</Option>
    <Option name="LearningRate" modified="No">2.000000e-02</Option>
    <Option name="DecayRate" modified="No">1.000000e-02</Option>
    <Option name="TestRate" modified="Yes">6</Option>
    <Option name="EpochMonitoring" modified="No">False</Option>
    <Option name="Sampling" modified="Yes">3.000000e-01</Option>
    <Option name="SamplingEpoch" modified="Yes">8.000000e-01</Option>
    <Option name="SamplingImportance" modified="No">1.000000e+00</Option>
    <Option name="SamplingTraining" modified="No">True</Option>
    <Option name="SamplingTesting" modified="No">False</Option>
    <Option name="ResetStep" modified="No">50</Option>
    <Option name="Tau" modified="No">3.000000e+00</Option>
    <Option name="BPMode" modified="No">sequential</Option>
    <Option name="BatchSize" modified="No">-1</Option>
    <Option name="ConvergenceImprove" modified="Yes">1.000000e-06</Option>
    <Option name="ConvergenceTests" modified="Yes">15</Option>
    <Option name="UseRegulator" modified="Yes">False</Option>
    <Option name="UpdateLimit" modified="No">10000</Option>
    <Option name="CalculateErrors" modified="No">False</Option>
    <Option name="WeightRange" modified="No">1.000000e+00</Option>
  </Options>
  <Variables NVar="13">
    <Variable VarIndex="0" Expression="MA_93_237" Label="MA_93_237" Title="Np 237" Unit="FractionIsotopic" Internal="MA_93_237" Type="F" Min="3.21065984e-03" Max="4.72011417e-01"/>
    <Variable VarIndex="1" Expression="Pu_94_238" Label="Pu_94_238" Title="Pu 238" Unit="FractionIsotopic" Internal="Pu_94_238" Type="F" Min="3.68860929e-05" Max="2.47458607e-01"/>
    <Variable VarIndex="2" Expression="Pu_94_239" Label="Pu_94_239" Title="Pu 239" Unit="FractionIsotopic" Internal="Pu_94_239" Type="F" Min="3.37636471e-03" Max="2.23870575e-01"/>
    <Variable VarIndex="3" Expression="Pu_94_240" Label="Pu_94_240" Title="Pu 240" Unit="FractionIsotopic" Internal="Pu_94_240" Type="F" Min="1.15393021e-04" Max="2.51328260e-01"/>
    <Variable VarIndex="4" Expression="Pu_94_241" Label="Pu_94_241" Title="Pu 241" Unit="FractionIsotopic" Internal="Pu_94_241" Type="F" Min="1.28546992e-04" Max="8.55372697e-02"/>
    <Variable VarIndex="5" Expression="Pu_94_242" Label="Pu_94_242" Title="Pu 242" Unit="FractionIsotopic" Internal="Pu_94_242" Type="F" Min="1.81331543e-05" Max="1.18410327e-01"/>
    <Variable VarIndex="6" Expression="MA_95_241" Label="MA_95_241" Title="Am 241" Unit="FractionIsotopic" Internal="MA_95_241" Type="F" Min="2.19029468e-03" Max="6.41448259e-01"/>
    <Variable VarIndex="7" Expression="MA_95_242" Label="MA_95_242" Title="Am 242" Unit="FractionIsotopic" Internal="MA_95_242" Type="F" Min="2.78117295e-05" Max="4.86099720e-02"/>
    <Variable VarIndex="8" Expression="MA_95_243" Label="MA_95_243" Title="Am 243" Unit="FractionIsotopic" Internal="MA_95_243" Type="F" Min="3.80090787e-03" Max="3.49846095e-01"/>
    <Variable VarIndex="9" Expression="MA_96_244" Label="MA_96_244" Title="Cm 244" Unit="FractionIsotopic" Internal="MA_96_244" Type="F" Min="1.23171703e-05" Max="1.41019285e-01"/>
    <Variable VarIndex="10" Expression="MA_96_245" Label="MA_96_245" Title="Cm 245" Unit="FractionIsotopic" Internal="MA_96_245" Type="F" Min="5.14694730e-05" Max="9.74799842e-02"/>
    <Variable VarIndex="11" Expression="MA_96_246" Label="MA_96_246" Title="Cm 246" Unit="FractionIsotopic" Internal="MA_96_246" Type="F" Min="8.24415929e-06" Max="4.63430397e-02"/>
    <Variable VarIndex="12" Expression="Time" Label="Time" Title="Time" Unit="seconds" Internal="Time" Type="F" Min="0.00000000e+00" Max="9.46728000e+07"/>
  </Variables>
  <Spectators NSpec="0"/>
  <Classes NClass="1">
    <Class Name="Regression" Index="0"/>
  </Classes>
  <Targets NTrgt="1">
    <Target TargetIndex="0" Expression="XS_95_242_0_n2n" Label="XS_95_242_0_n2n" Title="XS_95_242_0_n2n" Unit="" Internal="XS_95_242_0_n2n" Type="F" Min="4.40739968e-04" Max="6.25206041e-04"/>
  </Targets>
  <Transformations NTransformations="1">
    <Transform Name="Normalize">
      <Selection>
        <Input NInputs="14">
          <Input Type="Variable" Label="MA_93_237" Expression="MA_93_237"/>
          <Input Type="Variable" Label="Pu_94_238" Expression="Pu_94_238"/>
          <Input Type="Variable" Label="Pu_94_239" Expression="Pu_94_239"/>
          <Input Type="Variable" Label="Pu_94_240" Expression="Pu_94_240"/>
          <Input Type="Variable" Label="Pu_94_241" Expression="Pu_94_241"/>
          <Input Type="Variable" Label="Pu_94_242" Expression="Pu_94_242"/>
          <Input Type="Variable" Label="MA_95_241" Expression="MA_95_241"/>
          <Input Type="Variable" Label="MA_95_242" Expression="MA_95_242"/>
          <Input Type="Variable" Label="MA_95_243" Expression="MA_95_243"/>
          <Input Type="Variable" Label="MA_96_244" Expression="MA_96_244"/>
          <Input Type="Variable" Label="MA_96_245" Expression="MA_96_245"/>
          <Input Type="Variable" Label="MA_96_246" Expression="MA_96_246"/>
          <Input Type="Variable" Label="Time" Expression="Time"/>
          <Input Type="Target" Label="XS_95_242_0_n2n" Expression="XS_95_242_0_n2n"/>
        </Input>
        <Output NOutputs="14">
          <Output Type="Variable" Label="MA_93_237" Expression="MA_93_237"/>
          <Output Type="Variable" Label="Pu_94_238" Expression="Pu_94_238"/>
          <Output Type="Variable" Label="Pu_94_239" Expression="Pu_94_239"/>
          <Output Type="Variable" Label="Pu_94_240" Expression="Pu_94_240"/>
          <Output Type="Variable" Label="Pu_94_241" Expression="Pu_94_241"/>
          <Output Type="Variable" Label="Pu_94_242" Expression="Pu_94_242"/>
          <Output Type="Variable" Label="MA_95_241" Expression="MA_95_241"/>
          <Output Type="Variable" Label="MA_95_242" Expression="MA_95_242"/>
          <Output Type="Variable" Label="MA_95_243" Expression="MA_95_243"/>
          <Output Type="Variable" Label="MA_96_244" Expression="MA_96_244"/>
          <Output Type="Variable" Label="MA_96_245" Expression="MA_96_245"/>
          <Output Type="Variable" Label="MA_96_246" Expression="MA_96_246"/>
          <Output Type="Variable" Label="Time" Expression="Time"/>
          <Output Type="Target" Label="XS_95_242_0_n2n" Expression="XS_95_242_0_n2n"/>
        </Output>
      </Selection>
      <Class ClassIndex="0">
        <Ranges>
          <Range Index="0" Min="3.2106598373502493e-03" Max="4.7201141715049744e-01"/>
          <Range Index="1" Min="3.6886092857457697e-05" Max="2.4745860695838928e-01"/>
          <Range Index="2" Min="3.3763647079467773e-03" Max="2.2387057542800903e-01"/>
          <Range Index="3" Min="1.1539302067831159e-04" Max="2.5132825970649719e-01"/>
          <Range Index="4" Min="1.2854699161835015e-04" Max="8.5537269711494446e-02"/>
          <Range Index="5" Min="1.8133154298993759e-05" Max="1.1841032654047012e-01"/>
          <Range Index="6" Min="2.1902946755290031e-03" Max="6.4144825935363770e-01"/>
          <Range Index="7" Min="2.7811729523818940e-05" Max="4.8609972000122070e-02"/>
          <Range Index="8" Min="3.8009078707545996e-03" Max="3.4984609484672546e-01"/>
          <Range Index="9" Min="1.2317170330788940e-05" Max="1.4101928472518921e-01"/>
          <Range Index="10" Min="5.1469472964527085e-05" Max="9.7479984164237976e-02"/>
          <Range Index="11" Min="8.2441592894610949e-06" Max="4.6343039721250534e-02"/>
          <Range Index="12" Min="0.0000000000000000e+00" Max="9.4672800000000000e+07"/>
          <Range Index="13" Min="4.4073996832594275e-04" Max="6.2520604114979506e-04"/>
        </Ranges>
      </Class>
    </Transform>
  </Transformations>
  <MVAPdfs/>
  <Weights>
    <Layout NLayers="4">
      <Layer Index="0" NNeurons="14">
        <Neuron NSynapses="13">
          1.9224914796001008e-01 1.7183815509153217e+00 8.2111249474831893e-02 1.5024999765226128e+00 -1.9341531758739734e+00 -1.4358157113517838e+00 -1.3095875803314927e+00 9.4859034660130170e-01 -1.2132562955878781e+00 9.6515015423479178e-01 -1.6180414380903914e+00 3.1393587006454504e-01 5.4237657701299229e-02 
        </Neuron>
        <Neuron NSynapses="13">
          3.1733877072527183e-01 -4.2382784906753929e-01 1.6113174072791320e-01 2.7479275755127758e-01 4.7461998231810243e-01 -3.6966583800090137e-02 1.7743670885196368e+00 -1.0941007517867370e-02 -1.2144617598659717e+00 1.1052148943804279e+00 -4.1925785356371714e-01 -5.8664854353538853e-01 -4.3219096137003521e-01 
        </Neuron>
        <Neuron NSynapses="13">
          1.4038527532006131e+00 -5.9892984533398086e-01 -2.0915043543273542e+00 5.1305385491805566e-01 6.9627898103250963e-01 8.6733698595743103e-01 -2.2452779942670395e-01 -2.0723816131928119e-01 -5.6268148470242851e-01 3.9744203210498444e-02 -1.1503875117662699e+00 2.1387846950394191e+00 -5.0023392930035959e-01 
        </Neuron>
        <Neuron NSynapses="13">
          8.6367661418565489e-01 1.9071074442329516e+00 7.8488014163366671e-01 1.6523957685882900e+00 -2.6583500910408975e-01 -5.5155646391674140e-01 -1.3403905888028467e+00 4.7310745058349651e-01 -6.7364870757731077e-01 1.6933476887363492e+00 3.6258267875952255e-01 2.1809046701125250e+00 6.8210124837081709e-01 
        </Neuron>
        <Neuron NSynapses="13">
          -1.1847474556704094e+00 8.6695660302990141e-01 -1.9815497357767586e+00 -7.3751530959790113e-01 -4.5543613026855295e-01 -1.5205111729122076e+00 1.7573572846021268e+00 -1.6905602455526669e-01 -1.3609339374853953e+00 1.3250403352820070e+00 -2.9726399750659444e-01 1.5068739609200421e+00 1.7046601642152892e+00 
        </Neuron>
        <Neuron NSynapses="13">
          3.5471443537075159e-01 7.0135818415093532e-01 -1.6409016798495830e+00 1.0090356540434471e+00 -1.6156451146278967e+00 -5.1563553971440623e-01 -9.0272384494166569e-01 2.4957490657478068e-01 3.4918701522957563e-01 1.4308096317288568e+00 -2.5275149185836998e-01 5.0113008725770347e-01 -1.8851343132674188e+00 
        </Neuron>
        <Neuron NSynapses="13">
          4.8040016679329545e-01 1.7885633820734317e-01 1.7822448629043708e+00 6.7794162429619120e-01 1.2969074211919047e+00 -1.3042592679032914e+00 -3.5715088772200398e-01 9.9141518415412033e-01 6.0647461693256510e-01 -2.1405263349522494e+00 -2.0593062085418459e+00 -2.1296776278118852e+00 -3.8659633789110354e-01 
        </Neuron>
        <Neuron NSynapses="13">
          -2.4677897458615511e-01 -5.0669841507117430e-01 -1.6450035139167447e+00 -4.0176441231063925e-01 1.5149572609501480e+00 -1.0267647317303699e+00 -1.2286134387282435e+00 -2.4194272812124645e-01 -6.3111767328135771e-01 -6.2057503523810786e-01 -2.3167519351852985e+00 8.5554044196747081e-01 4.2785070200612801e-01 
        </Neuron>
        <Neuron NSynapses="13">
          -4.6354418076220827e-01 2.0582320631465278e+00 -5.2940526188176762e-01 2.0713246194588492e-01 9.1439142054864497e-01 -6.7760725934125965e-02 -1.8320824626946148e+00 6.6113249027024645e-01 -4.8938480044515892e-01 7.9019614307381381e-01 -1.4266082880797475e+00 1.0011618784812790e+00 -7.5335620276757942e-01 
        </Neuron>
        <Neuron NSynapses="13">
          8.6285503633153973e-03 -1.1509529856983454e-01 -1.5632987067303323e+00 4.2942963124656514e-01 4.3598154182604371e-01 -8.5144649054106791e-01 1.1074840226920466e+00 1.2899793708127202e-01 -4.6234658723712974e-01 5.3223783891132970e-01 3.8387381831373968e-01 -1.5557899324132471e-01 1.1942822711249879e+00 
        </Neuron>
        <Neuron NSynapses="13">
          4.8331296857538969e-01 -1.0057040735385776e+00 -2.3954890755881902e-01 -1.0993772881306139e+00 1.1607114682333299e+00 4.9581890352365510e-01 1.8693560492201746e+00 -4.6043658672583981e-01 -1.0076693976471929e+00 1.2594789928888672e+00 5.4763915132053809e-01 -4.1063249528133666e-01 -1.5486130699673260e+00 
        </Neuron>
        <Neuron NSynapses="13">
          -3.1697652166679319e-01 4.9696658317338424e-02 1.1169755666037608e+00 6.9676301153930775e-01 -1.1319360139673751e-01 -3.1928578326684898e-01 8.4515128395066508e-01 6.7463713789050139e-02 1.9377317162173502e-01 1.5299371974649467e+00 -3.7318232060995787e-01 1.7966155570493494e-01 -1.0063217570910232e+00 
        </Neuron>
        <Neuron NSynapses="13">
          9.4474127973329314e-01 6.3297613290218324e-01 7.7645248160893937e-02 -6.1751308924086612e-01 1.4523896499684381e+00 -1.1365537812217391e-01 -3.6480108282564838e-01 9.0228732574222217e-02 5.0620936233152258e-01 2.9146224599376902e-01 -1.4000711149767398e+00 1.1752276462528484e+00 -2.4029232286923570e+00 
        </Neuron>
        <Neuron NSynapses="13">
          -1.3032880452149282e+00 1.4612130666806302e+00 2.0669448418809564e+00 -1.4018621828222886e+00 1.5028505281122468e+00 2.8123224654914898e+00 -2.3706394677222344e+00 3.7740299525849612e-02 1.7973904618210843e+00 -6.7645861084350933e-01 -7.2208391142435879e-01 -2.5527519961747336e+00 1.2336563922444654e+00 
        </Neuron>
      </Layer>
      <Layer Index="1" NNeurons="14">
        <Neuron NSynapses="13">
          1.7296079005836109e+00 -1.5340231074333142e+00 2.5587074451943054e-01 -5.0610624425371072e-02 1.2057697596175829e-01 1.2058221061207948e+00 -3.8455342219596234e-01 -1.0524940828649465e+00 -1.1329338732031924e-01 1.1884692577178986e+00 1.2558981415817567e+00 1.0030791769290801e+00 4.2837002612080582e-01 
        </Neuron>
        <Neuron NSynapses="13">
          -1.2944336948087214e+00 -1.9208092008457787e+00 5.3759993489962854e-01 -6.7448198169278356e-02 -1.1920195387429895e+00 -4.1537666856486417e-02 1.1595695100860383e-01 4.0705340671765222e-01 -1.8718503502570663e+00 1.2761109512712001e+00 1.1296130993852009e+00 -6.6987357566501482e-01 -1.3951458242723744e-01 
        </Neuron>
        <Neuron NSynapses="13">
          1.6529014822303552e+00 1.2777771396618411e+00 -3.0546843870093980e-02 7.7260711213566827e-02 -1.9210614590438555e+00 -6.7517785918686990e-01 1.8903913244481636e+00 1.7479985546079448e+00 6.4021122860503366e-01 -2.3478654370239563e-01 2.0697014829215115e+00 -1.6042585266795986e+00 -1.3567394559702881e+00 
        </Neuron>
        <Neuron NSynapses="13">
          -1.3637629256413361e-01 -8.4379362734636676e-01 1.7577348010752014e+00 3.5044142150143798e-01 -1.4081352790279262e+00 1.8521835803918157e-01 -4.1458786778550621e-01 -1.4296809396807248e+00 -7.4608130322858057e-01 6.6161056193976020e-01 -5.2149771292337921e-01 9.5961055699865927e-01 -1.1375601070576964e+00 
        </Neuron>
        <Neuron NSynapses="13">
          1.8277026672352676e+00 -1.5967433828462665e+00 8.7633802047350851e-01 2.8409686977924925e-02 -1.7446830191190759e+00 -9.3641614882869539e-01 -1.8109864689597484e+00 -6.7384555016666492e-01 -1.7516855269283449e-01 -9.0724956928948453e-01 -6.8018544471923892e-01 3.3720901354981979e-02 -8.7277016764095428e-01 
        </Neuron>
        <Neuron NSynapses="13">
          -1.6673059540330453e+00 1.6863106338728504e+00 -1.2933676741206861e+00 8.2201497860263739e-01 -1.0757981811876645e+00 4.5859798205947144e-01 2.0079242099206902e+00 1.4485373439610112e+00 -7.6062976963823548e-01 -2.0586003951584462e+00 -7.1375671354426240e-01 -8.3202960309824958e-01 -1.6453733446790040e+00 
        </Neuron>
        <Neuron NSynapses="13">
          5.6816263731563565e-01 -2.9834921773632095e-01 1.0611106224859099e+00 2.0530958121679974e-02 8.2560633338619882e-01 -1.0337670399025667e+00 -1.6859587110609910e+00 8.0305088704527616e-01 9.2464286889312097e-01 -3.2734180596888825e-02 -1.3689293652296504e+00 7.9127690198592138e-01 1.3152152593775532e+00 
        </Neuron>
        <Neuron NSynapses="13">
          4.3459881111944482e-01 -2.0247805388284360e-02 -1.1099141344971886e+00 2.0683572315999843e+00 1.3034399078749370e+00 2.2125249960171844e+00 -3.2038076145080024e-01 8.3509602923011872e-01 -1.9406263839234204e+00 -1.5021308672023521e+00 1.1252395584834578e+00 -1.9125037631290032e+00 -1.3989705980144480e+00 
        </Neuron>
        <Neuron NSynapses="13">
          -1.5679949664198685e+00 2.0277617858885986e+00 -1.6890136697747731e+00 2.3143168478596454e+00 -1.4743261657454045e+00 1.2745696602940402e+00 -9.6848572638149111e-01 5.3399545368188428e-01 9.9168410072170166e-01 -2.2493684861400483e+00 5.4285836099626583e-01 6.7027690762378112e-01 -1.9828520860861900e+00 
        </Neuron>
        <Neuron NSynapses="13">
          -1.3792416700871517e+00 -1.3516067510262222e+00 -3.8007553057702070e-01 3.8172730037291230e-01 -6.3572071798555174e-01 1.2260989030739941e-01 -1.0498372595948464e+00 -9.9178406484601833e-01 -9.8544180039002116e-01 -4.9465946766306140e-01 -7.1868334893057895e-01 1.1912187831838141e+00 -1.3077697731525701e+00 
        </Neuron>
        <Neuron NSynapses="13">
          -2.7278733650636044e-01 2.1078965824408740e+00 5.9168201311164924e-03 -2.4584952037806369e-02 1.1782689728369218e+00 -1.6125986318180769e+00 1.4605855553789053e+00 1.1163380419399347e+00 4.1519213310534775e-01 -8.8470808186369099e-01 3.0502468123283322e-01 -9.6915673792911194e-01 4.9208509668528166e-01 
        </Neuron>
        <Neuron NSynapses="13">
          1.9608428955152497e+00 8.7960131296314592e-01 2.0203115028831951e+00 3.6589483064195932e-01 1.6242505527892079e+00 -1.4773396083213350e+00 3.9159437620469312e-01 -1.9354337593084043e+00 -1.3514027213653428e+00 2.1508926657651364e-01 1.6807723621028403e+00 2.4519268165278232e-01 1.1337258443324261e+00 
        </Neuron>
        <Neuron NSynapses="13">
          -5.1751730747387162e-02 -7.4068593336838806e-01 -3.2361927676244118e-01 -2.6702162159135054e-02 1.8800207448056572e+00 -5.7979021099321737e-01 1.8606316450442495e-01 -8.3471409077040504e-01 -1.5426320302592169e-02 -8.3859058136857550e-03 2.6870684041940054e-02 -1.2574147849936488e+00 8.5089474071386129e-01 
        </Neuron>
        <Neuron NSynapses="13">
          1.5414501759605526e+00 1.0719523734816230e+00 -5.9759740142953266e-01 -9.8748518594926366e-02 -1.3316087178569653e+00 -1.4794764654798231e+00 1.1932841885178795e+00 2.2372785067158105e-01 -9.6191506910023372e-01 -1.0954344177875146e-01 -1.3864398796131823e+00 -1.1081605029184138e+00 -1.7190453297916377e+00 
        </Neuron>
      </Layer>
      <Layer Index="2" NNeurons="14">
        <Neuron NSynapses="1">
          6.3116644586242540e-02 
        </Neuron>
        <Neuron NSynapses="1">
          -3.2101888886176183e-01 
        </Neuron>
        <Neuron NSynapses="1">
          -4.3891757550678867e-01 
        </Neuron>
        <Neuron NSynapses="1">
          -2.4023472381618509e+00 
        </Neuron>
        <Neuron NSynapses="1">
          -2.6852082334446037e-01 
        </Neuron>
        <Neuron NSynapses="1">
          -2.5821319236854753e-02 
        </Neuron>
        <Neuron NSynapses="1">
          8.8940240397295889e-01 
        </Neuron>
        <Neuron NSynapses="1">
          -3.9456371212352276e-01 
        </Neuron>
        <Neuron NSynapses="1">
          9.5418784068391715e-02 
        </Neuron>
        <Neuron NSynapses="1">
          -3.6734180614576289e-01 
        </Neuron>
        <Neuron NSynapses="1">
          -6.8488492508755411e-02 
        </Neuron>
        <Neuron NSynapses="1">
          5.1532833756830110e-01 
        </Neuron>
        <Neuron NSynapses="1">
          1.4737463809284429e-01 
        </Neuron>
        <Neuron NSynapses="1">
          1.1703525089770348e+00 
        </Neuron>
      </Layer>
      <Layer Index="3" NNeurons="1">
        <Neuron NSynapses="0"/>
      </Layer>
    </Layout>
  </Weights>
</MethodSetup>
