<?xml version="1.0"?>
<MethodSetup Method="MLP::XS_81_203_0_cap">
  <GeneralInfo>
    <Info name="TMVA Release" value="4.2.0 [262656]"/>
    <Info name="ROOT Release" value="5.34/32 [336416]"/>
    <Info name="Creator" value="thiollie"/>
    <Info name="Date" value="Thu Mar 24 19:42:23 2016"/>
    <Info name="Host" value="Darwin nanpc193.in2p3.fr 14.4.0 Darwin Kernel Version 14.4.0: Thu May 28 11:35:04 PDT 2015; root:xnu-2782.30.5~1/RELEASE_X86_64 x86_64"/>
    <Info name="Dir" value="/Users/thiollie/PROGS/CLASS/BuildModel/Utils/XSM/MLP/Train"/>
    <Info name="Training events" value="1389"/>
    <Info name="TrainingTime" value="9.04877830e+01"/>
    <Info name="AnalysisType" value="Regression"/>
  </GeneralInfo>
  <Options>
    <Option name="NCycles" modified="Yes">20000</Option>
    <Option name="HiddenLayers" modified="Yes">N,N</Option>
    <Option name="NeuronType" modified="Yes">tanh</Option>
    <Option name="RandomSeed" modified="No">1</Option>
    <Option name="EstimatorType" modified="No">MSE</Option>
    <Option name="NeuronInputType" modified="No">sum</Option>
    <Option name="V" modified="Yes">False</Option>
    <Option name="VerbosityLevel" modified="No">Default</Option>
    <Option name="VarTransform" modified="Yes">Norm</Option>
    <Option name="H" modified="Yes">False</Option>
    <Option name="CreateMVAPdfs" modified="No">False</Option>
    <Option name="IgnoreNegWeightsInTraining" modified="No">False</Option>
    <Option name="TrainingMethod" modified="Yes">BFGS</Option>
    <Option name="LearningRate" modified="No">2.000000e-02</Option>
    <Option name="DecayRate" modified="No">1.000000e-02</Option>
    <Option name="TestRate" modified="Yes">6</Option>
    <Option name="EpochMonitoring" modified="No">False</Option>
    <Option name="Sampling" modified="Yes">3.000000e-01</Option>
    <Option name="SamplingEpoch" modified="Yes">8.000000e-01</Option>
    <Option name="SamplingImportance" modified="No">1.000000e+00</Option>
    <Option name="SamplingTraining" modified="No">True</Option>
    <Option name="SamplingTesting" modified="No">False</Option>
    <Option name="ResetStep" modified="No">50</Option>
    <Option name="Tau" modified="No">3.000000e+00</Option>
    <Option name="BPMode" modified="No">sequential</Option>
    <Option name="BatchSize" modified="No">-1</Option>
    <Option name="ConvergenceImprove" modified="Yes">1.000000e-06</Option>
    <Option name="ConvergenceTests" modified="Yes">15</Option>
    <Option name="UseRegulator" modified="Yes">False</Option>
    <Option name="UpdateLimit" modified="No">10000</Option>
    <Option name="CalculateErrors" modified="No">False</Option>
    <Option name="WeightRange" modified="No">1.000000e+00</Option>
  </Options>
  <Variables NVar="13">
    <Variable VarIndex="0" Expression="MA_93_237" Label="MA_93_237" Title="Np 237" Unit="FractionIsotopic" Internal="MA_93_237" Type="F" Min="3.21065984e-03" Max="4.72011417e-01"/>
    <Variable VarIndex="1" Expression="Pu_94_238" Label="Pu_94_238" Title="Pu 238" Unit="FractionIsotopic" Internal="Pu_94_238" Type="F" Min="3.68860929e-05" Max="2.47458607e-01"/>
    <Variable VarIndex="2" Expression="Pu_94_239" Label="Pu_94_239" Title="Pu 239" Unit="FractionIsotopic" Internal="Pu_94_239" Type="F" Min="3.37636471e-03" Max="2.23870575e-01"/>
    <Variable VarIndex="3" Expression="Pu_94_240" Label="Pu_94_240" Title="Pu 240" Unit="FractionIsotopic" Internal="Pu_94_240" Type="F" Min="1.15393021e-04" Max="2.51328260e-01"/>
    <Variable VarIndex="4" Expression="Pu_94_241" Label="Pu_94_241" Title="Pu 241" Unit="FractionIsotopic" Internal="Pu_94_241" Type="F" Min="1.28546992e-04" Max="8.55372697e-02"/>
    <Variable VarIndex="5" Expression="Pu_94_242" Label="Pu_94_242" Title="Pu 242" Unit="FractionIsotopic" Internal="Pu_94_242" Type="F" Min="1.81331543e-05" Max="1.18410327e-01"/>
    <Variable VarIndex="6" Expression="MA_95_241" Label="MA_95_241" Title="Am 241" Unit="FractionIsotopic" Internal="MA_95_241" Type="F" Min="2.19029468e-03" Max="6.41448259e-01"/>
    <Variable VarIndex="7" Expression="MA_95_242" Label="MA_95_242" Title="Am 242" Unit="FractionIsotopic" Internal="MA_95_242" Type="F" Min="2.78117295e-05" Max="4.86099720e-02"/>
    <Variable VarIndex="8" Expression="MA_95_243" Label="MA_95_243" Title="Am 243" Unit="FractionIsotopic" Internal="MA_95_243" Type="F" Min="3.80090787e-03" Max="3.49846095e-01"/>
    <Variable VarIndex="9" Expression="MA_96_244" Label="MA_96_244" Title="Cm 244" Unit="FractionIsotopic" Internal="MA_96_244" Type="F" Min="1.23171703e-05" Max="1.41019285e-01"/>
    <Variable VarIndex="10" Expression="MA_96_245" Label="MA_96_245" Title="Cm 245" Unit="FractionIsotopic" Internal="MA_96_245" Type="F" Min="5.14694730e-05" Max="9.74799842e-02"/>
    <Variable VarIndex="11" Expression="MA_96_246" Label="MA_96_246" Title="Cm 246" Unit="FractionIsotopic" Internal="MA_96_246" Type="F" Min="8.24415929e-06" Max="4.63430397e-02"/>
    <Variable VarIndex="12" Expression="Time" Label="Time" Title="Time" Unit="seconds" Internal="Time" Type="F" Min="0.00000000e+00" Max="9.46728000e+07"/>
  </Variables>
  <Spectators NSpec="0"/>
  <Classes NClass="1">
    <Class Name="Regression" Index="0"/>
  </Classes>
  <Targets NTrgt="1">
    <Target TargetIndex="0" Expression="XS_81_203_0_cap" Label="XS_81_203_0_cap" Title="XS_81_203_0_cap" Unit="" Internal="XS_81_203_0_cap" Type="F" Min="1.43397287e-01" Max="2.52031595e-01"/>
  </Targets>
  <Transformations NTransformations="1">
    <Transform Name="Normalize">
      <Selection>
        <Input NInputs="14">
          <Input Type="Variable" Label="MA_93_237" Expression="MA_93_237"/>
          <Input Type="Variable" Label="Pu_94_238" Expression="Pu_94_238"/>
          <Input Type="Variable" Label="Pu_94_239" Expression="Pu_94_239"/>
          <Input Type="Variable" Label="Pu_94_240" Expression="Pu_94_240"/>
          <Input Type="Variable" Label="Pu_94_241" Expression="Pu_94_241"/>
          <Input Type="Variable" Label="Pu_94_242" Expression="Pu_94_242"/>
          <Input Type="Variable" Label="MA_95_241" Expression="MA_95_241"/>
          <Input Type="Variable" Label="MA_95_242" Expression="MA_95_242"/>
          <Input Type="Variable" Label="MA_95_243" Expression="MA_95_243"/>
          <Input Type="Variable" Label="MA_96_244" Expression="MA_96_244"/>
          <Input Type="Variable" Label="MA_96_245" Expression="MA_96_245"/>
          <Input Type="Variable" Label="MA_96_246" Expression="MA_96_246"/>
          <Input Type="Variable" Label="Time" Expression="Time"/>
          <Input Type="Target" Label="XS_81_203_0_cap" Expression="XS_81_203_0_cap"/>
        </Input>
        <Output NOutputs="14">
          <Output Type="Variable" Label="MA_93_237" Expression="MA_93_237"/>
          <Output Type="Variable" Label="Pu_94_238" Expression="Pu_94_238"/>
          <Output Type="Variable" Label="Pu_94_239" Expression="Pu_94_239"/>
          <Output Type="Variable" Label="Pu_94_240" Expression="Pu_94_240"/>
          <Output Type="Variable" Label="Pu_94_241" Expression="Pu_94_241"/>
          <Output Type="Variable" Label="Pu_94_242" Expression="Pu_94_242"/>
          <Output Type="Variable" Label="MA_95_241" Expression="MA_95_241"/>
          <Output Type="Variable" Label="MA_95_242" Expression="MA_95_242"/>
          <Output Type="Variable" Label="MA_95_243" Expression="MA_95_243"/>
          <Output Type="Variable" Label="MA_96_244" Expression="MA_96_244"/>
          <Output Type="Variable" Label="MA_96_245" Expression="MA_96_245"/>
          <Output Type="Variable" Label="MA_96_246" Expression="MA_96_246"/>
          <Output Type="Variable" Label="Time" Expression="Time"/>
          <Output Type="Target" Label="XS_81_203_0_cap" Expression="XS_81_203_0_cap"/>
        </Output>
      </Selection>
      <Class ClassIndex="0">
        <Ranges>
          <Range Index="0" Min="3.2106598373502493e-03" Max="4.7201141715049744e-01"/>
          <Range Index="1" Min="3.6886092857457697e-05" Max="2.4745860695838928e-01"/>
          <Range Index="2" Min="3.3763647079467773e-03" Max="2.2387057542800903e-01"/>
          <Range Index="3" Min="1.1539302067831159e-04" Max="2.5132825970649719e-01"/>
          <Range Index="4" Min="1.2854699161835015e-04" Max="8.5537269711494446e-02"/>
          <Range Index="5" Min="1.8133154298993759e-05" Max="1.1841032654047012e-01"/>
          <Range Index="6" Min="2.1902946755290031e-03" Max="6.4144825935363770e-01"/>
          <Range Index="7" Min="2.7811729523818940e-05" Max="4.8609972000122070e-02"/>
          <Range Index="8" Min="3.8009078707545996e-03" Max="3.4984609484672546e-01"/>
          <Range Index="9" Min="1.2317170330788940e-05" Max="1.4101928472518921e-01"/>
          <Range Index="10" Min="5.1469472964527085e-05" Max="9.7479984164237976e-02"/>
          <Range Index="11" Min="8.2441592894610949e-06" Max="4.6343039721250534e-02"/>
          <Range Index="12" Min="0.0000000000000000e+00" Max="9.4672800000000000e+07"/>
          <Range Index="13" Min="1.4339728653430939e-01" Max="2.5203159451484680e-01"/>
        </Ranges>
      </Class>
    </Transform>
  </Transformations>
  <MVAPdfs/>
  <Weights>
    <Layout NLayers="4">
      <Layer Index="0" NNeurons="14">
        <Neuron NSynapses="13">
          -3.0368226638110657e-01 7.5828744843156304e-01 4.7570292457982488e-01 6.6451945448378980e-01 -1.3758604661783075e-01 -1.3062830985622857e+00 -3.4770457620684536e-01 7.4033112578272176e-01 -8.8632146908889498e-01 -2.9747347444523037e-01 -1.4687153647791753e+00 -1.0286704757465624e-01 -1.1161216853855160e+00 
        </Neuron>
        <Neuron NSynapses="13">
          9.9826983488302712e-01 -5.4387730852568850e-01 -1.0577001848376436e-01 7.3179145008583613e-01 1.1346748138093197e+00 1.1341940914090194e-01 2.3234364758568002e+00 2.1348994179787958e-01 -1.4900576423179102e+00 9.0133438289865642e-01 1.0329094111032615e+00 -1.5283773560788498e+00 -1.3424644594861174e-01 
        </Neuron>
        <Neuron NSynapses="13">
          2.4729982348743332e-01 -2.9126867569746456e-01 -1.7381048201795424e+00 1.6668633412673276e-02 5.9603253444810123e-01 4.5961866028243475e-01 6.9161293858506179e-01 -3.6189390468931645e-02 -1.2668887626289671e+00 5.6303940847620992e-01 -6.0817083270950689e-01 1.0008095860190229e+00 -1.8570981635769928e+00 
        </Neuron>
        <Neuron NSynapses="13">
          1.8189679255549682e+00 1.2542808209714813e+00 4.5727364000405324e-01 2.0515285476187759e+00 1.3782952037576218e-01 -1.2945917132704539e+00 -8.2088557899972625e-01 4.8495530905592488e-01 -9.0227200280188680e-01 9.4304216719785527e-01 1.2102470659224474e+00 -7.2530183589279440e-01 1.4616795565510823e+00 
        </Neuron>
        <Neuron NSynapses="13">
          -5.6154746992353943e-01 2.4733037804292424e-01 -2.1946926518425292e+00 -1.3485051177468133e+00 -5.0142875146920063e-01 -1.6490618679163160e+00 1.8711642148874725e+00 -8.2448883784717500e-02 -1.7284714899187863e+00 3.8718925555679579e-01 -1.1121561572516971e+00 1.8074095434605590e+00 2.4351904140442935e+00 
        </Neuron>
        <Neuron NSynapses="13">
          1.0096184721005217e+00 -1.5371159348303171e-01 -1.6585052795758011e+00 4.9584001914862652e-01 -5.2471516882129998e-01 -1.1332866384133853e+00 -4.6486013021829109e-01 2.6121895933194617e-01 -2.7873664983798507e-01 5.8937798648509732e-01 1.5379577072281186e-01 5.0374927825900351e-01 -1.0563028848855700e+00 
        </Neuron>
        <Neuron NSynapses="13">
          3.3216712637108886e-01 1.0946417114734637e+00 1.5258403476811648e+00 9.0086604858233887e-01 4.0509826418883277e-01 -1.2275562409436001e+00 -9.7618472302898285e-01 1.0166707082387922e+00 1.6563710917830698e-01 -7.1103799539288226e-01 -1.4163852383251407e+00 -1.1120374497499499e+00 -6.0118112489086195e-01 
        </Neuron>
        <Neuron NSynapses="13">
          1.5799766585928454e-01 9.4096844358820209e-01 -1.9918105270737512e+00 -1.0745091755395564e+00 -1.9695703772028025e-01 -9.3289127682726192e-01 -3.4378875203061071e-01 -1.1701557474626731e-01 -4.7448871118428831e-01 2.5587776285235442e-01 -6.7143148470751468e-01 9.4845928974386440e-01 8.7237149203543907e-01 
        </Neuron>
        <Neuron NSynapses="13">
          -4.3519803568723270e-01 1.5244795880646824e+00 -8.5698282969227535e-01 2.2427977858461201e-01 -8.3655265574215498e-01 -5.7422682749806031e-01 -1.2279960251830462e+00 6.1582306199758829e-01 -3.5833327332238696e-01 4.1229459848355403e-02 -2.6568430556668265e+00 1.3041479823490945e+00 4.2108708364269470e-01 
        </Neuron>
        <Neuron NSynapses="13">
          3.5929460862326279e-01 -6.6534309658674606e-01 -1.7504661307545868e+00 1.1551112395310488e+00 4.1532474227720817e-01 -4.7990508246629182e-01 1.0828857370890033e+00 2.3510454927304783e-01 -4.1580693521536982e-01 5.1414103591725480e-01 9.8850292910660564e-01 -6.3441587969436997e-01 1.5972012867029537e+00 
        </Neuron>
        <Neuron NSynapses="13">
          4.0737130127118293e-01 -2.4510264985634844e+00 -7.6136885387065389e-01 -5.7572909048375276e-01 1.5483443762013879e-01 6.3625153669889550e-02 1.4797166666131065e+00 -1.9274080792359491e-01 -8.9667165926065684e-01 4.0149947709644052e-01 -4.1604002832757814e-01 1.4647820831299236e+00 -8.9426445151231282e-01 
        </Neuron>
        <Neuron NSynapses="13">
          -7.6389045314534654e-01 -2.4963314905505704e-01 8.7398678142103936e-01 7.5845245732260891e-01 -1.4070327992787752e-02 -4.6604681030450468e-01 4.8313983302286972e-01 9.6232917348737526e-02 -2.8678274725629838e-01 2.1548795720616049e-01 -2.4450122004624261e-01 -2.7880796895094428e-01 4.8273572312152097e-01 
        </Neuron>
        <Neuron NSynapses="13">
          4.7115987860128267e-01 1.0873859032100259e+00 4.8663989285928139e-01 -5.7527564430243916e-01 9.3882391595032688e-01 -2.0219441855069975e-01 5.7858441041342923e-01 8.6569395206059233e-02 -2.4888093669114811e-01 5.1756091715286601e-01 -9.0157408038632092e-01 2.0011638098424362e+00 9.9827835867949322e-01 
        </Neuron>
        <Neuron NSynapses="13">
          -1.3138389260838799e+00 2.1284778182823341e+00 2.4591424313496062e+00 -1.2253948254129237e+00 1.7003350783028266e+00 3.3296309292682960e+00 -3.4285124185059281e+00 -3.8718500667558844e-02 2.4317432567454027e+00 -2.0789950991600858e-01 -1.8124403645534961e+00 -1.8335671992808980e+00 1.1486065214137260e+00 
        </Neuron>
      </Layer>
      <Layer Index="1" NNeurons="14">
        <Neuron NSynapses="13">
          1.0273179999247830e+00 -3.5764807027636270e-01 6.7908368061320434e-01 1.3496782284952458e-01 1.0164200848246019e-01 2.5994456145217031e+00 -5.0203721005375990e-01 -9.0820778496860655e-01 -1.5144466854443477e+00 1.4302500306929060e+00 1.7238400028002747e+00 1.0308171494457894e+00 2.4537181372238948e-01 
        </Neuron>
        <Neuron NSynapses="13">
          -3.2830826933617840e-01 -2.2640479947265968e+00 -1.0532773724210891e-01 1.2924142720814134e-02 -9.6110994667193428e-01 -1.6896875204072143e-01 3.1660600491301860e-01 4.1206085504018275e-01 -1.1222382272762068e+00 1.2860527425377939e+00 8.3440190799250358e-01 -4.6923069744520418e-01 8.7978670426295449e-03 
        </Neuron>
        <Neuron NSynapses="13">
          2.0673037205991185e+00 7.2153348433888120e-01 -3.7162472120574130e-01 9.5893286932742641e-02 -1.7028800299392106e+00 -9.2237044027603665e-01 1.9783132937070136e+00 1.6266788835273955e+00 7.7144315739691272e-01 -3.3579139003044667e-01 2.1552683904853041e+00 -1.7821459571498492e+00 -1.0168318442630178e+00 
        </Neuron>
        <Neuron NSynapses="13">
          -1.4440465443946615e-01 -6.2614370481197335e-01 1.9567659164332878e+00 6.5457148012009872e-02 -1.2263171458053423e+00 1.5557375182342028e+00 -5.1137284367461966e-01 -1.1855432529637167e+00 -7.4513063155765102e-01 5.5441816516050513e-01 5.1383835232066044e-01 9.7397706520705674e-01 -1.2591044326701917e+00 
        </Neuron>
        <Neuron NSynapses="13">
          5.6144041285525104e-01 -1.9984519360385185e+00 1.2317159483837108e+00 1.9238460285023299e-02 -1.2127028065492715e+00 -5.0941699905640292e-01 -1.7028909698262886e+00 -6.9150244252376403e-01 -2.2626468591190432e+00 -8.9358671361851527e-01 -1.5374384919016177e+00 -8.4100234098108587e-02 -1.0029363012669708e+00 
        </Neuron>
        <Neuron NSynapses="13">
          -1.2596152404871708e+00 8.0064932278007372e-01 -1.1312053072234898e+00 2.8816919867811780e-01 -1.2910355762571113e+00 -2.0189396931317036e-02 2.0621477609298360e+00 1.4278003954300458e+00 -6.3105293219945313e-01 -2.1333498199796948e+00 -6.8875187235929702e-01 -1.0076960573644229e+00 -1.8123241863729360e+00 
        </Neuron>
        <Neuron NSynapses="13">
          -2.0715415627014877e-01 1.2893626959803317e-01 7.9860802768093941e-01 -4.8617972038949103e-01 -2.5489722539455195e-01 -7.7656988450283215e-01 -1.8684365893421635e+00 5.4463920701004387e-01 1.0760441920546333e+00 1.9131081285370946e-01 -1.2007800777612609e+00 9.5121424118682996e-01 1.5283723577042816e+00 
        </Neuron>
        <Neuron NSynapses="13">
          2.3239788782207045e+00 -8.3897929277809058e-01 -1.3618047133671241e+00 2.4205252119629703e+00 7.8510576873618965e-01 5.2331126510388470e-01 1.8342196824120294e-02 1.1226189739581602e+00 -6.9028485269154560e-01 -1.4440596520310263e+00 -3.2256618153996985e-01 -1.6882718984193001e+00 -1.1678231204980274e+00 
        </Neuron>
        <Neuron NSynapses="13">
          -1.0036083177083637e+00 1.5445455006892250e+00 -1.2769872591761742e+00 2.5680503317639203e+00 -1.0837354160508093e+00 8.7844540235934665e-01 -8.2131361939825387e-01 7.7142999824310754e-01 8.9507768305197488e-01 -2.4888617226832852e+00 3.1744918749710938e-01 4.9150319349110672e-01 -2.1175132941114168e+00 
        </Neuron>
        <Neuron NSynapses="13">
          -4.4300241427255121e-01 -2.8334670392944554e+00 -3.6730717184601303e-01 9.1197057532089920e-01 -2.0697945596943618e-01 1.2258283849832501e+00 -9.0387168307067944e-01 -7.0819290157582249e-01 -1.2928852578021259e+00 -4.2203766925825437e-01 -1.4305283008963796e+00 1.0253701330062879e+00 -1.1753045187731197e+00 
        </Neuron>
        <Neuron NSynapses="13">
          -1.6123496270990603e+00 4.0705815911459520e-01 -7.1013023892412741e-01 1.8826011613265890e-02 2.1561058445476555e+00 -1.3878605489604108e+00 1.3482798507540854e+00 1.4064567961513594e+00 -9.6620748657600963e-01 -2.6532029508750332e-01 4.5012541481295187e-02 -1.1571816553390575e+00 6.7711596302242494e-01 
        </Neuron>
        <Neuron NSynapses="13">
          2.1482260907446444e+00 6.0949706248297197e-01 2.3080315567065846e+00 4.2226537087087859e-03 1.0971854941420773e+00 -1.6954283240012891e+00 2.7943004496166884e-01 -2.2305793126239806e+00 -4.5623171514776945e-01 4.1079431660130006e-01 5.2874264143982674e-01 4.7174622542576006e-01 9.6153984539433635e-01 
        </Neuron>
        <Neuron NSynapses="13">
          -1.0719419855394273e-01 -5.0566547551933094e-01 -3.8505383919047387e-01 7.0476766534111144e-04 2.3190313604102681e+00 -1.3258079737712838e+00 2.0813073498738704e-01 -6.0524105335738898e-01 3.7907140884075613e-01 5.0992291403491805e-03 -4.2070633920943351e-01 -1.1288754025799592e+00 9.7632827264819377e-01 
        </Neuron>
        <Neuron NSynapses="13">
          2.2230912823734785e+00 4.6833503030021872e-01 -7.2348615378035797e-01 1.1636065280267384e-01 -1.3416666392186900e+00 -1.9523326731950648e+00 1.3348330178778196e+00 3.1438406231310329e-01 -1.1630772918457750e+00 -6.6881632109231121e-02 -1.6145339685757376e+00 -1.2839009718272514e+00 -1.5701838320576851e+00 
        </Neuron>
      </Layer>
      <Layer Index="2" NNeurons="14">
        <Neuron NSynapses="1">
          2.9052803960037329e-02 
        </Neuron>
        <Neuron NSynapses="1">
          -8.0441286394012171e-02 
        </Neuron>
        <Neuron NSynapses="1">
          4.4832702755125736e-01 
        </Neuron>
        <Neuron NSynapses="1">
          1.8555879100418418e+00 
        </Neuron>
        <Neuron NSynapses="1">
          1.4394646089039476e+00 
        </Neuron>
        <Neuron NSynapses="1">
          3.1123188468449092e-01 
        </Neuron>
        <Neuron NSynapses="1">
          5.6620908336723208e-01 
        </Neuron>
        <Neuron NSynapses="1">
          -3.8749939180999649e-01 
        </Neuron>
        <Neuron NSynapses="1">
          2.2506500495697948e-03 
        </Neuron>
        <Neuron NSynapses="1">
          -5.5801950165354108e-01 
        </Neuron>
        <Neuron NSynapses="1">
          -1.1450956215087318e-02 
        </Neuron>
        <Neuron NSynapses="1">
          5.4115326744924686e-01 
        </Neuron>
        <Neuron NSynapses="1">
          5.4026391729559287e-01 
        </Neuron>
        <Neuron NSynapses="1">
          1.0016187380525052e+00 
        </Neuron>
      </Layer>
      <Layer Index="3" NNeurons="1">
        <Neuron NSynapses="0"/>
      </Layer>
    </Layout>
  </Weights>
</MethodSetup>
