<?xml version="1.0"?>
<MethodSetup Method="MLP::XS_9_19_0_cap">
  <GeneralInfo>
    <Info name="TMVA Release" value="4.2.0 [262656]"/>
    <Info name="ROOT Release" value="5.34/18 [336402]"/>
    <Info name="Creator" value="leniau"/>
    <Info name="Date" value="Wed Jul  2 05:14:46 2014"/>
    <Info name="Host" value="Linux nansl3.in2p3.fr 2.6.32-358.11.1.el6.x86_64 #1 SMP Tue Jun 11 17:23:30 CDT 2013 x86_64 x86_64 x86_64 GNU/Linux"/>
    <Info name="Dir" value="/scratch/spallati/leniau/Projets_CLASS/TMVA/BASE_MONOMOX_MLP/Build_XS_Predictor"/>
    <Info name="Training events" value="25811"/>
    <Info name="TrainingTime" value="1.78199333e+03"/>
    <Info name="AnalysisType" value="Regression"/>
  </GeneralInfo>
  <Options>
    <Option name="NCycles" modified="Yes">20000</Option>
    <Option name="HiddenLayers" modified="Yes">N,N</Option>
    <Option name="NeuronType" modified="Yes">tanh</Option>
    <Option name="RandomSeed" modified="No">1</Option>
    <Option name="EstimatorType" modified="No">MSE</Option>
    <Option name="NeuronInputType" modified="No">sum</Option>
    <Option name="V" modified="Yes">False</Option>
    <Option name="VerbosityLevel" modified="No">Default</Option>
    <Option name="VarTransform" modified="Yes">Norm</Option>
    <Option name="H" modified="Yes">False</Option>
    <Option name="CreateMVAPdfs" modified="No">False</Option>
    <Option name="IgnoreNegWeightsInTraining" modified="No">False</Option>
    <Option name="TrainingMethod" modified="Yes">BFGS</Option>
    <Option name="LearningRate" modified="No">2.000000e-02</Option>
    <Option name="DecayRate" modified="No">1.000000e-02</Option>
    <Option name="TestRate" modified="Yes">6</Option>
    <Option name="EpochMonitoring" modified="No">False</Option>
    <Option name="Sampling" modified="Yes">3.000000e-01</Option>
    <Option name="SamplingEpoch" modified="Yes">8.000000e-01</Option>
    <Option name="SamplingImportance" modified="No">1.000000e+00</Option>
    <Option name="SamplingTraining" modified="No">True</Option>
    <Option name="SamplingTesting" modified="No">False</Option>
    <Option name="ResetStep" modified="No">50</Option>
    <Option name="Tau" modified="No">3.000000e+00</Option>
    <Option name="BPMode" modified="No">sequential</Option>
    <Option name="BatchSize" modified="No">-1</Option>
    <Option name="ConvergenceImprove" modified="Yes">1.000000e-06</Option>
    <Option name="ConvergenceTests" modified="Yes">15</Option>
    <Option name="UseRegulator" modified="Yes">False</Option>
    <Option name="UpdateLimit" modified="No">10000</Option>
    <Option name="CalculateErrors" modified="No">False</Option>
    <Option name="WeightRange" modified="No">1.000000e+00</Option>
  </Options>
  <Variables NVar="9">
    <Variable VarIndex="0" Expression="U5" Label="U5" Title="U 235" Unit="FractionIsotopic" Internal="U5" Type="F" Min="1.70790544e-03" Max="3.82024585e-03"/>
    <Variable VarIndex="1" Expression="U8" Label="U8" Title="U 238" Unit="FractionIsotopic" Internal="U8" Type="F" Min="8.46877456e-01" Max="9.57599878e-01"/>
    <Variable VarIndex="2" Expression="Pu8" Label="Pu8" Title="Pu 238" Unit="FractionIsotopic" Internal="Pu8" Type="F" Min="2.04457741e-04" Max="1.07518081e-02"/>
    <Variable VarIndex="3" Expression="Pu9" Label="Pu9" Title="Pu 239" Unit="FractionIsotopic" Internal="Pu9" Type="F" Min="1.34624317e-02" Max="1.10575892e-01"/>
    <Variable VarIndex="4" Expression="Pu10" Label="Pu10" Title="Pu 240" Unit="FractionIsotopic" Internal="Pu10" Type="F" Min="5.54009527e-03" Max="4.70738448e-02"/>
    <Variable VarIndex="5" Expression="Pu11" Label="Pu11" Title="Pu 241" Unit="FractionIsotopic" Internal="Pu11" Type="F" Min="2.52286321e-03" Max="2.77698915e-02"/>
    <Variable VarIndex="6" Expression="Pu12" Label="Pu12" Title="Pu 242" Unit="FractionIsotopic" Internal="Pu12" Type="F" Min="6.26901106e-04" Max="3.05664930e-02"/>
    <Variable VarIndex="7" Expression="Am1" Label="Am1" Title="Am 241" Unit="FractionIsotopic" Internal="Am1" Type="F" Min="2.08963102e-05" Max="1.11369798e-02"/>
    <Variable VarIndex="8" Expression="Time" Label="Time" Title="Time" Unit="seconds" Internal="Time" Type="F" Min="0.00000000e+00" Max="1.57788000e+08"/>
  </Variables>
  <Spectators NSpec="0"/>
  <Classes NClass="1">
    <Class Name="Regression" Index="0"/>
  </Classes>
  <Targets NTrgt="1">
    <Target TargetIndex="0" Expression="XS_9_19_0_cap" Label="XS_9_19_0_cap" Title="XS_9_19_0_cap" Unit="" Internal="XS_9_19_0_cap" Type="F" Min="7.98442808e-04" Max="1.15465734e-03"/>
  </Targets>
  <Transformations NTransformations="1">
    <Transform Name="Normalize">
      <Selection>
        <Input NInputs="10">
          <Input Type="Variable" Label="U5" Expression="U5"/>
          <Input Type="Variable" Label="U8" Expression="U8"/>
          <Input Type="Variable" Label="Pu8" Expression="Pu8"/>
          <Input Type="Variable" Label="Pu9" Expression="Pu9"/>
          <Input Type="Variable" Label="Pu10" Expression="Pu10"/>
          <Input Type="Variable" Label="Pu11" Expression="Pu11"/>
          <Input Type="Variable" Label="Pu12" Expression="Pu12"/>
          <Input Type="Variable" Label="Am1" Expression="Am1"/>
          <Input Type="Variable" Label="Time" Expression="Time"/>
          <Input Type="Target" Label="XS_9_19_0_cap" Expression="XS_9_19_0_cap"/>
        </Input>
        <Output NOutputs="10">
          <Output Type="Variable" Label="U5" Expression="U5"/>
          <Output Type="Variable" Label="U8" Expression="U8"/>
          <Output Type="Variable" Label="Pu8" Expression="Pu8"/>
          <Output Type="Variable" Label="Pu9" Expression="Pu9"/>
          <Output Type="Variable" Label="Pu10" Expression="Pu10"/>
          <Output Type="Variable" Label="Pu11" Expression="Pu11"/>
          <Output Type="Variable" Label="Pu12" Expression="Pu12"/>
          <Output Type="Variable" Label="Am1" Expression="Am1"/>
          <Output Type="Variable" Label="Time" Expression="Time"/>
          <Output Type="Target" Label="XS_9_19_0_cap" Expression="XS_9_19_0_cap"/>
        </Output>
      </Selection>
      <Class ClassIndex="0">
        <Ranges>
          <Range Index="0" Min="1.7079054377973080e-03" Max="3.8202458526939154e-03"/>
          <Range Index="1" Min="8.4687745571136475e-01" Max="9.5759987831115723e-01"/>
          <Range Index="2" Min="2.0445774134714156e-04" Max="1.0751808062195778e-02"/>
          <Range Index="3" Min="1.3462431728839874e-02" Max="1.1057589203119278e-01"/>
          <Range Index="4" Min="5.5400952696800232e-03" Max="4.7073844820261002e-02"/>
          <Range Index="5" Min="2.5228632148355246e-03" Max="2.7769891545176506e-02"/>
          <Range Index="6" Min="6.2690110644325614e-04" Max="3.0566493049263954e-02"/>
          <Range Index="7" Min="2.0896310161333531e-05" Max="1.1136979795992374e-02"/>
          <Range Index="8" Min="0.0000000000000000e+00" Max="1.5778800000000000e+08"/>
          <Range Index="9" Min="7.9844280844554305e-04" Max="1.1546573368832469e-03"/>
        </Ranges>
      </Class>
    </Transform>
  </Transformations>
  <MVAPdfs/>
  <Weights>
    <Layout NLayers="4">
      <Layer Index="0" NNeurons="10">
        <Neuron NSynapses="9">
          -6.5478923871082903e-03 -2.5232600741569900e-02 -4.6774560434829894e-02 1.0907079902273811e-02 1.8391384690779652e-02 2.5767573813487814e-03 -6.2256159742722128e-01 6.6495154212895979e-01 -1.3219639574155373e-01 
        </Neuron>
        <Neuron NSynapses="9">
          -2.0054917045330192e+00 -2.1814425148529835e+00 -8.0449373531008095e-01 -1.7943060884939208e+00 1.0973385194324434e-02 -1.1885145179792778e+00 5.8669017734456619e-01 -6.7370669866950506e-01 2.5428451362275291e+00 
        </Neuron>
        <Neuron NSynapses="9">
          3.8754208379309912e-01 2.3357239148348355e-01 -1.5122438250900350e-01 -1.5723074960969591e-01 9.2833462887453325e-02 6.6336519062046101e-02 -5.7219852262988181e-02 6.3938191852315041e-01 2.4078576605130084e-01 
        </Neuron>
        <Neuron NSynapses="9">
          -1.8848939355229763e+00 -7.1492962637504753e-01 -8.9685066690956727e-01 1.4156987310401079e+00 1.5631301507658757e+00 7.9053397110091772e-01 3.1639104632741649e-01 7.9073950322689479e-01 -2.1751590201686031e+00 
        </Neuron>
        <Neuron NSynapses="9">
          -6.7853938453884732e-01 4.8572553236750748e-01 -8.0381134745402016e-01 1.3760218355572489e+00 4.0181699798097614e-01 3.3380002635163369e-01 2.0845830587697680e+00 1.5116362673208128e+00 -1.2180859685891886e-01 
        </Neuron>
        <Neuron NSynapses="9">
          -9.2177346538574600e-01 -5.5687254409037767e-01 -8.9665675022492036e-02 2.2305981225492286e-01 3.8454896923537163e-01 9.2050504691609358e-02 1.0980628234890353e+00 -7.9430398869746410e-01 -1.5159876861956070e-01 
        </Neuron>
        <Neuron NSynapses="9">
          -1.1012084707892817e+00 -2.1189140210806146e-01 -2.9423762279228016e-01 -4.0563320266737965e-02 7.2382003807611409e-02 -1.6790563160779523e-01 -6.0155174111906751e-01 1.2420769047683351e+00 2.1678961059875079e-01 
        </Neuron>
        <Neuron NSynapses="9">
          -1.1036566214950362e-01 1.0270669157952205e-02 -1.2877954473337511e-01 9.3934401423127167e-01 1.7517158112330189e-01 1.0784963065856318e-01 7.6107175005998437e-02 1.7776111466806732e-01 -5.8895725719705339e-01 
        </Neuron>
        <Neuron NSynapses="9">
          -8.2664909242274431e-02 4.0923388156324220e-01 1.1457231372468737e+00 -3.7755657298411038e-01 -4.6732945655381986e-01 -3.5889612504895579e-01 -7.4296298611574718e-01 -6.2768255737435674e-01 1.5668289822503030e+00 
        </Neuron>
        <Neuron NSynapses="9">
          2.3113742698925823e+00 1.6886737289596641e+00 5.8869431975733044e-01 -1.6353444923401979e+00 4.8014210095699533e-01 1.7811917989944199e+00 -2.4339301872716450e+00 -3.0388134233860966e+00 -3.9364975471963803e-01 
        </Neuron>
      </Layer>
      <Layer Index="1" NNeurons="10">
        <Neuron NSynapses="9">
          2.3270622296363017e-01 9.3196693896442628e-01 1.0452740468034236e+00 -7.6232924126312673e-01 -1.9192899575919231e-01 1.6092249013079645e+00 -8.6659912993654387e-01 -1.7374609784306274e+00 -1.5042401577470190e+00 
        </Neuron>
        <Neuron NSynapses="9">
          6.5677299145057072e-02 -1.3481759637099717e+00 -1.9250046183588472e+00 -1.7085073157605823e-01 7.9348141510032077e-01 -9.5850854464747359e-01 2.3282547108301874e+00 -1.0598902417298650e+00 -8.4456778143573619e-01 
        </Neuron>
        <Neuron NSynapses="9">
          -2.4400411760619696e-02 -4.3304024062439467e-01 -2.2049048710838206e+00 1.2539889009520215e+00 3.5411657483326052e-02 1.7025765484593508e-01 -1.0021529498799786e+00 1.1066328794146498e+00 3.4531184175641089e-01 
        </Neuron>
        <Neuron NSynapses="9">
          -9.1523315332576649e-01 7.6873430638098073e-01 -1.5428105877200862e+00 1.6526562295125047e-01 -1.6697501088110150e-01 -9.2237596249181486e-02 1.5852966914528215e+00 8.2668227323181487e-01 -3.1166282324919135e-03 
        </Neuron>
        <Neuron NSynapses="9">
          -8.0238399788566861e-01 6.1645161284258487e-01 -7.2044110232243852e-01 1.5555612299108132e-01 9.9078265005225863e-01 -9.3522777197600626e-01 1.0214513989210618e+00 -1.1731094481839270e+00 1.3978095339525190e-02 
        </Neuron>
        <Neuron NSynapses="9">
          9.5224527485053079e-01 1.6530809606673398e+00 -1.2951967097482295e+00 1.1969300824487432e+00 1.7841993127785951e+00 2.0088831325362437e+00 1.0889184374019352e+00 -1.9340305087635450e+00 -2.3219022167298994e-01 
        </Neuron>
        <Neuron NSynapses="9">
          -9.6387799034009602e-01 -8.6525861405311405e-02 8.7554046294913246e-01 5.4524815458061238e-01 -1.6225696600097009e-01 1.7110109056677844e-01 -1.1186184399926160e+00 4.3021430022183815e-01 1.7211400513929784e+00 
        </Neuron>
        <Neuron NSynapses="9">
          -5.8814060715651029e-01 -5.7111753369253548e-01 -1.5690289217427256e-01 6.1813144871536518e-01 4.4314212681103066e-01 5.2481218843033284e-01 -1.6083659646189439e+00 1.4001782768046729e+00 7.8534058036188759e-01 
        </Neuron>
        <Neuron NSynapses="9">
          1.2106105977733088e-01 -8.9726854104318035e-02 8.6182620690459899e-01 -2.4318237146774471e-01 1.9689111288153138e-01 5.1219756257141447e-01 5.9912291155828537e-02 1.3636297222272545e-01 1.5122941938909651e+00 
        </Neuron>
        <Neuron NSynapses="9">
          1.7280149660199362e+00 3.5411296325134128e-01 1.1120213035012438e+00 2.5835054343460500e+00 -1.9731179941395269e+00 9.1299492397298865e-01 -2.8127684872391062e-02 2.6571238882390458e-01 -1.7271219864017344e+00 
        </Neuron>
      </Layer>
      <Layer Index="2" NNeurons="10">
        <Neuron NSynapses="1">
          3.2244579093647080e-01 
        </Neuron>
        <Neuron NSynapses="1">
          -1.9855762794999071e-01 
        </Neuron>
        <Neuron NSynapses="1">
          1.9819446533686096e-02 
        </Neuron>
        <Neuron NSynapses="1">
          -1.3820491712159273e+00 
        </Neuron>
        <Neuron NSynapses="1">
          -1.0447040121685570e-01 
        </Neuron>
        <Neuron NSynapses="1">
          1.4369168239776302e+00 
        </Neuron>
        <Neuron NSynapses="1">
          -4.9192872852085241e-02 
        </Neuron>
        <Neuron NSynapses="1">
          8.1945613738744472e-01 
        </Neuron>
        <Neuron NSynapses="1">
          -4.4937423358706080e-01 
        </Neuron>
        <Neuron NSynapses="1">
          -3.8423379095778160e-01 
        </Neuron>
      </Layer>
      <Layer Index="3" NNeurons="1">
        <Neuron NSynapses="0"/>
      </Layer>
    </Layout>
  </Weights>
</MethodSetup>
