<?xml version="1.0"?>
<MethodSetup Method="MLP::XS_91_233_0_cap">
  <GeneralInfo>
    <Info name="TMVA Release" value="4.2.0 [262656]"/>
    <Info name="ROOT Release" value="5.34/18 [336402]"/>
    <Info name="Creator" value="leniau"/>
    <Info name="Date" value="Wed Jul  2 05:57:05 2014"/>
    <Info name="Host" value="Linux nansl3.in2p3.fr 2.6.32-358.11.1.el6.x86_64 #1 SMP Tue Jun 11 17:23:30 CDT 2013 x86_64 x86_64 x86_64 GNU/Linux"/>
    <Info name="Dir" value="/scratch/spallati/leniau/Projets_CLASS/TMVA/BASE_MONOMOX_MLP/Build_XS_Predictor"/>
    <Info name="Training events" value="25811"/>
    <Info name="TrainingTime" value="2.26261807e+03"/>
    <Info name="AnalysisType" value="Regression"/>
  </GeneralInfo>
  <Options>
    <Option name="NCycles" modified="Yes">20000</Option>
    <Option name="HiddenLayers" modified="Yes">N,N</Option>
    <Option name="NeuronType" modified="Yes">tanh</Option>
    <Option name="RandomSeed" modified="No">1</Option>
    <Option name="EstimatorType" modified="No">MSE</Option>
    <Option name="NeuronInputType" modified="No">sum</Option>
    <Option name="V" modified="Yes">False</Option>
    <Option name="VerbosityLevel" modified="No">Default</Option>
    <Option name="VarTransform" modified="Yes">Norm</Option>
    <Option name="H" modified="Yes">False</Option>
    <Option name="CreateMVAPdfs" modified="No">False</Option>
    <Option name="IgnoreNegWeightsInTraining" modified="No">False</Option>
    <Option name="TrainingMethod" modified="Yes">BFGS</Option>
    <Option name="LearningRate" modified="No">2.000000e-02</Option>
    <Option name="DecayRate" modified="No">1.000000e-02</Option>
    <Option name="TestRate" modified="Yes">6</Option>
    <Option name="EpochMonitoring" modified="No">False</Option>
    <Option name="Sampling" modified="Yes">3.000000e-01</Option>
    <Option name="SamplingEpoch" modified="Yes">8.000000e-01</Option>
    <Option name="SamplingImportance" modified="No">1.000000e+00</Option>
    <Option name="SamplingTraining" modified="No">True</Option>
    <Option name="SamplingTesting" modified="No">False</Option>
    <Option name="ResetStep" modified="No">50</Option>
    <Option name="Tau" modified="No">3.000000e+00</Option>
    <Option name="BPMode" modified="No">sequential</Option>
    <Option name="BatchSize" modified="No">-1</Option>
    <Option name="ConvergenceImprove" modified="Yes">1.000000e-06</Option>
    <Option name="ConvergenceTests" modified="Yes">15</Option>
    <Option name="UseRegulator" modified="Yes">False</Option>
    <Option name="UpdateLimit" modified="No">10000</Option>
    <Option name="CalculateErrors" modified="No">False</Option>
    <Option name="WeightRange" modified="No">1.000000e+00</Option>
  </Options>
  <Variables NVar="9">
    <Variable VarIndex="0" Expression="U5" Label="U5" Title="U 235" Unit="FractionIsotopic" Internal="U5" Type="F" Min="1.70790544e-03" Max="3.82024585e-03"/>
    <Variable VarIndex="1" Expression="U8" Label="U8" Title="U 238" Unit="FractionIsotopic" Internal="U8" Type="F" Min="8.46877456e-01" Max="9.57599878e-01"/>
    <Variable VarIndex="2" Expression="Pu8" Label="Pu8" Title="Pu 238" Unit="FractionIsotopic" Internal="Pu8" Type="F" Min="2.04457741e-04" Max="1.07518081e-02"/>
    <Variable VarIndex="3" Expression="Pu9" Label="Pu9" Title="Pu 239" Unit="FractionIsotopic" Internal="Pu9" Type="F" Min="1.34624317e-02" Max="1.10575892e-01"/>
    <Variable VarIndex="4" Expression="Pu10" Label="Pu10" Title="Pu 240" Unit="FractionIsotopic" Internal="Pu10" Type="F" Min="5.54009527e-03" Max="4.70738448e-02"/>
    <Variable VarIndex="5" Expression="Pu11" Label="Pu11" Title="Pu 241" Unit="FractionIsotopic" Internal="Pu11" Type="F" Min="2.52286321e-03" Max="2.77698915e-02"/>
    <Variable VarIndex="6" Expression="Pu12" Label="Pu12" Title="Pu 242" Unit="FractionIsotopic" Internal="Pu12" Type="F" Min="6.26901106e-04" Max="3.05664930e-02"/>
    <Variable VarIndex="7" Expression="Am1" Label="Am1" Title="Am 241" Unit="FractionIsotopic" Internal="Am1" Type="F" Min="2.08963102e-05" Max="1.11369798e-02"/>
    <Variable VarIndex="8" Expression="Time" Label="Time" Title="Time" Unit="seconds" Internal="Time" Type="F" Min="0.00000000e+00" Max="1.57788000e+08"/>
  </Variables>
  <Spectators NSpec="0"/>
  <Classes NClass="1">
    <Class Name="Regression" Index="0"/>
  </Classes>
  <Targets NTrgt="1">
    <Target TargetIndex="0" Expression="XS_91_233_0_cap" Label="XS_91_233_0_cap" Title="XS_91_233_0_cap" Unit="" Internal="XS_91_233_0_cap" Type="F" Min="1.63265572e+01" Max="2.37914867e+01"/>
  </Targets>
  <Transformations NTransformations="1">
    <Transform Name="Normalize">
      <Selection>
        <Input NInputs="10">
          <Input Type="Variable" Label="U5" Expression="U5"/>
          <Input Type="Variable" Label="U8" Expression="U8"/>
          <Input Type="Variable" Label="Pu8" Expression="Pu8"/>
          <Input Type="Variable" Label="Pu9" Expression="Pu9"/>
          <Input Type="Variable" Label="Pu10" Expression="Pu10"/>
          <Input Type="Variable" Label="Pu11" Expression="Pu11"/>
          <Input Type="Variable" Label="Pu12" Expression="Pu12"/>
          <Input Type="Variable" Label="Am1" Expression="Am1"/>
          <Input Type="Variable" Label="Time" Expression="Time"/>
          <Input Type="Target" Label="XS_91_233_0_cap" Expression="XS_91_233_0_cap"/>
        </Input>
        <Output NOutputs="10">
          <Output Type="Variable" Label="U5" Expression="U5"/>
          <Output Type="Variable" Label="U8" Expression="U8"/>
          <Output Type="Variable" Label="Pu8" Expression="Pu8"/>
          <Output Type="Variable" Label="Pu9" Expression="Pu9"/>
          <Output Type="Variable" Label="Pu10" Expression="Pu10"/>
          <Output Type="Variable" Label="Pu11" Expression="Pu11"/>
          <Output Type="Variable" Label="Pu12" Expression="Pu12"/>
          <Output Type="Variable" Label="Am1" Expression="Am1"/>
          <Output Type="Variable" Label="Time" Expression="Time"/>
          <Output Type="Target" Label="XS_91_233_0_cap" Expression="XS_91_233_0_cap"/>
        </Output>
      </Selection>
      <Class ClassIndex="0">
        <Ranges>
          <Range Index="0" Min="1.7079054377973080e-03" Max="3.8202458526939154e-03"/>
          <Range Index="1" Min="8.4687745571136475e-01" Max="9.5759987831115723e-01"/>
          <Range Index="2" Min="2.0445774134714156e-04" Max="1.0751808062195778e-02"/>
          <Range Index="3" Min="1.3462431728839874e-02" Max="1.1057589203119278e-01"/>
          <Range Index="4" Min="5.5400952696800232e-03" Max="4.7073844820261002e-02"/>
          <Range Index="5" Min="2.5228632148355246e-03" Max="2.7769891545176506e-02"/>
          <Range Index="6" Min="6.2690110644325614e-04" Max="3.0566493049263954e-02"/>
          <Range Index="7" Min="2.0896310161333531e-05" Max="1.1136979795992374e-02"/>
          <Range Index="8" Min="0.0000000000000000e+00" Max="1.5778800000000000e+08"/>
          <Range Index="9" Min="1.6326557159423828e+01" Max="2.3791486740112305e+01"/>
        </Ranges>
      </Class>
    </Transform>
  </Transformations>
  <MVAPdfs/>
  <Weights>
    <Layout NLayers="4">
      <Layer Index="0" NNeurons="10">
        <Neuron NSynapses="9">
          -3.9547298796658539e-02 -6.4753424207909985e-02 -6.2062468751590567e-03 1.4095879051285529e+00 -2.4627188374746775e-01 3.8026172823691167e-03 -4.4734748432312460e-01 2.2243922607780554e-02 4.7774122887468753e-02 
        </Neuron>
        <Neuron NSynapses="9">
          -1.3231528485866779e+00 -1.8053644829044251e+00 -9.9505656844494283e-01 -6.1279387867231427e-03 -1.4956840366893274e+00 5.7688237394070765e-03 7.7088164096169295e-02 7.1852955094425484e-03 2.4341232451653698e+00 
        </Neuron>
        <Neuron NSynapses="9">
          -1.3912732863069699e-01 -3.1348657877097058e-01 -8.7219864120028148e-02 1.8709501636561895e-01 -4.0233677881706259e-01 2.0594817269130428e-02 -2.8958695163244882e-02 -1.3556231643602666e-02 1.3351637497980922e+00 
        </Neuron>
        <Neuron NSynapses="9">
          -1.4442589207719723e+00 -1.2198029389115530e+00 -8.3717411457788482e-01 2.4409958769185630e-01 2.6653471767430226e+00 2.3323967961410763e-01 3.9590329892635956e-01 1.5822836831774464e-01 -1.3606306510700656e+00 
        </Neuron>
        <Neuron NSynapses="9">
          -5.5628667947256716e-01 -8.3789793167494409e-01 -3.3456084246445789e-01 7.7232386122548224e-01 1.0250132198291846e+00 1.2474978725240163e-01 1.9450558686415147e+00 -1.2602283943741843e-01 -6.8460015561321108e-01 
        </Neuron>
        <Neuron NSynapses="9">
          -2.7832653016940501e-01 -7.8416422127069341e-02 -5.6704449348380551e-02 1.4001478338190767e+00 1.5716905113468000e+00 4.6446933310995413e-02 1.7141810076342292e+00 5.8380440475619899e-01 9.4966365417533483e-01 
        </Neuron>
        <Neuron NSynapses="9">
          3.0359942174309297e-02 -5.5162754313316265e-01 -3.9877023494713859e-01 -7.7043597716688139e-01 6.1079022876839040e-01 1.0827160333079308e-01 -5.4762902977286043e-01 -2.7465559995098709e-01 6.6820933177686370e-01 
        </Neuron>
        <Neuron NSynapses="9">
          -1.0300265924014859e-01 -8.4670019865309407e-02 6.5474868790747751e-02 9.7270188429520421e-01 1.1895400188471196e-01 2.0711840221413251e-02 2.1112073815473675e-01 2.7097850971090998e-01 -2.5815294239317466e-01 
        </Neuron>
        <Neuron NSynapses="9">
          3.2597084929127357e-02 1.4965973229476082e+00 5.6199343799961299e-01 -6.8183906504580394e-02 6.1135744917627510e-01 -4.8010913659819960e-03 5.6406820878698249e-01 -1.0553144020935063e-02 9.2579163227746764e-01 
        </Neuron>
        <Neuron NSynapses="9">
          -7.9829192782034500e-02 2.6475076202600611e+00 5.2022258495223761e-01 -2.6880658396827508e+00 3.9775188656945415e-01 7.1176908643705628e-01 -1.9335017502308922e+00 -2.0157431782665070e+00 -1.8256289718690206e+00 
        </Neuron>
      </Layer>
      <Layer Index="1" NNeurons="10">
        <Neuron NSynapses="9">
          4.2568356106371946e-01 -3.9838250615741679e-02 1.4680373810638405e+00 -8.1289376037358851e-01 1.5457087536345504e-04 1.9598976341930998e+00 -5.8504628436169914e-01 -1.8512030195756395e+00 -1.4438119490687356e+00 
        </Neuron>
        <Neuron NSynapses="9">
          9.5931373153271080e-03 -1.8525334927233503e+00 -1.1884974681490088e+00 8.6039374799017604e-02 1.1593932829374647e+00 -1.1560351987032902e+00 9.5738708634815473e-01 -1.4457815075470442e+00 -8.3997554244960715e-01 
        </Neuron>
        <Neuron NSynapses="9">
          1.6593087997964415e-01 1.7622327653037276e-01 -2.6344105721961588e+00 1.4197457197524379e+00 4.0371111552759575e-01 -8.9198417271577762e-02 -1.8436373821593071e+00 8.9925916155527208e-01 3.7130432743884445e-01 
        </Neuron>
        <Neuron NSynapses="9">
          -8.7468588260847224e-01 5.9633829014340167e-01 -9.7915958554590998e-01 -6.2730676557612075e-01 -6.2152224454423025e-04 4.6515546028019696e-02 1.2653631309199018e+00 9.6177325587239604e-01 -6.7990708133941105e-02 
        </Neuron>
        <Neuron NSynapses="9">
          -7.6050882145193643e-01 9.8929807851248323e-03 -7.6517005244202085e-01 2.3270716920950130e-01 -8.6991742146841412e-06 -2.1121860685581462e-02 -1.5698910719162205e-02 -1.3087040965263592e+00 -4.2913186558550753e-02 
        </Neuron>
        <Neuron NSynapses="9">
          9.7108680338419551e-01 2.3256983248818579e+00 -2.5109881715001787e+00 1.6580365819996461e+00 1.3530972128463195e+00 3.1352920161883748e+00 -3.5690602847605453e-02 -2.3991889612669639e+00 -3.3497597616676089e-01 
        </Neuron>
        <Neuron NSynapses="9">
          -5.2257281411075807e-01 1.1451167723983247e+00 8.0312042736255040e-01 4.3369814691383712e-01 5.3669160522671813e-03 -7.2926823569829866e-02 -1.3861793136627341e+00 5.8620024228833179e-01 1.6342204354678744e+00 
        </Neuron>
        <Neuron NSynapses="9">
          -1.2590646879568650e+00 -4.7071166095568567e-01 3.2573216655734971e-01 2.0534849113751241e-01 3.5949364988348187e-01 5.9451586265318412e-01 -2.0237238486537450e+00 1.5187915607518010e+00 7.1922699652287325e-01 
        </Neuron>
        <Neuron NSynapses="9">
          9.0546692921856450e-02 2.4977949840930394e-01 1.4507924899966421e-01 2.5892856596857711e-01 -1.0610529287727068e-02 7.1927167750669735e-02 -1.3943619551388227e+00 -2.0722536632347485e-01 1.5519276641731774e+00 
        </Neuron>
        <Neuron NSynapses="9">
          1.9171856951574306e+00 -2.1834891853949323e-03 9.2023211898883794e-01 2.5752721410177504e+00 -2.0303633085647195e+00 1.1724752212172473e+00 1.9203446177503475e-01 -1.1959079199292186e-01 -1.6849041924857042e+00 
        </Neuron>
      </Layer>
      <Layer Index="2" NNeurons="10">
        <Neuron NSynapses="1">
          5.8007417059573074e-01 
        </Neuron>
        <Neuron NSynapses="1">
          1.3910843097697773e-02 
        </Neuron>
        <Neuron NSynapses="1">
          2.8163753086024779e-01 
        </Neuron>
        <Neuron NSynapses="1">
          1.4452016348563381e+00 
        </Neuron>
        <Neuron NSynapses="1">
          -1.9948092480146729e+00 
        </Neuron>
        <Neuron NSynapses="1">
          -2.1858002487498518e+00 
        </Neuron>
        <Neuron NSynapses="1">
          2.0110886749798582e-02 
        </Neuron>
        <Neuron NSynapses="1">
          -8.2151066584360694e-03 
        </Neuron>
        <Neuron NSynapses="1">
          -1.9251564925612519e-01 
        </Neuron>
        <Neuron NSynapses="1">
          -5.6961708132257638e-01 
        </Neuron>
      </Layer>
      <Layer Index="3" NNeurons="1">
        <Neuron NSynapses="0"/>
      </Layer>
    </Layout>
  </Weights>
</MethodSetup>
