<?xml version="1.0"?>
<MethodSetup Method="MLP::XS_19_41_0_cap">
  <GeneralInfo>
    <Info name="TMVA Release" value="4.2.0 [262656]"/>
    <Info name="ROOT Release" value="5.34/14 [336398]"/>
    <Info name="Creator" value="mouginot"/>
    <Info name="Date" value="Wed Apr 29 00:45:14 2015"/>
    <Info name="Host" value="Linux nansl3.in2p3.fr 2.6.32-431.20.3.el6.x86_64 #1 SMP Thu Jun 19 14:01:59 CDT 2014 x86_64 x86_64 x86_64 GNU/Linux"/>
    <Info name="Dir" value="/scratch/spallati/mouginot/Combustible/Analyse/MLP_PuAm/XSM/Train"/>
    <Info name="Training events" value="35904"/>
    <Info name="TrainingTime" value="5.05130317e+03"/>
    <Info name="AnalysisType" value="Regression"/>
  </GeneralInfo>
  <Options>
    <Option name="NCycles" modified="Yes">20000</Option>
    <Option name="HiddenLayers" modified="Yes">N,N</Option>
    <Option name="NeuronType" modified="Yes">tanh</Option>
    <Option name="RandomSeed" modified="No">1</Option>
    <Option name="EstimatorType" modified="No">MSE</Option>
    <Option name="NeuronInputType" modified="No">sum</Option>
    <Option name="V" modified="Yes">False</Option>
    <Option name="VerbosityLevel" modified="No">Default</Option>
    <Option name="VarTransform" modified="Yes">Norm</Option>
    <Option name="H" modified="Yes">False</Option>
    <Option name="CreateMVAPdfs" modified="No">False</Option>
    <Option name="IgnoreNegWeightsInTraining" modified="No">False</Option>
    <Option name="TrainingMethod" modified="Yes">BFGS</Option>
    <Option name="LearningRate" modified="No">2.000000e-02</Option>
    <Option name="DecayRate" modified="No">1.000000e-02</Option>
    <Option name="TestRate" modified="Yes">6</Option>
    <Option name="EpochMonitoring" modified="No">False</Option>
    <Option name="Sampling" modified="Yes">3.000000e-01</Option>
    <Option name="SamplingEpoch" modified="Yes">8.000000e-01</Option>
    <Option name="SamplingImportance" modified="No">1.000000e+00</Option>
    <Option name="SamplingTraining" modified="No">True</Option>
    <Option name="SamplingTesting" modified="No">False</Option>
    <Option name="ResetStep" modified="No">50</Option>
    <Option name="Tau" modified="No">3.000000e+00</Option>
    <Option name="BPMode" modified="No">sequential</Option>
    <Option name="BatchSize" modified="No">-1</Option>
    <Option name="ConvergenceImprove" modified="Yes">1.000000e-06</Option>
    <Option name="ConvergenceTests" modified="Yes">15</Option>
    <Option name="UseRegulator" modified="Yes">False</Option>
    <Option name="UpdateLimit" modified="No">10000</Option>
    <Option name="CalculateErrors" modified="No">False</Option>
    <Option name="WeightRange" modified="No">1.000000e+00</Option>
  </Options>
  <Variables NVar="11">
    <Variable VarIndex="0" Expression="U5" Label="U5" Title="U 235" Unit="FractionIsotopic" Internal="U5" Type="F" Min="1.70676806e-03" Max="3.86267412e-03"/>
    <Variable VarIndex="1" Expression="U8" Label="U8" Title="U 238" Unit="FractionIsotopic" Internal="U8" Type="F" Min="8.46656263e-01" Max="9.67921793e-01"/>
    <Variable VarIndex="2" Expression="Pu8" Label="Pu8" Title="Pu 238" Unit="FractionIsotopic" Internal="Pu8" Type="F" Min="9.54120769e-05" Max="1.02889920e-02"/>
    <Variable VarIndex="3" Expression="Pu9" Label="Pu9" Title="Pu 239" Unit="FractionIsotopic" Internal="Pu9" Type="F" Min="6.84304768e-03" Max="1.03770845e-01"/>
    <Variable VarIndex="4" Expression="Pu10" Label="Pu10" Title="Pu 240" Unit="FractionIsotopic" Internal="Pu10" Type="F" Min="4.30373754e-03" Max="4.21657786e-02"/>
    <Variable VarIndex="5" Expression="Pu11" Label="Pu11" Title="Pu 241" Unit="FractionIsotopic" Internal="Pu11" Type="F" Min="3.67950233e-05" Max="2.75353342e-02"/>
    <Variable VarIndex="6" Expression="Pu12" Label="Pu12" Title="Pu 242" Unit="FractionIsotopic" Internal="Pu12" Type="F" Min="7.64389639e-04" Max="2.53406931e-02"/>
    <Variable VarIndex="7" Expression="Am1" Label="Am1" Title="Am 241" Unit="FractionIsotopic" Internal="Am1" Type="F" Min="7.62663092e-07" Max="1.72295030e-02"/>
    <Variable VarIndex="8" Expression="Am2" Label="Am2" Title="Am 242" Unit="FractionIsotopic" Internal="Am2" Type="F" Min="1.01304298e-09" Max="2.95403443e-05"/>
    <Variable VarIndex="9" Expression="Am3" Label="Am3" Title="Am 243" Unit="FractionIsotopic" Internal="Am3" Type="F" Min="7.64972924e-07" Max="7.47120613e-03"/>
    <Variable VarIndex="10" Expression="Time" Label="Time" Title="Time" Unit="seconds" Internal="Time" Type="F" Min="0.00000000e+00" Max="1.57788000e+08"/>
  </Variables>
  <Spectators NSpec="0"/>
  <Classes NClass="1">
    <Class Name="Regression" Index="0"/>
  </Classes>
  <Targets NTrgt="1">
    <Target TargetIndex="0" Expression="XS_19_41_0_cap" Label="XS_19_41_0_cap" Title="XS_19_41_0_cap" Unit="" Internal="XS_19_41_0_cap" Type="F" Min="5.34535199e-02" Max="1.25925630e-01"/>
  </Targets>
  <Transformations NTransformations="1">
    <Transform Name="Normalize">
      <Selection>
        <Input NInputs="12">
          <Input Type="Variable" Label="U5" Expression="U5"/>
          <Input Type="Variable" Label="U8" Expression="U8"/>
          <Input Type="Variable" Label="Pu8" Expression="Pu8"/>
          <Input Type="Variable" Label="Pu9" Expression="Pu9"/>
          <Input Type="Variable" Label="Pu10" Expression="Pu10"/>
          <Input Type="Variable" Label="Pu11" Expression="Pu11"/>
          <Input Type="Variable" Label="Pu12" Expression="Pu12"/>
          <Input Type="Variable" Label="Am1" Expression="Am1"/>
          <Input Type="Variable" Label="Am2" Expression="Am2"/>
          <Input Type="Variable" Label="Am3" Expression="Am3"/>
          <Input Type="Variable" Label="Time" Expression="Time"/>
          <Input Type="Target" Label="XS_19_41_0_cap" Expression="XS_19_41_0_cap"/>
        </Input>
        <Output NOutputs="12">
          <Output Type="Variable" Label="U5" Expression="U5"/>
          <Output Type="Variable" Label="U8" Expression="U8"/>
          <Output Type="Variable" Label="Pu8" Expression="Pu8"/>
          <Output Type="Variable" Label="Pu9" Expression="Pu9"/>
          <Output Type="Variable" Label="Pu10" Expression="Pu10"/>
          <Output Type="Variable" Label="Pu11" Expression="Pu11"/>
          <Output Type="Variable" Label="Pu12" Expression="Pu12"/>
          <Output Type="Variable" Label="Am1" Expression="Am1"/>
          <Output Type="Variable" Label="Am2" Expression="Am2"/>
          <Output Type="Variable" Label="Am3" Expression="Am3"/>
          <Output Type="Variable" Label="Time" Expression="Time"/>
          <Output Type="Target" Label="XS_19_41_0_cap" Expression="XS_19_41_0_cap"/>
        </Output>
      </Selection>
      <Class ClassIndex="0">
        <Ranges>
          <Range Index="0" Min="1.7067680601030588e-03" Max="3.8626741152256727e-03"/>
          <Range Index="1" Min="8.4665626287460327e-01" Max="9.6792179346084595e-01"/>
          <Range Index="2" Min="9.5412076916545630e-05" Max="1.0288991965353489e-02"/>
          <Range Index="3" Min="6.8430476821959019e-03" Max="1.0377084463834763e-01"/>
          <Range Index="4" Min="4.3037375435233116e-03" Max="4.2165778577327728e-02"/>
          <Range Index="5" Min="3.6795023333979771e-05" Max="2.7535334229469299e-02"/>
          <Range Index="6" Min="7.6438963878899813e-04" Max="2.5340693071484566e-02"/>
          <Range Index="7" Min="7.6266309179118252e-07" Max="1.7229503020644188e-02"/>
          <Range Index="8" Min="1.0130429828336673e-09" Max="2.9540344257839024e-05"/>
          <Range Index="9" Min="7.6497292411659146e-07" Max="7.4712061323225498e-03"/>
          <Range Index="10" Min="0.0000000000000000e+00" Max="1.5778800000000000e+08"/>
          <Range Index="11" Min="5.3453519940376282e-02" Max="1.2592563033103943e-01"/>
        </Ranges>
      </Class>
    </Transform>
  </Transformations>
  <MVAPdfs/>
  <Weights>
    <Layout NLayers="4">
      <Layer Index="0" NNeurons="12">
        <Neuron NSynapses="11">
          -2.3955378234356478e-02 1.5162481773267493e+00 1.1207763241795210e-02 5.2277691896312380e-02 3.9590389583989256e-02 -1.2508308781552560e+00 2.8255373312119792e-02 1.0844882802940248e+00 1.3172050000411840e-02 1.9858411982503703e-02 -1.4493814526638372e-02 
        </Neuron>
        <Neuron NSynapses="11">
          -2.9974802690327579e-01 -8.0952120719764431e-01 -8.4352660650088040e-01 1.6211405340511305e+00 1.7573603991639035e+00 -1.2650262493097972e+00 2.4589842216144544e+00 8.3837565558843008e-01 2.2301221839433714e+00 -1.4025277430703682e+00 -2.4476530821487036e-01 
        </Neuron>
        <Neuron NSynapses="11">
          -8.5722030533448360e-02 -6.9223246801833760e-01 2.7697146017934055e-01 -1.8471821130181243e-01 3.9495615589810024e-01 -8.5668535719861683e-01 1.4199317800132044e-01 -7.7985579637234986e-02 -1.1970737765336389e-01 -1.9872536365951102e-01 -3.8948140120246416e-01 
        </Neuron>
        <Neuron NSynapses="11">
          -1.2800807129500205e+00 -4.8126296783083000e-01 -6.2875565644686704e-01 -3.3787083197024468e+00 1.9284512765129065e+00 -1.9306141146492259e+00 6.2304373735462837e-01 1.2391012538379029e+00 4.2737516349754789e-01 2.2226383621701831e+00 -1.9052714268820459e-01 
        </Neuron>
        <Neuron NSynapses="11">
          -3.9224237499645026e-01 -2.1904537856372701e+00 9.1206261528287547e-01 -5.5540932813029831e-01 1.5757839444861375e+00 1.1965786787709158e+00 3.7857296569755106e-01 7.1374361562671718e-01 -4.0951500403713686e-01 -6.4633142734224991e-01 -1.1553837640770943e+00 
        </Neuron>
        <Neuron NSynapses="11">
          -3.8454164707295230e-01 -1.1641871274316775e+00 -7.1061927950996040e-01 -3.7896154390365960e-01 1.0539807455686555e-01 -1.4353974522100217e+00 2.5100493550761882e-01 9.8297944053646613e-02 2.9381996232768126e-01 6.6532068423828261e-01 1.5651518010998869e-01 
        </Neuron>
        <Neuron NSynapses="11">
          -1.3947030997615953e-01 -1.2654426506763967e+00 9.7001958210522071e-02 4.2908884417752918e-01 5.1087614024014238e-01 -1.0048605942665922e+00 4.3943282334938177e-01 8.4343443387710570e-01 1.6286567399402896e-01 -5.6802140570244786e-01 -4.4377113971052762e-01 
        </Neuron>
        <Neuron NSynapses="11">
          -2.3500624937467124e-01 3.1054193431137588e-02 8.2532095270759040e-02 -5.4583472141867018e-01 2.6934984439319509e-01 6.2675579354402725e-02 2.3479926609186891e-01 -5.2439953160547115e-02 -3.2859747117787763e-01 1.0219551163112979e-01 -5.6145527120901040e-01 
        </Neuron>
        <Neuron NSynapses="11">
          4.6412347399327628e-03 -1.9241152986152879e+00 3.5622560313502694e-03 -8.7462295729258052e-02 -5.7622835756735220e-02 -1.5311076168681579e+00 -3.3832008138533583e-04 3.4577071763072958e-01 5.3199030336903419e-04 1.7377317962794306e-02 1.6363389212042005e-02 
        </Neuron>
        <Neuron NSynapses="11">
          -7.8538355211212788e-02 -2.1156103362847087e+00 8.5466645323043350e-03 -9.0840049384918270e-02 1.3489940372157566e-01 -7.2496962031730694e-01 1.1387955493171015e-01 4.2800690758696740e-02 -5.6716677115440636e-02 -1.7262188516203081e-01 -1.8321901637810720e-01 
        </Neuron>
        <Neuron NSynapses="11">
          3.1904205054626272e-01 2.5641592678486047e-01 5.1979175761108320e-01 6.5221060036224798e-01 -3.0187846152233799e+00 6.3834630541570314e-01 3.2393092583990540e-01 -1.1780229629794270e+00 4.8125383384298344e-02 1.1220990120864929e-01 -4.0920794830491319e-01 
        </Neuron>
        <Neuron NSynapses="11">
          9.4485860623646356e-01 5.7928383774643388e-01 2.4925855278513942e+00 9.8116596603922457e-01 -2.1482364826057792e+00 2.3558509892588577e+00 -2.0965973584602726e-02 -3.0894641418002329e+00 5.6939480189525722e-02 3.8478509254355027e+00 -1.9712601209379219e+00 
        </Neuron>
      </Layer>
      <Layer Index="1" NNeurons="12">
        <Neuron NSynapses="11">
          1.1327864795090590e+00 -7.0034039416216365e-01 8.2146493303890822e-01 1.1979491392296286e+00 1.6655018693274386e+00 -1.6004583882229573e+00 1.0004869500233071e+00 1.5050482902945523e+00 1.9166304628692552e+00 5.2454367447471917e-01 -7.3508135373909067e-01 
        </Neuron>
        <Neuron NSynapses="11">
          3.6391180843719478e-01 2.9603031315613565e-01 1.6791263526494622e+00 8.5308325658314321e-01 -1.1944318514347867e+00 -4.1722008127480370e-01 -5.1341054824240954e-03 -3.8094876357575953e-03 -6.7956236847839064e-03 9.8971861327612587e-01 -1.3827340379324953e+00 
        </Neuron>
        <Neuron NSynapses="11">
          8.8803228489086922e-02 -4.4005709634562545e-02 1.2867856729247855e+00 2.7216090596133091e-01 1.0754270220810442e+00 -1.3858969031516153e+00 1.3728520989263209e+00 1.0975773344253368e+00 7.2185333478312075e-01 5.8660530907977781e-01 8.9180941967000293e-01 
        </Neuron>
        <Neuron NSynapses="11">
          -2.5355513941385116e-01 -9.9428321564824326e-02 9.5909195102661171e-01 -9.3617197726498014e-01 -4.2202833693622460e-01 7.7683112063791959e-01 -9.7439554636438330e-02 1.3057358764788585e-01 1.7845162961785879e+00 1.2299149993457694e+00 -2.0271480624735863e+00 
        </Neuron>
        <Neuron NSynapses="11">
          2.5462420677884878e-01 -1.0915995978375899e+00 -6.8057279543233085e-01 -1.4163793463627179e+00 -7.6500800977427053e-01 5.6535739434926491e-01 3.5542966407287541e-01 6.9532749006122968e-02 6.5208362647322077e-02 -2.2608127569523548e-01 8.4647642099895593e-01 
        </Neuron>
        <Neuron NSynapses="11">
          2.0828025279976869e+00 4.2078389432012232e-02 -1.1245746184150680e+00 -8.4708096677714884e-01 7.2681661316113921e-01 1.1629489659251209e+00 5.7970060639058985e-01 -7.8543382969677153e-02 -1.2602555316401803e-01 -1.7460784101326836e+00 1.0435882436060457e+00 
        </Neuron>
        <Neuron NSynapses="11">
          -1.1850845399453891e+00 -1.3640546317607545e+00 -7.6428064456173050e-01 -2.2849434640611924e-01 -2.1072032270668339e-01 -2.7064788130042183e+00 9.4280706699207928e-01 5.9904387006868753e-01 -5.1287538345909234e-01 -2.4837917598119788e-01 1.2250566603981814e+00 
        </Neuron>
        <Neuron NSynapses="11">
          3.4471860722166586e-01 -1.5401170126416600e-01 -2.9682511093546356e-02 -1.8249935521812308e+00 -7.2032371665237926e-01 1.6042508564848661e+00 8.2632358047113372e-02 4.4209964660355866e-01 1.4257715121408693e-01 2.0926702272737296e+00 -1.6289072633760628e+00 
        </Neuron>
        <Neuron NSynapses="11">
          -1.3950122207366109e+00 -1.2094754868868387e+00 -2.3632436368132441e+00 1.2283040748835736e+00 1.3710385210568832e+00 -5.1061775054745995e-01 2.3646931076832894e-01 1.2777825551201266e-01 -5.8428099426838020e-01 -9.8521040133958071e-01 1.5131857918403113e+00 
        </Neuron>
        <Neuron NSynapses="11">
          1.0720566169154406e+00 4.5107818350724249e-02 -8.9952670740814200e-01 1.8670618312104774e+00 -1.1014784980620711e+00 9.8197811142182223e-01 -4.0156149282865422e-01 -2.3548679157875894e+00 -9.0936714711481936e-01 -2.1929144837167347e+00 -1.0742800793593120e-01 
        </Neuron>
        <Neuron NSynapses="11">
          -1.7846006271338557e+00 -4.5096592611029979e-01 -8.9078121622598549e-01 -1.2281731182096957e-01 -1.6241889179480966e+00 -9.1552005530799840e-01 8.0014539784969474e-01 -6.6340129585701724e-01 -4.5101991599890778e-01 -1.9057197391857872e+00 -7.7959861597661639e-01 
        </Neuron>
        <Neuron NSynapses="11">
          2.6493139468291362e+00 1.9267745951652013e+00 -5.3752429750575104e-01 -1.6360379366807685e+00 -4.3923979433736415e-01 -7.2528614715577289e-01 -1.6511292344586546e+00 1.1957942182662851e-02 7.1349872354838539e-01 1.8296599454641467e+00 -1.8484031523068042e-01 
        </Neuron>
      </Layer>
      <Layer Index="2" NNeurons="12">
        <Neuron NSynapses="1">
          1.0201597152720109e-01 
        </Neuron>
        <Neuron NSynapses="1">
          -2.0707777662322839e+00 
        </Neuron>
        <Neuron NSynapses="1">
          -9.0199851497725150e-03 
        </Neuron>
        <Neuron NSynapses="1">
          1.0443287931567052e-02 
        </Neuron>
        <Neuron NSynapses="1">
          -1.7788220118788507e-02 
        </Neuron>
        <Neuron NSynapses="1">
          -1.8027740426085920e-02 
        </Neuron>
        <Neuron NSynapses="1">
          2.4153219579531565e-01 
        </Neuron>
        <Neuron NSynapses="1">
          3.3189243684109682e-01 
        </Neuron>
        <Neuron NSynapses="1">
          2.4620495801761982e-02 
        </Neuron>
        <Neuron NSynapses="1">
          -1.5654723880999272e-02 
        </Neuron>
        <Neuron NSynapses="1">
          -6.5526091571104792e-03 
        </Neuron>
        <Neuron NSynapses="1">
          1.5891178349894233e+00 
        </Neuron>
      </Layer>
      <Layer Index="3" NNeurons="1">
        <Neuron NSynapses="0"/>
      </Layer>
    </Layout>
  </Weights>
</MethodSetup>
