<?xml version="1.0"?>
<MethodSetup Method="MLP::XS_21_45_0_cap">
  <GeneralInfo>
    <Info name="TMVA Release" value="4.2.0 [262656]"/>
    <Info name="ROOT Release" value="5.34/18 [336402]"/>
    <Info name="Creator" value="leniau"/>
    <Info name="Date" value="Wed Jul  2 04:48:34 2014"/>
    <Info name="Host" value="Linux nansl3.in2p3.fr 2.6.32-358.11.1.el6.x86_64 #1 SMP Tue Jun 11 17:23:30 CDT 2013 x86_64 x86_64 x86_64 GNU/Linux"/>
    <Info name="Dir" value="/scratch/spallati/leniau/Projets_CLASS/TMVA/BASE_MONOMOX_MLP/Build_XS_Predictor"/>
    <Info name="Training events" value="25811"/>
    <Info name="TrainingTime" value="2.23928730e+03"/>
    <Info name="AnalysisType" value="Regression"/>
  </GeneralInfo>
  <Options>
    <Option name="NCycles" modified="Yes">20000</Option>
    <Option name="HiddenLayers" modified="Yes">N,N</Option>
    <Option name="NeuronType" modified="Yes">tanh</Option>
    <Option name="RandomSeed" modified="No">1</Option>
    <Option name="EstimatorType" modified="No">MSE</Option>
    <Option name="NeuronInputType" modified="No">sum</Option>
    <Option name="V" modified="Yes">False</Option>
    <Option name="VerbosityLevel" modified="No">Default</Option>
    <Option name="VarTransform" modified="Yes">Norm</Option>
    <Option name="H" modified="Yes">False</Option>
    <Option name="CreateMVAPdfs" modified="No">False</Option>
    <Option name="IgnoreNegWeightsInTraining" modified="No">False</Option>
    <Option name="TrainingMethod" modified="Yes">BFGS</Option>
    <Option name="LearningRate" modified="No">2.000000e-02</Option>
    <Option name="DecayRate" modified="No">1.000000e-02</Option>
    <Option name="TestRate" modified="Yes">6</Option>
    <Option name="EpochMonitoring" modified="No">False</Option>
    <Option name="Sampling" modified="Yes">3.000000e-01</Option>
    <Option name="SamplingEpoch" modified="Yes">8.000000e-01</Option>
    <Option name="SamplingImportance" modified="No">1.000000e+00</Option>
    <Option name="SamplingTraining" modified="No">True</Option>
    <Option name="SamplingTesting" modified="No">False</Option>
    <Option name="ResetStep" modified="No">50</Option>
    <Option name="Tau" modified="No">3.000000e+00</Option>
    <Option name="BPMode" modified="No">sequential</Option>
    <Option name="BatchSize" modified="No">-1</Option>
    <Option name="ConvergenceImprove" modified="Yes">1.000000e-06</Option>
    <Option name="ConvergenceTests" modified="Yes">15</Option>
    <Option name="UseRegulator" modified="Yes">False</Option>
    <Option name="UpdateLimit" modified="No">10000</Option>
    <Option name="CalculateErrors" modified="No">False</Option>
    <Option name="WeightRange" modified="No">1.000000e+00</Option>
  </Options>
  <Variables NVar="9">
    <Variable VarIndex="0" Expression="U5" Label="U5" Title="U 235" Unit="FractionIsotopic" Internal="U5" Type="F" Min="1.70790544e-03" Max="3.82024585e-03"/>
    <Variable VarIndex="1" Expression="U8" Label="U8" Title="U 238" Unit="FractionIsotopic" Internal="U8" Type="F" Min="8.46877456e-01" Max="9.57599878e-01"/>
    <Variable VarIndex="2" Expression="Pu8" Label="Pu8" Title="Pu 238" Unit="FractionIsotopic" Internal="Pu8" Type="F" Min="2.04457741e-04" Max="1.07518081e-02"/>
    <Variable VarIndex="3" Expression="Pu9" Label="Pu9" Title="Pu 239" Unit="FractionIsotopic" Internal="Pu9" Type="F" Min="1.34624317e-02" Max="1.10575892e-01"/>
    <Variable VarIndex="4" Expression="Pu10" Label="Pu10" Title="Pu 240" Unit="FractionIsotopic" Internal="Pu10" Type="F" Min="5.54009527e-03" Max="4.70738448e-02"/>
    <Variable VarIndex="5" Expression="Pu11" Label="Pu11" Title="Pu 241" Unit="FractionIsotopic" Internal="Pu11" Type="F" Min="2.52286321e-03" Max="2.77698915e-02"/>
    <Variable VarIndex="6" Expression="Pu12" Label="Pu12" Title="Pu 242" Unit="FractionIsotopic" Internal="Pu12" Type="F" Min="6.26901106e-04" Max="3.05664930e-02"/>
    <Variable VarIndex="7" Expression="Am1" Label="Am1" Title="Am 241" Unit="FractionIsotopic" Internal="Am1" Type="F" Min="2.08963102e-05" Max="1.11369798e-02"/>
    <Variable VarIndex="8" Expression="Time" Label="Time" Title="Time" Unit="seconds" Internal="Time" Type="F" Min="0.00000000e+00" Max="1.57788000e+08"/>
  </Variables>
  <Spectators NSpec="0"/>
  <Classes NClass="1">
    <Class Name="Regression" Index="0"/>
  </Classes>
  <Targets NTrgt="1">
    <Target TargetIndex="0" Expression="XS_21_45_0_cap" Label="XS_21_45_0_cap" Title="XS_21_45_0_cap" Unit="" Internal="XS_21_45_0_cap" Type="F" Min="3.46573174e-01" Max="1.43439353e+00"/>
  </Targets>
  <Transformations NTransformations="1">
    <Transform Name="Normalize">
      <Selection>
        <Input NInputs="10">
          <Input Type="Variable" Label="U5" Expression="U5"/>
          <Input Type="Variable" Label="U8" Expression="U8"/>
          <Input Type="Variable" Label="Pu8" Expression="Pu8"/>
          <Input Type="Variable" Label="Pu9" Expression="Pu9"/>
          <Input Type="Variable" Label="Pu10" Expression="Pu10"/>
          <Input Type="Variable" Label="Pu11" Expression="Pu11"/>
          <Input Type="Variable" Label="Pu12" Expression="Pu12"/>
          <Input Type="Variable" Label="Am1" Expression="Am1"/>
          <Input Type="Variable" Label="Time" Expression="Time"/>
          <Input Type="Target" Label="XS_21_45_0_cap" Expression="XS_21_45_0_cap"/>
        </Input>
        <Output NOutputs="10">
          <Output Type="Variable" Label="U5" Expression="U5"/>
          <Output Type="Variable" Label="U8" Expression="U8"/>
          <Output Type="Variable" Label="Pu8" Expression="Pu8"/>
          <Output Type="Variable" Label="Pu9" Expression="Pu9"/>
          <Output Type="Variable" Label="Pu10" Expression="Pu10"/>
          <Output Type="Variable" Label="Pu11" Expression="Pu11"/>
          <Output Type="Variable" Label="Pu12" Expression="Pu12"/>
          <Output Type="Variable" Label="Am1" Expression="Am1"/>
          <Output Type="Variable" Label="Time" Expression="Time"/>
          <Output Type="Target" Label="XS_21_45_0_cap" Expression="XS_21_45_0_cap"/>
        </Output>
      </Selection>
      <Class ClassIndex="0">
        <Ranges>
          <Range Index="0" Min="1.7079054377973080e-03" Max="3.8202458526939154e-03"/>
          <Range Index="1" Min="8.4687745571136475e-01" Max="9.5759987831115723e-01"/>
          <Range Index="2" Min="2.0445774134714156e-04" Max="1.0751808062195778e-02"/>
          <Range Index="3" Min="1.3462431728839874e-02" Max="1.1057589203119278e-01"/>
          <Range Index="4" Min="5.5400952696800232e-03" Max="4.7073844820261002e-02"/>
          <Range Index="5" Min="2.5228632148355246e-03" Max="2.7769891545176506e-02"/>
          <Range Index="6" Min="6.2690110644325614e-04" Max="3.0566493049263954e-02"/>
          <Range Index="7" Min="2.0896310161333531e-05" Max="1.1136979795992374e-02"/>
          <Range Index="8" Min="0.0000000000000000e+00" Max="1.5778800000000000e+08"/>
          <Range Index="9" Min="3.4657317399978638e-01" Max="1.4343935251235962e+00"/>
        </Ranges>
      </Class>
    </Transform>
  </Transformations>
  <MVAPdfs/>
  <Weights>
    <Layout NLayers="4">
      <Layer Index="0" NNeurons="10">
        <Neuron NSynapses="9">
          -1.4401577223224438e-01 -2.1717102093255353e-02 -2.9230853310822015e-02 9.2951235861262790e-02 2.0063937106996377e-02 1.1711685230329353e-03 -7.0853623580583225e-02 8.9259894231786285e-01 -4.8595337621303678e-02 
        </Neuron>
        <Neuron NSynapses="9">
          -1.6330988408115403e+00 -1.9915577507855780e+00 -1.2785127777313667e+00 -1.1077423390554784e+00 1.6463291672148467e-01 -9.4842075532460857e-01 7.9110497236410871e-01 -2.6861483932175068e-01 2.2293829658649891e+00 
        </Neuron>
        <Neuron NSynapses="9">
          2.1727777769657711e-01 1.6473325217256130e-01 -1.6760062665046813e-01 4.9882802615894223e-01 1.0283616114314578e-01 5.5639620931155750e-02 -5.4164030850373801e-02 1.3555488802866045e-01 8.0338448586165012e-01 
        </Neuron>
        <Neuron NSynapses="9">
          -2.1729464932977001e+00 -9.3792708062873109e-01 -9.7457738169091579e-01 1.3926452013942996e+00 1.4505641167231604e+00 5.9753859709656432e-01 4.3896987861645376e-01 1.0796427067717238e+00 -2.4572882316139468e+00 
        </Neuron>
        <Neuron NSynapses="9">
          -8.1553279501546139e-01 4.2766167737132643e-01 -7.3405218931263005e-01 7.5197614838273852e-01 4.9892336414033328e-01 3.0200792431655654e-01 1.6849679104814894e+00 1.1518692635161905e+00 4.1267089957957398e-01 
        </Neuron>
        <Neuron NSynapses="9">
          -8.1832188520422022e-01 -4.3387658251573452e-01 -9.7037516550280617e-02 6.7998635516456518e-01 3.8825163247930150e-01 5.6531359332988008e-02 1.3814541217532861e+00 -8.3206624950944530e-01 3.0872899655454977e-02 
        </Neuron>
        <Neuron NSynapses="9">
          -8.3008468693074366e-01 -1.8880085882038139e-01 -3.7410121108640632e-01 -4.4129675353548709e-01 1.6295874951660971e-01 -1.1358531954613561e-01 -6.1981248359493535e-01 3.6537356526062770e-01 1.3252195634798793e+00 
        </Neuron>
        <Neuron NSynapses="9">
          -3.3790542206243468e-01 3.8145291508542130e-02 -6.6425662994072140e-02 6.8402124184273094e-01 1.9174145445698529e-01 8.7607580885666850e-02 3.7783247011929910e-01 -4.6752569954176870e-02 2.5502767354815152e-02 
        </Neuron>
        <Neuron NSynapses="9">
          3.5795804374907703e-01 2.7201127081585175e-01 1.1814848689543080e+00 -8.7407501877844851e-01 -3.2136737348234956e-01 -2.2722551731631954e-01 -9.8083299467527182e-02 -5.5789472164514231e-01 6.1466091956477487e-01 
        </Neuron>
        <Neuron NSynapses="9">
          2.1166320947785646e+00 1.6837708246079524e+00 1.4306315319289074e+00 -2.3705343075725440e+00 2.9205579197506004e-01 1.6823724330665186e+00 -2.8481115292959642e+00 -3.3723873351100866e+00 -5.4775135791375618e-01 
        </Neuron>
      </Layer>
      <Layer Index="1" NNeurons="10">
        <Neuron NSynapses="9">
          1.9197607242284848e-01 8.9638338933792938e-01 1.1879462457568932e+00 -1.3959426302937812e+00 -4.2081302497034445e-01 1.4988901273776571e+00 -8.4694865264170183e-01 -1.4560841317758135e+00 -1.5537697021018970e+00 
        </Neuron>
        <Neuron NSynapses="9">
          4.8853570239979140e-02 -2.0980020337659102e+00 -1.8982327705807147e+00 -3.3422895779258804e-01 9.8237272143426446e-01 -1.4976718779359495e+00 1.6125449401917731e+00 -5.8950845789271167e-01 -7.9512082347902968e-01 
        </Neuron>
        <Neuron NSynapses="9">
          1.5200931849684798e-01 -1.6008807073529419e+00 -1.4788095328086630e+00 1.4155141793851747e+00 -2.6540152405185641e-01 -2.7594068784373765e-01 -5.4591681701106598e-01 1.1339829344006396e+00 3.3771171677089801e-01 
        </Neuron>
        <Neuron NSynapses="9">
          -9.2668103542133262e-01 -1.7828666183936298e-01 -1.4000184375444300e+00 3.9116766898774302e-02 -1.1328386197280369e+00 -2.1262876814196082e-02 1.5537668638647382e+00 4.8990615474918708e-01 4.7476561002932238e-02 
        </Neuron>
        <Neuron NSynapses="9">
          -7.3165498265840700e-01 9.1271972645836241e-01 -1.2416496676405944e+00 4.4645012935112127e-01 9.4923016671371518e-01 -8.4092625825908041e-01 1.1404086751511648e+00 -1.4848231996130599e+00 7.2993709085495795e-02 
        </Neuron>
        <Neuron NSynapses="9">
          9.6910227096182344e-01 1.9243883502671320e+00 -1.6532814241771612e+00 8.7816175555690779e-01 2.2580788347551120e+00 2.0203032262526266e+00 4.7127932696185021e-01 -1.6748382173253367e+00 -2.5965868324584185e-01 
        </Neuron>
        <Neuron NSynapses="9">
          -9.3393575055286682e-01 -3.1520581713158624e-01 6.7412915892256919e-01 1.2974298117472877e-01 -8.6938036554226172e-01 7.1040788067024865e-02 -1.1561743816432353e+00 1.5144152450356302e-01 1.7278814084541954e+00 
        </Neuron>
        <Neuron NSynapses="9">
          -8.0149500078592195e-01 -1.0704085000474926e+00 -3.2199032324351357e-01 2.8502052900506514e-01 -3.2809908169747443e-01 2.3471192701436683e-01 -1.6000773631430265e+00 1.1183717218708904e+00 8.3807078684697134e-01 
        </Neuron>
        <Neuron NSynapses="9">
          1.5310149320256877e-01 -7.2861063559335873e-02 1.3503258216610030e+00 -1.9306069480005350e-02 -6.1521089790376959e-01 1.9735659743779310e-01 4.1133653124173297e-01 -4.0967226866463952e-01 1.4642472895380030e+00 
        </Neuron>
        <Neuron NSynapses="9">
          1.6817597810770222e+00 4.6452269084424624e-01 1.2774812842056584e+00 1.9129920870510104e+00 -1.8996094062830249e+00 7.4678674934119726e-01 -4.1667572172223470e-03 5.4410720236733490e-01 -1.7771526050403721e+00 
        </Neuron>
      </Layer>
      <Layer Index="2" NNeurons="10">
        <Neuron NSynapses="1">
          4.7466313543965061e-01 
        </Neuron>
        <Neuron NSynapses="1">
          -2.3851844602115505e-01 
        </Neuron>
        <Neuron NSynapses="1">
          4.0099646192399722e-03 
        </Neuron>
        <Neuron NSynapses="1">
          -2.3249715672300852e+00 
        </Neuron>
        <Neuron NSynapses="1">
          5.9947821034161668e-03 
        </Neuron>
        <Neuron NSynapses="1">
          1.1124415642427694e+00 
        </Neuron>
        <Neuron NSynapses="1">
          -1.1620299631882337e-01 
        </Neuron>
        <Neuron NSynapses="1">
          4.1546222607737193e-01 
        </Neuron>
        <Neuron NSynapses="1">
          -6.8270169448724038e-01 
        </Neuron>
        <Neuron NSynapses="1">
          -6.4083076224982910e-02 
        </Neuron>
      </Layer>
      <Layer Index="3" NNeurons="1">
        <Neuron NSynapses="0"/>
      </Layer>
    </Layout>
  </Weights>
</MethodSetup>
