<?xml version="1.0"?>
<MethodSetup Method="MLP::XS_60_146_0_n2n">
  <GeneralInfo>
    <Info name="TMVA Release" value="4.2.0 [262656]"/>
    <Info name="ROOT Release" value="5.34/14 [336398]"/>
    <Info name="Creator" value="courtin"/>
    <Info name="Date" value="Thu Jun  9 17:27:33 2016"/>
    <Info name="Host" value="Linux nansl3.in2p3.fr 2.6.32-431.20.3.el6.x86_64 #1 SMP Thu Jun 19 14:01:59 CDT 2014 x86_64 x86_64 x86_64 GNU/Linux"/>
    <Info name="Dir" value="/scratch/spallati/courtin/WORK/MOxEUS/BdD_MOX/MOX_NN/XSM/Train"/>
    <Info name="Training events" value="56670"/>
    <Info name="TrainingTime" value="1.16673337e+03"/>
    <Info name="AnalysisType" value="Regression"/>
  </GeneralInfo>
  <Options>
    <Option name="NCycles" modified="Yes">20000</Option>
    <Option name="HiddenLayers" modified="Yes">N,N</Option>
    <Option name="NeuronType" modified="Yes">tanh</Option>
    <Option name="RandomSeed" modified="No">1</Option>
    <Option name="EstimatorType" modified="No">MSE</Option>
    <Option name="NeuronInputType" modified="No">sum</Option>
    <Option name="V" modified="Yes">False</Option>
    <Option name="VerbosityLevel" modified="No">Default</Option>
    <Option name="VarTransform" modified="Yes">Norm</Option>
    <Option name="H" modified="Yes">False</Option>
    <Option name="CreateMVAPdfs" modified="No">False</Option>
    <Option name="IgnoreNegWeightsInTraining" modified="No">False</Option>
    <Option name="TrainingMethod" modified="Yes">BFGS</Option>
    <Option name="LearningRate" modified="No">2.000000e-02</Option>
    <Option name="DecayRate" modified="No">1.000000e-02</Option>
    <Option name="TestRate" modified="Yes">6</Option>
    <Option name="EpochMonitoring" modified="No">False</Option>
    <Option name="Sampling" modified="Yes">3.000000e-01</Option>
    <Option name="SamplingEpoch" modified="Yes">8.000000e-01</Option>
    <Option name="SamplingImportance" modified="No">1.000000e+00</Option>
    <Option name="SamplingTraining" modified="No">True</Option>
    <Option name="SamplingTesting" modified="No">False</Option>
    <Option name="ResetStep" modified="No">50</Option>
    <Option name="Tau" modified="No">3.000000e+00</Option>
    <Option name="BPMode" modified="No">sequential</Option>
    <Option name="BatchSize" modified="No">-1</Option>
    <Option name="ConvergenceImprove" modified="Yes">1.000000e-06</Option>
    <Option name="ConvergenceTests" modified="Yes">15</Option>
    <Option name="UseRegulator" modified="Yes">False</Option>
    <Option name="UpdateLimit" modified="No">10000</Option>
    <Option name="CalculateErrors" modified="No">False</Option>
    <Option name="WeightRange" modified="No">1.000000e+00</Option>
  </Options>
  <Variables NVar="9">
    <Variable VarIndex="0" Expression="U5" Label="U5" Title="U 235" Unit="FractionIsotopic" Internal="U5" Type="F" Min="1.72709476e-03" Max="3.81623278e-03"/>
    <Variable VarIndex="1" Expression="U8" Label="U8" Title="U 238" Unit="FractionIsotopic" Internal="U8" Type="F" Min="8.46853673e-01" Max="9.57857072e-01"/>
    <Variable VarIndex="2" Expression="Pu8" Label="Pu8" Title="Pu 238" Unit="FractionIsotopic" Internal="Pu8" Type="F" Min="2.10537197e-04" Max="1.05673587e-02"/>
    <Variable VarIndex="3" Expression="Pu9" Label="Pu9" Title="Pu 239" Unit="FractionIsotopic" Internal="Pu9" Type="F" Min="1.67695526e-02" Max="1.14535898e-01"/>
    <Variable VarIndex="4" Expression="Pu10" Label="Pu10" Title="Pu 240" Unit="FractionIsotopic" Internal="Pu10" Type="F" Min="5.72719984e-03" Max="5.21629304e-02"/>
    <Variable VarIndex="5" Expression="Pu11" Label="Pu11" Title="Pu 241" Unit="FractionIsotopic" Internal="Pu11" Type="F" Min="3.33701813e-04" Max="1.89348347e-02"/>
    <Variable VarIndex="6" Expression="Pu12" Label="Pu12" Title="Pu 242" Unit="FractionIsotopic" Internal="Pu12" Type="F" Min="7.46939739e-04" Max="3.17858644e-02"/>
    <Variable VarIndex="7" Expression="Am1" Label="Am1" Title="Am 241" Unit="FractionIsotopic" Internal="Am1" Type="F" Min="1.24220833e-06" Max="7.95311853e-03"/>
    <Variable VarIndex="8" Expression="Time" Label="Time" Title="Time" Unit="seconds" Internal="Time" Type="F" Min="0.00000000e+00" Max="1.89328320e+08"/>
  </Variables>
  <Spectators NSpec="0"/>
  <Classes NClass="1">
    <Class Name="Regression" Index="0"/>
  </Classes>
  <Targets NTrgt="1">
    <Target TargetIndex="0" Expression="XS_60_146_0_n2n" Label="XS_60_146_0_n2n" Title="XS_60_146_0_n2n" Unit="" Internal="XS_60_146_0_n2n" Type="F" Min="2.88126711e-03" Max="4.19370737e-03"/>
  </Targets>
  <Transformations NTransformations="1">
    <Transform Name="Normalize">
      <Selection>
        <Input NInputs="10">
          <Input Type="Variable" Label="U5" Expression="U5"/>
          <Input Type="Variable" Label="U8" Expression="U8"/>
          <Input Type="Variable" Label="Pu8" Expression="Pu8"/>
          <Input Type="Variable" Label="Pu9" Expression="Pu9"/>
          <Input Type="Variable" Label="Pu10" Expression="Pu10"/>
          <Input Type="Variable" Label="Pu11" Expression="Pu11"/>
          <Input Type="Variable" Label="Pu12" Expression="Pu12"/>
          <Input Type="Variable" Label="Am1" Expression="Am1"/>
          <Input Type="Variable" Label="Time" Expression="Time"/>
          <Input Type="Target" Label="XS_60_146_0_n2n" Expression="XS_60_146_0_n2n"/>
        </Input>
        <Output NOutputs="10">
          <Output Type="Variable" Label="U5" Expression="U5"/>
          <Output Type="Variable" Label="U8" Expression="U8"/>
          <Output Type="Variable" Label="Pu8" Expression="Pu8"/>
          <Output Type="Variable" Label="Pu9" Expression="Pu9"/>
          <Output Type="Variable" Label="Pu10" Expression="Pu10"/>
          <Output Type="Variable" Label="Pu11" Expression="Pu11"/>
          <Output Type="Variable" Label="Pu12" Expression="Pu12"/>
          <Output Type="Variable" Label="Am1" Expression="Am1"/>
          <Output Type="Variable" Label="Time" Expression="Time"/>
          <Output Type="Target" Label="XS_60_146_0_n2n" Expression="XS_60_146_0_n2n"/>
        </Output>
      </Selection>
      <Class ClassIndex="0">
        <Ranges>
          <Range Index="0" Min="1.7270947573706508e-03" Max="3.8162327837198973e-03"/>
          <Range Index="1" Min="8.4685367345809937e-01" Max="9.5785707235336304e-01"/>
          <Range Index="2" Min="2.1053719683550298e-04" Max="1.0567358694970608e-02"/>
          <Range Index="3" Min="1.6769552603363991e-02" Max="1.1453589797019958e-01"/>
          <Range Index="4" Min="5.7271998375654221e-03" Max="5.2162930369377136e-02"/>
          <Range Index="5" Min="3.3370181336067617e-04" Max="1.8934834748506546e-02"/>
          <Range Index="6" Min="7.4693973874673247e-04" Max="3.1785864382982254e-02"/>
          <Range Index="7" Min="1.2422083273122553e-06" Max="7.9531185328960419e-03"/>
          <Range Index="8" Min="0.0000000000000000e+00" Max="1.8932832000000000e+08"/>
          <Range Index="9" Min="2.8812671080231667e-03" Max="4.1937073692679405e-03"/>
        </Ranges>
      </Class>
    </Transform>
  </Transformations>
  <MVAPdfs/>
  <Weights>
    <Layout NLayers="4">
      <Layer Index="0" NNeurons="10">
        <Neuron NSynapses="9">
          -4.8354256158023012e-01 -1.7328937412321199e-01 1.2275599478576946e-01 3.7710637823440957e-01 -1.1317119825134403e+00 -2.0578667972076412e-01 -1.0236027129044092e+00 4.4788343417793530e-02 7.7700738550886495e-02 
        </Neuron>
        <Neuron NSynapses="9">
          -1.4620083328232016e+00 -1.9686219340776447e+00 1.0241076057861453e+00 -1.2703059686216061e+00 -1.7836753553958908e+00 -1.3580026138325327e+00 8.1025778804992055e-01 7.2393971623885289e-01 2.6376942941740444e+00 
        </Neuron>
        <Neuron NSynapses="9">
          4.0719278321558493e-02 -4.3064476147975950e-01 8.7266688603742770e-03 6.0952846282454926e-02 9.1903583954450963e-01 3.0219989525839880e-01 -5.7077226957035054e-01 -5.0391540104634737e-02 -8.0584473031900514e-02 
        </Neuron>
        <Neuron NSynapses="9">
          -1.2478129819964214e+00 -8.8171174527636520e-01 -1.0506979850551863e+00 4.4403298701012039e-01 2.5084749546531917e+00 1.1823098022329079e+00 2.0938134648859741e-01 -4.4449705440611437e-01 -2.5114069439690750e-01 
        </Neuron>
        <Neuron NSynapses="9">
          -1.1484463191909913e+00 -1.0264460865893112e+00 -1.6799917413343111e+00 1.1390015617586773e+00 2.2499669832850109e+00 3.2495043876046981e-01 1.6456457274945389e+00 1.0543844259117103e+00 -1.0366308572302820e+00 
        </Neuron>
        <Neuron NSynapses="9">
          -1.4517553336365125e+00 7.5898409809119838e-01 -8.0472282481435758e-02 -3.6960955191770284e-02 1.5948527482025454e+00 1.4385999622262486e+00 1.5900722241676828e+00 -1.6044311000878402e+00 5.3978021888780525e-01 
        </Neuron>
        <Neuron NSynapses="9">
          -1.9064302096667589e+00 -1.5777423675207725e+00 -3.4979589854524701e-01 -8.3710906563558751e-01 1.7435451795348456e+00 6.3698094543570860e-01 -6.5755738064674363e-01 1.3613176379679498e-01 3.1988290173142919e-01 
        </Neuron>
        <Neuron NSynapses="9">
          4.4507693816748367e-01 -3.8464909822450016e-02 -2.9692257417161000e-01 2.4988894797584493e-01 -1.6251606376751168e-01 7.7240425517931866e-01 7.7420133500734212e-01 9.4733918421544425e-02 -2.8732938141036518e-01 
        </Neuron>
        <Neuron NSynapses="9">
          3.3976505204078661e-01 2.9330070990875940e+00 4.0346433215170613e-01 -1.0366191450358564e-01 -1.4174771533325654e+00 5.4650593506740663e-01 -4.1402722118154006e-01 -1.2482090861061794e+00 6.2371464614392180e-01 
        </Neuron>
        <Neuron NSynapses="9">
          1.3563937019204053e+00 2.8117468329248001e+00 -1.5357431862810966e+00 -6.3166092146113173e-01 -2.9281322863940151e-01 5.6324322895615064e-01 -2.4612066676199036e+00 -2.3098493765937329e+00 -2.9844157319478399e+00 
        </Neuron>
      </Layer>
      <Layer Index="1" NNeurons="10">
        <Neuron NSynapses="9">
          -9.9225311317856857e-01 -1.9227026798889207e-01 1.8552912292068038e+00 -9.9573342395649234e-01 2.0780869252894196e-01 8.1393830807597267e-01 -4.8529353618858911e-01 -1.2752474393044819e+00 -1.2193705384688662e+00 
        </Neuron>
        <Neuron NSynapses="9">
          6.3151213477673851e-01 -1.4676107204607249e+00 -2.1801144954941423e+00 6.3990723459180013e-02 2.5050432193925611e+00 -4.3828805660277477e-02 1.9066054281476217e+00 -8.3006844904692845e-01 -1.6238348801398259e-01 
        </Neuron>
        <Neuron NSynapses="9">
          -3.5036641959921228e-01 3.2113852833912343e-01 -9.6594903639630791e-01 1.0977847875122377e+00 1.5692815146183738e+00 8.4170084833164238e-01 -4.3860341084088517e-01 1.6168187908348484e+00 8.1829374620618811e-01 
        </Neuron>
        <Neuron NSynapses="9">
          4.8054333894794904e-01 9.7634565118872629e-01 -1.2767203361157624e+00 -1.5668318116158275e+00 -8.2438977595492929e-02 -8.7219361042783072e-01 1.3994644298009522e+00 4.5898088646221741e-01 -3.2041433300787187e-01 
        </Neuron>
        <Neuron NSynapses="9">
          5.9077449008459659e-01 9.5795934007034389e-01 -1.4867371590809877e+00 7.2733372835748233e-01 -1.1584847071934796e+00 -9.1521084456940804e-01 9.1986612784100441e-01 -1.6416084039311221e+00 -3.1567520851176634e-01 
        </Neuron>
        <Neuron NSynapses="9">
          2.3485759731232623e+00 2.4467321141685341e+00 -1.1062801995059599e+00 1.0319856404621745e-01 1.4734948546043867e+00 6.8478027977241784e-01 1.5136764283160520e-01 -1.4529708784445359e+00 -7.7441058974097698e-01 
        </Neuron>
        <Neuron NSynapses="9">
          -4.3984050184937012e-01 1.0794072835243491e+00 1.2646075631435323e+00 -9.0119459893880788e-02 -1.2014037559964965e+00 6.2224849798972770e-01 -1.5117114422919682e+00 2.5983649270654213e-01 3.3669849425645598e-01 
        </Neuron>
        <Neuron NSynapses="9">
          -1.5411744857012952e+00 -6.0925790041843633e-02 -1.1234454307958658e-01 5.5312415476559373e-01 5.8425383491010763e-01 9.9111638385223444e-01 -6.5797738836453434e-01 1.4809594507260191e+00 1.0818590935699486e+00 
        </Neuron>
        <Neuron NSynapses="9">
          1.5786122652265219e-01 6.1581084638492778e-01 1.0184933453635179e+00 -5.6318369417599279e-01 -1.0186306369597524e+00 1.4016539277204914e+00 -1.7588681033004527e+00 -9.0826694122962670e-01 1.5703932745127300e+00 
        </Neuron>
        <Neuron NSynapses="9">
          4.2641299237122848e-01 -3.2805734802235181e-01 1.7378489277592108e+00 2.4574393170332534e+00 -1.2987006073248151e+00 -2.6719408834711574e-02 3.8773777191097764e-01 7.5052544657971554e-01 -1.4834992943618097e+00 
        </Neuron>
      </Layer>
      <Layer Index="2" NNeurons="10">
        <Neuron NSynapses="1">
          1.5781439911310823e-02 
        </Neuron>
        <Neuron NSynapses="1">
          5.5301584955120130e-02 
        </Neuron>
        <Neuron NSynapses="1">
          -3.4055834706260675e-02 
        </Neuron>
        <Neuron NSynapses="1">
          -2.5820608777490789e-02 
        </Neuron>
        <Neuron NSynapses="1">
          2.8556019785206083e-02 
        </Neuron>
        <Neuron NSynapses="1">
          -1.3831777397405176e-01 
        </Neuron>
        <Neuron NSynapses="1">
          6.5223453048769850e-02 
        </Neuron>
        <Neuron NSynapses="1">
          -4.3651314137917209e-02 
        </Neuron>
        <Neuron NSynapses="1">
          -4.1654355678892852e-01 
        </Neuron>
        <Neuron NSynapses="1">
          -5.2701626181479955e-01 
        </Neuron>
      </Layer>
      <Layer Index="3" NNeurons="1">
        <Neuron NSynapses="0"/>
      </Layer>
    </Layout>
  </Weights>
</MethodSetup>
