<?xml version="1.0"?>
<MethodSetup Method="MLP::XS_88_226_0_n2n">
  <GeneralInfo>
    <Info name="TMVA Release" value="4.2.0 [262656]"/>
    <Info name="ROOT Release" value="5.34/18 [336402]"/>
    <Info name="Creator" value="leniau"/>
    <Info name="Date" value="Wed Jul  2 00:05:34 2014"/>
    <Info name="Host" value="Linux nansl3.in2p3.fr 2.6.32-358.11.1.el6.x86_64 #1 SMP Tue Jun 11 17:23:30 CDT 2013 x86_64 x86_64 x86_64 GNU/Linux"/>
    <Info name="Dir" value="/scratch/spallati/leniau/Projets_CLASS/TMVA/BASE_MONOMOX_MLP/Build_XS_Predictor"/>
    <Info name="Training events" value="25811"/>
    <Info name="TrainingTime" value="9.48763636e+02"/>
    <Info name="AnalysisType" value="Regression"/>
  </GeneralInfo>
  <Options>
    <Option name="NCycles" modified="Yes">20000</Option>
    <Option name="HiddenLayers" modified="Yes">N,N</Option>
    <Option name="NeuronType" modified="Yes">tanh</Option>
    <Option name="RandomSeed" modified="No">1</Option>
    <Option name="EstimatorType" modified="No">MSE</Option>
    <Option name="NeuronInputType" modified="No">sum</Option>
    <Option name="V" modified="Yes">False</Option>
    <Option name="VerbosityLevel" modified="No">Default</Option>
    <Option name="VarTransform" modified="Yes">Norm</Option>
    <Option name="H" modified="Yes">False</Option>
    <Option name="CreateMVAPdfs" modified="No">False</Option>
    <Option name="IgnoreNegWeightsInTraining" modified="No">False</Option>
    <Option name="TrainingMethod" modified="Yes">BFGS</Option>
    <Option name="LearningRate" modified="No">2.000000e-02</Option>
    <Option name="DecayRate" modified="No">1.000000e-02</Option>
    <Option name="TestRate" modified="Yes">6</Option>
    <Option name="EpochMonitoring" modified="No">False</Option>
    <Option name="Sampling" modified="Yes">3.000000e-01</Option>
    <Option name="SamplingEpoch" modified="Yes">8.000000e-01</Option>
    <Option name="SamplingImportance" modified="No">1.000000e+00</Option>
    <Option name="SamplingTraining" modified="No">True</Option>
    <Option name="SamplingTesting" modified="No">False</Option>
    <Option name="ResetStep" modified="No">50</Option>
    <Option name="Tau" modified="No">3.000000e+00</Option>
    <Option name="BPMode" modified="No">sequential</Option>
    <Option name="BatchSize" modified="No">-1</Option>
    <Option name="ConvergenceImprove" modified="Yes">1.000000e-06</Option>
    <Option name="ConvergenceTests" modified="Yes">15</Option>
    <Option name="UseRegulator" modified="Yes">False</Option>
    <Option name="UpdateLimit" modified="No">10000</Option>
    <Option name="CalculateErrors" modified="No">False</Option>
    <Option name="WeightRange" modified="No">1.000000e+00</Option>
  </Options>
  <Variables NVar="9">
    <Variable VarIndex="0" Expression="U5" Label="U5" Title="U 235" Unit="FractionIsotopic" Internal="U5" Type="F" Min="1.70790544e-03" Max="3.82024585e-03"/>
    <Variable VarIndex="1" Expression="U8" Label="U8" Title="U 238" Unit="FractionIsotopic" Internal="U8" Type="F" Min="8.46877456e-01" Max="9.57599878e-01"/>
    <Variable VarIndex="2" Expression="Pu8" Label="Pu8" Title="Pu 238" Unit="FractionIsotopic" Internal="Pu8" Type="F" Min="2.04457741e-04" Max="1.07518081e-02"/>
    <Variable VarIndex="3" Expression="Pu9" Label="Pu9" Title="Pu 239" Unit="FractionIsotopic" Internal="Pu9" Type="F" Min="1.34624317e-02" Max="1.10575892e-01"/>
    <Variable VarIndex="4" Expression="Pu10" Label="Pu10" Title="Pu 240" Unit="FractionIsotopic" Internal="Pu10" Type="F" Min="5.54009527e-03" Max="4.70738448e-02"/>
    <Variable VarIndex="5" Expression="Pu11" Label="Pu11" Title="Pu 241" Unit="FractionIsotopic" Internal="Pu11" Type="F" Min="2.52286321e-03" Max="2.77698915e-02"/>
    <Variable VarIndex="6" Expression="Pu12" Label="Pu12" Title="Pu 242" Unit="FractionIsotopic" Internal="Pu12" Type="F" Min="6.26901106e-04" Max="3.05664930e-02"/>
    <Variable VarIndex="7" Expression="Am1" Label="Am1" Title="Am 241" Unit="FractionIsotopic" Internal="Am1" Type="F" Min="2.08963102e-05" Max="1.11369798e-02"/>
    <Variable VarIndex="8" Expression="Time" Label="Time" Title="Time" Unit="seconds" Internal="Time" Type="F" Min="0.00000000e+00" Max="1.57788000e+08"/>
  </Variables>
  <Spectators NSpec="0"/>
  <Classes NClass="1">
    <Class Name="Regression" Index="0"/>
  </Classes>
  <Targets NTrgt="1">
    <Target TargetIndex="0" Expression="XS_88_226_0_n2n" Label="XS_88_226_0_n2n" Title="XS_88_226_0_n2n" Unit="" Internal="XS_88_226_0_n2n" Type="F" Min="1.02217663e-02" Max="1.35028996e-02"/>
  </Targets>
  <Transformations NTransformations="1">
    <Transform Name="Normalize">
      <Selection>
        <Input NInputs="10">
          <Input Type="Variable" Label="U5" Expression="U5"/>
          <Input Type="Variable" Label="U8" Expression="U8"/>
          <Input Type="Variable" Label="Pu8" Expression="Pu8"/>
          <Input Type="Variable" Label="Pu9" Expression="Pu9"/>
          <Input Type="Variable" Label="Pu10" Expression="Pu10"/>
          <Input Type="Variable" Label="Pu11" Expression="Pu11"/>
          <Input Type="Variable" Label="Pu12" Expression="Pu12"/>
          <Input Type="Variable" Label="Am1" Expression="Am1"/>
          <Input Type="Variable" Label="Time" Expression="Time"/>
          <Input Type="Target" Label="XS_88_226_0_n2n" Expression="XS_88_226_0_n2n"/>
        </Input>
        <Output NOutputs="10">
          <Output Type="Variable" Label="U5" Expression="U5"/>
          <Output Type="Variable" Label="U8" Expression="U8"/>
          <Output Type="Variable" Label="Pu8" Expression="Pu8"/>
          <Output Type="Variable" Label="Pu9" Expression="Pu9"/>
          <Output Type="Variable" Label="Pu10" Expression="Pu10"/>
          <Output Type="Variable" Label="Pu11" Expression="Pu11"/>
          <Output Type="Variable" Label="Pu12" Expression="Pu12"/>
          <Output Type="Variable" Label="Am1" Expression="Am1"/>
          <Output Type="Variable" Label="Time" Expression="Time"/>
          <Output Type="Target" Label="XS_88_226_0_n2n" Expression="XS_88_226_0_n2n"/>
        </Output>
      </Selection>
      <Class ClassIndex="0">
        <Ranges>
          <Range Index="0" Min="1.7079054377973080e-03" Max="3.8202458526939154e-03"/>
          <Range Index="1" Min="8.4687745571136475e-01" Max="9.5759987831115723e-01"/>
          <Range Index="2" Min="2.0445774134714156e-04" Max="1.0751808062195778e-02"/>
          <Range Index="3" Min="1.3462431728839874e-02" Max="1.1057589203119278e-01"/>
          <Range Index="4" Min="5.5400952696800232e-03" Max="4.7073844820261002e-02"/>
          <Range Index="5" Min="2.5228632148355246e-03" Max="2.7769891545176506e-02"/>
          <Range Index="6" Min="6.2690110644325614e-04" Max="3.0566493049263954e-02"/>
          <Range Index="7" Min="2.0896310161333531e-05" Max="1.1136979795992374e-02"/>
          <Range Index="8" Min="0.0000000000000000e+00" Max="1.5778800000000000e+08"/>
          <Range Index="9" Min="1.0221766307950020e-02" Max="1.3502899557352066e-02"/>
        </Ranges>
      </Class>
    </Transform>
  </Transformations>
  <MVAPdfs/>
  <Weights>
    <Layout NLayers="4">
      <Layer Index="0" NNeurons="10">
        <Neuron NSynapses="9">
          -4.0536348582444109e-01 3.6407943187947878e-01 2.0819387303245396e-01 6.0384369774243052e-01 -1.4140319198593108e+00 -2.6192903693316483e-01 -6.6575317360893460e-01 7.1047483776468134e-01 -6.8905366897033993e-01 
        </Neuron>
        <Neuron NSynapses="9">
          -1.6265970764541187e+00 -2.4896515046507126e+00 1.0937433619123891e+00 -1.2233477420110661e+00 -6.2589093199716395e-01 -7.3290319706004814e-01 6.7497978941885506e-01 8.0080376911577333e-01 1.3784619198529455e+00 
        </Neuron>
        <Neuron NSynapses="9">
          8.3893035666284199e-02 -4.2056514594085015e-01 -6.6398518356808309e-02 3.8729798940606242e-01 5.0956897922187583e-01 -1.2503753458493813e-01 -1.6577851040025421e-01 -4.4148439052801502e-01 1.7766890439547470e-01 
        </Neuron>
        <Neuron NSynapses="9">
          -1.3102165975716413e+00 -3.0144523131517442e-02 -9.3988082041848453e-01 1.9190936956995905e-01 3.1105867407705241e+00 6.7497229088871402e-01 2.2862217871309565e-01 -1.9607011906557520e-01 5.4785094199678075e-01 
        </Neuron>
        <Neuron NSynapses="9">
          -1.2429964835540901e+00 -3.2661909149951823e-01 -4.0008540541536902e-01 -2.2492853588039088e-01 7.6308249809848017e-01 2.0305207309948700e-01 1.7942348130056920e+00 1.1142760551593329e+00 -1.5007507936315436e+00 
        </Neuron>
        <Neuron NSynapses="9">
          -1.4148563298913097e+00 1.1982832453971988e-01 -5.6064343513762500e-02 6.1962310255525210e-01 1.2940440132054969e+00 2.6581344944696705e-01 1.5762762073669603e+00 -1.2944761714125199e+00 1.1125399914533762e+00 
        </Neuron>
        <Neuron NSynapses="9">
          -1.7407437648019750e+00 -1.9716068078006015e+00 -5.5158443015317013e-02 -6.9803637702121468e-01 1.2905905907600770e-01 2.5334857101334396e-01 -5.3405061762338335e-01 2.9460440113290842e-01 1.4097165132980105e-01 
        </Neuron>
        <Neuron NSynapses="9">
          2.1033385227363169e-01 5.8972072394645803e-01 -1.5314216633808084e-01 5.7771390487886876e-01 1.4979001958868501e-01 3.4587553917667109e-02 8.6332130496150805e-01 -2.9125331494780082e-01 -6.2082776490950908e-01 
        </Neuron>
        <Neuron NSynapses="9">
          2.9457169221964585e-01 1.0353820098694693e+00 -3.7949632475141749e-02 -3.2667721415899631e-01 -7.2748988127471648e-01 -7.7094595874450306e-02 -4.7723502938748344e-02 -6.7176320716810040e-02 1.6363369424696428e+00 
        </Neuron>
        <Neuron NSynapses="9">
          1.7101544261864772e+00 2.2096121387033794e+00 -2.7125350123742149e+00 1.9817246186156959e-01 -1.2351861704811513e+00 1.1060842764573426e+00 -2.5876751771141402e+00 -2.9450513103753746e+00 -1.8980271392050581e+00 
        </Neuron>
      </Layer>
      <Layer Index="1" NNeurons="10">
        <Neuron NSynapses="9">
          -3.6205592166510714e-01 -2.2952998471959885e-01 2.1581618564675620e+00 -1.6919280663442464e+00 -6.1618557810171970e-01 1.6442265858938221e+00 -2.7368294601032334e-01 -1.6082406240869778e+00 -1.6311920227495174e+00 
        </Neuron>
        <Neuron NSynapses="9">
          1.1336331946281186e-01 -8.4299029480539955e-01 -1.4750601283782216e+00 7.0859209370706810e-01 1.2282444146500995e+00 -1.1629759098762980e+00 4.1190206780403110e-01 -7.6322158744305812e-01 -7.4954725192446980e-01 
        </Neuron>
        <Neuron NSynapses="9">
          3.7024115581478201e-01 1.2080431552396269e-01 -1.7099217579513835e+00 1.0729333817745879e+00 1.7630367090614746e-01 -1.1630539964824677e-01 -1.3165638837948546e+00 1.6894654593192171e+00 3.7576811508670271e-01 
        </Neuron>
        <Neuron NSynapses="9">
          -1.6181845158365529e+00 4.2425958203827580e-01 -4.4167231123016182e-01 -1.5926587603806219e+00 -1.9685114356091185e-01 -6.6586010066675572e-01 2.1931906037608657e+00 8.3604325070467966e-01 3.5981217388818848e-02 
        </Neuron>
        <Neuron NSynapses="9">
          -3.1189376374647360e-01 1.3725512885097568e-01 -2.3884552158986514e+00 3.1719812657823609e-01 1.8061298957160501e-01 -1.5670085105545370e+00 8.0759212919587375e-02 -1.3453302349833587e+00 6.7007243047101678e-02 
        </Neuron>
        <Neuron NSynapses="9">
          6.2063885722719403e-01 1.2286038637348067e+00 -1.5271525305465119e+00 -1.0980771794269593e+00 5.8406142548200868e-01 1.8042242109088968e+00 2.3863112360877750e-01 -1.2519908177156007e+00 -3.5971997492324992e-01 
        </Neuron>
        <Neuron NSynapses="9">
          -6.8543799858822951e-01 5.6466761845307367e-01 3.5992848468576605e-01 -2.9527909448735851e-01 -8.6380521139716349e-01 4.4018833510686756e-01 -7.3044530319349432e-01 6.5819137870547073e-01 1.5061991375026402e+00 
        </Neuron>
        <Neuron NSynapses="9">
          -6.2429141752229889e-01 -8.0376870743729556e-01 -6.9151129075587211e-03 1.2354152268529124e+00 8.2905798403204689e-01 6.0532711762079705e-01 -4.3643748591006193e-01 1.6589694243076216e+00 9.1156988546910511e-01 
        </Neuron>
        <Neuron NSynapses="9">
          4.4620711908632804e-01 2.4744080806102667e-01 5.3523986073924790e-01 -4.0812434451883084e-01 -4.6982354098583512e-01 7.4317821533067674e-01 -5.2310088173875968e-01 -7.2227279618172435e-01 1.4796839260280603e+00 
        </Neuron>
        <Neuron NSynapses="9">
          1.5563830789616544e+00 -1.0651598992812229e-01 1.9246952271950923e+00 1.6189832550461851e+00 -1.8940653900245183e+00 1.0062165824117406e+00 5.7156438531480735e-01 4.2537356908316581e-01 -1.8483751335944891e+00 
        </Neuron>
      </Layer>
      <Layer Index="2" NNeurons="10">
        <Neuron NSynapses="1">
          -4.6365119401567406e-01 
        </Neuron>
        <Neuron NSynapses="1">
          2.0867563772516912e-01 
        </Neuron>
        <Neuron NSynapses="1">
          -1.8061919127269119e-01 
        </Neuron>
        <Neuron NSynapses="1">
          -8.5844428923740917e-02 
        </Neuron>
        <Neuron NSynapses="1">
          4.5369043203626902e-01 
        </Neuron>
        <Neuron NSynapses="1">
          3.3348892474987168e-01 
        </Neuron>
        <Neuron NSynapses="1">
          1.9267010799534259e-01 
        </Neuron>
        <Neuron NSynapses="1">
          5.9200340201231147e-02 
        </Neuron>
        <Neuron NSynapses="1">
          -7.0540609949342137e-01 
        </Neuron>
        <Neuron NSynapses="1">
          -1.0457797187076982e-01 
        </Neuron>
      </Layer>
      <Layer Index="3" NNeurons="1">
        <Neuron NSynapses="0"/>
      </Layer>
    </Layout>
  </Weights>
</MethodSetup>
