<?xml version="1.0"?>
<MethodSetup Method="MLP::XS_22_46_0_n2n">
  <GeneralInfo>
    <Info name="TMVA Release" value="4.2.0 [262656]"/>
    <Info name="ROOT Release" value="5.34/18 [336402]"/>
    <Info name="Creator" value="leniau"/>
    <Info name="Date" value="Wed Jul  2 04:16:41 2014"/>
    <Info name="Host" value="Linux nansl3.in2p3.fr 2.6.32-358.11.1.el6.x86_64 #1 SMP Tue Jun 11 17:23:30 CDT 2013 x86_64 x86_64 x86_64 GNU/Linux"/>
    <Info name="Dir" value="/scratch/spallati/leniau/Projets_CLASS/TMVA/BASE_MONOMOX_MLP/Build_XS_Predictor"/>
    <Info name="Training events" value="25811"/>
    <Info name="TrainingTime" value="3.25248400e+02"/>
    <Info name="AnalysisType" value="Regression"/>
  </GeneralInfo>
  <Options>
    <Option name="NCycles" modified="Yes">20000</Option>
    <Option name="HiddenLayers" modified="Yes">N,N</Option>
    <Option name="NeuronType" modified="Yes">tanh</Option>
    <Option name="RandomSeed" modified="No">1</Option>
    <Option name="EstimatorType" modified="No">MSE</Option>
    <Option name="NeuronInputType" modified="No">sum</Option>
    <Option name="V" modified="Yes">False</Option>
    <Option name="VerbosityLevel" modified="No">Default</Option>
    <Option name="VarTransform" modified="Yes">Norm</Option>
    <Option name="H" modified="Yes">False</Option>
    <Option name="CreateMVAPdfs" modified="No">False</Option>
    <Option name="IgnoreNegWeightsInTraining" modified="No">False</Option>
    <Option name="TrainingMethod" modified="Yes">BFGS</Option>
    <Option name="LearningRate" modified="No">2.000000e-02</Option>
    <Option name="DecayRate" modified="No">1.000000e-02</Option>
    <Option name="TestRate" modified="Yes">6</Option>
    <Option name="EpochMonitoring" modified="No">False</Option>
    <Option name="Sampling" modified="Yes">3.000000e-01</Option>
    <Option name="SamplingEpoch" modified="Yes">8.000000e-01</Option>
    <Option name="SamplingImportance" modified="No">1.000000e+00</Option>
    <Option name="SamplingTraining" modified="No">True</Option>
    <Option name="SamplingTesting" modified="No">False</Option>
    <Option name="ResetStep" modified="No">50</Option>
    <Option name="Tau" modified="No">3.000000e+00</Option>
    <Option name="BPMode" modified="No">sequential</Option>
    <Option name="BatchSize" modified="No">-1</Option>
    <Option name="ConvergenceImprove" modified="Yes">1.000000e-06</Option>
    <Option name="ConvergenceTests" modified="Yes">15</Option>
    <Option name="UseRegulator" modified="Yes">False</Option>
    <Option name="UpdateLimit" modified="No">10000</Option>
    <Option name="CalculateErrors" modified="No">False</Option>
    <Option name="WeightRange" modified="No">1.000000e+00</Option>
  </Options>
  <Variables NVar="9">
    <Variable VarIndex="0" Expression="U5" Label="U5" Title="U 235" Unit="FractionIsotopic" Internal="U5" Type="F" Min="1.70790544e-03" Max="3.82024585e-03"/>
    <Variable VarIndex="1" Expression="U8" Label="U8" Title="U 238" Unit="FractionIsotopic" Internal="U8" Type="F" Min="8.46877456e-01" Max="9.57599878e-01"/>
    <Variable VarIndex="2" Expression="Pu8" Label="Pu8" Title="Pu 238" Unit="FractionIsotopic" Internal="Pu8" Type="F" Min="2.04457741e-04" Max="1.07518081e-02"/>
    <Variable VarIndex="3" Expression="Pu9" Label="Pu9" Title="Pu 239" Unit="FractionIsotopic" Internal="Pu9" Type="F" Min="1.34624317e-02" Max="1.10575892e-01"/>
    <Variable VarIndex="4" Expression="Pu10" Label="Pu10" Title="Pu 240" Unit="FractionIsotopic" Internal="Pu10" Type="F" Min="5.54009527e-03" Max="4.70738448e-02"/>
    <Variable VarIndex="5" Expression="Pu11" Label="Pu11" Title="Pu 241" Unit="FractionIsotopic" Internal="Pu11" Type="F" Min="2.52286321e-03" Max="2.77698915e-02"/>
    <Variable VarIndex="6" Expression="Pu12" Label="Pu12" Title="Pu 242" Unit="FractionIsotopic" Internal="Pu12" Type="F" Min="6.26901106e-04" Max="3.05664930e-02"/>
    <Variable VarIndex="7" Expression="Am1" Label="Am1" Title="Am 241" Unit="FractionIsotopic" Internal="Am1" Type="F" Min="2.08963102e-05" Max="1.11369798e-02"/>
    <Variable VarIndex="8" Expression="Time" Label="Time" Title="Time" Unit="seconds" Internal="Time" Type="F" Min="0.00000000e+00" Max="1.57788000e+08"/>
  </Variables>
  <Spectators NSpec="0"/>
  <Classes NClass="1">
    <Class Name="Regression" Index="0"/>
  </Classes>
  <Targets NTrgt="1">
    <Target TargetIndex="0" Expression="XS_22_46_0_n2n" Label="XS_22_46_0_n2n" Title="XS_22_46_0_n2n" Unit="" Internal="XS_22_46_0_n2n" Type="F" Min="2.18935980e-07" Max="9.74696013e-06"/>
  </Targets>
  <Transformations NTransformations="1">
    <Transform Name="Normalize">
      <Selection>
        <Input NInputs="10">
          <Input Type="Variable" Label="U5" Expression="U5"/>
          <Input Type="Variable" Label="U8" Expression="U8"/>
          <Input Type="Variable" Label="Pu8" Expression="Pu8"/>
          <Input Type="Variable" Label="Pu9" Expression="Pu9"/>
          <Input Type="Variable" Label="Pu10" Expression="Pu10"/>
          <Input Type="Variable" Label="Pu11" Expression="Pu11"/>
          <Input Type="Variable" Label="Pu12" Expression="Pu12"/>
          <Input Type="Variable" Label="Am1" Expression="Am1"/>
          <Input Type="Variable" Label="Time" Expression="Time"/>
          <Input Type="Target" Label="XS_22_46_0_n2n" Expression="XS_22_46_0_n2n"/>
        </Input>
        <Output NOutputs="10">
          <Output Type="Variable" Label="U5" Expression="U5"/>
          <Output Type="Variable" Label="U8" Expression="U8"/>
          <Output Type="Variable" Label="Pu8" Expression="Pu8"/>
          <Output Type="Variable" Label="Pu9" Expression="Pu9"/>
          <Output Type="Variable" Label="Pu10" Expression="Pu10"/>
          <Output Type="Variable" Label="Pu11" Expression="Pu11"/>
          <Output Type="Variable" Label="Pu12" Expression="Pu12"/>
          <Output Type="Variable" Label="Am1" Expression="Am1"/>
          <Output Type="Variable" Label="Time" Expression="Time"/>
          <Output Type="Target" Label="XS_22_46_0_n2n" Expression="XS_22_46_0_n2n"/>
        </Output>
      </Selection>
      <Class ClassIndex="0">
        <Ranges>
          <Range Index="0" Min="1.7079054377973080e-03" Max="3.8202458526939154e-03"/>
          <Range Index="1" Min="8.4687745571136475e-01" Max="9.5759987831115723e-01"/>
          <Range Index="2" Min="2.0445774134714156e-04" Max="1.0751808062195778e-02"/>
          <Range Index="3" Min="1.3462431728839874e-02" Max="1.1057589203119278e-01"/>
          <Range Index="4" Min="5.5400952696800232e-03" Max="4.7073844820261002e-02"/>
          <Range Index="5" Min="2.5228632148355246e-03" Max="2.7769891545176506e-02"/>
          <Range Index="6" Min="6.2690110644325614e-04" Max="3.0566493049263954e-02"/>
          <Range Index="7" Min="2.0896310161333531e-05" Max="1.1136979795992374e-02"/>
          <Range Index="8" Min="0.0000000000000000e+00" Max="1.5778800000000000e+08"/>
          <Range Index="9" Min="2.1893598045608087e-07" Max="9.7469601314514875e-06"/>
        </Ranges>
      </Class>
    </Transform>
  </Transformations>
  <MVAPdfs/>
  <Weights>
    <Layout NLayers="4">
      <Layer Index="0" NNeurons="10">
        <Neuron NSynapses="9">
          4.8978229597410092e-02 1.6410920186654998e+00 1.5976757175690517e+00 1.4327155066735873e+00 -1.9213261918722051e+00 -1.7282626947729149e+00 -6.5049690026097895e-01 2.2165750022544457e+00 -1.3173635439160634e+00 
        </Neuron>
        <Neuron NSynapses="9">
          -1.3891904328339990e+00 -1.3176965867899855e+00 3.8554914620494635e-01 -6.7964963822793190e-01 1.0927843065092990e-01 -1.3194255529642716e+00 7.2125510891843803e-01 1.1804669636724582e-01 1.8494493884717054e+00 
        </Neuron>
        <Neuron NSynapses="9">
          1.4331412566649759e-01 9.6230752250263862e-01 2.0797415968500135e-01 2.9481438025296786e-01 1.1500255036509168e+00 -2.1937354238529402e-01 -4.2722944497005649e-01 -2.6550339960146013e-01 1.4143030364659830e+00 
        </Neuron>
        <Neuron NSynapses="9">
          -1.1156309405635718e+00 -1.7659519617157367e+00 -1.0103440844997685e-01 5.2919402586581743e-01 1.5819442711509282e+00 2.4212035714556918e-01 8.3220521766122380e-02 4.4075353206985368e-01 -1.7929128318788543e-01 
        </Neuron>
        <Neuron NSynapses="9">
          -1.4148687485322518e+00 1.6432913742613426e+00 -9.9621210082659817e-01 8.4690411670744248e-01 1.1522721924806776e+00 1.0417739219427486e+00 2.0073647489543984e+00 6.0501988540711993e-01 -8.5964093612432602e-01 
        </Neuron>
        <Neuron NSynapses="9">
          -1.3020026544858887e+00 1.6122645574629613e-01 -7.0352046996054879e-02 1.6811548498186089e+00 1.0272100573844611e+00 1.6926008540534963e+00 1.5823590660311777e+00 -2.0389957811502764e+00 1.3166012832880110e+00 
        </Neuron>
        <Neuron NSynapses="9">
          -1.9982497569735249e+00 -1.3820939037286000e+00 -1.2309329700144129e+00 -8.0506351180217406e-01 2.0565193765102689e+00 1.0234407257350570e-01 -7.6765283459782541e-01 -5.5593968556453299e-01 -4.0358691435092237e-01 
        </Neuron>
        <Neuron NSynapses="9">
          4.4951742865680050e-01 1.1628164879286105e+00 -1.4362038098835819e-01 6.4249811047904959e-01 -6.1830828339891342e-01 6.6939230307083919e-01 1.0157711724695360e-01 -7.3541049149496884e-01 -1.2052104225377656e+00 
        </Neuron>
        <Neuron NSynapses="9">
          1.0594409686141930e+00 1.7371541928877254e+00 9.5472482948486692e-01 -7.1179811229507906e-01 -1.8634941980990876e+00 -5.3997267406352245e-01 3.0949022893125983e-01 8.6011645864810277e-02 1.6970611270532148e+00 
        </Neuron>
        <Neuron NSynapses="9">
          1.1774113911517423e+00 9.9469181536393403e-01 -1.9818424625416671e+00 -2.1156397385537975e+00 -1.1957379166947248e+00 1.6423232622856732e+00 -2.3289423768999162e+00 -1.8196977374900538e+00 -1.9297573683651283e+00 
        </Neuron>
      </Layer>
      <Layer Index="1" NNeurons="10">
        <Neuron NSynapses="9">
          8.1715589513188225e-01 -1.0823339111376194e-01 1.8853395428680475e+00 -1.5719927058463177e+00 -7.2046775319270295e-01 1.7277480143999275e+00 -6.8443739448231022e-01 -1.1925985225677702e+00 -1.8339948671398927e+00 
        </Neuron>
        <Neuron NSynapses="9">
          5.8861799780451196e-01 -1.8319052464946206e+00 -1.5396317950391718e+00 -1.7933592009160390e-01 1.7437620624480263e+00 -1.3426477897977946e+00 1.7936191004129007e+00 -8.0951239339370218e-01 -6.5959378804292090e-01 
        </Neuron>
        <Neuron NSynapses="9">
          3.4764233562959872e-02 8.9885044897308114e-02 -1.8114318715843911e+00 4.5361421142023262e-01 7.2814535243559708e-01 4.9567189851616109e-02 -1.5383566699622664e+00 1.7839888868983420e+00 4.6262438778588355e-01 
        </Neuron>
        <Neuron NSynapses="9">
          -4.1013247171456740e-01 7.7516293274802461e-01 -6.4487402459451626e-01 -1.4850514729021831e+00 2.7225423432766661e-02 -2.8679708995016540e-01 1.2584719706345580e+00 5.7336348708793694e-01 3.1200942080549360e-01 
        </Neuron>
        <Neuron NSynapses="9">
          -9.4532148571057129e-01 3.0372185216867237e-01 -1.8091608765411136e+00 7.2647474364685705e-01 1.7938396247587623e-02 -1.9402717216263334e+00 6.7671452528527754e-01 -1.7100910947902659e+00 2.0025258225304671e-01 
        </Neuron>
        <Neuron NSynapses="9">
          1.0473622307173418e+00 2.1069803337206485e+00 -1.3680739699311582e+00 -7.2345416855217071e-01 1.3826229649067645e+00 1.6057038660626324e+00 1.6144806379537063e-01 -1.3353785045485427e+00 -3.4516905978105927e-01 
        </Neuron>
        <Neuron NSynapses="9">
          -7.7237622024010333e-01 1.2672630274101742e+00 9.2713763202928445e-01 -3.8676171671201176e-01 -6.5351033477708975e-01 4.6027445628223512e-01 -1.3095835342785154e+00 2.9157611890489998e-01 1.4384346518875524e+00 
        </Neuron>
        <Neuron NSynapses="9">
          -6.0882709647918831e-01 -7.0188898016694978e-01 -3.2389619840144490e-01 1.3601134998103865e+00 1.0858935806246811e-01 2.9296525218824004e-01 -1.5790183751257243e+00 1.3595614387493662e+00 1.1500825358997968e+00 
        </Neuron>
        <Neuron NSynapses="9">
          -6.3636564572744014e-01 4.3215544685142460e-01 1.1992829979068700e+00 -3.9762622718891977e-01 -3.4114154934146046e-01 7.5917465736412626e-01 -8.2243290698925597e-01 -9.0592406554096683e-01 1.2410865410869114e+00 
        </Neuron>
        <Neuron NSynapses="9">
          2.6951569534054856e+00 -1.8834205372085261e-01 1.7975561758657901e+00 1.8388724715076061e+00 -1.9857378896348512e+00 6.0972599487183876e-01 1.5143781885540683e-01 8.1523866614943519e-01 -2.0854106542047108e+00 
        </Neuron>
      </Layer>
      <Layer Index="2" NNeurons="10">
        <Neuron NSynapses="1">
          2.3465781670845276e+00 
        </Neuron>
        <Neuron NSynapses="1">
          -2.2212015398252330e-03 
        </Neuron>
        <Neuron NSynapses="1">
          1.7320494096343153e-01 
        </Neuron>
        <Neuron NSynapses="1">
          -1.9503587367275227e-02 
        </Neuron>
        <Neuron NSynapses="1">
          1.6517013622528619e-02 
        </Neuron>
        <Neuron NSynapses="1">
          -1.8545529583962991e-01 
        </Neuron>
        <Neuron NSynapses="1">
          2.2152844050259222e-02 
        </Neuron>
        <Neuron NSynapses="1">
          5.2797161220477003e-03 
        </Neuron>
        <Neuron NSynapses="1">
          1.2012598253605682e+00 
        </Neuron>
        <Neuron NSynapses="1">
          -1.5188955816103937e+00 
        </Neuron>
      </Layer>
      <Layer Index="3" NNeurons="1">
        <Neuron NSynapses="0"/>
      </Layer>
    </Layout>
  </Weights>
</MethodSetup>
