<?xml version="1.0"?>
<MethodSetup Method="MLP::XS_21_45_0_cap">
  <GeneralInfo>
    <Info name="TMVA Release" value="4.2.0 [262656]"/>
    <Info name="ROOT Release" value="5.34/14 [336398]"/>
    <Info name="Creator" value="courtin"/>
    <Info name="Date" value="Thu Jun  9 19:44:50 2016"/>
    <Info name="Host" value="Linux nansl3.in2p3.fr 2.6.32-431.20.3.el6.x86_64 #1 SMP Thu Jun 19 14:01:59 CDT 2014 x86_64 x86_64 x86_64 GNU/Linux"/>
    <Info name="Dir" value="/scratch/spallati/courtin/WORK/MOxEUS/BdD_MOX/MOX_NN/XSM/Train"/>
    <Info name="Training events" value="56670"/>
    <Info name="TrainingTime" value="2.36623813e+03"/>
    <Info name="AnalysisType" value="Regression"/>
  </GeneralInfo>
  <Options>
    <Option name="NCycles" modified="Yes">20000</Option>
    <Option name="HiddenLayers" modified="Yes">N,N</Option>
    <Option name="NeuronType" modified="Yes">tanh</Option>
    <Option name="RandomSeed" modified="No">1</Option>
    <Option name="EstimatorType" modified="No">MSE</Option>
    <Option name="NeuronInputType" modified="No">sum</Option>
    <Option name="V" modified="Yes">False</Option>
    <Option name="VerbosityLevel" modified="No">Default</Option>
    <Option name="VarTransform" modified="Yes">Norm</Option>
    <Option name="H" modified="Yes">False</Option>
    <Option name="CreateMVAPdfs" modified="No">False</Option>
    <Option name="IgnoreNegWeightsInTraining" modified="No">False</Option>
    <Option name="TrainingMethod" modified="Yes">BFGS</Option>
    <Option name="LearningRate" modified="No">2.000000e-02</Option>
    <Option name="DecayRate" modified="No">1.000000e-02</Option>
    <Option name="TestRate" modified="Yes">6</Option>
    <Option name="EpochMonitoring" modified="No">False</Option>
    <Option name="Sampling" modified="Yes">3.000000e-01</Option>
    <Option name="SamplingEpoch" modified="Yes">8.000000e-01</Option>
    <Option name="SamplingImportance" modified="No">1.000000e+00</Option>
    <Option name="SamplingTraining" modified="No">True</Option>
    <Option name="SamplingTesting" modified="No">False</Option>
    <Option name="ResetStep" modified="No">50</Option>
    <Option name="Tau" modified="No">3.000000e+00</Option>
    <Option name="BPMode" modified="No">sequential</Option>
    <Option name="BatchSize" modified="No">-1</Option>
    <Option name="ConvergenceImprove" modified="Yes">1.000000e-06</Option>
    <Option name="ConvergenceTests" modified="Yes">15</Option>
    <Option name="UseRegulator" modified="Yes">False</Option>
    <Option name="UpdateLimit" modified="No">10000</Option>
    <Option name="CalculateErrors" modified="No">False</Option>
    <Option name="WeightRange" modified="No">1.000000e+00</Option>
  </Options>
  <Variables NVar="9">
    <Variable VarIndex="0" Expression="U5" Label="U5" Title="U 235" Unit="FractionIsotopic" Internal="U5" Type="F" Min="1.72709476e-03" Max="3.81623278e-03"/>
    <Variable VarIndex="1" Expression="U8" Label="U8" Title="U 238" Unit="FractionIsotopic" Internal="U8" Type="F" Min="8.46853673e-01" Max="9.57857072e-01"/>
    <Variable VarIndex="2" Expression="Pu8" Label="Pu8" Title="Pu 238" Unit="FractionIsotopic" Internal="Pu8" Type="F" Min="2.10537197e-04" Max="1.05673587e-02"/>
    <Variable VarIndex="3" Expression="Pu9" Label="Pu9" Title="Pu 239" Unit="FractionIsotopic" Internal="Pu9" Type="F" Min="1.67695526e-02" Max="1.14535898e-01"/>
    <Variable VarIndex="4" Expression="Pu10" Label="Pu10" Title="Pu 240" Unit="FractionIsotopic" Internal="Pu10" Type="F" Min="5.72719984e-03" Max="5.21629304e-02"/>
    <Variable VarIndex="5" Expression="Pu11" Label="Pu11" Title="Pu 241" Unit="FractionIsotopic" Internal="Pu11" Type="F" Min="3.33701813e-04" Max="1.89348347e-02"/>
    <Variable VarIndex="6" Expression="Pu12" Label="Pu12" Title="Pu 242" Unit="FractionIsotopic" Internal="Pu12" Type="F" Min="7.46939739e-04" Max="3.17858644e-02"/>
    <Variable VarIndex="7" Expression="Am1" Label="Am1" Title="Am 241" Unit="FractionIsotopic" Internal="Am1" Type="F" Min="1.24220833e-06" Max="7.95311853e-03"/>
    <Variable VarIndex="8" Expression="Time" Label="Time" Title="Time" Unit="seconds" Internal="Time" Type="F" Min="0.00000000e+00" Max="1.89328320e+08"/>
  </Variables>
  <Spectators NSpec="0"/>
  <Classes NClass="1">
    <Class Name="Regression" Index="0"/>
  </Classes>
  <Targets NTrgt="1">
    <Target TargetIndex="0" Expression="XS_21_45_0_cap" Label="XS_21_45_0_cap" Title="XS_21_45_0_cap" Unit="" Internal="XS_21_45_0_cap" Type="F" Min="3.56807441e-01" Max="1.50417876e+00"/>
  </Targets>
  <Transformations NTransformations="1">
    <Transform Name="Normalize">
      <Selection>
        <Input NInputs="10">
          <Input Type="Variable" Label="U5" Expression="U5"/>
          <Input Type="Variable" Label="U8" Expression="U8"/>
          <Input Type="Variable" Label="Pu8" Expression="Pu8"/>
          <Input Type="Variable" Label="Pu9" Expression="Pu9"/>
          <Input Type="Variable" Label="Pu10" Expression="Pu10"/>
          <Input Type="Variable" Label="Pu11" Expression="Pu11"/>
          <Input Type="Variable" Label="Pu12" Expression="Pu12"/>
          <Input Type="Variable" Label="Am1" Expression="Am1"/>
          <Input Type="Variable" Label="Time" Expression="Time"/>
          <Input Type="Target" Label="XS_21_45_0_cap" Expression="XS_21_45_0_cap"/>
        </Input>
        <Output NOutputs="10">
          <Output Type="Variable" Label="U5" Expression="U5"/>
          <Output Type="Variable" Label="U8" Expression="U8"/>
          <Output Type="Variable" Label="Pu8" Expression="Pu8"/>
          <Output Type="Variable" Label="Pu9" Expression="Pu9"/>
          <Output Type="Variable" Label="Pu10" Expression="Pu10"/>
          <Output Type="Variable" Label="Pu11" Expression="Pu11"/>
          <Output Type="Variable" Label="Pu12" Expression="Pu12"/>
          <Output Type="Variable" Label="Am1" Expression="Am1"/>
          <Output Type="Variable" Label="Time" Expression="Time"/>
          <Output Type="Target" Label="XS_21_45_0_cap" Expression="XS_21_45_0_cap"/>
        </Output>
      </Selection>
      <Class ClassIndex="0">
        <Ranges>
          <Range Index="0" Min="1.7270947573706508e-03" Max="3.8162327837198973e-03"/>
          <Range Index="1" Min="8.4685367345809937e-01" Max="9.5785707235336304e-01"/>
          <Range Index="2" Min="2.1053719683550298e-04" Max="1.0567358694970608e-02"/>
          <Range Index="3" Min="1.6769552603363991e-02" Max="1.1453589797019958e-01"/>
          <Range Index="4" Min="5.7271998375654221e-03" Max="5.2162930369377136e-02"/>
          <Range Index="5" Min="3.3370181336067617e-04" Max="1.8934834748506546e-02"/>
          <Range Index="6" Min="7.4693973874673247e-04" Max="3.1785864382982254e-02"/>
          <Range Index="7" Min="1.2422083273122553e-06" Max="7.9531185328960419e-03"/>
          <Range Index="8" Min="0.0000000000000000e+00" Max="1.8932832000000000e+08"/>
          <Range Index="9" Min="3.5680744051933289e-01" Max="1.5041787624359131e+00"/>
        </Ranges>
      </Class>
    </Transform>
  </Transformations>
  <MVAPdfs/>
  <Weights>
    <Layout NLayers="4">
      <Layer Index="0" NNeurons="10">
        <Neuron NSynapses="9">
          3.9177650376454647e-02 -5.0593398143792455e-02 -2.1480482509746102e-02 1.1261467047636669e+00 2.7588673173682340e-02 5.1276339486932469e-04 -4.5062663009722348e-01 -1.0824647066042976e-02 -7.3838899215783627e-02 
        </Neuron>
        <Neuron NSynapses="9">
          -1.5614352648784235e+00 -2.2280352910042964e+00 -1.2871825529126244e+00 -5.1479939484113790e-01 1.6529939329429688e-01 -3.0565600781440805e-01 6.7671715563612245e-01 -9.0865730308986092e-01 2.3260821614959020e+00 
        </Neuron>
        <Neuron NSynapses="9">
          5.5868022744592705e-01 7.8902524530410911e-01 -1.8583447522024241e-01 3.9529710194286127e-01 -2.7015284111073515e-02 6.1476086274351548e-02 -2.7523055433167931e-01 1.5001249073512476e-01 -2.9463582450632908e-01 
        </Neuron>
        <Neuron NSynapses="9">
          -2.0689957024960828e+00 -1.5019503288363203e+00 -6.8934987254469549e-01 7.1671558749000908e-01 1.3500287823512027e+00 3.8442589148538747e-01 2.1667913949317161e-01 6.5127866414304891e-01 -1.7436600191718316e-01 
        </Neuron>
        <Neuron NSynapses="9">
          -6.3195192555346402e-01 9.8938324293565594e-01 -9.4524685179328749e-01 1.1006036710271201e+00 2.2041476544450642e-01 2.7781696785406085e-01 1.8860599526426975e+00 5.1694765757619421e-01 -8.7658704809022425e-01 
        </Neuron>
        <Neuron NSynapses="9">
          -1.0784444717246422e+00 5.1759847248832980e-01 -1.8334000130758737e-02 1.7321528783757507e+00 2.5766146277311042e-01 3.7227202994068440e-02 1.7299469617550376e+00 1.0164550236392275e-01 1.0387745476112054e+00 
        </Neuron>
        <Neuron NSynapses="9">
          -8.4884811252084369e-01 -1.0317344114343558e+00 -4.5280097187950852e-01 -6.7244106059512321e-01 8.7083141234392064e-02 -6.2142671873432346e-03 -6.2478870168946088e-01 -4.5378195341119108e-02 -8.5095036096101195e-01 
        </Neuron>
        <Neuron NSynapses="9">
          -2.0236899691579810e-01 5.3128371192721957e-01 -2.1584604914275378e-02 7.5197106337512054e-01 7.2805812266018177e-02 4.0034548826259120e-02 -6.9349520462671205e-02 1.1948011857271958e-01 -3.6979150627806961e-01 
        </Neuron>
        <Neuron NSynapses="9">
          3.7043966704554782e-01 1.4917513821569384e+00 7.3909594870740181e-01 -2.9067756802020106e-01 -6.5821444897275527e-01 -1.4311594075124240e-01 4.7652567213225827e-01 -2.3905620610846223e-03 -3.6782007556162605e-01 
        </Neuron>
        <Neuron NSynapses="9">
          1.7316088855019873e+00 2.3252086349676468e+00 1.1689808404036441e+00 -2.8576026522737852e+00 7.4960827592365142e-01 8.1068980632048804e-01 -2.4358118426353617e+00 -1.2982811266843677e+00 -2.2713624383470234e+00 
        </Neuron>
      </Layer>
      <Layer Index="1" NNeurons="10">
        <Neuron NSynapses="9">
          4.9895742599037024e-01 5.9858091877962893e-01 1.7089404359358009e+00 -1.3393002695173029e+00 -8.2249901250544954e-01 2.1124021175200145e+00 -2.3114010746791730e-02 -1.5819880172492995e+00 -1.4960261836396533e+00 
        </Neuron>
        <Neuron NSynapses="9">
          6.5418401215450395e-02 -1.2958777276614923e+00 -7.0682743778009272e-01 -1.5545552928153661e-03 3.1699935137042459e-02 -1.0893426924477672e+00 6.5069766739670309e-01 -5.5433472099274517e-01 -8.3683720393672278e-01 
        </Neuron>
        <Neuron NSynapses="9">
          2.1514469939846834e-01 -7.3356778794274957e-01 -1.6675127777080074e+00 1.0751760035031430e+00 8.1334898457925431e-01 -6.6061982586382373e-03 -1.2482788698847804e+00 8.6481891857691806e-01 3.6522618363605924e-01 
        </Neuron>
        <Neuron NSynapses="9">
          -1.0083377173750669e+00 1.8745530342076699e-01 -1.4860181850720691e+00 3.4736126503374508e-02 2.2184100748138959e-02 -8.7375078412050999e-01 7.6960373664110004e-01 8.1278719336043270e-01 1.7893130186719126e-02 
        </Neuron>
        <Neuron NSynapses="9">
          -7.6711631340905417e-01 2.7539407839575714e-01 -1.6381629459226490e+00 2.5875617219974029e-01 5.9798389694778220e-01 -1.5247172059659548e+00 2.5566573828287492e-01 -1.3542697993632924e+00 3.3153018947072628e-02 
        </Neuron>
        <Neuron NSynapses="9">
          8.9694165292380768e-01 2.4966312820770389e+00 -1.5750460507556869e+00 1.0801534625525644e+00 1.4941208966987536e+00 1.7190223265111899e+00 6.6432314329019260e-01 -2.0396708526113314e+00 -2.1213854133137677e-01 
        </Neuron>
        <Neuron NSynapses="9">
          -1.1033628386930237e+00 5.0171221882083517e-01 7.8586781014694562e-01 -3.2188503703233423e-02 -7.0415099529641687e-02 -9.6772091315145026e-02 -2.0045330242736075e+00 3.4330802508009189e-01 1.8167809918855657e+00 
        </Neuron>
        <Neuron NSynapses="9">
          -8.6850561126225534e-01 -6.7585899320079368e-01 -2.8648633946413388e-02 7.9058164223988048e-01 -1.7093338512742435e-02 6.1395341866144615e-01 -1.8282100527926874e+00 1.2173821019762816e+00 7.5110672337417073e-01 
        </Neuron>
        <Neuron NSynapses="9">
          2.6428406263897228e-02 2.7961788686236838e-01 1.0344807083795200e+00 -5.1523294059583544e-03 1.9036704671413490e-01 4.2875200083189241e-01 -1.2517499864948736e+00 9.3814090949287487e-01 1.5288289925076199e+00 
        </Neuron>
        <Neuron NSynapses="9">
          1.8301930947862963e+00 4.6872682314063863e-01 1.6790930030342819e+00 2.1018335480394321e+00 -2.5357055130904849e+00 1.1675953156962404e+00 8.0569431308197692e-01 4.1756273220918633e-01 -1.7453107770641916e+00 
        </Neuron>
      </Layer>
      <Layer Index="2" NNeurons="10">
        <Neuron NSynapses="1">
          2.9033567827720730e-01 
        </Neuron>
        <Neuron NSynapses="1">
          -7.9388341489179063e-03 
        </Neuron>
        <Neuron NSynapses="1">
          1.4333881402922329e-02 
        </Neuron>
        <Neuron NSynapses="1">
          -2.8854226885592618e+00 
        </Neuron>
        <Neuron NSynapses="1">
          -5.2282724188920571e-01 
        </Neuron>
        <Neuron NSynapses="1">
          -3.0282492649949675e-02 
        </Neuron>
        <Neuron NSynapses="1">
          3.3838314618745435e-01 
        </Neuron>
        <Neuron NSynapses="1">
          3.2360556191219197e-01 
        </Neuron>
        <Neuron NSynapses="1">
          -1.0928394123591163e+00 
        </Neuron>
        <Neuron NSynapses="1">
          2.0496507026872623e-01 
        </Neuron>
      </Layer>
      <Layer Index="3" NNeurons="1">
        <Neuron NSynapses="0"/>
      </Layer>
    </Layout>
  </Weights>
</MethodSetup>
