<?xml version="1.0"?>
<MethodSetup Method="MLP::XS_36_84_0_cap">
  <GeneralInfo>
    <Info name="TMVA Release" value="4.2.0 [262656]"/>
    <Info name="ROOT Release" value="5.34/14 [336398]"/>
    <Info name="Creator" value="courtin"/>
    <Info name="Date" value="Thu Jun  9 15:54:09 2016"/>
    <Info name="Host" value="Linux nansl3.in2p3.fr 2.6.32-431.20.3.el6.x86_64 #1 SMP Thu Jun 19 14:01:59 CDT 2014 x86_64 x86_64 x86_64 GNU/Linux"/>
    <Info name="Dir" value="/scratch/spallati/courtin/WORK/MOxEUS/BdD_MOX/MOX_NN/XSM/Train"/>
    <Info name="Training events" value="56670"/>
    <Info name="TrainingTime" value="8.05884605e+02"/>
    <Info name="AnalysisType" value="Regression"/>
  </GeneralInfo>
  <Options>
    <Option name="NCycles" modified="Yes">20000</Option>
    <Option name="HiddenLayers" modified="Yes">N,N</Option>
    <Option name="NeuronType" modified="Yes">tanh</Option>
    <Option name="RandomSeed" modified="No">1</Option>
    <Option name="EstimatorType" modified="No">MSE</Option>
    <Option name="NeuronInputType" modified="No">sum</Option>
    <Option name="V" modified="Yes">False</Option>
    <Option name="VerbosityLevel" modified="No">Default</Option>
    <Option name="VarTransform" modified="Yes">Norm</Option>
    <Option name="H" modified="Yes">False</Option>
    <Option name="CreateMVAPdfs" modified="No">False</Option>
    <Option name="IgnoreNegWeightsInTraining" modified="No">False</Option>
    <Option name="TrainingMethod" modified="Yes">BFGS</Option>
    <Option name="LearningRate" modified="No">2.000000e-02</Option>
    <Option name="DecayRate" modified="No">1.000000e-02</Option>
    <Option name="TestRate" modified="Yes">6</Option>
    <Option name="EpochMonitoring" modified="No">False</Option>
    <Option name="Sampling" modified="Yes">3.000000e-01</Option>
    <Option name="SamplingEpoch" modified="Yes">8.000000e-01</Option>
    <Option name="SamplingImportance" modified="No">1.000000e+00</Option>
    <Option name="SamplingTraining" modified="No">True</Option>
    <Option name="SamplingTesting" modified="No">False</Option>
    <Option name="ResetStep" modified="No">50</Option>
    <Option name="Tau" modified="No">3.000000e+00</Option>
    <Option name="BPMode" modified="No">sequential</Option>
    <Option name="BatchSize" modified="No">-1</Option>
    <Option name="ConvergenceImprove" modified="Yes">1.000000e-06</Option>
    <Option name="ConvergenceTests" modified="Yes">15</Option>
    <Option name="UseRegulator" modified="Yes">False</Option>
    <Option name="UpdateLimit" modified="No">10000</Option>
    <Option name="CalculateErrors" modified="No">False</Option>
    <Option name="WeightRange" modified="No">1.000000e+00</Option>
  </Options>
  <Variables NVar="9">
    <Variable VarIndex="0" Expression="U5" Label="U5" Title="U 235" Unit="FractionIsotopic" Internal="U5" Type="F" Min="1.72709476e-03" Max="3.81623278e-03"/>
    <Variable VarIndex="1" Expression="U8" Label="U8" Title="U 238" Unit="FractionIsotopic" Internal="U8" Type="F" Min="8.46853673e-01" Max="9.57857072e-01"/>
    <Variable VarIndex="2" Expression="Pu8" Label="Pu8" Title="Pu 238" Unit="FractionIsotopic" Internal="Pu8" Type="F" Min="2.10537197e-04" Max="1.05673587e-02"/>
    <Variable VarIndex="3" Expression="Pu9" Label="Pu9" Title="Pu 239" Unit="FractionIsotopic" Internal="Pu9" Type="F" Min="1.67695526e-02" Max="1.14535898e-01"/>
    <Variable VarIndex="4" Expression="Pu10" Label="Pu10" Title="Pu 240" Unit="FractionIsotopic" Internal="Pu10" Type="F" Min="5.72719984e-03" Max="5.21629304e-02"/>
    <Variable VarIndex="5" Expression="Pu11" Label="Pu11" Title="Pu 241" Unit="FractionIsotopic" Internal="Pu11" Type="F" Min="3.33701813e-04" Max="1.89348347e-02"/>
    <Variable VarIndex="6" Expression="Pu12" Label="Pu12" Title="Pu 242" Unit="FractionIsotopic" Internal="Pu12" Type="F" Min="7.46939739e-04" Max="3.17858644e-02"/>
    <Variable VarIndex="7" Expression="Am1" Label="Am1" Title="Am 241" Unit="FractionIsotopic" Internal="Am1" Type="F" Min="1.24220833e-06" Max="7.95311853e-03"/>
    <Variable VarIndex="8" Expression="Time" Label="Time" Title="Time" Unit="seconds" Internal="Time" Type="F" Min="0.00000000e+00" Max="1.89328320e+08"/>
  </Variables>
  <Spectators NSpec="0"/>
  <Classes NClass="1">
    <Class Name="Regression" Index="0"/>
  </Classes>
  <Targets NTrgt="1">
    <Target TargetIndex="0" Expression="XS_36_84_0_cap" Label="XS_36_84_0_cap" Title="XS_36_84_0_cap" Unit="" Internal="XS_36_84_0_cap" Type="F" Min="8.21393952e-02" Max="1.00351460e-01"/>
  </Targets>
  <Transformations NTransformations="1">
    <Transform Name="Normalize">
      <Selection>
        <Input NInputs="10">
          <Input Type="Variable" Label="U5" Expression="U5"/>
          <Input Type="Variable" Label="U8" Expression="U8"/>
          <Input Type="Variable" Label="Pu8" Expression="Pu8"/>
          <Input Type="Variable" Label="Pu9" Expression="Pu9"/>
          <Input Type="Variable" Label="Pu10" Expression="Pu10"/>
          <Input Type="Variable" Label="Pu11" Expression="Pu11"/>
          <Input Type="Variable" Label="Pu12" Expression="Pu12"/>
          <Input Type="Variable" Label="Am1" Expression="Am1"/>
          <Input Type="Variable" Label="Time" Expression="Time"/>
          <Input Type="Target" Label="XS_36_84_0_cap" Expression="XS_36_84_0_cap"/>
        </Input>
        <Output NOutputs="10">
          <Output Type="Variable" Label="U5" Expression="U5"/>
          <Output Type="Variable" Label="U8" Expression="U8"/>
          <Output Type="Variable" Label="Pu8" Expression="Pu8"/>
          <Output Type="Variable" Label="Pu9" Expression="Pu9"/>
          <Output Type="Variable" Label="Pu10" Expression="Pu10"/>
          <Output Type="Variable" Label="Pu11" Expression="Pu11"/>
          <Output Type="Variable" Label="Pu12" Expression="Pu12"/>
          <Output Type="Variable" Label="Am1" Expression="Am1"/>
          <Output Type="Variable" Label="Time" Expression="Time"/>
          <Output Type="Target" Label="XS_36_84_0_cap" Expression="XS_36_84_0_cap"/>
        </Output>
      </Selection>
      <Class ClassIndex="0">
        <Ranges>
          <Range Index="0" Min="1.7270947573706508e-03" Max="3.8162327837198973e-03"/>
          <Range Index="1" Min="8.4685367345809937e-01" Max="9.5785707235336304e-01"/>
          <Range Index="2" Min="2.1053719683550298e-04" Max="1.0567358694970608e-02"/>
          <Range Index="3" Min="1.6769552603363991e-02" Max="1.1453589797019958e-01"/>
          <Range Index="4" Min="5.7271998375654221e-03" Max="5.2162930369377136e-02"/>
          <Range Index="5" Min="3.3370181336067617e-04" Max="1.8934834748506546e-02"/>
          <Range Index="6" Min="7.4693973874673247e-04" Max="3.1785864382982254e-02"/>
          <Range Index="7" Min="1.2422083273122553e-06" Max="7.9531185328960419e-03"/>
          <Range Index="8" Min="0.0000000000000000e+00" Max="1.8932832000000000e+08"/>
          <Range Index="9" Min="8.2139395177364349e-02" Max="1.0035146027803421e-01"/>
        </Ranges>
      </Class>
    </Transform>
  </Transformations>
  <MVAPdfs/>
  <Weights>
    <Layout NLayers="4">
      <Layer Index="0" NNeurons="10">
        <Neuron NSynapses="9">
          8.0296959230863774e-02 3.3903933346807297e-01 7.8985011011240824e-01 1.3238837562980645e+00 -1.8121639135853316e+00 -3.4126792241705878e-01 -8.9023385737038840e-01 3.7132092988491183e-01 -4.0721180654911016e-01 
        </Neuron>
        <Neuron NSynapses="9">
          -1.1171843000623587e+00 -2.0669160487197544e+00 1.0773434146841254e-01 -1.0363256322568568e+00 -1.3914574907075543e+00 -1.9279156618303539e+00 9.9816831497572889e-01 -1.6246680443503907e+00 2.8210608929806584e+00 
        </Neuron>
        <Neuron NSynapses="9">
          2.4645743272249138e-01 4.8055225475487834e-01 2.2159264040006807e-01 2.4906065442917614e-02 3.5652683754706965e-01 3.2018623939356651e-02 -6.6103361779311975e-02 2.9421692143365669e-01 6.6567565083530800e-01 
        </Neuron>
        <Neuron NSynapses="9">
          -1.4282351974066241e+00 -1.1736822807424447e+00 -3.9107477595657775e-01 7.1474210384755266e-01 2.2321364862087467e+00 6.8228969660834016e-01 -3.4383497571364957e-01 8.0221230851456493e-01 -9.2325350554985519e-01 
        </Neuron>
        <Neuron NSynapses="9">
          -1.2490291868986823e+00 1.7261582644704276e-01 -9.2092305482073067e-01 1.2354030013715658e+00 1.1519645976313961e+00 1.0249118358934122e+00 1.7851695838113237e+00 1.6254143243764683e+00 -5.1961417140393606e-01 
        </Neuron>
        <Neuron NSynapses="9">
          -1.4325914641318456e+00 2.6619325870383287e-01 -2.9296388369123216e-01 1.3720158863987286e+00 1.0489090495475375e+00 9.7576853748628833e-01 1.1533950423366184e+00 1.1064710094856484e-01 3.2940836046187660e-01 
        </Neuron>
        <Neuron NSynapses="9">
          -1.9090484202018263e+00 -4.8445759692939594e-01 -3.7934925812216402e-01 -9.8207617410277781e-01 1.8159967460284363e+00 4.5452951066767949e-01 -3.8791782929394503e-01 4.1050776216527540e-01 -2.8079047979620342e-01 
        </Neuron>
        <Neuron NSynapses="9">
          4.5674190775619106e-01 4.5998650705799249e-01 9.1496080726150453e-01 9.6629606439231031e-01 -1.0811934150700362e+00 -7.3223891216507009e-01 -2.0757789531314760e-01 6.5275491416765463e-01 -5.7321174955266763e-01 
        </Neuron>
        <Neuron NSynapses="9">
          -1.6681265555936183e-02 1.6654525593870251e+00 1.2120616074989445e+00 3.5581521658642229e-01 -5.8867452259922037e-01 1.1066714331060167e-02 9.7812979431009783e-01 1.7137001740541806e+00 -1.7482092345808588e-03 
        </Neuron>
        <Neuron NSynapses="9">
          1.0757063494299806e+00 2.0192221379693178e+00 -1.6269190082858285e+00 -1.8594650274961426e+00 5.2058543237045007e-01 2.1202160423006395e+00 -2.0496287870318106e+00 -1.4068690265989106e+00 -2.4205133331051898e+00 
        </Neuron>
      </Layer>
      <Layer Index="1" NNeurons="10">
        <Neuron NSynapses="9">
          3.5480236254357622e-01 3.4172823502846655e-01 1.9842460418677166e+00 -2.0421137864691565e+00 -1.9216540274313773e-01 1.1681361951973255e+00 -9.2208161796259236e-01 -1.5095163910088745e+00 -1.2269894277779947e+00 
        </Neuron>
        <Neuron NSynapses="9">
          7.0366119026231733e-01 -1.0610404247082690e+00 -1.5365300654234368e+00 2.4431230360492333e+00 2.0827761250359900e+00 -1.5433670646698139e+00 1.2751212825440223e+00 -1.3995532316999406e+00 5.4881197952840452e-02 
        </Neuron>
        <Neuron NSynapses="9">
          -2.5564380637308060e-01 -4.5262384611278539e-01 -1.1076663992820928e+00 1.0435388785898272e+00 8.1913183904233333e-01 -8.9303827283944079e-02 -1.5735230835723482e+00 1.5101153781171393e+00 1.0285160988160653e-01 
        </Neuron>
        <Neuron NSynapses="9">
          -1.1852634388472744e-01 4.0036572863189357e-01 -8.3062949002902231e-01 -3.8018817564024771e-01 -1.0878541212869942e-01 2.6185843081803228e-02 1.7493862444703530e+00 6.6276506227156873e-01 -2.8380075932595400e-01 
        </Neuron>
        <Neuron NSynapses="9">
          3.4306716860119407e-02 1.0878196738631885e+00 -1.5967775596613161e+00 1.3818889733399740e+00 1.7337757368501361e-01 -1.1131785060825381e+00 5.1937959871988504e-01 -1.5925237871719082e+00 -2.6103737993927389e-01 
        </Neuron>
        <Neuron NSynapses="9">
          1.5742408835838106e+00 2.6335040569465167e+00 -1.6546470751685005e+00 8.8266040308079141e-01 4.1315014386373616e-01 2.2570760535514451e+00 -2.6420241272667927e-02 -1.6889600218149436e+00 -9.0039516037916556e-01 
        </Neuron>
        <Neuron NSynapses="9">
          -1.0544977112298317e+00 1.1654846863845192e+00 1.0292288159245992e+00 1.1099891276974929e+00 -2.2242402426077307e-01 5.8725201752060308e-01 -1.1963022418172526e+00 3.2223330688467944e-01 5.2879108891482840e-01 
        </Neuron>
        <Neuron NSynapses="9">
          -4.7221167784106238e-01 -4.3023155479511588e-01 9.1040393606490175e-02 2.0253126532485162e+00 1.2424252881403393e+00 1.0489033062016073e+00 -1.8353857737865920e-01 1.1412188809316952e+00 6.1160867916710937e-01 
        </Neuron>
        <Neuron NSynapses="9">
          2.3130692907900909e-02 2.0938149766549805e-01 8.2037539206673504e-01 -2.9941667475242834e-01 -1.0335253594173397e+00 5.8952268508239503e-01 -6.3075503092567076e-01 -1.1747510475872326e-01 1.9906762740978741e+00 
        </Neuron>
        <Neuron NSynapses="9">
          1.7071978992878645e+00 3.2993754032706363e-01 1.8642001706472451e+00 1.4636959810524808e+00 -1.5686996525127905e+00 3.4453990667216233e-01 -6.7099922994896893e-02 4.9504135068185479e-01 -1.4713061133451470e+00 
        </Neuron>
      </Layer>
      <Layer Index="2" NNeurons="10">
        <Neuron NSynapses="1">
          2.4977300944969794e-01 
        </Neuron>
        <Neuron NSynapses="1">
          1.2885567664757361e-02 
        </Neuron>
        <Neuron NSynapses="1">
          -3.7197913741273597e-02 
        </Neuron>
        <Neuron NSynapses="1">
          -1.5507636431950276e-02 
        </Neuron>
        <Neuron NSynapses="1">
          9.6779493131422659e-02 
        </Neuron>
        <Neuron NSynapses="1">
          2.0443688927925866e-02 
        </Neuron>
        <Neuron NSynapses="1">
          6.3266224498342405e-02 
        </Neuron>
        <Neuron NSynapses="1">
          -7.6922038286077660e-02 
        </Neuron>
        <Neuron NSynapses="1">
          -2.7499079135717397e-01 
        </Neuron>
        <Neuron NSynapses="1">
          -6.0747371945403272e-01 
        </Neuron>
      </Layer>
      <Layer Index="3" NNeurons="1">
        <Neuron NSynapses="0"/>
      </Layer>
    </Layout>
  </Weights>
</MethodSetup>
