<?xml version="1.0"?>
<MethodSetup Method="MLP::XS_36_86_0_cap">
  <GeneralInfo>
    <Info name="TMVA Release" value="4.2.0 [262656]"/>
    <Info name="ROOT Release" value="5.34/14 [336398]"/>
    <Info name="Creator" value="courtin"/>
    <Info name="Date" value="Thu Jun  9 16:42:29 2016"/>
    <Info name="Host" value="Linux nansl3.in2p3.fr 2.6.32-431.20.3.el6.x86_64 #1 SMP Thu Jun 19 14:01:59 CDT 2014 x86_64 x86_64 x86_64 GNU/Linux"/>
    <Info name="Dir" value="/scratch/spallati/courtin/WORK/MOxEUS/BdD_MOX/MOX_NN/XSM/Train"/>
    <Info name="Training events" value="56670"/>
    <Info name="TrainingTime" value="2.06960753e+03"/>
    <Info name="AnalysisType" value="Regression"/>
  </GeneralInfo>
  <Options>
    <Option name="NCycles" modified="Yes">20000</Option>
    <Option name="HiddenLayers" modified="Yes">N,N</Option>
    <Option name="NeuronType" modified="Yes">tanh</Option>
    <Option name="RandomSeed" modified="No">1</Option>
    <Option name="EstimatorType" modified="No">MSE</Option>
    <Option name="NeuronInputType" modified="No">sum</Option>
    <Option name="V" modified="Yes">False</Option>
    <Option name="VerbosityLevel" modified="No">Default</Option>
    <Option name="VarTransform" modified="Yes">Norm</Option>
    <Option name="H" modified="Yes">False</Option>
    <Option name="CreateMVAPdfs" modified="No">False</Option>
    <Option name="IgnoreNegWeightsInTraining" modified="No">False</Option>
    <Option name="TrainingMethod" modified="Yes">BFGS</Option>
    <Option name="LearningRate" modified="No">2.000000e-02</Option>
    <Option name="DecayRate" modified="No">1.000000e-02</Option>
    <Option name="TestRate" modified="Yes">6</Option>
    <Option name="EpochMonitoring" modified="No">False</Option>
    <Option name="Sampling" modified="Yes">3.000000e-01</Option>
    <Option name="SamplingEpoch" modified="Yes">8.000000e-01</Option>
    <Option name="SamplingImportance" modified="No">1.000000e+00</Option>
    <Option name="SamplingTraining" modified="No">True</Option>
    <Option name="SamplingTesting" modified="No">False</Option>
    <Option name="ResetStep" modified="No">50</Option>
    <Option name="Tau" modified="No">3.000000e+00</Option>
    <Option name="BPMode" modified="No">sequential</Option>
    <Option name="BatchSize" modified="No">-1</Option>
    <Option name="ConvergenceImprove" modified="Yes">1.000000e-06</Option>
    <Option name="ConvergenceTests" modified="Yes">15</Option>
    <Option name="UseRegulator" modified="Yes">False</Option>
    <Option name="UpdateLimit" modified="No">10000</Option>
    <Option name="CalculateErrors" modified="No">False</Option>
    <Option name="WeightRange" modified="No">1.000000e+00</Option>
  </Options>
  <Variables NVar="9">
    <Variable VarIndex="0" Expression="U5" Label="U5" Title="U 235" Unit="FractionIsotopic" Internal="U5" Type="F" Min="1.72709476e-03" Max="3.81623278e-03"/>
    <Variable VarIndex="1" Expression="U8" Label="U8" Title="U 238" Unit="FractionIsotopic" Internal="U8" Type="F" Min="8.46853673e-01" Max="9.57857072e-01"/>
    <Variable VarIndex="2" Expression="Pu8" Label="Pu8" Title="Pu 238" Unit="FractionIsotopic" Internal="Pu8" Type="F" Min="2.10537197e-04" Max="1.05673587e-02"/>
    <Variable VarIndex="3" Expression="Pu9" Label="Pu9" Title="Pu 239" Unit="FractionIsotopic" Internal="Pu9" Type="F" Min="1.67695526e-02" Max="1.14535898e-01"/>
    <Variable VarIndex="4" Expression="Pu10" Label="Pu10" Title="Pu 240" Unit="FractionIsotopic" Internal="Pu10" Type="F" Min="5.72719984e-03" Max="5.21629304e-02"/>
    <Variable VarIndex="5" Expression="Pu11" Label="Pu11" Title="Pu 241" Unit="FractionIsotopic" Internal="Pu11" Type="F" Min="3.33701813e-04" Max="1.89348347e-02"/>
    <Variable VarIndex="6" Expression="Pu12" Label="Pu12" Title="Pu 242" Unit="FractionIsotopic" Internal="Pu12" Type="F" Min="7.46939739e-04" Max="3.17858644e-02"/>
    <Variable VarIndex="7" Expression="Am1" Label="Am1" Title="Am 241" Unit="FractionIsotopic" Internal="Am1" Type="F" Min="1.24220833e-06" Max="7.95311853e-03"/>
    <Variable VarIndex="8" Expression="Time" Label="Time" Title="Time" Unit="seconds" Internal="Time" Type="F" Min="0.00000000e+00" Max="1.89328320e+08"/>
  </Variables>
  <Spectators NSpec="0"/>
  <Classes NClass="1">
    <Class Name="Regression" Index="0"/>
  </Classes>
  <Targets NTrgt="1">
    <Target TargetIndex="0" Expression="XS_36_86_0_cap" Label="XS_36_86_0_cap" Title="XS_36_86_0_cap" Unit="" Internal="XS_36_86_0_cap" Type="F" Min="5.45851281e-03" Max="7.80011714e-03"/>
  </Targets>
  <Transformations NTransformations="1">
    <Transform Name="Normalize">
      <Selection>
        <Input NInputs="10">
          <Input Type="Variable" Label="U5" Expression="U5"/>
          <Input Type="Variable" Label="U8" Expression="U8"/>
          <Input Type="Variable" Label="Pu8" Expression="Pu8"/>
          <Input Type="Variable" Label="Pu9" Expression="Pu9"/>
          <Input Type="Variable" Label="Pu10" Expression="Pu10"/>
          <Input Type="Variable" Label="Pu11" Expression="Pu11"/>
          <Input Type="Variable" Label="Pu12" Expression="Pu12"/>
          <Input Type="Variable" Label="Am1" Expression="Am1"/>
          <Input Type="Variable" Label="Time" Expression="Time"/>
          <Input Type="Target" Label="XS_36_86_0_cap" Expression="XS_36_86_0_cap"/>
        </Input>
        <Output NOutputs="10">
          <Output Type="Variable" Label="U5" Expression="U5"/>
          <Output Type="Variable" Label="U8" Expression="U8"/>
          <Output Type="Variable" Label="Pu8" Expression="Pu8"/>
          <Output Type="Variable" Label="Pu9" Expression="Pu9"/>
          <Output Type="Variable" Label="Pu10" Expression="Pu10"/>
          <Output Type="Variable" Label="Pu11" Expression="Pu11"/>
          <Output Type="Variable" Label="Pu12" Expression="Pu12"/>
          <Output Type="Variable" Label="Am1" Expression="Am1"/>
          <Output Type="Variable" Label="Time" Expression="Time"/>
          <Output Type="Target" Label="XS_36_86_0_cap" Expression="XS_36_86_0_cap"/>
        </Output>
      </Selection>
      <Class ClassIndex="0">
        <Ranges>
          <Range Index="0" Min="1.7270947573706508e-03" Max="3.8162327837198973e-03"/>
          <Range Index="1" Min="8.4685367345809937e-01" Max="9.5785707235336304e-01"/>
          <Range Index="2" Min="2.1053719683550298e-04" Max="1.0567358694970608e-02"/>
          <Range Index="3" Min="1.6769552603363991e-02" Max="1.1453589797019958e-01"/>
          <Range Index="4" Min="5.7271998375654221e-03" Max="5.2162930369377136e-02"/>
          <Range Index="5" Min="3.3370181336067617e-04" Max="1.8934834748506546e-02"/>
          <Range Index="6" Min="7.4693973874673247e-04" Max="3.1785864382982254e-02"/>
          <Range Index="7" Min="1.2422083273122553e-06" Max="7.9531185328960419e-03"/>
          <Range Index="8" Min="0.0000000000000000e+00" Max="1.8932832000000000e+08"/>
          <Range Index="9" Min="5.4585128091275692e-03" Max="7.8001171350479126e-03"/>
        </Ranges>
      </Class>
    </Transform>
  </Transformations>
  <MVAPdfs/>
  <Weights>
    <Layout NLayers="4">
      <Layer Index="0" NNeurons="10">
        <Neuron NSynapses="9">
          2.1382436732300558e-02 -9.0518911204146679e-02 -2.5659212437339325e-02 1.1617299896783750e+00 9.7812919043734179e-04 4.5523649487743522e-03 -4.1755918476795922e-01 3.0991055026675415e-02 4.2454551540081806e-02 
        </Neuron>
        <Neuron NSynapses="9">
          -1.8932308945506782e+00 -2.4753163700821301e+00 -1.5049328395835728e+00 -4.2787213358494780e-01 8.7127993000982257e-02 -1.9995243693800302e-01 6.8094102245913801e-01 -1.1337408189332630e+00 2.3105531338627441e+00 
        </Neuron>
        <Neuron NSynapses="9">
          8.2116154841684119e-01 1.1240819225181806e+00 -2.2114497611921854e-01 3.8217629289146365e-01 -1.1102060150791931e-01 5.0584204134223390e-02 -2.3617059863610054e-01 2.1322713524513651e-01 1.4676653343645660e-01 
        </Neuron>
        <Neuron NSynapses="9">
          -1.6891271706658975e+00 -1.3844398799532460e+00 -3.1999271661453954e-01 6.6921484110694673e-01 1.6062063914130811e+00 3.4097404206477422e-01 1.4944803726541919e-01 1.0012647321243637e+00 -4.2450524724949223e-01 
        </Neuron>
        <Neuron NSynapses="9">
          -6.1341719604661471e-01 1.4794563585806699e+00 -1.2215790028891544e+00 1.0689429157299102e+00 8.5372814012007400e-02 2.0302532012850555e-01 1.9646857972874077e+00 6.8170687749929826e-01 -6.8809072657499304e-01 
        </Neuron>
        <Neuron NSynapses="9">
          -1.1965972248244705e+00 5.4525424577313719e-01 -4.1850276267879393e-03 1.7233695829074049e+00 3.2651107217590764e-01 3.5176384158470485e-02 1.7060433472710375e+00 9.9445053361412489e-02 1.2415226064052400e+00 
        </Neuron>
        <Neuron NSynapses="9">
          -9.0862380200820325e-01 -8.5790767244712762e-01 -5.8006804170291859e-01 -5.8428636639267229e-01 1.8746745454912894e-02 5.8564920477317795e-04 -7.1785855893421469e-01 -1.6598901038664085e-01 -4.7402940851598163e-01 
        </Neuron>
        <Neuron NSynapses="9">
          -2.1468100055100617e-01 8.4502016199021834e-01 -3.7084065444849469e-02 8.2059909423252753e-01 6.9669181506904029e-02 3.4513029666438724e-02 -1.8038962556662252e-01 1.7904561653854809e-01 -4.1733797090556513e-01 
        </Neuron>
        <Neuron NSynapses="9">
          6.2199078636457117e-01 1.7919824293118223e+00 1.0078409142338776e+00 -1.0143344918782238e-01 -7.7998685485500685e-01 -1.1839910611724200e-01 5.4736653406713576e-01 -1.3970445379311694e-01 -7.0551118894279707e-01 
        </Neuron>
        <Neuron NSynapses="9">
          1.7359109925073475e+00 2.0596058471944185e+00 1.2415254654694228e+00 -2.9517978656330026e+00 6.3091701039835901e-01 7.5313984118158439e-01 -2.3472795236951352e+00 -1.5028076649328956e+00 -2.3068159613990793e+00 
        </Neuron>
      </Layer>
      <Layer Index="1" NNeurons="10">
        <Neuron NSynapses="9">
          5.6795207115259261e-01 4.3572193915380597e-01 1.5968890743242190e+00 -1.2454704214575911e+00 -1.2416021792776439e+00 2.0881047265462405e+00 -1.4307806460235856e-01 -1.7061573662733893e+00 -1.5102635313604271e+00 
        </Neuron>
        <Neuron NSynapses="9">
          1.0176338398575634e-01 -9.4566437735456821e-01 -8.9294318216131763e-01 6.8896411884098096e-03 -1.6690725935607258e-02 -9.9245576593237828e-01 1.2672710801551514e+00 -8.2007588491872008e-01 -8.2436557287352052e-01 
        </Neuron>
        <Neuron NSynapses="9">
          2.1232682623695848e-01 -7.3909028566034185e-01 -1.6409326496400101e+00 3.8680655560080096e-01 8.1882132103123706e-01 -1.6564596293583900e-01 -1.2497227383132843e+00 1.0456940642867607e+00 3.5772198926828508e-01 
        </Neuron>
        <Neuron NSynapses="9">
          -9.9373308829978724e-01 4.4322270083339416e-01 -1.4006741721736164e+00 -1.8073101342447850e-01 2.4182103468256996e-02 -6.9432889766185646e-01 8.9200609948714815e-01 9.3468877466225186e-01 3.7447216046693439e-02 
        </Neuron>
        <Neuron NSynapses="9">
          -7.8476691330043313e-01 2.5281724280144374e-01 -1.7488367735106127e+00 1.6107630139460727e-01 7.1871864591486290e-01 -1.4235277167842055e+00 6.0419714268894464e-01 -1.4203088150167558e+00 4.2802429882869850e-02 
        </Neuron>
        <Neuron NSynapses="9">
          9.0035590723191583e-01 2.6168192396255177e+00 -1.6694186210982220e+00 1.5751778803104770e+00 1.2016488042124278e+00 1.8410573497036400e+00 6.5060242913348487e-01 -2.0516520113682510e+00 -2.1678612196247443e-01 
        </Neuron>
        <Neuron NSynapses="9">
          -1.0660490786428809e+00 7.0248955501586008e-01 8.3612065013078718e-01 -6.6497329823070267e-03 -1.4977501847094030e-01 -1.7037886987001574e-01 -1.8553726134796840e+00 4.7618136225627333e-01 1.8431205981455347e+00 
        </Neuron>
        <Neuron NSynapses="9">
          -8.8155236073366861e-01 -5.1133128822089136e-01 6.3778074008500510e-02 8.1614343716138049e-01 6.3280521320619398e-02 7.4107764716309621e-01 -1.6736195587330940e+00 1.3348586696440583e+00 7.5656755629545791e-01 
        </Neuron>
        <Neuron NSynapses="9">
          -4.1369599635481348e-02 -1.5420502604446634e-01 1.2121934349138550e+00 -4.5779591067797798e-03 -3.5222751457867911e-03 3.0665640900797803e-01 -1.2961127193217945e+00 8.5421717305130340e-01 1.4980202747387590e+00 
        </Neuron>
        <Neuron NSynapses="9">
          1.9148421392250576e+00 3.4597936863926776e-01 1.5537369090713049e+00 2.2836860755830202e+00 -2.7493876563070385e+00 1.2847933638760989e+00 6.9265154178209154e-01 2.9235321433193462e-01 -1.7636775430479839e+00 
        </Neuron>
      </Layer>
      <Layer Index="2" NNeurons="10">
        <Neuron NSynapses="1">
          2.8046970526688847e-01 
        </Neuron>
        <Neuron NSynapses="1">
          -9.4032712611986143e-03 
        </Neuron>
        <Neuron NSynapses="1">
          1.0667120364687890e-02 
        </Neuron>
        <Neuron NSynapses="1">
          -2.6812153820750697e+00 
        </Neuron>
        <Neuron NSynapses="1">
          -9.8495583794145958e-01 
        </Neuron>
        <Neuron NSynapses="1">
          1.4188888921388348e-01 
        </Neuron>
        <Neuron NSynapses="1">
          5.0867160333016644e-02 
        </Neuron>
        <Neuron NSynapses="1">
          4.6445128680979331e-01 
        </Neuron>
        <Neuron NSynapses="1">
          -9.2792739104232236e-01 
        </Neuron>
        <Neuron NSynapses="1">
          5.0290313780951064e-02 
        </Neuron>
      </Layer>
      <Layer Index="3" NNeurons="1">
        <Neuron NSynapses="0"/>
      </Layer>
    </Layout>
  </Weights>
</MethodSetup>
