<?xml version="1.0"?>
<MethodSetup Method="MLP::XS_22_50_0_cap">
  <GeneralInfo>
    <Info name="TMVA Release" value="4.2.0 [262656]"/>
    <Info name="ROOT Release" value="5.34/14 [336398]"/>
    <Info name="Creator" value="courtin"/>
    <Info name="Date" value="Thu Jun  9 19:27:28 2016"/>
    <Info name="Host" value="Linux nansl3.in2p3.fr 2.6.32-431.20.3.el6.x86_64 #1 SMP Thu Jun 19 14:01:59 CDT 2014 x86_64 x86_64 x86_64 GNU/Linux"/>
    <Info name="Dir" value="/scratch/spallati/courtin/WORK/MOxEUS/BdD_MOX/MOX_NN/XSM/Train"/>
    <Info name="Training events" value="56670"/>
    <Info name="TrainingTime" value="1.70634618e+03"/>
    <Info name="AnalysisType" value="Regression"/>
  </GeneralInfo>
  <Options>
    <Option name="NCycles" modified="Yes">20000</Option>
    <Option name="HiddenLayers" modified="Yes">N,N</Option>
    <Option name="NeuronType" modified="Yes">tanh</Option>
    <Option name="RandomSeed" modified="No">1</Option>
    <Option name="EstimatorType" modified="No">MSE</Option>
    <Option name="NeuronInputType" modified="No">sum</Option>
    <Option name="V" modified="Yes">False</Option>
    <Option name="VerbosityLevel" modified="No">Default</Option>
    <Option name="VarTransform" modified="Yes">Norm</Option>
    <Option name="H" modified="Yes">False</Option>
    <Option name="CreateMVAPdfs" modified="No">False</Option>
    <Option name="IgnoreNegWeightsInTraining" modified="No">False</Option>
    <Option name="TrainingMethod" modified="Yes">BFGS</Option>
    <Option name="LearningRate" modified="No">2.000000e-02</Option>
    <Option name="DecayRate" modified="No">1.000000e-02</Option>
    <Option name="TestRate" modified="Yes">6</Option>
    <Option name="EpochMonitoring" modified="No">False</Option>
    <Option name="Sampling" modified="Yes">3.000000e-01</Option>
    <Option name="SamplingEpoch" modified="Yes">8.000000e-01</Option>
    <Option name="SamplingImportance" modified="No">1.000000e+00</Option>
    <Option name="SamplingTraining" modified="No">True</Option>
    <Option name="SamplingTesting" modified="No">False</Option>
    <Option name="ResetStep" modified="No">50</Option>
    <Option name="Tau" modified="No">3.000000e+00</Option>
    <Option name="BPMode" modified="No">sequential</Option>
    <Option name="BatchSize" modified="No">-1</Option>
    <Option name="ConvergenceImprove" modified="Yes">1.000000e-06</Option>
    <Option name="ConvergenceTests" modified="Yes">15</Option>
    <Option name="UseRegulator" modified="Yes">False</Option>
    <Option name="UpdateLimit" modified="No">10000</Option>
    <Option name="CalculateErrors" modified="No">False</Option>
    <Option name="WeightRange" modified="No">1.000000e+00</Option>
  </Options>
  <Variables NVar="9">
    <Variable VarIndex="0" Expression="U5" Label="U5" Title="U 235" Unit="FractionIsotopic" Internal="U5" Type="F" Min="1.72709476e-03" Max="3.81623278e-03"/>
    <Variable VarIndex="1" Expression="U8" Label="U8" Title="U 238" Unit="FractionIsotopic" Internal="U8" Type="F" Min="8.46853673e-01" Max="9.57857072e-01"/>
    <Variable VarIndex="2" Expression="Pu8" Label="Pu8" Title="Pu 238" Unit="FractionIsotopic" Internal="Pu8" Type="F" Min="2.10537197e-04" Max="1.05673587e-02"/>
    <Variable VarIndex="3" Expression="Pu9" Label="Pu9" Title="Pu 239" Unit="FractionIsotopic" Internal="Pu9" Type="F" Min="1.67695526e-02" Max="1.14535898e-01"/>
    <Variable VarIndex="4" Expression="Pu10" Label="Pu10" Title="Pu 240" Unit="FractionIsotopic" Internal="Pu10" Type="F" Min="5.72719984e-03" Max="5.21629304e-02"/>
    <Variable VarIndex="5" Expression="Pu11" Label="Pu11" Title="Pu 241" Unit="FractionIsotopic" Internal="Pu11" Type="F" Min="3.33701813e-04" Max="1.89348347e-02"/>
    <Variable VarIndex="6" Expression="Pu12" Label="Pu12" Title="Pu 242" Unit="FractionIsotopic" Internal="Pu12" Type="F" Min="7.46939739e-04" Max="3.17858644e-02"/>
    <Variable VarIndex="7" Expression="Am1" Label="Am1" Title="Am 241" Unit="FractionIsotopic" Internal="Am1" Type="F" Min="1.24220833e-06" Max="7.95311853e-03"/>
    <Variable VarIndex="8" Expression="Time" Label="Time" Title="Time" Unit="seconds" Internal="Time" Type="F" Min="0.00000000e+00" Max="1.89328320e+08"/>
  </Variables>
  <Spectators NSpec="0"/>
  <Classes NClass="1">
    <Class Name="Regression" Index="0"/>
  </Classes>
  <Targets NTrgt="1">
    <Target TargetIndex="0" Expression="XS_22_50_0_cap" Label="XS_22_50_0_cap" Title="XS_22_50_0_cap" Unit="" Internal="XS_22_50_0_cap" Type="F" Min="7.49557614e-02" Max="3.32240194e-01"/>
  </Targets>
  <Transformations NTransformations="1">
    <Transform Name="Normalize">
      <Selection>
        <Input NInputs="10">
          <Input Type="Variable" Label="U5" Expression="U5"/>
          <Input Type="Variable" Label="U8" Expression="U8"/>
          <Input Type="Variable" Label="Pu8" Expression="Pu8"/>
          <Input Type="Variable" Label="Pu9" Expression="Pu9"/>
          <Input Type="Variable" Label="Pu10" Expression="Pu10"/>
          <Input Type="Variable" Label="Pu11" Expression="Pu11"/>
          <Input Type="Variable" Label="Pu12" Expression="Pu12"/>
          <Input Type="Variable" Label="Am1" Expression="Am1"/>
          <Input Type="Variable" Label="Time" Expression="Time"/>
          <Input Type="Target" Label="XS_22_50_0_cap" Expression="XS_22_50_0_cap"/>
        </Input>
        <Output NOutputs="10">
          <Output Type="Variable" Label="U5" Expression="U5"/>
          <Output Type="Variable" Label="U8" Expression="U8"/>
          <Output Type="Variable" Label="Pu8" Expression="Pu8"/>
          <Output Type="Variable" Label="Pu9" Expression="Pu9"/>
          <Output Type="Variable" Label="Pu10" Expression="Pu10"/>
          <Output Type="Variable" Label="Pu11" Expression="Pu11"/>
          <Output Type="Variable" Label="Pu12" Expression="Pu12"/>
          <Output Type="Variable" Label="Am1" Expression="Am1"/>
          <Output Type="Variable" Label="Time" Expression="Time"/>
          <Output Type="Target" Label="XS_22_50_0_cap" Expression="XS_22_50_0_cap"/>
        </Output>
      </Selection>
      <Class ClassIndex="0">
        <Ranges>
          <Range Index="0" Min="1.7270947573706508e-03" Max="3.8162327837198973e-03"/>
          <Range Index="1" Min="8.4685367345809937e-01" Max="9.5785707235336304e-01"/>
          <Range Index="2" Min="2.1053719683550298e-04" Max="1.0567358694970608e-02"/>
          <Range Index="3" Min="1.6769552603363991e-02" Max="1.1453589797019958e-01"/>
          <Range Index="4" Min="5.7271998375654221e-03" Max="5.2162930369377136e-02"/>
          <Range Index="5" Min="3.3370181336067617e-04" Max="1.8934834748506546e-02"/>
          <Range Index="6" Min="7.4693973874673247e-04" Max="3.1785864382982254e-02"/>
          <Range Index="7" Min="1.2422083273122553e-06" Max="7.9531185328960419e-03"/>
          <Range Index="8" Min="0.0000000000000000e+00" Max="1.8932832000000000e+08"/>
          <Range Index="9" Min="7.4955761432647705e-02" Max="3.3224019408226013e-01"/>
        </Ranges>
      </Class>
    </Transform>
  </Transformations>
  <MVAPdfs/>
  <Weights>
    <Layout NLayers="4">
      <Layer Index="0" NNeurons="10">
        <Neuron NSynapses="9">
          -5.1807853021266451e-04 4.0791107302940216e-01 -7.9873472822549335e-02 1.1337308448073413e+00 9.1435327344176906e-02 -8.3605875023083330e-03 -4.8844152726116308e-01 -1.2508313671826818e-01 1.2229403174893494e-01 
        </Neuron>
        <Neuron NSynapses="9">
          -1.7507819656210966e+00 -2.4122051216524394e+00 -1.6562127848122941e+00 -4.7887402631499842e-01 1.3248906555071976e-01 -4.5721523975875938e-01 7.2194768030525258e-01 -1.4867705578900290e+00 2.2149237407408311e+00 
        </Neuron>
        <Neuron NSynapses="9">
          7.2637770448496497e-01 7.1052144067792122e-01 -4.8479171349136307e-01 4.2813690295692342e-01 7.1492302684089140e-02 5.4034099502060423e-02 -2.5690562027510055e-01 9.9089264144465852e-02 3.1881224860110985e-01 
        </Neuron>
        <Neuron NSynapses="9">
          -1.8166849832178367e+00 -1.0854618221270564e+00 1.2313968699350135e-01 6.5391040016500146e-01 1.3123513918229455e+00 4.0819533231852123e-01 1.2865436074158373e-01 1.2275018633430361e+00 -5.0701622320315742e-01 
        </Neuron>
        <Neuron NSynapses="9">
          -6.5278871286520723e-01 1.3544088683108639e+00 -1.5949435425812479e+00 1.1215361783872053e+00 3.1958565625831836e-01 2.6500917349165881e-01 1.9235629418002416e+00 4.4372190456408028e-01 -8.0608608340982280e-01 
        </Neuron>
        <Neuron NSynapses="9">
          -1.1929155311981294e+00 6.7355943764113169e-01 1.4210001212303031e-01 1.7332470161873721e+00 3.7888061797403377e-01 4.6907091373085260e-03 1.7043908056667469e+00 8.9143844008264927e-03 1.4437398507573069e+00 
        </Neuron>
        <Neuron NSynapses="9">
          -9.0782017067470056e-01 -1.4183425475411746e+00 -5.7680029698591440e-01 -6.3004507809823984e-01 -3.2198256271152290e-02 -7.9838763172580818e-03 -6.8167375946033748e-01 -3.8347494640434417e-02 -2.0978072425148722e-01 
        </Neuron>
        <Neuron NSynapses="9">
          -1.2819377141631097e-02 1.2054732700753423e+00 -8.8589358493787948e-02 7.6728045826461821e-01 7.6166767864741594e-02 5.5245648871301616e-02 -1.0192712416421917e-01 9.0712377052928450e-02 -6.0026872827793554e-01 
        </Neuron>
        <Neuron NSynapses="9">
          4.5777721046813147e-01 1.4118849286109867e+00 1.2137777420787255e+00 -1.3026890548056425e-01 -6.5978870626957864e-01 -1.4225974778205294e-01 4.8719762993699745e-01 -2.0406313242937396e-01 -5.9425844445692363e-02 
        </Neuron>
        <Neuron NSynapses="9">
          1.7046996749487424e+00 1.8446293480332787e+00 1.1162956447411747e+00 -2.8666563915931276e+00 7.9228391636192297e-01 1.0352375491080399e+00 -2.3753270057669984e+00 -1.1019597196227819e+00 -2.1395734556998094e+00 
        </Neuron>
      </Layer>
      <Layer Index="1" NNeurons="10">
        <Neuron NSynapses="9">
          4.9988270489770659e-01 3.1498040385821163e-01 1.5448529454401125e+00 -1.2022747724095770e+00 -9.8415028705195295e-01 2.0958341236018097e+00 -3.7402895139007014e-01 -1.6539617041655514e+00 -1.5261456435811049e+00 
        </Neuron>
        <Neuron NSynapses="9">
          6.4027485564388295e-02 -8.3363328068704590e-01 -1.0826578770169795e+00 5.6788869345600068e-03 2.7589944198609284e-01 -1.0223933664677167e+00 1.3020542139101476e+00 -9.1902216707176021e-01 -8.1299478397159308e-01 
        </Neuron>
        <Neuron NSynapses="9">
          2.1294445347119717e-01 -9.6281468892596622e-01 -1.7364852518005438e+00 1.9556632393617826e-01 5.7049193952808441e-01 -3.7500527795474151e-02 -1.6415731008750709e+00 1.5402975380361823e+00 3.3983787672260385e-01 
        </Neuron>
        <Neuron NSynapses="9">
          -1.0103456412197023e+00 4.7927795983367683e-01 -1.3169671635804086e+00 -1.7220034828740688e-01 1.0709027266026072e-01 -7.5356143272557885e-01 1.1156226151620441e+00 8.7942571457424201e-01 4.7347438884983065e-02 
        </Neuron>
        <Neuron NSynapses="9">
          -7.6870199995313582e-01 1.5951245548795784e-01 -1.6083506027804342e+00 2.6322296814886842e-01 8.2738465642672576e-01 -1.4455230086026800e+00 3.1552411205854097e-01 -1.2857324136083017e+00 6.0982902649756761e-02 
        </Neuron>
        <Neuron NSynapses="9">
          8.9556559844628136e-01 2.6888489998670035e+00 -1.6024352572384783e+00 9.8955508837923889e-01 1.4091891837002046e+00 1.8092177056965881e+00 6.9698842712220499e-01 -1.9252811093629971e+00 -2.0947068715694686e-01 
        </Neuron>
        <Neuron NSynapses="9">
          -1.1036610773184674e+00 7.8907210931560290e-01 9.4759184926361240e-01 4.8482802441429135e-02 -2.7100869034847797e-01 -1.8646486479847429e-01 -1.6307588792520824e+00 4.3701049789748353e-01 1.8436092118850089e+00 
        </Neuron>
        <Neuron NSynapses="9">
          -8.7064343520505993e-01 -6.1779453497078518e-01 1.9416481140924666e-01 6.3785685516688140e-01 1.4533275203237392e-01 7.4898430142834727e-01 -1.6181541259689893e+00 1.2243074062825698e+00 7.8058572476060573e-01 
        </Neuron>
        <Neuron NSynapses="9">
          2.8361983158050608e-02 -1.9742558268194874e-01 1.2260591015516096e+00 -1.0805163535947366e-02 -5.4792609940042453e-02 3.5370648991972664e-01 -1.3812545849629914e+00 1.6964126023208503e-01 1.4963154652590605e+00 
        </Neuron>
        <Neuron NSynapses="9">
          1.8279317532351571e+00 2.1417193740241680e-01 1.5046678118353407e+00 2.3253587650802827e+00 -2.5953065215096167e+00 1.2434757476999838e+00 4.5530184606017338e-01 3.4629546537796446e-01 -1.7749319367478820e+00 
        </Neuron>
      </Layer>
      <Layer Index="2" NNeurons="10">
        <Neuron NSynapses="1">
          1.8930339123587528e-01 
        </Neuron>
        <Neuron NSynapses="1">
          -2.5885716059643786e-02 
        </Neuron>
        <Neuron NSynapses="1">
          2.0581638968221926e-02 
        </Neuron>
        <Neuron NSynapses="1">
          -2.3885798706541728e+00 
        </Neuron>
        <Neuron NSynapses="1">
          -2.4203465535837976e-01 
        </Neuron>
        <Neuron NSynapses="1">
          1.6091895468230502e-01 
        </Neuron>
        <Neuron NSynapses="1">
          3.2772531855037403e-02 
        </Neuron>
        <Neuron NSynapses="1">
          1.5536672487983799e-01 
        </Neuron>
        <Neuron NSynapses="1">
          -1.0081367544670969e+00 
        </Neuron>
        <Neuron NSynapses="1">
          1.3512997505483706e-01 
        </Neuron>
      </Layer>
      <Layer Index="3" NNeurons="1">
        <Neuron NSynapses="0"/>
      </Layer>
    </Layout>
  </Weights>
</MethodSetup>
