<?xml version="1.0"?>
<MethodSetup Method="MLP::XS_36_82_0_cap">
  <GeneralInfo>
    <Info name="TMVA Release" value="4.2.0 [262656]"/>
    <Info name="ROOT Release" value="5.34/14 [336398]"/>
    <Info name="Creator" value="courtin"/>
    <Info name="Date" value="Thu Dec 17 15:14:56 2015"/>
    <Info name="Host" value="Linux nansl3.in2p3.fr 2.6.32-431.20.3.el6.x86_64 #1 SMP Thu Jun 19 14:01:59 CDT 2014 x86_64 x86_64 x86_64 GNU/Linux"/>
    <Info name="Dir" value="/scratch/spallati/courtin/WORK/BdD_MOxEUS/MOxEUS_NN/XSM/MLP/Train"/>
    <Info name="Training events" value="77710"/>
    <Info name="TrainingTime" value="2.24740425e+03"/>
    <Info name="AnalysisType" value="Regression"/>
  </GeneralInfo>
  <Options>
    <Option name="NCycles" modified="Yes">20000</Option>
    <Option name="HiddenLayers" modified="Yes">N,N</Option>
    <Option name="NeuronType" modified="Yes">tanh</Option>
    <Option name="RandomSeed" modified="No">1</Option>
    <Option name="EstimatorType" modified="No">MSE</Option>
    <Option name="NeuronInputType" modified="No">sum</Option>
    <Option name="V" modified="Yes">False</Option>
    <Option name="VerbosityLevel" modified="No">Default</Option>
    <Option name="VarTransform" modified="Yes">Norm</Option>
    <Option name="H" modified="Yes">False</Option>
    <Option name="CreateMVAPdfs" modified="No">False</Option>
    <Option name="IgnoreNegWeightsInTraining" modified="No">False</Option>
    <Option name="TrainingMethod" modified="Yes">BFGS</Option>
    <Option name="LearningRate" modified="No">2.000000e-02</Option>
    <Option name="DecayRate" modified="No">1.000000e-02</Option>
    <Option name="TestRate" modified="Yes">6</Option>
    <Option name="EpochMonitoring" modified="No">False</Option>
    <Option name="Sampling" modified="Yes">3.000000e-01</Option>
    <Option name="SamplingEpoch" modified="Yes">8.000000e-01</Option>
    <Option name="SamplingImportance" modified="No">1.000000e+00</Option>
    <Option name="SamplingTraining" modified="No">True</Option>
    <Option name="SamplingTesting" modified="No">False</Option>
    <Option name="ResetStep" modified="No">50</Option>
    <Option name="Tau" modified="No">3.000000e+00</Option>
    <Option name="BPMode" modified="No">sequential</Option>
    <Option name="BatchSize" modified="No">-1</Option>
    <Option name="ConvergenceImprove" modified="Yes">1.000000e-06</Option>
    <Option name="ConvergenceTests" modified="Yes">15</Option>
    <Option name="UseRegulator" modified="Yes">False</Option>
    <Option name="UpdateLimit" modified="No">10000</Option>
    <Option name="CalculateErrors" modified="No">False</Option>
    <Option name="WeightRange" modified="No">1.000000e+00</Option>
  </Options>
  <Variables NVar="9">
    <Variable VarIndex="0" Expression="U5" Label="U5" Title="U 235" Unit="FractionIsotopic" Internal="U5" Type="F" Min="2.30270298e-03" Max="5.00135981e-02"/>
    <Variable VarIndex="1" Expression="U8" Label="U8" Title="U 238" Unit="FractionIsotopic" Internal="U8" Type="F" Min="8.04198325e-01" Max="9.91633654e-01"/>
    <Variable VarIndex="2" Expression="Pu8" Label="Pu8" Title="Pu 238" Unit="FractionIsotopic" Internal="Pu8" Type="F" Min="2.42847864e-06" Max="1.25759691e-02"/>
    <Variable VarIndex="3" Expression="Pu9" Label="Pu9" Title="Pu 239" Unit="FractionIsotopic" Internal="Pu9" Type="F" Min="2.72685829e-05" Max="1.18448287e-01"/>
    <Variable VarIndex="4" Expression="Pu10" Label="Pu10" Title="Pu 240" Unit="FractionIsotopic" Internal="Pu10" Type="F" Min="1.36823164e-05" Max="6.08281456e-02"/>
    <Variable VarIndex="5" Expression="Pu11" Label="Pu11" Title="Pu 241" Unit="FractionIsotopic" Internal="Pu11" Type="F" Min="5.21284107e-07" Max="3.61828022e-02"/>
    <Variable VarIndex="6" Expression="Pu12" Label="Pu12" Title="Pu 242" Unit="FractionIsotopic" Internal="Pu12" Type="F" Min="1.39559679e-05" Max="5.31211868e-02"/>
    <Variable VarIndex="7" Expression="Am1" Label="Am1" Title="Am 241" Unit="FractionIsotopic" Internal="Am1" Type="F" Min="1.16816601e-07" Max="1.22549152e-02"/>
    <Variable VarIndex="8" Expression="Time" Label="Time" Title="Time" Unit="seconds" Internal="Time" Type="F" Min="0.00000000e+00" Max="1.89328304e+08"/>
  </Variables>
  <Spectators NSpec="0"/>
  <Classes NClass="1">
    <Class Name="Regression" Index="0"/>
  </Classes>
  <Targets NTrgt="1">
    <Target TargetIndex="0" Expression="XS_36_82_0_cap" Label="XS_36_82_0_cap" Title="XS_36_82_0_cap" Unit="" Internal="XS_36_82_0_cap" Type="F" Min="4.57472515e+00" Max="9.00280190e+00"/>
  </Targets>
  <Transformations NTransformations="1">
    <Transform Name="Normalize">
      <Selection>
        <Input NInputs="10">
          <Input Type="Variable" Label="U5" Expression="U5"/>
          <Input Type="Variable" Label="U8" Expression="U8"/>
          <Input Type="Variable" Label="Pu8" Expression="Pu8"/>
          <Input Type="Variable" Label="Pu9" Expression="Pu9"/>
          <Input Type="Variable" Label="Pu10" Expression="Pu10"/>
          <Input Type="Variable" Label="Pu11" Expression="Pu11"/>
          <Input Type="Variable" Label="Pu12" Expression="Pu12"/>
          <Input Type="Variable" Label="Am1" Expression="Am1"/>
          <Input Type="Variable" Label="Time" Expression="Time"/>
          <Input Type="Target" Label="XS_36_82_0_cap" Expression="XS_36_82_0_cap"/>
        </Input>
        <Output NOutputs="10">
          <Output Type="Variable" Label="U5" Expression="U5"/>
          <Output Type="Variable" Label="U8" Expression="U8"/>
          <Output Type="Variable" Label="Pu8" Expression="Pu8"/>
          <Output Type="Variable" Label="Pu9" Expression="Pu9"/>
          <Output Type="Variable" Label="Pu10" Expression="Pu10"/>
          <Output Type="Variable" Label="Pu11" Expression="Pu11"/>
          <Output Type="Variable" Label="Pu12" Expression="Pu12"/>
          <Output Type="Variable" Label="Am1" Expression="Am1"/>
          <Output Type="Variable" Label="Time" Expression="Time"/>
          <Output Type="Target" Label="XS_36_82_0_cap" Expression="XS_36_82_0_cap"/>
        </Output>
      </Selection>
      <Class ClassIndex="0">
        <Ranges>
          <Range Index="0" Min="2.3027029819786549e-03" Max="5.0013598054647446e-02"/>
          <Range Index="1" Min="8.0419832468032837e-01" Max="9.9163365364074707e-01"/>
          <Range Index="2" Min="2.4284786377393175e-06" Max="1.2575969099998474e-02"/>
          <Range Index="3" Min="2.7268582925898954e-05" Max="1.1844828724861145e-01"/>
          <Range Index="4" Min="1.3682316421181895e-05" Max="6.0828145593404770e-02"/>
          <Range Index="5" Min="5.2128410743534914e-07" Max="3.6182802170515060e-02"/>
          <Range Index="6" Min="1.3955967915535439e-05" Max="5.3121186792850494e-02"/>
          <Range Index="7" Min="1.1681660083695533e-07" Max="1.2254915200173855e-02"/>
          <Range Index="8" Min="0.0000000000000000e+00" Max="1.8932830400000000e+08"/>
          <Range Index="9" Min="4.5747251510620117e+00" Max="9.0028018951416016e+00"/>
        </Ranges>
      </Class>
    </Transform>
  </Transformations>
  <MVAPdfs/>
  <Weights>
    <Layout NLayers="4">
      <Layer Index="0" NNeurons="10">
        <Neuron NSynapses="9">
          -7.6824072286745071e-01 1.8206655687823459e+00 -2.4784818568355055e-01 9.8367678159142757e-01 -4.7262341949317493e-01 -8.6346666966858443e-02 -7.4143729246525869e-01 1.9615010995175228e+00 -5.5184685036788184e-01 
        </Neuron>
        <Neuron NSynapses="9">
          -1.9386146287077877e+00 -2.2032379921068448e+00 -1.9190001169640736e+00 1.3968280159860036e-01 -1.2271298076332520e+00 -1.7781053609071282e+00 8.5826319795767092e-01 -1.7550472037779306e+00 1.2904023923774497e+00 
        </Neuron>
        <Neuron NSynapses="9">
          3.7549166674115862e-02 4.8892634703603599e-01 -1.8244605280372192e-01 2.0122130565445009e-01 -1.9749831953820390e-02 2.9825070150641880e-01 -5.7106521090093221e-01 2.2773941872376482e-01 -2.2733530569848072e-03 
        </Neuron>
        <Neuron NSynapses="9">
          -1.4355797361182929e+00 -2.1326549654035765e-01 -2.0402475675721921e-01 7.7753678240152901e-01 2.1104924115891257e+00 5.8660720388636256e-01 2.5069551317911948e-01 2.0501390467462737e+00 -1.1538393910440921e+00 
        </Neuron>
        <Neuron NSynapses="9">
          -2.3790051092685474e-01 7.2952690783556884e-01 -7.9312441779582965e-01 7.8210683333612474e-01 5.2746966528611794e-01 9.4505034552267786e-01 1.8984610827355251e+00 1.1879438271305736e+00 -4.7578718480625704e-01 
        </Neuron>
        <Neuron NSynapses="9">
          -9.9239501223160742e-01 8.8598761775258006e-01 1.0738666664601375e-01 1.5687737573935112e+00 8.9352887109061596e-01 -3.8524492034889496e-01 1.5690060857470980e+00 5.5699521251572404e-01 -3.9497119433505551e-01 
        </Neuron>
        <Neuron NSynapses="9">
          -3.5248407455231590e-01 -8.8053457754140041e-01 -4.7128702962969460e-01 -3.5031725112640222e-01 2.1737984194829471e-01 -1.4919367429657096e-01 -5.5168268068596105e-01 -3.3105473236725591e-01 1.8223278973992138e-01 
        </Neuron>
        <Neuron NSynapses="9">
          7.4696923634925139e-02 1.1691445305964614e+00 -8.1527720206356138e-03 6.9024280631560941e-01 -1.5348438968395057e+00 2.2335491213096234e-01 -9.3121474516821623e-02 6.6412926543201323e-01 -1.2501014688770412e-01 
        </Neuron>
        <Neuron NSynapses="9">
          6.9463674687407817e-01 1.4082266489263255e+00 5.4416760689610777e-01 1.5660115405936426e-01 -1.8770345401525381e+00 -5.4280121307631868e-01 6.6405257050218336e-01 -6.4095916268651143e-01 2.7411310224917901e-01 
        </Neuron>
        <Neuron NSynapses="9">
          1.0801173972171396e+00 9.4254122757162007e-01 1.3047595720244323e+00 -3.0885814680707853e+00 9.3687160724153118e-01 2.2616421699928857e+00 -2.3081700935824467e+00 -1.7714589361786508e+00 -5.0936871063560263e-01 
        </Neuron>
      </Layer>
      <Layer Index="1" NNeurons="10">
        <Neuron NSynapses="9">
          6.8667076936584270e-01 -2.2168000661298707e-02 1.1907102498938400e+00 -1.0156235509665574e+00 -9.5948008781908634e-01 2.2765361294853479e+00 -7.3263492138978847e-01 -2.0383362711318607e+00 -1.5382223112160687e+00 
        </Neuron>
        <Neuron NSynapses="9">
          6.8279732422128736e-01 -1.8595426256597438e+00 -1.1217362886434101e+00 3.2706586609995709e-02 6.0546800730139287e-02 -6.3669293532662874e-01 8.3484375348461726e-01 -8.8579889789298560e-01 -8.3877625444496406e-01 
        </Neuron>
        <Neuron NSynapses="9">
          2.8017152275657359e-01 1.8414947642486681e-01 -1.9503366061224559e+00 1.5149882323837160e+00 1.2905676046494354e+00 1.9120590508920912e-02 -1.9849770199474548e+00 1.1869098039139387e+00 3.8457727941166248e-01 
        </Neuron>
        <Neuron NSynapses="9">
          -5.7553567147243068e-01 6.7708683433007089e-01 -1.3661302221353526e+00 -1.0198282993326790e+00 3.5361749212153104e-01 -9.5382936438383015e-01 1.2624198470322665e+00 1.2933913704321607e+00 1.3185402473876975e-01 
        </Neuron>
        <Neuron NSynapses="9">
          -7.9836030191544305e-01 2.0673198466252005e-01 -1.0908469471517876e+00 7.7926372996441312e-02 2.9734555098365169e-02 -1.4604888733341852e+00 1.1024243164579608e+00 -9.0337280972031142e-01 -8.3655189339685177e-03 
        </Neuron>
        <Neuron NSynapses="9">
          1.0330149229113039e+00 2.1172020919641326e+00 -1.6806581520650330e+00 3.4848431242169103e-01 1.1874850352361803e+00 1.9594570840333505e+00 3.7300933058314745e-01 -1.0073244348278401e+00 -4.2333830243799436e-01 
        </Neuron>
        <Neuron NSynapses="9">
          -7.1673778476305028e-01 1.1652275311066815e+00 9.5804310423062555e-01 2.6912893813884375e-01 -1.7621470630573826e-02 -1.4128186136190204e-01 -1.4868162035712620e+00 7.3553639470353205e-01 1.5587091690663586e+00 
        </Neuron>
        <Neuron NSynapses="9">
          -9.6842746265063295e-01 -5.7742681859790201e-01 -4.1568592827831996e-01 9.3269643629551480e-01 5.9656091626817363e-02 4.9917936467705137e-01 -1.3432148022415622e+00 1.4224032150042329e+00 9.0623391845487200e-01 
        </Neuron>
        <Neuron NSynapses="9">
          -3.6700629794804818e-01 5.4348698974287524e-01 9.2132361130701912e-01 -1.4270932743653804e+00 -3.7818146479546999e-01 2.9435203081851019e-01 -7.3286876048886562e-01 -6.3623078706505876e-01 1.3782588789425947e+00 
        </Neuron>
        <Neuron NSynapses="9">
          2.4323939017526626e+00 -6.4388226857872793e-02 1.1456433942623845e+00 2.5942451410563265e+00 -2.5795419041308789e+00 1.4345982241618433e+00 1.1271185308967677e-01 -4.1061288125796007e-02 -1.8648385878820011e+00 
        </Neuron>
      </Layer>
      <Layer Index="2" NNeurons="10">
        <Neuron NSynapses="1">
          4.3098212671526642e-01 
        </Neuron>
        <Neuron NSynapses="1">
          -1.2393647832855051e-02 
        </Neuron>
        <Neuron NSynapses="1">
          8.0026186739652044e-03 
        </Neuron>
        <Neuron NSynapses="1">
          -2.6171509868915881e+00 
        </Neuron>
        <Neuron NSynapses="1">
          -1.2795935317974265e+00 
        </Neuron>
        <Neuron NSynapses="1">
          6.9610369929587379e-01 
        </Neuron>
        <Neuron NSynapses="1">
          1.6360047933723215e-03 
        </Neuron>
        <Neuron NSynapses="1">
          7.1161119482434296e-03 
        </Neuron>
        <Neuron NSynapses="1">
          -1.9910665669088287e-01 
        </Neuron>
        <Neuron NSynapses="1">
          -4.0486782618077810e-01 
        </Neuron>
      </Layer>
      <Layer Index="3" NNeurons="1">
        <Neuron NSynapses="0"/>
      </Layer>
    </Layout>
  </Weights>
</MethodSetup>
