<?xml version="1.0"?>
<MethodSetup Method="MLP::XS_28_58_0_n2n">
  <GeneralInfo>
    <Info name="TMVA Release" value="4.2.0 [262656]"/>
    <Info name="ROOT Release" value="5.34/14 [336398]"/>
    <Info name="Creator" value="courtin"/>
    <Info name="Date" value="Mon Oct  3 17:56:57 2016"/>
    <Info name="Host" value="Linux nansl3.in2p3.fr 2.6.32-431.20.3.el6.x86_64 #1 SMP Thu Jun 19 14:01:59 CDT 2014 x86_64 x86_64 x86_64 GNU/Linux"/>
    <Info name="Dir" value="/scratch/spallati/courtin/WORK/MOxEUS/BdD_MOxEUS/MOxEUS_NN/XSM/MLP/Train"/>
    <Info name="Training events" value="77710"/>
    <Info name="TrainingTime" value="1.17296872e+03"/>
    <Info name="AnalysisType" value="Regression"/>
  </GeneralInfo>
  <Options>
    <Option name="NCycles" modified="Yes">20000</Option>
    <Option name="HiddenLayers" modified="Yes">N,N</Option>
    <Option name="NeuronType" modified="Yes">tanh</Option>
    <Option name="RandomSeed" modified="No">1</Option>
    <Option name="EstimatorType" modified="No">MSE</Option>
    <Option name="NeuronInputType" modified="No">sum</Option>
    <Option name="V" modified="Yes">False</Option>
    <Option name="VerbosityLevel" modified="No">Default</Option>
    <Option name="VarTransform" modified="Yes">Norm</Option>
    <Option name="H" modified="Yes">False</Option>
    <Option name="CreateMVAPdfs" modified="No">False</Option>
    <Option name="IgnoreNegWeightsInTraining" modified="No">False</Option>
    <Option name="TrainingMethod" modified="Yes">BFGS</Option>
    <Option name="LearningRate" modified="No">2.000000e-02</Option>
    <Option name="DecayRate" modified="No">1.000000e-02</Option>
    <Option name="TestRate" modified="Yes">6</Option>
    <Option name="EpochMonitoring" modified="No">False</Option>
    <Option name="Sampling" modified="Yes">3.000000e-01</Option>
    <Option name="SamplingEpoch" modified="Yes">8.000000e-01</Option>
    <Option name="SamplingImportance" modified="No">1.000000e+00</Option>
    <Option name="SamplingTraining" modified="No">True</Option>
    <Option name="SamplingTesting" modified="No">False</Option>
    <Option name="ResetStep" modified="No">50</Option>
    <Option name="Tau" modified="No">3.000000e+00</Option>
    <Option name="BPMode" modified="No">sequential</Option>
    <Option name="BatchSize" modified="No">-1</Option>
    <Option name="ConvergenceImprove" modified="Yes">1.000000e-06</Option>
    <Option name="ConvergenceTests" modified="Yes">15</Option>
    <Option name="UseRegulator" modified="Yes">False</Option>
    <Option name="UpdateLimit" modified="No">10000</Option>
    <Option name="CalculateErrors" modified="No">False</Option>
    <Option name="WeightRange" modified="No">1.000000e+00</Option>
  </Options>
  <Variables NVar="9">
    <Variable VarIndex="0" Expression="U5" Label="U5" Title="U 235" Unit="FractionIsotopic" Internal="U5" Type="F" Min="2.30270298e-03" Max="5.00135981e-02"/>
    <Variable VarIndex="1" Expression="U8" Label="U8" Title="U 238" Unit="FractionIsotopic" Internal="U8" Type="F" Min="8.04198325e-01" Max="9.91633654e-01"/>
    <Variable VarIndex="2" Expression="Pu8" Label="Pu8" Title="Pu 238" Unit="FractionIsotopic" Internal="Pu8" Type="F" Min="2.42847864e-06" Max="1.25759691e-02"/>
    <Variable VarIndex="3" Expression="Pu9" Label="Pu9" Title="Pu 239" Unit="FractionIsotopic" Internal="Pu9" Type="F" Min="2.72685829e-05" Max="1.18448287e-01"/>
    <Variable VarIndex="4" Expression="Pu10" Label="Pu10" Title="Pu 240" Unit="FractionIsotopic" Internal="Pu10" Type="F" Min="1.36823164e-05" Max="6.08281456e-02"/>
    <Variable VarIndex="5" Expression="Pu11" Label="Pu11" Title="Pu 241" Unit="FractionIsotopic" Internal="Pu11" Type="F" Min="5.21284107e-07" Max="3.61828022e-02"/>
    <Variable VarIndex="6" Expression="Pu12" Label="Pu12" Title="Pu 242" Unit="FractionIsotopic" Internal="Pu12" Type="F" Min="1.39559679e-05" Max="5.31211868e-02"/>
    <Variable VarIndex="7" Expression="Am1" Label="Am1" Title="Am 241" Unit="FractionIsotopic" Internal="Am1" Type="F" Min="1.16816601e-07" Max="1.22549152e-02"/>
    <Variable VarIndex="8" Expression="Time" Label="Time" Title="Time" Unit="seconds" Internal="Time" Type="F" Min="0.00000000e+00" Max="1.89328304e+08"/>
  </Variables>
  <Spectators NSpec="0"/>
  <Classes NClass="1">
    <Class Name="Regression" Index="0"/>
  </Classes>
  <Targets NTrgt="1">
    <Target TargetIndex="0" Expression="XS_28_58_0_n2n" Label="XS_28_58_0_n2n" Title="XS_28_58_0_n2n" Unit="" Internal="XS_28_58_0_n2n" Type="F" Min="3.89480107e-07" Max="5.49025617e-06"/>
  </Targets>
  <Transformations NTransformations="1">
    <Transform Name="Normalize">
      <Selection>
        <Input NInputs="10">
          <Input Type="Variable" Label="U5" Expression="U5"/>
          <Input Type="Variable" Label="U8" Expression="U8"/>
          <Input Type="Variable" Label="Pu8" Expression="Pu8"/>
          <Input Type="Variable" Label="Pu9" Expression="Pu9"/>
          <Input Type="Variable" Label="Pu10" Expression="Pu10"/>
          <Input Type="Variable" Label="Pu11" Expression="Pu11"/>
          <Input Type="Variable" Label="Pu12" Expression="Pu12"/>
          <Input Type="Variable" Label="Am1" Expression="Am1"/>
          <Input Type="Variable" Label="Time" Expression="Time"/>
          <Input Type="Target" Label="XS_28_58_0_n2n" Expression="XS_28_58_0_n2n"/>
        </Input>
        <Output NOutputs="10">
          <Output Type="Variable" Label="U5" Expression="U5"/>
          <Output Type="Variable" Label="U8" Expression="U8"/>
          <Output Type="Variable" Label="Pu8" Expression="Pu8"/>
          <Output Type="Variable" Label="Pu9" Expression="Pu9"/>
          <Output Type="Variable" Label="Pu10" Expression="Pu10"/>
          <Output Type="Variable" Label="Pu11" Expression="Pu11"/>
          <Output Type="Variable" Label="Pu12" Expression="Pu12"/>
          <Output Type="Variable" Label="Am1" Expression="Am1"/>
          <Output Type="Variable" Label="Time" Expression="Time"/>
          <Output Type="Target" Label="XS_28_58_0_n2n" Expression="XS_28_58_0_n2n"/>
        </Output>
      </Selection>
      <Class ClassIndex="0">
        <Ranges>
          <Range Index="0" Min="2.3027029819786549e-03" Max="5.0013598054647446e-02"/>
          <Range Index="1" Min="8.0419832468032837e-01" Max="9.9163365364074707e-01"/>
          <Range Index="2" Min="2.4284786377393175e-06" Max="1.2575969099998474e-02"/>
          <Range Index="3" Min="2.7268582925898954e-05" Max="1.1844828724861145e-01"/>
          <Range Index="4" Min="1.3682316421181895e-05" Max="6.0828145593404770e-02"/>
          <Range Index="5" Min="5.2128410743534914e-07" Max="3.6182802170515060e-02"/>
          <Range Index="6" Min="1.3955967915535439e-05" Max="5.3121186792850494e-02"/>
          <Range Index="7" Min="1.1681660083695533e-07" Max="1.2254915200173855e-02"/>
          <Range Index="8" Min="0.0000000000000000e+00" Max="1.8932830400000000e+08"/>
          <Range Index="9" Min="3.8948010683270695e-07" Max="5.4902561714698095e-06"/>
        </Ranges>
      </Class>
    </Transform>
  </Transformations>
  <MVAPdfs/>
  <Weights>
    <Layout NLayers="4">
      <Layer Index="0" NNeurons="10">
        <Neuron NSynapses="9">
          -5.6906439426565414e-01 7.6769711919064432e-01 4.8363508902471003e-01 1.0619785252830165e+00 -1.9917911343941466e+00 -7.6084119253229976e-01 1.1328768234081273e-01 1.0912974819443653e+00 -5.2279974820821606e-01 
        </Neuron>
        <Neuron NSynapses="9">
          -2.0848881568788107e+00 -2.1613162372317616e+00 1.6975362732087080e+00 1.6025986407507364e-02 5.8671349709930065e-01 -3.4839235601094320e-01 1.0378622510750866e+00 9.2489287196216019e-01 1.3699153847666545e+00 
        </Neuron>
        <Neuron NSynapses="9">
          3.4468711519567291e-01 8.4057854857138992e-01 7.9198608564245848e-02 -3.0983582868308790e-01 6.0330065422501533e-01 -8.2348494389633070e-02 -8.3355335187735399e-02 2.4536108568804613e-01 2.3532349055218669e+00 
        </Neuron>
        <Neuron NSynapses="9">
          -1.7000011796357439e+00 -7.1106787093616330e-01 -7.0922908902451853e-01 8.8703085616489086e-01 1.5833001866960617e+00 4.5821959528008982e-01 6.8334748000633372e-01 3.4383393858629024e-01 4.5842552453668145e-01 
        </Neuron>
        <Neuron NSynapses="9">
          -7.1374248175691413e-01 1.9929858425640394e+00 -1.7726777474538799e-01 6.8273562061398541e-01 1.4072697202753663e+00 4.9417647215827459e-01 1.7344671277557704e+00 9.7230660670494062e-01 -2.1821349976341348e-01 
        </Neuron>
        <Neuron NSynapses="9">
          -1.0602585628127217e+00 1.5486449758890315e+00 -1.1470434317962634e+00 1.4352903770420948e+00 3.1405186210402607e+00 9.5638246156630957e-01 1.7360993574490060e+00 -8.9732674352366903e-01 1.9737235106156128e+00 
        </Neuron>
        <Neuron NSynapses="9">
          -1.6000149996818978e+00 -8.8852037283480456e-01 7.5843877845995986e-02 -7.8875928501923953e-01 7.1455239136357429e-01 2.2711486265126976e-01 4.6804899149943312e-02 7.3769152174945984e-01 3.8144791099873682e-01 
        </Neuron>
        <Neuron NSynapses="9">
          -1.3899558683057223e-01 1.7747332134300422e+00 -3.3210483869284624e-01 4.3296486410433460e-01 2.4656755477923137e-01 3.7907548610538945e-02 8.9859968189750750e-01 6.8725187339694005e-01 -3.5292176157495708e-01 
        </Neuron>
        <Neuron NSynapses="9">
          5.0535519447552879e-01 1.4095814417596508e+00 -8.2590375708397756e-01 -2.6444880150438560e-01 7.0351427352800491e-02 1.5384484448182253e-01 -1.9820432060530585e-01 -1.2988283020726926e-01 1.1122007712903441e+00 
        </Neuron>
        <Neuron NSynapses="9">
          2.1084543541567919e+00 8.6556643788002463e-01 -3.4502024364064874e+00 -2.7340233122935169e+00 -1.8589747697919519e+00 4.6350829562134105e-01 -3.5214394237372995e+00 -3.5386365248267033e+00 -2.9524789806639369e+00 
        </Neuron>
      </Layer>
      <Layer Index="1" NNeurons="10">
        <Neuron NSynapses="9">
          5.5860397966102149e-01 -4.9566223176112666e-02 2.3130544393715313e+00 -9.1793252456001129e-01 -1.2283864935207189e+00 1.7819472984472349e+00 -7.6888938542149829e-02 -1.0191737516960182e+00 -2.4104871297125881e+00 
        </Neuron>
        <Neuron NSynapses="9">
          1.0478583370123309e+00 -2.0953549795974746e+00 -1.1781855572839588e+00 -2.7243030398100243e-01 6.3406414802412836e-01 2.5340350067935496e-01 2.2565492382542236e+00 -1.2645674136750662e-01 -3.8901619927517939e-01 
        </Neuron>
        <Neuron NSynapses="9">
          -1.5725542236863479e+00 -5.0801467076736061e-03 -7.9612190335693034e-01 3.9440074149585957e-01 1.9046009984873842e+00 -2.3947060376543833e-01 -2.0601728523983760e+00 1.8756130474838499e+00 5.5834925179250199e-02 
        </Neuron>
        <Neuron NSynapses="9">
          4.7538473327843223e-01 7.6020724589930833e-01 -2.2570139234455155e-01 -2.2804201698109048e+00 1.0864959731136556e+00 -9.0053026903209110e-01 7.9430175732950048e-01 -2.5794732413891575e-03 1.1809255338885396e+00 
        </Neuron>
        <Neuron NSynapses="9">
          -3.5057230315678006e-01 3.6037594694969294e-01 -2.6440222974842937e+00 -9.7890153580126565e-02 -2.7976513242471079e-01 -1.1487556149356577e+00 2.0015822805525890e-01 -1.5819472161628692e+00 6.2193860163935311e-01 
        </Neuron>
        <Neuron NSynapses="9">
          1.6414633998940811e+00 2.1525109250863590e+00 -1.7830587953815606e+00 -5.4133059858486876e-01 6.1545072515331711e-01 2.4868056487027288e+00 -7.2174590649872861e-01 -5.3209770192038763e-01 -1.5265851847737016e-01 
        </Neuron>
        <Neuron NSynapses="9">
          -5.0765182530568605e-03 1.2352020701811199e+00 2.0921090781668486e-01 -1.0698440410379468e+00 -2.2017978116040698e-01 1.5666975385648918e-01 -1.8639793710132693e+00 -1.3114411947450488e-01 7.9465009257283192e-01 
        </Neuron>
        <Neuron NSynapses="9">
          -9.8613465248507592e-01 -6.6743490319168419e-01 6.6019622097424777e-02 4.5978791466983265e-01 8.0160158836354212e-01 5.6695984296637891e-01 -1.0448350728021807e+00 1.3647588894187335e+00 1.9146175583565157e+00 
        </Neuron>
        <Neuron NSynapses="9">
          -1.2594900779686176e+00 3.4434826982435313e-01 6.2112851554959658e-01 -6.7204677343698338e-01 3.8345554429166512e-01 5.3614463331070061e-01 -1.2146481069428205e+00 -1.3838982775808322e+00 5.4336120021979828e-01 
        </Neuron>
        <Neuron NSynapses="9">
          3.0904293979908273e+00 -1.1901618921829672e-01 2.1325848659438815e+00 2.6032940289412263e+00 -2.8340002934362016e+00 1.1578538604638511e+00 8.0935175455316355e-01 1.0102123758980526e+00 -2.9733107155542875e+00 
        </Neuron>
      </Layer>
      <Layer Index="2" NNeurons="10">
        <Neuron NSynapses="1">
          1.0216781722443968e+00 
        </Neuron>
        <Neuron NSynapses="1">
          8.3804614106015114e-04 
        </Neuron>
        <Neuron NSynapses="1">
          -2.9874800335264146e-02 
        </Neuron>
        <Neuron NSynapses="1">
          1.3424269431385125e-01 
        </Neuron>
        <Neuron NSynapses="1">
          -1.7935406805226985e+00 
        </Neuron>
        <Neuron NSynapses="1">
          4.4920005947457536e-01 
        </Neuron>
        <Neuron NSynapses="1">
          4.3294006793331941e-01 
        </Neuron>
        <Neuron NSynapses="1">
          -9.9095376076039049e-02 
        </Neuron>
        <Neuron NSynapses="1">
          2.2544988656837135e+00 
        </Neuron>
        <Neuron NSynapses="1">
          -1.7793519502490160e+00 
        </Neuron>
      </Layer>
      <Layer Index="3" NNeurons="1">
        <Neuron NSynapses="0"/>
      </Layer>
    </Layout>
  </Weights>
</MethodSetup>
