<?xml version="1.0"?>
<MethodSetup Method="MLP::XS_63_157_0_cap">
  <GeneralInfo>
    <Info name="TMVA Release" value="4.2.0 [262656]"/>
    <Info name="ROOT Release" value="5.34/14 [336398]"/>
    <Info name="Creator" value="courtin"/>
    <Info name="Date" value="Mon Oct  3 15:51:36 2016"/>
    <Info name="Host" value="Linux nansl3.in2p3.fr 2.6.32-431.20.3.el6.x86_64 #1 SMP Thu Jun 19 14:01:59 CDT 2014 x86_64 x86_64 x86_64 GNU/Linux"/>
    <Info name="Dir" value="/scratch/spallati/courtin/WORK/MOxEUS/BdD_MOxEUS/MOxEUS_NN/XSM/MLP/Train"/>
    <Info name="Training events" value="77710"/>
    <Info name="TrainingTime" value="3.19764675e+03"/>
    <Info name="AnalysisType" value="Regression"/>
  </GeneralInfo>
  <Options>
    <Option name="NCycles" modified="Yes">20000</Option>
    <Option name="HiddenLayers" modified="Yes">N,N</Option>
    <Option name="NeuronType" modified="Yes">tanh</Option>
    <Option name="RandomSeed" modified="No">1</Option>
    <Option name="EstimatorType" modified="No">MSE</Option>
    <Option name="NeuronInputType" modified="No">sum</Option>
    <Option name="V" modified="Yes">False</Option>
    <Option name="VerbosityLevel" modified="No">Default</Option>
    <Option name="VarTransform" modified="Yes">Norm</Option>
    <Option name="H" modified="Yes">False</Option>
    <Option name="CreateMVAPdfs" modified="No">False</Option>
    <Option name="IgnoreNegWeightsInTraining" modified="No">False</Option>
    <Option name="TrainingMethod" modified="Yes">BFGS</Option>
    <Option name="LearningRate" modified="No">2.000000e-02</Option>
    <Option name="DecayRate" modified="No">1.000000e-02</Option>
    <Option name="TestRate" modified="Yes">6</Option>
    <Option name="EpochMonitoring" modified="No">False</Option>
    <Option name="Sampling" modified="Yes">3.000000e-01</Option>
    <Option name="SamplingEpoch" modified="Yes">8.000000e-01</Option>
    <Option name="SamplingImportance" modified="No">1.000000e+00</Option>
    <Option name="SamplingTraining" modified="No">True</Option>
    <Option name="SamplingTesting" modified="No">False</Option>
    <Option name="ResetStep" modified="No">50</Option>
    <Option name="Tau" modified="No">3.000000e+00</Option>
    <Option name="BPMode" modified="No">sequential</Option>
    <Option name="BatchSize" modified="No">-1</Option>
    <Option name="ConvergenceImprove" modified="Yes">1.000000e-06</Option>
    <Option name="ConvergenceTests" modified="Yes">15</Option>
    <Option name="UseRegulator" modified="Yes">False</Option>
    <Option name="UpdateLimit" modified="No">10000</Option>
    <Option name="CalculateErrors" modified="No">False</Option>
    <Option name="WeightRange" modified="No">1.000000e+00</Option>
  </Options>
  <Variables NVar="9">
    <Variable VarIndex="0" Expression="U5" Label="U5" Title="U 235" Unit="FractionIsotopic" Internal="U5" Type="F" Min="2.30270298e-03" Max="5.00135981e-02"/>
    <Variable VarIndex="1" Expression="U8" Label="U8" Title="U 238" Unit="FractionIsotopic" Internal="U8" Type="F" Min="8.04198325e-01" Max="9.91633654e-01"/>
    <Variable VarIndex="2" Expression="Pu8" Label="Pu8" Title="Pu 238" Unit="FractionIsotopic" Internal="Pu8" Type="F" Min="2.42847864e-06" Max="1.25759691e-02"/>
    <Variable VarIndex="3" Expression="Pu9" Label="Pu9" Title="Pu 239" Unit="FractionIsotopic" Internal="Pu9" Type="F" Min="2.72685829e-05" Max="1.18448287e-01"/>
    <Variable VarIndex="4" Expression="Pu10" Label="Pu10" Title="Pu 240" Unit="FractionIsotopic" Internal="Pu10" Type="F" Min="1.36823164e-05" Max="6.08281456e-02"/>
    <Variable VarIndex="5" Expression="Pu11" Label="Pu11" Title="Pu 241" Unit="FractionIsotopic" Internal="Pu11" Type="F" Min="5.21284107e-07" Max="3.61828022e-02"/>
    <Variable VarIndex="6" Expression="Pu12" Label="Pu12" Title="Pu 242" Unit="FractionIsotopic" Internal="Pu12" Type="F" Min="1.39559679e-05" Max="5.31211868e-02"/>
    <Variable VarIndex="7" Expression="Am1" Label="Am1" Title="Am 241" Unit="FractionIsotopic" Internal="Am1" Type="F" Min="1.16816601e-07" Max="1.22549152e-02"/>
    <Variable VarIndex="8" Expression="Time" Label="Time" Title="Time" Unit="seconds" Internal="Time" Type="F" Min="0.00000000e+00" Max="1.89328304e+08"/>
  </Variables>
  <Spectators NSpec="0"/>
  <Classes NClass="1">
    <Class Name="Regression" Index="0"/>
  </Classes>
  <Targets NTrgt="1">
    <Target TargetIndex="0" Expression="XS_63_157_0_cap" Label="XS_63_157_0_cap" Title="XS_63_157_0_cap" Unit="" Internal="XS_63_157_0_cap" Type="F" Min="2.23605309e+01" Max="5.62434196e+01"/>
  </Targets>
  <Transformations NTransformations="1">
    <Transform Name="Normalize">
      <Selection>
        <Input NInputs="10">
          <Input Type="Variable" Label="U5" Expression="U5"/>
          <Input Type="Variable" Label="U8" Expression="U8"/>
          <Input Type="Variable" Label="Pu8" Expression="Pu8"/>
          <Input Type="Variable" Label="Pu9" Expression="Pu9"/>
          <Input Type="Variable" Label="Pu10" Expression="Pu10"/>
          <Input Type="Variable" Label="Pu11" Expression="Pu11"/>
          <Input Type="Variable" Label="Pu12" Expression="Pu12"/>
          <Input Type="Variable" Label="Am1" Expression="Am1"/>
          <Input Type="Variable" Label="Time" Expression="Time"/>
          <Input Type="Target" Label="XS_63_157_0_cap" Expression="XS_63_157_0_cap"/>
        </Input>
        <Output NOutputs="10">
          <Output Type="Variable" Label="U5" Expression="U5"/>
          <Output Type="Variable" Label="U8" Expression="U8"/>
          <Output Type="Variable" Label="Pu8" Expression="Pu8"/>
          <Output Type="Variable" Label="Pu9" Expression="Pu9"/>
          <Output Type="Variable" Label="Pu10" Expression="Pu10"/>
          <Output Type="Variable" Label="Pu11" Expression="Pu11"/>
          <Output Type="Variable" Label="Pu12" Expression="Pu12"/>
          <Output Type="Variable" Label="Am1" Expression="Am1"/>
          <Output Type="Variable" Label="Time" Expression="Time"/>
          <Output Type="Target" Label="XS_63_157_0_cap" Expression="XS_63_157_0_cap"/>
        </Output>
      </Selection>
      <Class ClassIndex="0">
        <Ranges>
          <Range Index="0" Min="2.3027029819786549e-03" Max="5.0013598054647446e-02"/>
          <Range Index="1" Min="8.0419832468032837e-01" Max="9.9163365364074707e-01"/>
          <Range Index="2" Min="2.4284786377393175e-06" Max="1.2575969099998474e-02"/>
          <Range Index="3" Min="2.7268582925898954e-05" Max="1.1844828724861145e-01"/>
          <Range Index="4" Min="1.3682316421181895e-05" Max="6.0828145593404770e-02"/>
          <Range Index="5" Min="5.2128410743534914e-07" Max="3.6182802170515060e-02"/>
          <Range Index="6" Min="1.3955967915535439e-05" Max="5.3121186792850494e-02"/>
          <Range Index="7" Min="1.1681660083695533e-07" Max="1.2254915200173855e-02"/>
          <Range Index="8" Min="0.0000000000000000e+00" Max="1.8932830400000000e+08"/>
          <Range Index="9" Min="2.2360530853271484e+01" Max="5.6243419647216797e+01"/>
        </Ranges>
      </Class>
    </Transform>
  </Transformations>
  <MVAPdfs/>
  <Weights>
    <Layout NLayers="4">
      <Layer Index="0" NNeurons="10">
        <Neuron NSynapses="9">
          -6.1751810004339569e-01 3.3478807013994488e-01 -3.6630763492557322e-01 7.5832454823191320e-01 1.7011687041927243e-01 -1.5297356718625366e-01 -8.3401602729215840e-01 1.1513952937732462e-01 -1.3487020240258968e-01 
        </Neuron>
        <Neuron NSynapses="9">
          -2.0173678300431912e+00 -2.0377959495084501e+00 -1.5817149667326729e+00 -5.7125260000255168e-02 -7.8898255283639795e-01 -1.4249680673147094e+00 7.8543920467387707e-01 -9.4020596090809549e-01 2.3935417828367855e+00 
        </Neuron>
        <Neuron NSynapses="9">
          6.5104844065219575e-02 -1.5247023470572366e-01 -1.7599174059499001e-01 3.3866915676400133e-01 2.4128977872996349e-01 4.1203800272586869e-02 -7.3012634377991437e-01 2.2240779957064898e-02 3.9628076755308944e-01 
        </Neuron>
        <Neuron NSynapses="9">
          -1.4397385569505523e+00 6.2641180047412010e-02 -6.2978883518591433e-01 8.0513796714310581e-01 2.1899457012667645e+00 7.0350129541891473e-02 -4.8512346584013821e-02 2.5801312292607714e-01 -1.7895666483154953e+00 
        </Neuron>
        <Neuron NSynapses="9">
          -7.3063811747311426e-03 -2.9825553856113118e-01 -7.9751462783895433e-01 1.0306052952815810e+00 2.2175468136827953e-01 3.3452702304485327e-01 1.9884453640858657e+00 1.6281264213970023e-01 -9.6734462507099372e-01 
        </Neuron>
        <Neuron NSynapses="9">
          -1.3423784619778325e+00 1.0470024732732615e+00 7.3262845206590835e-02 1.6518621679014613e+00 2.4086157319945005e-02 -7.5927732694120644e-03 1.6151681327053984e+00 1.6572792536332093e-01 6.3953073782793568e-01 
        </Neuron>
        <Neuron NSynapses="9">
          -2.0140078250463150e-01 -2.9752854570783949e-01 -6.1052501783701107e-01 -3.7628047171624984e-01 -1.5754142124907173e+00 3.5405383356548431e-01 -4.6231944329959618e-01 1.0964913335828279e-01 6.7379578961021369e-01 
        </Neuron>
        <Neuron NSynapses="9">
          -1.4159623246758246e-01 8.7594444547296924e-02 4.0210697950917043e-02 7.2346294169099490e-01 -2.0689491096426413e-01 5.0504283333342725e-02 -1.7090197620579584e-01 7.6234528139658406e-02 -1.0805040705331299e-01 
        </Neuron>
        <Neuron NSynapses="9">
          5.6729564038839975e-01 7.8180152103403033e-01 1.0592311672700390e+00 -9.7674554122292284e-02 -5.8157924835547214e-01 -1.0526496281240189e-01 -9.5624675750693361e-02 2.0180741589578201e-02 8.8612151047052190e-01 
        </Neuron>
        <Neuron NSynapses="9">
          1.0870558423863583e+00 1.3255812305807686e+00 1.3124257711668845e+00 -2.9085404632689649e+00 9.6163096757103861e-01 2.2632326709444821e+00 -1.9934915986603696e+00 -2.8524924250947076e-01 -1.8526975037262923e+00 
        </Neuron>
      </Layer>
      <Layer Index="1" NNeurons="10">
        <Neuron NSynapses="9">
          5.6374023287965636e-01 -1.3270975216167410e-01 1.3428502411458387e+00 -1.6587638438357069e+00 -7.1267328125066942e-01 2.0279117919716692e+00 -5.6076350034140099e-01 -1.7654654961781351e+00 -1.5698634697284253e+00 
        </Neuron>
        <Neuron NSynapses="9">
          4.4768674053822616e-01 -1.5035598237953967e+00 -1.8149109460991342e+00 3.0100573477150862e-02 6.0898345430036853e-02 -8.5398518693813330e-01 7.9883809215509916e-01 -1.1703939043969577e-01 -7.3640142718195933e-01 
        </Neuron>
        <Neuron NSynapses="9">
          2.9882129901729337e-01 3.6629273823541469e-01 -1.7509499626185818e+00 1.6755106053660354e+00 5.8927377692026806e-01 9.4461039301079061e-02 -1.6854010453232831e+00 1.9387648585742587e+00 3.0084135332366352e-01 
        </Neuron>
        <Neuron NSynapses="9">
          -7.7141596396279821e-01 8.3061561850277099e-01 -1.3178631079146526e+00 -5.6366658736389874e-01 -1.9184667511626591e-02 -7.6818763831034820e-01 1.2346393902199686e+00 1.0079872863176866e+00 9.5993685568293297e-02 
        </Neuron>
        <Neuron NSynapses="9">
          -8.0082496746957466e-01 1.3019581042932027e-01 -1.3047580892443258e+00 2.3934496078219566e-01 6.1278950114043843e-02 -1.7811570771261442e+00 1.1051853268344691e+00 -1.0868184398343803e+00 8.8936348911548224e-02 
        </Neuron>
        <Neuron NSynapses="9">
          9.4873648270158251e-01 1.6776500630292057e+00 -1.5766887476071163e+00 1.1969004256276135e+00 1.9209636007809847e+00 1.7171266186938023e+00 3.2305761953717149e-01 -2.1166180539944066e+00 -4.4609684099549818e-01 
        </Neuron>
        <Neuron NSynapses="9">
          -8.8824046598590523e-01 1.3669847442738738e+00 8.2788281672478214e-01 -3.5730164607254006e-01 -2.2192617473904122e-02 1.5716967736344856e-01 -1.4067830495514733e+00 7.4232235843612382e-01 1.7678513716236750e+00 
        </Neuron>
        <Neuron NSynapses="9">
          -8.9724259393784567e-01 -4.5150211879820734e-01 1.2310767436669222e-01 1.9971789117156795e+00 3.1767155462329311e-01 4.3189125630168496e-01 -1.4413385404335295e+00 4.4749283846231463e-01 8.9991512306278998e-01 
        </Neuron>
        <Neuron NSynapses="9">
          -1.1065831901178587e-01 1.7903676517927250e-01 1.0676805208885061e+00 -1.9390030671438643e-02 -8.5079733302047350e-02 6.1270656283819602e-01 -7.2159204442924940e-01 6.5788277226654790e-01 1.3847753079310303e+00 
        </Neuron>
        <Neuron NSynapses="9">
          2.1288253251531408e+00 -2.2296184820055318e-01 1.2803105600628621e+00 1.8855483204251682e+00 -2.1739563522850829e+00 1.2066623190166355e+00 2.5561465939994144e-01 2.1079358890707198e-01 -1.8318438879641255e+00 
        </Neuron>
      </Layer>
      <Layer Index="2" NNeurons="10">
        <Neuron NSynapses="1">
          2.4320101450868636e-01 
        </Neuron>
        <Neuron NSynapses="1">
          5.5188188229207211e-03 
        </Neuron>
        <Neuron NSynapses="1">
          6.7257453083933126e-03 
        </Neuron>
        <Neuron NSynapses="1">
          -3.2139021934220073e+00 
        </Neuron>
        <Neuron NSynapses="1">
          -6.7968905455874107e-01 
        </Neuron>
        <Neuron NSynapses="1">
          5.1848854635811970e-01 
        </Neuron>
        <Neuron NSynapses="1">
          1.5985472915108434e-02 
        </Neuron>
        <Neuron NSynapses="1">
          -1.0882445015597826e+00 
        </Neuron>
        <Neuron NSynapses="1">
          -5.9360403747347956e-01 
        </Neuron>
        <Neuron NSynapses="1">
          -1.2423094406521266e-01 
        </Neuron>
      </Layer>
      <Layer Index="3" NNeurons="1">
        <Neuron NSynapses="0"/>
      </Layer>
    </Layout>
  </Weights>
</MethodSetup>
