<?xml version="1.0"?>
<MethodSetup Method="MLP::XS_20_44_0_n2n">
  <GeneralInfo>
    <Info name="TMVA Release" value="4.2.0 [262656]"/>
    <Info name="ROOT Release" value="5.34/14 [336398]"/>
    <Info name="Creator" value="courtin"/>
    <Info name="Date" value="Mon Oct  3 16:57:38 2016"/>
    <Info name="Host" value="Linux nansl3.in2p3.fr 2.6.32-431.20.3.el6.x86_64 #1 SMP Thu Jun 19 14:01:59 CDT 2014 x86_64 x86_64 x86_64 GNU/Linux"/>
    <Info name="Dir" value="/scratch/spallati/courtin/WORK/MOxEUS/BdD_MOxEUS/MOxEUS_NN/XSM/MLP/Train"/>
    <Info name="Training events" value="77710"/>
    <Info name="TrainingTime" value="7.97800244e+02"/>
    <Info name="AnalysisType" value="Regression"/>
  </GeneralInfo>
  <Options>
    <Option name="NCycles" modified="Yes">20000</Option>
    <Option name="HiddenLayers" modified="Yes">N,N</Option>
    <Option name="NeuronType" modified="Yes">tanh</Option>
    <Option name="RandomSeed" modified="No">1</Option>
    <Option name="EstimatorType" modified="No">MSE</Option>
    <Option name="NeuronInputType" modified="No">sum</Option>
    <Option name="V" modified="Yes">False</Option>
    <Option name="VerbosityLevel" modified="No">Default</Option>
    <Option name="VarTransform" modified="Yes">Norm</Option>
    <Option name="H" modified="Yes">False</Option>
    <Option name="CreateMVAPdfs" modified="No">False</Option>
    <Option name="IgnoreNegWeightsInTraining" modified="No">False</Option>
    <Option name="TrainingMethod" modified="Yes">BFGS</Option>
    <Option name="LearningRate" modified="No">2.000000e-02</Option>
    <Option name="DecayRate" modified="No">1.000000e-02</Option>
    <Option name="TestRate" modified="Yes">6</Option>
    <Option name="EpochMonitoring" modified="No">False</Option>
    <Option name="Sampling" modified="Yes">3.000000e-01</Option>
    <Option name="SamplingEpoch" modified="Yes">8.000000e-01</Option>
    <Option name="SamplingImportance" modified="No">1.000000e+00</Option>
    <Option name="SamplingTraining" modified="No">True</Option>
    <Option name="SamplingTesting" modified="No">False</Option>
    <Option name="ResetStep" modified="No">50</Option>
    <Option name="Tau" modified="No">3.000000e+00</Option>
    <Option name="BPMode" modified="No">sequential</Option>
    <Option name="BatchSize" modified="No">-1</Option>
    <Option name="ConvergenceImprove" modified="Yes">1.000000e-06</Option>
    <Option name="ConvergenceTests" modified="Yes">15</Option>
    <Option name="UseRegulator" modified="Yes">False</Option>
    <Option name="UpdateLimit" modified="No">10000</Option>
    <Option name="CalculateErrors" modified="No">False</Option>
    <Option name="WeightRange" modified="No">1.000000e+00</Option>
  </Options>
  <Variables NVar="9">
    <Variable VarIndex="0" Expression="U5" Label="U5" Title="U 235" Unit="FractionIsotopic" Internal="U5" Type="F" Min="2.30270298e-03" Max="5.00135981e-02"/>
    <Variable VarIndex="1" Expression="U8" Label="U8" Title="U 238" Unit="FractionIsotopic" Internal="U8" Type="F" Min="8.04198325e-01" Max="9.91633654e-01"/>
    <Variable VarIndex="2" Expression="Pu8" Label="Pu8" Title="Pu 238" Unit="FractionIsotopic" Internal="Pu8" Type="F" Min="2.42847864e-06" Max="1.25759691e-02"/>
    <Variable VarIndex="3" Expression="Pu9" Label="Pu9" Title="Pu 239" Unit="FractionIsotopic" Internal="Pu9" Type="F" Min="2.72685829e-05" Max="1.18448287e-01"/>
    <Variable VarIndex="4" Expression="Pu10" Label="Pu10" Title="Pu 240" Unit="FractionIsotopic" Internal="Pu10" Type="F" Min="1.36823164e-05" Max="6.08281456e-02"/>
    <Variable VarIndex="5" Expression="Pu11" Label="Pu11" Title="Pu 241" Unit="FractionIsotopic" Internal="Pu11" Type="F" Min="5.21284107e-07" Max="3.61828022e-02"/>
    <Variable VarIndex="6" Expression="Pu12" Label="Pu12" Title="Pu 242" Unit="FractionIsotopic" Internal="Pu12" Type="F" Min="1.39559679e-05" Max="5.31211868e-02"/>
    <Variable VarIndex="7" Expression="Am1" Label="Am1" Title="Am 241" Unit="FractionIsotopic" Internal="Am1" Type="F" Min="1.16816601e-07" Max="1.22549152e-02"/>
    <Variable VarIndex="8" Expression="Time" Label="Time" Title="Time" Unit="seconds" Internal="Time" Type="F" Min="0.00000000e+00" Max="1.89328304e+08"/>
  </Variables>
  <Spectators NSpec="0"/>
  <Classes NClass="1">
    <Class Name="Regression" Index="0"/>
  </Classes>
  <Targets NTrgt="1">
    <Target TargetIndex="0" Expression="XS_20_44_0_n2n" Label="XS_20_44_0_n2n" Title="XS_20_44_0_n2n" Unit="" Internal="XS_20_44_0_n2n" Type="F" Min="1.85998397e-05" Max="1.12680100e-04"/>
  </Targets>
  <Transformations NTransformations="1">
    <Transform Name="Normalize">
      <Selection>
        <Input NInputs="10">
          <Input Type="Variable" Label="U5" Expression="U5"/>
          <Input Type="Variable" Label="U8" Expression="U8"/>
          <Input Type="Variable" Label="Pu8" Expression="Pu8"/>
          <Input Type="Variable" Label="Pu9" Expression="Pu9"/>
          <Input Type="Variable" Label="Pu10" Expression="Pu10"/>
          <Input Type="Variable" Label="Pu11" Expression="Pu11"/>
          <Input Type="Variable" Label="Pu12" Expression="Pu12"/>
          <Input Type="Variable" Label="Am1" Expression="Am1"/>
          <Input Type="Variable" Label="Time" Expression="Time"/>
          <Input Type="Target" Label="XS_20_44_0_n2n" Expression="XS_20_44_0_n2n"/>
        </Input>
        <Output NOutputs="10">
          <Output Type="Variable" Label="U5" Expression="U5"/>
          <Output Type="Variable" Label="U8" Expression="U8"/>
          <Output Type="Variable" Label="Pu8" Expression="Pu8"/>
          <Output Type="Variable" Label="Pu9" Expression="Pu9"/>
          <Output Type="Variable" Label="Pu10" Expression="Pu10"/>
          <Output Type="Variable" Label="Pu11" Expression="Pu11"/>
          <Output Type="Variable" Label="Pu12" Expression="Pu12"/>
          <Output Type="Variable" Label="Am1" Expression="Am1"/>
          <Output Type="Variable" Label="Time" Expression="Time"/>
          <Output Type="Target" Label="XS_20_44_0_n2n" Expression="XS_20_44_0_n2n"/>
        </Output>
      </Selection>
      <Class ClassIndex="0">
        <Ranges>
          <Range Index="0" Min="2.3027029819786549e-03" Max="5.0013598054647446e-02"/>
          <Range Index="1" Min="8.0419832468032837e-01" Max="9.9163365364074707e-01"/>
          <Range Index="2" Min="2.4284786377393175e-06" Max="1.2575969099998474e-02"/>
          <Range Index="3" Min="2.7268582925898954e-05" Max="1.1844828724861145e-01"/>
          <Range Index="4" Min="1.3682316421181895e-05" Max="6.0828145593404770e-02"/>
          <Range Index="5" Min="5.2128410743534914e-07" Max="3.6182802170515060e-02"/>
          <Range Index="6" Min="1.3955967915535439e-05" Max="5.3121186792850494e-02"/>
          <Range Index="7" Min="1.1681660083695533e-07" Max="1.2254915200173855e-02"/>
          <Range Index="8" Min="0.0000000000000000e+00" Max="1.8932830400000000e+08"/>
          <Range Index="9" Min="1.8599839677335694e-05" Max="1.1268009984632954e-04"/>
        </Ranges>
      </Class>
    </Transform>
  </Transformations>
  <MVAPdfs/>
  <Weights>
    <Layout NLayers="4">
      <Layer Index="0" NNeurons="10">
        <Neuron NSynapses="9">
          -5.6648440450048132e-01 1.0818245771802750e+00 7.4121493790808324e-01 -1.0511244281628304e-01 -2.7163964767644084e+00 -1.1809071907668356e+00 -1.0478917279675180e-01 9.2035388006442909e-01 -7.1094471052162655e-01 
        </Neuron>
        <Neuron NSynapses="9">
          -1.9716800665355543e+00 -1.4416035305525003e+00 1.8124510973127168e+00 -3.8015315641457381e-01 8.8212002907265580e-02 -9.6151119671997698e-01 9.2349262062101067e-01 1.5282611271812783e+00 1.6386042094199906e+00 
        </Neuron>
        <Neuron NSynapses="9">
          3.1743899472001658e-01 3.1157968982830248e-01 -3.8959947784511534e-02 -3.7266367570090181e-01 7.8376546416133097e-01 1.5506668674380941e-01 -2.6523377949164989e-01 2.3354275467885002e-01 1.9376312289721418e+00 
        </Neuron>
        <Neuron NSynapses="9">
          -1.6630173646366704e+00 -1.9244157047686823e+00 -7.9340217475882346e-01 6.7361222023477185e-01 1.6803140042233966e+00 7.3691333341977638e-01 5.3270481575918260e-01 -4.3250823514718878e-01 2.2036114350722236e-01 
        </Neuron>
        <Neuron NSynapses="9">
          -7.8341384562565752e-01 8.4184336950622796e-01 -1.2360212748688126e+00 1.3088111610050195e+00 1.1998333631833764e+00 1.3574413396118015e+00 1.8500461031784798e+00 -5.1934770417875649e-02 -5.7752603440126238e-01 
        </Neuron>
        <Neuron NSynapses="9">
          -1.1256929894269716e+00 3.8032441825504165e-01 -3.6263387898628408e-01 1.8485203606041682e+00 1.3394455896199091e+00 1.5237568662412992e+00 1.7686100846202155e+00 -1.5692140607897858e+00 1.7284350044650563e+00 
        </Neuron>
        <Neuron NSynapses="9">
          -1.6059177611377045e+00 -1.7591506520624096e+00 -1.8384439890975082e-01 -2.6425498577358253e-01 1.9797788390967690e+00 3.5470544072231974e-01 -2.5707887344181379e-01 3.6638522343042274e-01 2.2659351817462745e-01 
        </Neuron>
        <Neuron NSynapses="9">
          -7.0927846220110141e-02 1.1309176014528368e+00 -1.5871133939955087e-01 4.2567220121401184e-01 -6.0145537208246025e-01 2.1030962373323983e-01 6.1088395300199239e-01 -4.2939765884784731e-01 -5.1749376977959261e-01 
        </Neuron>
        <Neuron NSynapses="9">
          5.2608869015911952e-01 2.0243969384155385e+00 -2.4752167929053817e-01 3.7477791691680623e-01 -9.4185431805009223e-01 1.9892540062855379e-01 -1.2395011786304043e-01 -8.5830100397074616e-01 1.2701516953444976e+00 
        </Neuron>
        <Neuron NSynapses="9">
          1.9722040866820785e+00 2.0437782945988512e+00 -3.2715709203920165e+00 -2.2029272599772831e+00 -9.0406230551484779e-01 5.8395129772589771e-01 -3.0735654581134995e+00 -2.7820259218035472e+00 -2.7194615433810618e+00 
        </Neuron>
      </Layer>
      <Layer Index="1" NNeurons="10">
        <Neuron NSynapses="9">
          5.2730942688931792e-01 -4.2184009744592750e-02 2.2883503854609724e+00 -1.5763761609483187e+00 -4.7319677975715135e-01 1.9081659328992056e+00 -6.8939467122164955e-01 -2.0216578128761218e+00 -2.3097119408597737e+00 
        </Neuron>
        <Neuron NSynapses="9">
          5.7220451509037884e-01 -1.5891764210619355e+00 -1.2500371026846195e+00 -2.6564700425057760e-03 1.2747451972258292e+00 -7.9267538909775137e-01 2.5852542622711558e+00 -4.8254387303197632e-01 -4.3811518146455214e-01 
        </Neuron>
        <Neuron NSynapses="9">
          -7.7060323038069611e-01 1.1088764156942763e-01 -1.0701883897839610e+00 1.1694332422435190e+00 1.7890795301282982e+00 1.2916725812668831e-01 -1.2682230615597243e+00 8.4557943486513942e-01 1.5783827776866952e-01 
        </Neuron>
        <Neuron NSynapses="9">
          1.5071717830330594e-01 7.5330131471109485e-01 -1.3361288977052302e-01 -1.4363717123735038e+00 3.8829363772793535e-01 -9.1854970365630029e-01 1.4393154958857781e+00 1.3078897399516609e+00 1.0729132146447677e+00 
        </Neuron>
        <Neuron NSynapses="9">
          -6.0309837995438420e-01 4.1739649901659065e-01 -2.3319577829845550e+00 2.6823257863339132e-02 -8.3859780239667447e-01 -1.3643453239411909e+00 8.6973857402524102e-01 -8.9827765346598221e-01 5.5809071443699665e-01 
        </Neuron>
        <Neuron NSynapses="9">
          1.4028100134379102e+00 2.1321116907822044e+00 -1.6878688518700369e+00 -2.8213681400793500e-01 3.5207136313475978e-01 2.1059093756001390e+00 -2.3331217687359018e-01 -7.1488263267551722e-01 -2.2558831458548589e-01 
        </Neuron>
        <Neuron NSynapses="9">
          -4.3002825834989983e-01 1.3301643688899003e+00 3.6914689218663049e-01 -3.5047047277804833e-01 -8.3094559389138312e-01 -2.5959545073196068e-02 -1.2369763497329893e+00 8.1267643777057119e-01 8.3804262585284028e-01 
        </Neuron>
        <Neuron NSynapses="9">
          -3.2688725230944177e-01 -7.0075494104669400e-01 2.4325618357903700e-02 1.1845261338369211e+00 6.9522705228699844e-01 3.7805826064618503e-01 -7.8571990796901592e-01 1.5807629050004142e+00 1.8137137904806357e+00 
        </Neuron>
        <Neuron NSynapses="9">
          -8.4849407319672676e-01 4.6103269733461905e-01 4.5907285945977633e-01 -6.2598339203717629e-02 -4.3730254080307041e-01 4.2601005279671456e-01 -6.4449854522172256e-01 -5.5880470496115875e-01 6.3753542821482612e-01 
        </Neuron>
        <Neuron NSynapses="9">
          2.7444124305743016e+00 -1.1349182399318197e-01 2.1362135861174476e+00 1.8778383992764283e+00 -1.9432547708497714e+00 1.2304436707257842e+00 1.8746984317378815e-01 -3.3870904314150102e-03 -2.8647521019818272e+00 
        </Neuron>
      </Layer>
      <Layer Index="2" NNeurons="10">
        <Neuron NSynapses="1">
          1.3962150554058179e+00 
        </Neuron>
        <Neuron NSynapses="1">
          -7.4148759940025500e-04 
        </Neuron>
        <Neuron NSynapses="1">
          -3.2766802347552540e-02 
        </Neuron>
        <Neuron NSynapses="1">
          -1.4329273356596922e-01 
        </Neuron>
        <Neuron NSynapses="1">
          -2.8014377421648116e-02 
        </Neuron>
        <Neuron NSynapses="1">
          2.3759714469826343e-01 
        </Neuron>
        <Neuron NSynapses="1">
          8.0812654295616404e-03 
        </Neuron>
        <Neuron NSynapses="1">
          -2.5739047395806941e-01 
        </Neuron>
        <Neuron NSynapses="1">
          1.1732639749922473e+00 
        </Neuron>
        <Neuron NSynapses="1">
          -8.6627604786494838e-01 
        </Neuron>
      </Layer>
      <Layer Index="3" NNeurons="1">
        <Neuron NSynapses="0"/>
      </Layer>
    </Layout>
  </Weights>
</MethodSetup>
