<?xml version="1.0"?>
<MethodSetup Method="MLP::XS_56_135_0_n2n">
  <GeneralInfo>
    <Info name="TMVA Release" value="4.2.0 [262656]"/>
    <Info name="ROOT Release" value="5.34/14 [336398]"/>
    <Info name="Creator" value="courtin"/>
    <Info name="Date" value="Mon Oct  3 14:17:09 2016"/>
    <Info name="Host" value="Linux nansl3.in2p3.fr 2.6.32-431.20.3.el6.x86_64 #1 SMP Thu Jun 19 14:01:59 CDT 2014 x86_64 x86_64 x86_64 GNU/Linux"/>
    <Info name="Dir" value="/scratch/spallati/courtin/WORK/MOxEUS/BdD_MOxEUS/MOxEUS_NN/XSM/MLP/Train"/>
    <Info name="Training events" value="77710"/>
    <Info name="TrainingTime" value="8.14207746e+02"/>
    <Info name="AnalysisType" value="Regression"/>
  </GeneralInfo>
  <Options>
    <Option name="NCycles" modified="Yes">20000</Option>
    <Option name="HiddenLayers" modified="Yes">N,N</Option>
    <Option name="NeuronType" modified="Yes">tanh</Option>
    <Option name="RandomSeed" modified="No">1</Option>
    <Option name="EstimatorType" modified="No">MSE</Option>
    <Option name="NeuronInputType" modified="No">sum</Option>
    <Option name="V" modified="Yes">False</Option>
    <Option name="VerbosityLevel" modified="No">Default</Option>
    <Option name="VarTransform" modified="Yes">Norm</Option>
    <Option name="H" modified="Yes">False</Option>
    <Option name="CreateMVAPdfs" modified="No">False</Option>
    <Option name="IgnoreNegWeightsInTraining" modified="No">False</Option>
    <Option name="TrainingMethod" modified="Yes">BFGS</Option>
    <Option name="LearningRate" modified="No">2.000000e-02</Option>
    <Option name="DecayRate" modified="No">1.000000e-02</Option>
    <Option name="TestRate" modified="Yes">6</Option>
    <Option name="EpochMonitoring" modified="No">False</Option>
    <Option name="Sampling" modified="Yes">3.000000e-01</Option>
    <Option name="SamplingEpoch" modified="Yes">8.000000e-01</Option>
    <Option name="SamplingImportance" modified="No">1.000000e+00</Option>
    <Option name="SamplingTraining" modified="No">True</Option>
    <Option name="SamplingTesting" modified="No">False</Option>
    <Option name="ResetStep" modified="No">50</Option>
    <Option name="Tau" modified="No">3.000000e+00</Option>
    <Option name="BPMode" modified="No">sequential</Option>
    <Option name="BatchSize" modified="No">-1</Option>
    <Option name="ConvergenceImprove" modified="Yes">1.000000e-06</Option>
    <Option name="ConvergenceTests" modified="Yes">15</Option>
    <Option name="UseRegulator" modified="Yes">False</Option>
    <Option name="UpdateLimit" modified="No">10000</Option>
    <Option name="CalculateErrors" modified="No">False</Option>
    <Option name="WeightRange" modified="No">1.000000e+00</Option>
  </Options>
  <Variables NVar="9">
    <Variable VarIndex="0" Expression="U5" Label="U5" Title="U 235" Unit="FractionIsotopic" Internal="U5" Type="F" Min="2.30270298e-03" Max="5.00135981e-02"/>
    <Variable VarIndex="1" Expression="U8" Label="U8" Title="U 238" Unit="FractionIsotopic" Internal="U8" Type="F" Min="8.04198325e-01" Max="9.91633654e-01"/>
    <Variable VarIndex="2" Expression="Pu8" Label="Pu8" Title="Pu 238" Unit="FractionIsotopic" Internal="Pu8" Type="F" Min="2.42847864e-06" Max="1.25759691e-02"/>
    <Variable VarIndex="3" Expression="Pu9" Label="Pu9" Title="Pu 239" Unit="FractionIsotopic" Internal="Pu9" Type="F" Min="2.72685829e-05" Max="1.18448287e-01"/>
    <Variable VarIndex="4" Expression="Pu10" Label="Pu10" Title="Pu 240" Unit="FractionIsotopic" Internal="Pu10" Type="F" Min="1.36823164e-05" Max="6.08281456e-02"/>
    <Variable VarIndex="5" Expression="Pu11" Label="Pu11" Title="Pu 241" Unit="FractionIsotopic" Internal="Pu11" Type="F" Min="5.21284107e-07" Max="3.61828022e-02"/>
    <Variable VarIndex="6" Expression="Pu12" Label="Pu12" Title="Pu 242" Unit="FractionIsotopic" Internal="Pu12" Type="F" Min="1.39559679e-05" Max="5.31211868e-02"/>
    <Variable VarIndex="7" Expression="Am1" Label="Am1" Title="Am 241" Unit="FractionIsotopic" Internal="Am1" Type="F" Min="1.16816601e-07" Max="1.22549152e-02"/>
    <Variable VarIndex="8" Expression="Time" Label="Time" Title="Time" Unit="seconds" Internal="Time" Type="F" Min="0.00000000e+00" Max="1.89328304e+08"/>
  </Variables>
  <Spectators NSpec="0"/>
  <Classes NClass="1">
    <Class Name="Regression" Index="0"/>
  </Classes>
  <Targets NTrgt="1">
    <Target TargetIndex="0" Expression="XS_56_135_0_n2n" Label="XS_56_135_0_n2n" Title="XS_56_135_0_n2n" Unit="" Internal="XS_56_135_0_n2n" Type="F" Min="1.24925899e-03" Max="2.86407396e-03"/>
  </Targets>
  <Transformations NTransformations="1">
    <Transform Name="Normalize">
      <Selection>
        <Input NInputs="10">
          <Input Type="Variable" Label="U5" Expression="U5"/>
          <Input Type="Variable" Label="U8" Expression="U8"/>
          <Input Type="Variable" Label="Pu8" Expression="Pu8"/>
          <Input Type="Variable" Label="Pu9" Expression="Pu9"/>
          <Input Type="Variable" Label="Pu10" Expression="Pu10"/>
          <Input Type="Variable" Label="Pu11" Expression="Pu11"/>
          <Input Type="Variable" Label="Pu12" Expression="Pu12"/>
          <Input Type="Variable" Label="Am1" Expression="Am1"/>
          <Input Type="Variable" Label="Time" Expression="Time"/>
          <Input Type="Target" Label="XS_56_135_0_n2n" Expression="XS_56_135_0_n2n"/>
        </Input>
        <Output NOutputs="10">
          <Output Type="Variable" Label="U5" Expression="U5"/>
          <Output Type="Variable" Label="U8" Expression="U8"/>
          <Output Type="Variable" Label="Pu8" Expression="Pu8"/>
          <Output Type="Variable" Label="Pu9" Expression="Pu9"/>
          <Output Type="Variable" Label="Pu10" Expression="Pu10"/>
          <Output Type="Variable" Label="Pu11" Expression="Pu11"/>
          <Output Type="Variable" Label="Pu12" Expression="Pu12"/>
          <Output Type="Variable" Label="Am1" Expression="Am1"/>
          <Output Type="Variable" Label="Time" Expression="Time"/>
          <Output Type="Target" Label="XS_56_135_0_n2n" Expression="XS_56_135_0_n2n"/>
        </Output>
      </Selection>
      <Class ClassIndex="0">
        <Ranges>
          <Range Index="0" Min="2.3027029819786549e-03" Max="5.0013598054647446e-02"/>
          <Range Index="1" Min="8.0419832468032837e-01" Max="9.9163365364074707e-01"/>
          <Range Index="2" Min="2.4284786377393175e-06" Max="1.2575969099998474e-02"/>
          <Range Index="3" Min="2.7268582925898954e-05" Max="1.1844828724861145e-01"/>
          <Range Index="4" Min="1.3682316421181895e-05" Max="6.0828145593404770e-02"/>
          <Range Index="5" Min="5.2128410743534914e-07" Max="3.6182802170515060e-02"/>
          <Range Index="6" Min="1.3955967915535439e-05" Max="5.3121186792850494e-02"/>
          <Range Index="7" Min="1.1681660083695533e-07" Max="1.2254915200173855e-02"/>
          <Range Index="8" Min="0.0000000000000000e+00" Max="1.8932830400000000e+08"/>
          <Range Index="9" Min="1.2492589885368943e-03" Max="2.8640739619731903e-03"/>
        </Ranges>
      </Class>
    </Transform>
  </Transformations>
  <MVAPdfs/>
  <Weights>
    <Layout NLayers="4">
      <Layer Index="0" NNeurons="10">
        <Neuron NSynapses="9">
          -2.9291305956313518e-01 1.8012846744833648e+00 2.0851622961418995e-01 5.5218413402827438e-01 -2.6458712711339558e+00 -7.1472657987051846e-01 -6.2759112228716885e-01 1.1694475987404083e+00 -8.6211154189744343e-01 
        </Neuron>
        <Neuron NSynapses="9">
          -1.4589271688196919e+00 -2.0510281077002501e+00 1.0722646966558036e+00 -1.8966209624541035e+00 -5.5286067326591892e-01 -1.0786954116595220e+00 4.1664021255160510e-01 5.8979761779519568e-01 1.7624924371260435e+00 
        </Neuron>
        <Neuron NSynapses="9">
          3.2647240854221182e-01 4.5658332071402852e-01 3.7609885365072336e-02 -2.2309874520705017e-01 5.6049247326344664e-01 9.7309437292378204e-02 -1.9830081533017591e-01 3.4451475198152043e-01 1.4068233638044978e+00 
        </Neuron>
        <Neuron NSynapses="9">
          -1.4571752550640047e+00 -9.9269236463195221e-01 -5.3367727480538174e-01 1.0789572098770990e+00 2.6976250460901467e+00 9.8440470590464280e-01 2.4466970469416785e-01 8.7085621014920359e-02 -2.7776404982266206e-01 
        </Neuron>
        <Neuron NSynapses="9">
          -1.1528657830228324e+00 1.3828727132636385e+00 -1.6919697080671076e-01 1.0455799040557219e+00 7.3359956238935997e-01 5.6028859151919019e-01 2.2544790670882366e+00 1.3792910603032955e+00 -8.7173681202246533e-01 
        </Neuron>
        <Neuron NSynapses="9">
          -1.5579413971480953e+00 6.1050461425665870e-01 -4.8335383662854203e-01 1.3877737088477300e+00 1.9646842333167924e+00 6.7760847881083264e-01 1.7077625091063875e+00 -7.8136266344399363e-01 1.4513841086778818e+00 
        </Neuron>
        <Neuron NSynapses="9">
          -1.6292686243876164e+00 -1.7807546216215184e+00 1.9230408061831483e-01 -9.8230175024589006e-01 1.0168033466277309e+00 4.0378870368084751e-03 -6.1188189060231890e-01 8.1333934807810249e-01 -3.0745649263926605e-01 
        </Neuron>
        <Neuron NSynapses="9">
          2.7803612905860764e-01 1.2896635986556295e+00 -9.6902235909625701e-03 1.0576050792764573e+00 3.0227562822695947e-01 1.2957322406295636e-02 1.1851634167912872e-01 3.5614497349562940e-01 -1.0018555575238128e+00 
        </Neuron>
        <Neuron NSynapses="9">
          5.9971861324732312e-01 1.6580925478379824e+00 -3.9484484915672718e-01 5.5816283462913985e-01 -1.2458127941006425e-01 9.1243792816401548e-02 4.0298550318547866e-01 -3.8309002513849694e-01 1.9047317254964962e+00 
        </Neuron>
        <Neuron NSynapses="9">
          1.2761139832512782e+00 1.5192232092173210e+00 -2.9176560863002452e+00 -3.2416429445471395e-01 -5.8681098334887782e-01 1.0872505802717791e+00 -1.9741542505593650e+00 -3.1196808609986166e+00 -1.9295297721359568e+00 
        </Neuron>
      </Layer>
      <Layer Index="1" NNeurons="10">
        <Neuron NSynapses="9">
          -6.2714233329240240e-02 6.6133606139081549e-02 1.6498299634447333e+00 -1.6467332953941272e+00 -1.0857797228886497e+00 1.1344520052715723e+00 -7.2221562473126222e-01 -1.5823436326389966e+00 -1.8524322730870759e+00 
        </Neuron>
        <Neuron NSynapses="9">
          1.4620162546622756e-01 -6.7498328818629794e-01 -1.1670241563421975e+00 -2.6230688138175190e-01 1.2336606639029108e+00 -1.3426264299582404e+00 1.0081405277140010e+00 4.5764371881081865e-02 -6.0540560817174860e-01 
        </Neuron>
        <Neuron NSynapses="9">
          2.3825329367675316e-01 -5.3559449938776690e-03 -8.8299533274254005e-01 1.2910345858722094e+00 1.1300799265663295e+00 -7.1322018806606091e-01 -8.4088893058510061e-01 2.0705448230429910e+00 1.7210939442517623e-01 
        </Neuron>
        <Neuron NSynapses="9">
          -6.5789992294687195e-03 -1.4393981176656201e-01 -9.5235421401119624e-01 -1.9588057683699860e+00 6.0135309347859700e-01 1.3904337880863329e-02 1.5793535494520086e+00 -2.6117740267531436e-01 3.9390542620560737e-01 
        </Neuron>
        <Neuron NSynapses="9">
          -5.2987752083956752e-01 7.4154068457705025e-01 -2.4415767345552641e+00 2.8460122384933673e-01 -7.6990976389987226e-02 -3.0359452991119823e-01 1.3239741277575734e+00 -1.4475355905285916e+00 3.0230648491185580e-01 
        </Neuron>
        <Neuron NSynapses="9">
          1.3128741813009319e+00 2.3673385198598833e+00 -2.1282282226172815e+00 -4.0514938496001440e-01 9.6629477460115809e-01 2.9022095473066676e+00 -3.6830213244190657e-01 -1.5507883340833035e+00 -1.1727271620948589e-01 
        </Neuron>
        <Neuron NSynapses="9">
          -8.0200481947331614e-01 1.2123242252417896e+00 7.6121233632559626e-01 -3.4475761010519301e-01 -2.6169490861639516e-01 7.4461408147001118e-01 -1.2423281614320494e+00 3.6253816367470793e-01 1.2950990852998379e+00 
        </Neuron>
        <Neuron NSynapses="9">
          -1.0106454157707094e+00 -7.0263852620518363e-01 4.2841707450081112e-01 1.3299029614966316e+00 5.6081394606164670e-01 -8.9331426514003123e-02 -7.5699698702819440e-01 1.0045992291810613e+00 1.0873210731396448e+00 
        </Neuron>
        <Neuron NSynapses="9">
          6.3598682656286465e-01 -8.5442458823361805e-03 1.0703545890598516e+00 1.1683575762490260e-01 -1.3908076243630901e-01 8.5550364866906425e-01 -1.0169940037184857e+00 -6.2293064330165550e-02 1.2520138720505671e+00 
        </Neuron>
        <Neuron NSynapses="9">
          1.2656883743202063e+00 -3.1957586555934475e-02 1.5888926577870157e+00 1.8076669987472398e+00 -2.3658415859232180e+00 3.5215000980996886e-01 1.2654462654922610e-01 4.2106012083555105e-01 -2.1765054050717887e+00 
        </Neuron>
      </Layer>
      <Layer Index="2" NNeurons="10">
        <Neuron NSynapses="1">
          -7.1565803927320149e-01 
        </Neuron>
        <Neuron NSynapses="1">
          6.7313797659387470e-02 
        </Neuron>
        <Neuron NSynapses="1">
          -1.5354376417809432e-02 
        </Neuron>
        <Neuron NSynapses="1">
          -5.4204986552962436e-02 
        </Neuron>
        <Neuron NSynapses="1">
          7.8553512247977153e-01 
        </Neuron>
        <Neuron NSynapses="1">
          1.4646178071318202e-02 
        </Neuron>
        <Neuron NSynapses="1">
          3.7644939506266871e-02 
        </Neuron>
        <Neuron NSynapses="1">
          -1.7044150772402629e+00 
        </Neuron>
        <Neuron NSynapses="1">
          -2.7532262931837148e-01 
        </Neuron>
        <Neuron NSynapses="1">
          -1.3510212010147463e-01 
        </Neuron>
      </Layer>
      <Layer Index="3" NNeurons="1">
        <Neuron NSynapses="0"/>
      </Layer>
    </Layout>
  </Weights>
</MethodSetup>
