<?xml version="1.0"?>
<MethodSetup Method="MLP::XS_89_225_0_cap">
  <GeneralInfo>
    <Info name="TMVA Release" value="4.2.0 [262656]"/>
    <Info name="ROOT Release" value="5.34/14 [336398]"/>
    <Info name="Creator" value="courtin"/>
    <Info name="Date" value="Mon Oct  3 17:04:16 2016"/>
    <Info name="Host" value="Linux nansl3.in2p3.fr 2.6.32-431.20.3.el6.x86_64 #1 SMP Thu Jun 19 14:01:59 CDT 2014 x86_64 x86_64 x86_64 GNU/Linux"/>
    <Info name="Dir" value="/scratch/spallati/courtin/WORK/MOxEUS/BdD_MOxEUS/MOxEUS_NN/XSM/MLP/Train"/>
    <Info name="Training events" value="77710"/>
    <Info name="TrainingTime" value="3.27777933e+03"/>
    <Info name="AnalysisType" value="Regression"/>
  </GeneralInfo>
  <Options>
    <Option name="NCycles" modified="Yes">20000</Option>
    <Option name="HiddenLayers" modified="Yes">N,N</Option>
    <Option name="NeuronType" modified="Yes">tanh</Option>
    <Option name="RandomSeed" modified="No">1</Option>
    <Option name="EstimatorType" modified="No">MSE</Option>
    <Option name="NeuronInputType" modified="No">sum</Option>
    <Option name="V" modified="Yes">False</Option>
    <Option name="VerbosityLevel" modified="No">Default</Option>
    <Option name="VarTransform" modified="Yes">Norm</Option>
    <Option name="H" modified="Yes">False</Option>
    <Option name="CreateMVAPdfs" modified="No">False</Option>
    <Option name="IgnoreNegWeightsInTraining" modified="No">False</Option>
    <Option name="TrainingMethod" modified="Yes">BFGS</Option>
    <Option name="LearningRate" modified="No">2.000000e-02</Option>
    <Option name="DecayRate" modified="No">1.000000e-02</Option>
    <Option name="TestRate" modified="Yes">6</Option>
    <Option name="EpochMonitoring" modified="No">False</Option>
    <Option name="Sampling" modified="Yes">3.000000e-01</Option>
    <Option name="SamplingEpoch" modified="Yes">8.000000e-01</Option>
    <Option name="SamplingImportance" modified="No">1.000000e+00</Option>
    <Option name="SamplingTraining" modified="No">True</Option>
    <Option name="SamplingTesting" modified="No">False</Option>
    <Option name="ResetStep" modified="No">50</Option>
    <Option name="Tau" modified="No">3.000000e+00</Option>
    <Option name="BPMode" modified="No">sequential</Option>
    <Option name="BatchSize" modified="No">-1</Option>
    <Option name="ConvergenceImprove" modified="Yes">1.000000e-06</Option>
    <Option name="ConvergenceTests" modified="Yes">15</Option>
    <Option name="UseRegulator" modified="Yes">False</Option>
    <Option name="UpdateLimit" modified="No">10000</Option>
    <Option name="CalculateErrors" modified="No">False</Option>
    <Option name="WeightRange" modified="No">1.000000e+00</Option>
  </Options>
  <Variables NVar="9">
    <Variable VarIndex="0" Expression="U5" Label="U5" Title="U 235" Unit="FractionIsotopic" Internal="U5" Type="F" Min="2.30270298e-03" Max="5.00135981e-02"/>
    <Variable VarIndex="1" Expression="U8" Label="U8" Title="U 238" Unit="FractionIsotopic" Internal="U8" Type="F" Min="8.04198325e-01" Max="9.91633654e-01"/>
    <Variable VarIndex="2" Expression="Pu8" Label="Pu8" Title="Pu 238" Unit="FractionIsotopic" Internal="Pu8" Type="F" Min="2.42847864e-06" Max="1.25759691e-02"/>
    <Variable VarIndex="3" Expression="Pu9" Label="Pu9" Title="Pu 239" Unit="FractionIsotopic" Internal="Pu9" Type="F" Min="2.72685829e-05" Max="1.18448287e-01"/>
    <Variable VarIndex="4" Expression="Pu10" Label="Pu10" Title="Pu 240" Unit="FractionIsotopic" Internal="Pu10" Type="F" Min="1.36823164e-05" Max="6.08281456e-02"/>
    <Variable VarIndex="5" Expression="Pu11" Label="Pu11" Title="Pu 241" Unit="FractionIsotopic" Internal="Pu11" Type="F" Min="5.21284107e-07" Max="3.61828022e-02"/>
    <Variable VarIndex="6" Expression="Pu12" Label="Pu12" Title="Pu 242" Unit="FractionIsotopic" Internal="Pu12" Type="F" Min="1.39559679e-05" Max="5.31211868e-02"/>
    <Variable VarIndex="7" Expression="Am1" Label="Am1" Title="Am 241" Unit="FractionIsotopic" Internal="Am1" Type="F" Min="1.16816601e-07" Max="1.22549152e-02"/>
    <Variable VarIndex="8" Expression="Time" Label="Time" Title="Time" Unit="seconds" Internal="Time" Type="F" Min="0.00000000e+00" Max="1.89328304e+08"/>
  </Variables>
  <Spectators NSpec="0"/>
  <Classes NClass="1">
    <Class Name="Regression" Index="0"/>
  </Classes>
  <Targets NTrgt="1">
    <Target TargetIndex="0" Expression="XS_89_225_0_cap" Label="XS_89_225_0_cap" Title="XS_89_225_0_cap" Unit="" Internal="XS_89_225_0_cap" Type="F" Min="2.94251308e+01" Max="1.79616104e+02"/>
  </Targets>
  <Transformations NTransformations="1">
    <Transform Name="Normalize">
      <Selection>
        <Input NInputs="10">
          <Input Type="Variable" Label="U5" Expression="U5"/>
          <Input Type="Variable" Label="U8" Expression="U8"/>
          <Input Type="Variable" Label="Pu8" Expression="Pu8"/>
          <Input Type="Variable" Label="Pu9" Expression="Pu9"/>
          <Input Type="Variable" Label="Pu10" Expression="Pu10"/>
          <Input Type="Variable" Label="Pu11" Expression="Pu11"/>
          <Input Type="Variable" Label="Pu12" Expression="Pu12"/>
          <Input Type="Variable" Label="Am1" Expression="Am1"/>
          <Input Type="Variable" Label="Time" Expression="Time"/>
          <Input Type="Target" Label="XS_89_225_0_cap" Expression="XS_89_225_0_cap"/>
        </Input>
        <Output NOutputs="10">
          <Output Type="Variable" Label="U5" Expression="U5"/>
          <Output Type="Variable" Label="U8" Expression="U8"/>
          <Output Type="Variable" Label="Pu8" Expression="Pu8"/>
          <Output Type="Variable" Label="Pu9" Expression="Pu9"/>
          <Output Type="Variable" Label="Pu10" Expression="Pu10"/>
          <Output Type="Variable" Label="Pu11" Expression="Pu11"/>
          <Output Type="Variable" Label="Pu12" Expression="Pu12"/>
          <Output Type="Variable" Label="Am1" Expression="Am1"/>
          <Output Type="Variable" Label="Time" Expression="Time"/>
          <Output Type="Target" Label="XS_89_225_0_cap" Expression="XS_89_225_0_cap"/>
        </Output>
      </Selection>
      <Class ClassIndex="0">
        <Ranges>
          <Range Index="0" Min="2.3027029819786549e-03" Max="5.0013598054647446e-02"/>
          <Range Index="1" Min="8.0419832468032837e-01" Max="9.9163365364074707e-01"/>
          <Range Index="2" Min="2.4284786377393175e-06" Max="1.2575969099998474e-02"/>
          <Range Index="3" Min="2.7268582925898954e-05" Max="1.1844828724861145e-01"/>
          <Range Index="4" Min="1.3682316421181895e-05" Max="6.0828145593404770e-02"/>
          <Range Index="5" Min="5.2128410743534914e-07" Max="3.6182802170515060e-02"/>
          <Range Index="6" Min="1.3955967915535439e-05" Max="5.3121186792850494e-02"/>
          <Range Index="7" Min="1.1681660083695533e-07" Max="1.2254915200173855e-02"/>
          <Range Index="8" Min="0.0000000000000000e+00" Max="1.8932830400000000e+08"/>
          <Range Index="9" Min="2.9425130844116211e+01" Max="1.7961610412597656e+02"/>
        </Ranges>
      </Class>
    </Transform>
  </Transformations>
  <MVAPdfs/>
  <Weights>
    <Layout NLayers="4">
      <Layer Index="0" NNeurons="10">
        <Neuron NSynapses="9">
          -9.8163216856914548e-01 -3.0566512099317888e-01 -4.0495927762291734e-01 3.5258336191120104e-01 2.7517001030033333e-01 -5.9379381772223565e-02 -3.6114785376658987e-01 4.4175025668552731e-01 -4.3741257690648355e-01 
        </Neuron>
        <Neuron NSynapses="9">
          -1.6269098720106163e+00 -2.9790720839309679e+00 -2.0909319114661247e+00 9.8210803798010282e-02 -1.0974558271228694e+00 -1.6806664325751943e+00 8.2653966562591186e-01 -1.4226392913727051e+00 2.0900504879626678e+00 
        </Neuron>
        <Neuron NSynapses="9">
          -9.9700703331598237e-02 4.8473210788430462e-02 -1.1335511081091623e-01 1.4983253864279683e-01 4.5820823619204004e-02 1.1223932116340715e-01 -3.0401935755523207e-01 2.7104422053174837e-01 6.5955138263907631e-01 
        </Neuron>
        <Neuron NSynapses="9">
          -1.8882062253318890e+00 -7.0670688291457340e-02 -4.0216846827749975e-01 9.5906461370157392e-01 1.5759531677964382e+00 4.1064788970601712e-01 3.9065816808355786e-01 1.7957822844228863e+00 -1.8840051924357351e+00 
        </Neuron>
        <Neuron NSynapses="9">
          -8.8010856277625971e-01 -9.5801596587310106e-02 -6.1622649387138440e-01 9.6947710301782808e-01 6.6610590010447257e-01 4.9910034699629574e-01 1.8707113297295157e+00 1.5092962676348602e+00 -1.3727360507746475e-01 
        </Neuron>
        <Neuron NSynapses="9">
          -1.0687082600013114e+00 1.1765166454454741e-01 8.9800459754888623e-02 1.4208489201410293e+00 5.3792769079395308e-01 -7.9518906510291816e-03 1.7592097764092609e+00 -3.6617863210859419e-01 7.8979380396237120e-01 
        </Neuron>
        <Neuron NSynapses="9">
          -6.4661310944415751e-01 -4.1606249704500731e-01 -5.1860883329803509e-01 -5.1242047400418467e-01 1.7797929274511602e-03 -9.4528771181210461e-02 -4.6056792604287133e-01 2.3750650770634069e-01 1.1808807986389658e+00 
        </Neuron>
        <Neuron NSynapses="9">
          -2.7793551419182544e-01 -2.5157597379537312e-02 -5.9801064862244617e-02 6.5697610087885561e-01 1.3227487023828574e-01 5.4764290392628590e-02 4.5050377422942746e-03 6.1643691625222374e-01 -6.0237628357236483e-01 
        </Neuron>
        <Neuron NSynapses="9">
          6.0903679596088212e-01 1.0223378365369369e+00 8.4475776666599600e-01 -1.0580926823235977e-01 -4.7672386553059087e-01 -2.5364694551840805e-01 5.2707504551524209e-01 -2.3510422332851832e-01 6.9431971626887534e-01 
        </Neuron>
        <Neuron NSynapses="9">
          1.5662258918898644e+00 3.0854737691692753e+00 1.6957479258172348e+00 -2.9473085356210684e+00 9.2237926559986616e-01 2.3765507076675259e+00 -2.6143449643308507e+00 -1.6017789340869175e+00 -1.8357236734884514e+00 
        </Neuron>
      </Layer>
      <Layer Index="1" NNeurons="10">
        <Neuron NSynapses="9">
          5.1383150385253040e-01 4.6523758096795903e-01 1.1918442848612785e+00 -1.5921844769439824e+00 -6.5463325963402608e-01 1.8184251930701607e+00 -5.5808425711526310e-01 -1.7091940731112132e+00 -1.5060018352373867e+00 
        </Neuron>
        <Neuron NSynapses="9">
          3.9558798548805513e-01 -2.0845518789481234e+00 -1.4916247722902114e+00 -5.9285835686542254e-01 -1.3138906654413858e+00 -6.8374256079480344e-01 6.4715168190381211e-01 -5.6360773380341178e-02 -7.9016964346423035e-01 
        </Neuron>
        <Neuron NSynapses="9">
          2.3568350492747356e-01 -3.2452753447438476e-01 -1.2527947583846994e+00 3.7147384462076758e+00 2.1450468818800243e+00 2.6455595239362428e-01 -1.7554787107378804e+00 1.8201130548442197e+00 3.5858795162747636e-01 
        </Neuron>
        <Neuron NSynapses="9">
          -8.0192778591944969e-01 2.6358256623502818e-01 -1.0370877879960667e+00 -7.4017811424436719e-01 1.5049887544121573e-01 -6.5236274742693701e-01 1.2234296809815408e+00 9.5750828600971416e-01 4.3210135982850964e-02 
        </Neuron>
        <Neuron NSynapses="9">
          -7.3906898253165287e-01 -7.7419127541603447e-02 -1.6357755288441185e+00 1.2896788715028387e+00 1.6932850287537798e-01 -2.2915810824805702e+00 6.8207371622402624e-01 -1.2527492098095099e+00 6.2495939819463858e-02 
        </Neuron>
        <Neuron NSynapses="9">
          9.8986780899827032e-01 1.7411006128645587e+00 -2.1651342495524095e+00 1.0663915436346152e+00 1.2166034030934547e+00 1.5267051552763167e+00 7.0649077646864700e-01 -2.3106509707661820e+00 -3.1944726665762802e-01 
        </Neuron>
        <Neuron NSynapses="9">
          -9.3296351595161864e-01 6.4619531452109236e-01 1.1237358174701233e+00 2.0909402470388641e-01 -2.6401489097926939e-01 4.6582721846958906e-02 -1.5255429889869772e+00 4.9543736688467099e-01 1.8172426859428867e+00 
        </Neuron>
        <Neuron NSynapses="9">
          -9.2030551847120579e-01 -2.1382736971491437e-01 1.9765071570334561e-01 1.4647837839660520e+00 1.0392817764029046e-01 8.5427729361525831e-03 -2.0009028384719154e+00 9.9818862475750814e-01 8.3231124297524262e-01 
        </Neuron>
        <Neuron NSynapses="9">
          -4.4112527537320416e-02 -3.6064550668993001e-01 1.2365026538809214e+00 -3.1540164552571179e-02 1.3681170693211567e-01 6.5872138390045432e-01 -5.2839563858600634e-02 1.5081002249442366e-01 1.4836717387203444e+00 
        </Neuron>
        <Neuron NSynapses="9">
          2.0429055067213593e+00 3.7016012481026400e-01 1.1310218700777210e+00 1.9960659350875640e+00 -2.3707106866897911e+00 1.0234784329422963e+00 2.9449765900324781e-01 2.9430392349682910e-01 -1.7807616224587643e+00 
        </Neuron>
      </Layer>
      <Layer Index="2" NNeurons="10">
        <Neuron NSynapses="1">
          2.1178070062659995e-01 
        </Neuron>
        <Neuron NSynapses="1">
          -2.1573805459622628e-01 
        </Neuron>
        <Neuron NSynapses="1">
          7.9706252886687290e-04 
        </Neuron>
        <Neuron NSynapses="1">
          -4.0454814275648925e+00 
        </Neuron>
        <Neuron NSynapses="1">
          -1.1352653186953441e+00 
        </Neuron>
        <Neuron NSynapses="1">
          4.1070634380415000e-01 
        </Neuron>
        <Neuron NSynapses="1">
          -9.9294801255833537e-03 
        </Neuron>
        <Neuron NSynapses="1">
          -7.3079473064640665e-01 
        </Neuron>
        <Neuron NSynapses="1">
          -8.7602751656898015e-01 
        </Neuron>
        <Neuron NSynapses="1">
          1.5389528790103394e-02 
        </Neuron>
      </Layer>
      <Layer Index="3" NNeurons="1">
        <Neuron NSynapses="0"/>
      </Layer>
    </Layout>
  </Weights>
</MethodSetup>
