<?xml version="1.0"?>
<MethodSetup Method="MLP::XS_50_117_0_n2n">
  <GeneralInfo>
    <Info name="TMVA Release" value="4.2.0 [262656]"/>
    <Info name="ROOT Release" value="5.34/14 [336398]"/>
    <Info name="Creator" value="courtin"/>
    <Info name="Date" value="Mon Oct  3 13:51:12 2016"/>
    <Info name="Host" value="Linux nansl3.in2p3.fr 2.6.32-431.20.3.el6.x86_64 #1 SMP Thu Jun 19 14:01:59 CDT 2014 x86_64 x86_64 x86_64 GNU/Linux"/>
    <Info name="Dir" value="/scratch/spallati/courtin/WORK/MOxEUS/BdD_MOxEUS/MOxEUS_NN/XSM/MLP/Train"/>
    <Info name="Training events" value="77710"/>
    <Info name="TrainingTime" value="8.52642801e+02"/>
    <Info name="AnalysisType" value="Regression"/>
  </GeneralInfo>
  <Options>
    <Option name="NCycles" modified="Yes">20000</Option>
    <Option name="HiddenLayers" modified="Yes">N,N</Option>
    <Option name="NeuronType" modified="Yes">tanh</Option>
    <Option name="RandomSeed" modified="No">1</Option>
    <Option name="EstimatorType" modified="No">MSE</Option>
    <Option name="NeuronInputType" modified="No">sum</Option>
    <Option name="V" modified="Yes">False</Option>
    <Option name="VerbosityLevel" modified="No">Default</Option>
    <Option name="VarTransform" modified="Yes">Norm</Option>
    <Option name="H" modified="Yes">False</Option>
    <Option name="CreateMVAPdfs" modified="No">False</Option>
    <Option name="IgnoreNegWeightsInTraining" modified="No">False</Option>
    <Option name="TrainingMethod" modified="Yes">BFGS</Option>
    <Option name="LearningRate" modified="No">2.000000e-02</Option>
    <Option name="DecayRate" modified="No">1.000000e-02</Option>
    <Option name="TestRate" modified="Yes">6</Option>
    <Option name="EpochMonitoring" modified="No">False</Option>
    <Option name="Sampling" modified="Yes">3.000000e-01</Option>
    <Option name="SamplingEpoch" modified="Yes">8.000000e-01</Option>
    <Option name="SamplingImportance" modified="No">1.000000e+00</Option>
    <Option name="SamplingTraining" modified="No">True</Option>
    <Option name="SamplingTesting" modified="No">False</Option>
    <Option name="ResetStep" modified="No">50</Option>
    <Option name="Tau" modified="No">3.000000e+00</Option>
    <Option name="BPMode" modified="No">sequential</Option>
    <Option name="BatchSize" modified="No">-1</Option>
    <Option name="ConvergenceImprove" modified="Yes">1.000000e-06</Option>
    <Option name="ConvergenceTests" modified="Yes">15</Option>
    <Option name="UseRegulator" modified="Yes">False</Option>
    <Option name="UpdateLimit" modified="No">10000</Option>
    <Option name="CalculateErrors" modified="No">False</Option>
    <Option name="WeightRange" modified="No">1.000000e+00</Option>
  </Options>
  <Variables NVar="9">
    <Variable VarIndex="0" Expression="U5" Label="U5" Title="U 235" Unit="FractionIsotopic" Internal="U5" Type="F" Min="2.30270298e-03" Max="5.00135981e-02"/>
    <Variable VarIndex="1" Expression="U8" Label="U8" Title="U 238" Unit="FractionIsotopic" Internal="U8" Type="F" Min="8.04198325e-01" Max="9.91633654e-01"/>
    <Variable VarIndex="2" Expression="Pu8" Label="Pu8" Title="Pu 238" Unit="FractionIsotopic" Internal="Pu8" Type="F" Min="2.42847864e-06" Max="1.25759691e-02"/>
    <Variable VarIndex="3" Expression="Pu9" Label="Pu9" Title="Pu 239" Unit="FractionIsotopic" Internal="Pu9" Type="F" Min="2.72685829e-05" Max="1.18448287e-01"/>
    <Variable VarIndex="4" Expression="Pu10" Label="Pu10" Title="Pu 240" Unit="FractionIsotopic" Internal="Pu10" Type="F" Min="1.36823164e-05" Max="6.08281456e-02"/>
    <Variable VarIndex="5" Expression="Pu11" Label="Pu11" Title="Pu 241" Unit="FractionIsotopic" Internal="Pu11" Type="F" Min="5.21284107e-07" Max="3.61828022e-02"/>
    <Variable VarIndex="6" Expression="Pu12" Label="Pu12" Title="Pu 242" Unit="FractionIsotopic" Internal="Pu12" Type="F" Min="1.39559679e-05" Max="5.31211868e-02"/>
    <Variable VarIndex="7" Expression="Am1" Label="Am1" Title="Am 241" Unit="FractionIsotopic" Internal="Am1" Type="F" Min="1.16816601e-07" Max="1.22549152e-02"/>
    <Variable VarIndex="8" Expression="Time" Label="Time" Title="Time" Unit="seconds" Internal="Time" Type="F" Min="0.00000000e+00" Max="1.89328304e+08"/>
  </Variables>
  <Spectators NSpec="0"/>
  <Classes NClass="1">
    <Class Name="Regression" Index="0"/>
  </Classes>
  <Targets NTrgt="1">
    <Target TargetIndex="0" Expression="XS_50_117_0_n2n" Label="XS_50_117_0_n2n" Title="XS_50_117_0_n2n" Unit="" Internal="XS_50_117_0_n2n" Type="F" Min="1.84642198e-03" Max="4.10058582e-03"/>
  </Targets>
  <Transformations NTransformations="1">
    <Transform Name="Normalize">
      <Selection>
        <Input NInputs="10">
          <Input Type="Variable" Label="U5" Expression="U5"/>
          <Input Type="Variable" Label="U8" Expression="U8"/>
          <Input Type="Variable" Label="Pu8" Expression="Pu8"/>
          <Input Type="Variable" Label="Pu9" Expression="Pu9"/>
          <Input Type="Variable" Label="Pu10" Expression="Pu10"/>
          <Input Type="Variable" Label="Pu11" Expression="Pu11"/>
          <Input Type="Variable" Label="Pu12" Expression="Pu12"/>
          <Input Type="Variable" Label="Am1" Expression="Am1"/>
          <Input Type="Variable" Label="Time" Expression="Time"/>
          <Input Type="Target" Label="XS_50_117_0_n2n" Expression="XS_50_117_0_n2n"/>
        </Input>
        <Output NOutputs="10">
          <Output Type="Variable" Label="U5" Expression="U5"/>
          <Output Type="Variable" Label="U8" Expression="U8"/>
          <Output Type="Variable" Label="Pu8" Expression="Pu8"/>
          <Output Type="Variable" Label="Pu9" Expression="Pu9"/>
          <Output Type="Variable" Label="Pu10" Expression="Pu10"/>
          <Output Type="Variable" Label="Pu11" Expression="Pu11"/>
          <Output Type="Variable" Label="Pu12" Expression="Pu12"/>
          <Output Type="Variable" Label="Am1" Expression="Am1"/>
          <Output Type="Variable" Label="Time" Expression="Time"/>
          <Output Type="Target" Label="XS_50_117_0_n2n" Expression="XS_50_117_0_n2n"/>
        </Output>
      </Selection>
      <Class ClassIndex="0">
        <Ranges>
          <Range Index="0" Min="2.3027029819786549e-03" Max="5.0013598054647446e-02"/>
          <Range Index="1" Min="8.0419832468032837e-01" Max="9.9163365364074707e-01"/>
          <Range Index="2" Min="2.4284786377393175e-06" Max="1.2575969099998474e-02"/>
          <Range Index="3" Min="2.7268582925898954e-05" Max="1.1844828724861145e-01"/>
          <Range Index="4" Min="1.3682316421181895e-05" Max="6.0828145593404770e-02"/>
          <Range Index="5" Min="5.2128410743534914e-07" Max="3.6182802170515060e-02"/>
          <Range Index="6" Min="1.3955967915535439e-05" Max="5.3121186792850494e-02"/>
          <Range Index="7" Min="1.1681660083695533e-07" Max="1.2254915200173855e-02"/>
          <Range Index="8" Min="0.0000000000000000e+00" Max="1.8932830400000000e+08"/>
          <Range Index="9" Min="1.8464219756424427e-03" Max="4.1005858220160007e-03"/>
        </Ranges>
      </Class>
    </Transform>
  </Transformations>
  <MVAPdfs/>
  <Weights>
    <Layout NLayers="4">
      <Layer Index="0" NNeurons="10">
        <Neuron NSynapses="9">
          -1.6692843391749135e-01 1.7378034854959645e+00 2.1492360039318856e-01 7.8685410494090990e-01 -2.5167367493233361e+00 -5.4460852212001831e-01 -5.8768118920863244e-01 1.4392867209528533e+00 -6.0700580162168249e-01 
        </Neuron>
        <Neuron NSynapses="9">
          -1.4873491412512971e+00 -1.9532664110289961e+00 9.5097672292120583e-01 -2.0175196040231653e+00 -4.9401907623300567e-01 -1.0650528298064850e+00 4.6519813290818063e-01 5.5015814545480946e-01 1.7212366973186142e+00 
        </Neuron>
        <Neuron NSynapses="9">
          3.1664725996019322e-01 3.7066657510770401e-01 -1.3080521175311154e-02 -2.5484936214934395e-01 4.0874267367633788e-01 1.4182941127544560e-01 -2.1593418945617290e-01 2.9175165402817366e-01 1.3527259167121695e+00 
        </Neuron>
        <Neuron NSynapses="9">
          -1.5010144830876970e+00 -1.0316735589872945e+00 -5.6751891468361815e-01 1.2182316456806446e+00 2.7646750153612869e+00 1.0844922818089793e+00 2.5552994224242309e-01 1.8565951387262430e-01 -2.6889303907615386e-01 
        </Neuron>
        <Neuron NSynapses="9">
          -1.1708272780386149e+00 1.3707798104256845e+00 -1.7925239317743799e-01 1.0788669895383680e+00 6.1705220349064749e-01 6.0819136733522672e-01 2.1957274203107415e+00 1.2603019529785580e+00 -9.6887646500665159e-01 
        </Neuron>
        <Neuron NSynapses="9">
          -1.5876017996510325e+00 5.4104715599877240e-01 -4.0733748598735681e-01 1.3573767483132844e+00 2.0833263899471959e+00 6.9912494733116293e-01 1.6486864070521863e+00 -6.6533877470920477e-01 1.4513138718521672e+00 
        </Neuron>
        <Neuron NSynapses="9">
          -1.6127884515616615e+00 -1.7483743356975330e+00 1.9829919173669433e-01 -1.1309749042624697e+00 9.3711988324872864e-01 -3.7738017750190381e-02 -6.2303727790655083e-01 6.2808552359372249e-01 -3.8139783881150835e-01 
        </Neuron>
        <Neuron NSynapses="9">
          1.8664247658677255e-01 1.3155458896081793e+00 2.0417661721574745e-03 1.0432938539752123e+00 3.7750455664883525e-01 9.7769276969370156e-02 5.5422836033809576e-02 4.7081570630114283e-01 -1.0194623815247363e+00 
        </Neuron>
        <Neuron NSynapses="9">
          5.6496227842168156e-01 1.6870886281820958e+00 -3.3040779874980220e-01 5.3438793141057717e-01 -2.7197033092972245e-01 1.4747022543087002e-01 4.5799543618540695e-01 1.2746256486804960e-01 1.9900567515829151e+00 
        </Neuron>
        <Neuron NSynapses="9">
          1.3258377355986868e+00 1.4600000313671266e+00 -2.7448525849873371e+00 -3.0639066506966200e-01 -7.0768119694003107e-01 9.0649417848110236e-01 -2.0094174694167410e+00 -3.1548669012393074e+00 -1.8925019521233279e+00 
        </Neuron>
      </Layer>
      <Layer Index="1" NNeurons="10">
        <Neuron NSynapses="9">
          -1.0887599152791722e-01 3.8309518879398784e-02 1.7236831315526329e+00 -1.5665484256314859e+00 -1.0673777924427277e+00 1.2570902684107741e+00 -7.8391655248804548e-01 -1.5650111211110298e+00 -1.8346807790594466e+00 
        </Neuron>
        <Neuron NSynapses="9">
          1.9895628401808860e-01 -6.3267627578585961e-01 -1.0728632301613654e+00 -1.2258369151157342e-01 1.2329660398405153e+00 -1.2588687092929933e+00 1.3595274403369639e+00 1.2859714030386543e-02 -6.1557111879464155e-01 
        </Neuron>
        <Neuron NSynapses="9">
          5.0342271243955861e-01 8.8535845764893388e-04 -9.4884103389202024e-01 1.1761550108084309e+00 1.1096869058925241e+00 -8.0387359396693137e-01 -8.6805443013158845e-01 2.1063334581739213e+00 1.8505295638743297e-01 
        </Neuron>
        <Neuron NSynapses="9">
          7.9910046236558285e-02 -3.4139737463412773e-01 -8.7562511628161843e-01 -1.9667149768995933e+00 6.6515207059450354e-01 -1.3674768995397008e-01 1.5683823315395935e+00 -3.7522637774859435e-01 3.7067330510693536e-01 
        </Neuron>
        <Neuron NSynapses="9">
          -5.0344951655749093e-01 6.7217904893305214e-01 -2.5450931007097570e+00 3.7371162538697100e-01 -1.0574199510433456e-01 -3.5171965506328873e-01 1.2701263145003545e+00 -1.4912733561205025e+00 2.9055254856145851e-01 
        </Neuron>
        <Neuron NSynapses="9">
          1.2625510937848006e+00 2.4707507609265207e+00 -2.0641468476227915e+00 -3.2190839199613680e-01 9.9045890348690391e-01 2.8402660594567628e+00 -4.4023770219821312e-01 -1.5121348131063150e+00 -1.2161030335289330e-01 
        </Neuron>
        <Neuron NSynapses="9">
          -7.6424515932721249e-01 1.2171543899793549e+00 6.4167659744775651e-01 -3.5029421907542274e-01 -2.1605538543171007e-01 6.1970973308614385e-01 -1.2079865975981705e+00 3.9954529894519863e-01 1.3097775068519706e+00 
        </Neuron>
        <Neuron NSynapses="9">
          -1.0137644865910107e+00 -6.5190515553506667e-01 3.6074804356488060e-01 1.2825074761788662e+00 5.6456506481964330e-01 -1.5300566176027763e-01 -6.9714466082104298e-01 9.7506472378973763e-01 1.0689908118604847e+00 
        </Neuron>
        <Neuron NSynapses="9">
          6.0817151260024527e-01 -1.2874951134692386e-01 9.8422621701498658e-01 -5.2579051974953238e-02 -2.0977718748925051e-01 1.0347964736404602e+00 -9.4206535304430861e-01 -2.2871838391970604e-02 1.2688339750530278e+00 
        </Neuron>
        <Neuron NSynapses="9">
          1.2190941137070426e+00 -5.1779753228843144e-02 1.6583529441462292e+00 1.8863239286037892e+00 -2.3626108341658250e+00 4.7296792899236989e-01 8.1773518484221042e-02 4.2272716599702265e-01 -2.1532892429730213e+00 
        </Neuron>
      </Layer>
      <Layer Index="2" NNeurons="10">
        <Neuron NSynapses="1">
          -4.2103345515501389e-01 
        </Neuron>
        <Neuron NSynapses="1">
          6.1451279811545668e-02 
        </Neuron>
        <Neuron NSynapses="1">
          -1.9532319487505608e-02 
        </Neuron>
        <Neuron NSynapses="1">
          -1.0686525932349386e-02 
        </Neuron>
        <Neuron NSynapses="1">
          6.9261943010943916e-01 
        </Neuron>
        <Neuron NSynapses="1">
          2.0805230189395618e-02 
        </Neuron>
        <Neuron NSynapses="1">
          3.0534140975536479e-02 
        </Neuron>
        <Neuron NSynapses="1">
          -1.5287561775225567e+00 
        </Neuron>
        <Neuron NSynapses="1">
          -2.1800595281090349e-01 
        </Neuron>
        <Neuron NSynapses="1">
          -2.1221686178619428e-01 
        </Neuron>
      </Layer>
      <Layer Index="3" NNeurons="1">
        <Neuron NSynapses="0"/>
      </Layer>
    </Layout>
  </Weights>
</MethodSetup>
