<?xml version="1.0"?>
<MethodSetup Method="MLP::XS_89_226_0_n2n">
  <GeneralInfo>
    <Info name="TMVA Release" value="4.2.0 [262656]"/>
    <Info name="ROOT Release" value="5.34/14 [336398]"/>
    <Info name="Creator" value="courtin"/>
    <Info name="Date" value="Mon Oct  3 16:32:45 2016"/>
    <Info name="Host" value="Linux nansl3.in2p3.fr 2.6.32-431.20.3.el6.x86_64 #1 SMP Thu Jun 19 14:01:59 CDT 2014 x86_64 x86_64 x86_64 GNU/Linux"/>
    <Info name="Dir" value="/scratch/spallati/courtin/WORK/MOxEUS/BdD_MOxEUS/MOxEUS_NN/XSM/MLP/Train"/>
    <Info name="Training events" value="77710"/>
    <Info name="TrainingTime" value="1.13220172e+03"/>
    <Info name="AnalysisType" value="Regression"/>
  </GeneralInfo>
  <Options>
    <Option name="NCycles" modified="Yes">20000</Option>
    <Option name="HiddenLayers" modified="Yes">N,N</Option>
    <Option name="NeuronType" modified="Yes">tanh</Option>
    <Option name="RandomSeed" modified="No">1</Option>
    <Option name="EstimatorType" modified="No">MSE</Option>
    <Option name="NeuronInputType" modified="No">sum</Option>
    <Option name="V" modified="Yes">False</Option>
    <Option name="VerbosityLevel" modified="No">Default</Option>
    <Option name="VarTransform" modified="Yes">Norm</Option>
    <Option name="H" modified="Yes">False</Option>
    <Option name="CreateMVAPdfs" modified="No">False</Option>
    <Option name="IgnoreNegWeightsInTraining" modified="No">False</Option>
    <Option name="TrainingMethod" modified="Yes">BFGS</Option>
    <Option name="LearningRate" modified="No">2.000000e-02</Option>
    <Option name="DecayRate" modified="No">1.000000e-02</Option>
    <Option name="TestRate" modified="Yes">6</Option>
    <Option name="EpochMonitoring" modified="No">False</Option>
    <Option name="Sampling" modified="Yes">3.000000e-01</Option>
    <Option name="SamplingEpoch" modified="Yes">8.000000e-01</Option>
    <Option name="SamplingImportance" modified="No">1.000000e+00</Option>
    <Option name="SamplingTraining" modified="No">True</Option>
    <Option name="SamplingTesting" modified="No">False</Option>
    <Option name="ResetStep" modified="No">50</Option>
    <Option name="Tau" modified="No">3.000000e+00</Option>
    <Option name="BPMode" modified="No">sequential</Option>
    <Option name="BatchSize" modified="No">-1</Option>
    <Option name="ConvergenceImprove" modified="Yes">1.000000e-06</Option>
    <Option name="ConvergenceTests" modified="Yes">15</Option>
    <Option name="UseRegulator" modified="Yes">False</Option>
    <Option name="UpdateLimit" modified="No">10000</Option>
    <Option name="CalculateErrors" modified="No">False</Option>
    <Option name="WeightRange" modified="No">1.000000e+00</Option>
  </Options>
  <Variables NVar="9">
    <Variable VarIndex="0" Expression="U5" Label="U5" Title="U 235" Unit="FractionIsotopic" Internal="U5" Type="F" Min="2.30270298e-03" Max="5.00135981e-02"/>
    <Variable VarIndex="1" Expression="U8" Label="U8" Title="U 238" Unit="FractionIsotopic" Internal="U8" Type="F" Min="8.04198325e-01" Max="9.91633654e-01"/>
    <Variable VarIndex="2" Expression="Pu8" Label="Pu8" Title="Pu 238" Unit="FractionIsotopic" Internal="Pu8" Type="F" Min="2.42847864e-06" Max="1.25759691e-02"/>
    <Variable VarIndex="3" Expression="Pu9" Label="Pu9" Title="Pu 239" Unit="FractionIsotopic" Internal="Pu9" Type="F" Min="2.72685829e-05" Max="1.18448287e-01"/>
    <Variable VarIndex="4" Expression="Pu10" Label="Pu10" Title="Pu 240" Unit="FractionIsotopic" Internal="Pu10" Type="F" Min="1.36823164e-05" Max="6.08281456e-02"/>
    <Variable VarIndex="5" Expression="Pu11" Label="Pu11" Title="Pu 241" Unit="FractionIsotopic" Internal="Pu11" Type="F" Min="5.21284107e-07" Max="3.61828022e-02"/>
    <Variable VarIndex="6" Expression="Pu12" Label="Pu12" Title="Pu 242" Unit="FractionIsotopic" Internal="Pu12" Type="F" Min="1.39559679e-05" Max="5.31211868e-02"/>
    <Variable VarIndex="7" Expression="Am1" Label="Am1" Title="Am 241" Unit="FractionIsotopic" Internal="Am1" Type="F" Min="1.16816601e-07" Max="1.22549152e-02"/>
    <Variable VarIndex="8" Expression="Time" Label="Time" Title="Time" Unit="seconds" Internal="Time" Type="F" Min="0.00000000e+00" Max="1.89328304e+08"/>
  </Variables>
  <Spectators NSpec="0"/>
  <Classes NClass="1">
    <Class Name="Regression" Index="0"/>
  </Classes>
  <Targets NTrgt="1">
    <Target TargetIndex="0" Expression="XS_89_226_0_n2n" Label="XS_89_226_0_n2n" Title="XS_89_226_0_n2n" Unit="" Internal="XS_89_226_0_n2n" Type="F" Min="1.37213003e-02" Max="2.54728403e-02"/>
  </Targets>
  <Transformations NTransformations="1">
    <Transform Name="Normalize">
      <Selection>
        <Input NInputs="10">
          <Input Type="Variable" Label="U5" Expression="U5"/>
          <Input Type="Variable" Label="U8" Expression="U8"/>
          <Input Type="Variable" Label="Pu8" Expression="Pu8"/>
          <Input Type="Variable" Label="Pu9" Expression="Pu9"/>
          <Input Type="Variable" Label="Pu10" Expression="Pu10"/>
          <Input Type="Variable" Label="Pu11" Expression="Pu11"/>
          <Input Type="Variable" Label="Pu12" Expression="Pu12"/>
          <Input Type="Variable" Label="Am1" Expression="Am1"/>
          <Input Type="Variable" Label="Time" Expression="Time"/>
          <Input Type="Target" Label="XS_89_226_0_n2n" Expression="XS_89_226_0_n2n"/>
        </Input>
        <Output NOutputs="10">
          <Output Type="Variable" Label="U5" Expression="U5"/>
          <Output Type="Variable" Label="U8" Expression="U8"/>
          <Output Type="Variable" Label="Pu8" Expression="Pu8"/>
          <Output Type="Variable" Label="Pu9" Expression="Pu9"/>
          <Output Type="Variable" Label="Pu10" Expression="Pu10"/>
          <Output Type="Variable" Label="Pu11" Expression="Pu11"/>
          <Output Type="Variable" Label="Pu12" Expression="Pu12"/>
          <Output Type="Variable" Label="Am1" Expression="Am1"/>
          <Output Type="Variable" Label="Time" Expression="Time"/>
          <Output Type="Target" Label="XS_89_226_0_n2n" Expression="XS_89_226_0_n2n"/>
        </Output>
      </Selection>
      <Class ClassIndex="0">
        <Ranges>
          <Range Index="0" Min="2.3027029819786549e-03" Max="5.0013598054647446e-02"/>
          <Range Index="1" Min="8.0419832468032837e-01" Max="9.9163365364074707e-01"/>
          <Range Index="2" Min="2.4284786377393175e-06" Max="1.2575969099998474e-02"/>
          <Range Index="3" Min="2.7268582925898954e-05" Max="1.1844828724861145e-01"/>
          <Range Index="4" Min="1.3682316421181895e-05" Max="6.0828145593404770e-02"/>
          <Range Index="5" Min="5.2128410743534914e-07" Max="3.6182802170515060e-02"/>
          <Range Index="6" Min="1.3955967915535439e-05" Max="5.3121186792850494e-02"/>
          <Range Index="7" Min="1.1681660083695533e-07" Max="1.2254915200173855e-02"/>
          <Range Index="8" Min="0.0000000000000000e+00" Max="1.8932830400000000e+08"/>
          <Range Index="9" Min="1.3721300289034843e-02" Max="2.5472840294241905e-02"/>
        </Ranges>
      </Class>
    </Transform>
  </Transformations>
  <MVAPdfs/>
  <Weights>
    <Layout NLayers="4">
      <Layer Index="0" NNeurons="10">
        <Neuron NSynapses="9">
          -4.5774876200240966e-01 1.1816224216549471e+00 1.2771745730152267e-01 -3.6530254090048231e-01 -1.2266976856128944e+00 -6.4428228214107675e-01 -5.2089427767585539e-01 1.4772933429438531e+00 3.7550441459601946e-01 
        </Neuron>
        <Neuron NSynapses="9">
          -1.6976890936627878e+00 -2.0377087253535269e+00 7.9277170391360996e-01 -1.3360307788030734e+00 -8.8668343501068270e-01 -1.2667054221957128e+00 7.5039985413452004e-01 6.9961673388783197e-01 1.7698702381714424e+00 
        </Neuron>
        <Neuron NSynapses="9">
          3.5072606194924982e-01 8.7737418263155731e-01 -1.8746520611634412e-02 -3.8595638150244839e-02 1.2759337181973757e-01 1.5725901333239176e-01 -3.1845932187560061e-01 1.5979735543348789e-01 4.7585408229262049e-01 
        </Neuron>
        <Neuron NSynapses="9">
          -1.5261728902921865e+00 -7.1180603985982904e-01 -7.5748035499868716e-01 1.3390018125071861e+00 2.7157924196997389e+00 1.6805402399942944e+00 3.4101433561303007e-01 7.4108660208160537e-02 -1.6110557603836603e-01 
        </Neuron>
        <Neuron NSynapses="9">
          -1.0601593352881220e+00 1.6388269448762016e+00 -2.4505488934287906e-01 4.7840445136987442e-01 -7.1495207297163008e-02 7.9933975421556058e-02 1.8983558698969123e+00 1.0101654890386937e+00 -1.4600737496199552e+00 
        </Neuron>
        <Neuron NSynapses="9">
          -1.3028543744059577e+00 7.0276422960906548e-01 -3.2198640154515479e-01 5.0977889029576096e-01 7.6202011393328106e-01 7.7155502207184357e-01 1.6332214674859269e+00 -5.0074541879321510e-01 1.3030751290791529e+00 
        </Neuron>
        <Neuron NSynapses="9">
          -1.5755856857343284e+00 -1.6683215328522705e+00 8.6080411423648251e-02 6.0864840939550573e-02 5.7446744646702930e-01 -1.9597718588705601e-01 -5.3489721182557548e-01 5.2899853866720736e-01 -8.5084659881094094e-01 
        </Neuron>
        <Neuron NSynapses="9">
          2.3815096792524731e-01 1.2115920231003514e+00 -8.6546271876805830e-02 3.8333726636060717e-01 -9.1128307883208104e-01 -2.9542218341454851e-01 -1.9205113886226914e-02 4.9808302703891832e-01 -7.3321361649558481e-01 
        </Neuron>
        <Neuron NSynapses="9">
          5.2007881924219868e-01 1.8844924126529483e+00 -1.8942421444990737e-01 -3.2724602807806652e-01 -5.2484816327024530e-01 9.4996850591582083e-02 7.8229424785638435e-02 2.3424359590782835e-02 1.6269086011300691e+00 
        </Neuron>
        <Neuron NSynapses="9">
          1.5815352564554943e+00 1.2692281791283910e+00 -2.2905404473754651e+00 -8.5581589268913072e-01 3.2403299521947510e-01 1.0088895189271223e+00 -2.3667154094046836e+00 -3.1603281117445539e+00 -1.9000731172281411e+00 
        </Neuron>
      </Layer>
      <Layer Index="1" NNeurons="10">
        <Neuron NSynapses="9">
          -4.4814859406248819e-01 -3.2433990940246499e-01 2.3901837590348922e+00 -1.5492715097595917e+00 -1.0280599402857518e+00 1.6234488799243010e+00 -9.4919478739925089e-01 -1.6114170782934247e+00 -1.8496870945218509e+00 
        </Neuron>
        <Neuron NSynapses="9">
          -9.5754290098749403e-02 -2.6560839373954781e-01 -7.0178178181497142e-01 -1.0148453752235641e-01 1.1345272091283551e+00 -1.0876523709458172e+00 1.1156214181666622e+00 3.2320834604665577e-01 -5.8685384647965977e-01 
        </Neuron>
        <Neuron NSynapses="9">
          1.0252634069877504e+00 3.5953865329471069e-01 -1.5384157835114567e+00 1.2705583581580062e+00 1.3700776587952330e+00 -1.2932012410190061e+00 -1.3742845779133657e+00 2.7859011385619863e+00 1.7474625739435476e-01 
        </Neuron>
        <Neuron NSynapses="9">
          -8.0654132805323742e-01 8.4644988236777674e-01 -3.7008448469812905e-01 -1.7460315054714175e+00 7.8518312828494641e-01 -5.4929374354614058e-01 1.9579913894892982e+00 6.0242628752910721e-01 3.7073244065436489e-01 
        </Neuron>
        <Neuron NSynapses="9">
          -1.1477141774557216e+00 -1.7543226411820376e-01 -2.2197695123069061e+00 -5.3951319469503163e-02 -2.0134740839492885e-01 -4.3579172133226907e-01 7.6151579269234992e-01 -1.6635941475441267e+00 3.2346358230513822e-01 
        </Neuron>
        <Neuron NSynapses="9">
          9.6917082183022696e-01 2.0454602053049227e+00 -1.3825043554446301e+00 -1.6868956372587068e-01 7.6136107012308751e-01 2.8628760980281611e+00 -8.1977180553171358e-01 -9.1197932989427022e-01 -9.9533513498975185e-02 
        </Neuron>
        <Neuron NSynapses="9">
          6.8386326207654669e-02 1.2907421542428779e+00 5.3445940274101755e-01 8.8277487125555817e-02 -5.0853718274722470e-01 2.0269156615684167e-01 -1.0942503826197820e+00 3.9235999183546116e-01 1.2493541562188575e+00 
        </Neuron>
        <Neuron NSynapses="9">
          -6.6246917888207357e-01 -2.5622993377579345e-01 -4.0778954821377988e-01 1.3134439641075553e+00 7.1780848743052583e-01 -6.9825268578675037e-01 -6.6025579183217054e-01 6.3087338440143170e-01 1.0727360469150460e+00 
        </Neuron>
        <Neuron NSynapses="9">
          9.9229012968482111e-01 6.6393193684904594e-02 4.1330132166750955e-01 1.9272314260122347e-01 -5.3507084571104357e-01 6.6845324634455994e-01 -6.3663041309330248e-01 -4.3250151402757536e-01 1.2722188689315364e+00 
        </Neuron>
        <Neuron NSynapses="9">
          8.0443223249757412e-01 -4.0042254813787825e-01 2.4248442557618355e+00 1.9222364575599786e+00 -2.2326690482645621e+00 9.0457440360660479e-01 -8.9518452066683671e-02 3.8768152866770661e-01 -2.1542882839893158e+00 
        </Neuron>
      </Layer>
      <Layer Index="2" NNeurons="10">
        <Neuron NSynapses="1">
          -4.4865336815794960e-03 
        </Neuron>
        <Neuron NSynapses="1">
          4.5767021298783600e-02 
        </Neuron>
        <Neuron NSynapses="1">
          -4.1730745148452097e-01 
        </Neuron>
        <Neuron NSynapses="1">
          -4.1754172764923808e-01 
        </Neuron>
        <Neuron NSynapses="1">
          7.3384829162944687e-01 
        </Neuron>
        <Neuron NSynapses="1">
          7.5237996831781229e-02 
        </Neuron>
        <Neuron NSynapses="1">
          -1.5569675548647226e-02 
        </Neuron>
        <Neuron NSynapses="1">
          -1.4495230821785869e+00 
        </Neuron>
        <Neuron NSynapses="1">
          -1.4185314647785258e-01 
        </Neuron>
        <Neuron NSynapses="1">
          -2.6474909602582974e-01 
        </Neuron>
      </Layer>
      <Layer Index="3" NNeurons="1">
        <Neuron NSynapses="0"/>
      </Layer>
    </Layout>
  </Weights>
</MethodSetup>
