<?xml version="1.0"?>
<MethodSetup Method="MLP::XS_68_162_0_n2n">
  <GeneralInfo>
    <Info name="TMVA Release" value="4.2.0 [262656]"/>
    <Info name="ROOT Release" value="5.34/14 [336398]"/>
    <Info name="Creator" value="courtin"/>
    <Info name="Date" value="Mon Oct  3 15:20:47 2016"/>
    <Info name="Host" value="Linux nansl3.in2p3.fr 2.6.32-431.20.3.el6.x86_64 #1 SMP Thu Jun 19 14:01:59 CDT 2014 x86_64 x86_64 x86_64 GNU/Linux"/>
    <Info name="Dir" value="/scratch/spallati/courtin/WORK/MOxEUS/BdD_MOxEUS/MOxEUS_NN/XSM/MLP/Train"/>
    <Info name="Training events" value="77710"/>
    <Info name="TrainingTime" value="1.54968565e+03"/>
    <Info name="AnalysisType" value="Regression"/>
  </GeneralInfo>
  <Options>
    <Option name="NCycles" modified="Yes">20000</Option>
    <Option name="HiddenLayers" modified="Yes">N,N</Option>
    <Option name="NeuronType" modified="Yes">tanh</Option>
    <Option name="RandomSeed" modified="No">1</Option>
    <Option name="EstimatorType" modified="No">MSE</Option>
    <Option name="NeuronInputType" modified="No">sum</Option>
    <Option name="V" modified="Yes">False</Option>
    <Option name="VerbosityLevel" modified="No">Default</Option>
    <Option name="VarTransform" modified="Yes">Norm</Option>
    <Option name="H" modified="Yes">False</Option>
    <Option name="CreateMVAPdfs" modified="No">False</Option>
    <Option name="IgnoreNegWeightsInTraining" modified="No">False</Option>
    <Option name="TrainingMethod" modified="Yes">BFGS</Option>
    <Option name="LearningRate" modified="No">2.000000e-02</Option>
    <Option name="DecayRate" modified="No">1.000000e-02</Option>
    <Option name="TestRate" modified="Yes">6</Option>
    <Option name="EpochMonitoring" modified="No">False</Option>
    <Option name="Sampling" modified="Yes">3.000000e-01</Option>
    <Option name="SamplingEpoch" modified="Yes">8.000000e-01</Option>
    <Option name="SamplingImportance" modified="No">1.000000e+00</Option>
    <Option name="SamplingTraining" modified="No">True</Option>
    <Option name="SamplingTesting" modified="No">False</Option>
    <Option name="ResetStep" modified="No">50</Option>
    <Option name="Tau" modified="No">3.000000e+00</Option>
    <Option name="BPMode" modified="No">sequential</Option>
    <Option name="BatchSize" modified="No">-1</Option>
    <Option name="ConvergenceImprove" modified="Yes">1.000000e-06</Option>
    <Option name="ConvergenceTests" modified="Yes">15</Option>
    <Option name="UseRegulator" modified="Yes">False</Option>
    <Option name="UpdateLimit" modified="No">10000</Option>
    <Option name="CalculateErrors" modified="No">False</Option>
    <Option name="WeightRange" modified="No">1.000000e+00</Option>
  </Options>
  <Variables NVar="9">
    <Variable VarIndex="0" Expression="U5" Label="U5" Title="U 235" Unit="FractionIsotopic" Internal="U5" Type="F" Min="2.30270298e-03" Max="5.00135981e-02"/>
    <Variable VarIndex="1" Expression="U8" Label="U8" Title="U 238" Unit="FractionIsotopic" Internal="U8" Type="F" Min="8.04198325e-01" Max="9.91633654e-01"/>
    <Variable VarIndex="2" Expression="Pu8" Label="Pu8" Title="Pu 238" Unit="FractionIsotopic" Internal="Pu8" Type="F" Min="2.42847864e-06" Max="1.25759691e-02"/>
    <Variable VarIndex="3" Expression="Pu9" Label="Pu9" Title="Pu 239" Unit="FractionIsotopic" Internal="Pu9" Type="F" Min="2.72685829e-05" Max="1.18448287e-01"/>
    <Variable VarIndex="4" Expression="Pu10" Label="Pu10" Title="Pu 240" Unit="FractionIsotopic" Internal="Pu10" Type="F" Min="1.36823164e-05" Max="6.08281456e-02"/>
    <Variable VarIndex="5" Expression="Pu11" Label="Pu11" Title="Pu 241" Unit="FractionIsotopic" Internal="Pu11" Type="F" Min="5.21284107e-07" Max="3.61828022e-02"/>
    <Variable VarIndex="6" Expression="Pu12" Label="Pu12" Title="Pu 242" Unit="FractionIsotopic" Internal="Pu12" Type="F" Min="1.39559679e-05" Max="5.31211868e-02"/>
    <Variable VarIndex="7" Expression="Am1" Label="Am1" Title="Am 241" Unit="FractionIsotopic" Internal="Am1" Type="F" Min="1.16816601e-07" Max="1.22549152e-02"/>
    <Variable VarIndex="8" Expression="Time" Label="Time" Title="Time" Unit="seconds" Internal="Time" Type="F" Min="0.00000000e+00" Max="1.89328304e+08"/>
  </Variables>
  <Spectators NSpec="0"/>
  <Classes NClass="1">
    <Class Name="Regression" Index="0"/>
  </Classes>
  <Targets NTrgt="1">
    <Target TargetIndex="0" Expression="XS_68_162_0_n2n" Label="XS_68_162_0_n2n" Title="XS_68_162_0_n2n" Unit="" Internal="XS_68_162_0_n2n" Type="F" Min="2.14772095e-04" Max="6.64918683e-04"/>
  </Targets>
  <Transformations NTransformations="1">
    <Transform Name="Normalize">
      <Selection>
        <Input NInputs="10">
          <Input Type="Variable" Label="U5" Expression="U5"/>
          <Input Type="Variable" Label="U8" Expression="U8"/>
          <Input Type="Variable" Label="Pu8" Expression="Pu8"/>
          <Input Type="Variable" Label="Pu9" Expression="Pu9"/>
          <Input Type="Variable" Label="Pu10" Expression="Pu10"/>
          <Input Type="Variable" Label="Pu11" Expression="Pu11"/>
          <Input Type="Variable" Label="Pu12" Expression="Pu12"/>
          <Input Type="Variable" Label="Am1" Expression="Am1"/>
          <Input Type="Variable" Label="Time" Expression="Time"/>
          <Input Type="Target" Label="XS_68_162_0_n2n" Expression="XS_68_162_0_n2n"/>
        </Input>
        <Output NOutputs="10">
          <Output Type="Variable" Label="U5" Expression="U5"/>
          <Output Type="Variable" Label="U8" Expression="U8"/>
          <Output Type="Variable" Label="Pu8" Expression="Pu8"/>
          <Output Type="Variable" Label="Pu9" Expression="Pu9"/>
          <Output Type="Variable" Label="Pu10" Expression="Pu10"/>
          <Output Type="Variable" Label="Pu11" Expression="Pu11"/>
          <Output Type="Variable" Label="Pu12" Expression="Pu12"/>
          <Output Type="Variable" Label="Am1" Expression="Am1"/>
          <Output Type="Variable" Label="Time" Expression="Time"/>
          <Output Type="Target" Label="XS_68_162_0_n2n" Expression="XS_68_162_0_n2n"/>
        </Output>
      </Selection>
      <Class ClassIndex="0">
        <Ranges>
          <Range Index="0" Min="2.3027029819786549e-03" Max="5.0013598054647446e-02"/>
          <Range Index="1" Min="8.0419832468032837e-01" Max="9.9163365364074707e-01"/>
          <Range Index="2" Min="2.4284786377393175e-06" Max="1.2575969099998474e-02"/>
          <Range Index="3" Min="2.7268582925898954e-05" Max="1.1844828724861145e-01"/>
          <Range Index="4" Min="1.3682316421181895e-05" Max="6.0828145593404770e-02"/>
          <Range Index="5" Min="5.2128410743534914e-07" Max="3.6182802170515060e-02"/>
          <Range Index="6" Min="1.3955967915535439e-05" Max="5.3121186792850494e-02"/>
          <Range Index="7" Min="1.1681660083695533e-07" Max="1.2254915200173855e-02"/>
          <Range Index="8" Min="0.0000000000000000e+00" Max="1.8932830400000000e+08"/>
          <Range Index="9" Min="2.1477209520526230e-04" Max="6.6491868346929550e-04"/>
        </Ranges>
      </Class>
    </Transform>
  </Transformations>
  <MVAPdfs/>
  <Weights>
    <Layout NLayers="4">
      <Layer Index="0" NNeurons="10">
        <Neuron NSynapses="9">
          -6.0949374215170160e-01 1.4841925628378700e+00 2.9954987360468371e-01 2.3369330135697697e-01 -2.7148658703058905e+00 -1.2117613165104317e+00 -7.7871886246292599e-01 4.7667779706007174e-01 -7.1766035653703020e-01 
        </Neuron>
        <Neuron NSynapses="9">
          -1.6249598474508666e+00 -1.4952957719305502e+00 7.1910032640429422e-01 -1.3738155546498212e+00 3.2782147260622874e-01 -1.0866811721389262e+00 6.6963703504783700e-01 1.0401298958710734e+00 1.5753815141533938e+00 
        </Neuron>
        <Neuron NSynapses="9">
          4.2319523614642657e-01 4.5179984415647978e-01 -6.5176456931031870e-02 1.5998708526964951e-02 9.1881860623835021e-01 1.5294289185921861e-01 -3.3641361438026202e-01 7.2449682135309626e-02 1.9765106566159227e+00 
        </Neuron>
        <Neuron NSynapses="9">
          -1.5418284872279340e+00 -1.2049988252164678e+00 -6.5240360510157458e-01 6.7717786986612749e-01 1.7916214228243126e+00 1.1633996625569050e+00 2.1370442805393514e-01 -2.4935500216416040e-01 3.2581512898270426e-01 
        </Neuron>
        <Neuron NSynapses="9">
          -1.0297827990188537e+00 6.8218616926601250e-01 -7.5087620640986641e-01 1.2310459128128353e+00 1.2093960942826072e+00 1.4349641836103992e+00 2.0075817154532460e+00 9.4544427750985283e-01 -3.8044632639081222e-01 
        </Neuron>
        <Neuron NSynapses="9">
          -1.3867806727259402e+00 2.4084748357828273e-01 -2.1130548814803746e-01 2.4208461582077758e+00 1.5553683619850811e+00 1.3960360696487439e+00 1.7890043498197614e+00 -1.8187151895871880e+00 1.9073864406068484e+00 
        </Neuron>
        <Neuron NSynapses="9">
          -1.5971093862411210e+00 -1.8692800605168538e+00 -3.8721322209996398e-02 -7.1710377540635883e-01 1.4160888500950506e+00 1.0691635500352281e-01 -5.1039153422319949e-01 2.1497515929008235e-01 4.1446811341085332e-01 
        </Neuron>
        <Neuron NSynapses="9">
          1.9116966136642261e-01 7.4302104507338396e-01 -1.6822700113643496e-01 1.2541782477958190e+00 1.0686606576281363e-01 2.8848639717655561e-01 -6.8229239102804901e-02 1.6625043156192212e-01 -3.9064305996550741e-01 
        </Neuron>
        <Neuron NSynapses="9">
          5.5313855552253199e-01 1.9549624190282693e+00 -7.9003004597486812e-02 2.5503924470256439e-01 2.7270884031915971e-01 -1.1054759170311806e-01 3.3033987049414584e-02 -1.2760727043398263e+00 1.1561558983616018e+00 
        </Neuron>
        <Neuron NSynapses="9">
          1.5635905193885569e+00 1.5443195131804286e+00 -2.0918702781819403e+00 -1.0541213660525646e+00 -1.2359537505957550e+00 4.8906508835025581e-01 -2.1565642989148994e+00 -2.4846702630254716e+00 -2.9369378166404476e+00 
        </Neuron>
      </Layer>
      <Layer Index="1" NNeurons="10">
        <Neuron NSynapses="9">
          1.7763086534022102e-01 -1.0976351619872866e-01 1.7730040879919597e+00 -1.7879302992664183e+00 -1.0321721575474685e+00 1.5717511033247307e+00 -1.0899336072058902e-01 -1.2840769402078647e+00 -2.1429002835157536e+00 
        </Neuron>
        <Neuron NSynapses="9">
          5.5108011094765270e-02 -1.4397328033166485e+00 -2.0394676792452744e+00 -7.2503349106343640e-01 1.1117036839011156e+00 -9.3193392487889637e-01 2.0953308327341622e+00 2.7635767734244460e-01 -4.3892587433327462e-01 
        </Neuron>
        <Neuron NSynapses="9">
          -1.2291823947090486e+00 2.4943179192733905e-01 -6.5440262961196893e-01 7.0810523687028371e-01 1.6148208671391024e+00 -1.4955193486814142e+00 -1.2709681921163449e+00 2.2321802837556546e+00 -2.0041629054537047e-02 
        </Neuron>
        <Neuron NSynapses="9">
          1.4401880719967147e-01 2.3543594752019345e-01 -4.8169124002393077e-01 -1.3852150046576115e+00 4.5918635763675003e-01 1.8088648341319033e-01 1.0018036714853973e+00 9.2075515778601749e-02 7.6285291072815309e-01 
        </Neuron>
        <Neuron NSynapses="9">
          -6.8875463791097058e-01 3.6985238071180410e-01 -1.5595367597941194e+00 2.6061519051839503e-02 -1.9647441449563749e-01 -9.0531644565359914e-01 -7.5410435693319265e-04 -1.3707539406421303e+00 5.0784404362221203e-01 
        </Neuron>
        <Neuron NSynapses="9">
          1.3773148594793656e+00 2.0472798867241377e+00 -2.1112198093015397e+00 -6.2719303212494401e-02 5.8416883033916345e-01 2.4420604768080536e+00 -8.0088588416193884e-01 -6.9950966067982645e-01 -4.1295157340952557e-02 
        </Neuron>
        <Neuron NSynapses="9">
          -5.1887730661253340e-01 1.4585058484214122e+00 7.2796624175827573e-01 -5.6453493283733069e-01 -3.7728132724782765e-01 2.2004037629968179e-01 -1.8064649744145722e+00 1.1439734619204839e-01 9.8372892664107681e-01 
        </Neuron>
        <Neuron NSynapses="9">
          -4.2053413701082992e-01 -8.7956406567840695e-01 4.4628617819316813e-01 1.8121491291630225e+00 1.0284840600726617e+00 -1.3591334844232810e-02 -1.3990043942184311e+00 7.1208702790103129e-01 1.4182489466382220e+00 
        </Neuron>
        <Neuron NSynapses="9">
          -2.4998775234873222e-02 4.8522413777757445e-01 9.3641184731507643e-01 -1.6269526964692252e-01 -8.5160093023966904e-02 6.6901085021025719e-01 -1.2652180292037181e+00 -8.3632579968476861e-01 9.5684017660454312e-01 
        </Neuron>
        <Neuron NSynapses="9">
          1.7164320513585307e+00 -9.4390007160813277e-02 1.7113854579775556e+00 1.6446457411062674e+00 -2.3283884401188213e+00 8.2526154129371176e-01 7.5920901498692306e-01 7.3883051684144474e-01 -2.5539163621898564e+00 
        </Neuron>
      </Layer>
      <Layer Index="2" NNeurons="10">
        <Neuron NSynapses="1">
          1.8452484130568976e+00 
        </Neuron>
        <Neuron NSynapses="1">
          4.4350851414238675e-02 
        </Neuron>
        <Neuron NSynapses="1">
          -2.2991084277235337e-02 
        </Neuron>
        <Neuron NSynapses="1">
          -4.5719845870929816e-02 
        </Neuron>
        <Neuron NSynapses="1">
          2.2290753611272729e+00 
        </Neuron>
        <Neuron NSynapses="1">
          4.5823312874559152e-02 
        </Neuron>
        <Neuron NSynapses="1">
          7.4146337547148400e-01 
        </Neuron>
        <Neuron NSynapses="1">
          -9.1402595437735157e-02 
        </Neuron>
        <Neuron NSynapses="1">
          1.4879804822813919e-01 
        </Neuron>
        <Neuron NSynapses="1">
          -1.2279188711045062e-01 
        </Neuron>
      </Layer>
      <Layer Index="3" NNeurons="1">
        <Neuron NSynapses="0"/>
      </Layer>
    </Layout>
  </Weights>
</MethodSetup>
