<?xml version="1.0"?>
<MethodSetup Method="MLP::XS_82_204_0_n2n">
  <GeneralInfo>
    <Info name="TMVA Release" value="4.2.0 [262656]"/>
    <Info name="ROOT Release" value="5.34/14 [336398]"/>
    <Info name="Creator" value="courtin"/>
    <Info name="Date" value="Thu Dec 17 14:16:04 2015"/>
    <Info name="Host" value="Linux nansl3.in2p3.fr 2.6.32-431.20.3.el6.x86_64 #1 SMP Thu Jun 19 14:01:59 CDT 2014 x86_64 x86_64 x86_64 GNU/Linux"/>
    <Info name="Dir" value="/scratch/spallati/courtin/WORK/BdD_MOxEUS/MOxEUS_NN/XSM/MLP/Train"/>
    <Info name="Training events" value="77710"/>
    <Info name="TrainingTime" value="8.37447499e+02"/>
    <Info name="AnalysisType" value="Regression"/>
  </GeneralInfo>
  <Options>
    <Option name="NCycles" modified="Yes">20000</Option>
    <Option name="HiddenLayers" modified="Yes">N,N</Option>
    <Option name="NeuronType" modified="Yes">tanh</Option>
    <Option name="RandomSeed" modified="No">1</Option>
    <Option name="EstimatorType" modified="No">MSE</Option>
    <Option name="NeuronInputType" modified="No">sum</Option>
    <Option name="V" modified="Yes">False</Option>
    <Option name="VerbosityLevel" modified="No">Default</Option>
    <Option name="VarTransform" modified="Yes">Norm</Option>
    <Option name="H" modified="Yes">False</Option>
    <Option name="CreateMVAPdfs" modified="No">False</Option>
    <Option name="IgnoreNegWeightsInTraining" modified="No">False</Option>
    <Option name="TrainingMethod" modified="Yes">BFGS</Option>
    <Option name="LearningRate" modified="No">2.000000e-02</Option>
    <Option name="DecayRate" modified="No">1.000000e-02</Option>
    <Option name="TestRate" modified="Yes">6</Option>
    <Option name="EpochMonitoring" modified="No">False</Option>
    <Option name="Sampling" modified="Yes">3.000000e-01</Option>
    <Option name="SamplingEpoch" modified="Yes">8.000000e-01</Option>
    <Option name="SamplingImportance" modified="No">1.000000e+00</Option>
    <Option name="SamplingTraining" modified="No">True</Option>
    <Option name="SamplingTesting" modified="No">False</Option>
    <Option name="ResetStep" modified="No">50</Option>
    <Option name="Tau" modified="No">3.000000e+00</Option>
    <Option name="BPMode" modified="No">sequential</Option>
    <Option name="BatchSize" modified="No">-1</Option>
    <Option name="ConvergenceImprove" modified="Yes">1.000000e-06</Option>
    <Option name="ConvergenceTests" modified="Yes">15</Option>
    <Option name="UseRegulator" modified="Yes">False</Option>
    <Option name="UpdateLimit" modified="No">10000</Option>
    <Option name="CalculateErrors" modified="No">False</Option>
    <Option name="WeightRange" modified="No">1.000000e+00</Option>
  </Options>
  <Variables NVar="9">
    <Variable VarIndex="0" Expression="U5" Label="U5" Title="U 235" Unit="FractionIsotopic" Internal="U5" Type="F" Min="2.30270298e-03" Max="5.00135981e-02"/>
    <Variable VarIndex="1" Expression="U8" Label="U8" Title="U 238" Unit="FractionIsotopic" Internal="U8" Type="F" Min="8.04198325e-01" Max="9.91633654e-01"/>
    <Variable VarIndex="2" Expression="Pu8" Label="Pu8" Title="Pu 238" Unit="FractionIsotopic" Internal="Pu8" Type="F" Min="2.42847864e-06" Max="1.25759691e-02"/>
    <Variable VarIndex="3" Expression="Pu9" Label="Pu9" Title="Pu 239" Unit="FractionIsotopic" Internal="Pu9" Type="F" Min="2.72685829e-05" Max="1.18448287e-01"/>
    <Variable VarIndex="4" Expression="Pu10" Label="Pu10" Title="Pu 240" Unit="FractionIsotopic" Internal="Pu10" Type="F" Min="1.36823164e-05" Max="6.08281456e-02"/>
    <Variable VarIndex="5" Expression="Pu11" Label="Pu11" Title="Pu 241" Unit="FractionIsotopic" Internal="Pu11" Type="F" Min="5.21284107e-07" Max="3.61828022e-02"/>
    <Variable VarIndex="6" Expression="Pu12" Label="Pu12" Title="Pu 242" Unit="FractionIsotopic" Internal="Pu12" Type="F" Min="1.39559679e-05" Max="5.31211868e-02"/>
    <Variable VarIndex="7" Expression="Am1" Label="Am1" Title="Am 241" Unit="FractionIsotopic" Internal="Am1" Type="F" Min="1.16816601e-07" Max="1.22549152e-02"/>
    <Variable VarIndex="8" Expression="Time" Label="Time" Title="Time" Unit="seconds" Internal="Time" Type="F" Min="0.00000000e+00" Max="1.89328304e+08"/>
  </Variables>
  <Spectators NSpec="0"/>
  <Classes NClass="1">
    <Class Name="Regression" Index="0"/>
  </Classes>
  <Targets NTrgt="1">
    <Target TargetIndex="0" Expression="XS_82_204_0_n2n" Label="XS_82_204_0_n2n" Title="XS_82_204_0_n2n" Unit="" Internal="XS_82_204_0_n2n" Type="F" Min="6.36564917e-04" Max="1.71259197e-03"/>
  </Targets>
  <Transformations NTransformations="1">
    <Transform Name="Normalize">
      <Selection>
        <Input NInputs="10">
          <Input Type="Variable" Label="U5" Expression="U5"/>
          <Input Type="Variable" Label="U8" Expression="U8"/>
          <Input Type="Variable" Label="Pu8" Expression="Pu8"/>
          <Input Type="Variable" Label="Pu9" Expression="Pu9"/>
          <Input Type="Variable" Label="Pu10" Expression="Pu10"/>
          <Input Type="Variable" Label="Pu11" Expression="Pu11"/>
          <Input Type="Variable" Label="Pu12" Expression="Pu12"/>
          <Input Type="Variable" Label="Am1" Expression="Am1"/>
          <Input Type="Variable" Label="Time" Expression="Time"/>
          <Input Type="Target" Label="XS_82_204_0_n2n" Expression="XS_82_204_0_n2n"/>
        </Input>
        <Output NOutputs="10">
          <Output Type="Variable" Label="U5" Expression="U5"/>
          <Output Type="Variable" Label="U8" Expression="U8"/>
          <Output Type="Variable" Label="Pu8" Expression="Pu8"/>
          <Output Type="Variable" Label="Pu9" Expression="Pu9"/>
          <Output Type="Variable" Label="Pu10" Expression="Pu10"/>
          <Output Type="Variable" Label="Pu11" Expression="Pu11"/>
          <Output Type="Variable" Label="Pu12" Expression="Pu12"/>
          <Output Type="Variable" Label="Am1" Expression="Am1"/>
          <Output Type="Variable" Label="Time" Expression="Time"/>
          <Output Type="Target" Label="XS_82_204_0_n2n" Expression="XS_82_204_0_n2n"/>
        </Output>
      </Selection>
      <Class ClassIndex="0">
        <Ranges>
          <Range Index="0" Min="2.3027029819786549e-03" Max="5.0013598054647446e-02"/>
          <Range Index="1" Min="8.0419832468032837e-01" Max="9.9163365364074707e-01"/>
          <Range Index="2" Min="2.4284786377393175e-06" Max="1.2575969099998474e-02"/>
          <Range Index="3" Min="2.7268582925898954e-05" Max="1.1844828724861145e-01"/>
          <Range Index="4" Min="1.3682316421181895e-05" Max="6.0828145593404770e-02"/>
          <Range Index="5" Min="5.2128410743534914e-07" Max="3.6182802170515060e-02"/>
          <Range Index="6" Min="1.3955967915535439e-05" Max="5.3121186792850494e-02"/>
          <Range Index="7" Min="1.1681660083695533e-07" Max="1.2254915200173855e-02"/>
          <Range Index="8" Min="0.0000000000000000e+00" Max="1.8932830400000000e+08"/>
          <Range Index="9" Min="6.3656491693109274e-04" Max="1.7125919694080949e-03"/>
        </Ranges>
      </Class>
    </Transform>
  </Transformations>
  <MVAPdfs/>
  <Weights>
    <Layout NLayers="4">
      <Layer Index="0" NNeurons="10">
        <Neuron NSynapses="9">
          -2.5602252056596941e-01 3.2821118341938516e-01 2.2110186272229021e-01 7.5532409966687386e-01 -2.1592174788653251e+00 -1.5770839457289749e+00 -8.3443128265269695e-01 1.7454456489858940e+00 -1.0096166623417882e+00 
        </Neuron>
        <Neuron NSynapses="9">
          -1.6850667159417567e+00 -1.6887793287342006e+00 5.6482577554709512e-01 -1.1534085488329822e+00 -9.1675850076652843e-01 -2.0103367344327649e+00 5.0524816499317660e-01 2.8184311836958231e-01 1.8065368468404934e+00 
        </Neuron>
        <Neuron NSynapses="9">
          2.6273863864523006e-01 6.9825532672524573e-02 -8.6495669231100941e-02 1.7321492938802162e-02 4.5666015735067045e-01 3.2682598614056391e-01 -2.4622879403536271e-01 3.2979134753372420e-02 1.6148485614977135e+00 
        </Neuron>
        <Neuron NSynapses="9">
          -1.5341702439759106e+00 -1.4785424479715623e+00 -5.7769409935837879e-01 1.0698436325527281e+00 2.7057888160672592e+00 1.5676923268201792e+00 3.4104540579847659e-01 6.0946715528781348e-01 -7.9099633766702357e-02 
        </Neuron>
        <Neuron NSynapses="9">
          -1.0093148500119165e+00 4.5376279343061748e-01 -3.6387850559149260e-01 9.5892598207437429e-01 7.8220853972635507e-01 8.7549926899608932e-01 2.0866910745343219e+00 1.1889018534759985e+00 -7.0924265081339788e-01 
        </Neuron>
        <Neuron NSynapses="9">
          -1.4037977535557233e+00 7.4923835370931657e-01 -4.3467712493499333e-01 1.6606366582957988e+00 2.0718237296604811e+00 1.4120015071789589e+00 1.6471740580893588e+00 -7.4135132469050391e-01 1.6308899249367568e+00 
        </Neuron>
        <Neuron NSynapses="9">
          -1.6450955859206793e+00 -2.1583445369976113e+00 -1.3234538702829386e-02 -9.4947282634285801e-01 1.1244120792789998e+00 8.8174613804866998e-03 -6.5735403250151458e-01 5.2209041311591498e-01 4.0959560446188426e-02 
        </Neuron>
        <Neuron NSynapses="9">
          1.3417591995901268e-01 1.2759340318006485e+00 -5.0758155000432251e-02 1.0209837639376278e+00 4.0786805233064000e-01 5.6104518081246078e-02 3.1939760077314094e-01 2.6288178612478574e-01 -8.4715567173880091e-01 
        </Neuron>
        <Neuron NSynapses="9">
          4.1504163948730993e-01 2.5195140120928281e+00 -2.2505946534179008e-01 2.5248371750128240e-01 -1.1495904213837997e-01 -1.0319625230162281e-01 5.3092666399719413e-01 -4.6853329854474612e-01 1.2636111927701033e+00 
        </Neuron>
        <Neuron NSynapses="9">
          1.5503870477697219e+00 2.4829872274872598e+00 -2.0506680134814124e+00 -1.4316375466005009e+00 -3.6448038389132414e-01 1.7741932672131253e+00 -2.0108776901810672e+00 -3.1264780436278894e+00 -2.3824093635340975e+00 
        </Neuron>
      </Layer>
      <Layer Index="1" NNeurons="10">
        <Neuron NSynapses="9">
          -5.2774689762538816e-02 1.6473853472604813e-01 2.4139875001753612e+00 -1.4810680577430742e+00 -3.2462930050257766e-01 1.1266861740963430e+00 -1.0302141927789938e+00 -1.6685422735176352e+00 -2.0987726082132303e+00 
        </Neuron>
        <Neuron NSynapses="9">
          2.3611031729507237e-01 -9.2749889730305191e-01 -1.1580693991214634e+00 1.5325456311562013e+00 1.4868311449186937e+00 -1.5217004274138815e+00 8.7946677444228105e-01 -3.5395230259295418e-01 -3.9779970982406182e-01 
        </Neuron>
        <Neuron NSynapses="9">
          -2.3259317608823496e-01 1.0116553151309607e-01 -1.2636823015439038e+00 7.4702567772159467e-01 2.3405248133218453e+00 -8.4072029348118527e-01 -1.5386466266801193e+00 1.4563179752096580e+00 1.0971212949760925e-01 
        </Neuron>
        <Neuron NSynapses="9">
          -2.6205234471326400e-01 8.3459934863532070e-01 -2.1171783211994302e-01 -1.1773823924285065e+00 7.8563819658310621e-02 -9.3727448052055323e-02 1.9259721955502602e+00 7.5504915163375430e-01 6.6423814982236040e-01 
        </Neuron>
        <Neuron NSynapses="9">
          -3.2994430845443012e-02 -3.1664425690053599e-01 -2.4525160314059322e+00 9.1585263276414364e-01 -1.0852776133377375e+00 3.9570525541709936e-02 1.1418983774963494e+00 -1.3333704969398954e+00 5.3555413631450877e-01 
        </Neuron>
        <Neuron NSynapses="9">
          1.3943188687237877e+00 2.2729173570647712e+00 -1.5431421542933361e+00 -9.8210461040617619e-02 -5.8864921602680875e-01 2.4850796821785068e+00 2.4575821545606760e-01 -1.3899344599982235e+00 -3.1782570364727716e-02 
        </Neuron>
        <Neuron NSynapses="9">
          -8.2206689209612793e-01 1.5334255059233668e+00 3.4574548133392818e-01 4.0275787300522514e-01 -6.3608162184958716e-01 6.9878778499503635e-01 -9.2694852330644384e-01 2.0256251477029533e-01 1.1221736008553964e+00 
        </Neuron>
        <Neuron NSynapses="9">
          -9.5203401212704875e-01 -8.7043691204073947e-01 -1.8821347595370203e-01 1.3142678829874370e+00 1.6524158880377052e-01 9.0779778148828472e-01 -1.4878499660618993e-01 1.2777549622620055e+00 1.4203704414412353e+00 
        </Neuron>
        <Neuron NSynapses="9">
          1.3552209067511098e-01 4.1952091336297193e-01 3.9457322396160638e-01 -1.2173973180225925e-01 -3.3050852604382883e-02 8.0989287118208109e-01 -1.2285132228637898e+00 7.6973174547393844e-02 1.0107908872723044e+00 
        </Neuron>
        <Neuron NSynapses="9">
          1.4521688323291486e+00 1.1367524349088247e-01 2.2886342214045325e+00 1.9755271261782654e+00 -1.6875522417278712e+00 4.1933348180200342e-01 -1.5958576806673361e-01 3.4373228264931299e-01 -2.4426942826994020e+00 
        </Neuron>
      </Layer>
      <Layer Index="2" NNeurons="10">
        <Neuron NSynapses="1">
          1.7669026512220040e-01 
        </Neuron>
        <Neuron NSynapses="1">
          5.3279877515514516e-02 
        </Neuron>
        <Neuron NSynapses="1">
          -7.7877107544872717e-02 
        </Neuron>
        <Neuron NSynapses="1">
          3.5199070436468326e-02 
        </Neuron>
        <Neuron NSynapses="1">
          -1.1999343270406590e-01 
        </Neuron>
        <Neuron NSynapses="1">
          -4.4531138443296592e-04 
        </Neuron>
        <Neuron NSynapses="1">
          6.7564715651366222e-02 
        </Neuron>
        <Neuron NSynapses="1">
          -1.3317038347971308e+00 
        </Neuron>
        <Neuron NSynapses="1">
          5.6562565955695587e-01 
        </Neuron>
        <Neuron NSynapses="1">
          -7.2054613661167910e-01 
        </Neuron>
      </Layer>
      <Layer Index="3" NNeurons="1">
        <Neuron NSynapses="0"/>
      </Layer>
    </Layout>
  </Weights>
</MethodSetup>
