<?xml version="1.0"?>
<MethodSetup Method="MLP::XS_73_181_0_n2n">
  <GeneralInfo>
    <Info name="TMVA Release" value="4.2.0 [262656]"/>
    <Info name="ROOT Release" value="5.34/14 [336398]"/>
    <Info name="Creator" value="courtin"/>
    <Info name="Date" value="Mon Oct  3 18:28:58 2016"/>
    <Info name="Host" value="Linux nansl3.in2p3.fr 2.6.32-431.20.3.el6.x86_64 #1 SMP Thu Jun 19 14:01:59 CDT 2014 x86_64 x86_64 x86_64 GNU/Linux"/>
    <Info name="Dir" value="/scratch/spallati/courtin/WORK/MOxEUS/BdD_MOxEUS/MOxEUS_NN/XSM/MLP/Train"/>
    <Info name="Training events" value="77710"/>
    <Info name="TrainingTime" value="7.44039638e+02"/>
    <Info name="AnalysisType" value="Regression"/>
  </GeneralInfo>
  <Options>
    <Option name="NCycles" modified="Yes">20000</Option>
    <Option name="HiddenLayers" modified="Yes">N,N</Option>
    <Option name="NeuronType" modified="Yes">tanh</Option>
    <Option name="RandomSeed" modified="No">1</Option>
    <Option name="EstimatorType" modified="No">MSE</Option>
    <Option name="NeuronInputType" modified="No">sum</Option>
    <Option name="V" modified="Yes">False</Option>
    <Option name="VerbosityLevel" modified="No">Default</Option>
    <Option name="VarTransform" modified="Yes">Norm</Option>
    <Option name="H" modified="Yes">False</Option>
    <Option name="CreateMVAPdfs" modified="No">False</Option>
    <Option name="IgnoreNegWeightsInTraining" modified="No">False</Option>
    <Option name="TrainingMethod" modified="Yes">BFGS</Option>
    <Option name="LearningRate" modified="No">2.000000e-02</Option>
    <Option name="DecayRate" modified="No">1.000000e-02</Option>
    <Option name="TestRate" modified="Yes">6</Option>
    <Option name="EpochMonitoring" modified="No">False</Option>
    <Option name="Sampling" modified="Yes">3.000000e-01</Option>
    <Option name="SamplingEpoch" modified="Yes">8.000000e-01</Option>
    <Option name="SamplingImportance" modified="No">1.000000e+00</Option>
    <Option name="SamplingTraining" modified="No">True</Option>
    <Option name="SamplingTesting" modified="No">False</Option>
    <Option name="ResetStep" modified="No">50</Option>
    <Option name="Tau" modified="No">3.000000e+00</Option>
    <Option name="BPMode" modified="No">sequential</Option>
    <Option name="BatchSize" modified="No">-1</Option>
    <Option name="ConvergenceImprove" modified="Yes">1.000000e-06</Option>
    <Option name="ConvergenceTests" modified="Yes">15</Option>
    <Option name="UseRegulator" modified="Yes">False</Option>
    <Option name="UpdateLimit" modified="No">10000</Option>
    <Option name="CalculateErrors" modified="No">False</Option>
    <Option name="WeightRange" modified="No">1.000000e+00</Option>
  </Options>
  <Variables NVar="9">
    <Variable VarIndex="0" Expression="U5" Label="U5" Title="U 235" Unit="FractionIsotopic" Internal="U5" Type="F" Min="2.30270298e-03" Max="5.00135981e-02"/>
    <Variable VarIndex="1" Expression="U8" Label="U8" Title="U 238" Unit="FractionIsotopic" Internal="U8" Type="F" Min="8.04198325e-01" Max="9.91633654e-01"/>
    <Variable VarIndex="2" Expression="Pu8" Label="Pu8" Title="Pu 238" Unit="FractionIsotopic" Internal="Pu8" Type="F" Min="2.42847864e-06" Max="1.25759691e-02"/>
    <Variable VarIndex="3" Expression="Pu9" Label="Pu9" Title="Pu 239" Unit="FractionIsotopic" Internal="Pu9" Type="F" Min="2.72685829e-05" Max="1.18448287e-01"/>
    <Variable VarIndex="4" Expression="Pu10" Label="Pu10" Title="Pu 240" Unit="FractionIsotopic" Internal="Pu10" Type="F" Min="1.36823164e-05" Max="6.08281456e-02"/>
    <Variable VarIndex="5" Expression="Pu11" Label="Pu11" Title="Pu 241" Unit="FractionIsotopic" Internal="Pu11" Type="F" Min="5.21284107e-07" Max="3.61828022e-02"/>
    <Variable VarIndex="6" Expression="Pu12" Label="Pu12" Title="Pu 242" Unit="FractionIsotopic" Internal="Pu12" Type="F" Min="1.39559679e-05" Max="5.31211868e-02"/>
    <Variable VarIndex="7" Expression="Am1" Label="Am1" Title="Am 241" Unit="FractionIsotopic" Internal="Am1" Type="F" Min="1.16816601e-07" Max="1.22549152e-02"/>
    <Variable VarIndex="8" Expression="Time" Label="Time" Title="Time" Unit="seconds" Internal="Time" Type="F" Min="0.00000000e+00" Max="1.89328304e+08"/>
  </Variables>
  <Spectators NSpec="0"/>
  <Classes NClass="1">
    <Class Name="Regression" Index="0"/>
  </Classes>
  <Targets NTrgt="1">
    <Target TargetIndex="0" Expression="XS_73_181_0_n2n" Label="XS_73_181_0_n2n" Title="XS_73_181_0_n2n" Unit="" Internal="XS_73_181_0_n2n" Type="F" Min="1.29849196e-03" Max="3.14874505e-03"/>
  </Targets>
  <Transformations NTransformations="1">
    <Transform Name="Normalize">
      <Selection>
        <Input NInputs="10">
          <Input Type="Variable" Label="U5" Expression="U5"/>
          <Input Type="Variable" Label="U8" Expression="U8"/>
          <Input Type="Variable" Label="Pu8" Expression="Pu8"/>
          <Input Type="Variable" Label="Pu9" Expression="Pu9"/>
          <Input Type="Variable" Label="Pu10" Expression="Pu10"/>
          <Input Type="Variable" Label="Pu11" Expression="Pu11"/>
          <Input Type="Variable" Label="Pu12" Expression="Pu12"/>
          <Input Type="Variable" Label="Am1" Expression="Am1"/>
          <Input Type="Variable" Label="Time" Expression="Time"/>
          <Input Type="Target" Label="XS_73_181_0_n2n" Expression="XS_73_181_0_n2n"/>
        </Input>
        <Output NOutputs="10">
          <Output Type="Variable" Label="U5" Expression="U5"/>
          <Output Type="Variable" Label="U8" Expression="U8"/>
          <Output Type="Variable" Label="Pu8" Expression="Pu8"/>
          <Output Type="Variable" Label="Pu9" Expression="Pu9"/>
          <Output Type="Variable" Label="Pu10" Expression="Pu10"/>
          <Output Type="Variable" Label="Pu11" Expression="Pu11"/>
          <Output Type="Variable" Label="Pu12" Expression="Pu12"/>
          <Output Type="Variable" Label="Am1" Expression="Am1"/>
          <Output Type="Variable" Label="Time" Expression="Time"/>
          <Output Type="Target" Label="XS_73_181_0_n2n" Expression="XS_73_181_0_n2n"/>
        </Output>
      </Selection>
      <Class ClassIndex="0">
        <Ranges>
          <Range Index="0" Min="2.3027029819786549e-03" Max="5.0013598054647446e-02"/>
          <Range Index="1" Min="8.0419832468032837e-01" Max="9.9163365364074707e-01"/>
          <Range Index="2" Min="2.4284786377393175e-06" Max="1.2575969099998474e-02"/>
          <Range Index="3" Min="2.7268582925898954e-05" Max="1.1844828724861145e-01"/>
          <Range Index="4" Min="1.3682316421181895e-05" Max="6.0828145593404770e-02"/>
          <Range Index="5" Min="5.2128410743534914e-07" Max="3.6182802170515060e-02"/>
          <Range Index="6" Min="1.3955967915535439e-05" Max="5.3121186792850494e-02"/>
          <Range Index="7" Min="1.1681660083695533e-07" Max="1.2254915200173855e-02"/>
          <Range Index="8" Min="0.0000000000000000e+00" Max="1.8932830400000000e+08"/>
          <Range Index="9" Min="1.2984919594600797e-03" Max="3.1487450469285250e-03"/>
        </Ranges>
      </Class>
    </Transform>
  </Transformations>
  <MVAPdfs/>
  <Weights>
    <Layout NLayers="4">
      <Layer Index="0" NNeurons="10">
        <Neuron NSynapses="9">
          -3.4498924056442615e-01 1.9498776496154011e+00 2.1313945320202018e-01 4.8094298963916909e-01 -2.5927861310419043e+00 -1.0173256714418899e+00 -5.3164501519201801e-01 8.8772417206243626e-01 -8.4023581630394684e-01 
        </Neuron>
        <Neuron NSynapses="9">
          -1.5001852565043103e+00 -1.9713648721947168e+00 1.1073367878994138e+00 -1.9112324548417068e+00 -2.2769584727490574e-01 -1.4425113395641467e+00 5.0798669153759712e-01 8.9386209913736181e-01 1.5542131529023138e+00 
        </Neuron>
        <Neuron NSynapses="9">
          2.7054987052838059e-01 7.7798674919247524e-01 4.9567049027788107e-02 -2.2656713137157683e-01 6.2523715579311956e-01 2.0016668531040815e-01 -3.4390753664847334e-01 2.9233426385816969e-01 1.9111556309022879e+00 
        </Neuron>
        <Neuron NSynapses="9">
          -1.4733041126180053e+00 -1.2757625922194777e+00 -7.3577387047833709e-01 1.0109307742479325e+00 2.1953224943068590e+00 1.1282115210668613e+00 2.7565707835518710e-01 -4.9278433319454619e-02 2.0470008513751414e-01 
        </Neuron>
        <Neuron NSynapses="9">
          -1.1870545657096681e+00 1.4307841441978710e+00 -9.9218997008480983e-02 9.7215777946244886e-01 7.9740429911459021e-01 4.8403328833857706e-01 2.1461075784002404e+00 1.2030232123546498e+00 -3.2386868445557987e-01 
        </Neuron>
        <Neuron NSynapses="9">
          -1.5228922702098122e+00 6.2435256547816753e-01 -4.7843452140548437e-01 1.3706176214903958e+00 1.8067872493517900e+00 6.5345168557671895e-01 1.6383693846301832e+00 -1.0002551164322453e+00 1.9455152758744294e+00 
        </Neuron>
        <Neuron NSynapses="9">
          -1.5938278431838446e+00 -1.5129942141198591e+00 1.2015363764174450e-01 -1.0722153359163369e+00 1.6296609475998820e+00 1.6481127626397088e-01 -6.5809767058288793e-01 7.3960641346856326e-01 3.1819127715317053e-01 
        </Neuron>
        <Neuron NSynapses="9">
          3.3822519512463167e-01 1.4090707946251420e+00 -8.1263868404044773e-02 9.1654225810030066e-01 5.9905064102351170e-02 -5.9622719483421321e-02 7.1743066563626362e-02 2.1913178435095768e-01 -4.6493918101885301e-01 
        </Neuron>
        <Neuron NSynapses="9">
          5.2696894671044481e-01 1.5613978703498417e+00 -4.1482623457254786e-01 7.7591137532783883e-01 -3.3721433445709498e-01 -6.3103550753292159e-02 5.3401605995828072e-01 -7.8192293556309800e-01 1.1420978489793028e+00 
        </Neuron>
        <Neuron NSynapses="9">
          1.3539447828985653e+00 1.4370371924387522e+00 -2.7957592262366355e+00 -1.4179473963928255e-01 -8.1669193881987578e-01 1.5262418233690322e+00 -2.0547166669560668e+00 -3.1374203922900725e+00 -2.7520499895514745e+00 
        </Neuron>
      </Layer>
      <Layer Index="1" NNeurons="10">
        <Neuron NSynapses="9">
          -5.3739494053838800e-02 -4.0214642593317654e-02 1.5303227110860704e+00 -1.6093921311985584e+00 -1.0108456069441882e+00 1.0314115009368368e+00 -4.4062730994346555e-01 -1.7205760376299017e+00 -1.8986489041418706e+00 
        </Neuron>
        <Neuron NSynapses="9">
          4.9843391636479206e-01 -9.4982246478872312e-01 -1.4287131236755632e+00 -4.8295373831946586e-01 1.3232942508635135e+00 -1.3504219138121811e+00 1.2328609685339951e+00 2.1341661444093024e-01 -5.7046657076412377e-01 
        </Neuron>
        <Neuron NSynapses="9">
          -5.3196803707888540e-01 1.3794816354491307e-01 -7.1083272487776106e-01 1.3338261631839443e+00 1.1959870895822966e+00 -7.8513970171906866e-01 -1.8366175706717121e+00 1.6178828332102995e+00 1.3292349414453988e-01 
        </Neuron>
        <Neuron NSynapses="9">
          3.9758435176269038e-03 1.7845008281528868e-01 -2.6534899581365740e-01 -1.9104017267036464e+00 4.1692679632414564e-01 1.8995121675471793e-01 1.4148173893211871e+00 -3.8160308492736239e-01 4.5422274205769481e-01 
        </Neuron>
        <Neuron NSynapses="9">
          -2.3674280550673565e-01 3.4265944783929025e-01 -2.4224727942427644e+00 1.1533042700825430e-01 -3.5726127747959843e-02 -2.9746435762954770e-01 6.4026654933161797e-01 -1.3146244568846996e+00 3.4256477826340143e-01 
        </Neuron>
        <Neuron NSynapses="9">
          1.5375927445798889e+00 2.3008882827003148e+00 -2.2725308488834730e+00 -3.6075490445161590e-01 9.4991709740670793e-01 2.9128311651610379e+00 -1.0139656926695380e-01 -1.7555469659237837e+00 -9.9001881428666547e-02 
        </Neuron>
        <Neuron NSynapses="9">
          -7.2897025102130830e-01 1.3896441834046196e+00 9.0807598552160196e-01 -4.0886064771561254e-01 -1.1773128534962099e-01 8.2514322979454580e-01 -1.5260569053142521e+00 4.9196517868663170e-01 1.2535981604759281e+00 
        </Neuron>
        <Neuron NSynapses="9">
          -8.4657706078302686e-01 -6.3360942422298105e-01 5.8005317395686262e-01 1.3644589385270602e+00 5.4047412375215442e-01 -5.1603620089535937e-02 -1.1510862754297524e+00 1.0932037619907851e+00 1.1333049812147640e+00 
        </Neuron>
        <Neuron NSynapses="9">
          3.8336011934351782e-01 3.7818100637199153e-01 1.2080602116443615e+00 1.1264496203328433e-01 -1.5941570912516514e-01 7.6807192015352388e-01 -1.0668403804258537e+00 4.5219139273362702e-01 1.2109314220291867e+00 
        </Neuron>
        <Neuron NSynapses="9">
          1.2500056211249557e+00 -1.4647758766136446e-01 1.4627701370179729e+00 1.8140637362958414e+00 -2.2970372040390195e+00 2.5048622697342399e-01 4.2229336725169253e-01 2.7257740939765068e-01 -2.2336766348544517e+00 
        </Neuron>
      </Layer>
      <Layer Index="2" NNeurons="10">
        <Neuron NSynapses="1">
          1.1179698390095359e-01 
        </Neuron>
        <Neuron NSynapses="1">
          6.5743706885102698e-02 
        </Neuron>
        <Neuron NSynapses="1">
          -3.2839573729236946e-02 
        </Neuron>
        <Neuron NSynapses="1">
          -9.8168605178883053e-02 
        </Neuron>
        <Neuron NSynapses="1">
          1.0257136325493001e+00 
        </Neuron>
        <Neuron NSynapses="1">
          2.3845686627811453e-02 
        </Neuron>
        <Neuron NSynapses="1">
          6.6709039455180663e-01 
        </Neuron>
        <Neuron NSynapses="1">
          -1.3130158407585240e+00 
        </Neuron>
        <Neuron NSynapses="1">
          2.0668735522039153e-01 
        </Neuron>
        <Neuron NSynapses="1">
          -5.5993922657002393e-01 
        </Neuron>
      </Layer>
      <Layer Index="3" NNeurons="1">
        <Neuron NSynapses="0"/>
      </Layer>
    </Layout>
  </Weights>
</MethodSetup>
