<?xml version="1.0"?>
<MethodSetup Method="MLP::XS_52_124_0_cap">
  <GeneralInfo>
    <Info name="TMVA Release" value="4.2.0 [262656]"/>
    <Info name="ROOT Release" value="5.34/14 [336398]"/>
    <Info name="Creator" value="courtin"/>
    <Info name="Date" value="Mon Oct  3 14:19:38 2016"/>
    <Info name="Host" value="Linux nansl3.in2p3.fr 2.6.32-431.20.3.el6.x86_64 #1 SMP Thu Jun 19 14:01:59 CDT 2014 x86_64 x86_64 x86_64 GNU/Linux"/>
    <Info name="Dir" value="/scratch/spallati/courtin/WORK/MOxEUS/BdD_MOxEUS/MOxEUS_NN/XSM/MLP/Train"/>
    <Info name="Training events" value="77710"/>
    <Info name="TrainingTime" value="1.78171653e+03"/>
    <Info name="AnalysisType" value="Regression"/>
  </GeneralInfo>
  <Options>
    <Option name="NCycles" modified="Yes">20000</Option>
    <Option name="HiddenLayers" modified="Yes">N,N</Option>
    <Option name="NeuronType" modified="Yes">tanh</Option>
    <Option name="RandomSeed" modified="No">1</Option>
    <Option name="EstimatorType" modified="No">MSE</Option>
    <Option name="NeuronInputType" modified="No">sum</Option>
    <Option name="V" modified="Yes">False</Option>
    <Option name="VerbosityLevel" modified="No">Default</Option>
    <Option name="VarTransform" modified="Yes">Norm</Option>
    <Option name="H" modified="Yes">False</Option>
    <Option name="CreateMVAPdfs" modified="No">False</Option>
    <Option name="IgnoreNegWeightsInTraining" modified="No">False</Option>
    <Option name="TrainingMethod" modified="Yes">BFGS</Option>
    <Option name="LearningRate" modified="No">2.000000e-02</Option>
    <Option name="DecayRate" modified="No">1.000000e-02</Option>
    <Option name="TestRate" modified="Yes">6</Option>
    <Option name="EpochMonitoring" modified="No">False</Option>
    <Option name="Sampling" modified="Yes">3.000000e-01</Option>
    <Option name="SamplingEpoch" modified="Yes">8.000000e-01</Option>
    <Option name="SamplingImportance" modified="No">1.000000e+00</Option>
    <Option name="SamplingTraining" modified="No">True</Option>
    <Option name="SamplingTesting" modified="No">False</Option>
    <Option name="ResetStep" modified="No">50</Option>
    <Option name="Tau" modified="No">3.000000e+00</Option>
    <Option name="BPMode" modified="No">sequential</Option>
    <Option name="BatchSize" modified="No">-1</Option>
    <Option name="ConvergenceImprove" modified="Yes">1.000000e-06</Option>
    <Option name="ConvergenceTests" modified="Yes">15</Option>
    <Option name="UseRegulator" modified="Yes">False</Option>
    <Option name="UpdateLimit" modified="No">10000</Option>
    <Option name="CalculateErrors" modified="No">False</Option>
    <Option name="WeightRange" modified="No">1.000000e+00</Option>
  </Options>
  <Variables NVar="9">
    <Variable VarIndex="0" Expression="U5" Label="U5" Title="U 235" Unit="FractionIsotopic" Internal="U5" Type="F" Min="2.30270298e-03" Max="5.00135981e-02"/>
    <Variable VarIndex="1" Expression="U8" Label="U8" Title="U 238" Unit="FractionIsotopic" Internal="U8" Type="F" Min="8.04198325e-01" Max="9.91633654e-01"/>
    <Variable VarIndex="2" Expression="Pu8" Label="Pu8" Title="Pu 238" Unit="FractionIsotopic" Internal="Pu8" Type="F" Min="2.42847864e-06" Max="1.25759691e-02"/>
    <Variable VarIndex="3" Expression="Pu9" Label="Pu9" Title="Pu 239" Unit="FractionIsotopic" Internal="Pu9" Type="F" Min="2.72685829e-05" Max="1.18448287e-01"/>
    <Variable VarIndex="4" Expression="Pu10" Label="Pu10" Title="Pu 240" Unit="FractionIsotopic" Internal="Pu10" Type="F" Min="1.36823164e-05" Max="6.08281456e-02"/>
    <Variable VarIndex="5" Expression="Pu11" Label="Pu11" Title="Pu 241" Unit="FractionIsotopic" Internal="Pu11" Type="F" Min="5.21284107e-07" Max="3.61828022e-02"/>
    <Variable VarIndex="6" Expression="Pu12" Label="Pu12" Title="Pu 242" Unit="FractionIsotopic" Internal="Pu12" Type="F" Min="1.39559679e-05" Max="5.31211868e-02"/>
    <Variable VarIndex="7" Expression="Am1" Label="Am1" Title="Am 241" Unit="FractionIsotopic" Internal="Am1" Type="F" Min="1.16816601e-07" Max="1.22549152e-02"/>
    <Variable VarIndex="8" Expression="Time" Label="Time" Title="Time" Unit="seconds" Internal="Time" Type="F" Min="0.00000000e+00" Max="1.89328304e+08"/>
  </Variables>
  <Spectators NSpec="0"/>
  <Classes NClass="1">
    <Class Name="Regression" Index="0"/>
  </Classes>
  <Targets NTrgt="1">
    <Target TargetIndex="0" Expression="XS_52_124_0_cap" Label="XS_52_124_0_cap" Title="XS_52_124_0_cap" Unit="" Internal="XS_52_124_0_cap" Type="F" Min="3.37100804e-01" Max="1.23816097e+00"/>
  </Targets>
  <Transformations NTransformations="1">
    <Transform Name="Normalize">
      <Selection>
        <Input NInputs="10">
          <Input Type="Variable" Label="U5" Expression="U5"/>
          <Input Type="Variable" Label="U8" Expression="U8"/>
          <Input Type="Variable" Label="Pu8" Expression="Pu8"/>
          <Input Type="Variable" Label="Pu9" Expression="Pu9"/>
          <Input Type="Variable" Label="Pu10" Expression="Pu10"/>
          <Input Type="Variable" Label="Pu11" Expression="Pu11"/>
          <Input Type="Variable" Label="Pu12" Expression="Pu12"/>
          <Input Type="Variable" Label="Am1" Expression="Am1"/>
          <Input Type="Variable" Label="Time" Expression="Time"/>
          <Input Type="Target" Label="XS_52_124_0_cap" Expression="XS_52_124_0_cap"/>
        </Input>
        <Output NOutputs="10">
          <Output Type="Variable" Label="U5" Expression="U5"/>
          <Output Type="Variable" Label="U8" Expression="U8"/>
          <Output Type="Variable" Label="Pu8" Expression="Pu8"/>
          <Output Type="Variable" Label="Pu9" Expression="Pu9"/>
          <Output Type="Variable" Label="Pu10" Expression="Pu10"/>
          <Output Type="Variable" Label="Pu11" Expression="Pu11"/>
          <Output Type="Variable" Label="Pu12" Expression="Pu12"/>
          <Output Type="Variable" Label="Am1" Expression="Am1"/>
          <Output Type="Variable" Label="Time" Expression="Time"/>
          <Output Type="Target" Label="XS_52_124_0_cap" Expression="XS_52_124_0_cap"/>
        </Output>
      </Selection>
      <Class ClassIndex="0">
        <Ranges>
          <Range Index="0" Min="2.3027029819786549e-03" Max="5.0013598054647446e-02"/>
          <Range Index="1" Min="8.0419832468032837e-01" Max="9.9163365364074707e-01"/>
          <Range Index="2" Min="2.4284786377393175e-06" Max="1.2575969099998474e-02"/>
          <Range Index="3" Min="2.7268582925898954e-05" Max="1.1844828724861145e-01"/>
          <Range Index="4" Min="1.3682316421181895e-05" Max="6.0828145593404770e-02"/>
          <Range Index="5" Min="5.2128410743534914e-07" Max="3.6182802170515060e-02"/>
          <Range Index="6" Min="1.3955967915535439e-05" Max="5.3121186792850494e-02"/>
          <Range Index="7" Min="1.1681660083695533e-07" Max="1.2254915200173855e-02"/>
          <Range Index="8" Min="0.0000000000000000e+00" Max="1.8932830400000000e+08"/>
          <Range Index="9" Min="3.3710080385208130e-01" Max="1.2381609678268433e+00"/>
        </Ranges>
      </Class>
    </Transform>
  </Transformations>
  <MVAPdfs/>
  <Weights>
    <Layout NLayers="4">
      <Layer Index="0" NNeurons="10">
        <Neuron NSynapses="9">
          -6.8804226709201044e-01 9.8679622087580776e-01 -5.2114719687365851e-01 1.0197545015955163e+00 1.0471444431591082e-01 -8.7413357251707306e-04 -6.5994207111098568e-01 1.6358648272733027e+00 -7.8739677333319569e-01 
        </Neuron>
        <Neuron NSynapses="9">
          -1.9350805536632549e+00 -1.7378394676073436e+00 -1.9467846275026475e+00 5.4555993053399289e-02 -1.1148785934602103e+00 -1.5290230614509770e+00 1.0817224922426076e+00 -6.4735192815193177e-01 2.2296213721711986e+00 
        </Neuron>
        <Neuron NSynapses="9">
          -3.7282323718262023e-01 3.1495603992934745e-01 -2.2572150181484699e-01 9.5531586613848724e-02 -1.7769345295858083e-01 4.6660222274647584e-02 -4.9650591958584955e-01 2.7439039554521594e-01 -4.4973158973620081e-01 
        </Neuron>
        <Neuron NSynapses="9">
          -2.2138507334046871e+00 -8.9087154385557199e-01 -8.6333718787533709e-02 8.2703435568264105e-01 2.6410831556016605e+00 6.0000993361696786e-01 1.6080156927764394e-01 1.1223993865412210e+00 -2.5768031736234804e+00 
        </Neuron>
        <Neuron NSynapses="9">
          -8.7778267545334154e-01 1.8514761716528050e-01 -1.1117013942798410e+00 8.9898354912155043e-01 -1.0894880616257612e-02 4.3275916876175358e-01 1.6764601619206037e+00 1.3739856685561527e+00 -9.4859480930431439e-01 
        </Neuron>
        <Neuron NSynapses="9">
          -3.3022195469919391e-01 -4.3501746138710812e-01 1.5657138492004433e-01 1.3658582134597781e+00 1.5256284832803610e+00 -2.5193226285529464e-02 1.6303418634743110e+00 -7.8630748905591019e-01 -3.8960166909514965e-01 
        </Neuron>
        <Neuron NSynapses="9">
          -6.4542055170917267e-01 -2.2956551916545185e+00 -4.0694125389979813e-01 -3.7378630665809631e-01 -8.6513695604062790e-01 -1.7931017805699262e-01 -1.9956333831132533e-01 3.7205832184246918e-01 5.8388856588356619e-01 
        </Neuron>
        <Neuron NSynapses="9">
          -2.8759877096455078e-01 2.0317552327055285e-01 7.1197706016462914e-02 1.0985288380892140e+00 -8.6231631780222318e-01 1.2651129828089702e-01 4.2110616233856715e-02 4.8302485937103701e-01 -4.3666697700232421e-01 
        </Neuron>
        <Neuron NSynapses="9">
          1.0861246684047863e+00 4.9335084461348572e-02 8.1799650877840779e-01 -4.5902266496102864e-02 -1.7405185401561953e+00 -2.4832785514125449e-01 1.3854189959601404e-01 -1.1412711478633139e-01 7.1949679288322277e-01 
        </Neuron>
        <Neuron NSynapses="9">
          1.9824553827425950e+00 2.3751090639917747e+00 1.4322838398897346e+00 -3.0449499950636318e+00 5.8158158570340079e-01 2.0620035509434254e+00 -2.6269178403409206e+00 -2.3408716779148517e+00 -3.6546645717934362e-01 
        </Neuron>
      </Layer>
      <Layer Index="1" NNeurons="10">
        <Neuron NSynapses="9">
          5.6042550135359936e-01 2.5579629675344628e-01 9.5485364423103569e-01 -1.2405110368778514e+00 -6.3168035697050606e-01 1.8613411299043527e+00 -6.7473680522720680e-01 -1.7879124285110120e+00 -1.4377142909003346e+00 
        </Neuron>
        <Neuron NSynapses="9">
          6.0692371194925132e-01 -1.8318179999574857e+00 -2.0992244569347576e+00 2.8354821109478717e-01 5.3248849925354003e-01 -6.5270498559124490e-01 1.1933083254516879e+00 -8.8211982444696801e-01 -8.7640380833994980e-01 
        </Neuron>
        <Neuron NSynapses="9">
          1.5808126723778076e-01 6.7824355553747917e-01 -1.6568114310557980e+00 2.7301678679239703e+00 7.3286930440088505e-01 1.1103755586250545e+00 -1.8015997197236464e+00 2.1364986776776242e+00 4.3742706954073346e-01 
        </Neuron>
        <Neuron NSynapses="9">
          -6.3538524576479760e-01 4.6792177524522088e-01 -1.0859566606141724e+00 -8.8136281319776499e-01 3.9104105279375917e-01 -5.5257965408491971e-01 1.2981899416454188e+00 1.0288149230497707e+00 1.3621201362704574e-02 
        </Neuron>
        <Neuron NSynapses="9">
          -6.6958499268062022e-01 1.9567993882963963e-01 -5.7603082935263383e-01 -1.8137004531798900e-01 -1.0022170017421371e-01 -1.8782129141594583e+00 7.8155634725365397e-01 -1.1410226054450325e+00 -2.6901658002251670e-02 
        </Neuron>
        <Neuron NSynapses="9">
          1.1117454648339116e+00 2.5926711206863300e+00 -1.7915099165383823e+00 2.0050909685097138e+00 1.2649893024234555e+00 1.3967075561112845e+00 1.4749733617188081e+00 -2.6702508686955491e+00 -2.9392402057225953e-01 
        </Neuron>
        <Neuron NSynapses="9">
          -7.9370624807149792e-01 8.6677123098758213e-01 1.2703303102633174e+00 5.2793549458880407e-01 -3.6409598845017432e-01 2.2647621119696137e-01 -1.3717726353095456e+00 6.1377763452080780e-01 1.7304552070518360e+00 
        </Neuron>
        <Neuron NSynapses="9">
          -1.0261609353296983e+00 3.7521209851217090e-02 -1.5669858209233298e-01 1.4062978704951066e+00 1.8221160928538771e-01 4.8510537781507029e-01 -1.6212052363841050e+00 1.1053867811557745e+00 7.8541200442478420e-01 
        </Neuron>
        <Neuron NSynapses="9">
          -2.4957946076822693e-01 -1.8192145600341739e-01 1.3337163613170366e+00 -8.8964354295695480e-01 1.8065553503943874e-02 1.1835565033552813e+00 -5.9229958681439909e-01 -1.5861747453010275e-01 1.5283013938208245e+00 
        </Neuron>
        <Neuron NSynapses="9">
          2.2749666313815999e+00 6.1690972752389828e-02 1.0049398519960118e+00 2.3220519089358773e+00 -2.5622304400434643e+00 9.2007611821665325e-01 1.7222312429617612e-01 2.1394810730107217e-01 -1.7503158464371888e+00 
        </Neuron>
      </Layer>
      <Layer Index="2" NNeurons="10">
        <Neuron NSynapses="1">
          2.3308248116102026e-01 
        </Neuron>
        <Neuron NSynapses="1">
          -1.2939360644692705e-01 
        </Neuron>
        <Neuron NSynapses="1">
          2.3798014824481672e-01 
        </Neuron>
        <Neuron NSynapses="1">
          -2.8797018771497229e+00 
        </Neuron>
        <Neuron NSynapses="1">
          -3.4694460320478093e-01 
        </Neuron>
        <Neuron NSynapses="1">
          3.2345237179321074e-01 
        </Neuron>
        <Neuron NSynapses="1">
          -4.8505153202757570e-02 
        </Neuron>
        <Neuron NSynapses="1">
          -1.1429281775678684e+00 
        </Neuron>
        <Neuron NSynapses="1">
          -6.2250773682499627e-01 
        </Neuron>
        <Neuron NSynapses="1">
          -2.5738183824453481e-01 
        </Neuron>
      </Layer>
      <Layer Index="3" NNeurons="1">
        <Neuron NSynapses="0"/>
      </Layer>
    </Layout>
  </Weights>
</MethodSetup>
