<?xml version="1.0"?>
<MethodSetup Method="MLP::XS_88_226_0_cap">
  <GeneralInfo>
    <Info name="TMVA Release" value="4.2.0 [262656]"/>
    <Info name="ROOT Release" value="5.34/14 [336398]"/>
    <Info name="Creator" value="courtin"/>
    <Info name="Date" value="Mon Oct  3 16:54:28 2016"/>
    <Info name="Host" value="Linux nansl3.in2p3.fr 2.6.32-431.20.3.el6.x86_64 #1 SMP Thu Jun 19 14:01:59 CDT 2014 x86_64 x86_64 x86_64 GNU/Linux"/>
    <Info name="Dir" value="/scratch/spallati/courtin/WORK/MOxEUS/BdD_MOxEUS/MOxEUS_NN/XSM/MLP/Train"/>
    <Info name="Training events" value="77710"/>
    <Info name="TrainingTime" value="2.40230205e+03"/>
    <Info name="AnalysisType" value="Regression"/>
  </GeneralInfo>
  <Options>
    <Option name="NCycles" modified="Yes">20000</Option>
    <Option name="HiddenLayers" modified="Yes">N,N</Option>
    <Option name="NeuronType" modified="Yes">tanh</Option>
    <Option name="RandomSeed" modified="No">1</Option>
    <Option name="EstimatorType" modified="No">MSE</Option>
    <Option name="NeuronInputType" modified="No">sum</Option>
    <Option name="V" modified="Yes">False</Option>
    <Option name="VerbosityLevel" modified="No">Default</Option>
    <Option name="VarTransform" modified="Yes">Norm</Option>
    <Option name="H" modified="Yes">False</Option>
    <Option name="CreateMVAPdfs" modified="No">False</Option>
    <Option name="IgnoreNegWeightsInTraining" modified="No">False</Option>
    <Option name="TrainingMethod" modified="Yes">BFGS</Option>
    <Option name="LearningRate" modified="No">2.000000e-02</Option>
    <Option name="DecayRate" modified="No">1.000000e-02</Option>
    <Option name="TestRate" modified="Yes">6</Option>
    <Option name="EpochMonitoring" modified="No">False</Option>
    <Option name="Sampling" modified="Yes">3.000000e-01</Option>
    <Option name="SamplingEpoch" modified="Yes">8.000000e-01</Option>
    <Option name="SamplingImportance" modified="No">1.000000e+00</Option>
    <Option name="SamplingTraining" modified="No">True</Option>
    <Option name="SamplingTesting" modified="No">False</Option>
    <Option name="ResetStep" modified="No">50</Option>
    <Option name="Tau" modified="No">3.000000e+00</Option>
    <Option name="BPMode" modified="No">sequential</Option>
    <Option name="BatchSize" modified="No">-1</Option>
    <Option name="ConvergenceImprove" modified="Yes">1.000000e-06</Option>
    <Option name="ConvergenceTests" modified="Yes">15</Option>
    <Option name="UseRegulator" modified="Yes">False</Option>
    <Option name="UpdateLimit" modified="No">10000</Option>
    <Option name="CalculateErrors" modified="No">False</Option>
    <Option name="WeightRange" modified="No">1.000000e+00</Option>
  </Options>
  <Variables NVar="9">
    <Variable VarIndex="0" Expression="U5" Label="U5" Title="U 235" Unit="FractionIsotopic" Internal="U5" Type="F" Min="2.30270298e-03" Max="5.00135981e-02"/>
    <Variable VarIndex="1" Expression="U8" Label="U8" Title="U 238" Unit="FractionIsotopic" Internal="U8" Type="F" Min="8.04198325e-01" Max="9.91633654e-01"/>
    <Variable VarIndex="2" Expression="Pu8" Label="Pu8" Title="Pu 238" Unit="FractionIsotopic" Internal="Pu8" Type="F" Min="2.42847864e-06" Max="1.25759691e-02"/>
    <Variable VarIndex="3" Expression="Pu9" Label="Pu9" Title="Pu 239" Unit="FractionIsotopic" Internal="Pu9" Type="F" Min="2.72685829e-05" Max="1.18448287e-01"/>
    <Variable VarIndex="4" Expression="Pu10" Label="Pu10" Title="Pu 240" Unit="FractionIsotopic" Internal="Pu10" Type="F" Min="1.36823164e-05" Max="6.08281456e-02"/>
    <Variable VarIndex="5" Expression="Pu11" Label="Pu11" Title="Pu 241" Unit="FractionIsotopic" Internal="Pu11" Type="F" Min="5.21284107e-07" Max="3.61828022e-02"/>
    <Variable VarIndex="6" Expression="Pu12" Label="Pu12" Title="Pu 242" Unit="FractionIsotopic" Internal="Pu12" Type="F" Min="1.39559679e-05" Max="5.31211868e-02"/>
    <Variable VarIndex="7" Expression="Am1" Label="Am1" Title="Am 241" Unit="FractionIsotopic" Internal="Am1" Type="F" Min="1.16816601e-07" Max="1.22549152e-02"/>
    <Variable VarIndex="8" Expression="Time" Label="Time" Title="Time" Unit="seconds" Internal="Time" Type="F" Min="0.00000000e+00" Max="1.89328304e+08"/>
  </Variables>
  <Spectators NSpec="0"/>
  <Classes NClass="1">
    <Class Name="Regression" Index="0"/>
  </Classes>
  <Targets NTrgt="1">
    <Target TargetIndex="0" Expression="XS_88_226_0_cap" Label="XS_88_226_0_cap" Title="XS_88_226_0_cap" Unit="" Internal="XS_88_226_0_cap" Type="F" Min="3.51838899e+00" Max="1.15231600e+01"/>
  </Targets>
  <Transformations NTransformations="1">
    <Transform Name="Normalize">
      <Selection>
        <Input NInputs="10">
          <Input Type="Variable" Label="U5" Expression="U5"/>
          <Input Type="Variable" Label="U8" Expression="U8"/>
          <Input Type="Variable" Label="Pu8" Expression="Pu8"/>
          <Input Type="Variable" Label="Pu9" Expression="Pu9"/>
          <Input Type="Variable" Label="Pu10" Expression="Pu10"/>
          <Input Type="Variable" Label="Pu11" Expression="Pu11"/>
          <Input Type="Variable" Label="Pu12" Expression="Pu12"/>
          <Input Type="Variable" Label="Am1" Expression="Am1"/>
          <Input Type="Variable" Label="Time" Expression="Time"/>
          <Input Type="Target" Label="XS_88_226_0_cap" Expression="XS_88_226_0_cap"/>
        </Input>
        <Output NOutputs="10">
          <Output Type="Variable" Label="U5" Expression="U5"/>
          <Output Type="Variable" Label="U8" Expression="U8"/>
          <Output Type="Variable" Label="Pu8" Expression="Pu8"/>
          <Output Type="Variable" Label="Pu9" Expression="Pu9"/>
          <Output Type="Variable" Label="Pu10" Expression="Pu10"/>
          <Output Type="Variable" Label="Pu11" Expression="Pu11"/>
          <Output Type="Variable" Label="Pu12" Expression="Pu12"/>
          <Output Type="Variable" Label="Am1" Expression="Am1"/>
          <Output Type="Variable" Label="Time" Expression="Time"/>
          <Output Type="Target" Label="XS_88_226_0_cap" Expression="XS_88_226_0_cap"/>
        </Output>
      </Selection>
      <Class ClassIndex="0">
        <Ranges>
          <Range Index="0" Min="2.3027029819786549e-03" Max="5.0013598054647446e-02"/>
          <Range Index="1" Min="8.0419832468032837e-01" Max="9.9163365364074707e-01"/>
          <Range Index="2" Min="2.4284786377393175e-06" Max="1.2575969099998474e-02"/>
          <Range Index="3" Min="2.7268582925898954e-05" Max="1.1844828724861145e-01"/>
          <Range Index="4" Min="1.3682316421181895e-05" Max="6.0828145593404770e-02"/>
          <Range Index="5" Min="5.2128410743534914e-07" Max="3.6182802170515060e-02"/>
          <Range Index="6" Min="1.3955967915535439e-05" Max="5.3121186792850494e-02"/>
          <Range Index="7" Min="1.1681660083695533e-07" Max="1.2254915200173855e-02"/>
          <Range Index="8" Min="0.0000000000000000e+00" Max="1.8932830400000000e+08"/>
          <Range Index="9" Min="3.5183889865875244e+00" Max="1.1523159980773926e+01"/>
        </Ranges>
      </Class>
    </Transform>
  </Transformations>
  <MVAPdfs/>
  <Weights>
    <Layout NLayers="4">
      <Layer Index="0" NNeurons="10">
        <Neuron NSynapses="9">
          -4.4016924947211800e-01 -4.4219942352252872e-01 -2.0062881771278995e-01 6.7401403920514424e-01 3.7893362430719030e-02 5.9688108953181225e-02 -1.4749017033151149e-01 4.2793811889068140e-01 -2.0277520460228790e-01 
        </Neuron>
        <Neuron NSynapses="9">
          -1.6790778616067412e+00 -1.6716087289979535e+00 -7.0302951354650534e-01 3.9157770237316075e-01 -1.4341210433368847e+00 -1.2432969948797457e+00 7.6565441591544070e-01 -1.6129363014637754e+00 1.3972884908151557e+00 
        </Neuron>
        <Neuron NSynapses="9">
          -5.4390791172617955e-02 -1.9560570802902025e-01 -1.3109231533699015e-01 7.6978521998510588e-02 1.1551911801133505e-01 1.0753801564498589e-02 -2.2939697347894905e-01 1.6154674825826273e-01 2.8613497696964540e-02 
        </Neuron>
        <Neuron NSynapses="9">
          -2.0949862430711370e+00 -3.9207530347216879e-01 -5.3475301165312117e-01 1.0044330594729152e+00 1.2122382818457518e+00 8.4358964993910790e-01 6.6398668622288626e-01 1.9052493476250372e+00 -1.3101204880326871e+00 
        </Neuron>
        <Neuron NSynapses="9">
          -6.5348072036917826e-01 -7.3369986369150472e-02 -4.3516212897661838e-01 9.2726730106987021e-01 1.1925740432680232e+00 5.4322361981418432e-01 1.8293114652193974e+00 1.2022917706770635e+00 -5.7276610728153188e-01 
        </Neuron>
        <Neuron NSynapses="9">
          -9.7463059486470083e-01 -2.4163028711632437e-01 -1.3799162640473658e-01 1.6043890585532437e+00 5.5875252396335195e-01 1.3022525796421969e-01 1.6712543369983370e+00 5.6159463576652191e-01 -4.1010077714757237e-01 
        </Neuron>
        <Neuron NSynapses="9">
          -9.9082338440621043e-01 -4.4020258840379378e-01 -4.7317927202493759e-01 -3.2242243993277703e-01 7.3494647883964415e-01 -7.7526059975126946e-02 -4.4106005021878436e-01 2.5160723577691219e-01 3.7440187157775368e-01 
        </Neuron>
        <Neuron NSynapses="9">
          -4.6958241167167492e-01 1.3367217642851972e+00 4.6446248619886399e-01 8.0376880245174998e-01 -3.9855211504462518e-01 2.8785567124342742e-01 9.6975712246030868e-02 -3.8370430279417178e-01 -2.9383855558355615e-01 
        </Neuron>
        <Neuron NSynapses="9">
          4.6578738060385272e-01 5.4013028998130308e-01 -2.1574296471628482e-01 -3.0421098707417571e-01 -9.2445058462287111e-01 -3.3068603666117874e-01 3.1987843499741586e-01 -3.7973620718267834e-02 5.2785173341128333e-01 
        </Neuron>
        <Neuron NSynapses="9">
          1.6460484862417313e+00 1.6648315404517762e+00 -1.7978455649010050e-01 -3.5880665274546573e+00 1.2854504193827174e+00 1.3236268271394085e+00 -2.8159928956945102e+00 -1.4510204058162410e+00 -6.5243400160197551e-01 
        </Neuron>
      </Layer>
      <Layer Index="1" NNeurons="10">
        <Neuron NSynapses="9">
          6.8150997979243033e-01 9.3754351958390991e-02 1.7185465833858655e+00 -9.8047197792089547e-01 -1.1740928373287525e+00 1.9975933708872593e+00 -7.7950913144316222e-02 -1.8064618119146916e+00 -1.6705756455261840e+00 
        </Neuron>
        <Neuron NSynapses="9">
          4.7716420631326201e-01 -1.7771384103468588e+00 -1.8249741847639622e+00 2.6538713270850878e-01 1.1755846296800307e+00 -7.2340237312511846e-01 2.0808982084041610e+00 -6.1986457637006255e-02 -7.2152602409863897e-01 
        </Neuron>
        <Neuron NSynapses="9">
          3.8215196855547645e-01 -9.2525172848550830e-02 -1.3989208132694786e+00 -2.8551342176053685e-01 6.4261517080111352e-01 1.3140989780673731e-01 -2.0961481972918619e+00 7.8996095020114176e-01 2.6387931754395405e-01 
        </Neuron>
        <Neuron NSynapses="9">
          -8.0563012898867514e-01 6.7760462543510125e-01 -1.8528513860197804e+00 -8.7935308108460164e-01 2.9388734463042582e-01 -4.8137779950938953e-01 7.0862894200125903e-01 1.0750641808245378e+00 2.2490768845404610e-01 
        </Neuron>
        <Neuron NSynapses="9">
          -8.5500011968495460e-01 5.7777042803322354e-01 -1.7219986792036113e-01 -2.7348036609230606e-02 2.1491259362749629e-01 -1.9546901542431008e+00 4.8950858625742076e-02 -1.2832363889761988e+00 1.1949014006962094e-01 
        </Neuron>
        <Neuron NSynapses="9">
          9.2657519482423834e-01 2.3520535789123840e+00 -1.2084294691213298e+00 4.1348825209094353e-01 1.1151033905928662e+00 1.6873257782885613e+00 1.1051556060511958e+00 -1.8969558281374257e+00 -3.4335158848205644e-01 
        </Neuron>
        <Neuron NSynapses="9">
          -7.8742690655377412e-01 1.0520392310902378e+00 1.4992258386867352e-01 2.6238556146498138e-01 -2.5769596750917605e-02 -1.2198663266858420e-01 -2.0917367113594660e+00 3.6662224492490264e-01 1.5153087228548880e+00 
        </Neuron>
        <Neuron NSynapses="9">
          -8.9928514215853805e-01 -6.4409860074004144e-01 -4.4112924497493633e-01 1.6926213150423857e+00 -1.2268104891547468e-01 -4.5898327212294643e-01 -2.3707299531574790e+00 1.0853905707297933e+00 1.0114930322302289e+00 
        </Neuron>
        <Neuron NSynapses="9">
          -1.4667093210989079e-01 2.0598715020919953e-01 1.1594358390636885e+00 -3.0393459771366071e-01 -2.3159612140941817e-02 1.2130306136214930e+00 -7.7693281441118967e-01 1.0840826532506181e-02 1.2384525191480455e+00 
        </Neuron>
        <Neuron NSynapses="9">
          2.2311363065247294e+00 4.3601896050986216e-02 1.6860393822423336e+00 2.4629282060344146e+00 -2.8571671980262523e+00 1.0940281342546472e+00 7.6209786509649369e-01 1.8138087787427445e-01 -1.9649025546138053e+00 
        </Neuron>
      </Layer>
      <Layer Index="2" NNeurons="10">
        <Neuron NSynapses="1">
          1.1818165826269335e-01 
        </Neuron>
        <Neuron NSynapses="1">
          3.0290525765622751e-02 
        </Neuron>
        <Neuron NSynapses="1">
          4.3028717269704093e-02 
        </Neuron>
        <Neuron NSynapses="1">
          -6.3099478725978553e-01 
        </Neuron>
        <Neuron NSynapses="1">
          -1.5754564731003835e+00 
        </Neuron>
        <Neuron NSynapses="1">
          8.4697329192064774e-01 
        </Neuron>
        <Neuron NSynapses="1">
          -1.1513430330065253e+00 
        </Neuron>
        <Neuron NSynapses="1">
          9.3733606095392463e-01 
        </Neuron>
        <Neuron NSynapses="1">
          -1.0946105733544898e-02 
        </Neuron>
        <Neuron NSynapses="1">
          -4.6128219944144966e-01 
        </Neuron>
      </Layer>
      <Layer Index="3" NNeurons="1">
        <Neuron NSynapses="0"/>
      </Layer>
    </Layout>
  </Weights>
</MethodSetup>
