<?xml version="1.0"?>
<MethodSetup Method="MLP::XS_53_135_0_cap">
  <GeneralInfo>
    <Info name="TMVA Release" value="4.2.0 [262656]"/>
    <Info name="ROOT Release" value="5.34/14 [336398]"/>
    <Info name="Creator" value="courtin"/>
    <Info name="Date" value="Mon Oct  3 16:06:47 2016"/>
    <Info name="Host" value="Linux nansl3.in2p3.fr 2.6.32-431.20.3.el6.x86_64 #1 SMP Thu Jun 19 14:01:59 CDT 2014 x86_64 x86_64 x86_64 GNU/Linux"/>
    <Info name="Dir" value="/scratch/spallati/courtin/WORK/MOxEUS/BdD_MOxEUS/MOxEUS_NN/XSM/MLP/Train"/>
    <Info name="Training events" value="77710"/>
    <Info name="TrainingTime" value="1.76903541e+03"/>
    <Info name="AnalysisType" value="Regression"/>
  </GeneralInfo>
  <Options>
    <Option name="NCycles" modified="Yes">20000</Option>
    <Option name="HiddenLayers" modified="Yes">N,N</Option>
    <Option name="NeuronType" modified="Yes">tanh</Option>
    <Option name="RandomSeed" modified="No">1</Option>
    <Option name="EstimatorType" modified="No">MSE</Option>
    <Option name="NeuronInputType" modified="No">sum</Option>
    <Option name="V" modified="Yes">False</Option>
    <Option name="VerbosityLevel" modified="No">Default</Option>
    <Option name="VarTransform" modified="Yes">Norm</Option>
    <Option name="H" modified="Yes">False</Option>
    <Option name="CreateMVAPdfs" modified="No">False</Option>
    <Option name="IgnoreNegWeightsInTraining" modified="No">False</Option>
    <Option name="TrainingMethod" modified="Yes">BFGS</Option>
    <Option name="LearningRate" modified="No">2.000000e-02</Option>
    <Option name="DecayRate" modified="No">1.000000e-02</Option>
    <Option name="TestRate" modified="Yes">6</Option>
    <Option name="EpochMonitoring" modified="No">False</Option>
    <Option name="Sampling" modified="Yes">3.000000e-01</Option>
    <Option name="SamplingEpoch" modified="Yes">8.000000e-01</Option>
    <Option name="SamplingImportance" modified="No">1.000000e+00</Option>
    <Option name="SamplingTraining" modified="No">True</Option>
    <Option name="SamplingTesting" modified="No">False</Option>
    <Option name="ResetStep" modified="No">50</Option>
    <Option name="Tau" modified="No">3.000000e+00</Option>
    <Option name="BPMode" modified="No">sequential</Option>
    <Option name="BatchSize" modified="No">-1</Option>
    <Option name="ConvergenceImprove" modified="Yes">1.000000e-06</Option>
    <Option name="ConvergenceTests" modified="Yes">15</Option>
    <Option name="UseRegulator" modified="Yes">False</Option>
    <Option name="UpdateLimit" modified="No">10000</Option>
    <Option name="CalculateErrors" modified="No">False</Option>
    <Option name="WeightRange" modified="No">1.000000e+00</Option>
  </Options>
  <Variables NVar="9">
    <Variable VarIndex="0" Expression="U5" Label="U5" Title="U 235" Unit="FractionIsotopic" Internal="U5" Type="F" Min="2.30270298e-03" Max="5.00135981e-02"/>
    <Variable VarIndex="1" Expression="U8" Label="U8" Title="U 238" Unit="FractionIsotopic" Internal="U8" Type="F" Min="8.04198325e-01" Max="9.91633654e-01"/>
    <Variable VarIndex="2" Expression="Pu8" Label="Pu8" Title="Pu 238" Unit="FractionIsotopic" Internal="Pu8" Type="F" Min="2.42847864e-06" Max="1.25759691e-02"/>
    <Variable VarIndex="3" Expression="Pu9" Label="Pu9" Title="Pu 239" Unit="FractionIsotopic" Internal="Pu9" Type="F" Min="2.72685829e-05" Max="1.18448287e-01"/>
    <Variable VarIndex="4" Expression="Pu10" Label="Pu10" Title="Pu 240" Unit="FractionIsotopic" Internal="Pu10" Type="F" Min="1.36823164e-05" Max="6.08281456e-02"/>
    <Variable VarIndex="5" Expression="Pu11" Label="Pu11" Title="Pu 241" Unit="FractionIsotopic" Internal="Pu11" Type="F" Min="5.21284107e-07" Max="3.61828022e-02"/>
    <Variable VarIndex="6" Expression="Pu12" Label="Pu12" Title="Pu 242" Unit="FractionIsotopic" Internal="Pu12" Type="F" Min="1.39559679e-05" Max="5.31211868e-02"/>
    <Variable VarIndex="7" Expression="Am1" Label="Am1" Title="Am 241" Unit="FractionIsotopic" Internal="Am1" Type="F" Min="1.16816601e-07" Max="1.22549152e-02"/>
    <Variable VarIndex="8" Expression="Time" Label="Time" Title="Time" Unit="seconds" Internal="Time" Type="F" Min="0.00000000e+00" Max="1.89328304e+08"/>
  </Variables>
  <Spectators NSpec="0"/>
  <Classes NClass="1">
    <Class Name="Regression" Index="0"/>
  </Classes>
  <Targets NTrgt="1">
    <Target TargetIndex="0" Expression="XS_53_135_0_cap" Label="XS_53_135_0_cap" Title="XS_53_135_0_cap" Unit="" Internal="XS_53_135_0_cap" Type="F" Min="6.27342786e-04" Max="3.35780298e-03"/>
  </Targets>
  <Transformations NTransformations="1">
    <Transform Name="Normalize">
      <Selection>
        <Input NInputs="10">
          <Input Type="Variable" Label="U5" Expression="U5"/>
          <Input Type="Variable" Label="U8" Expression="U8"/>
          <Input Type="Variable" Label="Pu8" Expression="Pu8"/>
          <Input Type="Variable" Label="Pu9" Expression="Pu9"/>
          <Input Type="Variable" Label="Pu10" Expression="Pu10"/>
          <Input Type="Variable" Label="Pu11" Expression="Pu11"/>
          <Input Type="Variable" Label="Pu12" Expression="Pu12"/>
          <Input Type="Variable" Label="Am1" Expression="Am1"/>
          <Input Type="Variable" Label="Time" Expression="Time"/>
          <Input Type="Target" Label="XS_53_135_0_cap" Expression="XS_53_135_0_cap"/>
        </Input>
        <Output NOutputs="10">
          <Output Type="Variable" Label="U5" Expression="U5"/>
          <Output Type="Variable" Label="U8" Expression="U8"/>
          <Output Type="Variable" Label="Pu8" Expression="Pu8"/>
          <Output Type="Variable" Label="Pu9" Expression="Pu9"/>
          <Output Type="Variable" Label="Pu10" Expression="Pu10"/>
          <Output Type="Variable" Label="Pu11" Expression="Pu11"/>
          <Output Type="Variable" Label="Pu12" Expression="Pu12"/>
          <Output Type="Variable" Label="Am1" Expression="Am1"/>
          <Output Type="Variable" Label="Time" Expression="Time"/>
          <Output Type="Target" Label="XS_53_135_0_cap" Expression="XS_53_135_0_cap"/>
        </Output>
      </Selection>
      <Class ClassIndex="0">
        <Ranges>
          <Range Index="0" Min="2.3027029819786549e-03" Max="5.0013598054647446e-02"/>
          <Range Index="1" Min="8.0419832468032837e-01" Max="9.9163365364074707e-01"/>
          <Range Index="2" Min="2.4284786377393175e-06" Max="1.2575969099998474e-02"/>
          <Range Index="3" Min="2.7268582925898954e-05" Max="1.1844828724861145e-01"/>
          <Range Index="4" Min="1.3682316421181895e-05" Max="6.0828145593404770e-02"/>
          <Range Index="5" Min="5.2128410743534914e-07" Max="3.6182802170515060e-02"/>
          <Range Index="6" Min="1.3955967915535439e-05" Max="5.3121186792850494e-02"/>
          <Range Index="7" Min="1.1681660083695533e-07" Max="1.2254915200173855e-02"/>
          <Range Index="8" Min="0.0000000000000000e+00" Max="1.8932830400000000e+08"/>
          <Range Index="9" Min="6.2734278617426753e-04" Max="3.3578029833734035e-03"/>
        </Ranges>
      </Class>
    </Transform>
  </Transformations>
  <MVAPdfs/>
  <Weights>
    <Layout NLayers="4">
      <Layer Index="0" NNeurons="10">
        <Neuron NSynapses="9">
          -5.8314787933230194e-01 9.9758472159867795e-01 -4.7459037295030571e-01 1.1272721222072810e+00 -3.7956331162014534e-01 -9.1735647591800989e-04 -7.6596019992864384e-01 1.5264816995538142e+00 -7.1961837793072125e-01 
        </Neuron>
        <Neuron NSynapses="9">
          -1.5276929947767324e+00 -1.6612804511367014e+00 -1.9057640943038794e+00 -5.5718675470229094e-02 -1.3341754009251212e+00 -1.8365267350045797e+00 1.0710225507266113e+00 -7.4052288013282519e-01 2.2968842912657732e+00 
        </Neuron>
        <Neuron NSynapses="9">
          -1.6390808885472941e-01 4.4015512017302644e-01 -1.5725366119475753e-01 3.9768822302115883e-02 1.7306198495313857e-01 4.5002483093955888e-02 -5.3903256716553360e-01 2.4834236662490847e-01 -2.6985877945145318e-02 
        </Neuron>
        <Neuron NSynapses="9">
          -1.8773047855874871e+00 -1.3125364568768121e+00 -7.2824862454569622e-02 8.0546245817701967e-01 2.5108436735450996e+00 8.1699315679052664e-01 1.3159572151672366e-01 1.2553223486492495e+00 -2.4811521142339381e+00 
        </Neuron>
        <Neuron NSynapses="9">
          -8.2357307050515294e-01 6.0572249344994289e-01 -9.3378892626388232e-01 9.0694373250182059e-01 5.6506521457790626e-01 5.0565662062743721e-01 1.7171579035251914e+00 1.3323199006967537e+00 -1.0455645585027000e+00 
        </Neuron>
        <Neuron NSynapses="9">
          -7.9077119296455656e-01 -4.1407332142872350e-01 1.1706284340787353e-01 1.4438852020829653e+00 1.4352691510197211e+00 7.0784567509365848e-02 1.5909340746733485e+00 -9.2301179665051047e-01 -1.0108351225076698e-01 
        </Neuron>
        <Neuron NSynapses="9">
          -1.2476749407543222e+00 -2.2946410498851550e+00 -6.6823336315324366e-01 -4.4532294986186249e-01 -1.8473170044401002e-01 -2.1820085336518955e-01 -3.5315690909808722e-01 3.1136067226571851e-01 4.2851962901873131e-01 
        </Neuron>
        <Neuron NSynapses="9">
          -1.9119303984416741e-01 3.8411482848546913e-01 3.4161528668503686e-02 1.1641648584670934e+00 -8.7712507932261519e-01 9.4090466616707613e-02 2.2562361384062812e-02 2.5036775186271665e-01 -7.5090171841871811e-01 
        </Neuron>
        <Neuron NSynapses="9">
          9.6740303846187425e-01 1.1340645090928629e-02 7.5766507902878844e-01 -3.4918524286670194e-02 -1.5306318422616854e+00 -3.7212708372771519e-01 3.5461327556689443e-01 2.0049439243411349e-01 8.7588617287419579e-01 
        </Neuron>
        <Neuron NSynapses="9">
          1.4198508460224408e+00 2.4096338598483400e+00 1.3798151934227263e+00 -2.9144377939919521e+00 6.3462543535877280e-01 2.2492742617198429e+00 -2.4969591498809942e+00 -2.1938297474741382e+00 -5.4145950283406541e-01 
        </Neuron>
      </Layer>
      <Layer Index="1" NNeurons="10">
        <Neuron NSynapses="9">
          5.3795433232402057e-01 2.7392807486074167e-01 1.2560860585137432e+00 -1.1118549734238534e+00 -4.3321260430297504e-01 1.7445704490677285e+00 -5.1398489813701620e-01 -1.7733318321965632e+00 -1.4453296596159639e+00 
        </Neuron>
        <Neuron NSynapses="9">
          5.8013541352305442e-01 -1.9215697795085509e+00 -1.9461306078985920e+00 2.0451339369268645e-01 1.0403889654081930e+00 -8.4033902519219095e-01 1.2389386277160372e+00 -8.7364857465948764e-01 -8.9180410239001995e-01 
        </Neuron>
        <Neuron NSynapses="9">
          1.6200099202385337e-01 2.0815725206369637e-01 -1.7654379523560642e+00 2.1460327627669247e+00 6.9323413722125793e-01 9.3105877163692341e-01 -1.7186614531414734e+00 1.8097238387368697e+00 4.3209325686305700e-01 
        </Neuron>
        <Neuron NSynapses="9">
          -6.5305816212171652e-01 4.1758825809360217e-01 -1.3486143684274028e+00 -1.0237520420611876e+00 1.3405561539701713e-01 -4.5341197870471145e-01 1.1484391253762936e+00 1.0169876690071671e+00 2.1936323615162592e-02 
        </Neuron>
        <Neuron NSynapses="9">
          -6.6935964257170022e-01 -2.7932803333516130e-02 -9.6621914743514481e-01 8.5929641756789618e-02 3.3568325800233487e-02 -1.8592382024187537e+00 8.4669082443565324e-01 -1.1541320674469102e+00 -3.1887433126071403e-02 
        </Neuron>
        <Neuron NSynapses="9">
          1.1036554680137556e+00 2.4208865803850239e+00 -1.6787449760222097e+00 1.2306124235978886e+00 6.5523239422523050e-01 1.2679540851651803e+00 8.5039161892275827e-01 -2.1677540723947586e+00 -3.0446496815443241e-01 
        </Neuron>
        <Neuron NSynapses="9">
          -8.0989106565447255e-01 9.6231984237962487e-01 1.0477659386678906e+00 3.5481246921485360e-01 -4.8753505209094350e-01 3.1822047390789804e-01 -1.6079307990307785e+00 5.8848390492667579e-01 1.7235759695156518e+00 
        </Neuron>
        <Neuron NSynapses="9">
          -1.0165690451719787e+00 6.4092343547192954e-02 -9.3002889893664342e-02 1.2308951888037321e+00 6.3756701036911168e-02 7.1728768275096177e-01 -1.6997411240674745e+00 1.0836844562666308e+00 7.9304139833303344e-01 
        </Neuron>
        <Neuron NSynapses="9">
          -2.1709136429268153e-01 -1.2836644570388117e-01 1.4616723670166145e+00 -1.0962410666828157e+00 1.5602665081377752e-02 1.1638057166254256e+00 -9.2163661126381180e-01 -1.2263317313097519e-01 1.5221038228838686e+00 
        </Neuron>
        <Neuron NSynapses="9">
          2.2329358399534649e+00 5.2522025250778613e-02 1.2990422634990091e+00 2.4541702205624270e+00 -2.1539060317848535e+00 8.0237983842579697e-01 3.3842275742134398e-01 2.2944521501704854e-01 -1.7590152640523937e+00 
        </Neuron>
      </Layer>
      <Layer Index="2" NNeurons="10">
        <Neuron NSynapses="1">
          3.2537845219782446e-01 
        </Neuron>
        <Neuron NSynapses="1">
          -1.7378065384823516e-01 
        </Neuron>
        <Neuron NSynapses="1">
          -4.5796548850270272e-03 
        </Neuron>
        <Neuron NSynapses="1">
          -2.7318830822426774e+00 
        </Neuron>
        <Neuron NSynapses="1">
          -2.9390292026550974e-01 
        </Neuron>
        <Neuron NSynapses="1">
          4.0987068946103336e-02 
        </Neuron>
        <Neuron NSynapses="1">
          -6.9516970146412879e-02 
        </Neuron>
        <Neuron NSynapses="1">
          -8.2380992952187970e-01 
        </Neuron>
        <Neuron NSynapses="1">
          -7.5989815208011680e-01 
        </Neuron>
        <Neuron NSynapses="1">
          -1.0999838536554989e-01 
        </Neuron>
      </Layer>
      <Layer Index="3" NNeurons="1">
        <Neuron NSynapses="0"/>
      </Layer>
    </Layout>
  </Weights>
</MethodSetup>
