<?xml version="1.0"?>
<MethodSetup Method="MLP::XS_77_193_0_n2n">
  <GeneralInfo>
    <Info name="TMVA Release" value="4.2.0 [262656]"/>
    <Info name="ROOT Release" value="5.34/14 [336398]"/>
    <Info name="Creator" value="courtin"/>
    <Info name="Date" value="Mon Jan  9 12:30:46 2017"/>
    <Info name="Host" value="Linux nansl3.in2p3.fr 2.6.32-431.20.3.el6.x86_64 #1 SMP Thu Jun 19 14:01:59 CDT 2014 x86_64 x86_64 x86_64 GNU/Linux"/>
    <Info name="Dir" value="/scratch/spallati/courtin/WORK/MOxEUS/BdD_HFC/HFC_NN/XSM"/>
    <Info name="Training events" value="121150"/>
    <Info name="TrainingTime" value="3.38162918e+03"/>
    <Info name="AnalysisType" value="Regression"/>
  </GeneralInfo>
  <Options>
    <Option name="NCycles" modified="Yes">20000</Option>
    <Option name="HiddenLayers" modified="Yes">N,N</Option>
    <Option name="NeuronType" modified="Yes">tanh</Option>
    <Option name="RandomSeed" modified="No">1</Option>
    <Option name="EstimatorType" modified="No">MSE</Option>
    <Option name="NeuronInputType" modified="No">sum</Option>
    <Option name="V" modified="Yes">False</Option>
    <Option name="VerbosityLevel" modified="No">Default</Option>
    <Option name="VarTransform" modified="Yes">Norm</Option>
    <Option name="H" modified="Yes">False</Option>
    <Option name="CreateMVAPdfs" modified="No">False</Option>
    <Option name="IgnoreNegWeightsInTraining" modified="No">False</Option>
    <Option name="TrainingMethod" modified="Yes">BFGS</Option>
    <Option name="LearningRate" modified="No">2.000000e-02</Option>
    <Option name="DecayRate" modified="No">1.000000e-02</Option>
    <Option name="TestRate" modified="Yes">6</Option>
    <Option name="EpochMonitoring" modified="No">False</Option>
    <Option name="Sampling" modified="Yes">3.000000e-01</Option>
    <Option name="SamplingEpoch" modified="Yes">8.000000e-01</Option>
    <Option name="SamplingImportance" modified="No">1.000000e+00</Option>
    <Option name="SamplingTraining" modified="No">True</Option>
    <Option name="SamplingTesting" modified="No">False</Option>
    <Option name="ResetStep" modified="No">50</Option>
    <Option name="Tau" modified="No">3.000000e+00</Option>
    <Option name="BPMode" modified="No">sequential</Option>
    <Option name="BatchSize" modified="No">-1</Option>
    <Option name="ConvergenceImprove" modified="Yes">1.000000e-06</Option>
    <Option name="ConvergenceTests" modified="Yes">15</Option>
    <Option name="UseRegulator" modified="Yes">False</Option>
    <Option name="UpdateLimit" modified="No">10000</Option>
    <Option name="CalculateErrors" modified="No">False</Option>
    <Option name="WeightRange" modified="No">1.000000e+00</Option>
  </Options>
  <Variables NVar="9">
    <Variable VarIndex="0" Expression="U5" Label="U5" Title="U 235" Unit="FractionIsotopic" Internal="U5" Type="F" Min="1.31763087e-03" Max="3.29138078e-02"/>
    <Variable VarIndex="1" Expression="U8" Label="U8" Title="U 238" Unit="FractionIsotopic" Internal="U8" Type="F" Min="7.91743398e-01" Max="9.45419848e-01"/>
    <Variable VarIndex="2" Expression="Pu8" Label="Pu8" Title="Pu 238" Unit="FractionIsotopic" Internal="Pu8" Type="F" Min="1.39107055e-04" Max="4.37852181e-02"/>
    <Variable VarIndex="3" Expression="Pu9" Label="Pu9" Title="Pu 239" Unit="FractionIsotopic" Internal="Pu9" Type="F" Min="1.04687838e-02" Max="1.39522925e-01"/>
    <Variable VarIndex="4" Expression="Pu10" Label="Pu10" Title="Pu 240" Unit="FractionIsotopic" Internal="Pu10" Type="F" Min="5.04723703e-03" Max="8.57686475e-02"/>
    <Variable VarIndex="5" Expression="Pu11" Label="Pu11" Title="Pu 241" Unit="FractionIsotopic" Internal="Pu11" Type="F" Min="5.70043085e-06" Max="4.37423512e-02"/>
    <Variable VarIndex="6" Expression="Pu12" Label="Pu12" Title="Pu 242" Unit="FractionIsotopic" Internal="Pu12" Type="F" Min="2.57695001e-06" Max="8.41057003e-02"/>
    <Variable VarIndex="7" Expression="Am1" Label="Am1" Title="Am 241" Unit="FractionIsotopic" Internal="Am1" Type="F" Min="5.84233703e-06" Max="3.63441594e-02"/>
    <Variable VarIndex="8" Expression="Time" Label="Time" Title="Time" Unit="seconds" Internal="Time" Type="F" Min="0.00000000e+00" Max="3.36503488e+08"/>
  </Variables>
  <Spectators NSpec="0"/>
  <Classes NClass="1">
    <Class Name="Regression" Index="0"/>
  </Classes>
  <Targets NTrgt="1">
    <Target TargetIndex="0" Expression="XS_77_193_0_n2n" Label="XS_77_193_0_n2n" Title="XS_77_193_0_n2n" Unit="" Internal="XS_77_193_0_n2n" Type="F" Min="1.34098448e-03" Max="2.26727268e-03"/>
  </Targets>
  <Transformations NTransformations="1">
    <Transform Name="Normalize">
      <Selection>
        <Input NInputs="10">
          <Input Type="Variable" Label="U5" Expression="U5"/>
          <Input Type="Variable" Label="U8" Expression="U8"/>
          <Input Type="Variable" Label="Pu8" Expression="Pu8"/>
          <Input Type="Variable" Label="Pu9" Expression="Pu9"/>
          <Input Type="Variable" Label="Pu10" Expression="Pu10"/>
          <Input Type="Variable" Label="Pu11" Expression="Pu11"/>
          <Input Type="Variable" Label="Pu12" Expression="Pu12"/>
          <Input Type="Variable" Label="Am1" Expression="Am1"/>
          <Input Type="Variable" Label="Time" Expression="Time"/>
          <Input Type="Target" Label="XS_77_193_0_n2n" Expression="XS_77_193_0_n2n"/>
        </Input>
        <Output NOutputs="10">
          <Output Type="Variable" Label="U5" Expression="U5"/>
          <Output Type="Variable" Label="U8" Expression="U8"/>
          <Output Type="Variable" Label="Pu8" Expression="Pu8"/>
          <Output Type="Variable" Label="Pu9" Expression="Pu9"/>
          <Output Type="Variable" Label="Pu10" Expression="Pu10"/>
          <Output Type="Variable" Label="Pu11" Expression="Pu11"/>
          <Output Type="Variable" Label="Pu12" Expression="Pu12"/>
          <Output Type="Variable" Label="Am1" Expression="Am1"/>
          <Output Type="Variable" Label="Time" Expression="Time"/>
          <Output Type="Target" Label="XS_77_193_0_n2n" Expression="XS_77_193_0_n2n"/>
        </Output>
      </Selection>
      <Class ClassIndex="0">
        <Ranges>
          <Range Index="0" Min="1.3176308711990714e-03" Max="3.2913807779550552e-02"/>
          <Range Index="1" Min="7.9174339771270752e-01" Max="9.4541984796524048e-01"/>
          <Range Index="2" Min="1.3910705456510186e-04" Max="4.3785218149423599e-02"/>
          <Range Index="3" Min="1.0468783788383007e-02" Max="1.3952292501926422e-01"/>
          <Range Index="4" Min="5.0472370348870754e-03" Max="8.5768647491931915e-02"/>
          <Range Index="5" Min="5.7004308473551646e-06" Max="4.3742351233959198e-02"/>
          <Range Index="6" Min="2.5769500098249409e-06" Max="8.4105700254440308e-02"/>
          <Range Index="7" Min="5.8423370319360401e-06" Max="3.6344159394502640e-02"/>
          <Range Index="8" Min="0.0000000000000000e+00" Max="3.3650348800000000e+08"/>
          <Range Index="9" Min="1.3409844832494855e-03" Max="2.2672726772725582e-03"/>
        </Ranges>
      </Class>
    </Transform>
  </Transformations>
  <MVAPdfs/>
  <Weights>
    <Layout NLayers="4">
      <Layer Index="0" NNeurons="10">
        <Neuron NSynapses="9">
          -4.2246338078921986e-01 -7.2963178811531815e-01 4.9128415626939753e-01 1.1075214614175719e+00 -1.6345303552368509e+00 4.5169591065698234e-02 3.0808702074163813e-01 1.6901262363914721e-01 -5.6858373308721932e-01 
        </Neuron>
        <Neuron NSynapses="9">
          -1.5159007481902860e+00 -2.4175546460342532e+00 1.9303227332195243e+00 -5.2685658484190978e-01 7.0892921474708293e-01 3.7063808180494923e-01 2.4929239642320486e-01 3.4891822084403873e-01 1.8498214321857445e+00 
        </Neuron>
        <Neuron NSynapses="9">
          -2.1388265371177123e-01 8.2599803983709397e-01 2.8303064251662985e-01 2.6075205629116066e-01 1.1087414298653151e+00 1.5495177409849373e-01 -7.7439756437953075e-02 -5.3191928449363830e-02 1.7190784538341299e+00 
        </Neuron>
        <Neuron NSynapses="9">
          -1.2964140473072669e+00 -7.4201255182750270e-01 4.3102144888273464e-01 1.2819603781398385e+00 2.3435840728955064e+00 4.2529437644607115e-01 6.9168442603814251e-01 -3.5000723525629934e-01 3.0724935339999165e-01 
        </Neuron>
        <Neuron NSynapses="9">
          -1.7875047955377152e+00 2.0283351085859378e+00 -9.2914140805218670e-01 8.6990533912847789e-01 1.3626340878094647e+00 3.1025551910479748e-01 1.9140352635585649e+00 4.4424171248624307e-02 -3.4984270663224437e-01 
        </Neuron>
        <Neuron NSynapses="9">
          -9.9089908394411119e-01 -2.2234858502527602e-01 6.3594597291275379e-01 1.5258337277448646e+00 1.5673193944802666e+00 1.6670156380075327e-01 2.5824020934632332e+00 -5.9910791821769060e-01 1.9152718623745071e+00 
        </Neuron>
        <Neuron NSynapses="9">
          -1.9906152524442027e+00 4.1155101837464947e-01 -6.5529326865917692e-01 -4.5329295192153823e-01 2.1046506493848751e+00 2.8296467445126650e-01 -3.9267584946927392e-01 2.0950205633524777e-01 4.9381265822391773e-01 
        </Neuron>
        <Neuron NSynapses="9">
          1.7111380056693923e-01 1.5797723977843900e+00 1.3592809138703829e-01 9.8745138738859817e-01 -6.2750651362599927e-02 1.6693326695781563e-01 4.6952705427011948e-01 -1.3110664363090574e-01 -5.0600661212660669e-01 
        </Neuron>
        <Neuron NSynapses="9">
          7.9373707520536008e-01 2.1084753516963519e+00 6.0368260498873283e-01 -1.4917022745804823e-01 -1.8920153877905449e-01 -4.3458104714108763e-02 -5.2385528271841808e-01 -5.1439153736422094e-01 7.6514543322533501e-01 
        </Neuron>
        <Neuron NSynapses="9">
          1.3177608969229566e+00 1.0046210614956741e+00 -3.2253262100342570e+00 -2.4035288956593797e+00 -2.0456330566387813e+00 5.2832313641105122e-01 -2.6394816228370699e+00 -1.3693222388199666e+00 -3.0112950380681762e+00 
        </Neuron>
      </Layer>
      <Layer Index="1" NNeurons="10">
        <Neuron NSynapses="9">
          4.6272986971104252e-01 -2.8452259867689061e-01 3.1133320356437433e+00 -9.2718689179306035e-01 -1.6812395474226802e+00 2.1232784496383914e+00 -3.2052054481096860e-02 -8.5502245156651180e-01 -2.4547818037767062e+00 
        </Neuron>
        <Neuron NSynapses="9">
          3.0423160199487354e-01 -1.5132085546501022e+00 -3.9437569029366110e-01 8.4655996426508479e-02 8.1780715685774030e-01 -1.6526791171763027e+00 2.9358348871685358e+00 -7.8685260712029019e-03 -1.6762262505245321e-01 
        </Neuron>
        <Neuron NSynapses="9">
          1.6869145950816714e-01 5.2509502565346844e-01 -1.1322471209445417e+00 3.8961019021026322e-01 2.0115715113230590e+00 -6.0678906810137245e-01 -1.0608742654061487e+00 1.7305299876522782e+00 -2.0873038997918122e-01 
        </Neuron>
        <Neuron NSynapses="9">
          -3.7258943208099898e-01 9.3083251841775572e-01 1.5198109281510622e-01 -1.7778000793917630e+00 1.0005310344671579e+00 -7.5968617198970256e-01 8.6770765562271734e-01 -3.0967521397390541e-01 9.3239037295829630e-01 
        </Neuron>
        <Neuron NSynapses="9">
          -8.4355600626901173e-01 1.6925646116819310e-01 -3.1228706828685016e+00 4.8961806220260462e-01 6.6947150046422610e-01 -1.2519153044335791e+00 -8.4402568360813932e-02 -1.7351794197872541e+00 9.7778819631984670e-01 
        </Neuron>
        <Neuron NSynapses="9">
          9.4585229087067613e-01 1.6361906292957125e+00 -7.8593596354084905e-01 -2.6252697905153138e-01 6.9078206782697948e-01 1.9526777357745175e+00 -4.6383488404065881e-01 -1.5407654171247804e+00 3.6711588380664095e-01 
        </Neuron>
        <Neuron NSynapses="9">
          -1.0455708165701880e+00 1.7444868614485456e+00 3.4447759648187953e-01 -7.1910795193656607e-01 5.1159700725773583e-01 -7.8197992675977865e-02 -1.6598702729886932e+00 1.4250361100082357e-02 1.1774646729146112e+00 
        </Neuron>
        <Neuron NSynapses="9">
          -3.9954895925211448e-01 -4.5877298977690351e-01 -9.0958274048774468e-01 7.5282310242319406e-01 5.5358797643072455e-01 7.4541128145994151e-01 -1.6549136806510003e+00 4.9851266775264624e-01 1.5855582669016020e+00 
        </Neuron>
        <Neuron NSynapses="9">
          -1.1979595019765109e-01 8.0653855320939949e-01 -4.7772237802251100e-01 -8.8924343663756611e-01 3.9370685390453980e-01 3.7051970156833064e-01 -1.3871541221182195e+00 2.2717566902209739e-02 7.5196257165476210e-01 
        </Neuron>
        <Neuron NSynapses="9">
          1.7738215152808170e+00 -4.4755406620046884e-01 3.0934937871894213e+00 2.5496450529318895e+00 -2.8345665588299469e+00 1.2342731318159375e+00 7.6465684926484867e-01 1.0079068774890050e+00 -2.6865698734173198e+00 
        </Neuron>
      </Layer>
      <Layer Index="2" NNeurons="10">
        <Neuron NSynapses="1">
          1.7934110518159674e-01 
        </Neuron>
        <Neuron NSynapses="1">
          1.2205530770961186e+00 
        </Neuron>
        <Neuron NSynapses="1">
          4.4737016878294517e-01 
        </Neuron>
        <Neuron NSynapses="1">
          -1.0128546154064273e+00 
        </Neuron>
        <Neuron NSynapses="1">
          -2.2227714206354920e+00 
        </Neuron>
        <Neuron NSynapses="1">
          -4.0601273264383647e-01 
        </Neuron>
        <Neuron NSynapses="1">
          7.7213898930774649e-01 
        </Neuron>
        <Neuron NSynapses="1">
          -6.1533435606948861e-01 
        </Neuron>
        <Neuron NSynapses="1">
          7.6216298189068110e-01 
        </Neuron>
        <Neuron NSynapses="1">
          4.3162893725837544e-02 
        </Neuron>
      </Layer>
      <Layer Index="3" NNeurons="1">
        <Neuron NSynapses="0"/>
      </Layer>
    </Layout>
  </Weights>
</MethodSetup>
