<?xml version="1.0"?>
<MethodSetup Method="MLP::XS_20_46_0_n2n">
  <GeneralInfo>
    <Info name="TMVA Release" value="4.2.0 [262656]"/>
    <Info name="ROOT Release" value="5.34/14 [336398]"/>
    <Info name="Creator" value="courtin"/>
    <Info name="Date" value="Tue Jan 10 21:33:15 2017"/>
    <Info name="Host" value="Linux nansl3.in2p3.fr 2.6.32-431.20.3.el6.x86_64 #1 SMP Thu Jun 19 14:01:59 CDT 2014 x86_64 x86_64 x86_64 GNU/Linux"/>
    <Info name="Dir" value="/scratch/spallati/courtin/WORK/MOxEUS/BdD_HFC/HFC_NN/XSM"/>
    <Info name="Training events" value="121150"/>
    <Info name="TrainingTime" value="1.89254697e+03"/>
    <Info name="AnalysisType" value="Regression"/>
  </GeneralInfo>
  <Options>
    <Option name="NCycles" modified="Yes">20000</Option>
    <Option name="HiddenLayers" modified="Yes">N,N</Option>
    <Option name="NeuronType" modified="Yes">tanh</Option>
    <Option name="RandomSeed" modified="No">1</Option>
    <Option name="EstimatorType" modified="No">MSE</Option>
    <Option name="NeuronInputType" modified="No">sum</Option>
    <Option name="V" modified="Yes">False</Option>
    <Option name="VerbosityLevel" modified="No">Default</Option>
    <Option name="VarTransform" modified="Yes">Norm</Option>
    <Option name="H" modified="Yes">False</Option>
    <Option name="CreateMVAPdfs" modified="No">False</Option>
    <Option name="IgnoreNegWeightsInTraining" modified="No">False</Option>
    <Option name="TrainingMethod" modified="Yes">BFGS</Option>
    <Option name="LearningRate" modified="No">2.000000e-02</Option>
    <Option name="DecayRate" modified="No">1.000000e-02</Option>
    <Option name="TestRate" modified="Yes">6</Option>
    <Option name="EpochMonitoring" modified="No">False</Option>
    <Option name="Sampling" modified="Yes">3.000000e-01</Option>
    <Option name="SamplingEpoch" modified="Yes">8.000000e-01</Option>
    <Option name="SamplingImportance" modified="No">1.000000e+00</Option>
    <Option name="SamplingTraining" modified="No">True</Option>
    <Option name="SamplingTesting" modified="No">False</Option>
    <Option name="ResetStep" modified="No">50</Option>
    <Option name="Tau" modified="No">3.000000e+00</Option>
    <Option name="BPMode" modified="No">sequential</Option>
    <Option name="BatchSize" modified="No">-1</Option>
    <Option name="ConvergenceImprove" modified="Yes">1.000000e-06</Option>
    <Option name="ConvergenceTests" modified="Yes">15</Option>
    <Option name="UseRegulator" modified="Yes">False</Option>
    <Option name="UpdateLimit" modified="No">10000</Option>
    <Option name="CalculateErrors" modified="No">False</Option>
    <Option name="WeightRange" modified="No">1.000000e+00</Option>
  </Options>
  <Variables NVar="9">
    <Variable VarIndex="0" Expression="U5" Label="U5" Title="U 235" Unit="FractionIsotopic" Internal="U5" Type="F" Min="1.31763087e-03" Max="3.29138078e-02"/>
    <Variable VarIndex="1" Expression="U8" Label="U8" Title="U 238" Unit="FractionIsotopic" Internal="U8" Type="F" Min="7.91743398e-01" Max="9.45419848e-01"/>
    <Variable VarIndex="2" Expression="Pu8" Label="Pu8" Title="Pu 238" Unit="FractionIsotopic" Internal="Pu8" Type="F" Min="1.39107055e-04" Max="4.37852181e-02"/>
    <Variable VarIndex="3" Expression="Pu9" Label="Pu9" Title="Pu 239" Unit="FractionIsotopic" Internal="Pu9" Type="F" Min="1.04687838e-02" Max="1.39522925e-01"/>
    <Variable VarIndex="4" Expression="Pu10" Label="Pu10" Title="Pu 240" Unit="FractionIsotopic" Internal="Pu10" Type="F" Min="5.04723703e-03" Max="8.57686475e-02"/>
    <Variable VarIndex="5" Expression="Pu11" Label="Pu11" Title="Pu 241" Unit="FractionIsotopic" Internal="Pu11" Type="F" Min="5.70043085e-06" Max="4.37423512e-02"/>
    <Variable VarIndex="6" Expression="Pu12" Label="Pu12" Title="Pu 242" Unit="FractionIsotopic" Internal="Pu12" Type="F" Min="2.57695001e-06" Max="8.41057003e-02"/>
    <Variable VarIndex="7" Expression="Am1" Label="Am1" Title="Am 241" Unit="FractionIsotopic" Internal="Am1" Type="F" Min="5.84233703e-06" Max="3.63441594e-02"/>
    <Variable VarIndex="8" Expression="Time" Label="Time" Title="Time" Unit="seconds" Internal="Time" Type="F" Min="0.00000000e+00" Max="3.36503488e+08"/>
  </Variables>
  <Spectators NSpec="0"/>
  <Classes NClass="1">
    <Class Name="Regression" Index="0"/>
  </Classes>
  <Targets NTrgt="1">
    <Target TargetIndex="0" Expression="XS_20_46_0_n2n" Label="XS_20_46_0_n2n" Title="XS_20_46_0_n2n" Unit="" Internal="XS_20_46_0_n2n" Type="F" Min="5.71136407e-05" Max="1.96968322e-04"/>
  </Targets>
  <Transformations NTransformations="1">
    <Transform Name="Normalize">
      <Selection>
        <Input NInputs="10">
          <Input Type="Variable" Label="U5" Expression="U5"/>
          <Input Type="Variable" Label="U8" Expression="U8"/>
          <Input Type="Variable" Label="Pu8" Expression="Pu8"/>
          <Input Type="Variable" Label="Pu9" Expression="Pu9"/>
          <Input Type="Variable" Label="Pu10" Expression="Pu10"/>
          <Input Type="Variable" Label="Pu11" Expression="Pu11"/>
          <Input Type="Variable" Label="Pu12" Expression="Pu12"/>
          <Input Type="Variable" Label="Am1" Expression="Am1"/>
          <Input Type="Variable" Label="Time" Expression="Time"/>
          <Input Type="Target" Label="XS_20_46_0_n2n" Expression="XS_20_46_0_n2n"/>
        </Input>
        <Output NOutputs="10">
          <Output Type="Variable" Label="U5" Expression="U5"/>
          <Output Type="Variable" Label="U8" Expression="U8"/>
          <Output Type="Variable" Label="Pu8" Expression="Pu8"/>
          <Output Type="Variable" Label="Pu9" Expression="Pu9"/>
          <Output Type="Variable" Label="Pu10" Expression="Pu10"/>
          <Output Type="Variable" Label="Pu11" Expression="Pu11"/>
          <Output Type="Variable" Label="Pu12" Expression="Pu12"/>
          <Output Type="Variable" Label="Am1" Expression="Am1"/>
          <Output Type="Variable" Label="Time" Expression="Time"/>
          <Output Type="Target" Label="XS_20_46_0_n2n" Expression="XS_20_46_0_n2n"/>
        </Output>
      </Selection>
      <Class ClassIndex="0">
        <Ranges>
          <Range Index="0" Min="1.3176308711990714e-03" Max="3.2913807779550552e-02"/>
          <Range Index="1" Min="7.9174339771270752e-01" Max="9.4541984796524048e-01"/>
          <Range Index="2" Min="1.3910705456510186e-04" Max="4.3785218149423599e-02"/>
          <Range Index="3" Min="1.0468783788383007e-02" Max="1.3952292501926422e-01"/>
          <Range Index="4" Min="5.0472370348870754e-03" Max="8.5768647491931915e-02"/>
          <Range Index="5" Min="5.7004308473551646e-06" Max="4.3742351233959198e-02"/>
          <Range Index="6" Min="2.5769500098249409e-06" Max="8.4105700254440308e-02"/>
          <Range Index="7" Min="5.8423370319360401e-06" Max="3.6344159394502640e-02"/>
          <Range Index="8" Min="0.0000000000000000e+00" Max="3.3650348800000000e+08"/>
          <Range Index="9" Min="5.7113640650641173e-05" Max="1.9696832168847322e-04"/>
        </Ranges>
      </Class>
    </Transform>
  </Transformations>
  <MVAPdfs/>
  <Weights>
    <Layout NLayers="4">
      <Layer Index="0" NNeurons="10">
        <Neuron NSynapses="9">
          -2.7942670135215297e-01 5.8399460094836531e-01 -1.0696329567310420e-01 7.5789783606913685e-01 -1.9459080686461112e+00 -1.8683190610569527e+00 1.1307018516985254e-01 1.6248281871658327e-01 -4.8697330932030891e-01 
        </Neuron>
        <Neuron NSynapses="9">
          -1.6583440363269877e+00 -1.3125114584448334e+00 3.0919908585116884e+00 6.8506538534644046e-01 1.1100192203860280e+00 7.3223663833816488e-01 -1.8045927258237743e-01 1.9194546241816091e-01 1.7635858217477469e+00 
        </Neuron>
        <Neuron NSynapses="9">
          -2.3932378086109493e-01 4.6998076343425965e-01 6.3990119457717198e-01 4.6021131665896481e-01 1.0210930858741778e+00 6.0887497049722650e-01 2.8813931861349524e-02 -1.0161854131002707e-01 1.5645885442608130e+00 
        </Neuron>
        <Neuron NSynapses="9">
          -1.3111940301410594e+00 -2.0738247293741283e+00 8.1097806774334380e-01 1.3134226666842606e+00 2.1731686522895526e+00 4.9029502570158318e-01 4.9792766876004174e-01 -1.7818991159983916e-01 3.9942412299569313e-01 
        </Neuron>
        <Neuron NSynapses="9">
          -1.5235913814237687e+00 1.3863062638208148e+00 -7.0720620096350939e-02 1.3751572214395127e+00 1.3565707263610027e+00 1.6830310133783750e+00 1.7309469698082536e+00 -2.1231371933960971e-01 -2.7367690314500154e-01 
        </Neuron>
        <Neuron NSynapses="9">
          -1.2329056724481846e+00 -4.0459025611051097e-01 -9.6874021409586386e-01 1.5899106961914089e+00 1.4032537441283639e+00 1.7518936319421525e+00 2.9497337000932000e+00 -3.2262521088350182e-01 1.7652881153862860e+00 
        </Neuron>
        <Neuron NSynapses="9">
          -2.3011674877580317e+00 -8.0285213887737816e-01 2.0329736646838592e+00 7.8404218246421653e-01 2.9858959766989535e+00 2.0726843253890395e+00 -8.7109188654552772e-01 -3.8926522125898151e-02 4.7194994756310016e-01 
        </Neuron>
        <Neuron NSynapses="9">
          1.0935657092964854e-01 1.5049564419172670e+00 8.3324723229440389e-01 1.1263097823177006e+00 4.3438334157198909e-02 1.5581554351571143e+00 4.5338502771513001e-01 -2.1508328614298483e-01 -5.0388935558356474e-01 
        </Neuron>
        <Neuron NSynapses="9">
          2.5788805631965406e-01 2.3282679181634456e+00 1.8817761558331876e+00 4.9257974175104763e-01 -4.0052924440230703e-01 -3.9038939743467505e-01 -1.1818306413199777e+00 -1.5288600895266408e-01 9.3617831023498721e-01 
        </Neuron>
        <Neuron NSynapses="9">
          1.4903735328660237e+00 1.6433805342187766e+00 -5.3801113993963643e+00 -3.9496430347315927e+00 -2.4826560792404133e+00 -1.3076726146376769e+00 -2.0398971654418592e+00 -1.2020826114078085e+00 -2.9763726719354171e+00 
        </Neuron>
      </Layer>
      <Layer Index="1" NNeurons="10">
        <Neuron NSynapses="9">
          5.6694044992300041e-01 -4.2261674909692720e-01 4.1888387682006325e+00 -1.1925373921761282e+00 -1.2491049425956182e+00 2.2675674986328036e+00 -5.7259829320092170e-01 -1.7384846418648034e+00 -2.5060577793638057e+00 
        </Neuron>
        <Neuron NSynapses="9">
          4.3231628329682331e-01 -1.3675873815707518e+00 6.6291253184112675e-01 -2.5644070694446027e-03 1.2390262590946115e+00 -1.6530742888790706e+00 3.5504688197075431e+00 -6.4408206227646503e-01 -1.4463859907136711e-01 
        </Neuron>
        <Neuron NSynapses="9">
          2.3769051403862554e-01 5.9640435760848598e-01 -4.3560927029723301e-01 7.6250513423561606e-01 2.0510562810051671e+00 -8.1690325929360708e-01 -1.4554170765497514e+00 1.6488110986702111e+00 -1.6778007080171342e-01 
        </Neuron>
        <Neuron NSynapses="9">
          -1.1682973920827895e-01 1.0157982195968094e+00 9.8014149325070499e-01 -1.2280193560220840e+00 9.3730433217480114e-01 -1.1847291601971341e+00 1.0609696150599315e+00 7.8788756331803123e-01 9.9479228547453591e-01 
        </Neuron>
        <Neuron NSynapses="9">
          -8.9557177583419212e-01 3.3526054771867420e-01 -4.2074234158522117e+00 8.1621152382065010e-01 1.3347466385323356e-01 -9.7468242175618214e-01 3.4867839142167201e-01 -1.1746455816129606e+00 1.0244361551020806e+00 
        </Neuron>
        <Neuron NSynapses="9">
          9.7541557828661574e-01 1.4937210848604683e+00 -4.2079912777007750e-03 -5.5031804342751178e-01 5.9346657747454645e-01 2.1289699726858187e+00 -4.7086292728603674e-01 -1.0607556004305583e+00 3.2125390827775696e-01 
        </Neuron>
        <Neuron NSynapses="9">
          -1.0991750561563611e+00 1.9746710170908217e+00 -3.5035987713233646e-01 -5.9621584389386827e-02 8.7367326268741635e-02 -2.9442960948536247e-02 -9.6148963318937475e-01 4.7413618252790196e-01 1.1804704075910870e+00 
        </Neuron>
        <Neuron NSynapses="9">
          -1.7304622944274942e-01 -3.1641727724092955e-01 -1.6238960156342326e+00 8.4115121039449470e-01 2.6496328931066948e-01 5.6707919574065291e-01 -3.9241358264816700e-01 1.5719083720370488e+00 1.6313253156266585e+00 
        </Neuron>
        <Neuron NSynapses="9">
          -3.5363781238456748e-01 1.0477188145930205e+00 -1.5181624018671096e+00 3.3207420247349995e-01 -1.9140258495004604e-02 2.4350221739570738e-01 -7.7633878780597387e-01 -3.3157818343860862e-01 6.9418639917677205e-01 
        </Neuron>
        <Neuron NSynapses="9">
          1.8992179568479826e+00 -5.8702215226549082e-01 4.1942847603610804e+00 2.2855734389148852e+00 -2.4039958991562131e+00 1.4636875164677208e+00 2.7140223474087882e-01 2.8113360142789467e-01 -2.7370078523162285e+00 
        </Neuron>
      </Layer>
      <Layer Index="2" NNeurons="10">
        <Neuron NSynapses="1">
          2.6051404179459503e-01 
        </Neuron>
        <Neuron NSynapses="1">
          -1.0201320366848646e-01 
        </Neuron>
        <Neuron NSynapses="1">
          -1.6951606727364013e+00 
        </Neuron>
        <Neuron NSynapses="1">
          -5.1303217342101348e-01 
        </Neuron>
        <Neuron NSynapses="1">
          -1.5456171177327294e+00 
        </Neuron>
        <Neuron NSynapses="1">
          -1.1755775030188492e-02 
        </Neuron>
        <Neuron NSynapses="1">
          -1.1209942615134033e-02 
        </Neuron>
        <Neuron NSynapses="1">
          -6.6776331233167330e-01 
        </Neuron>
        <Neuron NSynapses="1">
          8.1515877376247270e-01 
        </Neuron>
        <Neuron NSynapses="1">
          8.3229019864129491e-02 
        </Neuron>
      </Layer>
      <Layer Index="3" NNeurons="1">
        <Neuron NSynapses="0"/>
      </Layer>
    </Layout>
  </Weights>
</MethodSetup>
