<?xml version="1.0"?>
<MethodSetup Method="MLP::XS_58_142_0_cap">
  <GeneralInfo>
    <Info name="TMVA Release" value="4.2.0 [262656]"/>
    <Info name="ROOT Release" value="5.34/14 [336398]"/>
    <Info name="Creator" value="courtin"/>
    <Info name="Date" value="Tue Jan 10 11:29:17 2017"/>
    <Info name="Host" value="Linux nansl3.in2p3.fr 2.6.32-431.20.3.el6.x86_64 #1 SMP Thu Jun 19 14:01:59 CDT 2014 x86_64 x86_64 x86_64 GNU/Linux"/>
    <Info name="Dir" value="/scratch/spallati/courtin/WORK/MOxEUS/BdD_HFC/HFC_NN/XSM"/>
    <Info name="Training events" value="121150"/>
    <Info name="TrainingTime" value="4.59650519e+03"/>
    <Info name="AnalysisType" value="Regression"/>
  </GeneralInfo>
  <Options>
    <Option name="NCycles" modified="Yes">20000</Option>
    <Option name="HiddenLayers" modified="Yes">N,N</Option>
    <Option name="NeuronType" modified="Yes">tanh</Option>
    <Option name="RandomSeed" modified="No">1</Option>
    <Option name="EstimatorType" modified="No">MSE</Option>
    <Option name="NeuronInputType" modified="No">sum</Option>
    <Option name="V" modified="Yes">False</Option>
    <Option name="VerbosityLevel" modified="No">Default</Option>
    <Option name="VarTransform" modified="Yes">Norm</Option>
    <Option name="H" modified="Yes">False</Option>
    <Option name="CreateMVAPdfs" modified="No">False</Option>
    <Option name="IgnoreNegWeightsInTraining" modified="No">False</Option>
    <Option name="TrainingMethod" modified="Yes">BFGS</Option>
    <Option name="LearningRate" modified="No">2.000000e-02</Option>
    <Option name="DecayRate" modified="No">1.000000e-02</Option>
    <Option name="TestRate" modified="Yes">6</Option>
    <Option name="EpochMonitoring" modified="No">False</Option>
    <Option name="Sampling" modified="Yes">3.000000e-01</Option>
    <Option name="SamplingEpoch" modified="Yes">8.000000e-01</Option>
    <Option name="SamplingImportance" modified="No">1.000000e+00</Option>
    <Option name="SamplingTraining" modified="No">True</Option>
    <Option name="SamplingTesting" modified="No">False</Option>
    <Option name="ResetStep" modified="No">50</Option>
    <Option name="Tau" modified="No">3.000000e+00</Option>
    <Option name="BPMode" modified="No">sequential</Option>
    <Option name="BatchSize" modified="No">-1</Option>
    <Option name="ConvergenceImprove" modified="Yes">1.000000e-06</Option>
    <Option name="ConvergenceTests" modified="Yes">15</Option>
    <Option name="UseRegulator" modified="Yes">False</Option>
    <Option name="UpdateLimit" modified="No">10000</Option>
    <Option name="CalculateErrors" modified="No">False</Option>
    <Option name="WeightRange" modified="No">1.000000e+00</Option>
  </Options>
  <Variables NVar="9">
    <Variable VarIndex="0" Expression="U5" Label="U5" Title="U 235" Unit="FractionIsotopic" Internal="U5" Type="F" Min="1.31763087e-03" Max="3.29138078e-02"/>
    <Variable VarIndex="1" Expression="U8" Label="U8" Title="U 238" Unit="FractionIsotopic" Internal="U8" Type="F" Min="7.91743398e-01" Max="9.45419848e-01"/>
    <Variable VarIndex="2" Expression="Pu8" Label="Pu8" Title="Pu 238" Unit="FractionIsotopic" Internal="Pu8" Type="F" Min="1.39107055e-04" Max="4.37852181e-02"/>
    <Variable VarIndex="3" Expression="Pu9" Label="Pu9" Title="Pu 239" Unit="FractionIsotopic" Internal="Pu9" Type="F" Min="1.04687838e-02" Max="1.39522925e-01"/>
    <Variable VarIndex="4" Expression="Pu10" Label="Pu10" Title="Pu 240" Unit="FractionIsotopic" Internal="Pu10" Type="F" Min="5.04723703e-03" Max="8.57686475e-02"/>
    <Variable VarIndex="5" Expression="Pu11" Label="Pu11" Title="Pu 241" Unit="FractionIsotopic" Internal="Pu11" Type="F" Min="5.70043085e-06" Max="4.37423512e-02"/>
    <Variable VarIndex="6" Expression="Pu12" Label="Pu12" Title="Pu 242" Unit="FractionIsotopic" Internal="Pu12" Type="F" Min="2.57695001e-06" Max="8.41057003e-02"/>
    <Variable VarIndex="7" Expression="Am1" Label="Am1" Title="Am 241" Unit="FractionIsotopic" Internal="Am1" Type="F" Min="5.84233703e-06" Max="3.63441594e-02"/>
    <Variable VarIndex="8" Expression="Time" Label="Time" Title="Time" Unit="seconds" Internal="Time" Type="F" Min="0.00000000e+00" Max="3.36503488e+08"/>
  </Variables>
  <Spectators NSpec="0"/>
  <Classes NClass="1">
    <Class Name="Regression" Index="0"/>
  </Classes>
  <Targets NTrgt="1">
    <Target TargetIndex="0" Expression="XS_58_142_0_cap" Label="XS_58_142_0_cap" Title="XS_58_142_0_cap" Unit="" Internal="XS_58_142_0_cap" Type="F" Min="4.17967476e-02" Max="5.60708903e-02"/>
  </Targets>
  <Transformations NTransformations="1">
    <Transform Name="Normalize">
      <Selection>
        <Input NInputs="10">
          <Input Type="Variable" Label="U5" Expression="U5"/>
          <Input Type="Variable" Label="U8" Expression="U8"/>
          <Input Type="Variable" Label="Pu8" Expression="Pu8"/>
          <Input Type="Variable" Label="Pu9" Expression="Pu9"/>
          <Input Type="Variable" Label="Pu10" Expression="Pu10"/>
          <Input Type="Variable" Label="Pu11" Expression="Pu11"/>
          <Input Type="Variable" Label="Pu12" Expression="Pu12"/>
          <Input Type="Variable" Label="Am1" Expression="Am1"/>
          <Input Type="Variable" Label="Time" Expression="Time"/>
          <Input Type="Target" Label="XS_58_142_0_cap" Expression="XS_58_142_0_cap"/>
        </Input>
        <Output NOutputs="10">
          <Output Type="Variable" Label="U5" Expression="U5"/>
          <Output Type="Variable" Label="U8" Expression="U8"/>
          <Output Type="Variable" Label="Pu8" Expression="Pu8"/>
          <Output Type="Variable" Label="Pu9" Expression="Pu9"/>
          <Output Type="Variable" Label="Pu10" Expression="Pu10"/>
          <Output Type="Variable" Label="Pu11" Expression="Pu11"/>
          <Output Type="Variable" Label="Pu12" Expression="Pu12"/>
          <Output Type="Variable" Label="Am1" Expression="Am1"/>
          <Output Type="Variable" Label="Time" Expression="Time"/>
          <Output Type="Target" Label="XS_58_142_0_cap" Expression="XS_58_142_0_cap"/>
        </Output>
      </Selection>
      <Class ClassIndex="0">
        <Ranges>
          <Range Index="0" Min="1.3176308711990714e-03" Max="3.2913807779550552e-02"/>
          <Range Index="1" Min="7.9174339771270752e-01" Max="9.4541984796524048e-01"/>
          <Range Index="2" Min="1.3910705456510186e-04" Max="4.3785218149423599e-02"/>
          <Range Index="3" Min="1.0468783788383007e-02" Max="1.3952292501926422e-01"/>
          <Range Index="4" Min="5.0472370348870754e-03" Max="8.5768647491931915e-02"/>
          <Range Index="5" Min="5.7004308473551646e-06" Max="4.3742351233959198e-02"/>
          <Range Index="6" Min="2.5769500098249409e-06" Max="8.4105700254440308e-02"/>
          <Range Index="7" Min="5.8423370319360401e-06" Max="3.6344159394502640e-02"/>
          <Range Index="8" Min="0.0000000000000000e+00" Max="3.3650348800000000e+08"/>
          <Range Index="9" Min="4.1796747595071793e-02" Max="5.6070890277624130e-02"/>
        </Ranges>
      </Class>
    </Transform>
  </Transformations>
  <MVAPdfs/>
  <Weights>
    <Layout NLayers="4">
      <Layer Index="0" NNeurons="10">
        <Neuron NSynapses="9">
          -3.4800844943291803e-01 -3.5927074982785140e-01 -2.4724896039906538e-01 1.1250755206743799e+00 -1.0726192372188128e+00 3.4004235640280420e-02 -2.2904295517222772e-01 2.9017144061523885e-02 -2.2298342893893064e-01 
        </Neuron>
        <Neuron NSynapses="9">
          -1.6804381436039855e+00 -1.9462440944235355e+00 -1.5322052479333745e+00 -2.6282416473387404e-01 -3.4080758518221599e-01 -1.5306277577207281e-01 4.7779601030946744e-01 -3.6920218521070726e-02 1.6070415555671949e+00 
        </Neuron>
        <Neuron NSynapses="9">
          -3.0600247691089355e-01 -1.9073944784325553e-01 -6.2868634074373286e-01 1.6218588500799191e-01 7.2733545880491368e-01 7.6546420836995380e-02 -4.5837107964613211e-01 4.0474080377881294e-01 7.5832710558870942e-01 
        </Neuron>
        <Neuron NSynapses="9">
          -1.5170887215828919e+00 1.8296432185149834e-02 -3.6414815266326178e-01 1.4508881238437836e+00 2.5994116060842107e+00 3.4824550586877800e-01 4.8596799610971958e-01 1.3660270773221457e+00 -1.9785870159120056e+00 
        </Neuron>
        <Neuron NSynapses="9">
          -8.8441557503803125e-01 1.5708076689995214e+00 -1.4237691393420453e+00 5.5703575180731701e-01 1.4413693465839243e+00 2.4569244949244959e-01 2.3955991434561144e+00 1.0394788718804271e+00 2.7590844768564743e-01 
        </Neuron>
        <Neuron NSynapses="9">
          -1.4631758018258498e+00 -8.7796300073640199e-01 1.4532611785704971e-01 1.2966174638998749e+00 5.8097248974476690e-01 9.3233380077408515e-02 1.3278004645191523e+00 -4.5406537372624728e-01 -1.2858715223219825e+00 
        </Neuron>
        <Neuron NSynapses="9">
          -9.7469002404210270e-01 -2.1885527568415784e+00 -1.1981390452323157e+00 -3.1651885986787631e-01 2.2322319931811498e+00 8.0630483599088948e-02 -6.1372882546668039e-01 7.5935119476102853e-01 8.0716431809969169e-01 
        </Neuron>
        <Neuron NSynapses="9">
          -3.0708520735038763e-01 -3.4784084001340293e-01 -7.2178217707297335e-02 1.1465698616212971e+00 -6.6461256656982648e-01 1.3395233617595681e-01 5.0176687152830107e-02 3.3808876824848710e-01 -3.8631622072282873e-01 
        </Neuron>
        <Neuron NSynapses="9">
          9.6391121110393185e-01 3.4536774339283166e-01 1.0232953068104926e+00 -2.8342586321174290e-01 -7.2231082670238889e-03 5.5302815182249145e-02 2.0147887220308372e-01 3.9282904161279469e-02 2.6011231521278910e+00 
        </Neuron>
        <Neuron NSynapses="9">
          1.0233173288641166e+00 1.9870172868928577e+00 4.6209074024177815e-01 -2.5879485566638420e+00 -1.2508301384176130e+00 1.0768455115272075e+00 -2.2997250192597378e+00 -2.8565670766555051e+00 -1.0955033817576634e+00 
        </Neuron>
      </Layer>
      <Layer Index="1" NNeurons="10">
        <Neuron NSynapses="9">
          6.3659080697595249e-01 -3.5591300827170252e-01 1.8232186686396055e+00 -1.8234377607535772e+00 -3.7106066503545332e-01 1.7455886162454533e+00 -9.1582567314169649e-01 -1.6300662914093584e+00 -1.4899098016149619e+00 
        </Neuron>
        <Neuron NSynapses="9">
          1.4157227020811977e-01 -1.8098575770563854e+00 -1.4395815888641643e+00 3.3301368087837696e-01 7.2039772834223903e-01 -8.7837870999317158e-01 1.9107448219886070e+00 -1.7994171597530098e+00 -7.7185374773698479e-01 
        </Neuron>
        <Neuron NSynapses="9">
          4.7186868042831448e-01 -5.0322202862842808e-02 -1.9808556211405592e+00 1.1332999574338101e+00 9.5567554002191565e-03 5.9625690905262330e-01 -1.7576944053235706e+00 2.0757822849135348e+00 3.3325142691444626e-01 
        </Neuron>
        <Neuron NSynapses="9">
          -1.0414916248910271e+00 9.6764494590101591e-01 -7.3725380058090162e-01 -8.7234931653179604e-01 2.5036492217350437e-01 -4.9660780330598220e-01 1.7001820105998329e+00 8.9707126594361919e-01 -1.0429466847670741e-02 
        </Neuron>
        <Neuron NSynapses="9">
          -1.0964585228023775e+00 5.0867761730726757e-01 -1.8476950870434250e+00 3.4198705016292791e-01 -1.4231182926929328e-01 -1.7329705130636135e+00 4.7882751371692633e-01 -1.3086885927441587e+00 8.0651907414908394e-02 
        </Neuron>
        <Neuron NSynapses="9">
          6.6792144750078730e-01 1.8320732496530676e+00 -1.4939076695345932e+00 2.6470178095657282e+00 1.1230779492370886e+00 1.6049744832164021e+00 7.9792790187121510e-01 -1.1646572365934662e+00 -1.8603461174542918e-01 
        </Neuron>
        <Neuron NSynapses="9">
          -1.0335860820969807e+00 1.3558774137338092e+00 6.8218713812924237e-01 -3.0254618838647923e-01 -1.7389664951479662e-02 2.8927072311423685e-01 -1.1343380289166853e+00 -3.5111441283744899e-01 1.8473331214565225e+00 
        </Neuron>
        <Neuron NSynapses="9">
          -6.8654032323799774e-01 -4.1585879289023447e-01 -2.4901282224711541e-01 9.6194020968911853e-01 -7.8294894052986119e-01 9.4885771177222378e-01 -1.1032172771714699e+00 1.2060638247466982e+00 7.7041701577398536e-01 
        </Neuron>
        <Neuron NSynapses="9">
          8.3557456439170189e-02 3.8128115986668010e-01 4.0977747489655864e-01 -6.8713887898661126e-03 -1.8632657719357796e-02 9.5515726437798298e-01 -1.1614262153171209e+00 -5.3948640069058396e-01 1.5419237448291550e+00 
        </Neuron>
        <Neuron NSynapses="9">
          1.9192415825227112e+00 -5.1546003900924919e-01 1.7564244453658884e+00 1.6817468695318083e+00 -1.5610249379371901e+00 8.3656419230744505e-01 -9.3714308925159098e-02 3.9783712406753197e-01 -1.7135805281616923e+00 
        </Neuron>
      </Layer>
      <Layer Index="2" NNeurons="10">
        <Neuron NSynapses="1">
          -7.0314803292406219e-02 
        </Neuron>
        <Neuron NSynapses="1">
          -6.5311313530443749e-01 
        </Neuron>
        <Neuron NSynapses="1">
          1.2600767602114335e-01 
        </Neuron>
        <Neuron NSynapses="1">
          -2.9865195066362946e+00 
        </Neuron>
        <Neuron NSynapses="1">
          -7.8203013464133764e-01 
        </Neuron>
        <Neuron NSynapses="1">
          -4.3055992287331002e-01 
        </Neuron>
        <Neuron NSynapses="1">
          5.0585187626186710e-02 
        </Neuron>
        <Neuron NSynapses="1">
          -1.0763509709324135e+00 
        </Neuron>
        <Neuron NSynapses="1">
          -1.0218221833201542e+00 
        </Neuron>
        <Neuron NSynapses="1">
          6.5099977117898888e-02 
        </Neuron>
      </Layer>
      <Layer Index="3" NNeurons="1">
        <Neuron NSynapses="0"/>
      </Layer>
    </Layout>
  </Weights>
</MethodSetup>
