<?xml version="1.0"?>
<MethodSetup Method="MLP::XS_96_248_0_cap">
  <GeneralInfo>
    <Info name="TMVA Release" value="4.2.0 [262656]"/>
    <Info name="ROOT Release" value="5.34/14 [336398]"/>
    <Info name="Creator" value="courtin"/>
    <Info name="Date" value="Wed Jan 11 12:12:02 2017"/>
    <Info name="Host" value="Linux nansl3.in2p3.fr 2.6.32-431.20.3.el6.x86_64 #1 SMP Thu Jun 19 14:01:59 CDT 2014 x86_64 x86_64 x86_64 GNU/Linux"/>
    <Info name="Dir" value="/scratch/spallati/courtin/WORK/MOxEUS/BdD_HFC/HFC_NN/XSM"/>
    <Info name="Training events" value="121150"/>
    <Info name="TrainingTime" value="3.40209799e+03"/>
    <Info name="AnalysisType" value="Regression"/>
  </GeneralInfo>
  <Options>
    <Option name="NCycles" modified="Yes">20000</Option>
    <Option name="HiddenLayers" modified="Yes">N,N</Option>
    <Option name="NeuronType" modified="Yes">tanh</Option>
    <Option name="RandomSeed" modified="No">1</Option>
    <Option name="EstimatorType" modified="No">MSE</Option>
    <Option name="NeuronInputType" modified="No">sum</Option>
    <Option name="V" modified="Yes">False</Option>
    <Option name="VerbosityLevel" modified="No">Default</Option>
    <Option name="VarTransform" modified="Yes">Norm</Option>
    <Option name="H" modified="Yes">False</Option>
    <Option name="CreateMVAPdfs" modified="No">False</Option>
    <Option name="IgnoreNegWeightsInTraining" modified="No">False</Option>
    <Option name="TrainingMethod" modified="Yes">BFGS</Option>
    <Option name="LearningRate" modified="No">2.000000e-02</Option>
    <Option name="DecayRate" modified="No">1.000000e-02</Option>
    <Option name="TestRate" modified="Yes">6</Option>
    <Option name="EpochMonitoring" modified="No">False</Option>
    <Option name="Sampling" modified="Yes">3.000000e-01</Option>
    <Option name="SamplingEpoch" modified="Yes">8.000000e-01</Option>
    <Option name="SamplingImportance" modified="No">1.000000e+00</Option>
    <Option name="SamplingTraining" modified="No">True</Option>
    <Option name="SamplingTesting" modified="No">False</Option>
    <Option name="ResetStep" modified="No">50</Option>
    <Option name="Tau" modified="No">3.000000e+00</Option>
    <Option name="BPMode" modified="No">sequential</Option>
    <Option name="BatchSize" modified="No">-1</Option>
    <Option name="ConvergenceImprove" modified="Yes">1.000000e-06</Option>
    <Option name="ConvergenceTests" modified="Yes">15</Option>
    <Option name="UseRegulator" modified="Yes">False</Option>
    <Option name="UpdateLimit" modified="No">10000</Option>
    <Option name="CalculateErrors" modified="No">False</Option>
    <Option name="WeightRange" modified="No">1.000000e+00</Option>
  </Options>
  <Variables NVar="9">
    <Variable VarIndex="0" Expression="U5" Label="U5" Title="U 235" Unit="FractionIsotopic" Internal="U5" Type="F" Min="1.31763087e-03" Max="3.29138078e-02"/>
    <Variable VarIndex="1" Expression="U8" Label="U8" Title="U 238" Unit="FractionIsotopic" Internal="U8" Type="F" Min="7.91743398e-01" Max="9.45419848e-01"/>
    <Variable VarIndex="2" Expression="Pu8" Label="Pu8" Title="Pu 238" Unit="FractionIsotopic" Internal="Pu8" Type="F" Min="1.39107055e-04" Max="4.37852181e-02"/>
    <Variable VarIndex="3" Expression="Pu9" Label="Pu9" Title="Pu 239" Unit="FractionIsotopic" Internal="Pu9" Type="F" Min="1.04687838e-02" Max="1.39522925e-01"/>
    <Variable VarIndex="4" Expression="Pu10" Label="Pu10" Title="Pu 240" Unit="FractionIsotopic" Internal="Pu10" Type="F" Min="5.04723703e-03" Max="8.57686475e-02"/>
    <Variable VarIndex="5" Expression="Pu11" Label="Pu11" Title="Pu 241" Unit="FractionIsotopic" Internal="Pu11" Type="F" Min="5.70043085e-06" Max="4.37423512e-02"/>
    <Variable VarIndex="6" Expression="Pu12" Label="Pu12" Title="Pu 242" Unit="FractionIsotopic" Internal="Pu12" Type="F" Min="2.57695001e-06" Max="8.41057003e-02"/>
    <Variable VarIndex="7" Expression="Am1" Label="Am1" Title="Am 241" Unit="FractionIsotopic" Internal="Am1" Type="F" Min="5.84233703e-06" Max="3.63441594e-02"/>
    <Variable VarIndex="8" Expression="Time" Label="Time" Title="Time" Unit="seconds" Internal="Time" Type="F" Min="0.00000000e+00" Max="3.36503488e+08"/>
  </Variables>
  <Spectators NSpec="0"/>
  <Classes NClass="1">
    <Class Name="Regression" Index="0"/>
  </Classes>
  <Targets NTrgt="1">
    <Target TargetIndex="0" Expression="XS_96_248_0_cap" Label="XS_96_248_0_cap" Title="XS_96_248_0_cap" Unit="" Internal="XS_96_248_0_cap" Type="F" Min="4.53074217e+00" Max="7.22722721e+00"/>
  </Targets>
  <Transformations NTransformations="1">
    <Transform Name="Normalize">
      <Selection>
        <Input NInputs="10">
          <Input Type="Variable" Label="U5" Expression="U5"/>
          <Input Type="Variable" Label="U8" Expression="U8"/>
          <Input Type="Variable" Label="Pu8" Expression="Pu8"/>
          <Input Type="Variable" Label="Pu9" Expression="Pu9"/>
          <Input Type="Variable" Label="Pu10" Expression="Pu10"/>
          <Input Type="Variable" Label="Pu11" Expression="Pu11"/>
          <Input Type="Variable" Label="Pu12" Expression="Pu12"/>
          <Input Type="Variable" Label="Am1" Expression="Am1"/>
          <Input Type="Variable" Label="Time" Expression="Time"/>
          <Input Type="Target" Label="XS_96_248_0_cap" Expression="XS_96_248_0_cap"/>
        </Input>
        <Output NOutputs="10">
          <Output Type="Variable" Label="U5" Expression="U5"/>
          <Output Type="Variable" Label="U8" Expression="U8"/>
          <Output Type="Variable" Label="Pu8" Expression="Pu8"/>
          <Output Type="Variable" Label="Pu9" Expression="Pu9"/>
          <Output Type="Variable" Label="Pu10" Expression="Pu10"/>
          <Output Type="Variable" Label="Pu11" Expression="Pu11"/>
          <Output Type="Variable" Label="Pu12" Expression="Pu12"/>
          <Output Type="Variable" Label="Am1" Expression="Am1"/>
          <Output Type="Variable" Label="Time" Expression="Time"/>
          <Output Type="Target" Label="XS_96_248_0_cap" Expression="XS_96_248_0_cap"/>
        </Output>
      </Selection>
      <Class ClassIndex="0">
        <Ranges>
          <Range Index="0" Min="1.3176308711990714e-03" Max="3.2913807779550552e-02"/>
          <Range Index="1" Min="7.9174339771270752e-01" Max="9.4541984796524048e-01"/>
          <Range Index="2" Min="1.3910705456510186e-04" Max="4.3785218149423599e-02"/>
          <Range Index="3" Min="1.0468783788383007e-02" Max="1.3952292501926422e-01"/>
          <Range Index="4" Min="5.0472370348870754e-03" Max="8.5768647491931915e-02"/>
          <Range Index="5" Min="5.7004308473551646e-06" Max="4.3742351233959198e-02"/>
          <Range Index="6" Min="2.5769500098249409e-06" Max="8.4105700254440308e-02"/>
          <Range Index="7" Min="5.8423370319360401e-06" Max="3.6344159394502640e-02"/>
          <Range Index="8" Min="0.0000000000000000e+00" Max="3.3650348800000000e+08"/>
          <Range Index="9" Min="4.5307421684265137e+00" Max="7.2272272109985352e+00"/>
        </Ranges>
      </Class>
    </Transform>
  </Transformations>
  <MVAPdfs/>
  <Weights>
    <Layout NLayers="4">
      <Layer Index="0" NNeurons="10">
        <Neuron NSynapses="9">
          -3.6630419492274041e-01 4.1163927196188571e-01 -8.3365482148347048e-02 9.5956211896815879e-01 -1.1892372468967360e+00 1.1933697809750288e-02 -2.5075275086891469e-01 2.7228988166629414e-01 2.2797482452109238e-01 
        </Neuron>
        <Neuron NSynapses="9">
          -1.1488432525089045e+00 -2.3831262660890684e+00 -1.0694456513746224e+00 -3.5464324606853337e-01 -4.0177956843058865e-01 -7.9591672149915818e-02 6.1737645224661186e-01 -4.7636787165264416e-01 2.2567835382594916e+00 
        </Neuron>
        <Neuron NSynapses="9">
          -2.7613734453234540e-01 1.2469410246398219e-01 -2.5335876445925909e-01 2.2252976418951981e-01 2.5372542055704378e-01 7.5758908349551457e-02 -2.2876151660410340e-01 2.9059464396178632e-02 -2.8393387235293116e-01 
        </Neuron>
        <Neuron NSynapses="9">
          -1.2031350708999968e+00 1.1918995423560381e+00 -5.2932962193475408e-01 1.4130608598743486e+00 2.7981995405739264e+00 1.6897646414178957e-01 4.8980993949687740e-01 4.8372369192063813e-01 3.0517712106277151e-01 
        </Neuron>
        <Neuron NSynapses="9">
          -3.5287684559033833e-01 1.1529997505989591e+00 -5.0253868228924004e-01 8.5437554237445912e-01 9.3205832518752629e-01 3.1178757955420772e-01 1.8055893600781585e+00 1.1230994038972585e-02 -1.5194049310293198e+00 
        </Neuron>
        <Neuron NSynapses="9">
          -8.0025666759970027e-01 1.1793690196622592e-01 -7.0506064822295628e-02 1.3967738470661626e+00 2.0163787319427646e+00 -9.7408593569478674e-02 1.9164122775077488e+00 3.8801673992974967e-01 1.0915626439213388e+00 
        </Neuron>
        <Neuron NSynapses="9">
          -4.6079168578223662e-01 -1.5085181416333902e+00 -5.8041125783284142e-01 -4.4169976824744411e-01 1.2588490280956530e+00 3.3812076938365820e-01 -3.1288347980915598e-01 -2.5886113369910330e-01 1.0483099278031087e-01 
        </Neuron>
        <Neuron NSynapses="9">
          -3.1887712437499921e-01 4.6658820454153621e-01 -1.6952222899348898e-01 8.7615498457558827e-01 -5.6696585489070739e-01 3.6294783917870284e-02 -6.5692992625171392e-02 1.6470397263359790e-01 -5.8482805232302126e-01 
        </Neuron>
        <Neuron NSynapses="9">
          6.8494773144154109e-01 6.7213857243308683e-01 5.3023318978553668e-01 -2.9625761636916970e-01 -8.3348519404507382e-01 -1.5465681321336605e-01 4.6364530617647659e-01 1.2797476711871583e-01 3.5115792649995053e-01 
        </Neuron>
        <Neuron NSynapses="9">
          -5.5176170236710294e-02 9.9277295733218218e-01 -3.7618361790600563e-01 -2.5264038658556269e+00 -9.5709176749502034e-01 1.0652861130415001e+00 -2.4381094739837241e+00 -1.3669345601454066e+00 -2.2579060781678160e+00 
        </Neuron>
      </Layer>
      <Layer Index="1" NNeurons="10">
        <Neuron NSynapses="9">
          5.6390134820621129e-01 -3.6815278290558034e-01 2.1773455504170496e+00 -1.6893776592998990e+00 -1.5277266291536356e+00 1.8598401101859920e+00 -8.0656763806330745e-01 -1.4121129248962416e+00 -1.5568439108585819e+00 
        </Neuron>
        <Neuron NSynapses="9">
          2.5354623808702625e-01 -1.7736384204092761e+00 -8.1686788285993817e-01 5.9709183730232394e-03 9.6042083294599367e-01 -8.9832653822085928e-01 3.5462244117329034e-01 -3.6093857190634482e-01 -6.9758402665495867e-01 
        </Neuron>
        <Neuron NSynapses="9">
          4.2932631023646800e-01 -5.3605212044981954e-01 -1.8090781023996136e+00 6.7743756969361568e-01 1.1844487081055775e+00 6.5889501764100999e-01 -3.0147447220601178e+00 1.4459240422516773e+00 2.6927924974823314e-01 
        </Neuron>
        <Neuron NSynapses="9">
          -8.7164801475372722e-01 9.0975622681262469e-01 -9.3919978441017482e-01 -7.1841209663789551e-01 6.8484232441433335e-01 -4.8316576198812272e-01 1.9539657295923019e+00 6.5264020593646388e-01 6.1146292186719041e-02 
        </Neuron>
        <Neuron NSynapses="9">
          -1.0486065831432785e+00 1.5137572068401536e-01 -1.9014278689270963e+00 -5.5154411097878581e-02 -2.6335811006807081e-01 -1.7757533360470266e+00 -2.4467691195375102e-01 -1.5006020126502939e+00 1.5558582399798992e-01 
        </Neuron>
        <Neuron NSynapses="9">
          7.2843417684648548e-01 1.8984509241310534e+00 -1.1292040533591530e+00 5.7999493531991264e-01 1.4395367640327548e+00 1.5355689007567463e+00 4.8618385597440811e-01 -1.6493158210590191e+00 -9.7140402135089163e-02 
        </Neuron>
        <Neuron NSynapses="9">
          -1.0729014445983140e+00 1.2122721117455260e+00 6.8481131222813763e-01 6.1426625882577426e-02 -5.7154507722858516e-01 2.0504966337724459e-01 -6.4475100225872284e-01 1.8689852355096745e-01 1.7325547594006416e+00 
        </Neuron>
        <Neuron NSynapses="9">
          -5.3523958885910061e-01 -4.6309512679842607e-01 -5.9574208996026938e-02 1.1890764424226952e+00 3.6904188247266989e-01 7.5168392599645928e-01 -9.6854346640197930e-01 1.1447140106136180e+00 8.0411466921309105e-01 
        </Neuron>
        <Neuron NSynapses="9">
          4.9059806015443422e-02 3.5850038206015244e-01 5.1400227305657153e-01 -4.7801907970401659e-02 -3.2556933389330592e-02 8.3413988779984360e-01 -2.8221495331080271e-01 -8.6680049660786518e-01 1.4666570369684546e+00 
        </Neuron>
        <Neuron NSynapses="9">
          1.8199762391803913e+00 -4.9908798572612129e-01 2.0499718023676698e+00 1.7020093141310211e+00 -2.2487530898802435e+00 9.0985373362120991e-01 -5.2071121187040736e-01 5.9609706473762869e-01 -1.7799602599658884e+00 
        </Neuron>
      </Layer>
      <Layer Index="2" NNeurons="10">
        <Neuron NSynapses="1">
          3.3039198346031160e-03 
        </Neuron>
        <Neuron NSynapses="1">
          8.7345649950101786e-02 
        </Neuron>
        <Neuron NSynapses="1">
          1.3868478644207021e-02 
        </Neuron>
        <Neuron NSynapses="1">
          -1.0766379099137076e+00 
        </Neuron>
        <Neuron NSynapses="1">
          -3.2329028536808613e-01 
        </Neuron>
        <Neuron NSynapses="1">
          3.0265854562535794e-02 
        </Neuron>
        <Neuron NSynapses="1">
          6.5266263756296794e-01 
        </Neuron>
        <Neuron NSynapses="1">
          3.6262165443320421e-02 
        </Neuron>
        <Neuron NSynapses="1">
          -7.2272615737500234e-01 
        </Neuron>
        <Neuron NSynapses="1">
          7.4795969424990130e-02 
        </Neuron>
      </Layer>
      <Layer Index="3" NNeurons="1">
        <Neuron NSynapses="0"/>
      </Layer>
    </Layout>
  </Weights>
</MethodSetup>
