<?xml version="1.0"?>
<MethodSetup Method="MLP::XS_54_131_0_n2n">
  <GeneralInfo>
    <Info name="TMVA Release" value="4.2.0 [262656]"/>
    <Info name="ROOT Release" value="5.34/14 [336398]"/>
    <Info name="Creator" value="courtin"/>
    <Info name="Date" value="Mon Jan  9 16:21:35 2017"/>
    <Info name="Host" value="Linux nansl3.in2p3.fr 2.6.32-431.20.3.el6.x86_64 #1 SMP Thu Jun 19 14:01:59 CDT 2014 x86_64 x86_64 x86_64 GNU/Linux"/>
    <Info name="Dir" value="/scratch/spallati/courtin/WORK/MOxEUS/BdD_HFC/HFC_NN/XSM"/>
    <Info name="Training events" value="121150"/>
    <Info name="TrainingTime" value="2.70686714e+03"/>
    <Info name="AnalysisType" value="Regression"/>
  </GeneralInfo>
  <Options>
    <Option name="NCycles" modified="Yes">20000</Option>
    <Option name="HiddenLayers" modified="Yes">N,N</Option>
    <Option name="NeuronType" modified="Yes">tanh</Option>
    <Option name="RandomSeed" modified="No">1</Option>
    <Option name="EstimatorType" modified="No">MSE</Option>
    <Option name="NeuronInputType" modified="No">sum</Option>
    <Option name="V" modified="Yes">False</Option>
    <Option name="VerbosityLevel" modified="No">Default</Option>
    <Option name="VarTransform" modified="Yes">Norm</Option>
    <Option name="H" modified="Yes">False</Option>
    <Option name="CreateMVAPdfs" modified="No">False</Option>
    <Option name="IgnoreNegWeightsInTraining" modified="No">False</Option>
    <Option name="TrainingMethod" modified="Yes">BFGS</Option>
    <Option name="LearningRate" modified="No">2.000000e-02</Option>
    <Option name="DecayRate" modified="No">1.000000e-02</Option>
    <Option name="TestRate" modified="Yes">6</Option>
    <Option name="EpochMonitoring" modified="No">False</Option>
    <Option name="Sampling" modified="Yes">3.000000e-01</Option>
    <Option name="SamplingEpoch" modified="Yes">8.000000e-01</Option>
    <Option name="SamplingImportance" modified="No">1.000000e+00</Option>
    <Option name="SamplingTraining" modified="No">True</Option>
    <Option name="SamplingTesting" modified="No">False</Option>
    <Option name="ResetStep" modified="No">50</Option>
    <Option name="Tau" modified="No">3.000000e+00</Option>
    <Option name="BPMode" modified="No">sequential</Option>
    <Option name="BatchSize" modified="No">-1</Option>
    <Option name="ConvergenceImprove" modified="Yes">1.000000e-06</Option>
    <Option name="ConvergenceTests" modified="Yes">15</Option>
    <Option name="UseRegulator" modified="Yes">False</Option>
    <Option name="UpdateLimit" modified="No">10000</Option>
    <Option name="CalculateErrors" modified="No">False</Option>
    <Option name="WeightRange" modified="No">1.000000e+00</Option>
  </Options>
  <Variables NVar="9">
    <Variable VarIndex="0" Expression="U5" Label="U5" Title="U 235" Unit="FractionIsotopic" Internal="U5" Type="F" Min="1.31763087e-03" Max="3.29138078e-02"/>
    <Variable VarIndex="1" Expression="U8" Label="U8" Title="U 238" Unit="FractionIsotopic" Internal="U8" Type="F" Min="7.91743398e-01" Max="9.45419848e-01"/>
    <Variable VarIndex="2" Expression="Pu8" Label="Pu8" Title="Pu 238" Unit="FractionIsotopic" Internal="Pu8" Type="F" Min="1.39107055e-04" Max="4.37852181e-02"/>
    <Variable VarIndex="3" Expression="Pu9" Label="Pu9" Title="Pu 239" Unit="FractionIsotopic" Internal="Pu9" Type="F" Min="1.04687838e-02" Max="1.39522925e-01"/>
    <Variable VarIndex="4" Expression="Pu10" Label="Pu10" Title="Pu 240" Unit="FractionIsotopic" Internal="Pu10" Type="F" Min="5.04723703e-03" Max="8.57686475e-02"/>
    <Variable VarIndex="5" Expression="Pu11" Label="Pu11" Title="Pu 241" Unit="FractionIsotopic" Internal="Pu11" Type="F" Min="5.70043085e-06" Max="4.37423512e-02"/>
    <Variable VarIndex="6" Expression="Pu12" Label="Pu12" Title="Pu 242" Unit="FractionIsotopic" Internal="Pu12" Type="F" Min="2.57695001e-06" Max="8.41057003e-02"/>
    <Variable VarIndex="7" Expression="Am1" Label="Am1" Title="Am 241" Unit="FractionIsotopic" Internal="Am1" Type="F" Min="5.84233703e-06" Max="3.63441594e-02"/>
    <Variable VarIndex="8" Expression="Time" Label="Time" Title="Time" Unit="seconds" Internal="Time" Type="F" Min="0.00000000e+00" Max="3.36503488e+08"/>
  </Variables>
  <Spectators NSpec="0"/>
  <Classes NClass="1">
    <Class Name="Regression" Index="0"/>
  </Classes>
  <Targets NTrgt="1">
    <Target TargetIndex="0" Expression="XS_54_131_0_n2n" Label="XS_54_131_0_n2n" Title="XS_54_131_0_n2n" Unit="" Internal="XS_54_131_0_n2n" Type="F" Min="5.07659419e-03" Max="7.30490452e-03"/>
  </Targets>
  <Transformations NTransformations="1">
    <Transform Name="Normalize">
      <Selection>
        <Input NInputs="10">
          <Input Type="Variable" Label="U5" Expression="U5"/>
          <Input Type="Variable" Label="U8" Expression="U8"/>
          <Input Type="Variable" Label="Pu8" Expression="Pu8"/>
          <Input Type="Variable" Label="Pu9" Expression="Pu9"/>
          <Input Type="Variable" Label="Pu10" Expression="Pu10"/>
          <Input Type="Variable" Label="Pu11" Expression="Pu11"/>
          <Input Type="Variable" Label="Pu12" Expression="Pu12"/>
          <Input Type="Variable" Label="Am1" Expression="Am1"/>
          <Input Type="Variable" Label="Time" Expression="Time"/>
          <Input Type="Target" Label="XS_54_131_0_n2n" Expression="XS_54_131_0_n2n"/>
        </Input>
        <Output NOutputs="10">
          <Output Type="Variable" Label="U5" Expression="U5"/>
          <Output Type="Variable" Label="U8" Expression="U8"/>
          <Output Type="Variable" Label="Pu8" Expression="Pu8"/>
          <Output Type="Variable" Label="Pu9" Expression="Pu9"/>
          <Output Type="Variable" Label="Pu10" Expression="Pu10"/>
          <Output Type="Variable" Label="Pu11" Expression="Pu11"/>
          <Output Type="Variable" Label="Pu12" Expression="Pu12"/>
          <Output Type="Variable" Label="Am1" Expression="Am1"/>
          <Output Type="Variable" Label="Time" Expression="Time"/>
          <Output Type="Target" Label="XS_54_131_0_n2n" Expression="XS_54_131_0_n2n"/>
        </Output>
      </Selection>
      <Class ClassIndex="0">
        <Ranges>
          <Range Index="0" Min="1.3176308711990714e-03" Max="3.2913807779550552e-02"/>
          <Range Index="1" Min="7.9174339771270752e-01" Max="9.4541984796524048e-01"/>
          <Range Index="2" Min="1.3910705456510186e-04" Max="4.3785218149423599e-02"/>
          <Range Index="3" Min="1.0468783788383007e-02" Max="1.3952292501926422e-01"/>
          <Range Index="4" Min="5.0472370348870754e-03" Max="8.5768647491931915e-02"/>
          <Range Index="5" Min="5.7004308473551646e-06" Max="4.3742351233959198e-02"/>
          <Range Index="6" Min="2.5769500098249409e-06" Max="8.4105700254440308e-02"/>
          <Range Index="7" Min="5.8423370319360401e-06" Max="3.6344159394502640e-02"/>
          <Range Index="8" Min="0.0000000000000000e+00" Max="3.3650348800000000e+08"/>
          <Range Index="9" Min="5.0765941850841045e-03" Max="7.3049045167863369e-03"/>
        </Ranges>
      </Class>
    </Transform>
  </Transformations>
  <MVAPdfs/>
  <Weights>
    <Layout NLayers="4">
      <Layer Index="0" NNeurons="10">
        <Neuron NSynapses="9">
          -3.1454936987758464e-01 -1.1808483003624521e+00 1.2800339413085310e-01 -2.6486350620287358e-01 -1.8871043539294126e+00 -4.4735371930043455e-01 2.4144245203739587e-01 1.9886544510150239e-01 -6.2602379311120149e-01 
        </Neuron>
        <Neuron NSynapses="9">
          -1.3544021785315727e+00 -2.4707978679793743e+00 8.7482763734519287e-01 -1.0081773446878670e+00 3.0895879859450307e-02 -6.5700962219292469e-01 5.5210394864052859e-01 5.1734817696719737e-01 2.0290800739358961e+00 
        </Neuron>
        <Neuron NSynapses="9">
          -2.2561571846909940e-02 2.0999809854267301e-01 2.0133120070453703e-02 -4.6412917813706100e-02 5.2516528418200681e-01 5.0360530682419435e-01 -4.8972444572882273e-02 1.0161906336844495e-01 1.2439302310720113e+00 
        </Neuron>
        <Neuron NSynapses="9">
          -1.1917732486861210e+00 -6.3753643164800411e-01 -1.6347181530611124e-01 -1.4137479560750965e-01 2.0619936065718849e+00 1.8491367770194185e+00 7.4218051390623774e-01 -3.1049145730524008e-01 1.9662091870618706e-01 
        </Neuron>
        <Neuron NSynapses="9">
          -1.4612011359238530e+00 1.6461263431597868e+00 -5.2082088031706897e-01 -4.7938620567990198e-04 1.2018757571445109e+00 6.5936991331400563e-01 1.6607579250972511e+00 4.9847808300380636e-01 -4.6803616469723708e-01 
        </Neuron>
        <Neuron NSynapses="9">
          -1.4599574010942962e+00 -7.0272640727905900e-01 8.3539327338978814e-02 2.1412719504140795e-02 1.4046237632745937e+00 1.6051791682681542e+00 2.1132173677180739e+00 -6.4921354212051741e-01 1.7756033497986194e+00 
        </Neuron>
        <Neuron NSynapses="9">
          -2.0470881717245102e+00 2.4378571007340932e-01 -1.9173425792456505e-01 -2.3192056652572629e-01 1.5802964812413101e+00 5.6772481764178706e-01 -3.8997471672420914e-01 5.0147379620991928e-01 4.5336730016872356e-01 
        </Neuron>
        <Neuron NSynapses="9">
          3.6621454484082627e-01 1.2500011978648922e+00 -1.4984715970069918e-02 1.3122825253097703e-01 -4.2965831621594980e-01 1.4817963657445350e+00 4.6850921931588219e-01 5.0490142744562490e-02 -4.9551556459454776e-01 
        </Neuron>
        <Neuron NSynapses="9">
          4.7271893202282372e-01 2.1848328566027635e+00 3.1069519274549173e-01 -6.8411639053004514e-02 1.1196446459963976e+00 -8.4794437796118449e-01 -3.1451418633116024e-01 -8.6718627196830300e-01 5.3321328337743490e-01 
        </Neuron>
        <Neuron NSynapses="9">
          1.0533988083363450e+00 1.5210998255890560e+00 -2.2287601104662489e+00 -3.0227020610109323e-01 -9.0411394796257005e-01 -3.2632800089379715e-01 -2.6912818304645958e+00 -1.8426899917123869e+00 -2.8844315228060213e+00 
        </Neuron>
      </Layer>
      <Layer Index="1" NNeurons="10">
        <Neuron NSynapses="9">
          7.3010506586711177e-01 -1.5582810679681222e-01 2.6579462415519557e+00 -9.0415301855557340e-01 -1.5663209269888079e+00 1.7891983523960862e+00 -1.2885760585329953e-01 -1.2038758829565899e+00 -2.1588083996502241e+00 
        </Neuron>
        <Neuron NSynapses="9">
          1.2142948562697692e-01 -1.6522972790103436e+00 -8.0455056640143618e-01 2.9596790663226979e-01 9.3386573405323281e-01 -1.1164057213985894e+00 2.5267680890271178e+00 -2.2045518394523944e-01 -3.7159928249880486e-01 
        </Neuron>
        <Neuron NSynapses="9">
          -2.3474616080690519e-01 4.5295099730182231e-01 -1.4783666969189972e+00 5.6347878712932298e-01 1.8185589274144915e+00 -2.1642628067272746e-01 -1.0298031829398322e+00 1.6907942031746828e+00 -1.4197687724235320e-02 
        </Neuron>
        <Neuron NSynapses="9">
          -5.4161809821710249e-01 7.1505653629984345e-01 -3.2847160562986338e-01 -8.8646033940866553e-01 4.5883888485073021e-01 -7.0131618763271053e-01 1.4670101085899918e+00 -8.5083720839225152e-01 6.3568335410089638e-01 
        </Neuron>
        <Neuron NSynapses="9">
          -1.0448602283153738e+00 5.0007053937999618e-02 -2.6411686080721353e+00 1.2318652444177325e-01 5.5464475468522845e-01 -1.1873000883167590e+00 1.0471213526597022e-01 -1.6626146755823106e+00 6.9175980119204394e-01 
        </Neuron>
        <Neuron NSynapses="9">
          6.7004702209208244e-01 1.6576567890257337e+00 -1.1037454982537922e+00 -4.7367293467514160e-01 1.7773871006216418e-01 1.8274890338094798e+00 6.8206100454096016e-02 -1.9975967336711011e+00 1.8147973701208842e-01 
        </Neuron>
        <Neuron NSynapses="9">
          -1.3091450044991588e+00 1.5988009544483657e+00 5.7850111600369281e-01 -2.3125244092975999e-01 2.0005550021599924e-01 9.6896944835842547e-02 -1.5862399659019035e+00 2.6217024833606944e-01 1.2798354591888290e+00 
        </Neuron>
        <Neuron NSynapses="9">
          -2.3988970763891115e-01 -5.2771324375356210e-01 -5.4344493798472737e-01 1.4582437873950562e+00 1.0394982092687728e+00 4.7897799187988904e-01 -1.6552354616847280e+00 1.3942240574834575e+00 1.3511532620865878e+00 
        </Neuron>
        <Neuron NSynapses="9">
          -3.2496904598823217e-01 7.2211581738014186e-01 -1.8564036265796415e-02 3.8386530950130913e-02 -3.0347131601688785e-02 1.2386120037722386e+00 -6.9802504284318023e-01 5.0644964765494349e-01 1.0027161601414381e+00 
        </Neuron>
        <Neuron NSynapses="9">
          2.0180918383313857e+00 -3.2944421424730874e-01 2.6152110326715414e+00 2.6348824538976126e+00 -2.7237537634090367e+00 9.0814312959236798e-01 7.1314510262831077e-01 7.8880826826910910e-01 -2.3897276927312743e+00 
        </Neuron>
      </Layer>
      <Layer Index="2" NNeurons="10">
        <Neuron NSynapses="1">
          -7.9983145505194930e-01 
        </Neuron>
        <Neuron NSynapses="1">
          5.7670036891309055e-02 
        </Neuron>
        <Neuron NSynapses="1">
          1.2258025835903656e-01 
        </Neuron>
        <Neuron NSynapses="1">
          -3.1167775812730181e-01 
        </Neuron>
        <Neuron NSynapses="1">
          -2.3537124281579160e+00 
        </Neuron>
        <Neuron NSynapses="1">
          -6.6227706907288006e-02 
        </Neuron>
        <Neuron NSynapses="1">
          9.2046409830127351e-01 
        </Neuron>
        <Neuron NSynapses="1">
          -1.1504547202437644e-01 
        </Neuron>
        <Neuron NSynapses="1">
          1.3557991813880259e+00 
        </Neuron>
        <Neuron NSynapses="1">
          -1.0005523216452772e+00 
        </Neuron>
      </Layer>
      <Layer Index="3" NNeurons="1">
        <Neuron NSynapses="0"/>
      </Layer>
    </Layout>
  </Weights>
</MethodSetup>
