<?xml version="1.0"?>
<MethodSetup Method="MLP::XS_13_27_0_n2n">
  <GeneralInfo>
    <Info name="TMVA Release" value="4.2.0 [262656]"/>
    <Info name="ROOT Release" value="5.34/14 [336398]"/>
    <Info name="Creator" value="courtin"/>
    <Info name="Date" value="Tue Jan 10 20:52:06 2017"/>
    <Info name="Host" value="Linux nansl3.in2p3.fr 2.6.32-431.20.3.el6.x86_64 #1 SMP Thu Jun 19 14:01:59 CDT 2014 x86_64 x86_64 x86_64 GNU/Linux"/>
    <Info name="Dir" value="/scratch/spallati/courtin/WORK/MOxEUS/BdD_HFC/HFC_NN/XSM"/>
    <Info name="Training events" value="121150"/>
    <Info name="TrainingTime" value="2.49728601e+03"/>
    <Info name="AnalysisType" value="Regression"/>
  </GeneralInfo>
  <Options>
    <Option name="NCycles" modified="Yes">20000</Option>
    <Option name="HiddenLayers" modified="Yes">N,N</Option>
    <Option name="NeuronType" modified="Yes">tanh</Option>
    <Option name="RandomSeed" modified="No">1</Option>
    <Option name="EstimatorType" modified="No">MSE</Option>
    <Option name="NeuronInputType" modified="No">sum</Option>
    <Option name="V" modified="Yes">False</Option>
    <Option name="VerbosityLevel" modified="No">Default</Option>
    <Option name="VarTransform" modified="Yes">Norm</Option>
    <Option name="H" modified="Yes">False</Option>
    <Option name="CreateMVAPdfs" modified="No">False</Option>
    <Option name="IgnoreNegWeightsInTraining" modified="No">False</Option>
    <Option name="TrainingMethod" modified="Yes">BFGS</Option>
    <Option name="LearningRate" modified="No">2.000000e-02</Option>
    <Option name="DecayRate" modified="No">1.000000e-02</Option>
    <Option name="TestRate" modified="Yes">6</Option>
    <Option name="EpochMonitoring" modified="No">False</Option>
    <Option name="Sampling" modified="Yes">3.000000e-01</Option>
    <Option name="SamplingEpoch" modified="Yes">8.000000e-01</Option>
    <Option name="SamplingImportance" modified="No">1.000000e+00</Option>
    <Option name="SamplingTraining" modified="No">True</Option>
    <Option name="SamplingTesting" modified="No">False</Option>
    <Option name="ResetStep" modified="No">50</Option>
    <Option name="Tau" modified="No">3.000000e+00</Option>
    <Option name="BPMode" modified="No">sequential</Option>
    <Option name="BatchSize" modified="No">-1</Option>
    <Option name="ConvergenceImprove" modified="Yes">1.000000e-06</Option>
    <Option name="ConvergenceTests" modified="Yes">15</Option>
    <Option name="UseRegulator" modified="Yes">False</Option>
    <Option name="UpdateLimit" modified="No">10000</Option>
    <Option name="CalculateErrors" modified="No">False</Option>
    <Option name="WeightRange" modified="No">1.000000e+00</Option>
  </Options>
  <Variables NVar="9">
    <Variable VarIndex="0" Expression="U5" Label="U5" Title="U 235" Unit="FractionIsotopic" Internal="U5" Type="F" Min="1.31763087e-03" Max="3.29138078e-02"/>
    <Variable VarIndex="1" Expression="U8" Label="U8" Title="U 238" Unit="FractionIsotopic" Internal="U8" Type="F" Min="7.91743398e-01" Max="9.45419848e-01"/>
    <Variable VarIndex="2" Expression="Pu8" Label="Pu8" Title="Pu 238" Unit="FractionIsotopic" Internal="Pu8" Type="F" Min="1.39107055e-04" Max="4.37852181e-02"/>
    <Variable VarIndex="3" Expression="Pu9" Label="Pu9" Title="Pu 239" Unit="FractionIsotopic" Internal="Pu9" Type="F" Min="1.04687838e-02" Max="1.39522925e-01"/>
    <Variable VarIndex="4" Expression="Pu10" Label="Pu10" Title="Pu 240" Unit="FractionIsotopic" Internal="Pu10" Type="F" Min="5.04723703e-03" Max="8.57686475e-02"/>
    <Variable VarIndex="5" Expression="Pu11" Label="Pu11" Title="Pu 241" Unit="FractionIsotopic" Internal="Pu11" Type="F" Min="5.70043085e-06" Max="4.37423512e-02"/>
    <Variable VarIndex="6" Expression="Pu12" Label="Pu12" Title="Pu 242" Unit="FractionIsotopic" Internal="Pu12" Type="F" Min="2.57695001e-06" Max="8.41057003e-02"/>
    <Variable VarIndex="7" Expression="Am1" Label="Am1" Title="Am 241" Unit="FractionIsotopic" Internal="Am1" Type="F" Min="5.84233703e-06" Max="3.63441594e-02"/>
    <Variable VarIndex="8" Expression="Time" Label="Time" Title="Time" Unit="seconds" Internal="Time" Type="F" Min="0.00000000e+00" Max="3.36503488e+08"/>
  </Variables>
  <Spectators NSpec="0"/>
  <Classes NClass="1">
    <Class Name="Regression" Index="0"/>
  </Classes>
  <Targets NTrgt="1">
    <Target TargetIndex="0" Expression="XS_13_27_0_n2n" Label="XS_13_27_0_n2n" Title="XS_13_27_0_n2n" Unit="" Internal="XS_13_27_0_n2n" Type="F" Min="1.04136660e-07" Max="3.87057526e-06"/>
  </Targets>
  <Transformations NTransformations="1">
    <Transform Name="Normalize">
      <Selection>
        <Input NInputs="10">
          <Input Type="Variable" Label="U5" Expression="U5"/>
          <Input Type="Variable" Label="U8" Expression="U8"/>
          <Input Type="Variable" Label="Pu8" Expression="Pu8"/>
          <Input Type="Variable" Label="Pu9" Expression="Pu9"/>
          <Input Type="Variable" Label="Pu10" Expression="Pu10"/>
          <Input Type="Variable" Label="Pu11" Expression="Pu11"/>
          <Input Type="Variable" Label="Pu12" Expression="Pu12"/>
          <Input Type="Variable" Label="Am1" Expression="Am1"/>
          <Input Type="Variable" Label="Time" Expression="Time"/>
          <Input Type="Target" Label="XS_13_27_0_n2n" Expression="XS_13_27_0_n2n"/>
        </Input>
        <Output NOutputs="10">
          <Output Type="Variable" Label="U5" Expression="U5"/>
          <Output Type="Variable" Label="U8" Expression="U8"/>
          <Output Type="Variable" Label="Pu8" Expression="Pu8"/>
          <Output Type="Variable" Label="Pu9" Expression="Pu9"/>
          <Output Type="Variable" Label="Pu10" Expression="Pu10"/>
          <Output Type="Variable" Label="Pu11" Expression="Pu11"/>
          <Output Type="Variable" Label="Pu12" Expression="Pu12"/>
          <Output Type="Variable" Label="Am1" Expression="Am1"/>
          <Output Type="Variable" Label="Time" Expression="Time"/>
          <Output Type="Target" Label="XS_13_27_0_n2n" Expression="XS_13_27_0_n2n"/>
        </Output>
      </Selection>
      <Class ClassIndex="0">
        <Ranges>
          <Range Index="0" Min="1.3176308711990714e-03" Max="3.2913807779550552e-02"/>
          <Range Index="1" Min="7.9174339771270752e-01" Max="9.4541984796524048e-01"/>
          <Range Index="2" Min="1.3910705456510186e-04" Max="4.3785218149423599e-02"/>
          <Range Index="3" Min="1.0468783788383007e-02" Max="1.3952292501926422e-01"/>
          <Range Index="4" Min="5.0472370348870754e-03" Max="8.5768647491931915e-02"/>
          <Range Index="5" Min="5.7004308473551646e-06" Max="4.3742351233959198e-02"/>
          <Range Index="6" Min="2.5769500098249409e-06" Max="8.4105700254440308e-02"/>
          <Range Index="7" Min="5.8423370319360401e-06" Max="3.6344159394502640e-02"/>
          <Range Index="8" Min="0.0000000000000000e+00" Max="3.3650348800000000e+08"/>
          <Range Index="9" Min="1.0413666018393997e-07" Max="3.8705752558598761e-06"/>
        </Ranges>
      </Class>
    </Transform>
  </Transformations>
  <MVAPdfs/>
  <Weights>
    <Layout NLayers="4">
      <Layer Index="0" NNeurons="10">
        <Neuron NSynapses="9">
          -3.1218360272580048e-01 5.6237622772026916e-02 3.0377289336841912e-01 1.1777055583641385e+00 -1.7255311222099550e+00 -2.5432024021693231e+00 -8.4735205705854066e-01 1.6918295598043098e-01 5.9160288546821904e-01 
        </Neuron>
        <Neuron NSynapses="9">
          -1.7285777341282407e+00 -8.3920622186580551e-01 1.4521456909442771e+00 -2.9349524971447638e-01 1.1305807439691307e+00 6.6718324081998248e-01 1.9467876473237450e-01 2.4206435128120954e-01 1.2030571911778700e+00 
        </Neuron>
        <Neuron NSynapses="9">
          -3.7304993346723248e-01 1.0051062732896048e+00 6.8711155570799409e-01 4.5243333556304216e-01 1.1758428784760069e+00 1.1006344646477124e+00 -2.2484077031849203e-01 -8.4040897471682585e-02 1.6146891436052943e-01 
        </Neuron>
        <Neuron NSynapses="9">
          -1.3223040311201226e+00 -1.6650184620409287e+00 6.4011234646715842e-01 1.0457132460045739e+00 2.2872294940723941e+00 -1.7288952612216676e-01 4.1315889453822252e-01 5.6521319302099360e-02 -1.1853188926568724e-01 
        </Neuron>
        <Neuron NSynapses="9">
          -1.5230701915897840e+00 2.4306899696552082e+00 -5.7130017731569990e-02 1.2328820270993028e+00 1.3504889522946211e+00 7.9653842059929680e-01 1.8760265905181337e+00 -5.9816942496006706e-02 -1.1231062778057288e+00 
        </Neuron>
        <Neuron NSynapses="9">
          -1.1296841133338382e+00 -9.5028405839047633e-02 -1.2970922528237101e+00 1.5508357323384565e+00 1.3556899757920302e+00 1.9384382761108250e+00 2.1733761258616831e+00 -8.4895670438718351e-01 1.6732376966187970e+00 
        </Neuron>
        <Neuron NSynapses="9">
          -2.3772203197756965e+00 -9.5996065081008208e-01 9.8406744472183871e-01 -3.3050096634256382e-01 2.9592884759141751e+00 1.0186080545627392e+00 -1.0159069010673354e+00 -1.1824319845593989e-02 -2.8752049564873050e-01 
        </Neuron>
        <Neuron NSynapses="9">
          -2.0361714168600172e-02 1.7097160570791214e+00 9.8943149833494015e-01 1.1199536119230975e+00 1.3967893197415979e-01 8.6316029493895308e-01 8.8697476781633408e-02 -1.5877849555988122e-01 -1.3375679543084931e+00 
        </Neuron>
        <Neuron NSynapses="9">
          2.2036204082143998e-01 1.9414603241251589e+00 2.4186819844728933e+00 -3.1256556191925328e-01 -4.9575876830680415e-01 4.5364075228413631e-01 3.0129990414480357e-01 -5.8846781015598826e-01 2.2980261721455073e+00 
        </Neuron>
        <Neuron NSynapses="9">
          1.6067975574741629e+00 6.2562156268485336e-01 -3.7697155859531777e+00 -2.6826186619525911e+00 -2.6201087753156793e+00 -6.9771511556772706e-02 -1.8475415843257950e+00 -1.3499725117863961e+00 -1.4019001779196818e+00 
        </Neuron>
      </Layer>
      <Layer Index="1" NNeurons="10">
        <Neuron NSynapses="9">
          1.2661196765548206e+00 -7.5508044238125482e-01 3.4055709105556713e+00 -1.4581736100449125e+00 -1.1823739971524942e+00 2.5135555736323574e+00 -1.7489293980162557e+00 -1.6440565412712249e+00 -1.5134087731038446e+00 
        </Neuron>
        <Neuron NSynapses="9">
          4.7207476403648924e-01 -1.5336700111050465e+00 3.2974583263715510e-02 -8.6079515718254312e-02 1.3584113052670821e+00 -1.1120958162431296e+00 1.3706737439922299e+00 1.7188680626430253e-01 -8.4301260372623565e-01 
        </Neuron>
        <Neuron NSynapses="9">
          9.0207349899935757e-02 5.0856820885320331e-01 -7.4866509158304673e-01 1.1660175505946484e+00 1.0906939048147866e+00 -5.2370482438628552e-01 -5.7221023768853396e-01 1.6321302234848909e+00 4.8031626905009095e-01 
        </Neuron>
        <Neuron NSynapses="9">
          -4.1791773795635756e-01 1.3337693464252125e+00 8.1928141910399976e-01 -1.2695537336203775e+00 5.6111702240872718e-01 -1.2828444828884276e+00 2.5365241836820749e+00 8.5834288485039778e-01 6.5113755036635586e-03 
        </Neuron>
        <Neuron NSynapses="9">
          -1.3793988931283061e+00 7.5136282429348833e-01 -3.8267837331037353e+00 7.8720982563646380e-01 1.7040545354811892e-01 -1.1563741972275088e+00 1.5669155266303776e+00 -1.2638953729071778e+00 9.4057275905100740e-02 
        </Neuron>
        <Neuron NSynapses="9">
          8.1051950002227657e-01 1.6206319024280482e+00 -7.9374301395618529e-01 -3.9887571692369539e-01 1.2150865596609979e+00 2.3733286619158100e+00 -4.6539130140197676e-01 -7.0199188664525580e-01 -2.0348558992381485e-01 
        </Neuron>
        <Neuron NSynapses="9">
          -6.3388224022054285e-01 1.6291296905785764e+00 -2.0031575972825499e-01 -4.5226631979809834e-01 -1.2647323893216939e-01 -2.1989070421820761e-01 6.3803368158417542e-02 4.6522404917421528e-01 1.7654216246906982e+00 
        </Neuron>
        <Neuron NSynapses="9">
          -5.7315671524891909e-01 -5.1023590891817489e-02 -1.0175958469547082e+00 8.8532300687067655e-01 4.4585485212986886e-01 -1.5109279472007064e-01 -1.9669734211798526e+00 1.5445568574898039e+00 7.4521891897559156e-01 
        </Neuron>
        <Neuron NSynapses="9">
          -6.5204844586088473e-01 5.2690411517034563e-01 -6.4804940537744804e-01 3.6192296243592709e-01 6.9843355771787602e-02 -3.1219514015722116e-01 -8.2458253796677219e-02 1.3376852986474805e-01 1.5381362630342608e+00 
        </Neuron>
        <Neuron NSynapses="9">
          2.7651755996492682e+00 -9.2714144920889274e-01 3.2806531467429090e+00 2.0101368689505299e+00 -2.3237398728416072e+00 1.8439249237875741e+00 -9.0518807994798833e-01 3.7381246511879607e-01 -1.7367290613537589e+00 
        </Neuron>
      </Layer>
      <Layer Index="2" NNeurons="10">
        <Neuron NSynapses="1">
          -3.6286597895790268e-01 
        </Neuron>
        <Neuron NSynapses="1">
          -1.1528586799950050e-01 
        </Neuron>
        <Neuron NSynapses="1">
          -1.6632256489287300e+00 
        </Neuron>
        <Neuron NSynapses="1">
          -6.3361880121479114e-02 
        </Neuron>
        <Neuron NSynapses="1">
          -1.0621387546570973e+00 
        </Neuron>
        <Neuron NSynapses="1">
          1.4596444614563515e+00 
        </Neuron>
        <Neuron NSynapses="1">
          2.1729223445733767e+00 
        </Neuron>
        <Neuron NSynapses="1">
          -2.1953408831112760e+00 
        </Neuron>
        <Neuron NSynapses="1">
          -7.7666900681093998e-02 
        </Neuron>
        <Neuron NSynapses="1">
          -1.1394899307250286e+00 
        </Neuron>
      </Layer>
      <Layer Index="3" NNeurons="1">
        <Neuron NSynapses="0"/>
      </Layer>
    </Layout>
  </Weights>
</MethodSetup>
