<?xml version="1.0"?>
<MethodSetup Method="MLP::XS_26_56_0_cap">
  <GeneralInfo>
    <Info name="TMVA Release" value="4.2.0 [262656]"/>
    <Info name="ROOT Release" value="5.34/14 [336398]"/>
    <Info name="Creator" value="courtin"/>
    <Info name="Date" value="Tue Jan 10 19:59:21 2017"/>
    <Info name="Host" value="Linux nansl3.in2p3.fr 2.6.32-431.20.3.el6.x86_64 #1 SMP Thu Jun 19 14:01:59 CDT 2014 x86_64 x86_64 x86_64 GNU/Linux"/>
    <Info name="Dir" value="/scratch/spallati/courtin/WORK/MOxEUS/BdD_HFC/HFC_NN/XSM"/>
    <Info name="Training events" value="121150"/>
    <Info name="TrainingTime" value="3.10034860e+03"/>
    <Info name="AnalysisType" value="Regression"/>
  </GeneralInfo>
  <Options>
    <Option name="NCycles" modified="Yes">20000</Option>
    <Option name="HiddenLayers" modified="Yes">N,N</Option>
    <Option name="NeuronType" modified="Yes">tanh</Option>
    <Option name="RandomSeed" modified="No">1</Option>
    <Option name="EstimatorType" modified="No">MSE</Option>
    <Option name="NeuronInputType" modified="No">sum</Option>
    <Option name="V" modified="Yes">False</Option>
    <Option name="VerbosityLevel" modified="No">Default</Option>
    <Option name="VarTransform" modified="Yes">Norm</Option>
    <Option name="H" modified="Yes">False</Option>
    <Option name="CreateMVAPdfs" modified="No">False</Option>
    <Option name="IgnoreNegWeightsInTraining" modified="No">False</Option>
    <Option name="TrainingMethod" modified="Yes">BFGS</Option>
    <Option name="LearningRate" modified="No">2.000000e-02</Option>
    <Option name="DecayRate" modified="No">1.000000e-02</Option>
    <Option name="TestRate" modified="Yes">6</Option>
    <Option name="EpochMonitoring" modified="No">False</Option>
    <Option name="Sampling" modified="Yes">3.000000e-01</Option>
    <Option name="SamplingEpoch" modified="Yes">8.000000e-01</Option>
    <Option name="SamplingImportance" modified="No">1.000000e+00</Option>
    <Option name="SamplingTraining" modified="No">True</Option>
    <Option name="SamplingTesting" modified="No">False</Option>
    <Option name="ResetStep" modified="No">50</Option>
    <Option name="Tau" modified="No">3.000000e+00</Option>
    <Option name="BPMode" modified="No">sequential</Option>
    <Option name="BatchSize" modified="No">-1</Option>
    <Option name="ConvergenceImprove" modified="Yes">1.000000e-06</Option>
    <Option name="ConvergenceTests" modified="Yes">15</Option>
    <Option name="UseRegulator" modified="Yes">False</Option>
    <Option name="UpdateLimit" modified="No">10000</Option>
    <Option name="CalculateErrors" modified="No">False</Option>
    <Option name="WeightRange" modified="No">1.000000e+00</Option>
  </Options>
  <Variables NVar="9">
    <Variable VarIndex="0" Expression="U5" Label="U5" Title="U 235" Unit="FractionIsotopic" Internal="U5" Type="F" Min="1.31763087e-03" Max="3.29138078e-02"/>
    <Variable VarIndex="1" Expression="U8" Label="U8" Title="U 238" Unit="FractionIsotopic" Internal="U8" Type="F" Min="7.91743398e-01" Max="9.45419848e-01"/>
    <Variable VarIndex="2" Expression="Pu8" Label="Pu8" Title="Pu 238" Unit="FractionIsotopic" Internal="Pu8" Type="F" Min="1.39107055e-04" Max="4.37852181e-02"/>
    <Variable VarIndex="3" Expression="Pu9" Label="Pu9" Title="Pu 239" Unit="FractionIsotopic" Internal="Pu9" Type="F" Min="1.04687838e-02" Max="1.39522925e-01"/>
    <Variable VarIndex="4" Expression="Pu10" Label="Pu10" Title="Pu 240" Unit="FractionIsotopic" Internal="Pu10" Type="F" Min="5.04723703e-03" Max="8.57686475e-02"/>
    <Variable VarIndex="5" Expression="Pu11" Label="Pu11" Title="Pu 241" Unit="FractionIsotopic" Internal="Pu11" Type="F" Min="5.70043085e-06" Max="4.37423512e-02"/>
    <Variable VarIndex="6" Expression="Pu12" Label="Pu12" Title="Pu 242" Unit="FractionIsotopic" Internal="Pu12" Type="F" Min="2.57695001e-06" Max="8.41057003e-02"/>
    <Variable VarIndex="7" Expression="Am1" Label="Am1" Title="Am 241" Unit="FractionIsotopic" Internal="Am1" Type="F" Min="5.84233703e-06" Max="3.63441594e-02"/>
    <Variable VarIndex="8" Expression="Time" Label="Time" Title="Time" Unit="seconds" Internal="Time" Type="F" Min="0.00000000e+00" Max="3.36503488e+08"/>
  </Variables>
  <Spectators NSpec="0"/>
  <Classes NClass="1">
    <Class Name="Regression" Index="0"/>
  </Classes>
  <Targets NTrgt="1">
    <Target TargetIndex="0" Expression="XS_26_56_0_cap" Label="XS_26_56_0_cap" Title="XS_26_56_0_cap" Unit="" Internal="XS_26_56_0_cap" Type="F" Min="2.51353960e-02" Max="7.17829540e-02"/>
  </Targets>
  <Transformations NTransformations="1">
    <Transform Name="Normalize">
      <Selection>
        <Input NInputs="10">
          <Input Type="Variable" Label="U5" Expression="U5"/>
          <Input Type="Variable" Label="U8" Expression="U8"/>
          <Input Type="Variable" Label="Pu8" Expression="Pu8"/>
          <Input Type="Variable" Label="Pu9" Expression="Pu9"/>
          <Input Type="Variable" Label="Pu10" Expression="Pu10"/>
          <Input Type="Variable" Label="Pu11" Expression="Pu11"/>
          <Input Type="Variable" Label="Pu12" Expression="Pu12"/>
          <Input Type="Variable" Label="Am1" Expression="Am1"/>
          <Input Type="Variable" Label="Time" Expression="Time"/>
          <Input Type="Target" Label="XS_26_56_0_cap" Expression="XS_26_56_0_cap"/>
        </Input>
        <Output NOutputs="10">
          <Output Type="Variable" Label="U5" Expression="U5"/>
          <Output Type="Variable" Label="U8" Expression="U8"/>
          <Output Type="Variable" Label="Pu8" Expression="Pu8"/>
          <Output Type="Variable" Label="Pu9" Expression="Pu9"/>
          <Output Type="Variable" Label="Pu10" Expression="Pu10"/>
          <Output Type="Variable" Label="Pu11" Expression="Pu11"/>
          <Output Type="Variable" Label="Pu12" Expression="Pu12"/>
          <Output Type="Variable" Label="Am1" Expression="Am1"/>
          <Output Type="Variable" Label="Time" Expression="Time"/>
          <Output Type="Target" Label="XS_26_56_0_cap" Expression="XS_26_56_0_cap"/>
        </Output>
      </Selection>
      <Class ClassIndex="0">
        <Ranges>
          <Range Index="0" Min="1.3176308711990714e-03" Max="3.2913807779550552e-02"/>
          <Range Index="1" Min="7.9174339771270752e-01" Max="9.4541984796524048e-01"/>
          <Range Index="2" Min="1.3910705456510186e-04" Max="4.3785218149423599e-02"/>
          <Range Index="3" Min="1.0468783788383007e-02" Max="1.3952292501926422e-01"/>
          <Range Index="4" Min="5.0472370348870754e-03" Max="8.5768647491931915e-02"/>
          <Range Index="5" Min="5.7004308473551646e-06" Max="4.3742351233959198e-02"/>
          <Range Index="6" Min="2.5769500098249409e-06" Max="8.4105700254440308e-02"/>
          <Range Index="7" Min="5.8423370319360401e-06" Max="3.6344159394502640e-02"/>
          <Range Index="8" Min="0.0000000000000000e+00" Max="3.3650348800000000e+08"/>
          <Range Index="9" Min="2.5135396048426628e-02" Max="7.1782954037189484e-02"/>
        </Ranges>
      </Class>
    </Transform>
  </Transformations>
  <MVAPdfs/>
  <Weights>
    <Layout NLayers="4">
      <Layer Index="0" NNeurons="10">
        <Neuron NSynapses="9">
          -3.4633921730915240e-01 -1.0067730744451799e-01 -1.4151055825533920e+00 1.1659040388400619e+00 -1.9418341226782436e+00 5.4034009134517924e-01 -3.9616952912705622e-01 7.6119884221679318e-03 3.4135941593371445e-02 
        </Neuron>
        <Neuron NSynapses="9">
          -1.5364619757190812e+00 -1.0313635850887544e+00 3.1029316553976966e-01 2.1384382370443427e+00 5.6933275275707356e-04 -5.6798851045047993e-01 9.7049264519920120e-01 -2.3823712227219325e+00 5.5862161814175193e-01 
        </Neuron>
        <Neuron NSynapses="9">
          -2.8844246810923080e-01 -3.5710872086472156e-01 2.1480613416757210e-01 1.8141945104913733e+00 7.3408670138290399e-01 -1.1923666658470015e-01 2.6435258690003083e-01 1.0983950199328030e+00 -2.7407420303550829e-02 
        </Neuron>
        <Neuron NSynapses="9">
          -1.4302184236114497e+00 -7.0023984898156283e-02 1.9263524732691761e+00 1.9619600982469056e+00 2.5667395304086238e+00 1.5194748334837618e+00 6.3914935756825975e-01 3.3763587658232832e+00 -1.8533103833819725e-01 
        </Neuron>
        <Neuron NSynapses="9">
          -1.6521859759102342e+00 -6.6760459060665955e-01 6.8554571454808377e-01 1.1152437689820942e+00 1.0362009125133129e+00 -2.6082584325393765e-01 1.3433728633816697e+00 2.3860015369412673e+00 -2.2942849495418996e-01 
        </Neuron>
        <Neuron NSynapses="9">
          -1.6068057696541946e+00 2.5480859354666457e-01 -9.1444640637148733e-01 2.1713249029092636e+00 1.4507466465017824e+00 1.3613267647954286e+00 2.2288172845052183e+00 3.9169628589502387e-01 2.0357053673514511e-02 
        </Neuron>
        <Neuron NSynapses="9">
          -1.8489851482228770e+00 -7.5168768923875007e-01 9.8088313811962946e-01 2.5751883781561626e+00 1.6919992660523846e+00 -2.0221931592895141e-02 -1.8476934118594118e-01 1.7763249101349965e+00 4.6884204201386649e-02 
        </Neuron>
        <Neuron NSynapses="9">
          -9.6284375218389645e-02 2.3114803606993559e-02 1.6257799620980971e+00 1.9467100045342984e+00 8.0263908817773899e-02 7.8691438473927744e-01 3.5723629392497902e-01 1.4884067605945965e+00 -8.3985824576206000e-02 
        </Neuron>
        <Neuron NSynapses="9">
          3.0997895936605141e-01 6.5514606005213893e-01 2.1151770495491315e+00 1.3268095686029446e+00 -8.5513818430495225e-01 -2.8148806080463218e-01 2.3851805395211353e-01 1.8939526921653893e+00 3.5216441471176300e-02 
        </Neuron>
        <Neuron NSynapses="9">
          1.4770501476322739e+00 1.3820792407535856e+00 -3.8384122913422938e+00 -6.5091088314217860e+00 -1.2873353247830177e+00 5.1097243606168319e-01 -2.8600276551732486e+00 -3.7716159499034414e+00 -1.1296487786925147e+00 
        </Neuron>
      </Layer>
      <Layer Index="1" NNeurons="10">
        <Neuron NSynapses="9">
          1.4935193058105369e+00 -6.2625830372560876e-01 3.1487523932836150e+00 5.2953581107832737e-01 -1.9252153084217465e+00 2.9652654479593581e+00 -6.8478527245525944e-01 -1.7928905024097093e+00 -1.4177703602470160e+00 
        </Neuron>
        <Neuron NSynapses="9">
          8.8364108638306926e-01 -1.4203365472089489e+00 -1.2676826271102773e-01 1.1914085273839770e+00 6.3697930135166592e-01 4.1637862447705665e-01 1.5908290713331374e+00 3.5835698622765239e-01 -8.3311478636386005e-01 
        </Neuron>
        <Neuron NSynapses="9">
          6.3078560140295081e-01 5.0578464524207434e-01 -2.2608004849990479e-01 3.5051177600347616e-01 1.0235890627937769e+00 4.7344212044105577e-01 -2.9244070850273451e-01 5.4904025505621545e-01 3.7887568330197963e-01 
        </Neuron>
        <Neuron NSynapses="9">
          -6.5166221669376001e-01 1.2182676864454289e+00 4.2389259656870015e-01 -3.3220418856706591e+00 1.3092500687672073e+00 -1.9288383956209771e+00 1.6526273604944326e+00 1.2218322095323377e+00 -6.9055048731243213e-02 
        </Neuron>
        <Neuron NSynapses="9">
          -1.6313244195979733e+00 4.0542214592855785e-01 -2.9691667133327222e+00 -1.5967388132122809e-01 9.9594967947596857e-01 -1.8696844885060515e+00 1.8773987988770832e-01 -4.9868155196397307e-01 8.9626943452330333e-03 
        </Neuron>
        <Neuron NSynapses="9">
          5.6365402102430595e-01 1.5145567366122397e+00 -1.0000778703732315e-01 4.9164740236727074e+00 1.3472466874133533e+00 1.1408557984094410e+00 1.7674207996648536e-01 -9.5587899413753549e-02 -1.6315809040161200e-01 
        </Neuron>
        <Neuron NSynapses="9">
          -5.3322229801259668e-01 1.7288871710884797e+00 -6.9800718484247037e-01 1.5162665400179684e-01 2.8699290995113663e-01 -1.7272588392758981e-01 -7.3484988350090952e-01 5.1540301517361664e-01 1.8384661507790012e+00 
        </Neuron>
        <Neuron NSynapses="9">
          -3.3641229202097783e-01 -1.1263497485505282e-01 -1.3001871442552670e+00 -1.5718802332130237e+00 2.4405891681881536e-01 5.3212041697632106e-01 -6.0291829844513734e-01 1.5288669320558794e+00 6.3051405228273261e-01 
        </Neuron>
        <Neuron NSynapses="9">
          -9.6049539353825319e-01 9.9891680474271050e-01 -9.8797863663430324e-02 6.7745231840855302e-01 4.6408698763790385e-01 -7.8316809389361086e-02 -1.0789790390910103e+00 -3.4855963210835439e+00 1.6132836971319053e+00 
        </Neuron>
        <Neuron NSynapses="9">
          2.9938822482523380e+00 -7.9479274742128558e-01 3.0945377252285953e+00 4.0037490136804976e+00 -3.0460376178395907e+00 2.1274991460765786e+00 4.5022608550204804e-02 2.0925198762197367e-01 -1.6387796691700642e+00 
        </Neuron>
      </Layer>
      <Layer Index="2" NNeurons="10">
        <Neuron NSynapses="1">
          1.4611385766026641e-01 
        </Neuron>
        <Neuron NSynapses="1">
          -1.4158933666174212e+00 
        </Neuron>
        <Neuron NSynapses="1">
          -6.8990704626375399e+00 
        </Neuron>
        <Neuron NSynapses="1">
          -7.9784958686041341e-01 
        </Neuron>
        <Neuron NSynapses="1">
          -4.4740744087505968e+00 
        </Neuron>
        <Neuron NSynapses="1">
          2.7542636024988845e+00 
        </Neuron>
        <Neuron NSynapses="1">
          -2.6069563197259935e+00 
        </Neuron>
        <Neuron NSynapses="1">
          -9.5272123805008235e-01 
        </Neuron>
        <Neuron NSynapses="1">
          -3.1041556339860865e-01 
        </Neuron>
        <Neuron NSynapses="1">
          -6.6168592953224115e-01 
        </Neuron>
      </Layer>
      <Layer Index="3" NNeurons="1">
        <Neuron NSynapses="0"/>
      </Layer>
    </Layout>
  </Weights>
</MethodSetup>
