<?xml version="1.0"?>
<MethodSetup Method="MLP::XS_40_91_0_n2n">
  <GeneralInfo>
    <Info name="TMVA Release" value="4.2.0 [262656]"/>
    <Info name="ROOT Release" value="5.34/14 [336398]"/>
    <Info name="Creator" value="mouginot"/>
    <Info name="Date" value="Tue Apr 28 14:33:50 2015"/>
    <Info name="Host" value="Linux nansl3.in2p3.fr 2.6.32-431.20.3.el6.x86_64 #1 SMP Thu Jun 19 14:01:59 CDT 2014 x86_64 x86_64 x86_64 GNU/Linux"/>
    <Info name="Dir" value="/scratch/spallati/mouginot/Combustible/Analyse/MLP_PuAm/XSM/Train"/>
    <Info name="Training events" value="35904"/>
    <Info name="TrainingTime" value="2.28421704e+03"/>
    <Info name="AnalysisType" value="Regression"/>
  </GeneralInfo>
  <Options>
    <Option name="NCycles" modified="Yes">20000</Option>
    <Option name="HiddenLayers" modified="Yes">N,N</Option>
    <Option name="NeuronType" modified="Yes">tanh</Option>
    <Option name="RandomSeed" modified="No">1</Option>
    <Option name="EstimatorType" modified="No">MSE</Option>
    <Option name="NeuronInputType" modified="No">sum</Option>
    <Option name="V" modified="Yes">False</Option>
    <Option name="VerbosityLevel" modified="No">Default</Option>
    <Option name="VarTransform" modified="Yes">Norm</Option>
    <Option name="H" modified="Yes">False</Option>
    <Option name="CreateMVAPdfs" modified="No">False</Option>
    <Option name="IgnoreNegWeightsInTraining" modified="No">False</Option>
    <Option name="TrainingMethod" modified="Yes">BFGS</Option>
    <Option name="LearningRate" modified="No">2.000000e-02</Option>
    <Option name="DecayRate" modified="No">1.000000e-02</Option>
    <Option name="TestRate" modified="Yes">6</Option>
    <Option name="EpochMonitoring" modified="No">False</Option>
    <Option name="Sampling" modified="Yes">3.000000e-01</Option>
    <Option name="SamplingEpoch" modified="Yes">8.000000e-01</Option>
    <Option name="SamplingImportance" modified="No">1.000000e+00</Option>
    <Option name="SamplingTraining" modified="No">True</Option>
    <Option name="SamplingTesting" modified="No">False</Option>
    <Option name="ResetStep" modified="No">50</Option>
    <Option name="Tau" modified="No">3.000000e+00</Option>
    <Option name="BPMode" modified="No">sequential</Option>
    <Option name="BatchSize" modified="No">-1</Option>
    <Option name="ConvergenceImprove" modified="Yes">1.000000e-06</Option>
    <Option name="ConvergenceTests" modified="Yes">15</Option>
    <Option name="UseRegulator" modified="Yes">False</Option>
    <Option name="UpdateLimit" modified="No">10000</Option>
    <Option name="CalculateErrors" modified="No">False</Option>
    <Option name="WeightRange" modified="No">1.000000e+00</Option>
  </Options>
  <Variables NVar="11">
    <Variable VarIndex="0" Expression="U5" Label="U5" Title="U 235" Unit="FractionIsotopic" Internal="U5" Type="F" Min="1.70676806e-03" Max="3.86267412e-03"/>
    <Variable VarIndex="1" Expression="U8" Label="U8" Title="U 238" Unit="FractionIsotopic" Internal="U8" Type="F" Min="8.46656263e-01" Max="9.67921793e-01"/>
    <Variable VarIndex="2" Expression="Pu8" Label="Pu8" Title="Pu 238" Unit="FractionIsotopic" Internal="Pu8" Type="F" Min="9.54120769e-05" Max="1.02889920e-02"/>
    <Variable VarIndex="3" Expression="Pu9" Label="Pu9" Title="Pu 239" Unit="FractionIsotopic" Internal="Pu9" Type="F" Min="6.84304768e-03" Max="1.03770845e-01"/>
    <Variable VarIndex="4" Expression="Pu10" Label="Pu10" Title="Pu 240" Unit="FractionIsotopic" Internal="Pu10" Type="F" Min="4.30373754e-03" Max="4.21657786e-02"/>
    <Variable VarIndex="5" Expression="Pu11" Label="Pu11" Title="Pu 241" Unit="FractionIsotopic" Internal="Pu11" Type="F" Min="3.67950233e-05" Max="2.75353342e-02"/>
    <Variable VarIndex="6" Expression="Pu12" Label="Pu12" Title="Pu 242" Unit="FractionIsotopic" Internal="Pu12" Type="F" Min="7.64389639e-04" Max="2.53406931e-02"/>
    <Variable VarIndex="7" Expression="Am1" Label="Am1" Title="Am 241" Unit="FractionIsotopic" Internal="Am1" Type="F" Min="7.62663092e-07" Max="1.72295030e-02"/>
    <Variable VarIndex="8" Expression="Am2" Label="Am2" Title="Am 242" Unit="FractionIsotopic" Internal="Am2" Type="F" Min="1.01304298e-09" Max="2.95403443e-05"/>
    <Variable VarIndex="9" Expression="Am3" Label="Am3" Title="Am 243" Unit="FractionIsotopic" Internal="Am3" Type="F" Min="7.64972924e-07" Max="7.47120613e-03"/>
    <Variable VarIndex="10" Expression="Time" Label="Time" Title="Time" Unit="seconds" Internal="Time" Type="F" Min="0.00000000e+00" Max="1.57788000e+08"/>
  </Variables>
  <Spectators NSpec="0"/>
  <Classes NClass="1">
    <Class Name="Regression" Index="0"/>
  </Classes>
  <Targets NTrgt="1">
    <Target TargetIndex="0" Expression="XS_40_91_0_n2n" Label="XS_40_91_0_n2n" Title="XS_40_91_0_n2n" Unit="" Internal="XS_40_91_0_n2n" Type="F" Min="8.85457208e-04" Max="1.42338581e-03"/>
  </Targets>
  <Transformations NTransformations="1">
    <Transform Name="Normalize">
      <Selection>
        <Input NInputs="12">
          <Input Type="Variable" Label="U5" Expression="U5"/>
          <Input Type="Variable" Label="U8" Expression="U8"/>
          <Input Type="Variable" Label="Pu8" Expression="Pu8"/>
          <Input Type="Variable" Label="Pu9" Expression="Pu9"/>
          <Input Type="Variable" Label="Pu10" Expression="Pu10"/>
          <Input Type="Variable" Label="Pu11" Expression="Pu11"/>
          <Input Type="Variable" Label="Pu12" Expression="Pu12"/>
          <Input Type="Variable" Label="Am1" Expression="Am1"/>
          <Input Type="Variable" Label="Am2" Expression="Am2"/>
          <Input Type="Variable" Label="Am3" Expression="Am3"/>
          <Input Type="Variable" Label="Time" Expression="Time"/>
          <Input Type="Target" Label="XS_40_91_0_n2n" Expression="XS_40_91_0_n2n"/>
        </Input>
        <Output NOutputs="12">
          <Output Type="Variable" Label="U5" Expression="U5"/>
          <Output Type="Variable" Label="U8" Expression="U8"/>
          <Output Type="Variable" Label="Pu8" Expression="Pu8"/>
          <Output Type="Variable" Label="Pu9" Expression="Pu9"/>
          <Output Type="Variable" Label="Pu10" Expression="Pu10"/>
          <Output Type="Variable" Label="Pu11" Expression="Pu11"/>
          <Output Type="Variable" Label="Pu12" Expression="Pu12"/>
          <Output Type="Variable" Label="Am1" Expression="Am1"/>
          <Output Type="Variable" Label="Am2" Expression="Am2"/>
          <Output Type="Variable" Label="Am3" Expression="Am3"/>
          <Output Type="Variable" Label="Time" Expression="Time"/>
          <Output Type="Target" Label="XS_40_91_0_n2n" Expression="XS_40_91_0_n2n"/>
        </Output>
      </Selection>
      <Class ClassIndex="0">
        <Ranges>
          <Range Index="0" Min="1.7067680601030588e-03" Max="3.8626741152256727e-03"/>
          <Range Index="1" Min="8.4665626287460327e-01" Max="9.6792179346084595e-01"/>
          <Range Index="2" Min="9.5412076916545630e-05" Max="1.0288991965353489e-02"/>
          <Range Index="3" Min="6.8430476821959019e-03" Max="1.0377084463834763e-01"/>
          <Range Index="4" Min="4.3037375435233116e-03" Max="4.2165778577327728e-02"/>
          <Range Index="5" Min="3.6795023333979771e-05" Max="2.7535334229469299e-02"/>
          <Range Index="6" Min="7.6438963878899813e-04" Max="2.5340693071484566e-02"/>
          <Range Index="7" Min="7.6266309179118252e-07" Max="1.7229503020644188e-02"/>
          <Range Index="8" Min="1.0130429828336673e-09" Max="2.9540344257839024e-05"/>
          <Range Index="9" Min="7.6497292411659146e-07" Max="7.4712061323225498e-03"/>
          <Range Index="10" Min="0.0000000000000000e+00" Max="1.5778800000000000e+08"/>
          <Range Index="11" Min="8.8545720791444182e-04" Max="1.4233858091756701e-03"/>
        </Ranges>
      </Class>
    </Transform>
  </Transformations>
  <MVAPdfs/>
  <Weights>
    <Layout NLayers="4">
      <Layer Index="0" NNeurons="12">
        <Neuron NSynapses="11">
          1.5967788925533677e-01 2.0140393188500236e+00 -3.3474031915772889e-02 9.7748270626184464e-01 -8.7667768636564192e-01 -6.6207572736147677e-02 2.3119965378785558e-02 9.1993697367415228e-01 1.6982010624206914e-02 -3.3111393676767562e-02 -9.2120747350419394e-03 
        </Neuron>
        <Neuron NSynapses="11">
          6.7318169337658806e-01 -3.6477144099576286e-01 -4.7107198774901543e-01 2.0591885040303842e-01 5.2917775909176823e-01 2.6817414998306704e-01 2.3812984244959186e+00 5.4362379064103261e-01 1.3567917675666181e+00 3.3562187934082599e-01 7.4644677472696508e-01 
        </Neuron>
        <Neuron NSynapses="11">
          8.1920644035088408e-01 1.8665997020065736e-01 -3.0963000126606799e-01 -1.5322989502710247e+00 9.4967933776441626e-01 -5.8616802567806248e-01 1.2107370324399394e-01 3.3195049785120240e-01 6.9875488589509524e-02 6.4532781281925064e-02 -6.0736246443509376e-02 
        </Neuron>
        <Neuron NSynapses="11">
          -4.1192307177166443e-01 -4.5491453339669280e-01 -1.1926362184823154e-01 -1.7741683993745869e+00 2.1198644926476318e+00 -1.4611922608937706e+00 9.3015510143903934e-01 1.3440751237303354e+00 7.0868019293267404e-01 1.5373821571289459e+00 -7.9678352071013447e-01 
        </Neuron>
        <Neuron NSynapses="11">
          -2.2731489369247235e+00 -2.3799730539252475e+00 2.1286482442917429e-01 -5.5857593461449428e-01 2.5385052148010212e+00 9.6727735594254793e-01 5.0172188693193742e-01 6.3674450406134697e-01 1.0290277812446683e-01 6.3750986311680058e-01 -1.4014939317349930e+00 
        </Neuron>
        <Neuron NSynapses="11">
          -1.7737375535367541e+00 -1.7175126658276807e+00 -3.0042075486167352e+00 7.7713274454305425e-01 6.1486921662808380e-01 -3.5418297556813090e+00 -1.0279936608155777e+00 1.5937670405076321e-01 5.0267513405576414e-01 4.9197308886739116e-01 1.2573314729396023e+00 
        </Neuron>
        <Neuron NSynapses="11">
          -4.0816101384008777e-02 -7.6870678728105057e-01 1.8635635230347866e-01 -1.1377705990221301e+00 -3.5194266192925583e-01 -2.2281254777928332e+00 5.8714113641789745e-01 5.8806815349960029e-01 2.4585634643398130e-01 3.4224806539190505e-01 -9.2745576185989842e-01 
        </Neuron>
        <Neuron NSynapses="11">
          -1.5386725194228064e+00 -1.3425189842467398e-02 9.1572346482092559e-02 1.2208785049718989e+00 7.8768696302077668e-01 -7.7627200251160799e-01 5.8515602027905997e-02 -5.1025543000525518e-03 9.1709068442611480e-02 3.6171930670794811e-01 1.2641392276688454e-01 
        </Neuron>
        <Neuron NSynapses="11">
          -7.5603618727436728e-01 -1.8263338416110093e+00 2.4170131371989992e-01 -1.1096187096121775e+00 1.3355522106887019e+00 -1.3048736136093844e+00 -2.2827224838906028e-02 1.6048784526817088e+00 -2.1995969934514914e-01 -6.1540409686539321e-01 9.1730180749138107e-02 
        </Neuron>
        <Neuron NSynapses="11">
          -5.4032693768749929e-01 -1.8260279777141781e+00 2.2560147243855350e-01 -5.9205680231531699e-01 1.1973673098813886e+00 -4.9769081615426458e-01 1.4389621312248041e-01 -9.6400207361981816e-01 5.8293618024816862e-02 2.6220547695226304e-01 -5.1404150825586636e-01 
        </Neuron>
        <Neuron NSynapses="11">
          -7.9975208054464308e-01 5.9720706921597200e-01 1.7758357741325721e+00 -1.4823140399852273e+00 -4.9276678035704358e-01 5.5844044683824923e-01 1.5504037525057629e-01 -4.6526270858081231e-01 -1.4665380259998687e-01 3.3775664367856296e-03 1.8520049751860828e+00 
        </Neuron>
        <Neuron NSynapses="11">
          -2.4905512194499496e-01 -2.9517736564815084e-01 2.4484949818316539e+00 1.1024548011279800e+00 -9.2839263486625045e-01 4.2750790928950350e-01 1.2390778377607890e-01 -2.5453513286968974e+00 6.8429718846012166e-01 5.0301665625849579e-01 -3.2321042766964267e+00 
        </Neuron>
      </Layer>
      <Layer Index="1" NNeurons="12">
        <Neuron NSynapses="11">
          8.5362873725735700e-01 -1.7161421309437859e+00 2.3942098890551386e-01 1.1489484582327352e+00 1.1968108487033373e+00 -1.8914281708486189e+00 -5.0404445046666293e-04 1.0027348466347308e+00 1.9033606190728742e+00 -1.3016955875548755e-01 -1.3316824816237856e+00 
        </Neuron>
        <Neuron NSynapses="11">
          -4.6242540427151602e-01 -2.7939086047495282e-01 1.0865004306691814e+00 1.4274452304958640e+00 -4.8741412193468464e-01 -1.7731603406703550e-01 -5.2778013646837409e-02 -1.7433570778015914e+00 5.8401495104696943e-01 1.9310400935084602e+00 -6.1090074702778652e-01 
        </Neuron>
        <Neuron NSynapses="11">
          -7.1744213056764272e-01 3.2906552272920432e-03 9.1183213308100941e-01 3.7433309506668028e-01 6.5387648854402325e-01 -1.3701563263335383e+00 8.5266455497812665e-01 8.9224329809946346e-01 4.0663631364404396e-01 5.4781198259075314e-01 6.6160414633032438e-01 
        </Neuron>
        <Neuron NSynapses="11">
          -3.4106416352841046e-01 -8.6762691050212037e-01 1.1378489670261465e+00 -9.6729085911161228e-01 6.0984475129086635e-01 1.3747547671179194e+00 3.1243702115536531e-01 -9.5142691660216258e-02 1.8853008166718879e+00 1.6947704129146450e+00 -1.9019565060333323e+00 
        </Neuron>
        <Neuron NSynapses="11">
          5.5365823492756261e-01 1.3522262616436664e-01 8.8268471728549014e-02 -1.1676044331344393e+00 -2.6708098989390028e-01 9.9464720808097384e-01 2.0161259864094649e+00 -1.5687054009570047e+00 -5.2488452840049804e-01 1.4199065407827177e-01 1.3204650714761221e-01 
        </Neuron>
        <Neuron NSynapses="11">
          4.4741265300113672e-02 -1.5521523569812701e-01 -8.3056361491375352e-01 -6.9775007510072273e-01 1.8785559046380669e+00 1.6267743074769276e+00 7.1131019769575310e-01 6.4257457524978967e-01 -3.4701614407856007e-01 -2.0709959067282870e+00 1.3345335858065959e+00 
        </Neuron>
        <Neuron NSynapses="11">
          -5.9861949965143191e-01 -1.1591290344681791e+00 6.6117973214273307e-01 3.9243893454480416e-01 5.8085134576842175e-02 -1.7558012053001602e+00 9.6321987685940280e-01 4.5383671354366678e-01 -6.5327557783701723e-02 -7.9769903910632756e-01 1.7399847971355717e+00 
        </Neuron>
        <Neuron NSynapses="11">
          9.4920463823086210e-01 2.2817454284430344e-01 -3.9352823080937727e-01 -1.8623971568652573e+00 -7.3682994072011021e-01 1.6679683691902956e+00 1.7178072716987585e+00 8.8243941566236783e-01 -1.9363350422339040e-02 1.9344865305909791e+00 -1.8298929443277594e+00 
        </Neuron>
        <Neuron NSynapses="11">
          -2.3216848593223869e+00 -8.3331826094861927e-01 -2.9638274568954043e-02 1.1593471635733565e+00 1.6754087638141271e+00 -1.3258991633563570e+00 1.3455446986129187e+00 -4.4879181905488497e-01 -1.8439572050327335e+00 -1.6877907981539184e+00 1.1329691052302104e+00 
        </Neuron>
        <Neuron NSynapses="11">
          8.9545806629918745e-01 9.2585823995623395e-01 -1.9085449911085934e+00 1.9591759753035456e+00 -2.0037866525021846e+00 1.1324168648545121e+00 -1.8401921433769577e+00 -1.3258621423446197e+00 -1.0293743716647612e+00 -1.4714057683477419e+00 -1.3715357944444251e-01 
        </Neuron>
        <Neuron NSynapses="11">
          -1.5522526385769080e+00 -1.1258225736105707e+00 -1.2210553758344456e+00 2.7709326064460882e-01 -7.3219269659155983e-01 -1.4557536451174993e+00 7.7028753800483518e-02 -1.4833154826288053e+00 1.6973185868983801e-01 -1.4104303944012058e+00 2.3977192845924675e-01 
        </Neuron>
        <Neuron NSynapses="11">
          2.0346886297396880e+00 1.1551371768346113e+00 -4.8356746065729789e-01 -1.5857122416302636e+00 -9.5535314925333958e-01 -1.1518390656839850e+00 -2.4936464759456411e+00 2.1109175158907659e-01 2.7977849940113780e-01 1.7847703275740554e+00 7.5432410701902416e-02 
        </Neuron>
      </Layer>
      <Layer Index="2" NNeurons="12">
        <Neuron NSynapses="1">
          7.4394581643525637e-02 
        </Neuron>
        <Neuron NSynapses="1">
          4.2767814582999657e-02 
        </Neuron>
        <Neuron NSynapses="1">
          -7.0237374308420669e-02 
        </Neuron>
        <Neuron NSynapses="1">
          -3.4838269831464048e-03 
        </Neuron>
        <Neuron NSynapses="1">
          -8.2377448468892184e-03 
        </Neuron>
        <Neuron NSynapses="1">
          1.4635860999982058e-02 
        </Neuron>
        <Neuron NSynapses="1">
          -1.3231534508541027e+00 
        </Neuron>
        <Neuron NSynapses="1">
          -3.0040897246833551e-02 
        </Neuron>
        <Neuron NSynapses="1">
          2.2237382412467390e-02 
        </Neuron>
        <Neuron NSynapses="1">
          3.4054598896851161e-02 
        </Neuron>
        <Neuron NSynapses="1">
          -2.2565936600243485e-02 
        </Neuron>
        <Neuron NSynapses="1">
          -1.2309774795226538e+00 
        </Neuron>
      </Layer>
      <Layer Index="3" NNeurons="1">
        <Neuron NSynapses="0"/>
      </Layer>
    </Layout>
  </Weights>
</MethodSetup>
