<?xml version="1.0"?>
<MethodSetup Method="MLP::XS_34_77_0_cap">
  <GeneralInfo>
    <Info name="TMVA Release" value="4.2.0 [262656]"/>
    <Info name="ROOT Release" value="5.34/14 [336398]"/>
    <Info name="Creator" value="mouginot"/>
    <Info name="Date" value="Tue Apr 28 14:39:07 2015"/>
    <Info name="Host" value="Linux nansl3.in2p3.fr 2.6.32-431.20.3.el6.x86_64 #1 SMP Thu Jun 19 14:01:59 CDT 2014 x86_64 x86_64 x86_64 GNU/Linux"/>
    <Info name="Dir" value="/scratch/spallati/mouginot/Combustible/Analyse/MLP_PuAm/XSM/Train"/>
    <Info name="Training events" value="35904"/>
    <Info name="TrainingTime" value="5.46178509e+03"/>
    <Info name="AnalysisType" value="Regression"/>
  </GeneralInfo>
  <Options>
    <Option name="NCycles" modified="Yes">20000</Option>
    <Option name="HiddenLayers" modified="Yes">N,N</Option>
    <Option name="NeuronType" modified="Yes">tanh</Option>
    <Option name="RandomSeed" modified="No">1</Option>
    <Option name="EstimatorType" modified="No">MSE</Option>
    <Option name="NeuronInputType" modified="No">sum</Option>
    <Option name="V" modified="Yes">False</Option>
    <Option name="VerbosityLevel" modified="No">Default</Option>
    <Option name="VarTransform" modified="Yes">Norm</Option>
    <Option name="H" modified="Yes">False</Option>
    <Option name="CreateMVAPdfs" modified="No">False</Option>
    <Option name="IgnoreNegWeightsInTraining" modified="No">False</Option>
    <Option name="TrainingMethod" modified="Yes">BFGS</Option>
    <Option name="LearningRate" modified="No">2.000000e-02</Option>
    <Option name="DecayRate" modified="No">1.000000e-02</Option>
    <Option name="TestRate" modified="Yes">6</Option>
    <Option name="EpochMonitoring" modified="No">False</Option>
    <Option name="Sampling" modified="Yes">3.000000e-01</Option>
    <Option name="SamplingEpoch" modified="Yes">8.000000e-01</Option>
    <Option name="SamplingImportance" modified="No">1.000000e+00</Option>
    <Option name="SamplingTraining" modified="No">True</Option>
    <Option name="SamplingTesting" modified="No">False</Option>
    <Option name="ResetStep" modified="No">50</Option>
    <Option name="Tau" modified="No">3.000000e+00</Option>
    <Option name="BPMode" modified="No">sequential</Option>
    <Option name="BatchSize" modified="No">-1</Option>
    <Option name="ConvergenceImprove" modified="Yes">1.000000e-06</Option>
    <Option name="ConvergenceTests" modified="Yes">15</Option>
    <Option name="UseRegulator" modified="Yes">False</Option>
    <Option name="UpdateLimit" modified="No">10000</Option>
    <Option name="CalculateErrors" modified="No">False</Option>
    <Option name="WeightRange" modified="No">1.000000e+00</Option>
  </Options>
  <Variables NVar="11">
    <Variable VarIndex="0" Expression="U5" Label="U5" Title="U 235" Unit="FractionIsotopic" Internal="U5" Type="F" Min="1.70676806e-03" Max="3.86267412e-03"/>
    <Variable VarIndex="1" Expression="U8" Label="U8" Title="U 238" Unit="FractionIsotopic" Internal="U8" Type="F" Min="8.46656263e-01" Max="9.67921793e-01"/>
    <Variable VarIndex="2" Expression="Pu8" Label="Pu8" Title="Pu 238" Unit="FractionIsotopic" Internal="Pu8" Type="F" Min="9.54120769e-05" Max="1.02889920e-02"/>
    <Variable VarIndex="3" Expression="Pu9" Label="Pu9" Title="Pu 239" Unit="FractionIsotopic" Internal="Pu9" Type="F" Min="6.84304768e-03" Max="1.03770845e-01"/>
    <Variable VarIndex="4" Expression="Pu10" Label="Pu10" Title="Pu 240" Unit="FractionIsotopic" Internal="Pu10" Type="F" Min="4.30373754e-03" Max="4.21657786e-02"/>
    <Variable VarIndex="5" Expression="Pu11" Label="Pu11" Title="Pu 241" Unit="FractionIsotopic" Internal="Pu11" Type="F" Min="3.67950233e-05" Max="2.75353342e-02"/>
    <Variable VarIndex="6" Expression="Pu12" Label="Pu12" Title="Pu 242" Unit="FractionIsotopic" Internal="Pu12" Type="F" Min="7.64389639e-04" Max="2.53406931e-02"/>
    <Variable VarIndex="7" Expression="Am1" Label="Am1" Title="Am 241" Unit="FractionIsotopic" Internal="Am1" Type="F" Min="7.62663092e-07" Max="1.72295030e-02"/>
    <Variable VarIndex="8" Expression="Am2" Label="Am2" Title="Am 242" Unit="FractionIsotopic" Internal="Am2" Type="F" Min="1.01304298e-09" Max="2.95403443e-05"/>
    <Variable VarIndex="9" Expression="Am3" Label="Am3" Title="Am 243" Unit="FractionIsotopic" Internal="Am3" Type="F" Min="7.64972924e-07" Max="7.47120613e-03"/>
    <Variable VarIndex="10" Expression="Time" Label="Time" Title="Time" Unit="seconds" Internal="Time" Type="F" Min="0.00000000e+00" Max="1.57788000e+08"/>
  </Variables>
  <Spectators NSpec="0"/>
  <Classes NClass="1">
    <Class Name="Regression" Index="0"/>
  </Classes>
  <Targets NTrgt="1">
    <Target TargetIndex="0" Expression="XS_34_77_0_cap" Label="XS_34_77_0_cap" Title="XS_34_77_0_cap" Unit="" Internal="XS_34_77_0_cap" Type="F" Min="1.18769729e+00" Max="3.29097128e+00"/>
  </Targets>
  <Transformations NTransformations="1">
    <Transform Name="Normalize">
      <Selection>
        <Input NInputs="12">
          <Input Type="Variable" Label="U5" Expression="U5"/>
          <Input Type="Variable" Label="U8" Expression="U8"/>
          <Input Type="Variable" Label="Pu8" Expression="Pu8"/>
          <Input Type="Variable" Label="Pu9" Expression="Pu9"/>
          <Input Type="Variable" Label="Pu10" Expression="Pu10"/>
          <Input Type="Variable" Label="Pu11" Expression="Pu11"/>
          <Input Type="Variable" Label="Pu12" Expression="Pu12"/>
          <Input Type="Variable" Label="Am1" Expression="Am1"/>
          <Input Type="Variable" Label="Am2" Expression="Am2"/>
          <Input Type="Variable" Label="Am3" Expression="Am3"/>
          <Input Type="Variable" Label="Time" Expression="Time"/>
          <Input Type="Target" Label="XS_34_77_0_cap" Expression="XS_34_77_0_cap"/>
        </Input>
        <Output NOutputs="12">
          <Output Type="Variable" Label="U5" Expression="U5"/>
          <Output Type="Variable" Label="U8" Expression="U8"/>
          <Output Type="Variable" Label="Pu8" Expression="Pu8"/>
          <Output Type="Variable" Label="Pu9" Expression="Pu9"/>
          <Output Type="Variable" Label="Pu10" Expression="Pu10"/>
          <Output Type="Variable" Label="Pu11" Expression="Pu11"/>
          <Output Type="Variable" Label="Pu12" Expression="Pu12"/>
          <Output Type="Variable" Label="Am1" Expression="Am1"/>
          <Output Type="Variable" Label="Am2" Expression="Am2"/>
          <Output Type="Variable" Label="Am3" Expression="Am3"/>
          <Output Type="Variable" Label="Time" Expression="Time"/>
          <Output Type="Target" Label="XS_34_77_0_cap" Expression="XS_34_77_0_cap"/>
        </Output>
      </Selection>
      <Class ClassIndex="0">
        <Ranges>
          <Range Index="0" Min="1.7067680601030588e-03" Max="3.8626741152256727e-03"/>
          <Range Index="1" Min="8.4665626287460327e-01" Max="9.6792179346084595e-01"/>
          <Range Index="2" Min="9.5412076916545630e-05" Max="1.0288991965353489e-02"/>
          <Range Index="3" Min="6.8430476821959019e-03" Max="1.0377084463834763e-01"/>
          <Range Index="4" Min="4.3037375435233116e-03" Max="4.2165778577327728e-02"/>
          <Range Index="5" Min="3.6795023333979771e-05" Max="2.7535334229469299e-02"/>
          <Range Index="6" Min="7.6438963878899813e-04" Max="2.5340693071484566e-02"/>
          <Range Index="7" Min="7.6266309179118252e-07" Max="1.7229503020644188e-02"/>
          <Range Index="8" Min="1.0130429828336673e-09" Max="2.9540344257839024e-05"/>
          <Range Index="9" Min="7.6497292411659146e-07" Max="7.4712061323225498e-03"/>
          <Range Index="10" Min="0.0000000000000000e+00" Max="1.5778800000000000e+08"/>
          <Range Index="11" Min="1.1876972913742065e+00" Max="3.2909712791442871e+00"/>
        </Ranges>
      </Class>
    </Transform>
  </Transformations>
  <MVAPdfs/>
  <Weights>
    <Layout NLayers="4">
      <Layer Index="0" NNeurons="12">
        <Neuron NSynapses="11">
          -2.0846030974832938e-02 1.2291996120192936e+00 3.3563552109853526e-02 -1.3005707776614701e-02 4.2405607357585681e-02 -9.2721862434468483e-01 2.8019290906504853e-02 8.5646123930657858e-01 1.6314350430691526e-02 5.5985738696836262e-03 3.6291844740032726e-02 
        </Neuron>
        <Neuron NSynapses="11">
          -2.5002883652889912e-01 -9.6236396029597360e-01 -1.1192524888397988e+00 1.1760753202471819e+00 1.5343301360068278e+00 -1.3215826285269072e+00 2.1658748718537666e+00 7.6687354182718859e-01 1.0290371456410987e+00 -1.5027007524640899e+00 7.2383476001165226e-01 
        </Neuron>
        <Neuron NSynapses="11">
          -3.6916755084278358e-02 -8.6525044458872225e-01 -1.3127087642467133e-01 -2.8751929769009299e-01 2.7928078283567725e-01 -7.8194185275325589e-01 1.7244096725766903e-01 1.9902251229283516e-01 -1.4620467718965628e-02 -2.2435355410417199e-01 -3.9897105642932917e-01 
        </Neuron>
        <Neuron NSynapses="11">
          -1.4091342540552920e+00 -4.8853867866922263e-01 -4.6389494747175164e-01 -2.7319992428046604e+00 1.7833207405650950e+00 -1.8551257903341323e+00 7.2327935124043996e-01 1.4496320642442659e+00 1.0055128574639369e+00 2.7006945258882560e+00 -7.0975296357423423e-01 
        </Neuron>
        <Neuron NSynapses="11">
          -2.9150493303135255e-01 -1.9821398050280283e+00 -8.0932544303029696e-01 -1.0836574290082488e+00 1.3162256236442902e+00 7.3279300720372553e-01 4.9227208102921377e-01 4.9408793783655580e-01 9.3014798543034544e-02 -7.2962055869874731e-01 -1.3914523684718385e+00 
        </Neuron>
        <Neuron NSynapses="11">
          -4.6205570703791510e-01 -9.6329041462528808e-01 1.2477916119974068e-01 -7.2565704762405969e-01 7.5730057551997715e-02 -1.3072496161857268e+00 2.0831984541107992e-01 2.8003442574406651e-01 3.5378142460375911e-01 6.4951761115189344e-01 4.2494582614476251e-01 
        </Neuron>
        <Neuron NSynapses="11">
          -8.9690581018053300e-02 -1.2674867085394781e+00 5.8179935589806914e-02 -2.0427845655419011e-01 3.1217861860718138e-01 -1.0842808577416940e+00 4.1764741588991566e-01 7.2898651491186239e-01 1.2522793354260192e-01 -1.0970511795463473e+00 -3.1995503253138458e-01 
        </Neuron>
        <Neuron NSynapses="11">
          -2.0965044969199056e-01 -2.5315700568979790e-02 1.8042823962838192e-01 -6.1252820720427847e-01 6.4921220604689397e-02 -6.9850739168931142e-02 2.2021922758564211e-01 1.5285835953854782e-01 4.4428417084657584e-02 -1.5883896182234530e-01 -3.9580642391082121e-01 
        </Neuron>
        <Neuron NSynapses="11">
          -8.3587140162067145e-03 -1.8943640074384023e+00 2.9189300697993761e-02 -1.2524608354396360e-01 -8.1369962414274896e-04 -1.5942700446487625e+00 1.5850463218606151e-03 2.3854308667600402e-01 3.4176954757285708e-04 7.2255982497965693e-02 5.7920325924409759e-02 
        </Neuron>
        <Neuron NSynapses="11">
          -8.6362832809144183e-02 -2.0902113180364887e+00 -8.9546864747129168e-02 -2.5133159026632901e-01 9.8844371220932439e-02 -8.9217824539887969e-01 1.1153487798272578e-01 1.6526798617612121e-01 2.6711615853667981e-02 -2.2023758314049083e-01 3.3263668360681370e-02 
        </Neuron>
        <Neuron NSynapses="11">
          4.3982807116335104e-01 3.5441060304666383e-01 1.5918225649705229e+00 -5.0168611090838000e-01 -2.1579682221560081e+00 8.4101534078859941e-01 3.1879499905322167e-01 -1.4240535357938244e+00 -2.1805452380793316e-01 -4.9628158917571601e-02 -1.9353349192655165e+00 
        </Neuron>
        <Neuron NSynapses="11">
          9.8562852657478350e-01 7.1622578429830042e-01 3.4584744572509156e+00 1.5858647837503284e+00 -1.2152172075867032e+00 2.6224795000410261e+00 3.3029380181845508e-01 -3.2770393882293591e+00 9.9197346724458701e-01 3.6591678846200693e+00 -3.0784511342822443e+00 
        </Neuron>
      </Layer>
      <Layer Index="1" NNeurons="12">
        <Neuron NSynapses="11">
          6.7260823794432723e-01 -7.4580676998932649e-01 2.1958500507970952e-01 1.4179072731697357e+00 1.5228520481002572e+00 -1.3931965486919229e+00 9.9121763351225090e-01 1.1605075345696556e+00 1.7035385862283072e+00 1.0894996918881160e-01 -1.5869075947311726e+00 
        </Neuron>
        <Neuron NSynapses="11">
          -5.6736100964101454e-03 -1.4036259442667243e-01 1.3710834909808611e+00 2.5688149521946635e-01 -1.3371926945958252e+00 1.2585469989881942e-01 -4.4753653648970798e-03 -1.8939452513653675e-03 2.8260183944911182e-01 1.7403471713781180e+00 -1.0909030845064935e+00 
        </Neuron>
        <Neuron NSynapses="11">
          1.0869195088522255e-02 2.8999031675872161e-01 1.1036996203399876e+00 1.9153978028590010e-01 8.5984711170136097e-01 -1.2754998591165507e+00 9.9076194870783851e-01 4.2280174289060674e-01 6.1772932115965640e-01 4.2947227105134228e-01 7.7742409724509343e-01 
        </Neuron>
        <Neuron NSynapses="11">
          -5.6337280752265251e-01 5.7021872476818325e-01 6.1942922320326144e-01 -1.3002046294416436e+00 -6.8170243197411134e-02 5.2856723437361841e-01 -1.0653454233364526e-01 8.0848609411841091e-02 1.7124318968446635e+00 1.6272236576406709e+00 -1.6439699274890855e+00 
        </Neuron>
        <Neuron NSynapses="11">
          4.8363604206179017e-01 -6.2672314713747435e-01 -1.0950302400745444e-01 -1.3934653428353463e+00 -6.0285026250833273e-01 8.7646452852269541e-01 2.6773360893268205e-01 3.8096337773864644e-03 -2.0341501267280923e-01 -4.7318523275874452e-01 1.8139958979904561e-01 
        </Neuron>
        <Neuron NSynapses="11">
          1.6370483845051416e+00 2.2200255247048514e-01 -1.2189661920231363e+00 -1.0891310519394042e+00 9.9744683110608434e-01 1.0831838215523413e+00 2.7104393857419595e-01 -7.2445152730064855e-02 1.4517007059760417e-01 -1.8199815112572615e+00 8.7938566573063026e-01 
        </Neuron>
        <Neuron NSynapses="11">
          -2.4153865555336855e+00 -2.3038550178321189e+00 -1.0607502973071650e+00 4.6722611246869314e-02 1.6721911611310042e-01 -2.4820620083872411e+00 1.3260498324504595e+00 1.1237745779831139e+00 -5.2710521746618877e-01 -6.8970169774369608e-02 1.6195228358522666e+00 
        </Neuron>
        <Neuron NSynapses="11">
          6.5383022678195157e-01 -1.7336709989011520e-01 1.5827147974561526e-01 -1.4043228990330643e+00 -1.0278614616921657e+00 1.5807462405513184e+00 1.4184785209951281e-01 2.6923450766490609e-01 3.6031223721240624e-01 2.1590954369161088e+00 -1.4914808507642519e+00 
        </Neuron>
        <Neuron NSynapses="11">
          -1.6882287693192999e+00 -1.7886654786881653e+00 -2.5506016653907757e+00 1.2261270823637334e+00 1.5281017734128008e+00 -1.1980400685537209e+00 1.2367944585320663e+00 3.8134554793520715e-02 -1.2267261254797686e+00 -7.0141174138852602e-01 1.4227813778465603e+00 
        </Neuron>
        <Neuron NSynapses="11">
          1.9117637208064742e+00 -6.2901869185973805e-02 -9.3723514839096889e-01 1.6937507157407956e+00 -1.5280081446846365e+00 1.1635098945256332e+00 -5.4324629098433908e-01 -1.4855009732723585e+00 -8.2420367743821954e-01 -2.0868897084825582e+00 -4.4389779415240777e-01 
        </Neuron>
        <Neuron NSynapses="11">
          -1.6242406241257308e+00 -7.4754822812209035e-02 -1.1508411695622978e+00 -1.2867709943138303e-01 -1.4130568843100166e+00 -8.3887583894257400e-01 2.2790398905493600e-01 -5.0717552356591167e-01 -8.2390687905171989e-01 -1.1615330606348686e+00 -4.9702263005224190e-01 
        </Neuron>
        <Neuron NSynapses="11">
          2.3689848781863461e+00 1.8356488653868912e+00 -7.8823852316345921e-01 -1.7550031419927037e+00 -8.1414574247385707e-01 -6.1893791484476046e-01 -1.6225694952024055e+00 3.0343942591852435e-01 7.9372247305604049e-01 1.6520258845646809e+00 -4.2503275778147565e-01 
        </Neuron>
      </Layer>
      <Layer Index="2" NNeurons="12">
        <Neuron NSynapses="1">
          -4.2822859430822707e-01 
        </Neuron>
        <Neuron NSynapses="1">
          -2.1018407471456171e+00 
        </Neuron>
        <Neuron NSynapses="1">
          -4.2587246218855996e-03 
        </Neuron>
        <Neuron NSynapses="1">
          -2.0338301955246309e-02 
        </Neuron>
        <Neuron NSynapses="1">
          3.0704915866892342e-02 
        </Neuron>
        <Neuron NSynapses="1">
          -1.2127245208063589e-02 
        </Neuron>
        <Neuron NSynapses="1">
          3.2277485771227943e-01 
        </Neuron>
        <Neuron NSynapses="1">
          1.8596348715107064e-01 
        </Neuron>
        <Neuron NSynapses="1">
          1.3668149614637635e-02 
        </Neuron>
        <Neuron NSynapses="1">
          2.0176323130386472e-03 
        </Neuron>
        <Neuron NSynapses="1">
          -4.3700070869407475e-03 
        </Neuron>
        <Neuron NSynapses="1">
          2.0241432451051602e+00 
        </Neuron>
      </Layer>
      <Layer Index="3" NNeurons="1">
        <Neuron NSynapses="0"/>
      </Layer>
    </Layout>
  </Weights>
</MethodSetup>
