<?xml version="1.0"?>
<MethodSetup Method="MLP::XS_64_154_0_cap">
  <GeneralInfo>
    <Info name="TMVA Release" value="4.2.0 [262656]"/>
    <Info name="ROOT Release" value="5.34/14 [336398]"/>
    <Info name="Creator" value="mouginot"/>
    <Info name="Date" value="Tue Apr 28 20:24:09 2015"/>
    <Info name="Host" value="Linux nansl3.in2p3.fr 2.6.32-431.20.3.el6.x86_64 #1 SMP Thu Jun 19 14:01:59 CDT 2014 x86_64 x86_64 x86_64 GNU/Linux"/>
    <Info name="Dir" value="/scratch/spallati/mouginot/Combustible/Analyse/MLP_PuAm/XSM/Train"/>
    <Info name="Training events" value="35904"/>
    <Info name="TrainingTime" value="8.12755029e+03"/>
    <Info name="AnalysisType" value="Regression"/>
  </GeneralInfo>
  <Options>
    <Option name="NCycles" modified="Yes">20000</Option>
    <Option name="HiddenLayers" modified="Yes">N,N</Option>
    <Option name="NeuronType" modified="Yes">tanh</Option>
    <Option name="RandomSeed" modified="No">1</Option>
    <Option name="EstimatorType" modified="No">MSE</Option>
    <Option name="NeuronInputType" modified="No">sum</Option>
    <Option name="V" modified="Yes">False</Option>
    <Option name="VerbosityLevel" modified="No">Default</Option>
    <Option name="VarTransform" modified="Yes">Norm</Option>
    <Option name="H" modified="Yes">False</Option>
    <Option name="CreateMVAPdfs" modified="No">False</Option>
    <Option name="IgnoreNegWeightsInTraining" modified="No">False</Option>
    <Option name="TrainingMethod" modified="Yes">BFGS</Option>
    <Option name="LearningRate" modified="No">2.000000e-02</Option>
    <Option name="DecayRate" modified="No">1.000000e-02</Option>
    <Option name="TestRate" modified="Yes">6</Option>
    <Option name="EpochMonitoring" modified="No">False</Option>
    <Option name="Sampling" modified="Yes">3.000000e-01</Option>
    <Option name="SamplingEpoch" modified="Yes">8.000000e-01</Option>
    <Option name="SamplingImportance" modified="No">1.000000e+00</Option>
    <Option name="SamplingTraining" modified="No">True</Option>
    <Option name="SamplingTesting" modified="No">False</Option>
    <Option name="ResetStep" modified="No">50</Option>
    <Option name="Tau" modified="No">3.000000e+00</Option>
    <Option name="BPMode" modified="No">sequential</Option>
    <Option name="BatchSize" modified="No">-1</Option>
    <Option name="ConvergenceImprove" modified="Yes">1.000000e-06</Option>
    <Option name="ConvergenceTests" modified="Yes">15</Option>
    <Option name="UseRegulator" modified="Yes">False</Option>
    <Option name="UpdateLimit" modified="No">10000</Option>
    <Option name="CalculateErrors" modified="No">False</Option>
    <Option name="WeightRange" modified="No">1.000000e+00</Option>
  </Options>
  <Variables NVar="11">
    <Variable VarIndex="0" Expression="U5" Label="U5" Title="U 235" Unit="FractionIsotopic" Internal="U5" Type="F" Min="1.70676806e-03" Max="3.86267412e-03"/>
    <Variable VarIndex="1" Expression="U8" Label="U8" Title="U 238" Unit="FractionIsotopic" Internal="U8" Type="F" Min="8.46656263e-01" Max="9.67921793e-01"/>
    <Variable VarIndex="2" Expression="Pu8" Label="Pu8" Title="Pu 238" Unit="FractionIsotopic" Internal="Pu8" Type="F" Min="9.54120769e-05" Max="1.02889920e-02"/>
    <Variable VarIndex="3" Expression="Pu9" Label="Pu9" Title="Pu 239" Unit="FractionIsotopic" Internal="Pu9" Type="F" Min="6.84304768e-03" Max="1.03770845e-01"/>
    <Variable VarIndex="4" Expression="Pu10" Label="Pu10" Title="Pu 240" Unit="FractionIsotopic" Internal="Pu10" Type="F" Min="4.30373754e-03" Max="4.21657786e-02"/>
    <Variable VarIndex="5" Expression="Pu11" Label="Pu11" Title="Pu 241" Unit="FractionIsotopic" Internal="Pu11" Type="F" Min="3.67950233e-05" Max="2.75353342e-02"/>
    <Variable VarIndex="6" Expression="Pu12" Label="Pu12" Title="Pu 242" Unit="FractionIsotopic" Internal="Pu12" Type="F" Min="7.64389639e-04" Max="2.53406931e-02"/>
    <Variable VarIndex="7" Expression="Am1" Label="Am1" Title="Am 241" Unit="FractionIsotopic" Internal="Am1" Type="F" Min="7.62663092e-07" Max="1.72295030e-02"/>
    <Variable VarIndex="8" Expression="Am2" Label="Am2" Title="Am 242" Unit="FractionIsotopic" Internal="Am2" Type="F" Min="1.01304298e-09" Max="2.95403443e-05"/>
    <Variable VarIndex="9" Expression="Am3" Label="Am3" Title="Am 243" Unit="FractionIsotopic" Internal="Am3" Type="F" Min="7.64972924e-07" Max="7.47120613e-03"/>
    <Variable VarIndex="10" Expression="Time" Label="Time" Title="Time" Unit="seconds" Internal="Time" Type="F" Min="0.00000000e+00" Max="1.57788000e+08"/>
  </Variables>
  <Spectators NSpec="0"/>
  <Classes NClass="1">
    <Class Name="Regression" Index="0"/>
  </Classes>
  <Targets NTrgt="1">
    <Target TargetIndex="0" Expression="XS_64_154_0_cap" Label="XS_64_154_0_cap" Title="XS_64_154_0_cap" Unit="" Internal="XS_64_154_0_cap" Type="F" Min="6.92912483e+00" Max="1.20609150e+01"/>
  </Targets>
  <Transformations NTransformations="1">
    <Transform Name="Normalize">
      <Selection>
        <Input NInputs="12">
          <Input Type="Variable" Label="U5" Expression="U5"/>
          <Input Type="Variable" Label="U8" Expression="U8"/>
          <Input Type="Variable" Label="Pu8" Expression="Pu8"/>
          <Input Type="Variable" Label="Pu9" Expression="Pu9"/>
          <Input Type="Variable" Label="Pu10" Expression="Pu10"/>
          <Input Type="Variable" Label="Pu11" Expression="Pu11"/>
          <Input Type="Variable" Label="Pu12" Expression="Pu12"/>
          <Input Type="Variable" Label="Am1" Expression="Am1"/>
          <Input Type="Variable" Label="Am2" Expression="Am2"/>
          <Input Type="Variable" Label="Am3" Expression="Am3"/>
          <Input Type="Variable" Label="Time" Expression="Time"/>
          <Input Type="Target" Label="XS_64_154_0_cap" Expression="XS_64_154_0_cap"/>
        </Input>
        <Output NOutputs="12">
          <Output Type="Variable" Label="U5" Expression="U5"/>
          <Output Type="Variable" Label="U8" Expression="U8"/>
          <Output Type="Variable" Label="Pu8" Expression="Pu8"/>
          <Output Type="Variable" Label="Pu9" Expression="Pu9"/>
          <Output Type="Variable" Label="Pu10" Expression="Pu10"/>
          <Output Type="Variable" Label="Pu11" Expression="Pu11"/>
          <Output Type="Variable" Label="Pu12" Expression="Pu12"/>
          <Output Type="Variable" Label="Am1" Expression="Am1"/>
          <Output Type="Variable" Label="Am2" Expression="Am2"/>
          <Output Type="Variable" Label="Am3" Expression="Am3"/>
          <Output Type="Variable" Label="Time" Expression="Time"/>
          <Output Type="Target" Label="XS_64_154_0_cap" Expression="XS_64_154_0_cap"/>
        </Output>
      </Selection>
      <Class ClassIndex="0">
        <Ranges>
          <Range Index="0" Min="1.7067680601030588e-03" Max="3.8626741152256727e-03"/>
          <Range Index="1" Min="8.4665626287460327e-01" Max="9.6792179346084595e-01"/>
          <Range Index="2" Min="9.5412076916545630e-05" Max="1.0288991965353489e-02"/>
          <Range Index="3" Min="6.8430476821959019e-03" Max="1.0377084463834763e-01"/>
          <Range Index="4" Min="4.3037375435233116e-03" Max="4.2165778577327728e-02"/>
          <Range Index="5" Min="3.6795023333979771e-05" Max="2.7535334229469299e-02"/>
          <Range Index="6" Min="7.6438963878899813e-04" Max="2.5340693071484566e-02"/>
          <Range Index="7" Min="7.6266309179118252e-07" Max="1.7229503020644188e-02"/>
          <Range Index="8" Min="1.0130429828336673e-09" Max="2.9540344257839024e-05"/>
          <Range Index="9" Min="7.6497292411659146e-07" Max="7.4712061323225498e-03"/>
          <Range Index="10" Min="0.0000000000000000e+00" Max="1.5778800000000000e+08"/>
          <Range Index="11" Min="6.9291248321533203e+00" Max="1.2060914993286133e+01"/>
        </Ranges>
      </Class>
    </Transform>
  </Transformations>
  <MVAPdfs/>
  <Weights>
    <Layout NLayers="4">
      <Layer Index="0" NNeurons="12">
        <Neuron NSynapses="11">
          -9.1303985745792259e-03 2.7590583953130321e-01 1.5994509729200665e-01 -5.3097388940355705e-02 1.8294339976233441e-02 -4.5800939875225843e-01 4.8362578642390075e-02 -7.9080698264118968e-02 1.6557357648796539e-02 -6.5386983020396150e-01 8.8325870054132963e-02 
        </Neuron>
        <Neuron NSynapses="11">
          -5.4959331581525950e-01 -1.9795324277170656e+00 -9.2585016065004611e-01 1.3529748556017087e+00 3.2178147590251743e-01 -1.4553828211534876e+00 2.8282122991758092e+00 5.4858102405783793e-01 1.3277108228876693e+00 -2.0731670979782506e+00 1.9846005477962834e+00 
        </Neuron>
        <Neuron NSynapses="11">
          -1.2179393744367001e-01 -1.2032010529674602e+00 -4.5234969586912027e-01 -6.1915437213956459e-01 1.4462908904269875e-01 -7.6808645278241572e-01 2.8589546847933034e-01 2.6500649119906566e-01 1.0973259494549469e-01 -5.0411024419767736e-01 -1.1273772903598995e+00 
        </Neuron>
        <Neuron NSynapses="11">
          -4.6719003519742774e-01 -3.7921575052124634e-01 -7.6637564765788280e-01 -3.6553880998295516e+00 1.0982909093416924e+00 -1.9855878319788398e+00 5.7440109415355312e-01 2.0539652501200343e+00 5.4511780021211476e-01 1.7445638139470607e+00 -1.5854818785442149e+00 
        </Neuron>
        <Neuron NSynapses="11">
          -3.3286674939744315e-01 -1.7585793517442623e+00 8.5566395825313935e-01 -1.4141149866605831e+00 6.6683709537742264e-01 8.7649898879262977e-01 1.1183086770332940e+00 1.1560890464076282e-01 3.7776923612209257e-01 9.0395498229834859e-01 -3.3205658490060288e+00 
        </Neuron>
        <Neuron NSynapses="11">
          -5.5197287938767853e-02 -9.4729229735841480e-01 -9.5778974786588000e-01 -6.1501139829505302e-01 3.0637925809529326e-01 -1.4245960092991914e+00 1.9602847693105316e-01 4.4750837381289543e-02 1.7549093930631665e-01 3.2081931419578830e-01 -9.6232261380040918e-01 
        </Neuron>
        <Neuron NSynapses="11">
          -2.3347017271877513e-01 -1.8520150453518751e+00 -7.9560443657567620e-02 -5.6116721922394186e-01 1.1682047281387518e-01 -1.3310879075491981e+00 5.8665032755532531e-01 3.8084300839243318e-01 2.7033363623540246e-01 -1.1802874769848746e+00 -1.8809543125454522e+00 
        </Neuron>
        <Neuron NSynapses="11">
          -2.3787109006295665e-01 -6.6119181961921869e-01 1.2724663785206623e-02 -8.7673149111889570e-01 1.5803557907623517e-01 -9.6651513304347875e-02 1.8445339987098119e-01 6.8841980590858487e-01 1.5631556879285247e-01 -1.4751349904546385e-01 -9.6222963452261323e-01 
        </Neuron>
        <Neuron NSynapses="11">
          -3.9259914867518127e-02 -1.3534363049718732e+00 -4.5267824174554916e-01 -1.6223238707423210e-01 -2.6979287980611201e-02 -1.4779835163550530e+00 -4.3555303074772699e-02 8.3626043965669805e-02 7.7967998266432730e-03 -3.2194793801096302e+00 -6.4598967622300163e-01 
        </Neuron>
        <Neuron NSynapses="11">
          -9.0648722805777390e-02 -1.2139359319486993e+00 -9.9598784640966997e-01 -2.5676635887021981e-01 3.8770529615253034e-02 -1.1306639988806928e+00 1.4083007410764814e-01 2.7981478116165420e-01 7.0544557415208320e-02 -6.6314934539271730e-01 -7.9817680275207836e-01 
        </Neuron>
        <Neuron NSynapses="11">
          -7.6407769926717217e-01 9.8717059245343866e-02 2.5584828731655673e-01 -1.2834653487870409e+00 -6.7024886542923312e-01 3.4409868188739340e-01 -1.1334411039266457e+00 -3.0784000153208813e-01 2.5717805223126489e-01 -3.8500159318275406e-01 -3.8960692141156938e-01 
        </Neuron>
        <Neuron NSynapses="11">
          8.1368173900823834e-02 2.6565039332808418e+00 3.2866544916295011e+00 3.0148990990099418e+00 2.3706408438393280e+00 3.1345528507576144e+00 -1.0965909945077243e+00 -3.4509627027014282e+00 9.2287003225043740e-01 5.4550716064071141e+00 -1.4904003061494766e+00 
        </Neuron>
      </Layer>
      <Layer Index="1" NNeurons="12">
        <Neuron NSynapses="11">
          -1.3111866450740872e-01 6.3839106949142674e-02 -8.3733893956554439e-01 5.0363924019706505e-02 2.6056809358001627e+00 -8.2455439926932705e-01 1.0908077403412477e+00 3.8097390110090523e-01 8.3369473162373986e-01 7.1235579131152427e-01 2.0987037133176234e-01 
        </Neuron>
        <Neuron NSynapses="11">
          -1.5041855126520454e-01 -6.7752829812204207e-01 4.2909890050447325e-01 1.4392613160296794e-01 -1.9583234040514202e-01 -3.7441726846624135e-01 -1.1865515389867293e-01 -2.5917663070358650e+00 -7.9396530995621967e-02 1.5074391690122904e-01 -2.6710428867044395e-01 
        </Neuron>
        <Neuron NSynapses="11">
          -7.1523428715018011e-01 1.6889999963056570e+00 9.3825174651852095e-01 -2.7109607509986724e-02 5.1506387367140305e-01 -1.3383803428071006e+00 9.1066056997346456e-01 -1.0780266745094524e+00 -2.0398955944231075e-02 3.5916698339965070e-01 5.6064524652176151e-01 
        </Neuron>
        <Neuron NSynapses="11">
          -1.0877337940524152e+00 -6.2360017306930515e-01 5.5078478784463014e-01 2.4876727426731871e-01 2.3664078762817292e-01 1.3453586825996027e+00 5.9686625357971090e-01 -7.3636996726464371e-02 2.0254479697842398e+00 1.6671685376223904e+00 -5.4506656075057280e-01 
        </Neuron>
        <Neuron NSynapses="11">
          1.0280361420047583e+00 -2.2972374287532977e+00 3.1703549462468332e-02 -2.2414824651772842e+00 -2.1653099236757050e+00 1.3290800507814264e+00 5.9636851884242359e-01 -5.5417531852899304e-01 2.3291187652650194e-01 -8.1974120016657415e-01 7.0307512506800562e-01 
        </Neuron>
        <Neuron NSynapses="11">
          1.3967740904133394e+00 4.0286792970756530e-01 -1.3523168570083348e+00 -5.1747901071511004e-01 9.1195271879657869e-01 1.2228444879214295e+00 3.1219964194733046e-01 -9.9003972737971191e-01 -7.0486406201377227e-01 -9.4763132135730155e-01 9.3427276145547788e-01 
        </Neuron>
        <Neuron NSynapses="11">
          -2.3391183747454011e-01 -1.9172273894182805e+00 -1.9376083290429378e+00 -8.3707442272354360e-01 5.7115438629450066e-01 -2.5618000375814023e+00 1.6094175460229601e+00 2.2492007440414943e-01 9.4094514775019525e-02 1.7651552620048072e-01 2.1837193027431594e+00 
        </Neuron>
        <Neuron NSynapses="11">
          1.2251087778653518e+00 -6.3125783839841643e-01 3.6051934318998702e-01 -1.7249517132466627e+00 -6.6959699816846907e-01 1.3566225947953274e+00 1.3534463670399546e+00 2.4842063994420793e+00 7.5636468341581642e-01 1.4646382746981650e+00 -1.3749062644968237e+00 
        </Neuron>
        <Neuron NSynapses="11">
          -1.5395627894162947e+00 -2.3737637383682841e+00 -3.3140120598670468e+00 9.2765298625338621e-01 2.9508098363652927e-02 -1.4736328562804248e+00 2.0870365193816864e+00 -5.0280731257242883e-01 -1.1799660449222624e+00 2.9344443941491356e+00 1.9881795940827192e+00 
        </Neuron>
        <Neuron NSynapses="11">
          -8.7176671567544758e-02 1.2297402988683670e+00 1.5126110606845504e-02 1.5893701318262994e+00 -1.9000360826773672e+00 1.1901089190061922e+00 -3.3314630653023419e-01 -2.1381780814619402e+00 -1.4190846418426017e+00 -3.3923002976462677e+00 2.1126645832781479e-01 
        </Neuron>
        <Neuron NSynapses="11">
          -1.4799856804354314e+00 -4.2838913344688834e-01 -2.0018794826293274e-01 -9.3344001047023561e-02 -5.3597645712165735e-02 -1.0286727782438934e+00 4.9541413654273492e-01 -2.0277910116971443e+00 -8.3308182078142157e-01 -4.0199761084745135e-02 2.3110537145116258e-01 
        </Neuron>
        <Neuron NSynapses="11">
          1.7563631187722863e+00 2.9337026343204977e+00 -4.5483590442067157e-01 -1.7971820227030100e+00 -1.4824220738117126e+00 -5.8134640030310214e-01 -2.0724725796916199e+00 -1.7229248298090445e+00 -2.5663635823669761e-01 1.6936806846060797e+00 -4.8720350606201251e-01 
        </Neuron>
      </Layer>
      <Layer Index="2" NNeurons="12">
        <Neuron NSynapses="1">
          1.9982214142491212e-03 
        </Neuron>
        <Neuron NSynapses="1">
          -1.1434064687067709e+00 
        </Neuron>
        <Neuron NSynapses="1">
          -8.5687955978925992e-02 
        </Neuron>
        <Neuron NSynapses="1">
          3.0749507076301841e-01 
        </Neuron>
        <Neuron NSynapses="1">
          9.5790762022517417e-01 
        </Neuron>
        <Neuron NSynapses="1">
          3.4321398797885525e-02 
        </Neuron>
        <Neuron NSynapses="1">
          1.4351679171349940e-01 
        </Neuron>
        <Neuron NSynapses="1">
          -7.7940843796813741e-01 
        </Neuron>
        <Neuron NSynapses="1">
          2.5747300393877653e-04 
        </Neuron>
        <Neuron NSynapses="1">
          8.3631917071660955e-01 
        </Neuron>
        <Neuron NSynapses="1">
          1.5448195422382741e-01 
        </Neuron>
        <Neuron NSynapses="1">
          1.4954820143538698e+00 
        </Neuron>
      </Layer>
      <Layer Index="3" NNeurons="1">
        <Neuron NSynapses="0"/>
      </Layer>
    </Layout>
  </Weights>
</MethodSetup>
