<?xml version="1.0"?>
<MethodSetup Method="MLP::XS_93_235_0_n2n">
  <GeneralInfo>
    <Info name="TMVA Release" value="4.2.0 [262656]"/>
    <Info name="ROOT Release" value="5.34/14 [336398]"/>
    <Info name="Creator" value="mouginot"/>
    <Info name="Date" value="Wed Apr 29 06:59:25 2015"/>
    <Info name="Host" value="Linux nansl3.in2p3.fr 2.6.32-431.20.3.el6.x86_64 #1 SMP Thu Jun 19 14:01:59 CDT 2014 x86_64 x86_64 x86_64 GNU/Linux"/>
    <Info name="Dir" value="/scratch/spallati/mouginot/Combustible/Analyse/MLP_PuAm/XSM/Train"/>
    <Info name="Training events" value="35904"/>
    <Info name="TrainingTime" value="2.78760637e+03"/>
    <Info name="AnalysisType" value="Regression"/>
  </GeneralInfo>
  <Options>
    <Option name="NCycles" modified="Yes">20000</Option>
    <Option name="HiddenLayers" modified="Yes">N,N</Option>
    <Option name="NeuronType" modified="Yes">tanh</Option>
    <Option name="RandomSeed" modified="No">1</Option>
    <Option name="EstimatorType" modified="No">MSE</Option>
    <Option name="NeuronInputType" modified="No">sum</Option>
    <Option name="V" modified="Yes">False</Option>
    <Option name="VerbosityLevel" modified="No">Default</Option>
    <Option name="VarTransform" modified="Yes">Norm</Option>
    <Option name="H" modified="Yes">False</Option>
    <Option name="CreateMVAPdfs" modified="No">False</Option>
    <Option name="IgnoreNegWeightsInTraining" modified="No">False</Option>
    <Option name="TrainingMethod" modified="Yes">BFGS</Option>
    <Option name="LearningRate" modified="No">2.000000e-02</Option>
    <Option name="DecayRate" modified="No">1.000000e-02</Option>
    <Option name="TestRate" modified="Yes">6</Option>
    <Option name="EpochMonitoring" modified="No">False</Option>
    <Option name="Sampling" modified="Yes">3.000000e-01</Option>
    <Option name="SamplingEpoch" modified="Yes">8.000000e-01</Option>
    <Option name="SamplingImportance" modified="No">1.000000e+00</Option>
    <Option name="SamplingTraining" modified="No">True</Option>
    <Option name="SamplingTesting" modified="No">False</Option>
    <Option name="ResetStep" modified="No">50</Option>
    <Option name="Tau" modified="No">3.000000e+00</Option>
    <Option name="BPMode" modified="No">sequential</Option>
    <Option name="BatchSize" modified="No">-1</Option>
    <Option name="ConvergenceImprove" modified="Yes">1.000000e-06</Option>
    <Option name="ConvergenceTests" modified="Yes">15</Option>
    <Option name="UseRegulator" modified="Yes">False</Option>
    <Option name="UpdateLimit" modified="No">10000</Option>
    <Option name="CalculateErrors" modified="No">False</Option>
    <Option name="WeightRange" modified="No">1.000000e+00</Option>
  </Options>
  <Variables NVar="11">
    <Variable VarIndex="0" Expression="U5" Label="U5" Title="U 235" Unit="FractionIsotopic" Internal="U5" Type="F" Min="1.70676806e-03" Max="3.86267412e-03"/>
    <Variable VarIndex="1" Expression="U8" Label="U8" Title="U 238" Unit="FractionIsotopic" Internal="U8" Type="F" Min="8.46656263e-01" Max="9.67921793e-01"/>
    <Variable VarIndex="2" Expression="Pu8" Label="Pu8" Title="Pu 238" Unit="FractionIsotopic" Internal="Pu8" Type="F" Min="9.54120769e-05" Max="1.02889920e-02"/>
    <Variable VarIndex="3" Expression="Pu9" Label="Pu9" Title="Pu 239" Unit="FractionIsotopic" Internal="Pu9" Type="F" Min="6.84304768e-03" Max="1.03770845e-01"/>
    <Variable VarIndex="4" Expression="Pu10" Label="Pu10" Title="Pu 240" Unit="FractionIsotopic" Internal="Pu10" Type="F" Min="4.30373754e-03" Max="4.21657786e-02"/>
    <Variable VarIndex="5" Expression="Pu11" Label="Pu11" Title="Pu 241" Unit="FractionIsotopic" Internal="Pu11" Type="F" Min="3.67950233e-05" Max="2.75353342e-02"/>
    <Variable VarIndex="6" Expression="Pu12" Label="Pu12" Title="Pu 242" Unit="FractionIsotopic" Internal="Pu12" Type="F" Min="7.64389639e-04" Max="2.53406931e-02"/>
    <Variable VarIndex="7" Expression="Am1" Label="Am1" Title="Am 241" Unit="FractionIsotopic" Internal="Am1" Type="F" Min="7.62663092e-07" Max="1.72295030e-02"/>
    <Variable VarIndex="8" Expression="Am2" Label="Am2" Title="Am 242" Unit="FractionIsotopic" Internal="Am2" Type="F" Min="1.01304298e-09" Max="2.95403443e-05"/>
    <Variable VarIndex="9" Expression="Am3" Label="Am3" Title="Am 243" Unit="FractionIsotopic" Internal="Am3" Type="F" Min="7.64972924e-07" Max="7.47120613e-03"/>
    <Variable VarIndex="10" Expression="Time" Label="Time" Title="Time" Unit="seconds" Internal="Time" Type="F" Min="0.00000000e+00" Max="1.57788000e+08"/>
  </Variables>
  <Spectators NSpec="0"/>
  <Classes NClass="1">
    <Class Name="Regression" Index="0"/>
  </Classes>
  <Targets NTrgt="1">
    <Target TargetIndex="0" Expression="XS_93_235_0_n2n" Label="XS_93_235_0_n2n" Title="XS_93_235_0_n2n" Unit="" Internal="XS_93_235_0_n2n" Type="F" Min="2.20646165e-04" Max="3.36022378e-04"/>
  </Targets>
  <Transformations NTransformations="1">
    <Transform Name="Normalize">
      <Selection>
        <Input NInputs="12">
          <Input Type="Variable" Label="U5" Expression="U5"/>
          <Input Type="Variable" Label="U8" Expression="U8"/>
          <Input Type="Variable" Label="Pu8" Expression="Pu8"/>
          <Input Type="Variable" Label="Pu9" Expression="Pu9"/>
          <Input Type="Variable" Label="Pu10" Expression="Pu10"/>
          <Input Type="Variable" Label="Pu11" Expression="Pu11"/>
          <Input Type="Variable" Label="Pu12" Expression="Pu12"/>
          <Input Type="Variable" Label="Am1" Expression="Am1"/>
          <Input Type="Variable" Label="Am2" Expression="Am2"/>
          <Input Type="Variable" Label="Am3" Expression="Am3"/>
          <Input Type="Variable" Label="Time" Expression="Time"/>
          <Input Type="Target" Label="XS_93_235_0_n2n" Expression="XS_93_235_0_n2n"/>
        </Input>
        <Output NOutputs="12">
          <Output Type="Variable" Label="U5" Expression="U5"/>
          <Output Type="Variable" Label="U8" Expression="U8"/>
          <Output Type="Variable" Label="Pu8" Expression="Pu8"/>
          <Output Type="Variable" Label="Pu9" Expression="Pu9"/>
          <Output Type="Variable" Label="Pu10" Expression="Pu10"/>
          <Output Type="Variable" Label="Pu11" Expression="Pu11"/>
          <Output Type="Variable" Label="Pu12" Expression="Pu12"/>
          <Output Type="Variable" Label="Am1" Expression="Am1"/>
          <Output Type="Variable" Label="Am2" Expression="Am2"/>
          <Output Type="Variable" Label="Am3" Expression="Am3"/>
          <Output Type="Variable" Label="Time" Expression="Time"/>
          <Output Type="Target" Label="XS_93_235_0_n2n" Expression="XS_93_235_0_n2n"/>
        </Output>
      </Selection>
      <Class ClassIndex="0">
        <Ranges>
          <Range Index="0" Min="1.7067680601030588e-03" Max="3.8626741152256727e-03"/>
          <Range Index="1" Min="8.4665626287460327e-01" Max="9.6792179346084595e-01"/>
          <Range Index="2" Min="9.5412076916545630e-05" Max="1.0288991965353489e-02"/>
          <Range Index="3" Min="6.8430476821959019e-03" Max="1.0377084463834763e-01"/>
          <Range Index="4" Min="4.3037375435233116e-03" Max="4.2165778577327728e-02"/>
          <Range Index="5" Min="3.6795023333979771e-05" Max="2.7535334229469299e-02"/>
          <Range Index="6" Min="7.6438963878899813e-04" Max="2.5340693071484566e-02"/>
          <Range Index="7" Min="7.6266309179118252e-07" Max="1.7229503020644188e-02"/>
          <Range Index="8" Min="1.0130429828336673e-09" Max="2.9540344257839024e-05"/>
          <Range Index="9" Min="7.6497292411659146e-07" Max="7.4712061323225498e-03"/>
          <Range Index="10" Min="0.0000000000000000e+00" Max="1.5778800000000000e+08"/>
          <Range Index="11" Min="2.2064616496209055e-04" Max="3.3602237817831337e-04"/>
        </Ranges>
      </Class>
    </Transform>
  </Transformations>
  <MVAPdfs/>
  <Weights>
    <Layout NLayers="4">
      <Layer Index="0" NNeurons="12">
        <Neuron NSynapses="11">
          1.9814543818256306e-01 1.9552482603900432e+00 -7.2454076336912504e-02 1.1977730728533387e+00 -8.4253342571516554e-01 -6.0213901967658745e-01 -3.1654153765084243e-02 9.9646098006453288e-01 8.5020475366429302e-02 -7.7662814017474702e-03 3.2845177181232371e-01 
        </Neuron>
        <Neuron NSynapses="11">
          6.1527867570900641e-01 -3.3732308749511797e-01 -1.5226241847934338e-01 3.7772195787772428e-01 8.8335183387844324e-02 -7.4258677839338538e-01 2.2069142603857363e+00 1.6865587196738635e-01 1.5842772116291242e+00 1.5881606206480037e-01 4.7542455818642354e-01 
        </Neuron>
        <Neuron NSynapses="11">
          6.8783111725802148e-01 3.2337692838400961e-01 -1.9558375670054456e-01 -1.5314275043792158e+00 1.2495784000170409e+00 -5.3802758487324298e-01 -1.3349095801583519e-01 2.7603154948301062e-01 3.0849096557311939e-01 7.0766693160301430e-02 6.8247064723425777e-01 
        </Neuron>
        <Neuron NSynapses="11">
          -9.5304840576929040e-01 -8.0327591438960577e-01 -6.5386538756070156e-01 -2.3706696877904889e+00 2.2796531446712165e+00 -8.9492724600639562e-01 9.0749389049133622e-01 1.3085792130010392e+00 8.0967170801405308e-01 1.8044028869143205e+00 1.5271689770427366e-01 
        </Neuron>
        <Neuron NSynapses="11">
          -1.6063860969948442e+00 -1.8060814139816805e+00 6.4473898255517215e-01 -3.9747872530966410e-01 2.1902905493280600e+00 1.6766414649439982e+00 6.1495156059751421e-01 5.4491420867019447e-01 -4.3987610288276614e-02 9.8391015972950924e-01 -1.2994802549947109e+00 
        </Neuron>
        <Neuron NSynapses="11">
          -2.0051126692912127e+00 -1.5588877059937856e+00 -2.6003976214683946e+00 3.8840857834350090e-01 8.2733933287228500e-01 -3.0782400111098109e+00 -8.7180516135931585e-02 1.2114176224882339e-01 5.4191834288475804e-01 8.3670719970748431e-01 1.0557496270068657e-01 
        </Neuron>
        <Neuron NSynapses="11">
          -2.6210325594577154e-02 -6.6045097303300127e-01 3.8148620905350172e-01 -1.0116051839139135e+00 6.4773266769095628e-01 -1.5577507594493598e+00 6.7850379955051943e-01 1.2023990773433486e+00 -4.1717533851839864e-02 9.3242500444546850e-02 -1.0183379656256695e+00 
        </Neuron>
        <Neuron NSynapses="11">
          -1.0453593204525569e+00 4.4079273468580416e-01 2.5426418334795825e-01 8.7221534882987350e-01 7.6820135298423287e-01 -3.7650823451482529e-01 8.2484576858943698e-02 3.4150100150371987e-01 1.7500926623155322e-01 6.0863904191468388e-01 4.1621913356800644e-01 
        </Neuron>
        <Neuron NSynapses="11">
          -6.0491826478610999e-01 -1.6909571930721765e+00 3.7940390430924725e-01 -9.3249275056442904e-01 1.2686030606775955e+00 -1.2618135155917320e+00 8.6093643852257595e-02 1.7722572913499608e+00 -7.7604541273735353e-02 -3.7580718200730245e-01 -7.8329936491910790e-01 
        </Neuron>
        <Neuron NSynapses="11">
          7.9082916937448455e-02 -1.8777912865048800e+00 5.3559826235378161e-01 -4.8562397167294469e-01 1.3766574293934886e+00 -1.0728121834866786e-01 1.3821666986248043e-01 -3.5756177479874474e-02 -2.7535464431345628e-02 3.7342096378073242e-01 1.3084563927541246e-01 
        </Neuron>
        <Neuron NSynapses="11">
          -3.1079239912144130e-01 8.1945676517242522e-02 1.2331015278853144e+00 -1.2279390354630566e+00 -5.9752362400411985e-01 1.3661614168704266e+00 -3.0235483498605210e-02 -2.3505200178269606e-01 8.4576457947359240e-02 -1.9969195599429915e-01 -1.1547701380925834e+00 
        </Neuron>
        <Neuron NSynapses="11">
          1.8041730000721132e-01 -4.0155407078544370e-01 2.0653718229906808e+00 1.7566961360661799e+00 -6.7679015539278198e-01 4.6479346958906209e-01 2.2126565120194727e-02 -2.1540480970823386e+00 2.4200113841436388e-01 1.0729714893802129e-01 -3.9471951756799735e+00 
        </Neuron>
      </Layer>
      <Layer Index="1" NNeurons="12">
        <Neuron NSynapses="11">
          8.9145208860666536e-01 -1.4673372565941014e+00 1.8017222506811498e-01 1.1571040927145004e+00 9.0747062059836259e-01 -1.8805071555032702e+00 1.8321110921120071e-02 1.0117726628383727e+00 1.8311468061368621e+00 -1.5174143756877467e-03 -1.5187156988173618e+00 
        </Neuron>
        <Neuron NSynapses="11">
          -1.2068675773337294e-01 -4.6011286219515640e-02 8.9539267300445680e-01 1.2001690830409990e+00 -3.0419300626675483e-01 5.7297821037109328e-02 2.7074002854902207e-01 -1.4309482575290133e+00 6.3597758971799156e-01 1.8439302017670249e+00 -5.1866450563389188e-01 
        </Neuron>
        <Neuron NSynapses="11">
          -6.1519095686827108e-01 1.3239284460354805e-01 1.0862945833135109e+00 5.7587196558893805e-01 9.8892730472075396e-01 -1.3660591971153171e+00 1.0101273049724278e+00 6.2406840652258611e-01 -1.1301832041113319e-02 5.5534905534708312e-01 5.3786162407327820e-01 
        </Neuron>
        <Neuron NSynapses="11">
          -9.3773165495034783e-01 -7.2896880194263436e-01 1.0517784937024246e+00 -8.3390313977009667e-01 5.0761778843347583e-01 1.5856248171905454e+00 6.4976593773062530e-01 -1.0660361114527533e-01 1.7368156206672345e+00 2.0062295691794998e+00 -1.1567306386010325e+00 
        </Neuron>
        <Neuron NSynapses="11">
          7.5465033620179223e-01 -7.1536049004956359e-02 2.6575464520510883e-01 -1.6008212352319060e+00 -9.6090254674238973e-01 7.4090322425975719e-01 1.4234118974429304e+00 -1.4390015907487477e+00 -8.5933987210240315e-02 -2.7675976139639424e-01 4.3218433901898320e-02 
        </Neuron>
        <Neuron NSynapses="11">
          3.3016394606470451e-01 -5.7604021718965392e-01 -8.4528462753702438e-01 -7.9840874016483232e-01 1.6832927324636269e+00 1.6529029717616861e+00 5.8400719672551771e-01 2.0007645731181803e-01 -8.4716681045012310e-01 -1.9744633340741131e+00 1.3851353828500224e+00 
        </Neuron>
        <Neuron NSynapses="11">
          -1.1713651246183576e+00 -1.3788423629612343e+00 1.2428184731073431e-01 4.5182099949522386e-01 5.2643160840336337e-02 -2.0980028112229152e+00 8.3612787741506389e-01 4.0339284281483201e-01 6.8374251799065616e-02 -2.9407719483599520e-01 1.8350620089743930e+00 
        </Neuron>
        <Neuron NSynapses="11">
          1.3035403503282934e+00 4.0179090083551083e-01 -4.9064776451521874e-01 -2.0175946022220779e+00 -9.5433147948016306e-01 1.5643890639208811e+00 1.1103901914566332e+00 8.1568540379247989e-01 5.9403531882216976e-01 1.8639090742781341e+00 -1.5053362475306684e+00 
        </Neuron>
        <Neuron NSynapses="11">
          -2.2573129256706430e+00 -2.1113302063648209e-02 7.0600749253127400e-03 1.0468699030226489e+00 1.5770508990247243e+00 -1.3923329021394550e+00 9.6951032580108532e-01 -2.9179045447061863e-01 -1.4609552938769630e+00 -1.2695770231575387e+00 1.2756550319402125e+00 
        </Neuron>
        <Neuron NSynapses="11">
          1.3316624734459674e+00 8.6883176394036288e-01 -1.9794828867279168e+00 1.8145518591136995e+00 -1.8573275162722611e+00 8.7439959709350235e-01 -1.5761276998249087e+00 -1.5901957294046576e+00 -1.2332888171446652e+00 -1.6415721442389526e+00 -7.0299918889960011e-02 
        </Neuron>
        <Neuron NSynapses="11">
          -1.1330649842313876e+00 -9.7007093230771113e-01 -1.0402136313192114e+00 6.8347727277498951e-02 -1.1593812476711356e+00 -1.6641995166931214e+00 4.3311529258182441e-01 -1.4373388670120608e+00 5.5278030149490520e-01 -1.3131398608572185e+00 -3.6530471409423138e-01 
        </Neuron>
        <Neuron NSynapses="11">
          1.7788526293652909e+00 1.1253365014846004e+00 -7.4964308871716923e-01 -1.4287427131869272e+00 -6.0898114710695928e-01 -8.9767660325699417e-01 -2.6696430362467383e+00 3.1763500718533871e-01 -1.8551338482542529e-01 1.8484413411356424e+00 -1.6743293999930514e-01 
        </Neuron>
      </Layer>
      <Layer Index="2" NNeurons="12">
        <Neuron NSynapses="1">
          5.7280642745140629e-02 
        </Neuron>
        <Neuron NSynapses="1">
          5.9199908962757564e-02 
        </Neuron>
        <Neuron NSynapses="1">
          -5.2023672219996750e-02 
        </Neuron>
        <Neuron NSynapses="1">
          -6.7941833317151047e-03 
        </Neuron>
        <Neuron NSynapses="1">
          1.7784832737895743e-03 
        </Neuron>
        <Neuron NSynapses="1">
          6.5779586135330595e-03 
        </Neuron>
        <Neuron NSynapses="1">
          -1.2521322430681379e+00 
        </Neuron>
        <Neuron NSynapses="1">
          -3.3863858234093304e-02 
        </Neuron>
        <Neuron NSynapses="1">
          -1.4730542617435696e-02 
        </Neuron>
        <Neuron NSynapses="1">
          2.6295466227053525e-02 
        </Neuron>
        <Neuron NSynapses="1">
          -3.1085441465508575e-02 
        </Neuron>
        <Neuron NSynapses="1">
          -1.1141609536270130e+00 
        </Neuron>
      </Layer>
      <Layer Index="3" NNeurons="1">
        <Neuron NSynapses="0"/>
      </Layer>
    </Layout>
  </Weights>
</MethodSetup>
