<?xml version="1.0"?>
<MethodSetup Method="MLP::XS_94_244_0_fis">
  <GeneralInfo>
    <Info name="TMVA Release" value="4.2.0 [262656]"/>
    <Info name="ROOT Release" value="5.34/14 [336398]"/>
    <Info name="Creator" value="courtin"/>
    <Info name="Date" value="Fri Dec 18 00:43:07 2015"/>
    <Info name="Host" value="Linux nansl3.in2p3.fr 2.6.32-431.20.3.el6.x86_64 #1 SMP Thu Jun 19 14:01:59 CDT 2014 x86_64 x86_64 x86_64 GNU/Linux"/>
    <Info name="Dir" value="/scratch/spallati/courtin/WORK/BdD_MOxEUS/MOxEUS_NN/XSM/MLP/Train"/>
    <Info name="Training events" value="59870"/>
    <Info name="TrainingTime" value="2.09961874e+03"/>
    <Info name="AnalysisType" value="Regression"/>
  </GeneralInfo>
  <Options>
    <Option name="NCycles" modified="Yes">20000</Option>
    <Option name="HiddenLayers" modified="Yes">N,N</Option>
    <Option name="NeuronType" modified="Yes">tanh</Option>
    <Option name="RandomSeed" modified="No">1</Option>
    <Option name="EstimatorType" modified="No">MSE</Option>
    <Option name="NeuronInputType" modified="No">sum</Option>
    <Option name="V" modified="Yes">False</Option>
    <Option name="VerbosityLevel" modified="No">Default</Option>
    <Option name="VarTransform" modified="Yes">Norm</Option>
    <Option name="H" modified="Yes">False</Option>
    <Option name="CreateMVAPdfs" modified="No">False</Option>
    <Option name="IgnoreNegWeightsInTraining" modified="No">False</Option>
    <Option name="TrainingMethod" modified="Yes">BFGS</Option>
    <Option name="LearningRate" modified="No">2.000000e-02</Option>
    <Option name="DecayRate" modified="No">1.000000e-02</Option>
    <Option name="TestRate" modified="Yes">6</Option>
    <Option name="EpochMonitoring" modified="No">False</Option>
    <Option name="Sampling" modified="Yes">3.000000e-01</Option>
    <Option name="SamplingEpoch" modified="Yes">8.000000e-01</Option>
    <Option name="SamplingImportance" modified="No">1.000000e+00</Option>
    <Option name="SamplingTraining" modified="No">True</Option>
    <Option name="SamplingTesting" modified="No">False</Option>
    <Option name="ResetStep" modified="No">50</Option>
    <Option name="Tau" modified="No">3.000000e+00</Option>
    <Option name="BPMode" modified="No">sequential</Option>
    <Option name="BatchSize" modified="No">-1</Option>
    <Option name="ConvergenceImprove" modified="Yes">1.000000e-06</Option>
    <Option name="ConvergenceTests" modified="Yes">15</Option>
    <Option name="UseRegulator" modified="Yes">False</Option>
    <Option name="UpdateLimit" modified="No">10000</Option>
    <Option name="CalculateErrors" modified="No">False</Option>
    <Option name="WeightRange" modified="No">1.000000e+00</Option>
  </Options>
  <Variables NVar="9">
    <Variable VarIndex="0" Expression="U5" Label="U5" Title="U 235" Unit="FractionIsotopic" Internal="U5" Type="F" Min="2.30270298e-03" Max="4.67000641e-02"/>
    <Variable VarIndex="1" Expression="U8" Label="U8" Title="U 238" Unit="FractionIsotopic" Internal="U8" Type="F" Min="8.04198325e-01" Max="9.53872919e-01"/>
    <Variable VarIndex="2" Expression="Pu8" Label="Pu8" Title="Pu 238" Unit="FractionIsotopic" Internal="Pu8" Type="F" Min="2.39272078e-04" Max="1.25759691e-02"/>
    <Variable VarIndex="3" Expression="Pu9" Label="Pu9" Title="Pu 239" Unit="FractionIsotopic" Internal="Pu9" Type="F" Min="3.92307848e-04" Max="1.18448287e-01"/>
    <Variable VarIndex="4" Expression="Pu10" Label="Pu10" Title="Pu 240" Unit="FractionIsotopic" Internal="Pu10" Type="F" Min="4.57230024e-03" Max="6.08281456e-02"/>
    <Variable VarIndex="5" Expression="Pu11" Label="Pu11" Title="Pu 241" Unit="FractionIsotopic" Internal="Pu11" Type="F" Min="2.07281264e-05" Max="3.61828022e-02"/>
    <Variable VarIndex="6" Expression="Pu12" Label="Pu12" Title="Pu 242" Unit="FractionIsotopic" Internal="Pu12" Type="F" Min="6.52248855e-04" Max="5.31211868e-02"/>
    <Variable VarIndex="7" Expression="Am1" Label="Am1" Title="Am 241" Unit="FractionIsotopic" Internal="Am1" Type="F" Min="6.82462883e-07" Max="1.22549152e-02"/>
    <Variable VarIndex="8" Expression="Time" Label="Time" Title="Time" Unit="seconds" Internal="Time" Type="F" Min="0.00000000e+00" Max="1.89328304e+08"/>
  </Variables>
  <Spectators NSpec="0"/>
  <Classes NClass="1">
    <Class Name="Regression" Index="0"/>
  </Classes>
  <Targets NTrgt="1">
    <Target TargetIndex="0" Expression="XS_94_244_0_fis" Label="XS_94_244_0_fis" Title="XS_94_244_0_fis" Unit="" Internal="XS_94_244_0_fis" Type="F" Min="3.85732889e-01" Max="4.53312486e-01"/>
  </Targets>
  <Transformations NTransformations="1">
    <Transform Name="Normalize">
      <Selection>
        <Input NInputs="10">
          <Input Type="Variable" Label="U5" Expression="U5"/>
          <Input Type="Variable" Label="U8" Expression="U8"/>
          <Input Type="Variable" Label="Pu8" Expression="Pu8"/>
          <Input Type="Variable" Label="Pu9" Expression="Pu9"/>
          <Input Type="Variable" Label="Pu10" Expression="Pu10"/>
          <Input Type="Variable" Label="Pu11" Expression="Pu11"/>
          <Input Type="Variable" Label="Pu12" Expression="Pu12"/>
          <Input Type="Variable" Label="Am1" Expression="Am1"/>
          <Input Type="Variable" Label="Time" Expression="Time"/>
          <Input Type="Target" Label="XS_94_244_0_fis" Expression="XS_94_244_0_fis"/>
        </Input>
        <Output NOutputs="10">
          <Output Type="Variable" Label="U5" Expression="U5"/>
          <Output Type="Variable" Label="U8" Expression="U8"/>
          <Output Type="Variable" Label="Pu8" Expression="Pu8"/>
          <Output Type="Variable" Label="Pu9" Expression="Pu9"/>
          <Output Type="Variable" Label="Pu10" Expression="Pu10"/>
          <Output Type="Variable" Label="Pu11" Expression="Pu11"/>
          <Output Type="Variable" Label="Pu12" Expression="Pu12"/>
          <Output Type="Variable" Label="Am1" Expression="Am1"/>
          <Output Type="Variable" Label="Time" Expression="Time"/>
          <Output Type="Target" Label="XS_94_244_0_fis" Expression="XS_94_244_0_fis"/>
        </Output>
      </Selection>
      <Class ClassIndex="0">
        <Ranges>
          <Range Index="0" Min="2.3027029819786549e-03" Max="4.6700064092874527e-02"/>
          <Range Index="1" Min="8.0419832468032837e-01" Max="9.5387291908264160e-01"/>
          <Range Index="2" Min="2.3927207803353667e-04" Max="1.2575969099998474e-02"/>
          <Range Index="3" Min="3.9230784750543535e-04" Max="1.1844828724861145e-01"/>
          <Range Index="4" Min="4.5723002403974533e-03" Max="6.0828145593404770e-02"/>
          <Range Index="5" Min="2.0728126401081681e-05" Max="3.6182802170515060e-02"/>
          <Range Index="6" Min="6.5224885474890471e-04" Max="5.3121186792850494e-02"/>
          <Range Index="7" Min="6.8246288265072508e-07" Max="1.2254915200173855e-02"/>
          <Range Index="8" Min="0.0000000000000000e+00" Max="1.8932830400000000e+08"/>
          <Range Index="9" Min="3.8573288917541504e-01" Max="4.5331248641014099e-01"/>
        </Ranges>
      </Class>
    </Transform>
  </Transformations>
  <MVAPdfs/>
  <Weights>
    <Layout NLayers="4">
      <Layer Index="0" NNeurons="10">
        <Neuron NSynapses="9">
          -6.1821806725363904e-01 2.0667951928671596e-01 -6.9546090560833662e-02 3.5351761539785177e-02 -1.0511382964090641e+00 -8.3056844688038911e-01 -7.4141024501804698e-01 1.4506857645459157e+00 1.7289559245089592e-01 
        </Neuron>
        <Neuron NSynapses="9">
          -1.6440813685469231e+00 -2.0052230362618526e+00 2.6968850366300118e-01 -2.9434251431948427e-01 -1.7386334493018438e+00 5.2282930827797802e-01 1.6222102430458747e+00 1.4101707124691312e-01 8.6447026385210413e-01 
        </Neuron>
        <Neuron NSynapses="9">
          3.2398694134742917e-01 9.2911768238157233e-01 -4.8674338201482953e-02 -1.9771880786026818e-04 5.9480935473631558e-01 2.2464117749624601e-01 -8.3233767839766259e-01 2.7081357040647924e-01 8.3933164785567962e-02 
        </Neuron>
        <Neuron NSynapses="9">
          -2.0837601259039511e+00 -6.9787743030831284e-01 -4.7279715476316181e-01 1.9743072410474341e-01 2.6923975081891625e+00 -1.2741322301807242e-01 -2.0224124015053051e+00 4.2014567240637471e-02 -5.4674109946803029e-01 
        </Neuron>
        <Neuron NSynapses="9">
          -8.0305549710589219e-01 1.5398768347552469e+00 -3.2630625762002591e-01 2.7274879720567921e-03 1.0361085484663888e+00 1.2882919901349279e+00 4.7010806469512084e-01 1.3415681827943065e+00 5.1813877247805151e-01 
        </Neuron>
        <Neuron NSynapses="9">
          -1.1781915153175608e+00 3.7956226867547416e-01 -7.3221013173050603e-02 5.7803455670822623e-02 1.1736806127635020e+00 1.3952961449565702e+00 -2.4044681641627860e-02 -7.9350645783019602e-01 -2.4725665265522140e-02 
        </Neuron>
        <Neuron NSynapses="9">
          -1.3486528022468154e+00 -1.0585293064660417e+00 -6.9596296457897708e-02 -3.5885693568097510e-02 8.0368517263132921e-01 1.6234494625797118e+00 -1.1479028122573731e+00 4.5010840989431572e-01 4.9694983606956156e-01 
        </Neuron>
        <Neuron NSynapses="9">
          9.7994813393433369e-02 8.1182020145761569e-01 -4.5245543026578731e-02 2.4575655164095295e-02 -1.0503909899065096e+00 3.9826370503123132e-01 -1.2343604430229236e+00 3.7936712104916559e-01 -2.1048343091043625e-02 
        </Neuron>
        <Neuron NSynapses="9">
          1.8468654130688333e-01 2.3798981877769343e+00 1.7063785086554478e-01 -8.6835320469651506e-02 -1.1394695553785268e+00 -1.3990186518365550e+00 6.9543047353806842e-01 4.5755118394534394e-01 -5.5422229580639371e-01 
        </Neuron>
        <Neuron NSynapses="9">
          2.0170717264560740e+00 1.4317746722364448e+00 -1.7941578318541316e+00 -8.3126212824767098e-01 5.8774412651850749e-01 -1.5465614532131904e+00 5.7159521946081748e-01 -2.5133435220322302e+00 -1.4439866250886104e+00 
        </Neuron>
      </Layer>
      <Layer Index="1" NNeurons="10">
        <Neuron NSynapses="9">
          -3.4966858477559953e-01 -2.4233318933596806e-01 2.3788130398182910e+00 -1.1034441943851270e+00 -1.1921912593153112e+00 2.0596658869641820e+00 -1.1848499479029899e-01 -1.4649705758448071e+00 -1.1413836687533114e+00 
        </Neuron>
        <Neuron NSynapses="9">
          5.0863861823417289e-01 -1.4303265545362591e+00 -8.3362795680045987e-01 7.1400882612288863e-01 1.1855534006909445e+00 -6.1085086592056670e-01 1.4837951488981762e-02 -8.9581464020983981e-01 -4.5242195155578852e-01 
        </Neuron>
        <Neuron NSynapses="9">
          5.8493045540949284e-01 1.3620131669903623e-01 -1.8388065778702090e+00 1.2278375273049356e+00 1.3802542836957516e+00 -4.3310918384949965e-01 -9.4530390261457453e-01 1.5882044687348131e+00 5.1076049454006045e-01 
        </Neuron>
        <Neuron NSynapses="9">
          -8.5626382026341097e-01 1.0727381312580331e+00 -2.2968228390183307e-01 -1.9219009354946661e+00 8.6238627318745054e-01 -1.3198839761492120e+00 1.0696046920719580e+00 7.6379386453660891e-01 -4.0992928475324064e-01 
        </Neuron>
        <Neuron NSynapses="9">
          -7.5474382031621090e-01 6.6631462125789076e-01 -2.0246127593241425e+00 5.6769417380150222e-01 6.2182937925618104e-02 -5.1500395410147992e-01 -1.9732674408735420e-03 -1.1582001075738113e+00 -4.2662756467121898e-01 
        </Neuron>
        <Neuron NSynapses="9">
          5.8497600806511274e-01 2.3217847917097605e+00 -1.2273594647368147e+00 1.2698080500726552e-01 4.2448898271844199e-01 1.8719797684749293e-01 2.8011808244638157e-03 -1.1869749605221862e+00 -1.0923537672738684e-01 
        </Neuron>
        <Neuron NSynapses="9">
          2.0149779312338062e-01 1.2070350964081080e+00 5.1115746175349086e-01 -1.0186422293896844e-01 -2.5134800810762226e-01 7.4540146875380975e-01 3.6888104957404229e-03 2.8766543727442917e-01 1.3869845704154171e+00 
        </Neuron>
        <Neuron NSynapses="9">
          -7.1682298866174299e-01 -4.6101308151066145e-01 -5.0144882917062406e-01 7.0017364077422284e-01 7.6683280554516253e-01 -2.5678336045124700e-01 2.2338971024895866e-02 1.7072711176021507e+00 1.5337570369864073e-01 
        </Neuron>
        <Neuron NSynapses="9">
          1.2421027736813726e+00 3.9410573856402502e-02 1.8279196649208032e-01 -8.5922034928455493e-01 -1.7521560194409791e-01 5.8054853046863919e-01 -2.0485336935698484e-01 -1.1640676197730622e+00 1.8758411099903662e+00 
        </Neuron>
        <Neuron NSynapses="9">
          8.6865963109521360e-01 -3.1329934696298478e-01 2.5012097368575752e+00 2.3596815248466010e+00 -2.3985116901564960e+00 1.3642365382780073e+00 3.9783692751035271e-01 5.6751499099729874e-01 -1.4430099096345854e+00 
        </Neuron>
      </Layer>
      <Layer Index="2" NNeurons="10">
        <Neuron NSynapses="1">
          -2.1123742890638487e-02 
        </Neuron>
        <Neuron NSynapses="1">
          -3.2087350209547010e-05 
        </Neuron>
        <Neuron NSynapses="1">
          2.2848098064422379e-01 
        </Neuron>
        <Neuron NSynapses="1">
          -7.5389273197659715e-02 
        </Neuron>
        <Neuron NSynapses="1">
          1.5858420117046041e+00 
        </Neuron>
        <Neuron NSynapses="1">
          -1.9862880729101942e-01 
        </Neuron>
        <Neuron NSynapses="1">
          2.1806666563059518e+00 
        </Neuron>
        <Neuron NSynapses="1">
          -3.9803758730517025e-03 
        </Neuron>
        <Neuron NSynapses="1">
          -8.2570073433827873e-01 
        </Neuron>
        <Neuron NSynapses="1">
          -4.2605710448989108e-02 
        </Neuron>
      </Layer>
      <Layer Index="3" NNeurons="1">
        <Neuron NSynapses="0"/>
      </Layer>
    </Layout>
  </Weights>
</MethodSetup>
