<?xml version="1.0"?>
<MethodSetup Method="MLP::XS_7_15_0_n2n">
  <GeneralInfo>
    <Info name="TMVA Release" value="4.2.0 [262656]"/>
    <Info name="ROOT Release" value="5.34/14 [336398]"/>
    <Info name="Creator" value="courtin"/>
    <Info name="Date" value="Thu Dec 17 22:48:53 2015"/>
    <Info name="Host" value="Linux nansl3.in2p3.fr 2.6.32-431.20.3.el6.x86_64 #1 SMP Thu Jun 19 14:01:59 CDT 2014 x86_64 x86_64 x86_64 GNU/Linux"/>
    <Info name="Dir" value="/scratch/spallati/courtin/WORK/BdD_MOxEUS/MOxEUS_NN/XSM/MLP/Train"/>
    <Info name="Training events" value="59870"/>
    <Info name="TrainingTime" value="7.61326484e+02"/>
    <Info name="AnalysisType" value="Regression"/>
  </GeneralInfo>
  <Options>
    <Option name="NCycles" modified="Yes">20000</Option>
    <Option name="HiddenLayers" modified="Yes">N,N</Option>
    <Option name="NeuronType" modified="Yes">tanh</Option>
    <Option name="RandomSeed" modified="No">1</Option>
    <Option name="EstimatorType" modified="No">MSE</Option>
    <Option name="NeuronInputType" modified="No">sum</Option>
    <Option name="V" modified="Yes">False</Option>
    <Option name="VerbosityLevel" modified="No">Default</Option>
    <Option name="VarTransform" modified="Yes">Norm</Option>
    <Option name="H" modified="Yes">False</Option>
    <Option name="CreateMVAPdfs" modified="No">False</Option>
    <Option name="IgnoreNegWeightsInTraining" modified="No">False</Option>
    <Option name="TrainingMethod" modified="Yes">BFGS</Option>
    <Option name="LearningRate" modified="No">2.000000e-02</Option>
    <Option name="DecayRate" modified="No">1.000000e-02</Option>
    <Option name="TestRate" modified="Yes">6</Option>
    <Option name="EpochMonitoring" modified="No">False</Option>
    <Option name="Sampling" modified="Yes">3.000000e-01</Option>
    <Option name="SamplingEpoch" modified="Yes">8.000000e-01</Option>
    <Option name="SamplingImportance" modified="No">1.000000e+00</Option>
    <Option name="SamplingTraining" modified="No">True</Option>
    <Option name="SamplingTesting" modified="No">False</Option>
    <Option name="ResetStep" modified="No">50</Option>
    <Option name="Tau" modified="No">3.000000e+00</Option>
    <Option name="BPMode" modified="No">sequential</Option>
    <Option name="BatchSize" modified="No">-1</Option>
    <Option name="ConvergenceImprove" modified="Yes">1.000000e-06</Option>
    <Option name="ConvergenceTests" modified="Yes">15</Option>
    <Option name="UseRegulator" modified="Yes">False</Option>
    <Option name="UpdateLimit" modified="No">10000</Option>
    <Option name="CalculateErrors" modified="No">False</Option>
    <Option name="WeightRange" modified="No">1.000000e+00</Option>
  </Options>
  <Variables NVar="9">
    <Variable VarIndex="0" Expression="U5" Label="U5" Title="U 235" Unit="FractionIsotopic" Internal="U5" Type="F" Min="2.30270298e-03" Max="4.67000641e-02"/>
    <Variable VarIndex="1" Expression="U8" Label="U8" Title="U 238" Unit="FractionIsotopic" Internal="U8" Type="F" Min="8.04198325e-01" Max="9.53872919e-01"/>
    <Variable VarIndex="2" Expression="Pu8" Label="Pu8" Title="Pu 238" Unit="FractionIsotopic" Internal="Pu8" Type="F" Min="2.39272078e-04" Max="1.25759691e-02"/>
    <Variable VarIndex="3" Expression="Pu9" Label="Pu9" Title="Pu 239" Unit="FractionIsotopic" Internal="Pu9" Type="F" Min="3.92307848e-04" Max="1.18448287e-01"/>
    <Variable VarIndex="4" Expression="Pu10" Label="Pu10" Title="Pu 240" Unit="FractionIsotopic" Internal="Pu10" Type="F" Min="4.57230024e-03" Max="6.08281456e-02"/>
    <Variable VarIndex="5" Expression="Pu11" Label="Pu11" Title="Pu 241" Unit="FractionIsotopic" Internal="Pu11" Type="F" Min="2.07281264e-05" Max="3.61828022e-02"/>
    <Variable VarIndex="6" Expression="Pu12" Label="Pu12" Title="Pu 242" Unit="FractionIsotopic" Internal="Pu12" Type="F" Min="6.52248855e-04" Max="5.31211868e-02"/>
    <Variable VarIndex="7" Expression="Am1" Label="Am1" Title="Am 241" Unit="FractionIsotopic" Internal="Am1" Type="F" Min="6.82462883e-07" Max="1.22549152e-02"/>
    <Variable VarIndex="8" Expression="Time" Label="Time" Title="Time" Unit="seconds" Internal="Time" Type="F" Min="0.00000000e+00" Max="1.89328304e+08"/>
  </Variables>
  <Spectators NSpec="0"/>
  <Classes NClass="1">
    <Class Name="Regression" Index="0"/>
  </Classes>
  <Targets NTrgt="1">
    <Target TargetIndex="0" Expression="XS_7_15_0_n2n" Label="XS_7_15_0_n2n" Title="XS_7_15_0_n2n" Unit="" Internal="XS_7_15_0_n2n" Type="F" Min="4.45040996e-06" Max="2.27296096e-05"/>
  </Targets>
  <Transformations NTransformations="1">
    <Transform Name="Normalize">
      <Selection>
        <Input NInputs="10">
          <Input Type="Variable" Label="U5" Expression="U5"/>
          <Input Type="Variable" Label="U8" Expression="U8"/>
          <Input Type="Variable" Label="Pu8" Expression="Pu8"/>
          <Input Type="Variable" Label="Pu9" Expression="Pu9"/>
          <Input Type="Variable" Label="Pu10" Expression="Pu10"/>
          <Input Type="Variable" Label="Pu11" Expression="Pu11"/>
          <Input Type="Variable" Label="Pu12" Expression="Pu12"/>
          <Input Type="Variable" Label="Am1" Expression="Am1"/>
          <Input Type="Variable" Label="Time" Expression="Time"/>
          <Input Type="Target" Label="XS_7_15_0_n2n" Expression="XS_7_15_0_n2n"/>
        </Input>
        <Output NOutputs="10">
          <Output Type="Variable" Label="U5" Expression="U5"/>
          <Output Type="Variable" Label="U8" Expression="U8"/>
          <Output Type="Variable" Label="Pu8" Expression="Pu8"/>
          <Output Type="Variable" Label="Pu9" Expression="Pu9"/>
          <Output Type="Variable" Label="Pu10" Expression="Pu10"/>
          <Output Type="Variable" Label="Pu11" Expression="Pu11"/>
          <Output Type="Variable" Label="Pu12" Expression="Pu12"/>
          <Output Type="Variable" Label="Am1" Expression="Am1"/>
          <Output Type="Variable" Label="Time" Expression="Time"/>
          <Output Type="Target" Label="XS_7_15_0_n2n" Expression="XS_7_15_0_n2n"/>
        </Output>
      </Selection>
      <Class ClassIndex="0">
        <Ranges>
          <Range Index="0" Min="2.3027029819786549e-03" Max="4.6700064092874527e-02"/>
          <Range Index="1" Min="8.0419832468032837e-01" Max="9.5387291908264160e-01"/>
          <Range Index="2" Min="2.3927207803353667e-04" Max="1.2575969099998474e-02"/>
          <Range Index="3" Min="3.9230784750543535e-04" Max="1.1844828724861145e-01"/>
          <Range Index="4" Min="4.5723002403974533e-03" Max="6.0828145593404770e-02"/>
          <Range Index="5" Min="2.0728126401081681e-05" Max="3.6182802170515060e-02"/>
          <Range Index="6" Min="6.5224885474890471e-04" Max="5.3121186792850494e-02"/>
          <Range Index="7" Min="6.8246288265072508e-07" Max="1.2254915200173855e-02"/>
          <Range Index="8" Min="0.0000000000000000e+00" Max="1.8932830400000000e+08"/>
          <Range Index="9" Min="4.4504099605546799e-06" Max="2.2729609554517083e-05"/>
        </Ranges>
      </Class>
    </Transform>
  </Transformations>
  <MVAPdfs/>
  <Weights>
    <Layout NLayers="4">
      <Layer Index="0" NNeurons="10">
        <Neuron NSynapses="9">
          -4.4966363938999299e-01 1.2041189200310412e+00 8.8482270420734510e-01 6.1324799846965150e-01 -2.2645589004523896e+00 -1.8075188374236917e+00 -7.7019229892587215e-01 5.9081296298617714e-01 -1.4529595504769659e+00 
        </Neuron>
        <Neuron NSynapses="9">
          -1.6135052304349040e+00 -2.4354850620069377e+00 9.2174485495967873e-01 -6.2775392808860209e-01 3.6250951262803713e-02 -9.6779181929654501e-01 3.9990342542662394e-01 9.5602751101803018e-01 1.5574975396023045e+00 
        </Neuron>
        <Neuron NSynapses="9">
          2.3972062382250708e-01 1.0566872857394602e+00 -2.0357910625769204e-01 -4.2074402438019387e-01 7.1911294169870210e-01 2.8809395353997258e-01 -2.9241962709257069e-01 2.7040319001723218e-01 1.7786524526916241e+00 
        </Neuron>
        <Neuron NSynapses="9">
          -1.6327081802390453e+00 -9.2979979285107561e-01 -7.2520206143325139e-01 8.1724363377329068e-01 1.6759314866988071e+00 2.8484254189594471e-01 7.5216282268971207e-03 -1.0890739335517262e-01 -1.1109892100562542e-01 
        </Neuron>
        <Neuron NSynapses="9">
          -1.0828227932794794e+00 1.8120263940767023e+00 -6.7684389996079752e-01 1.1478684017058236e+00 1.2716165517412614e+00 1.3308128345941503e+00 2.1430079572365108e+00 5.6893452145244794e-01 -5.3883143292271884e-01 
        </Neuron>
        <Neuron NSynapses="9">
          -1.3619044100207094e+00 8.9312536024735867e-01 -9.3250973870910747e-01 1.9557605503318369e+00 1.9652920658329853e+00 1.7510239295474173e+00 1.8668957659707535e+00 -1.8990699235991741e+00 1.6672157490078101e+00 
        </Neuron>
        <Neuron NSynapses="9">
          -1.4720445602433194e+00 -1.1341676283477882e+00 -2.1047786777580216e-01 -5.4261165727899108e-01 1.8690743164373240e+00 8.8993996692558008e-01 -4.9899094787711840e-01 8.0174378692273407e-01 -8.9365366484865733e-02 
        </Neuron>
        <Neuron NSynapses="9">
          2.9072027363191077e-01 1.5530429173094775e+00 -2.8410716824745230e-01 3.0527991988086672e-01 -8.7528260456661489e-01 2.9052394350483601e-01 3.3639137480494963e-01 3.9647607482087971e-01 -1.0607570488139300e+00 
        </Neuron>
        <Neuron NSynapses="9">
          4.1670402347550034e-01 1.2595959910872236e+00 -2.5640077616163748e-01 3.3801196418516094e-01 -1.0426234418078548e+00 -6.9085805946844700e-02 3.1710723692636833e-01 -1.5141827271650883e+00 1.3119978063891848e+00 
        </Neuron>
        <Neuron NSynapses="9">
          1.6619181477934826e+00 1.4968896614356313e+00 -2.2374379000816118e+00 -2.2758065772733334e+00 -1.2290242442126309e+00 7.2472951591922219e-01 -2.0408520247429598e+00 -2.5246514935679474e+00 -2.0278666921891451e+00 
        </Neuron>
      </Layer>
      <Layer Index="1" NNeurons="10">
        <Neuron NSynapses="9">
          3.7358339490673037e-01 -1.0330180342373452e-01 1.8264140010771555e+00 -1.5280003340339352e+00 -1.4919783131680027e+00 1.8103793526884617e+00 -9.3969078427929054e-01 -1.5511745556105565e+00 -1.9134970359999339e+00 
        </Neuron>
        <Neuron NSynapses="9">
          5.1416093709819699e-01 -1.6810274842836170e+00 -1.6533010325724968e+00 -3.4351603468703043e-02 6.0686947497585120e-01 -7.9435943783570351e-01 1.4773377632287217e+00 -1.9758344348415971e-01 -5.2778063696146915e-01 
        </Neuron>
        <Neuron NSynapses="9">
          -1.4799590620800591e+00 1.3841030903427806e-01 -1.2384888053003500e+00 7.7258861227585041e-01 1.5214499311691327e+00 -2.5232680378333638e-01 -1.3657515347154874e+00 1.8153825082803943e+00 2.3320861133077536e-01 
        </Neuron>
        <Neuron NSynapses="9">
          1.0582939026532272e-01 7.8554771553210367e-01 -2.8484325687808565e-01 -1.0146652134202832e+00 6.2240841164256111e-01 -1.0224503404453078e+00 1.7579087289803206e+00 9.6978865753269461e-01 5.4243638166866737e-01 
        </Neuron>
        <Neuron NSynapses="9">
          -6.4139388677611786e-01 2.9012335756067553e-01 -2.3688196816156308e+00 1.9138483055539332e-01 6.0179061066348638e-01 -1.6773694322062040e+00 5.5201129756318901e-01 -1.2487689456281323e+00 3.5282044072370383e-01 
        </Neuron>
        <Neuron NSynapses="9">
          9.4841132638418557e-01 2.0522721168712668e+00 -1.7917546010190268e+00 -4.1207114577601978e-01 7.4046660817127019e-01 1.7886504144116742e+00 -2.3809602108139680e-01 -9.6368367515075570e-01 -1.1692501701393587e-01 
        </Neuron>
        <Neuron NSynapses="9">
          -8.7738009786973636e-01 1.3957138220090624e+00 7.8009363874930771e-01 -8.2779900755242186e-01 3.6772303952370705e-01 -9.2515617609903206e-02 -1.0860150992472581e+00 3.8431592074065474e-01 1.1724171805367876e+00 
        </Neuron>
        <Neuron NSynapses="9">
          -2.7540299703387655e-01 -8.2015396379780947e-01 4.8514519690418578e-01 1.3380877503802948e+00 9.1249851983146890e-01 7.2244496516939549e-01 -1.5789643761140935e+00 1.7175367002342881e+00 1.1637613202254415e+00 
        </Neuron>
        <Neuron NSynapses="9">
          -2.7848371192696003e-01 4.0930692132954616e-01 4.7526370808677115e-01 6.8855419564249690e-02 4.0498815358579826e-01 6.3828890882061506e-01 -9.4504450263377648e-01 -6.5798474982053834e-01 1.1025944692929082e+00 
        </Neuron>
        <Neuron NSynapses="9">
          2.1990859085247356e+00 -1.3802279928468497e-01 1.7383073754729454e+00 1.8135296989853920e+00 -2.9774042573975570e+00 9.4429542493082907e-01 -6.2013113185420965e-02 4.7511369741664417e-01 -2.2954813091116306e+00 
        </Neuron>
      </Layer>
      <Layer Index="2" NNeurons="10">
        <Neuron NSynapses="1">
          8.9149849549825089e-01 
        </Neuron>
        <Neuron NSynapses="1">
          1.1785064593512525e-02 
        </Neuron>
        <Neuron NSynapses="1">
          -2.4705131628101409e-02 
        </Neuron>
        <Neuron NSynapses="1">
          -7.8221406488050760e-02 
        </Neuron>
        <Neuron NSynapses="1">
          6.7998138142410258e-01 
        </Neuron>
        <Neuron NSynapses="1">
          1.4357845579536693e-01 
        </Neuron>
        <Neuron NSynapses="1">
          8.7564832101077669e-03 
        </Neuron>
        <Neuron NSynapses="1">
          -2.7846138729049303e-02 
        </Neuron>
        <Neuron NSynapses="1">
          4.0916878277481417e-01 
        </Neuron>
        <Neuron NSynapses="1">
          -1.6853577003434023e-01 
        </Neuron>
      </Layer>
      <Layer Index="3" NNeurons="1">
        <Neuron NSynapses="0"/>
      </Layer>
    </Layout>
  </Weights>
</MethodSetup>
