<?xml version="1.0"?>
<MethodSetup Method="MLP::XS_22_47_0_cap">
  <GeneralInfo>
    <Info name="TMVA Release" value="4.2.0 [262656]"/>
    <Info name="ROOT Release" value="5.34/14 [336398]"/>
    <Info name="Creator" value="courtin"/>
    <Info name="Date" value="Thu Dec 17 22:37:04 2015"/>
    <Info name="Host" value="Linux nansl3.in2p3.fr 2.6.32-431.20.3.el6.x86_64 #1 SMP Thu Jun 19 14:01:59 CDT 2014 x86_64 x86_64 x86_64 GNU/Linux"/>
    <Info name="Dir" value="/scratch/spallati/courtin/WORK/BdD_MOxEUS/MOxEUS_NN/XSM/MLP/Train"/>
    <Info name="Training events" value="59870"/>
    <Info name="TrainingTime" value="2.65163889e+03"/>
    <Info name="AnalysisType" value="Regression"/>
  </GeneralInfo>
  <Options>
    <Option name="NCycles" modified="Yes">20000</Option>
    <Option name="HiddenLayers" modified="Yes">N,N</Option>
    <Option name="NeuronType" modified="Yes">tanh</Option>
    <Option name="RandomSeed" modified="No">1</Option>
    <Option name="EstimatorType" modified="No">MSE</Option>
    <Option name="NeuronInputType" modified="No">sum</Option>
    <Option name="V" modified="Yes">False</Option>
    <Option name="VerbosityLevel" modified="No">Default</Option>
    <Option name="VarTransform" modified="Yes">Norm</Option>
    <Option name="H" modified="Yes">False</Option>
    <Option name="CreateMVAPdfs" modified="No">False</Option>
    <Option name="IgnoreNegWeightsInTraining" modified="No">False</Option>
    <Option name="TrainingMethod" modified="Yes">BFGS</Option>
    <Option name="LearningRate" modified="No">2.000000e-02</Option>
    <Option name="DecayRate" modified="No">1.000000e-02</Option>
    <Option name="TestRate" modified="Yes">6</Option>
    <Option name="EpochMonitoring" modified="No">False</Option>
    <Option name="Sampling" modified="Yes">3.000000e-01</Option>
    <Option name="SamplingEpoch" modified="Yes">8.000000e-01</Option>
    <Option name="SamplingImportance" modified="No">1.000000e+00</Option>
    <Option name="SamplingTraining" modified="No">True</Option>
    <Option name="SamplingTesting" modified="No">False</Option>
    <Option name="ResetStep" modified="No">50</Option>
    <Option name="Tau" modified="No">3.000000e+00</Option>
    <Option name="BPMode" modified="No">sequential</Option>
    <Option name="BatchSize" modified="No">-1</Option>
    <Option name="ConvergenceImprove" modified="Yes">1.000000e-06</Option>
    <Option name="ConvergenceTests" modified="Yes">15</Option>
    <Option name="UseRegulator" modified="Yes">False</Option>
    <Option name="UpdateLimit" modified="No">10000</Option>
    <Option name="CalculateErrors" modified="No">False</Option>
    <Option name="WeightRange" modified="No">1.000000e+00</Option>
  </Options>
  <Variables NVar="9">
    <Variable VarIndex="0" Expression="U5" Label="U5" Title="U 235" Unit="FractionIsotopic" Internal="U5" Type="F" Min="2.30270298e-03" Max="4.67000641e-02"/>
    <Variable VarIndex="1" Expression="U8" Label="U8" Title="U 238" Unit="FractionIsotopic" Internal="U8" Type="F" Min="8.04198325e-01" Max="9.53872919e-01"/>
    <Variable VarIndex="2" Expression="Pu8" Label="Pu8" Title="Pu 238" Unit="FractionIsotopic" Internal="Pu8" Type="F" Min="2.39272078e-04" Max="1.25759691e-02"/>
    <Variable VarIndex="3" Expression="Pu9" Label="Pu9" Title="Pu 239" Unit="FractionIsotopic" Internal="Pu9" Type="F" Min="3.92307848e-04" Max="1.18448287e-01"/>
    <Variable VarIndex="4" Expression="Pu10" Label="Pu10" Title="Pu 240" Unit="FractionIsotopic" Internal="Pu10" Type="F" Min="4.57230024e-03" Max="6.08281456e-02"/>
    <Variable VarIndex="5" Expression="Pu11" Label="Pu11" Title="Pu 241" Unit="FractionIsotopic" Internal="Pu11" Type="F" Min="2.07281264e-05" Max="3.61828022e-02"/>
    <Variable VarIndex="6" Expression="Pu12" Label="Pu12" Title="Pu 242" Unit="FractionIsotopic" Internal="Pu12" Type="F" Min="6.52248855e-04" Max="5.31211868e-02"/>
    <Variable VarIndex="7" Expression="Am1" Label="Am1" Title="Am 241" Unit="FractionIsotopic" Internal="Am1" Type="F" Min="6.82462883e-07" Max="1.22549152e-02"/>
    <Variable VarIndex="8" Expression="Time" Label="Time" Title="Time" Unit="seconds" Internal="Time" Type="F" Min="0.00000000e+00" Max="1.89328304e+08"/>
  </Variables>
  <Spectators NSpec="0"/>
  <Classes NClass="1">
    <Class Name="Regression" Index="0"/>
  </Classes>
  <Targets NTrgt="1">
    <Target TargetIndex="0" Expression="XS_22_47_0_cap" Label="XS_22_47_0_cap" Title="XS_22_47_0_cap" Unit="" Internal="XS_22_47_0_cap" Type="F" Min="6.79695830e-02" Max="3.29551488e-01"/>
  </Targets>
  <Transformations NTransformations="1">
    <Transform Name="Normalize">
      <Selection>
        <Input NInputs="10">
          <Input Type="Variable" Label="U5" Expression="U5"/>
          <Input Type="Variable" Label="U8" Expression="U8"/>
          <Input Type="Variable" Label="Pu8" Expression="Pu8"/>
          <Input Type="Variable" Label="Pu9" Expression="Pu9"/>
          <Input Type="Variable" Label="Pu10" Expression="Pu10"/>
          <Input Type="Variable" Label="Pu11" Expression="Pu11"/>
          <Input Type="Variable" Label="Pu12" Expression="Pu12"/>
          <Input Type="Variable" Label="Am1" Expression="Am1"/>
          <Input Type="Variable" Label="Time" Expression="Time"/>
          <Input Type="Target" Label="XS_22_47_0_cap" Expression="XS_22_47_0_cap"/>
        </Input>
        <Output NOutputs="10">
          <Output Type="Variable" Label="U5" Expression="U5"/>
          <Output Type="Variable" Label="U8" Expression="U8"/>
          <Output Type="Variable" Label="Pu8" Expression="Pu8"/>
          <Output Type="Variable" Label="Pu9" Expression="Pu9"/>
          <Output Type="Variable" Label="Pu10" Expression="Pu10"/>
          <Output Type="Variable" Label="Pu11" Expression="Pu11"/>
          <Output Type="Variable" Label="Pu12" Expression="Pu12"/>
          <Output Type="Variable" Label="Am1" Expression="Am1"/>
          <Output Type="Variable" Label="Time" Expression="Time"/>
          <Output Type="Target" Label="XS_22_47_0_cap" Expression="XS_22_47_0_cap"/>
        </Output>
      </Selection>
      <Class ClassIndex="0">
        <Ranges>
          <Range Index="0" Min="2.3027029819786549e-03" Max="4.6700064092874527e-02"/>
          <Range Index="1" Min="8.0419832468032837e-01" Max="9.5387291908264160e-01"/>
          <Range Index="2" Min="2.3927207803353667e-04" Max="1.2575969099998474e-02"/>
          <Range Index="3" Min="3.9230784750543535e-04" Max="1.1844828724861145e-01"/>
          <Range Index="4" Min="4.5723002403974533e-03" Max="6.0828145593404770e-02"/>
          <Range Index="5" Min="2.0728126401081681e-05" Max="3.6182802170515060e-02"/>
          <Range Index="6" Min="6.5224885474890471e-04" Max="5.3121186792850494e-02"/>
          <Range Index="7" Min="6.8246288265072508e-07" Max="1.2254915200173855e-02"/>
          <Range Index="8" Min="0.0000000000000000e+00" Max="1.8932830400000000e+08"/>
          <Range Index="9" Min="6.7969582974910736e-02" Max="3.2955148816108704e-01"/>
        </Ranges>
      </Class>
    </Transform>
  </Transformations>
  <MVAPdfs/>
  <Weights>
    <Layout NLayers="4">
      <Layer Index="0" NNeurons="10">
        <Neuron NSynapses="9">
          -5.6800123327734242e-01 1.4395585525784829e+00 -4.7033176360834095e-01 1.0428816340297795e+00 -2.1098271564164534e-01 -1.2937719346405259e-02 -2.4532826978847033e-01 7.6804110947155146e-01 -1.0575496167706705e-01 
        </Neuron>
        <Neuron NSynapses="9">
          -1.9227562282632886e+00 -2.7523180805416172e+00 -1.7370501875547906e+00 1.7921527767599427e-01 -1.1415427222548007e+00 -5.4011890157517273e-01 5.8384968600309683e-01 -6.2370604998310453e-01 2.0487196181598453e+00 
        </Neuron>
        <Neuron NSynapses="9">
          5.3667822963939675e-02 1.5166878257198404e+00 -1.5093057590761241e-01 3.1282746044215555e-02 -5.0570790182008507e-01 1.2474529207434561e-02 -1.1251793263764558e-02 3.1131364483590734e-01 4.9121196367963732e-01 
        </Neuron>
        <Neuron NSynapses="9">
          -1.5552179834544642e+00 4.2894284263552201e-01 -4.8667283905474518e-01 9.4347523248050569e-01 2.8895496411075738e+00 2.1244318593230671e-01 7.3844249489678204e-01 1.9527623713299902e+00 -1.1976956632283386e+00 
        </Neuron>
        <Neuron NSynapses="9">
          -3.0233063240238622e-01 2.0673405057630720e+00 -8.8123532758131962e-01 8.4649555123288267e-01 -1.0375952134848705e+00 1.1429613091379340e-01 1.7065636261854149e+00 1.4639722769879713e+00 8.2604153241005307e-01 
        </Neuron>
        <Neuron NSynapses="9">
          -1.0410411708691205e+00 1.2025612055367112e+00 -1.0581709257332343e-01 1.4436034920704459e+00 1.5458725796098214e+00 7.8311201880153763e-03 1.7613419526236835e+00 -1.2313878443218984e-01 -3.8191709508009253e-01 
        </Neuron>
        <Neuron NSynapses="9">
          -5.9902562882218491e-01 -9.6370596525287622e-01 -6.8413426988834969e-01 -1.7725725177820156e-01 -2.6975960629656309e-01 -1.2041803848545923e-01 -2.5415744880286623e-01 6.2220801827658012e-01 1.0996897127055341e+00 
        </Neuron>
        <Neuron NSynapses="9">
          -1.7692330747114227e-01 2.1849347559762280e+00 -3.6739519636234189e-02 8.9119976579750138e-01 -8.1117928166901401e-02 2.1743844979591524e-02 4.4897700145547614e-01 8.8653709443821882e-01 1.1135187285360801e-01 
        </Neuron>
        <Neuron NSynapses="9">
          3.9600980644683420e-01 -2.8365847772239033e-01 8.6554944981167270e-01 -1.5493769890445611e-01 -1.8770517487485137e+00 -1.3187100953791644e-01 1.3146910091169148e-01 -6.7908997124007844e-02 1.7948865410326875e+00 
        </Neuron>
        <Neuron NSynapses="9">
          1.1833861274582036e+00 -1.1414025963977542e-01 1.8310064991529287e+00 -3.6974628194007715e+00 6.9375061169686558e-01 1.2516303798865156e+00 -3.2296989005769614e+00 -3.7137655490956347e+00 -2.6728909338630147e+00 
        </Neuron>
      </Layer>
      <Layer Index="1" NNeurons="10">
        <Neuron NSynapses="9">
          6.7516522076222241e-01 6.0998829674991456e-02 1.0579093145132556e+00 -1.9003518641191639e+00 -5.3983092955368817e-01 1.9801931239423405e+00 -9.2959938171909462e-01 -2.0537817345853542e+00 -1.7774777530230488e+00 
        </Neuron>
        <Neuron NSynapses="9">
          8.6036709980230297e-01 -1.5340410997725107e+00 -1.6270814647871203e+00 5.1650666922477925e-02 9.9185763513285046e-05 -7.7220063448051968e-01 7.9504139290011289e-01 -9.5575490188892609e-01 -5.3516567370985790e-01 
        </Neuron>
        <Neuron NSynapses="9">
          4.1565397285215028e-01 -2.8128225883837543e-01 -1.7386420253795580e+00 2.6789252883370067e+00 5.7892451796002842e-01 3.9193204501174067e-01 -2.6236354253035707e+00 1.2020029561812329e+00 2.6014069429692943e-01 
        </Neuron>
        <Neuron NSynapses="9">
          -3.8676126963566321e-01 7.0780888271364506e-01 -1.3698000504141252e+00 5.0973414021870389e-01 9.9940586088291053e-03 -7.4686152278500395e-01 1.5123862144003402e+00 1.3636152824552823e+00 3.7275834439863398e-01 
        </Neuron>
        <Neuron NSynapses="9">
          -8.2708353735513873e-01 1.0476483965061893e+00 -1.3433621952201922e+00 1.2103681751851075e-01 2.6510611594231116e-03 -1.7514447618904769e+00 -1.0005855645359563e-01 -5.9077421408294784e-01 2.7867179017056876e-01 
        </Neuron>
        <Neuron NSynapses="9">
          1.0085264455046845e+00 1.7808532565371658e+00 -1.6063207539380242e+00 3.1344476806550619e+00 1.1256600110721187e+00 1.6298907023095044e+00 4.5170229770501980e-01 -1.3426873874869178e+00 -1.0207153066684259e-01 
        </Neuron>
        <Neuron NSynapses="9">
          -6.0888633689472804e-01 1.3181694491514551e+00 1.1234150776004990e+00 1.1654202285022852e+00 -7.6612192245655894e-02 -1.4034703086678402e-01 -1.3465490502483719e+00 7.0278941444399401e-01 1.5239441663470550e+00 
        </Neuron>
        <Neuron NSynapses="9">
          -8.5695280809117957e-01 -2.2022828706892197e-01 -1.7181761525910164e-01 1.3687343765673752e+00 2.4701185162530614e-01 7.0338434304991848e-01 -1.3276359965882392e+00 1.7058978195040426e+00 1.0605652492735600e+00 
        </Neuron>
        <Neuron NSynapses="9">
          -5.5313875174684279e-01 3.5499841214784006e-01 1.3927841504360312e+00 1.1468955621983488e-01 -3.6911523530885879e-02 4.4667586195944253e-01 -4.4690621300707956e-01 -7.5171027566393334e-01 1.1383091886583121e+00 
        </Neuron>
        <Neuron NSynapses="9">
          2.5314706351631355e+00 4.5282300513780141e-02 1.0075106051204383e+00 1.5812966412388294e+00 -1.6044996734222325e+00 1.1554486559346491e+00 -1.0429534617722135e-01 -5.5398477919924277e-02 -2.0866656396996839e+00 
        </Neuron>
      </Layer>
      <Layer Index="2" NNeurons="10">
        <Neuron NSynapses="1">
          3.8734053853088496e-01 
        </Neuron>
        <Neuron NSynapses="1">
          6.8029504575533835e-04 
        </Neuron>
        <Neuron NSynapses="1">
          -1.0475099328238003e-02 
        </Neuron>
        <Neuron NSynapses="1">
          -1.8801046530705765e+00 
        </Neuron>
        <Neuron NSynapses="1">
          -2.5552752578933040e+00 
        </Neuron>
        <Neuron NSynapses="1">
          2.8240763882360820e-01 
        </Neuron>
        <Neuron NSynapses="1">
          2.0457244915165190e-03 
        </Neuron>
        <Neuron NSynapses="1">
          -2.5114692655786326e-04 
        </Neuron>
        <Neuron NSynapses="1">
          4.5669262015818779e-01 
        </Neuron>
        <Neuron NSynapses="1">
          -7.2813129811377231e-01 
        </Neuron>
      </Layer>
      <Layer Index="3" NNeurons="1">
        <Neuron NSynapses="0"/>
      </Layer>
    </Layout>
  </Weights>
</MethodSetup>
