<?xml version="1.0"?>
<MethodSetup Method="MLP::XS_93_239_0_cap">
  <GeneralInfo>
    <Info name="TMVA Release" value="4.2.0 [262656]"/>
    <Info name="ROOT Release" value="5.34/18 [336402]"/>
    <Info name="Creator" value="leniau"/>
    <Info name="Date" value="Wed Jul  2 06:30:29 2014"/>
    <Info name="Host" value="Linux nansl3.in2p3.fr 2.6.32-358.11.1.el6.x86_64 #1 SMP Tue Jun 11 17:23:30 CDT 2013 x86_64 x86_64 x86_64 GNU/Linux"/>
    <Info name="Dir" value="/scratch/spallati/leniau/Projets_CLASS/TMVA/BASE_MONOMOX_MLP/Build_XS_Predictor"/>
    <Info name="Training events" value="25811"/>
    <Info name="TrainingTime" value="2.04984760e+03"/>
    <Info name="AnalysisType" value="Regression"/>
  </GeneralInfo>
  <Options>
    <Option name="NCycles" modified="Yes">20000</Option>
    <Option name="HiddenLayers" modified="Yes">N,N</Option>
    <Option name="NeuronType" modified="Yes">tanh</Option>
    <Option name="RandomSeed" modified="No">1</Option>
    <Option name="EstimatorType" modified="No">MSE</Option>
    <Option name="NeuronInputType" modified="No">sum</Option>
    <Option name="V" modified="Yes">False</Option>
    <Option name="VerbosityLevel" modified="No">Default</Option>
    <Option name="VarTransform" modified="Yes">Norm</Option>
    <Option name="H" modified="Yes">False</Option>
    <Option name="CreateMVAPdfs" modified="No">False</Option>
    <Option name="IgnoreNegWeightsInTraining" modified="No">False</Option>
    <Option name="TrainingMethod" modified="Yes">BFGS</Option>
    <Option name="LearningRate" modified="No">2.000000e-02</Option>
    <Option name="DecayRate" modified="No">1.000000e-02</Option>
    <Option name="TestRate" modified="Yes">6</Option>
    <Option name="EpochMonitoring" modified="No">False</Option>
    <Option name="Sampling" modified="Yes">3.000000e-01</Option>
    <Option name="SamplingEpoch" modified="Yes">8.000000e-01</Option>
    <Option name="SamplingImportance" modified="No">1.000000e+00</Option>
    <Option name="SamplingTraining" modified="No">True</Option>
    <Option name="SamplingTesting" modified="No">False</Option>
    <Option name="ResetStep" modified="No">50</Option>
    <Option name="Tau" modified="No">3.000000e+00</Option>
    <Option name="BPMode" modified="No">sequential</Option>
    <Option name="BatchSize" modified="No">-1</Option>
    <Option name="ConvergenceImprove" modified="Yes">1.000000e-06</Option>
    <Option name="ConvergenceTests" modified="Yes">15</Option>
    <Option name="UseRegulator" modified="Yes">False</Option>
    <Option name="UpdateLimit" modified="No">10000</Option>
    <Option name="CalculateErrors" modified="No">False</Option>
    <Option name="WeightRange" modified="No">1.000000e+00</Option>
  </Options>
  <Variables NVar="9">
    <Variable VarIndex="0" Expression="U5" Label="U5" Title="U 235" Unit="FractionIsotopic" Internal="U5" Type="F" Min="1.70790544e-03" Max="3.82024585e-03"/>
    <Variable VarIndex="1" Expression="U8" Label="U8" Title="U 238" Unit="FractionIsotopic" Internal="U8" Type="F" Min="8.46877456e-01" Max="9.57599878e-01"/>
    <Variable VarIndex="2" Expression="Pu8" Label="Pu8" Title="Pu 238" Unit="FractionIsotopic" Internal="Pu8" Type="F" Min="2.04457741e-04" Max="1.07518081e-02"/>
    <Variable VarIndex="3" Expression="Pu9" Label="Pu9" Title="Pu 239" Unit="FractionIsotopic" Internal="Pu9" Type="F" Min="1.34624317e-02" Max="1.10575892e-01"/>
    <Variable VarIndex="4" Expression="Pu10" Label="Pu10" Title="Pu 240" Unit="FractionIsotopic" Internal="Pu10" Type="F" Min="5.54009527e-03" Max="4.70738448e-02"/>
    <Variable VarIndex="5" Expression="Pu11" Label="Pu11" Title="Pu 241" Unit="FractionIsotopic" Internal="Pu11" Type="F" Min="2.52286321e-03" Max="2.77698915e-02"/>
    <Variable VarIndex="6" Expression="Pu12" Label="Pu12" Title="Pu 242" Unit="FractionIsotopic" Internal="Pu12" Type="F" Min="6.26901106e-04" Max="3.05664930e-02"/>
    <Variable VarIndex="7" Expression="Am1" Label="Am1" Title="Am 241" Unit="FractionIsotopic" Internal="Am1" Type="F" Min="2.08963102e-05" Max="1.11369798e-02"/>
    <Variable VarIndex="8" Expression="Time" Label="Time" Title="Time" Unit="seconds" Internal="Time" Type="F" Min="0.00000000e+00" Max="1.57788000e+08"/>
  </Variables>
  <Spectators NSpec="0"/>
  <Classes NClass="1">
    <Class Name="Regression" Index="0"/>
  </Classes>
  <Targets NTrgt="1">
    <Target TargetIndex="0" Expression="XS_93_239_0_cap" Label="XS_93_239_0_cap" Title="XS_93_239_0_cap" Unit="" Internal="XS_93_239_0_cap" Type="F" Min="1.13184395e+01" Max="1.54198723e+01"/>
  </Targets>
  <Transformations NTransformations="1">
    <Transform Name="Normalize">
      <Selection>
        <Input NInputs="10">
          <Input Type="Variable" Label="U5" Expression="U5"/>
          <Input Type="Variable" Label="U8" Expression="U8"/>
          <Input Type="Variable" Label="Pu8" Expression="Pu8"/>
          <Input Type="Variable" Label="Pu9" Expression="Pu9"/>
          <Input Type="Variable" Label="Pu10" Expression="Pu10"/>
          <Input Type="Variable" Label="Pu11" Expression="Pu11"/>
          <Input Type="Variable" Label="Pu12" Expression="Pu12"/>
          <Input Type="Variable" Label="Am1" Expression="Am1"/>
          <Input Type="Variable" Label="Time" Expression="Time"/>
          <Input Type="Target" Label="XS_93_239_0_cap" Expression="XS_93_239_0_cap"/>
        </Input>
        <Output NOutputs="10">
          <Output Type="Variable" Label="U5" Expression="U5"/>
          <Output Type="Variable" Label="U8" Expression="U8"/>
          <Output Type="Variable" Label="Pu8" Expression="Pu8"/>
          <Output Type="Variable" Label="Pu9" Expression="Pu9"/>
          <Output Type="Variable" Label="Pu10" Expression="Pu10"/>
          <Output Type="Variable" Label="Pu11" Expression="Pu11"/>
          <Output Type="Variable" Label="Pu12" Expression="Pu12"/>
          <Output Type="Variable" Label="Am1" Expression="Am1"/>
          <Output Type="Variable" Label="Time" Expression="Time"/>
          <Output Type="Target" Label="XS_93_239_0_cap" Expression="XS_93_239_0_cap"/>
        </Output>
      </Selection>
      <Class ClassIndex="0">
        <Ranges>
          <Range Index="0" Min="1.7079054377973080e-03" Max="3.8202458526939154e-03"/>
          <Range Index="1" Min="8.4687745571136475e-01" Max="9.5759987831115723e-01"/>
          <Range Index="2" Min="2.0445774134714156e-04" Max="1.0751808062195778e-02"/>
          <Range Index="3" Min="1.3462431728839874e-02" Max="1.1057589203119278e-01"/>
          <Range Index="4" Min="5.5400952696800232e-03" Max="4.7073844820261002e-02"/>
          <Range Index="5" Min="2.5228632148355246e-03" Max="2.7769891545176506e-02"/>
          <Range Index="6" Min="6.2690110644325614e-04" Max="3.0566493049263954e-02"/>
          <Range Index="7" Min="2.0896310161333531e-05" Max="1.1136979795992374e-02"/>
          <Range Index="8" Min="0.0000000000000000e+00" Max="1.5778800000000000e+08"/>
          <Range Index="9" Min="1.1318439483642578e+01" Max="1.5419872283935547e+01"/>
        </Ranges>
      </Class>
    </Transform>
  </Transformations>
  <MVAPdfs/>
  <Weights>
    <Layout NLayers="4">
      <Layer Index="0" NNeurons="10">
        <Neuron NSynapses="9">
          -9.2372084438920962e-02 -3.9040631479756026e-02 -1.8538086904862142e-02 9.5123534526278895e-03 1.7546011158711389e-01 3.1193573929307510e-03 3.7990460179402052e-02 -2.9085868681933115e-02 3.6741669112049020e-02 
        </Neuron>
        <Neuron NSynapses="9">
          -7.9342909268222250e-01 -2.1100436192225724e+00 -1.0992191157678244e+00 -5.8595412470720387e-01 -1.0640709762362186e+00 -3.9115983520918940e-01 1.1664148314248137e+00 -1.0899573873825261e+00 2.1358373425375352e+00 
        </Neuron>
        <Neuron NSynapses="9">
          5.2101370368977939e-02 3.4312639777320286e-01 -1.2237818348865334e-01 3.0870780658288259e-03 -3.3663403388862206e-01 7.9432260617894115e-03 2.2380955183826731e-01 8.5945196596500812e-03 3.8181529225136557e-01 
        </Neuron>
        <Neuron NSynapses="9">
          -2.2491718167706196e+00 -9.6788863230496880e-01 -7.3161797186568822e-01 1.1369578798965380e-01 2.8389559213496152e+00 3.2275541739388230e-01 -4.8377603156566126e-02 9.1664650709284379e-01 -1.2316359002227324e+00 
        </Neuron>
        <Neuron NSynapses="9">
          -7.7706579635226025e-01 9.2748820452683500e-01 -7.1933273435693812e-01 -1.0405126502699584e-01 1.0298278056112491e+00 1.0890617118697342e-01 1.1721008246248323e+00 1.4295079606699062e+00 2.4662026226219960e-01 
        </Neuron>
        <Neuron NSynapses="9">
          -1.4209971021322840e+00 -6.6408641805049007e-01 8.4844529319964807e-02 2.3449573512589436e-01 1.0983284701146165e+00 4.6297577141202494e-02 1.5818309894820313e+00 -1.2679135584077230e+00 -1.0666461696035055e-01 
        </Neuron>
        <Neuron NSynapses="9">
          -6.3367900725653081e-01 1.1763270498869055e-01 -3.7930227387180854e-01 -1.3538288001412338e-01 2.9424235096065626e-01 -4.6666320526060359e-02 9.8348010178123002e-02 3.3488460980625001e-01 5.2945905944615845e-01 
        </Neuron>
        <Neuron NSynapses="9">
          -2.9306927276549877e-01 2.1050814532124956e-01 -6.7117253643603547e-02 4.7425493053867597e-02 2.2036900120631331e-01 3.0977699767288338e-02 2.0785125730429993e-01 -1.4990756217666054e-01 7.1608850699160301e-02 
        </Neuron>
        <Neuron NSynapses="9">
          7.4366418476311935e-01 3.2306074692697540e-01 6.6406356296072688e-01 -1.1860336216624720e-01 -7.7888109502726210e-01 -1.2380433319061761e-01 2.6184654398541918e-01 5.0514149641289463e-01 1.6636075758349913e+00 
        </Neuron>
        <Neuron NSynapses="9">
          1.0250086701659913e+00 1.5150436556037599e+00 7.3338235155181453e-01 -7.1160471664952607e-01 -2.5885456931495837e-01 1.2892639225983265e+00 -2.8589081173687108e+00 -1.7841264981624307e+00 -1.5543579154980010e+00 
        </Neuron>
      </Layer>
      <Layer Index="1" NNeurons="10">
        <Neuron NSynapses="9">
          3.9544474700996024e-01 8.5225597342036968e-02 1.0112734729962780e+00 -1.3978574981272194e+00 -5.3923132756407421e-02 1.7333963212422219e+00 -5.1391266152594950e-01 -1.6868587792543688e+00 -1.5522105767921877e+00 
        </Neuron>
        <Neuron NSynapses="9">
          7.9693462903010492e-02 -2.8817187068305389e-01 -1.3768900801105006e+00 1.3821924551284562e-01 1.4739741457846806e-01 -1.3127082682334714e+00 3.4484565128057981e-01 -6.5971315597394797e-01 -7.6549872539924202e-01 
        </Neuron>
        <Neuron NSynapses="9">
          3.3175181928612135e-01 1.7414920058378155e-01 -1.2327174689404685e+00 2.0589580234294202e+00 1.9431764504224394e-01 3.8666681497757671e-01 -1.6939079212111441e+00 1.6977360351777238e+00 3.3753814380274283e-01 
        </Neuron>
        <Neuron NSynapses="9">
          -8.6167602418454603e-01 4.7602519740212035e-01 -1.1956681958492674e+00 1.2547461191835382e-01 -3.6211434299067778e-02 -2.2636611071105725e-01 1.3788905552497674e+00 3.4589219362016999e-01 4.2164101430909658e-02 
        </Neuron>
        <Neuron NSynapses="9">
          -7.5592118167731936e-01 -2.2698536092194874e-01 -1.5845683828699486e+00 5.5732252066869208e-02 1.1363563924458664e-01 -1.4155557849876996e+00 5.0377372201963311e-01 -1.4574603445411434e+00 6.8737571488574983e-02 
        </Neuron>
        <Neuron NSynapses="9">
          9.6388617205652316e-01 1.6033691158053291e+00 -2.1629822668885876e+00 1.2737937872803087e+00 8.5501081881179630e-01 1.7040039471635411e+00 9.7000626629912101e-01 -2.6538101514380092e+00 -2.9189282358466856e-01 
        </Neuron>
        <Neuron NSynapses="9">
          -9.5845072738533366e-01 7.7806090488292023e-01 8.7296061885513110e-01 2.5582869715508849e-01 -6.4732072852859512e-01 5.7446980722985397e-01 -1.5773695641322198e+00 4.3864474513519053e-01 1.6946924864366906e+00 
        </Neuron>
        <Neuron NSynapses="9">
          -8.9808597751531805e-01 1.2486353608135603e-01 4.1576174723409881e-03 1.2118979622802704e+00 -4.9091426180133312e-02 5.8415934232950373e-01 -1.5789522268409040e+00 9.3462619711097628e-01 8.4457684121728938e-01 
        </Neuron>
        <Neuron NSynapses="9">
          5.5551337477748965e-02 -1.4656081660662756e-01 1.0025920220726252e+00 -3.5306107364560890e-01 1.0057360816059524e-01 8.9098018904754606e-01 -1.3447143762005556e+00 -2.9832001857731644e-01 1.4454945146154816e+00 
        </Neuron>
        <Neuron NSynapses="9">
          1.8607228968587215e+00 -4.9378039487456654e-01 9.6503321225930472e-01 2.1225256300714319e+00 -1.8181478759015877e+00 8.0842627340741169e-01 3.3478048534997251e-01 2.5194218503969651e-01 -1.7755747293726369e+00 
        </Neuron>
      </Layer>
      <Layer Index="2" NNeurons="10">
        <Neuron NSynapses="1">
          3.6406024830446210e-01 
        </Neuron>
        <Neuron NSynapses="1">
          -8.1088847838039846e-01 
        </Neuron>
        <Neuron NSynapses="1">
          8.5711130231968333e-03 
        </Neuron>
        <Neuron NSynapses="1">
          -1.3403904487156544e+00 
        </Neuron>
        <Neuron NSynapses="1">
          -1.6721440185460696e+00 
        </Neuron>
        <Neuron NSynapses="1">
          -3.4591644477958319e-03 
        </Neuron>
        <Neuron NSynapses="1">
          7.0020034255694145e-03 
        </Neuron>
        <Neuron NSynapses="1">
          4.1145044906934874e-01 
        </Neuron>
        <Neuron NSynapses="1">
          -6.2302274802337687e-01 
        </Neuron>
        <Neuron NSynapses="1">
          -1.5138001594269429e-01 
        </Neuron>
      </Layer>
      <Layer Index="3" NNeurons="1">
        <Neuron NSynapses="0"/>
      </Layer>
    </Layout>
  </Weights>
</MethodSetup>
