<?xml version="1.0"?>
<MethodSetup Method="MLP::XS_80_198_0_n2n">
  <GeneralInfo>
    <Info name="TMVA Release" value="4.2.0 [262656]"/>
    <Info name="ROOT Release" value="5.34/14 [336398]"/>
    <Info name="Creator" value="courtin"/>
    <Info name="Date" value="Thu Dec 17 17:49:49 2015"/>
    <Info name="Host" value="Linux nansl3.in2p3.fr 2.6.32-431.20.3.el6.x86_64 #1 SMP Thu Jun 19 14:01:59 CDT 2014 x86_64 x86_64 x86_64 GNU/Linux"/>
    <Info name="Dir" value="/scratch/spallati/courtin/WORK/BdD_MOxEUS/MOxEUS_NN/XSM/MLP/Train"/>
    <Info name="Training events" value="59870"/>
    <Info name="TrainingTime" value="7.67580413e+02"/>
    <Info name="AnalysisType" value="Regression"/>
  </GeneralInfo>
  <Options>
    <Option name="NCycles" modified="Yes">20000</Option>
    <Option name="HiddenLayers" modified="Yes">N,N</Option>
    <Option name="NeuronType" modified="Yes">tanh</Option>
    <Option name="RandomSeed" modified="No">1</Option>
    <Option name="EstimatorType" modified="No">MSE</Option>
    <Option name="NeuronInputType" modified="No">sum</Option>
    <Option name="V" modified="Yes">False</Option>
    <Option name="VerbosityLevel" modified="No">Default</Option>
    <Option name="VarTransform" modified="Yes">Norm</Option>
    <Option name="H" modified="Yes">False</Option>
    <Option name="CreateMVAPdfs" modified="No">False</Option>
    <Option name="IgnoreNegWeightsInTraining" modified="No">False</Option>
    <Option name="TrainingMethod" modified="Yes">BFGS</Option>
    <Option name="LearningRate" modified="No">2.000000e-02</Option>
    <Option name="DecayRate" modified="No">1.000000e-02</Option>
    <Option name="TestRate" modified="Yes">6</Option>
    <Option name="EpochMonitoring" modified="No">False</Option>
    <Option name="Sampling" modified="Yes">3.000000e-01</Option>
    <Option name="SamplingEpoch" modified="Yes">8.000000e-01</Option>
    <Option name="SamplingImportance" modified="No">1.000000e+00</Option>
    <Option name="SamplingTraining" modified="No">True</Option>
    <Option name="SamplingTesting" modified="No">False</Option>
    <Option name="ResetStep" modified="No">50</Option>
    <Option name="Tau" modified="No">3.000000e+00</Option>
    <Option name="BPMode" modified="No">sequential</Option>
    <Option name="BatchSize" modified="No">-1</Option>
    <Option name="ConvergenceImprove" modified="Yes">1.000000e-06</Option>
    <Option name="ConvergenceTests" modified="Yes">15</Option>
    <Option name="UseRegulator" modified="Yes">False</Option>
    <Option name="UpdateLimit" modified="No">10000</Option>
    <Option name="CalculateErrors" modified="No">False</Option>
    <Option name="WeightRange" modified="No">1.000000e+00</Option>
  </Options>
  <Variables NVar="9">
    <Variable VarIndex="0" Expression="U5" Label="U5" Title="U 235" Unit="FractionIsotopic" Internal="U5" Type="F" Min="2.30270298e-03" Max="4.67000641e-02"/>
    <Variable VarIndex="1" Expression="U8" Label="U8" Title="U 238" Unit="FractionIsotopic" Internal="U8" Type="F" Min="8.04198325e-01" Max="9.53872919e-01"/>
    <Variable VarIndex="2" Expression="Pu8" Label="Pu8" Title="Pu 238" Unit="FractionIsotopic" Internal="Pu8" Type="F" Min="2.39272078e-04" Max="1.25759691e-02"/>
    <Variable VarIndex="3" Expression="Pu9" Label="Pu9" Title="Pu 239" Unit="FractionIsotopic" Internal="Pu9" Type="F" Min="3.92307848e-04" Max="1.18448287e-01"/>
    <Variable VarIndex="4" Expression="Pu10" Label="Pu10" Title="Pu 240" Unit="FractionIsotopic" Internal="Pu10" Type="F" Min="4.57230024e-03" Max="6.08281456e-02"/>
    <Variable VarIndex="5" Expression="Pu11" Label="Pu11" Title="Pu 241" Unit="FractionIsotopic" Internal="Pu11" Type="F" Min="2.07281264e-05" Max="3.61828022e-02"/>
    <Variable VarIndex="6" Expression="Pu12" Label="Pu12" Title="Pu 242" Unit="FractionIsotopic" Internal="Pu12" Type="F" Min="6.52248855e-04" Max="5.31211868e-02"/>
    <Variable VarIndex="7" Expression="Am1" Label="Am1" Title="Am 241" Unit="FractionIsotopic" Internal="Am1" Type="F" Min="6.82462883e-07" Max="1.22549152e-02"/>
    <Variable VarIndex="8" Expression="Time" Label="Time" Title="Time" Unit="seconds" Internal="Time" Type="F" Min="0.00000000e+00" Max="1.89328304e+08"/>
  </Variables>
  <Spectators NSpec="0"/>
  <Classes NClass="1">
    <Class Name="Regression" Index="0"/>
  </Classes>
  <Targets NTrgt="1">
    <Target TargetIndex="0" Expression="XS_80_198_0_n2n" Label="XS_80_198_0_n2n" Title="XS_80_198_0_n2n" Unit="" Internal="XS_80_198_0_n2n" Type="F" Min="1.25590095e-03" Max="2.09905906e-03"/>
  </Targets>
  <Transformations NTransformations="1">
    <Transform Name="Normalize">
      <Selection>
        <Input NInputs="10">
          <Input Type="Variable" Label="U5" Expression="U5"/>
          <Input Type="Variable" Label="U8" Expression="U8"/>
          <Input Type="Variable" Label="Pu8" Expression="Pu8"/>
          <Input Type="Variable" Label="Pu9" Expression="Pu9"/>
          <Input Type="Variable" Label="Pu10" Expression="Pu10"/>
          <Input Type="Variable" Label="Pu11" Expression="Pu11"/>
          <Input Type="Variable" Label="Pu12" Expression="Pu12"/>
          <Input Type="Variable" Label="Am1" Expression="Am1"/>
          <Input Type="Variable" Label="Time" Expression="Time"/>
          <Input Type="Target" Label="XS_80_198_0_n2n" Expression="XS_80_198_0_n2n"/>
        </Input>
        <Output NOutputs="10">
          <Output Type="Variable" Label="U5" Expression="U5"/>
          <Output Type="Variable" Label="U8" Expression="U8"/>
          <Output Type="Variable" Label="Pu8" Expression="Pu8"/>
          <Output Type="Variable" Label="Pu9" Expression="Pu9"/>
          <Output Type="Variable" Label="Pu10" Expression="Pu10"/>
          <Output Type="Variable" Label="Pu11" Expression="Pu11"/>
          <Output Type="Variable" Label="Pu12" Expression="Pu12"/>
          <Output Type="Variable" Label="Am1" Expression="Am1"/>
          <Output Type="Variable" Label="Time" Expression="Time"/>
          <Output Type="Target" Label="XS_80_198_0_n2n" Expression="XS_80_198_0_n2n"/>
        </Output>
      </Selection>
      <Class ClassIndex="0">
        <Ranges>
          <Range Index="0" Min="2.3027029819786549e-03" Max="4.6700064092874527e-02"/>
          <Range Index="1" Min="8.0419832468032837e-01" Max="9.5387291908264160e-01"/>
          <Range Index="2" Min="2.3927207803353667e-04" Max="1.2575969099998474e-02"/>
          <Range Index="3" Min="3.9230784750543535e-04" Max="1.1844828724861145e-01"/>
          <Range Index="4" Min="4.5723002403974533e-03" Max="6.0828145593404770e-02"/>
          <Range Index="5" Min="2.0728126401081681e-05" Max="3.6182802170515060e-02"/>
          <Range Index="6" Min="6.5224885474890471e-04" Max="5.3121186792850494e-02"/>
          <Range Index="7" Min="6.8246288265072508e-07" Max="1.2254915200173855e-02"/>
          <Range Index="8" Min="0.0000000000000000e+00" Max="1.8932830400000000e+08"/>
          <Range Index="9" Min="1.2559009483084083e-03" Max="2.0990590564906597e-03"/>
        </Ranges>
      </Class>
    </Transform>
  </Transformations>
  <MVAPdfs/>
  <Weights>
    <Layout NLayers="4">
      <Layer Index="0" NNeurons="10">
        <Neuron NSynapses="9">
          -5.2155354444348356e-01 1.1538249554786608e+00 6.2838414841961499e-01 -5.8270441093808367e-01 -1.7577800642983477e+00 -1.3009591325911363e+00 -5.2685518227768280e-01 5.1668821351264127e-01 -8.8280208611228284e-01 
        </Neuron>
        <Neuron NSynapses="9">
          -1.4603160520791922e+00 -2.3874866932382131e+00 1.0257740298867668e+00 -1.6738201410150992e+00 -9.2314197753811900e-01 -1.0863937414753269e+00 5.5445918406906913e-01 1.0301513922308683e+00 1.6320857249370759e+00 
        </Neuron>
        <Neuron NSynapses="9">
          4.1712218318112820e-01 1.1141101447989561e+00 -1.5330733477393149e-01 -1.7153120678197922e-01 1.7702731959790399e-01 3.0138519655582247e-01 -4.1397454229192782e-01 9.5756246289654109e-02 1.6998772583744164e+00 
        </Neuron>
        <Neuron NSynapses="9">
          -1.3739806825431722e+00 -8.9209983718474106e-01 -8.8896987512054892e-01 1.1789853749049199e+00 2.1143117232930795e+00 1.6757606933971725e+00 2.4309004799547454e-01 -2.7238621788278305e-01 2.2071459199233878e-01 
        </Neuron>
        <Neuron NSynapses="9">
          -1.0721407504856637e+00 2.2193523786263443e+00 -9.9108138913350319e-01 9.2035619023222948e-01 8.3884241353906164e-01 1.0974697798812019e+00 1.9918367264190080e+00 6.7633487891408139e-01 -5.8982501113520414e-01 
        </Neuron>
        <Neuron NSynapses="9">
          -1.5421076711898645e+00 6.2084293905091004e-01 -3.1016761704531942e-01 1.7652639247301789e+00 1.5312052655386696e+00 1.6396819054592240e+00 1.8169945259934051e+00 -1.4146264975343532e+00 1.9489922323654296e+00 
        </Neuron>
        <Neuron NSynapses="9">
          -1.6867724438508518e+00 -1.0784027178165270e+00 -1.8561085255638085e-02 -1.3080424788600760e+00 1.5922935300585910e+00 2.8730793800400517e-01 -6.8158340595011901e-01 4.5363219254349424e-01 2.4785373142453812e-01 
        </Neuron>
        <Neuron NSynapses="9">
          1.0034084186783085e-01 1.6965365906283407e+00 -1.3915903513552030e-01 7.5503781990251362e-01 -1.0047068013306220e+00 4.8685010692094122e-01 2.2436276941017574e-01 1.4626484430921718e-01 -3.2920761401566367e-01 
        </Neuron>
        <Neuron NSynapses="9">
          4.7484547482453410e-01 1.6985311755955903e+00 2.0987920715064537e-01 8.0655168816013353e-03 -4.4952847254966188e-01 9.2775652645130033e-02 2.5610267848645718e-01 -1.1328905265310321e+00 6.2308135092313033e-01 
        </Neuron>
        <Neuron NSynapses="9">
          1.3520863040722895e+00 1.2349291437572396e+00 -2.2576021523268350e+00 -2.2411237080775909e-01 1.3732800794840419e-02 -4.2925788228600181e-01 -2.4073831930511731e+00 -2.4172687330104883e+00 -3.0494383392100746e+00 
        </Neuron>
      </Layer>
      <Layer Index="1" NNeurons="10">
        <Neuron NSynapses="9">
          -2.7259520897905692e-01 -2.6540304775412787e-01 2.1651898414914164e+00 -8.6218486812750617e-01 -1.0635793612389735e+00 1.1435415918500877e+00 -4.8546508750789147e-01 -1.1611022152472277e+00 -2.0232590140779689e+00 
        </Neuron>
        <Neuron NSynapses="9">
          7.9917233625351011e-02 -1.2542450927796593e+00 -1.0619088859936474e+00 -5.2772134384563352e-01 1.1580948246868796e+00 -1.5660909151549365e+00 3.0393521146894038e+00 1.9388629668901741e-02 -4.3592515205676696e-01 
        </Neuron>
        <Neuron NSynapses="9">
          -5.3574517838902114e-01 2.8826079986559178e-01 -1.1622420182822513e+00 4.8640871110613121e-01 1.5743317028884209e+00 -3.5662639323805390e-01 -9.5718814497357774e-01 2.0490826462737917e+00 1.6922735314370235e-01 
        </Neuron>
        <Neuron NSynapses="9">
          2.5746021907527905e-01 6.0957275116024590e-01 5.3810894784072312e-02 -1.9167730871393720e+00 5.9281463292581127e-01 -5.3725581939239964e-01 1.6839638969105266e+00 3.3822210987168526e-02 6.3509633371422647e-01 
        </Neuron>
        <Neuron NSynapses="9">
          -8.5204954225376592e-02 2.7314567362191827e-01 -2.3321615233581507e+00 1.7604673343422853e-01 1.8219582335407253e-01 -9.7134485356895361e-01 8.4039095022487209e-01 -1.6011426760367582e+00 4.4359269823231073e-01 
        </Neuron>
        <Neuron NSynapses="9">
          1.6342265717164561e+00 2.2829383714826350e+00 -1.7243211378951435e+00 -5.9295427978306159e-01 6.8170460835803415e-01 2.4213471233376467e+00 -9.4720625946188097e-01 -1.5992966900865448e+00 -4.8206209953554624e-02 
        </Neuron>
        <Neuron NSynapses="9">
          -2.7721304472842706e-01 1.6647008148210185e+00 7.4073546881640584e-01 -1.2054969105107809e+00 -1.4093541199018486e-01 5.0520931036435934e-01 -1.0934942263120777e+00 -1.9658133439374451e-01 1.0246027816016205e+00 
        </Neuron>
        <Neuron NSynapses="9">
          -8.3500726052090279e-01 -5.3946318082359856e-01 -2.5577080968504341e-02 8.7894174770155220e-01 4.8550557660182142e-01 5.4939010203171901e-01 -6.7796913683196480e-01 1.3787056685430514e+00 1.1996449554353150e+00 
        </Neuron>
        <Neuron NSynapses="9">
          -1.9252648966322108e-01 4.3574300983646885e-01 7.9044094142526500e-01 -7.6047677818174597e-01 4.3702876713670969e-03 9.9881244885348919e-01 -9.9255187561245350e-01 -1.1155926808633244e-02 1.0636121146791868e+00 
        </Neuron>
        <Neuron NSynapses="9">
          1.1854451943236357e+00 -2.7501399868898863e-01 2.0950388660091384e+00 2.5258503356482067e+00 -2.3962810237854493e+00 3.9887389378115462e-01 3.8530298607052244e-01 9.0746863442118875e-01 -2.3956771047220489e+00 
        </Neuron>
      </Layer>
      <Layer Index="2" NNeurons="10">
        <Neuron NSynapses="1">
          3.0669984716886883e-01 
        </Neuron>
        <Neuron NSynapses="1">
          2.2069432977547834e-02 
        </Neuron>
        <Neuron NSynapses="1">
          -3.2899119380029797e-02 
        </Neuron>
        <Neuron NSynapses="1">
          -2.9336510699908211e-02 
        </Neuron>
        <Neuron NSynapses="1">
          -5.2250722667640115e-01 
        </Neuron>
        <Neuron NSynapses="1">
          1.4947361257460703e-02 
        </Neuron>
        <Neuron NSynapses="1">
          8.8882275116762086e-03 
        </Neuron>
        <Neuron NSynapses="1">
          -7.0974392321709392e-02 
        </Neuron>
        <Neuron NSynapses="1">
          4.5589764704071861e-01 
        </Neuron>
        <Neuron NSynapses="1">
          -2.4684686107046136e-01 
        </Neuron>
      </Layer>
      <Layer Index="3" NNeurons="1">
        <Neuron NSynapses="0"/>
      </Layer>
    </Layout>
  </Weights>
</MethodSetup>
