<?xml version="1.0"?>
<MethodSetup Method="MLP::XS_95_241_0_fis">
  <GeneralInfo>
    <Info name="TMVA Release" value="4.2.0 [262656]"/>
    <Info name="ROOT Release" value="5.34/14 [336398]"/>
    <Info name="Creator" value="courtin"/>
    <Info name="Date" value="Tue Oct  4 13:27:10 2016"/>
    <Info name="Host" value="Linux nansl3.in2p3.fr 2.6.32-431.20.3.el6.x86_64 #1 SMP Thu Jun 19 14:01:59 CDT 2014 x86_64 x86_64 x86_64 GNU/Linux"/>
    <Info name="Dir" value="/scratch/spallati/courtin/WORK/MOxEUS/BdD_MOxEUS/MOxEUS_NN/XSM/MLP/Train"/>
    <Info name="Training events" value="17790"/>
    <Info name="TrainingTime" value="7.77441072e+02"/>
    <Info name="AnalysisType" value="Regression"/>
  </GeneralInfo>
  <Options>
    <Option name="NCycles" modified="Yes">20000</Option>
    <Option name="HiddenLayers" modified="Yes">N,N</Option>
    <Option name="NeuronType" modified="Yes">tanh</Option>
    <Option name="RandomSeed" modified="No">1</Option>
    <Option name="EstimatorType" modified="No">MSE</Option>
    <Option name="NeuronInputType" modified="No">sum</Option>
    <Option name="V" modified="Yes">False</Option>
    <Option name="VerbosityLevel" modified="No">Default</Option>
    <Option name="VarTransform" modified="Yes">Norm</Option>
    <Option name="H" modified="Yes">False</Option>
    <Option name="CreateMVAPdfs" modified="No">False</Option>
    <Option name="IgnoreNegWeightsInTraining" modified="No">False</Option>
    <Option name="TrainingMethod" modified="Yes">BFGS</Option>
    <Option name="LearningRate" modified="No">2.000000e-02</Option>
    <Option name="DecayRate" modified="No">1.000000e-02</Option>
    <Option name="TestRate" modified="Yes">6</Option>
    <Option name="EpochMonitoring" modified="No">False</Option>
    <Option name="Sampling" modified="Yes">3.000000e-01</Option>
    <Option name="SamplingEpoch" modified="Yes">8.000000e-01</Option>
    <Option name="SamplingImportance" modified="No">1.000000e+00</Option>
    <Option name="SamplingTraining" modified="No">True</Option>
    <Option name="SamplingTesting" modified="No">False</Option>
    <Option name="ResetStep" modified="No">50</Option>
    <Option name="Tau" modified="No">3.000000e+00</Option>
    <Option name="BPMode" modified="No">sequential</Option>
    <Option name="BatchSize" modified="No">-1</Option>
    <Option name="ConvergenceImprove" modified="Yes">1.000000e-06</Option>
    <Option name="ConvergenceTests" modified="Yes">15</Option>
    <Option name="UseRegulator" modified="Yes">False</Option>
    <Option name="UpdateLimit" modified="No">10000</Option>
    <Option name="CalculateErrors" modified="No">False</Option>
    <Option name="WeightRange" modified="No">1.000000e+00</Option>
  </Options>
  <Variables NVar="9">
    <Variable VarIndex="0" Expression="U5" Label="U5" Title="U 235" Unit="FractionIsotopic" Internal="U5" Type="F" Min="2.62645772e-03" Max="5.00135981e-02"/>
    <Variable VarIndex="1" Expression="U8" Label="U8" Title="U 238" Unit="FractionIsotopic" Internal="U8" Type="F" Min="9.12375093e-01" Max="9.91633654e-01"/>
    <Variable VarIndex="2" Expression="Pu8" Label="Pu8" Title="Pu 238" Unit="FractionIsotopic" Internal="Pu8" Type="F" Min="2.42847864e-06" Max="2.94582150e-03"/>
    <Variable VarIndex="3" Expression="Pu9" Label="Pu9" Title="Pu 239" Unit="FractionIsotopic" Internal="Pu9" Type="F" Min="2.72685829e-05" Max="2.46766936e-02"/>
    <Variable VarIndex="4" Expression="Pu10" Label="Pu10" Title="Pu 240" Unit="FractionIsotopic" Internal="Pu10" Type="F" Min="1.36823164e-05" Max="1.54153146e-02"/>
    <Variable VarIndex="5" Expression="Pu11" Label="Pu11" Title="Pu 241" Unit="FractionIsotopic" Internal="Pu11" Type="F" Min="5.21284107e-07" Max="8.27966351e-03"/>
    <Variable VarIndex="6" Expression="Pu12" Label="Pu12" Title="Pu 242" Unit="FractionIsotopic" Internal="Pu12" Type="F" Min="1.39559679e-05" Max="1.32520972e-02"/>
    <Variable VarIndex="7" Expression="Am1" Label="Am1" Title="Am 241" Unit="FractionIsotopic" Internal="Am1" Type="F" Min="1.16816601e-07" Max="3.22229858e-03"/>
    <Variable VarIndex="8" Expression="Time" Label="Time" Title="Time" Unit="seconds" Internal="Time" Type="F" Min="0.00000000e+00" Max="1.89328304e+08"/>
  </Variables>
  <Spectators NSpec="0"/>
  <Classes NClass="1">
    <Class Name="Regression" Index="0"/>
  </Classes>
  <Targets NTrgt="1">
    <Target TargetIndex="0" Expression="XS_95_241_0_fis" Label="XS_95_241_0_fis" Title="XS_95_241_0_fis" Unit="" Internal="XS_95_241_0_fis" Type="F" Min="9.48026121e-01" Max="1.83697295e+00"/>
  </Targets>
  <Transformations NTransformations="1">
    <Transform Name="Normalize">
      <Selection>
        <Input NInputs="10">
          <Input Type="Variable" Label="U5" Expression="U5"/>
          <Input Type="Variable" Label="U8" Expression="U8"/>
          <Input Type="Variable" Label="Pu8" Expression="Pu8"/>
          <Input Type="Variable" Label="Pu9" Expression="Pu9"/>
          <Input Type="Variable" Label="Pu10" Expression="Pu10"/>
          <Input Type="Variable" Label="Pu11" Expression="Pu11"/>
          <Input Type="Variable" Label="Pu12" Expression="Pu12"/>
          <Input Type="Variable" Label="Am1" Expression="Am1"/>
          <Input Type="Variable" Label="Time" Expression="Time"/>
          <Input Type="Target" Label="XS_95_241_0_fis" Expression="XS_95_241_0_fis"/>
        </Input>
        <Output NOutputs="10">
          <Output Type="Variable" Label="U5" Expression="U5"/>
          <Output Type="Variable" Label="U8" Expression="U8"/>
          <Output Type="Variable" Label="Pu8" Expression="Pu8"/>
          <Output Type="Variable" Label="Pu9" Expression="Pu9"/>
          <Output Type="Variable" Label="Pu10" Expression="Pu10"/>
          <Output Type="Variable" Label="Pu11" Expression="Pu11"/>
          <Output Type="Variable" Label="Pu12" Expression="Pu12"/>
          <Output Type="Variable" Label="Am1" Expression="Am1"/>
          <Output Type="Variable" Label="Time" Expression="Time"/>
          <Output Type="Target" Label="XS_95_241_0_fis" Expression="XS_95_241_0_fis"/>
        </Output>
      </Selection>
      <Class ClassIndex="0">
        <Ranges>
          <Range Index="0" Min="2.6264577172696590e-03" Max="5.0013598054647446e-02"/>
          <Range Index="1" Min="9.1237509250640869e-01" Max="9.9163365364074707e-01"/>
          <Range Index="2" Min="2.4284786377393175e-06" Max="2.9458214994519949e-03"/>
          <Range Index="3" Min="2.7268582925898954e-05" Max="2.4676693603396416e-02"/>
          <Range Index="4" Min="1.3682316421181895e-05" Max="1.5415314584970474e-02"/>
          <Range Index="5" Min="5.2128410743534914e-07" Max="8.2796635106205940e-03"/>
          <Range Index="6" Min="1.3955967915535439e-05" Max="1.3252097181975842e-02"/>
          <Range Index="7" Min="1.1681660083695533e-07" Max="3.2222985755652189e-03"/>
          <Range Index="8" Min="0.0000000000000000e+00" Max="1.8932830400000000e+08"/>
          <Range Index="9" Min="9.4802612066268921e-01" Max="1.8369729518890381e+00"/>
        </Ranges>
      </Class>
    </Transform>
  </Transformations>
  <MVAPdfs/>
  <Weights>
    <Layout NLayers="4">
      <Layer Index="0" NNeurons="10">
        <Neuron NSynapses="9">
          -1.0597203231745582e+00 2.2312693524410414e+00 -6.5951237821036968e-01 8.1281046759332176e-01 -6.4234368713044632e-01 -3.3861068332997418e-01 -6.0851493140958601e-01 2.0346496648166577e+00 -5.1947451645217901e-01 
        </Neuron>
        <Neuron NSynapses="9">
          -1.2100371830882979e+00 -2.7309550995380265e+00 -8.0438192320825375e-01 -1.0670102336359404e+00 -7.3269192323393584e-01 -7.1319072636340108e-01 1.0342763839861637e+00 -1.1800230771188613e+00 9.9440378584243660e-01 
        </Neuron>
        <Neuron NSynapses="9">
          5.5636446658406183e-03 8.6209779999856628e-01 -7.5950964624467460e-02 9.3381782528601687e-02 -1.6747683000811808e-01 3.2393923951575261e-02 -4.1158915439285598e-01 5.9383827130094724e-01 2.2957983270466015e-02 
        </Neuron>
        <Neuron NSynapses="9">
          -9.8707948637069709e-01 6.7350455564379363e-01 2.7547865668978244e-01 1.1968473773984709e+00 5.0013320226001123e-01 -2.0376947243204396e-01 -4.0773478490742687e-01 1.0739277727938612e+00 -6.5247853915914322e-01 
        </Neuron>
        <Neuron NSynapses="9">
          -4.3030567334153463e-01 1.7550177255745381e+00 -3.3796583409571457e-01 1.1998126587172191e+00 -1.4391461123388768e-01 -3.2080625521156370e-02 1.6800923970269990e+00 1.5780438453797392e+00 -4.9263524018386246e-01 
        </Neuron>
        <Neuron NSynapses="9">
          -3.3826883475606795e-01 4.3067578275257751e-01 5.0541520261788118e-03 2.9650668000683861e-01 7.4567063640679421e-01 -9.9983826648736646e-02 1.0949545612416431e+00 -4.3913135573753898e-01 -1.9398601917457939e-01 
        </Neuron>
        <Neuron NSynapses="9">
          8.4420736331785855e-03 2.5728906319670586e-01 -2.3128344153812000e-01 2.0595527341774325e-01 6.5479428629002467e-02 9.5581445808896492e-02 -4.0048067064343207e-01 1.1673395334037102e+00 4.2552438177848051e-01 
        </Neuron>
        <Neuron NSynapses="9">
          -1.6134078174747903e-02 8.2553911773730682e-01 5.9506403133846128e-02 6.1437222551515458e-01 -5.7567446199640449e-01 7.2546009222621777e-02 6.1472611220213080e-01 6.1150799803245004e-01 2.0445215820815593e-01 
        </Neuron>
        <Neuron NSynapses="9">
          8.8195272728275331e-01 1.1541818648380573e+00 1.4865883496579906e+00 4.7489494457892301e-02 -1.8086775413159819e+00 2.5402823579788042e-01 4.0940827638505212e-01 4.8996436745520139e-01 9.3664911681413887e-01 
        </Neuron>
        <Neuron NSynapses="9">
          4.9417847926166902e-01 1.1845239344349503e+00 2.1031320583870943e+00 -1.1037760853082081e+00 1.1379285991194061e+00 6.6241597609236413e-01 -3.1149249520744569e+00 -1.3730436083515887e+00 -7.2309061293326726e-01 
        </Neuron>
      </Layer>
      <Layer Index="1" NNeurons="10">
        <Neuron NSynapses="9">
          1.3191271124912030e-01 -4.5660582816607120e-01 1.1773407862078147e+00 -1.9343870084024410e+00 -6.8417132025522209e-01 2.4599632774480358e+00 -8.4141319882259757e-01 -1.3116595130772326e+00 -1.2801919306089631e+00 
        </Neuron>
        <Neuron NSynapses="9">
          1.0513269937727691e-01 -1.5413078677856462e+00 -9.9340473677171237e-01 1.1167970262569631e+00 1.4711697135395069e-02 -9.3758935371282892e-01 3.8752270460850397e-01 -1.0180358510832350e+00 -6.4658039704699000e-01 
        </Neuron>
        <Neuron NSynapses="9">
          1.3069956849683045e-01 5.0331697412119081e-01 -2.9385700180232792e+00 2.9086636569466520e+00 5.7194096512343229e-01 6.2367154891615317e-01 -1.6984730452484216e+00 1.5066959957448571e+00 3.8401789216514853e-01 
        </Neuron>
        <Neuron NSynapses="9">
          -7.3157195786366302e-01 8.0427309331971575e-01 -9.3491362625783903e-01 -4.3418185658197489e-01 6.3536724737397993e-02 -4.3967605740961718e-01 8.2658709550825060e-01 4.8799670426507769e-01 6.0886226144238317e-02 
        </Neuron>
        <Neuron NSynapses="9">
          -2.6929632030102280e-01 -5.7507344949847650e-01 4.3543826925555251e-02 -8.5027841394014803e-01 2.5435608190167588e-02 -1.7395479034509085e+00 8.1617180427515701e-01 -1.3569285462792031e+00 -3.1959161093925870e-01 
        </Neuron>
        <Neuron NSynapses="9">
          1.1219774114248158e+00 2.0163992276093947e+00 -1.7690825164947424e+00 2.3208884324436454e+00 1.1897678597540617e+00 1.3387149007596602e+00 9.5592991174965974e-02 -1.4833674597371858e+00 -4.9964017943274586e-01 
        </Neuron>
        <Neuron NSynapses="9">
          -1.3291626057024182e+00 1.4483868710387531e+00 1.5275800164964297e+00 -4.6304458150267708e-02 -3.7676971557672767e-01 6.4224251888292130e-02 -1.4944762297232643e+00 2.8994163797692635e-01 1.7275447319006652e+00 
        </Neuron>
        <Neuron NSynapses="9">
          -6.9025900549195351e-01 1.7065985909554457e-01 -3.1815286444260943e-01 9.9657470968315565e-01 5.9622364837220564e-03 4.0032941105187153e-01 -2.3374125059104123e+00 1.4594780206895126e+00 9.1519995576982716e-01 
        </Neuron>
        <Neuron NSynapses="9">
          -2.0528290852354392e-01 -1.7887867139353369e-01 5.9414072722819333e-01 -3.4162072385316855e-01 -1.7136048004967647e-01 7.4680768476566339e-01 -6.5588286427144948e-01 -9.9886693518560954e-01 1.4486198733935876e+00 
        </Neuron>
        <Neuron NSynapses="9">
          2.2107101378384106e+00 -4.5583493634769584e-01 7.1089660248813558e-01 2.9184784480260499e+00 -7.0637230709792420e-01 8.8625307579146562e-01 1.4695186418418879e-01 5.4378633385880681e-01 -1.8575738533062183e+00 
        </Neuron>
      </Layer>
      <Layer Index="2" NNeurons="10">
        <Neuron NSynapses="1">
          1.6228009547249949e+00 
        </Neuron>
        <Neuron NSynapses="1">
          -3.2125828035075932e-03 
        </Neuron>
        <Neuron NSynapses="1">
          -5.2045688478489747e-02 
        </Neuron>
        <Neuron NSynapses="1">
          -2.4602678122038397e+00 
        </Neuron>
        <Neuron NSynapses="1">
          -8.4607613120643610e-01 
        </Neuron>
        <Neuron NSynapses="1">
          -1.5325905919856723e-02 
        </Neuron>
        <Neuron NSynapses="1">
          4.9729749551564520e-03 
        </Neuron>
        <Neuron NSynapses="1">
          -3.9893756189306904e-03 
        </Neuron>
        <Neuron NSynapses="1">
          -4.7326384849929543e-01 
        </Neuron>
        <Neuron NSynapses="1">
          8.7054921393666829e-02 
        </Neuron>
      </Layer>
      <Layer Index="3" NNeurons="1">
        <Neuron NSynapses="0"/>
      </Layer>
    </Layout>
  </Weights>
</MethodSetup>
