<?xml version="1.0"?>
<MethodSetup Method="MLP::XS_58_141_0_cap">
  <GeneralInfo>
    <Info name="TMVA Release" value="4.2.0 [262656]"/>
    <Info name="ROOT Release" value="5.34/14 [336398]"/>
    <Info name="Creator" value="courtin"/>
    <Info name="Date" value="Tue Oct  4 14:07:48 2016"/>
    <Info name="Host" value="Linux nansl3.in2p3.fr 2.6.32-431.20.3.el6.x86_64 #1 SMP Thu Jun 19 14:01:59 CDT 2014 x86_64 x86_64 x86_64 GNU/Linux"/>
    <Info name="Dir" value="/scratch/spallati/courtin/WORK/MOxEUS/BdD_MOxEUS/MOxEUS_NN/XSM/MLP/Train"/>
    <Info name="Training events" value="17790"/>
    <Info name="TrainingTime" value="2.83339876e+02"/>
    <Info name="AnalysisType" value="Regression"/>
  </GeneralInfo>
  <Options>
    <Option name="NCycles" modified="Yes">20000</Option>
    <Option name="HiddenLayers" modified="Yes">N,N</Option>
    <Option name="NeuronType" modified="Yes">tanh</Option>
    <Option name="RandomSeed" modified="No">1</Option>
    <Option name="EstimatorType" modified="No">MSE</Option>
    <Option name="NeuronInputType" modified="No">sum</Option>
    <Option name="V" modified="Yes">False</Option>
    <Option name="VerbosityLevel" modified="No">Default</Option>
    <Option name="VarTransform" modified="Yes">Norm</Option>
    <Option name="H" modified="Yes">False</Option>
    <Option name="CreateMVAPdfs" modified="No">False</Option>
    <Option name="IgnoreNegWeightsInTraining" modified="No">False</Option>
    <Option name="TrainingMethod" modified="Yes">BFGS</Option>
    <Option name="LearningRate" modified="No">2.000000e-02</Option>
    <Option name="DecayRate" modified="No">1.000000e-02</Option>
    <Option name="TestRate" modified="Yes">6</Option>
    <Option name="EpochMonitoring" modified="No">False</Option>
    <Option name="Sampling" modified="Yes">3.000000e-01</Option>
    <Option name="SamplingEpoch" modified="Yes">8.000000e-01</Option>
    <Option name="SamplingImportance" modified="No">1.000000e+00</Option>
    <Option name="SamplingTraining" modified="No">True</Option>
    <Option name="SamplingTesting" modified="No">False</Option>
    <Option name="ResetStep" modified="No">50</Option>
    <Option name="Tau" modified="No">3.000000e+00</Option>
    <Option name="BPMode" modified="No">sequential</Option>
    <Option name="BatchSize" modified="No">-1</Option>
    <Option name="ConvergenceImprove" modified="Yes">1.000000e-06</Option>
    <Option name="ConvergenceTests" modified="Yes">15</Option>
    <Option name="UseRegulator" modified="Yes">False</Option>
    <Option name="UpdateLimit" modified="No">10000</Option>
    <Option name="CalculateErrors" modified="No">False</Option>
    <Option name="WeightRange" modified="No">1.000000e+00</Option>
  </Options>
  <Variables NVar="9">
    <Variable VarIndex="0" Expression="U5" Label="U5" Title="U 235" Unit="FractionIsotopic" Internal="U5" Type="F" Min="2.62645772e-03" Max="5.00135981e-02"/>
    <Variable VarIndex="1" Expression="U8" Label="U8" Title="U 238" Unit="FractionIsotopic" Internal="U8" Type="F" Min="9.12375093e-01" Max="9.91633654e-01"/>
    <Variable VarIndex="2" Expression="Pu8" Label="Pu8" Title="Pu 238" Unit="FractionIsotopic" Internal="Pu8" Type="F" Min="2.42847864e-06" Max="2.94582150e-03"/>
    <Variable VarIndex="3" Expression="Pu9" Label="Pu9" Title="Pu 239" Unit="FractionIsotopic" Internal="Pu9" Type="F" Min="2.72685829e-05" Max="2.46766936e-02"/>
    <Variable VarIndex="4" Expression="Pu10" Label="Pu10" Title="Pu 240" Unit="FractionIsotopic" Internal="Pu10" Type="F" Min="1.36823164e-05" Max="1.54153146e-02"/>
    <Variable VarIndex="5" Expression="Pu11" Label="Pu11" Title="Pu 241" Unit="FractionIsotopic" Internal="Pu11" Type="F" Min="5.21284107e-07" Max="8.27966351e-03"/>
    <Variable VarIndex="6" Expression="Pu12" Label="Pu12" Title="Pu 242" Unit="FractionIsotopic" Internal="Pu12" Type="F" Min="1.39559679e-05" Max="1.32520972e-02"/>
    <Variable VarIndex="7" Expression="Am1" Label="Am1" Title="Am 241" Unit="FractionIsotopic" Internal="Am1" Type="F" Min="1.16816601e-07" Max="3.22229858e-03"/>
    <Variable VarIndex="8" Expression="Time" Label="Time" Title="Time" Unit="seconds" Internal="Time" Type="F" Min="0.00000000e+00" Max="1.89328304e+08"/>
  </Variables>
  <Spectators NSpec="0"/>
  <Classes NClass="1">
    <Class Name="Regression" Index="0"/>
  </Classes>
  <Targets NTrgt="1">
    <Target TargetIndex="0" Expression="XS_58_141_0_cap" Label="XS_58_141_0_cap" Title="XS_58_141_0_cap" Unit="" Internal="XS_58_141_0_cap" Type="F" Min="5.13162899e+00" Max="8.94355869e+00"/>
  </Targets>
  <Transformations NTransformations="1">
    <Transform Name="Normalize">
      <Selection>
        <Input NInputs="10">
          <Input Type="Variable" Label="U5" Expression="U5"/>
          <Input Type="Variable" Label="U8" Expression="U8"/>
          <Input Type="Variable" Label="Pu8" Expression="Pu8"/>
          <Input Type="Variable" Label="Pu9" Expression="Pu9"/>
          <Input Type="Variable" Label="Pu10" Expression="Pu10"/>
          <Input Type="Variable" Label="Pu11" Expression="Pu11"/>
          <Input Type="Variable" Label="Pu12" Expression="Pu12"/>
          <Input Type="Variable" Label="Am1" Expression="Am1"/>
          <Input Type="Variable" Label="Time" Expression="Time"/>
          <Input Type="Target" Label="XS_58_141_0_cap" Expression="XS_58_141_0_cap"/>
        </Input>
        <Output NOutputs="10">
          <Output Type="Variable" Label="U5" Expression="U5"/>
          <Output Type="Variable" Label="U8" Expression="U8"/>
          <Output Type="Variable" Label="Pu8" Expression="Pu8"/>
          <Output Type="Variable" Label="Pu9" Expression="Pu9"/>
          <Output Type="Variable" Label="Pu10" Expression="Pu10"/>
          <Output Type="Variable" Label="Pu11" Expression="Pu11"/>
          <Output Type="Variable" Label="Pu12" Expression="Pu12"/>
          <Output Type="Variable" Label="Am1" Expression="Am1"/>
          <Output Type="Variable" Label="Time" Expression="Time"/>
          <Output Type="Target" Label="XS_58_141_0_cap" Expression="XS_58_141_0_cap"/>
        </Output>
      </Selection>
      <Class ClassIndex="0">
        <Ranges>
          <Range Index="0" Min="2.6264577172696590e-03" Max="5.0013598054647446e-02"/>
          <Range Index="1" Min="9.1237509250640869e-01" Max="9.9163365364074707e-01"/>
          <Range Index="2" Min="2.4284786377393175e-06" Max="2.9458214994519949e-03"/>
          <Range Index="3" Min="2.7268582925898954e-05" Max="2.4676693603396416e-02"/>
          <Range Index="4" Min="1.3682316421181895e-05" Max="1.5415314584970474e-02"/>
          <Range Index="5" Min="5.2128410743534914e-07" Max="8.2796635106205940e-03"/>
          <Range Index="6" Min="1.3955967915535439e-05" Max="1.3252097181975842e-02"/>
          <Range Index="7" Min="1.1681660083695533e-07" Max="3.2222985755652189e-03"/>
          <Range Index="8" Min="0.0000000000000000e+00" Max="1.8932830400000000e+08"/>
          <Range Index="9" Min="5.1316289901733398e+00" Max="8.9435586929321289e+00"/>
        </Ranges>
      </Class>
    </Transform>
  </Transformations>
  <MVAPdfs/>
  <Weights>
    <Layout NLayers="4">
      <Layer Index="0" NNeurons="10">
        <Neuron NSynapses="9">
          -1.4068224710479358e+00 1.0259977591166147e+00 -3.5511046476184682e-01 1.8901924070464968e+00 -1.7167791855547848e-01 1.6959014862460441e-02 -9.0157029018605639e-01 1.7952498003612716e+00 -1.2842611518782816e+00 
        </Neuron>
        <Neuron NSynapses="9">
          -8.2534908404365470e-01 -1.2651369654815092e+00 -1.1183650364461890e+00 -1.2105120625103956e+00 -1.8036496798426258e+00 -1.9665927465711059e+00 9.5131240405391282e-01 -7.5633226303275614e-01 2.0413175304246298e+00 
        </Neuron>
        <Neuron NSynapses="9">
          1.2952229845247415e-01 5.8317304653797031e-01 -3.2051871004161786e-01 3.3378323318531999e-01 8.5254519358050207e-01 3.6593488303525207e-01 -5.4148963604351219e-01 2.4752635916813465e-01 -1.2798991451977859e-01 
        </Neuron>
        <Neuron NSynapses="9">
          -1.4767771664136928e+00 -6.4842766477593317e-01 5.7456731070985378e-01 8.1935034125863548e-01 2.1998993013044563e+00 6.4997309461372077e-01 -3.5190816922634716e-01 1.1901579948884526e+00 -1.1988763839832113e+00 
        </Neuron>
        <Neuron NSynapses="9">
          -2.6788784008482208e-01 1.1117887051169928e+00 -4.9560251178436765e-01 8.1616974908354012e-01 1.2650249558183488e+00 4.4454446175339291e-01 1.8248338837003322e+00 8.5451543559821930e-01 -8.6891923597980458e-01 
        </Neuron>
        <Neuron NSynapses="9">
          -5.3400342464906325e-01 -1.0032381641096411e-01 2.1931650366180663e-01 3.6599310013004610e-01 1.5875127496233814e+00 1.4448571744374639e-01 1.2721459072314454e+00 -1.0221571638764146e+00 -3.2999406914993590e-01 
        </Neuron>
        <Neuron NSynapses="9">
          -4.8994879250214585e-01 -1.3055844295112953e+00 -5.1240612152297094e-01 -2.2878313669310513e-01 1.3193811537020366e+00 6.4848285833058572e-01 -5.5762319129888827e-01 -9.3775143089196641e-02 3.2772332218701378e-02 
        </Neuron>
        <Neuron NSynapses="9">
          9.2925897173430624e-02 7.9458251605059016e-01 2.0274374529925140e-01 4.3272609456750699e-01 -1.0511474418740301e+00 4.0506599740463632e-02 4.3110975667134865e-01 -1.2959341034553809e-02 -1.7508062486574663e-01 
        </Neuron>
        <Neuron NSynapses="9">
          1.6535478169646018e+00 1.6678887226165220e+00 1.7100888062637511e+00 -6.8547913948841177e-01 -1.5293967052988471e+00 -4.8328649015963410e-01 3.6746368912557198e-01 1.2892411084112138e-01 1.2637853207352940e+00 
        </Neuron>
        <Neuron NSynapses="9">
          6.1790107042748155e-01 1.5696250410390100e+00 2.4184595407193767e+00 -1.8960396696294686e+00 7.4255682484480307e-02 2.4539516896415714e+00 -2.3620456782425934e+00 -9.4056278873566446e-01 -1.5182690478291523e+00 
        </Neuron>
      </Layer>
      <Layer Index="1" NNeurons="10">
        <Neuron NSynapses="9">
          3.4703282717196948e-01 8.5429631967051667e-03 1.1919094866971252e+00 -8.1200428468174812e-01 -5.2840996951463248e-01 1.6650964857515078e+00 -1.0105747693160936e+00 -1.4555264327282458e+00 -1.3217293184701744e+00 
        </Neuron>
        <Neuron NSynapses="9">
          4.3794422286067436e-01 -1.7773445265465135e+00 -9.4710596633494637e-01 2.3831622968542307e-01 3.1168886380491118e-01 -7.2531367959689697e-01 1.3528218563317300e+00 -8.6690085476210998e-01 -6.0882645659506718e-01 
        </Neuron>
        <Neuron NSynapses="9">
          -6.1344106606291658e-02 1.1650955543278094e-01 -2.4199174726548085e+00 9.3096081525273455e-01 5.8571512115808466e-01 4.8838564187283229e-01 -1.5361652704388398e+00 1.7223532208103358e+00 4.3272541289203842e-01 
        </Neuron>
        <Neuron NSynapses="9">
          -9.0947963823033162e-01 5.6789629339385139e-01 -1.1172649550421672e+00 -9.3874047172377373e-01 3.6481455192756640e-01 -4.5341497819050218e-02 1.6846324830419590e+00 5.2797673693235192e-01 8.5513386605029384e-02 
        </Neuron>
        <Neuron NSynapses="9">
          -5.4527171600276936e-01 4.4845366943882203e-01 -6.0633021399530296e-01 5.5944494950528467e-01 1.0388138975750758e-01 -1.9876702236445472e+00 6.3569902862801475e-01 -1.1918253120902973e+00 -2.4043681291821287e-01 
        </Neuron>
        <Neuron NSynapses="9">
          8.1128872122617735e-01 2.1840771179304532e+00 -1.1480888238573002e+00 4.2945203600408882e-01 7.8113604376085077e-01 1.2768568956863331e+00 1.5953884914331445e-01 -1.3224459854160304e+00 -4.5743929278214851e-01 
        </Neuron>
        <Neuron NSynapses="9">
          -9.6659389877855617e-01 1.0638957291153968e+00 1.1950349105804665e+00 1.0646952764440688e-01 -2.2164188452403633e-01 4.1777185718931642e-01 -1.1951892891790170e+00 1.6182398712930859e-01 1.7551276563469562e+00 
        </Neuron>
        <Neuron NSynapses="9">
          -3.5405386185261895e-01 -7.9884967021682773e-01 -1.2923477299823244e-01 9.1018095079140271e-01 1.2931021565719712e-02 9.8835893945125119e-01 -1.6739746957863542e+00 1.3993743048560572e+00 9.4161282255118584e-01 
        </Neuron>
        <Neuron NSynapses="9">
          2.0142153727344311e-01 5.4197083804439772e-01 1.3068637990807679e+00 -7.6320906113997244e-01 -1.1053810753911362e+00 1.0288207514337178e+00 -4.6722014644628629e-01 -7.8934751778043877e-01 1.4457373933952073e+00 
        </Neuron>
        <Neuron NSynapses="9">
          1.7351330575197192e+00 -4.4089242211956654e-02 1.0023388626295184e+00 2.8761713516274585e+00 -2.2747227270236148e+00 5.2434284592896141e-01 -1.4011250921207194e-01 6.4464601500576457e-01 -1.8887273587360018e+00 
        </Neuron>
      </Layer>
      <Layer Index="2" NNeurons="10">
        <Neuron NSynapses="1">
          1.5608332001699456e+00 
        </Neuron>
        <Neuron NSynapses="1">
          -1.5112436999203593e-02 
        </Neuron>
        <Neuron NSynapses="1">
          6.7249128344214426e-02 
        </Neuron>
        <Neuron NSynapses="1">
          -1.4425322619440302e+00 
        </Neuron>
        <Neuron NSynapses="1">
          -2.4211354673768321e-01 
        </Neuron>
        <Neuron NSynapses="1">
          -1.0101746688607758e-02 
        </Neuron>
        <Neuron NSynapses="1">
          1.3682125032515700e-02 
        </Neuron>
        <Neuron NSynapses="1">
          -2.5154758280007765e-03 
        </Neuron>
        <Neuron NSynapses="1">
          1.6322363328680081e-01 
        </Neuron>
        <Neuron NSynapses="1">
          -4.5936469552925252e-01 
        </Neuron>
      </Layer>
      <Layer Index="3" NNeurons="1">
        <Neuron NSynapses="0"/>
      </Layer>
    </Layout>
  </Weights>
</MethodSetup>
