<?xml version="1.0"?>
<MethodSetup Method="MLP::XS_29_63_0_cap">
  <GeneralInfo>
    <Info name="TMVA Release" value="4.2.0 [262656]"/>
    <Info name="ROOT Release" value="5.34/14 [336398]"/>
    <Info name="Creator" value="courtin"/>
    <Info name="Date" value="Tue Oct  4 14:44:02 2016"/>
    <Info name="Host" value="Linux nansl3.in2p3.fr 2.6.32-431.20.3.el6.x86_64 #1 SMP Thu Jun 19 14:01:59 CDT 2014 x86_64 x86_64 x86_64 GNU/Linux"/>
    <Info name="Dir" value="/scratch/spallati/courtin/WORK/MOxEUS/BdD_MOxEUS/MOxEUS_NN/XSM/MLP/Train"/>
    <Info name="Training events" value="17790"/>
    <Info name="TrainingTime" value="3.11266783e+02"/>
    <Info name="AnalysisType" value="Regression"/>
  </GeneralInfo>
  <Options>
    <Option name="NCycles" modified="Yes">20000</Option>
    <Option name="HiddenLayers" modified="Yes">N,N</Option>
    <Option name="NeuronType" modified="Yes">tanh</Option>
    <Option name="RandomSeed" modified="No">1</Option>
    <Option name="EstimatorType" modified="No">MSE</Option>
    <Option name="NeuronInputType" modified="No">sum</Option>
    <Option name="V" modified="Yes">False</Option>
    <Option name="VerbosityLevel" modified="No">Default</Option>
    <Option name="VarTransform" modified="Yes">Norm</Option>
    <Option name="H" modified="Yes">False</Option>
    <Option name="CreateMVAPdfs" modified="No">False</Option>
    <Option name="IgnoreNegWeightsInTraining" modified="No">False</Option>
    <Option name="TrainingMethod" modified="Yes">BFGS</Option>
    <Option name="LearningRate" modified="No">2.000000e-02</Option>
    <Option name="DecayRate" modified="No">1.000000e-02</Option>
    <Option name="TestRate" modified="Yes">6</Option>
    <Option name="EpochMonitoring" modified="No">False</Option>
    <Option name="Sampling" modified="Yes">3.000000e-01</Option>
    <Option name="SamplingEpoch" modified="Yes">8.000000e-01</Option>
    <Option name="SamplingImportance" modified="No">1.000000e+00</Option>
    <Option name="SamplingTraining" modified="No">True</Option>
    <Option name="SamplingTesting" modified="No">False</Option>
    <Option name="ResetStep" modified="No">50</Option>
    <Option name="Tau" modified="No">3.000000e+00</Option>
    <Option name="BPMode" modified="No">sequential</Option>
    <Option name="BatchSize" modified="No">-1</Option>
    <Option name="ConvergenceImprove" modified="Yes">1.000000e-06</Option>
    <Option name="ConvergenceTests" modified="Yes">15</Option>
    <Option name="UseRegulator" modified="Yes">False</Option>
    <Option name="UpdateLimit" modified="No">10000</Option>
    <Option name="CalculateErrors" modified="No">False</Option>
    <Option name="WeightRange" modified="No">1.000000e+00</Option>
  </Options>
  <Variables NVar="9">
    <Variable VarIndex="0" Expression="U5" Label="U5" Title="U 235" Unit="FractionIsotopic" Internal="U5" Type="F" Min="2.62645772e-03" Max="5.00135981e-02"/>
    <Variable VarIndex="1" Expression="U8" Label="U8" Title="U 238" Unit="FractionIsotopic" Internal="U8" Type="F" Min="9.12375093e-01" Max="9.91633654e-01"/>
    <Variable VarIndex="2" Expression="Pu8" Label="Pu8" Title="Pu 238" Unit="FractionIsotopic" Internal="Pu8" Type="F" Min="2.42847864e-06" Max="2.94582150e-03"/>
    <Variable VarIndex="3" Expression="Pu9" Label="Pu9" Title="Pu 239" Unit="FractionIsotopic" Internal="Pu9" Type="F" Min="2.72685829e-05" Max="2.46766936e-02"/>
    <Variable VarIndex="4" Expression="Pu10" Label="Pu10" Title="Pu 240" Unit="FractionIsotopic" Internal="Pu10" Type="F" Min="1.36823164e-05" Max="1.54153146e-02"/>
    <Variable VarIndex="5" Expression="Pu11" Label="Pu11" Title="Pu 241" Unit="FractionIsotopic" Internal="Pu11" Type="F" Min="5.21284107e-07" Max="8.27966351e-03"/>
    <Variable VarIndex="6" Expression="Pu12" Label="Pu12" Title="Pu 242" Unit="FractionIsotopic" Internal="Pu12" Type="F" Min="1.39559679e-05" Max="1.32520972e-02"/>
    <Variable VarIndex="7" Expression="Am1" Label="Am1" Title="Am 241" Unit="FractionIsotopic" Internal="Am1" Type="F" Min="1.16816601e-07" Max="3.22229858e-03"/>
    <Variable VarIndex="8" Expression="Time" Label="Time" Title="Time" Unit="seconds" Internal="Time" Type="F" Min="0.00000000e+00" Max="1.89328304e+08"/>
  </Variables>
  <Spectators NSpec="0"/>
  <Classes NClass="1">
    <Class Name="Regression" Index="0"/>
  </Classes>
  <Targets NTrgt="1">
    <Target TargetIndex="0" Expression="XS_29_63_0_cap" Label="XS_29_63_0_cap" Title="XS_29_63_0_cap" Unit="" Internal="XS_29_63_0_cap" Type="F" Min="2.25483000e-01" Max="7.71938682e-01"/>
  </Targets>
  <Transformations NTransformations="1">
    <Transform Name="Normalize">
      <Selection>
        <Input NInputs="10">
          <Input Type="Variable" Label="U5" Expression="U5"/>
          <Input Type="Variable" Label="U8" Expression="U8"/>
          <Input Type="Variable" Label="Pu8" Expression="Pu8"/>
          <Input Type="Variable" Label="Pu9" Expression="Pu9"/>
          <Input Type="Variable" Label="Pu10" Expression="Pu10"/>
          <Input Type="Variable" Label="Pu11" Expression="Pu11"/>
          <Input Type="Variable" Label="Pu12" Expression="Pu12"/>
          <Input Type="Variable" Label="Am1" Expression="Am1"/>
          <Input Type="Variable" Label="Time" Expression="Time"/>
          <Input Type="Target" Label="XS_29_63_0_cap" Expression="XS_29_63_0_cap"/>
        </Input>
        <Output NOutputs="10">
          <Output Type="Variable" Label="U5" Expression="U5"/>
          <Output Type="Variable" Label="U8" Expression="U8"/>
          <Output Type="Variable" Label="Pu8" Expression="Pu8"/>
          <Output Type="Variable" Label="Pu9" Expression="Pu9"/>
          <Output Type="Variable" Label="Pu10" Expression="Pu10"/>
          <Output Type="Variable" Label="Pu11" Expression="Pu11"/>
          <Output Type="Variable" Label="Pu12" Expression="Pu12"/>
          <Output Type="Variable" Label="Am1" Expression="Am1"/>
          <Output Type="Variable" Label="Time" Expression="Time"/>
          <Output Type="Target" Label="XS_29_63_0_cap" Expression="XS_29_63_0_cap"/>
        </Output>
      </Selection>
      <Class ClassIndex="0">
        <Ranges>
          <Range Index="0" Min="2.6264577172696590e-03" Max="5.0013598054647446e-02"/>
          <Range Index="1" Min="9.1237509250640869e-01" Max="9.9163365364074707e-01"/>
          <Range Index="2" Min="2.4284786377393175e-06" Max="2.9458214994519949e-03"/>
          <Range Index="3" Min="2.7268582925898954e-05" Max="2.4676693603396416e-02"/>
          <Range Index="4" Min="1.3682316421181895e-05" Max="1.5415314584970474e-02"/>
          <Range Index="5" Min="5.2128410743534914e-07" Max="8.2796635106205940e-03"/>
          <Range Index="6" Min="1.3955967915535439e-05" Max="1.3252097181975842e-02"/>
          <Range Index="7" Min="1.1681660083695533e-07" Max="3.2222985755652189e-03"/>
          <Range Index="8" Min="0.0000000000000000e+00" Max="1.8932830400000000e+08"/>
          <Range Index="9" Min="2.2548300027847290e-01" Max="7.7193868160247803e-01"/>
        </Ranges>
      </Class>
    </Transform>
  </Transformations>
  <MVAPdfs/>
  <Weights>
    <Layout NLayers="4">
      <Layer Index="0" NNeurons="10">
        <Neuron NSynapses="9">
          -1.3351236356426943e+00 8.9453538827277390e-01 -5.6373848341173383e-01 1.6634518422905022e+00 7.6356517688335915e-02 1.6613035784010979e-01 -8.5305529205910946e-01 1.3260211650638136e+00 -9.9511258112437717e-01 
        </Neuron>
        <Neuron NSynapses="9">
          -7.8045223034743960e-01 -1.1755225911680161e+00 -1.0776680746692890e+00 -1.2543773713374899e+00 -1.7975962328954616e+00 -1.9490957988685635e+00 1.0659745792045832e+00 -6.5588077922494659e-01 1.9013823032520167e+00 
        </Neuron>
        <Neuron NSynapses="9">
          1.3776407155771444e-02 6.7339609014029767e-01 -5.8810684928929303e-02 3.3076275867898897e-01 3.6489263553922252e-01 7.6186690851849204e-02 -7.9849503995084470e-01 5.0811286804328037e-01 -7.8669243452743315e-02 
        </Neuron>
        <Neuron NSynapses="9">
          -1.4560935326957727e+00 -4.8842209145265475e-01 5.9084023230867766e-01 9.9305331409734388e-01 1.8308723957802908e+00 7.4688338366866291e-01 -1.9249643598398561e-01 1.2771896622640051e+00 -1.1123082653665697e+00 
        </Neuron>
        <Neuron NSynapses="9">
          -6.8966309386855040e-01 9.9769538032394534e-01 -5.5444959642573066e-01 9.8008205008780491e-01 9.9257509663012233e-01 4.6732620865019942e-01 1.1050792440594790e+00 1.3057308770138263e+00 -1.0150089995755835e+00 
        </Neuron>
        <Neuron NSynapses="9">
          -4.3068647835411727e-01 -1.1398913967081865e-01 1.6882207904017130e-01 4.9517816336952020e-01 1.4773194448509754e+00 5.5869826478759675e-02 9.2092846358564295e-01 -1.4346259764232299e+00 -4.6433652149496252e-01 
        </Neuron>
        <Neuron NSynapses="9">
          -4.3571207490468317e-01 -1.4713498985560609e+00 -4.2486545189827529e-01 -2.7668795997080503e-01 8.6345040919185967e-01 4.5749977079351067e-01 -3.4965358926677692e-01 -5.3143565058297584e-03 1.1996799414555351e-01 
        </Neuron>
        <Neuron NSynapses="9">
          -9.4388425642782325e-02 7.5506009836062482e-01 2.2578078026431986e-02 4.1310225047375371e-01 -1.5430598557305983e+00 1.0360805661699304e-01 4.5945750819428083e-01 -2.0394493631730354e-01 -1.9636844306615975e-01 
        </Neuron>
        <Neuron NSynapses="9">
          1.3351426554363832e+00 1.5633592104126681e+00 1.9060621542814378e+00 -5.0664168700799428e-01 -2.1802238555766080e+00 -6.1130636804593697e-01 1.3577967249677632e+00 7.0635962817180165e-01 1.1858147985900716e+00 
        </Neuron>
        <Neuron NSynapses="9">
          5.5263063093353360e-01 1.5332671696648013e+00 2.6729580829713577e+00 -1.6081964034475060e+00 5.2437579665970413e-01 2.1566471307506885e+00 -2.5012727418071976e+00 -6.4375956064024298e-01 -1.6249540494251935e+00 
        </Neuron>
      </Layer>
      <Layer Index="1" NNeurons="10">
        <Neuron NSynapses="9">
          6.6815123191103420e-01 -1.4214820828824998e-01 1.1359551989039582e+00 -8.8826337441044856e-01 -6.6759691864284321e-01 1.7208445349333585e+00 -9.8766518524112579e-01 -1.3030996123394760e+00 -1.3551115569830168e+00 
        </Neuron>
        <Neuron NSynapses="9">
          2.6985724619589674e-01 -1.7899652401098995e+00 -9.2390677452924352e-01 2.5400010589704353e-01 2.8519322835695377e-01 -9.2146378932239426e-01 1.1143093469608909e+00 -1.3666352982676684e+00 -6.3417782333094708e-01 
        </Neuron>
        <Neuron NSynapses="9">
          -1.7106580627274268e-01 2.4714949639563155e-01 -2.6184492036744134e+00 1.1559853450779831e+00 8.2414688097219890e-01 4.6474523183960020e-01 -1.1992769279056770e+00 1.9878581557058395e+00 4.1466741368338017e-01 
        </Neuron>
        <Neuron NSynapses="9">
          -1.0007458266610236e+00 7.7310167823027032e-01 -1.0739776970496209e+00 -8.5433201943310255e-01 3.5419802450660376e-01 -4.9376302165557368e-01 1.4292565358057883e+00 9.0582783106668577e-02 7.4689436702490120e-02 
        </Neuron>
        <Neuron NSynapses="9">
          -5.9041899975018908e-01 -4.3180654858908492e-02 -7.6164444393269937e-01 -6.6790222668582144e-02 1.2394380207904887e-01 -1.7825149475592252e+00 1.2094358686898607e+00 -1.1502447159292621e+00 -1.6630307067453043e-01 
        </Neuron>
        <Neuron NSynapses="9">
          9.5410762744238453e-01 2.1011205413128571e+00 -1.0523135528688847e+00 6.5339869311469689e-01 1.2586076067782204e+00 1.5972193622281770e+00 6.8704764041573396e-01 -8.2376930662773074e-01 -4.0485815953078347e-01 
        </Neuron>
        <Neuron NSynapses="9">
          -1.0150240014453689e+00 1.1067938138758500e+00 6.6497956828657245e-01 7.4346524705760364e-01 -2.5762884140682168e-01 9.1221193943321024e-02 -1.4740689731298173e+00 -1.2857978915333174e-01 1.7638175972399002e+00 
        </Neuron>
        <Neuron NSynapses="9">
          -1.4410002696154528e-01 -6.8102943879167432e-01 3.1034940746569878e-01 9.8669517987938216e-01 -2.6395091092819414e-02 8.3389760424607695e-01 -1.3207790133260366e+00 1.0404144642624460e+00 9.0957835940391407e-01 
        </Neuron>
        <Neuron NSynapses="9">
          6.2093726226370598e-02 4.6924627640419520e-01 5.7021371322343706e-01 -4.1242021591907430e-01 -7.2457255180446656e-01 6.7988521676812508e-01 -1.2130497967470701e+00 -1.0066318779840306e+00 1.4440080187399065e+00 
        </Neuron>
        <Neuron NSynapses="9">
          1.8555007227040832e+00 -2.7188713298761744e-02 1.0311315165555957e+00 2.8270200239610421e+00 -2.3507994026119032e+00 8.4925359059710914e-01 1.0814615469403853e-01 9.1936374039882152e-01 -1.8455458253776842e+00 
        </Neuron>
      </Layer>
      <Layer Index="2" NNeurons="10">
        <Neuron NSynapses="1">
          1.1012856641717486e+00 
        </Neuron>
        <Neuron NSynapses="1">
          -1.5969077705305017e-02 
        </Neuron>
        <Neuron NSynapses="1">
          9.0439224410370722e-02 
        </Neuron>
        <Neuron NSynapses="1">
          -1.8762292282694819e+00 
        </Neuron>
        <Neuron NSynapses="1">
          -2.0601876632658497e-01 
        </Neuron>
        <Neuron NSynapses="1">
          -1.0799111659958279e-02 
        </Neuron>
        <Neuron NSynapses="1">
          1.2814168248063132e-02 
        </Neuron>
        <Neuron NSynapses="1">
          -1.9378221279619988e-02 
        </Neuron>
        <Neuron NSynapses="1">
          -2.9440825515270153e-01 
        </Neuron>
        <Neuron NSynapses="1">
          -1.2845717577556084e-01 
        </Neuron>
      </Layer>
      <Layer Index="3" NNeurons="1">
        <Neuron NSynapses="0"/>
      </Layer>
    </Layout>
  </Weights>
</MethodSetup>
