<?xml version="1.0"?>
<MethodSetup Method="MLP::XS_34_79_0_n2n">
  <GeneralInfo>
    <Info name="TMVA Release" value="4.2.0 [262656]"/>
    <Info name="ROOT Release" value="5.34/14 [336398]"/>
    <Info name="Creator" value="courtin"/>
    <Info name="Date" value="Tue Oct  4 13:37:35 2016"/>
    <Info name="Host" value="Linux nansl3.in2p3.fr 2.6.32-431.20.3.el6.x86_64 #1 SMP Thu Jun 19 14:01:59 CDT 2014 x86_64 x86_64 x86_64 GNU/Linux"/>
    <Info name="Dir" value="/scratch/spallati/courtin/WORK/MOxEUS/BdD_MOxEUS/MOxEUS_NN/XSM/MLP/Train"/>
    <Info name="Training events" value="17790"/>
    <Info name="TrainingTime" value="4.92834025e+02"/>
    <Info name="AnalysisType" value="Regression"/>
  </GeneralInfo>
  <Options>
    <Option name="NCycles" modified="Yes">20000</Option>
    <Option name="HiddenLayers" modified="Yes">N,N</Option>
    <Option name="NeuronType" modified="Yes">tanh</Option>
    <Option name="RandomSeed" modified="No">1</Option>
    <Option name="EstimatorType" modified="No">MSE</Option>
    <Option name="NeuronInputType" modified="No">sum</Option>
    <Option name="V" modified="Yes">False</Option>
    <Option name="VerbosityLevel" modified="No">Default</Option>
    <Option name="VarTransform" modified="Yes">Norm</Option>
    <Option name="H" modified="Yes">False</Option>
    <Option name="CreateMVAPdfs" modified="No">False</Option>
    <Option name="IgnoreNegWeightsInTraining" modified="No">False</Option>
    <Option name="TrainingMethod" modified="Yes">BFGS</Option>
    <Option name="LearningRate" modified="No">2.000000e-02</Option>
    <Option name="DecayRate" modified="No">1.000000e-02</Option>
    <Option name="TestRate" modified="Yes">6</Option>
    <Option name="EpochMonitoring" modified="No">False</Option>
    <Option name="Sampling" modified="Yes">3.000000e-01</Option>
    <Option name="SamplingEpoch" modified="Yes">8.000000e-01</Option>
    <Option name="SamplingImportance" modified="No">1.000000e+00</Option>
    <Option name="SamplingTraining" modified="No">True</Option>
    <Option name="SamplingTesting" modified="No">False</Option>
    <Option name="ResetStep" modified="No">50</Option>
    <Option name="Tau" modified="No">3.000000e+00</Option>
    <Option name="BPMode" modified="No">sequential</Option>
    <Option name="BatchSize" modified="No">-1</Option>
    <Option name="ConvergenceImprove" modified="Yes">1.000000e-06</Option>
    <Option name="ConvergenceTests" modified="Yes">15</Option>
    <Option name="UseRegulator" modified="Yes">False</Option>
    <Option name="UpdateLimit" modified="No">10000</Option>
    <Option name="CalculateErrors" modified="No">False</Option>
    <Option name="WeightRange" modified="No">1.000000e+00</Option>
  </Options>
  <Variables NVar="9">
    <Variable VarIndex="0" Expression="U5" Label="U5" Title="U 235" Unit="FractionIsotopic" Internal="U5" Type="F" Min="2.62645772e-03" Max="5.00135981e-02"/>
    <Variable VarIndex="1" Expression="U8" Label="U8" Title="U 238" Unit="FractionIsotopic" Internal="U8" Type="F" Min="9.12375093e-01" Max="9.91633654e-01"/>
    <Variable VarIndex="2" Expression="Pu8" Label="Pu8" Title="Pu 238" Unit="FractionIsotopic" Internal="Pu8" Type="F" Min="2.42847864e-06" Max="2.94582150e-03"/>
    <Variable VarIndex="3" Expression="Pu9" Label="Pu9" Title="Pu 239" Unit="FractionIsotopic" Internal="Pu9" Type="F" Min="2.72685829e-05" Max="2.46766936e-02"/>
    <Variable VarIndex="4" Expression="Pu10" Label="Pu10" Title="Pu 240" Unit="FractionIsotopic" Internal="Pu10" Type="F" Min="1.36823164e-05" Max="1.54153146e-02"/>
    <Variable VarIndex="5" Expression="Pu11" Label="Pu11" Title="Pu 241" Unit="FractionIsotopic" Internal="Pu11" Type="F" Min="5.21284107e-07" Max="8.27966351e-03"/>
    <Variable VarIndex="6" Expression="Pu12" Label="Pu12" Title="Pu 242" Unit="FractionIsotopic" Internal="Pu12" Type="F" Min="1.39559679e-05" Max="1.32520972e-02"/>
    <Variable VarIndex="7" Expression="Am1" Label="Am1" Title="Am 241" Unit="FractionIsotopic" Internal="Am1" Type="F" Min="1.16816601e-07" Max="3.22229858e-03"/>
    <Variable VarIndex="8" Expression="Time" Label="Time" Title="Time" Unit="seconds" Internal="Time" Type="F" Min="0.00000000e+00" Max="1.89328304e+08"/>
  </Variables>
  <Spectators NSpec="0"/>
  <Classes NClass="1">
    <Class Name="Regression" Index="0"/>
  </Classes>
  <Targets NTrgt="1">
    <Target TargetIndex="0" Expression="XS_34_79_0_n2n" Label="XS_34_79_0_n2n" Title="XS_34_79_0_n2n" Unit="" Internal="XS_34_79_0_n2n" Type="F" Min="1.67727203e-03" Max="3.16230999e-03"/>
  </Targets>
  <Transformations NTransformations="1">
    <Transform Name="Normalize">
      <Selection>
        <Input NInputs="10">
          <Input Type="Variable" Label="U5" Expression="U5"/>
          <Input Type="Variable" Label="U8" Expression="U8"/>
          <Input Type="Variable" Label="Pu8" Expression="Pu8"/>
          <Input Type="Variable" Label="Pu9" Expression="Pu9"/>
          <Input Type="Variable" Label="Pu10" Expression="Pu10"/>
          <Input Type="Variable" Label="Pu11" Expression="Pu11"/>
          <Input Type="Variable" Label="Pu12" Expression="Pu12"/>
          <Input Type="Variable" Label="Am1" Expression="Am1"/>
          <Input Type="Variable" Label="Time" Expression="Time"/>
          <Input Type="Target" Label="XS_34_79_0_n2n" Expression="XS_34_79_0_n2n"/>
        </Input>
        <Output NOutputs="10">
          <Output Type="Variable" Label="U5" Expression="U5"/>
          <Output Type="Variable" Label="U8" Expression="U8"/>
          <Output Type="Variable" Label="Pu8" Expression="Pu8"/>
          <Output Type="Variable" Label="Pu9" Expression="Pu9"/>
          <Output Type="Variable" Label="Pu10" Expression="Pu10"/>
          <Output Type="Variable" Label="Pu11" Expression="Pu11"/>
          <Output Type="Variable" Label="Pu12" Expression="Pu12"/>
          <Output Type="Variable" Label="Am1" Expression="Am1"/>
          <Output Type="Variable" Label="Time" Expression="Time"/>
          <Output Type="Target" Label="XS_34_79_0_n2n" Expression="XS_34_79_0_n2n"/>
        </Output>
      </Selection>
      <Class ClassIndex="0">
        <Ranges>
          <Range Index="0" Min="2.6264577172696590e-03" Max="5.0013598054647446e-02"/>
          <Range Index="1" Min="9.1237509250640869e-01" Max="9.9163365364074707e-01"/>
          <Range Index="2" Min="2.4284786377393175e-06" Max="2.9458214994519949e-03"/>
          <Range Index="3" Min="2.7268582925898954e-05" Max="2.4676693603396416e-02"/>
          <Range Index="4" Min="1.3682316421181895e-05" Max="1.5415314584970474e-02"/>
          <Range Index="5" Min="5.2128410743534914e-07" Max="8.2796635106205940e-03"/>
          <Range Index="6" Min="1.3955967915535439e-05" Max="1.3252097181975842e-02"/>
          <Range Index="7" Min="1.1681660083695533e-07" Max="3.2222985755652189e-03"/>
          <Range Index="8" Min="0.0000000000000000e+00" Max="1.8932830400000000e+08"/>
          <Range Index="9" Min="1.6772720264270902e-03" Max="3.1623099930584431e-03"/>
        </Ranges>
      </Class>
    </Transform>
  </Transformations>
  <MVAPdfs/>
  <Weights>
    <Layout NLayers="4">
      <Layer Index="0" NNeurons="10">
        <Neuron NSynapses="9">
          -1.6580234049488518e-01 6.4835593217614362e-01 -1.3311716664520740e-01 7.0784416284595442e-01 -7.7226993929222321e-01 -7.9043402823015152e-01 -1.4658835807757836e-01 5.7472858439210017e-01 -5.8040253373641597e-02 
        </Neuron>
        <Neuron NSynapses="9">
          -1.5351001226704779e+00 -1.0811094479160506e+00 -7.4094001881127955e-02 -9.7359698077027423e-01 -1.3572954163841269e+00 -6.9529937683176946e-02 3.8101131999013987e-01 6.8789781075070999e-01 1.3077002257452908e+00 
        </Neuron>
        <Neuron NSynapses="9">
          -4.1303217255847485e-01 -2.6945078156923732e-02 -2.1916472330496369e-02 -1.7748935639668659e-01 2.1664389583102514e-01 2.6092528406383403e-01 -3.2202882614400224e-01 -4.3514443264528677e-03 1.8203675534490369e+00 
        </Neuron>
        <Neuron NSynapses="9">
          -2.0728933822687692e+00 -6.1028328244587993e-01 -3.3939432931372715e-01 8.4899784574267423e-01 1.5828124793566412e+00 2.9022901067947782e-01 -1.3207394744843304e-01 -3.8754348556707624e-01 -5.8330509972771405e-01 
        </Neuron>
        <Neuron NSynapses="9">
          -3.1349949914908892e-01 1.4551610365428720e+00 -4.3363216559306805e-01 8.3863261665426847e-01 5.7489789123632984e-01 1.5091847194652783e-01 2.1351913801959244e+00 1.2277169592060508e-01 -3.3383566839872514e-01 
        </Neuron>
        <Neuron NSynapses="9">
          -1.9961945463672548e+00 1.3757142946018194e-01 -4.2696944787482191e-02 -5.9168410342278856e-02 9.7773762126097175e-01 1.2469073006074942e-01 1.4401996039869940e+00 -2.9411043879682458e-01 1.1937579345834959e+00 
        </Neuron>
        <Neuron NSynapses="9">
          -1.0418190814476873e+00 -1.5538197293756870e+00 -2.4400505571795722e-01 -5.9870311935695519e-01 4.0294286460427442e-01 -1.3540096399761734e-01 -3.0443177530822191e-01 2.0519301943135154e-01 5.7714746024853736e-01 
        </Neuron>
        <Neuron NSynapses="9">
          2.0812194675142850e-01 9.3226237618970220e-01 -1.1183491170419882e-01 3.8397063952520821e-01 -1.0991238810144215e+00 -1.2478143197222314e-02 2.2463779915565393e-01 -3.4037961592889764e-02 3.5495796810466884e-02 
        </Neuron>
        <Neuron NSynapses="9">
          9.5525322735921167e-02 2.4609486169127175e+00 -1.7906090487142218e-01 8.7108837951329099e-01 -1.1273698439838653e+00 -1.5994884984623561e+00 7.5598482211675744e-01 -1.0176921576067717e+00 9.8716477216361054e-01 
        </Neuron>
        <Neuron NSynapses="9">
          1.9844800650536529e+00 1.5594176361496417e+00 -5.5979895634113042e-01 -8.0866799642529373e-03 1.6306585544612371e+00 -1.1253737919776285e+00 -2.5864618190882354e+00 -1.5792905625990341e+00 -3.5433176300799332e+00 
        </Neuron>
      </Layer>
      <Layer Index="1" NNeurons="10">
        <Neuron NSynapses="9">
          1.0707685185693416e-01 -4.7947045660969428e-01 2.6144616320618517e+00 -7.6079364272939276e-01 1.2171797953469229e-01 3.4532654745278241e-01 -7.4491459763679380e-01 -9.8049469858565030e-01 -1.5677705519632814e+00 
        </Neuron>
        <Neuron NSynapses="9">
          -2.1942682986569040e-01 -1.2960214174007172e+00 -1.1045405359044549e+00 1.7744501729956688e-01 8.9189917935514318e-01 -7.5409824780162546e-02 4.1232965097093183e-01 -2.4465503314585879e-01 -3.0521947904878904e-01 
        </Neuron>
        <Neuron NSynapses="9">
          2.4706373546672694e-01 7.7072345911619855e-01 -6.7584880409546411e-02 1.6053565648361328e+00 9.4126917434352164e-01 6.6643052531726765e-01 -3.5820009275361719e-01 1.9870158956751995e+00 5.5023093388257782e-01 
        </Neuron>
        <Neuron NSynapses="9">
          -1.0389905589994761e+00 1.0716146415863399e+00 -4.0267074663767266e-01 1.9153971317697016e-01 7.0511709140162332e-02 -9.1904813580454947e-01 6.1778350553526551e-01 3.8389473363091731e-01 3.7774597038947405e-01 
        </Neuron>
        <Neuron NSynapses="9">
          -4.1545064916141128e-01 2.9110181384636880e-01 -1.6837060701115696e+00 7.1980707175021263e-01 -2.4926205601293497e-01 -4.8508816742994265e-01 7.5576843158933052e-02 -1.1080924073578395e+00 -2.1618264157146211e-01 
        </Neuron>
        <Neuron NSynapses="9">
          1.0950470434166233e+00 1.4142895784591416e+00 -9.1475010018653202e-01 -5.8349722655264902e-01 8.6424540908645409e-01 1.3026389655724837e+00 2.5623364754832323e-01 -1.4529401477972446e+00 -2.4439831259440190e-01 
        </Neuron>
        <Neuron NSynapses="9">
          -1.1290103119062216e+00 1.6811001809463444e+00 1.8579386048698379e-01 -2.1665299579897504e-01 -1.1572005226812936e+00 9.8145296868800558e-01 -1.2829856133859654e+00 2.0694408843750140e-02 1.2369083783672947e+00 
        </Neuron>
        <Neuron NSynapses="9">
          -1.5138276679237734e+00 -1.0580968742319015e+00 1.0646915370587171e+00 2.4178129378826219e+00 1.3943407886895491e+00 2.7254740181292441e+00 -7.8953767876868408e-01 1.3332037038354911e+00 1.2661980718742900e+00 
        </Neuron>
        <Neuron NSynapses="9">
          6.1540393333912158e-01 8.5147502784140372e-01 1.1251693233513314e+00 -8.1051057216083289e-01 -9.1433263512495466e-01 1.2666724773505547e+00 -6.3306486341113566e-01 -1.1303903028991980e+00 1.1092591690736155e+00 
        </Neuron>
        <Neuron NSynapses="9">
          1.0341179134877778e+00 -5.5407875680066265e-01 2.0371071316677383e+00 1.6951966636548716e+00 -1.3515766068853063e+00 -1.1322072099282567e+00 -3.8096140034316675e-02 8.9517210084007315e-01 -2.5540486692552720e+00 
        </Neuron>
      </Layer>
      <Layer Index="2" NNeurons="10">
        <Neuron NSynapses="1">
          -1.0259233218723084e-02 
        </Neuron>
        <Neuron NSynapses="1">
          1.2061986756634353e-01 
        </Neuron>
        <Neuron NSynapses="1">
          -6.1141932644035731e-02 
        </Neuron>
        <Neuron NSynapses="1">
          -1.1651599482528895e-01 
        </Neuron>
        <Neuron NSynapses="1">
          -9.7562407830661002e-02 
        </Neuron>
        <Neuron NSynapses="1">
          -1.8514614358041666e+00 
        </Neuron>
        <Neuron NSynapses="1">
          3.0012007103413102e-01 
        </Neuron>
        <Neuron NSynapses="1">
          -3.6129863322416876e-02 
        </Neuron>
        <Neuron NSynapses="1">
          1.3322951473847056e+00 
        </Neuron>
        <Neuron NSynapses="1">
          -2.2509510512970185e-01 
        </Neuron>
      </Layer>
      <Layer Index="3" NNeurons="1">
        <Neuron NSynapses="0"/>
      </Layer>
    </Layout>
  </Weights>
</MethodSetup>
