<?xml version="1.0"?>
<MethodSetup Method="MLP::XS_74_183_0_n2n">
  <GeneralInfo>
    <Info name="TMVA Release" value="4.2.0 [262656]"/>
    <Info name="ROOT Release" value="5.34/14 [336398]"/>
    <Info name="Creator" value="courtin"/>
    <Info name="Date" value="Tue Oct  4 15:25:40 2016"/>
    <Info name="Host" value="Linux nansl3.in2p3.fr 2.6.32-431.20.3.el6.x86_64 #1 SMP Thu Jun 19 14:01:59 CDT 2014 x86_64 x86_64 x86_64 GNU/Linux"/>
    <Info name="Dir" value="/scratch/spallati/courtin/WORK/MOxEUS/BdD_MOxEUS/MOxEUS_NN/XSM/MLP/Train"/>
    <Info name="Training events" value="17790"/>
    <Info name="TrainingTime" value="2.62801290e+02"/>
    <Info name="AnalysisType" value="Regression"/>
  </GeneralInfo>
  <Options>
    <Option name="NCycles" modified="Yes">20000</Option>
    <Option name="HiddenLayers" modified="Yes">N,N</Option>
    <Option name="NeuronType" modified="Yes">tanh</Option>
    <Option name="RandomSeed" modified="No">1</Option>
    <Option name="EstimatorType" modified="No">MSE</Option>
    <Option name="NeuronInputType" modified="No">sum</Option>
    <Option name="V" modified="Yes">False</Option>
    <Option name="VerbosityLevel" modified="No">Default</Option>
    <Option name="VarTransform" modified="Yes">Norm</Option>
    <Option name="H" modified="Yes">False</Option>
    <Option name="CreateMVAPdfs" modified="No">False</Option>
    <Option name="IgnoreNegWeightsInTraining" modified="No">False</Option>
    <Option name="TrainingMethod" modified="Yes">BFGS</Option>
    <Option name="LearningRate" modified="No">2.000000e-02</Option>
    <Option name="DecayRate" modified="No">1.000000e-02</Option>
    <Option name="TestRate" modified="Yes">6</Option>
    <Option name="EpochMonitoring" modified="No">False</Option>
    <Option name="Sampling" modified="Yes">3.000000e-01</Option>
    <Option name="SamplingEpoch" modified="Yes">8.000000e-01</Option>
    <Option name="SamplingImportance" modified="No">1.000000e+00</Option>
    <Option name="SamplingTraining" modified="No">True</Option>
    <Option name="SamplingTesting" modified="No">False</Option>
    <Option name="ResetStep" modified="No">50</Option>
    <Option name="Tau" modified="No">3.000000e+00</Option>
    <Option name="BPMode" modified="No">sequential</Option>
    <Option name="BatchSize" modified="No">-1</Option>
    <Option name="ConvergenceImprove" modified="Yes">1.000000e-06</Option>
    <Option name="ConvergenceTests" modified="Yes">15</Option>
    <Option name="UseRegulator" modified="Yes">False</Option>
    <Option name="UpdateLimit" modified="No">10000</Option>
    <Option name="CalculateErrors" modified="No">False</Option>
    <Option name="WeightRange" modified="No">1.000000e+00</Option>
  </Options>
  <Variables NVar="9">
    <Variable VarIndex="0" Expression="U5" Label="U5" Title="U 235" Unit="FractionIsotopic" Internal="U5" Type="F" Min="2.62645772e-03" Max="5.00135981e-02"/>
    <Variable VarIndex="1" Expression="U8" Label="U8" Title="U 238" Unit="FractionIsotopic" Internal="U8" Type="F" Min="9.12375093e-01" Max="9.91633654e-01"/>
    <Variable VarIndex="2" Expression="Pu8" Label="Pu8" Title="Pu 238" Unit="FractionIsotopic" Internal="Pu8" Type="F" Min="2.42847864e-06" Max="2.94582150e-03"/>
    <Variable VarIndex="3" Expression="Pu9" Label="Pu9" Title="Pu 239" Unit="FractionIsotopic" Internal="Pu9" Type="F" Min="2.72685829e-05" Max="2.46766936e-02"/>
    <Variable VarIndex="4" Expression="Pu10" Label="Pu10" Title="Pu 240" Unit="FractionIsotopic" Internal="Pu10" Type="F" Min="1.36823164e-05" Max="1.54153146e-02"/>
    <Variable VarIndex="5" Expression="Pu11" Label="Pu11" Title="Pu 241" Unit="FractionIsotopic" Internal="Pu11" Type="F" Min="5.21284107e-07" Max="8.27966351e-03"/>
    <Variable VarIndex="6" Expression="Pu12" Label="Pu12" Title="Pu 242" Unit="FractionIsotopic" Internal="Pu12" Type="F" Min="1.39559679e-05" Max="1.32520972e-02"/>
    <Variable VarIndex="7" Expression="Am1" Label="Am1" Title="Am 241" Unit="FractionIsotopic" Internal="Am1" Type="F" Min="1.16816601e-07" Max="3.22229858e-03"/>
    <Variable VarIndex="8" Expression="Time" Label="Time" Title="Time" Unit="seconds" Internal="Time" Type="F" Min="0.00000000e+00" Max="1.89328304e+08"/>
  </Variables>
  <Spectators NSpec="0"/>
  <Classes NClass="1">
    <Class Name="Regression" Index="0"/>
  </Classes>
  <Targets NTrgt="1">
    <Target TargetIndex="0" Expression="XS_74_183_0_n2n" Label="XS_74_183_0_n2n" Title="XS_74_183_0_n2n" Unit="" Internal="XS_74_183_0_n2n" Type="F" Min="3.59054096e-03" Max="6.43531000e-03"/>
  </Targets>
  <Transformations NTransformations="1">
    <Transform Name="Normalize">
      <Selection>
        <Input NInputs="10">
          <Input Type="Variable" Label="U5" Expression="U5"/>
          <Input Type="Variable" Label="U8" Expression="U8"/>
          <Input Type="Variable" Label="Pu8" Expression="Pu8"/>
          <Input Type="Variable" Label="Pu9" Expression="Pu9"/>
          <Input Type="Variable" Label="Pu10" Expression="Pu10"/>
          <Input Type="Variable" Label="Pu11" Expression="Pu11"/>
          <Input Type="Variable" Label="Pu12" Expression="Pu12"/>
          <Input Type="Variable" Label="Am1" Expression="Am1"/>
          <Input Type="Variable" Label="Time" Expression="Time"/>
          <Input Type="Target" Label="XS_74_183_0_n2n" Expression="XS_74_183_0_n2n"/>
        </Input>
        <Output NOutputs="10">
          <Output Type="Variable" Label="U5" Expression="U5"/>
          <Output Type="Variable" Label="U8" Expression="U8"/>
          <Output Type="Variable" Label="Pu8" Expression="Pu8"/>
          <Output Type="Variable" Label="Pu9" Expression="Pu9"/>
          <Output Type="Variable" Label="Pu10" Expression="Pu10"/>
          <Output Type="Variable" Label="Pu11" Expression="Pu11"/>
          <Output Type="Variable" Label="Pu12" Expression="Pu12"/>
          <Output Type="Variable" Label="Am1" Expression="Am1"/>
          <Output Type="Variable" Label="Time" Expression="Time"/>
          <Output Type="Target" Label="XS_74_183_0_n2n" Expression="XS_74_183_0_n2n"/>
        </Output>
      </Selection>
      <Class ClassIndex="0">
        <Ranges>
          <Range Index="0" Min="2.6264577172696590e-03" Max="5.0013598054647446e-02"/>
          <Range Index="1" Min="9.1237509250640869e-01" Max="9.9163365364074707e-01"/>
          <Range Index="2" Min="2.4284786377393175e-06" Max="2.9458214994519949e-03"/>
          <Range Index="3" Min="2.7268582925898954e-05" Max="2.4676693603396416e-02"/>
          <Range Index="4" Min="1.3682316421181895e-05" Max="1.5415314584970474e-02"/>
          <Range Index="5" Min="5.2128410743534914e-07" Max="8.2796635106205940e-03"/>
          <Range Index="6" Min="1.3955967915535439e-05" Max="1.3252097181975842e-02"/>
          <Range Index="7" Min="1.1681660083695533e-07" Max="3.2222985755652189e-03"/>
          <Range Index="8" Min="0.0000000000000000e+00" Max="1.8932830400000000e+08"/>
          <Range Index="9" Min="3.5905409604310989e-03" Max="6.4353100024163723e-03"/>
        </Ranges>
      </Class>
    </Transform>
  </Transformations>
  <MVAPdfs/>
  <Weights>
    <Layout NLayers="4">
      <Layer Index="0" NNeurons="10">
        <Neuron NSynapses="9">
          2.5684135692338704e-02 7.3176199408450116e-01 7.9416528722186963e-02 2.6382168342139106e-01 -1.3632911171140589e+00 -9.5353186853467164e-01 -3.4190936342829115e-01 6.7769742586808890e-01 -7.9097227653890245e-01 
        </Neuron>
        <Neuron NSynapses="9">
          -1.1569309372570653e+00 -1.4991315068169120e+00 3.1132621937287397e-01 -1.2248476054408537e+00 -1.4856940380459216e+00 3.1472469666219121e-04 5.5068783265899379e-01 8.8192168871526011e-01 1.7658609701545074e+00 
        </Neuron>
        <Neuron NSynapses="9">
          -2.3357184944370252e-01 4.1696712739894659e-01 -9.3928189898876774e-02 8.3054968299765594e-02 5.3571833306198968e-02 7.0569552079267750e-01 -4.4212028058698494e-01 -1.0721809139873292e-03 1.6863819114036214e+00 
        </Neuron>
        <Neuron NSynapses="9">
          -1.8802658664130292e+00 -3.5077950560706739e-01 -8.2222433393390315e-01 1.8876184490649695e+00 1.5157334532911595e+00 1.4761484976239445e-01 -2.8980483257119949e-01 -8.9583195342708799e-01 -5.0353060620419510e-01 
        </Neuron>
        <Neuron NSynapses="9">
          -1.6849676834306044e+00 1.7449970203022223e+00 -7.0196765898646130e-01 1.7259194553082575e+00 7.9627190610830767e-01 2.1275970995497152e-02 2.3590233016340685e+00 6.1729165498732683e-02 -6.5307917553888628e-01 
        </Neuron>
        <Neuron NSynapses="9">
          -8.7889413407559824e-01 -1.0740659582812558e-02 -2.0347129664910435e-01 1.0501045513345419e+00 7.3645348734851890e-01 4.5068806461648597e-01 1.0034396762039128e+00 -3.7838221877966566e-01 1.2716560947279802e+00 
        </Neuron>
        <Neuron NSynapses="9">
          -1.6182729337907622e+00 -1.4732539535553539e+00 -6.5511472653699510e-01 -4.0075367359680719e-01 1.0808350396076052e+00 2.3072390013220256e-02 -1.0610660749070346e+00 4.8206550160256917e-01 -1.9787232363082247e-02 
        </Neuron>
        <Neuron NSynapses="9">
          4.1679332424056986e-01 1.0028461974635730e+00 2.8133730899866365e-02 1.0906787971355629e+00 -9.8573332732178653e-01 1.5286471619324335e-01 1.6124598268108417e-01 -3.3527107047895793e-01 -4.3293654436606588e-01 
        </Neuron>
        <Neuron NSynapses="9">
          -1.8936799233618681e-02 2.9391015163401955e+00 -2.3594428331549708e-01 1.0248457355134359e+00 -7.4089718587442610e-01 -2.1217451580794022e+00 6.9027796875584568e-01 -1.2601129465619862e+00 1.1260808062614953e+00 
        </Neuron>
        <Neuron NSynapses="9">
          9.4393858962113841e-01 2.2511119752832811e+00 -1.2965989706865080e+00 -5.4527861530774269e-01 2.8374937953560457e+00 -1.0818739182303230e+00 -2.1603882265746042e+00 -1.9382867793411886e+00 -3.1135039819016632e+00 
        </Neuron>
      </Layer>
      <Layer Index="1" NNeurons="10">
        <Neuron NSynapses="9">
          -5.8101720888905184e-01 3.1915619845165250e-02 2.1131719090745804e+00 -1.2447073409248208e+00 -1.5528633522512902e-01 4.7727426361766739e-01 -1.2049832540182013e+00 -1.5662097537655915e+00 -1.3544515945130302e+00 
        </Neuron>
        <Neuron NSynapses="9">
          -5.7381837609207853e-01 -1.6442607433034455e+00 -1.9307107788456350e+00 9.8218662025603465e-01 7.3947982445452709e-01 -7.9632142005367235e-01 6.8146486662680139e-01 -1.2662493997268385e+00 -5.0684469368790563e-01 
        </Neuron>
        <Neuron NSynapses="9">
          1.9292411683519961e-01 3.5435042275763384e-01 -3.8743634538589350e-01 5.0996048937143112e-01 1.0317103823764804e+00 8.8873158303290656e-01 -8.1554894286483171e-01 1.8466460226085901e+00 7.4132231939398263e-01 
        </Neuron>
        <Neuron NSynapses="9">
          -1.0958161730412495e+00 9.8549180373595313e-01 -5.2689178537867098e-01 -4.0533860100725588e-01 -1.7623276798061657e-01 2.1494863238068186e-02 9.8854755553602702e-01 8.9131969052727655e-01 1.9098055945812545e-01 
        </Neuron>
        <Neuron NSynapses="9">
          -5.5877528197069329e-02 4.5943121015500771e-01 -1.7310117353507104e+00 7.7469535895306829e-01 6.0634068109043471e-01 -3.3492068959777299e-01 2.4421413663068603e-01 -9.9453611234235328e-01 -4.7869392571937669e-01 
        </Neuron>
        <Neuron NSynapses="9">
          1.6502610297423872e+00 1.8840378318294357e+00 -1.3381116374463011e+00 -4.8879080010798925e-01 1.7531659018680215e-01 6.8025029565178941e-01 -1.7889547482422688e-01 -7.8306929993610275e-01 -1.7286263639926391e-01 
        </Neuron>
        <Neuron NSynapses="9">
          -7.2954737092553845e-01 1.5947811941986361e+00 7.3915410321487418e-01 -3.6633458760963439e-01 -1.0328451863090955e+00 1.0702119175419282e+00 -1.3042736735397038e+00 5.7867992460914575e-01 1.0601348788115645e+00 
        </Neuron>
        <Neuron NSynapses="9">
          -1.4501926116575874e+00 -5.0155096922338260e-01 7.8628597890822138e-01 1.6380903554085384e+00 1.3424378229787435e+00 1.6171258288560584e+00 -5.0149513824093950e-01 1.7512459669538398e+00 1.0820278070255460e+00 
        </Neuron>
        <Neuron NSynapses="9">
          1.1332622721821932e+00 7.1122002870608170e-01 6.9066775948049597e-01 -1.4209914719146068e+00 -9.4340364256191789e-01 1.3330440124123719e+00 -4.2782465513052276e-01 -6.4041802995452013e-01 1.3070689109383431e+00 
        </Neuron>
        <Neuron NSynapses="9">
          4.8041710402426752e-01 -4.4009554747540214e-01 2.0891880986572544e+00 1.8530353129546435e+00 -1.4307043281727312e+00 -1.1994674439780688e+00 -3.8287154438814100e-02 3.9690980036212981e-01 -2.8444523384240115e+00 
        </Neuron>
      </Layer>
      <Layer Index="2" NNeurons="10">
        <Neuron NSynapses="1">
          -6.0420697823453167e-03 
        </Neuron>
        <Neuron NSynapses="1">
          3.0149352476190598e-02 
        </Neuron>
        <Neuron NSynapses="1">
          -4.7005186977500731e-02 
        </Neuron>
        <Neuron NSynapses="1">
          -2.1806022297828395e-01 
        </Neuron>
        <Neuron NSynapses="1">
          -1.1253482764814716e-01 
        </Neuron>
        <Neuron NSynapses="1">
          -1.1983034239676771e+00 
        </Neuron>
        <Neuron NSynapses="1">
          9.2422914892021701e-02 
        </Neuron>
        <Neuron NSynapses="1">
          -4.7858878229863303e-02 
        </Neuron>
        <Neuron NSynapses="1">
          5.8909774041071317e-01 
        </Neuron>
        <Neuron NSynapses="1">
          -6.3533597907091940e-02 
        </Neuron>
      </Layer>
      <Layer Index="3" NNeurons="1">
        <Neuron NSynapses="0"/>
      </Layer>
    </Layout>
  </Weights>
</MethodSetup>
