<?xml version="1.0"?>
<MethodSetup Method="MLP::XS_89_227_0_fis">
  <GeneralInfo>
    <Info name="TMVA Release" value="4.2.0 [262656]"/>
    <Info name="ROOT Release" value="5.34/14 [336398]"/>
    <Info name="Creator" value="courtin"/>
    <Info name="Date" value="Tue Oct  4 13:27:51 2016"/>
    <Info name="Host" value="Linux nansl3.in2p3.fr 2.6.32-431.20.3.el6.x86_64 #1 SMP Thu Jun 19 14:01:59 CDT 2014 x86_64 x86_64 x86_64 GNU/Linux"/>
    <Info name="Dir" value="/scratch/spallati/courtin/WORK/MOxEUS/BdD_MOxEUS/MOxEUS_NN/XSM/MLP/Train"/>
    <Info name="Training events" value="17790"/>
    <Info name="TrainingTime" value="8.13296203e+02"/>
    <Info name="AnalysisType" value="Regression"/>
  </GeneralInfo>
  <Options>
    <Option name="NCycles" modified="Yes">20000</Option>
    <Option name="HiddenLayers" modified="Yes">N,N</Option>
    <Option name="NeuronType" modified="Yes">tanh</Option>
    <Option name="RandomSeed" modified="No">1</Option>
    <Option name="EstimatorType" modified="No">MSE</Option>
    <Option name="NeuronInputType" modified="No">sum</Option>
    <Option name="V" modified="Yes">False</Option>
    <Option name="VerbosityLevel" modified="No">Default</Option>
    <Option name="VarTransform" modified="Yes">Norm</Option>
    <Option name="H" modified="Yes">False</Option>
    <Option name="CreateMVAPdfs" modified="No">False</Option>
    <Option name="IgnoreNegWeightsInTraining" modified="No">False</Option>
    <Option name="TrainingMethod" modified="Yes">BFGS</Option>
    <Option name="LearningRate" modified="No">2.000000e-02</Option>
    <Option name="DecayRate" modified="No">1.000000e-02</Option>
    <Option name="TestRate" modified="Yes">6</Option>
    <Option name="EpochMonitoring" modified="No">False</Option>
    <Option name="Sampling" modified="Yes">3.000000e-01</Option>
    <Option name="SamplingEpoch" modified="Yes">8.000000e-01</Option>
    <Option name="SamplingImportance" modified="No">1.000000e+00</Option>
    <Option name="SamplingTraining" modified="No">True</Option>
    <Option name="SamplingTesting" modified="No">False</Option>
    <Option name="ResetStep" modified="No">50</Option>
    <Option name="Tau" modified="No">3.000000e+00</Option>
    <Option name="BPMode" modified="No">sequential</Option>
    <Option name="BatchSize" modified="No">-1</Option>
    <Option name="ConvergenceImprove" modified="Yes">1.000000e-06</Option>
    <Option name="ConvergenceTests" modified="Yes">15</Option>
    <Option name="UseRegulator" modified="Yes">False</Option>
    <Option name="UpdateLimit" modified="No">10000</Option>
    <Option name="CalculateErrors" modified="No">False</Option>
    <Option name="WeightRange" modified="No">1.000000e+00</Option>
  </Options>
  <Variables NVar="9">
    <Variable VarIndex="0" Expression="U5" Label="U5" Title="U 235" Unit="FractionIsotopic" Internal="U5" Type="F" Min="2.62645772e-03" Max="5.00135981e-02"/>
    <Variable VarIndex="1" Expression="U8" Label="U8" Title="U 238" Unit="FractionIsotopic" Internal="U8" Type="F" Min="9.12375093e-01" Max="9.91633654e-01"/>
    <Variable VarIndex="2" Expression="Pu8" Label="Pu8" Title="Pu 238" Unit="FractionIsotopic" Internal="Pu8" Type="F" Min="2.42847864e-06" Max="2.94582150e-03"/>
    <Variable VarIndex="3" Expression="Pu9" Label="Pu9" Title="Pu 239" Unit="FractionIsotopic" Internal="Pu9" Type="F" Min="2.72685829e-05" Max="2.46766936e-02"/>
    <Variable VarIndex="4" Expression="Pu10" Label="Pu10" Title="Pu 240" Unit="FractionIsotopic" Internal="Pu10" Type="F" Min="1.36823164e-05" Max="1.54153146e-02"/>
    <Variable VarIndex="5" Expression="Pu11" Label="Pu11" Title="Pu 241" Unit="FractionIsotopic" Internal="Pu11" Type="F" Min="5.21284107e-07" Max="8.27966351e-03"/>
    <Variable VarIndex="6" Expression="Pu12" Label="Pu12" Title="Pu 242" Unit="FractionIsotopic" Internal="Pu12" Type="F" Min="1.39559679e-05" Max="1.32520972e-02"/>
    <Variable VarIndex="7" Expression="Am1" Label="Am1" Title="Am 241" Unit="FractionIsotopic" Internal="Am1" Type="F" Min="1.16816601e-07" Max="3.22229858e-03"/>
    <Variable VarIndex="8" Expression="Time" Label="Time" Title="Time" Unit="seconds" Internal="Time" Type="F" Min="0.00000000e+00" Max="1.89328304e+08"/>
  </Variables>
  <Spectators NSpec="0"/>
  <Classes NClass="1">
    <Class Name="Regression" Index="0"/>
  </Classes>
  <Targets NTrgt="1">
    <Target TargetIndex="0" Expression="XS_89_227_0_fis" Label="XS_89_227_0_fis" Title="XS_89_227_0_fis" Unit="" Internal="XS_89_227_0_fis" Type="F" Min="3.45831504e-03" Max="4.81733214e-03"/>
  </Targets>
  <Transformations NTransformations="1">
    <Transform Name="Normalize">
      <Selection>
        <Input NInputs="10">
          <Input Type="Variable" Label="U5" Expression="U5"/>
          <Input Type="Variable" Label="U8" Expression="U8"/>
          <Input Type="Variable" Label="Pu8" Expression="Pu8"/>
          <Input Type="Variable" Label="Pu9" Expression="Pu9"/>
          <Input Type="Variable" Label="Pu10" Expression="Pu10"/>
          <Input Type="Variable" Label="Pu11" Expression="Pu11"/>
          <Input Type="Variable" Label="Pu12" Expression="Pu12"/>
          <Input Type="Variable" Label="Am1" Expression="Am1"/>
          <Input Type="Variable" Label="Time" Expression="Time"/>
          <Input Type="Target" Label="XS_89_227_0_fis" Expression="XS_89_227_0_fis"/>
        </Input>
        <Output NOutputs="10">
          <Output Type="Variable" Label="U5" Expression="U5"/>
          <Output Type="Variable" Label="U8" Expression="U8"/>
          <Output Type="Variable" Label="Pu8" Expression="Pu8"/>
          <Output Type="Variable" Label="Pu9" Expression="Pu9"/>
          <Output Type="Variable" Label="Pu10" Expression="Pu10"/>
          <Output Type="Variable" Label="Pu11" Expression="Pu11"/>
          <Output Type="Variable" Label="Pu12" Expression="Pu12"/>
          <Output Type="Variable" Label="Am1" Expression="Am1"/>
          <Output Type="Variable" Label="Time" Expression="Time"/>
          <Output Type="Target" Label="XS_89_227_0_fis" Expression="XS_89_227_0_fis"/>
        </Output>
      </Selection>
      <Class ClassIndex="0">
        <Ranges>
          <Range Index="0" Min="2.6264577172696590e-03" Max="5.0013598054647446e-02"/>
          <Range Index="1" Min="9.1237509250640869e-01" Max="9.9163365364074707e-01"/>
          <Range Index="2" Min="2.4284786377393175e-06" Max="2.9458214994519949e-03"/>
          <Range Index="3" Min="2.7268582925898954e-05" Max="2.4676693603396416e-02"/>
          <Range Index="4" Min="1.3682316421181895e-05" Max="1.5415314584970474e-02"/>
          <Range Index="5" Min="5.2128410743534914e-07" Max="8.2796635106205940e-03"/>
          <Range Index="6" Min="1.3955967915535439e-05" Max="1.3252097181975842e-02"/>
          <Range Index="7" Min="1.1681660083695533e-07" Max="3.2222985755652189e-03"/>
          <Range Index="8" Min="0.0000000000000000e+00" Max="1.8932830400000000e+08"/>
          <Range Index="9" Min="3.4583150409162045e-03" Max="4.8173321411013603e-03"/>
        </Ranges>
      </Class>
    </Transform>
  </Transformations>
  <MVAPdfs/>
  <Weights>
    <Layout NLayers="4">
      <Layer Index="0" NNeurons="10">
        <Neuron NSynapses="9">
          -1.5604224017809794e+00 -3.3440962398974788e-01 -3.8009555803604811e-01 4.4240880952864142e-01 -7.0732818699268354e-02 -1.3571663699874359e+00 -1.7431300519469717e-01 9.7189054981272915e-01 -2.8837590703344085e-01 
        </Neuron>
        <Neuron NSynapses="9">
          -5.4865307771157079e-01 -4.4668866180601008e-01 3.7365095800882803e-01 -5.5374582130403172e-01 -1.1404623554998352e+00 -4.4532162751535070e-01 5.9884134774281261e-01 -6.7897849245934117e-01 1.1785101461256913e+00 
        </Neuron>
        <Neuron NSynapses="9">
          -1.4519118429380021e-01 -2.3165765299631175e-02 3.6814700069808959e-01 9.9431036995829433e-02 -3.9937912112576024e-01 1.7340760220386855e-02 -4.1885209438518517e-01 9.4272849285476495e-02 -1.1861325484797508e-01 
        </Neuron>
        <Neuron NSynapses="9">
          -1.8388063221582260e+00 1.4018495777934192e-01 -3.4724134799027973e-01 3.2322710689103373e-01 2.6808587094517984e+00 -7.4449404429030008e-01 -1.6065175751156891e-02 9.2358036689725853e-01 -3.4700225795373557e-01 
        </Neuron>
        <Neuron NSynapses="9">
          -9.2536979081381276e-01 -1.9827132522421809e-01 6.2966220235957229e-02 5.0715458477578934e-01 3.1499333750531169e-02 1.4286022898063597e+00 1.6516254588646946e+00 8.8480130290402847e-01 -6.2085728838960130e-01 
        </Neuron>
        <Neuron NSynapses="9">
          -5.0364067402965085e-01 -1.3150447752551362e-02 1.9273592833426589e-01 5.9407176030011936e-02 1.0612146549231873e+00 1.1764213736925624e+00 1.1849733267748208e+00 2.9450500499972604e-01 -6.3418368545022613e-02 
        </Neuron>
        <Neuron NSynapses="9">
          -4.6374419802838995e-01 -1.5506619852387282e-01 4.4632035780462465e-01 1.4428162425529928e-01 -4.6827688331002276e-01 1.7046154143434578e+00 -6.2568904142350090e-01 4.6258453602827321e-01 -2.9176782771498833e-01 
        </Neuron>
        <Neuron NSynapses="9">
          -2.7622874317629220e-01 -3.8119248172752075e-05 2.7718176663099225e-01 7.0057745375734462e-02 -1.0062532963016334e-01 7.2961394228930310e-01 5.8941644773215296e-01 2.7021897563931591e-01 -1.3181145798990174e-01 
        </Neuron>
        <Neuron NSynapses="9">
          6.9099686325654919e-01 7.5673220606423175e-01 1.8088574093221736e+00 -1.5795888855488789e+00 -2.7008912392757471e+00 -1.4392659424315724e+00 9.1753469648040001e-02 -1.7882298674840241e-01 3.9981258475059001e-01 
        </Neuron>
        <Neuron NSynapses="9">
          8.5453759916553040e-01 1.1091126033470220e+00 -2.3855342719117258e+00 -5.4895869778087436e-01 -8.0576932314111938e-01 6.4313961989827771e-03 -2.8267706941312936e+00 -1.1349554269878877e-01 -1.5877214403349229e+00 
        </Neuron>
      </Layer>
      <Layer Index="1" NNeurons="10">
        <Neuron NSynapses="9">
          -1.2841793590376778e+00 -2.6295825931076566e-01 2.4273370030803165e+00 -9.2787648666037381e-01 -5.2883931837695231e-01 1.5935301384697642e+00 -1.4859961707866494e+00 -1.8526472280626352e+00 -1.5027253991360539e+00 
        </Neuron>
        <Neuron NSynapses="9">
          4.7261295149503257e-01 -1.3901579653448941e+00 -1.0595063852476088e+00 3.3524946946865199e+00 1.7308444446534912e+00 -3.5411065725044649e-01 5.6159655773520454e+00 -4.9276919600597280e-01 -1.5374775134718593e-01 
        </Neuron>
        <Neuron NSynapses="9">
          6.2231824898353394e-01 -9.0538345510787738e-02 -1.7367959654225316e+00 9.0848064488087965e-01 -6.1012446201982276e-02 -6.2744202655829251e-01 -8.1976322098121202e-01 1.7768258764633817e+00 5.3384094585992803e-01 
        </Neuron>
        <Neuron NSynapses="9">
          -2.7005530170798258e+00 1.4048289364140933e+00 1.1089201635242600e-01 5.6623566344955822e-01 4.6873716693827572e-01 -8.3020766304996974e-01 1.9703774989481726e+00 4.4325407093821328e-01 3.4430914719242095e-01 
        </Neuron>
        <Neuron NSynapses="9">
          -1.3405752270228108e-01 4.9067314059205930e-01 -1.9079724705546421e+00 9.8975113944251791e-02 1.2899915432883857e-02 -1.5197777102238923e+00 -2.2004911253435705e-01 -4.3794919827965995e-01 -5.2079689147192187e-01 
        </Neuron>
        <Neuron NSynapses="9">
          -5.5765637820033347e-02 1.9498445173954140e+00 -1.4486488191457181e+00 2.1028568780343062e-02 -2.0604812814569669e-02 -1.7657432895830566e-01 2.1755674508107756e-01 -5.1243962516162189e-01 -1.5095686407900596e-01 
        </Neuron>
        <Neuron NSynapses="9">
          1.9327958040383497e-01 1.2331351712647762e+00 7.6932057887231148e-02 -2.1414931224620015e-01 -3.6064564629736540e-01 8.5362276240105492e-02 -8.1147978430485224e-01 7.6779998827265528e-01 3.7217409898354131e-01 
        </Neuron>
        <Neuron NSynapses="9">
          -1.0081265435996773e+00 -2.9883639664809869e-01 8.1804540786463514e-02 1.2434966714543689e+00 2.1179956500888877e-01 1.7448639560609507e+00 4.5402965341327545e-01 1.8494808819149675e+00 1.3714523340065885e+00 
        </Neuron>
        <Neuron NSynapses="9">
          1.7306207251323105e+00 -1.2871242732247906e-01 -1.0718744057769689e-01 -6.5971440584274776e-01 -4.9923583406204897e-01 -6.4580574737060070e-01 -4.1815106537481850e-01 -6.5927560882391423e-01 1.0124636984530226e+00 
        </Neuron>
        <Neuron NSynapses="9">
          -5.8557552882907993e-01 -7.4596978746426457e-02 2.7501792618039351e+00 2.9369623920416998e+00 -1.2372039807462258e+00 1.1979264843401674e+00 -4.8845064735651944e-01 3.6786067923343962e-01 -2.7446382636638473e+00 
        </Neuron>
      </Layer>
      <Layer Index="2" NNeurons="10">
        <Neuron NSynapses="1">
          -3.9009052208590217e-02 
        </Neuron>
        <Neuron NSynapses="1">
          -3.3864602057287084e-03 
        </Neuron>
        <Neuron NSynapses="1">
          1.1853749664613692e-02 
        </Neuron>
        <Neuron NSynapses="1">
          4.5612468941451532e+00 
        </Neuron>
        <Neuron NSynapses="1">
          2.7376337545409812e-01 
        </Neuron>
        <Neuron NSynapses="1">
          -8.9897084181395123e-02 
        </Neuron>
        <Neuron NSynapses="1">
          -1.3176812826208395e+00 
        </Neuron>
        <Neuron NSynapses="1">
          1.9199954208204018e-02 
        </Neuron>
        <Neuron NSynapses="1">
          2.0510800449776361e+00 
        </Neuron>
        <Neuron NSynapses="1">
          -6.2533583016048799e-01 
        </Neuron>
      </Layer>
      <Layer Index="3" NNeurons="1">
        <Neuron NSynapses="0"/>
      </Layer>
    </Layout>
  </Weights>
</MethodSetup>
