<?xml version="1.0"?>
<MethodSetup Method="MLP::XS_91_232_0_cap">
  <GeneralInfo>
    <Info name="TMVA Release" value="4.2.0 [262656]"/>
    <Info name="ROOT Release" value="5.34/14 [336398]"/>
    <Info name="Creator" value="courtin"/>
    <Info name="Date" value="Tue Oct  4 15:20:44 2016"/>
    <Info name="Host" value="Linux nansl3.in2p3.fr 2.6.32-431.20.3.el6.x86_64 #1 SMP Thu Jun 19 14:01:59 CDT 2014 x86_64 x86_64 x86_64 GNU/Linux"/>
    <Info name="Dir" value="/scratch/spallati/courtin/WORK/MOxEUS/BdD_MOxEUS/MOxEUS_NN/XSM/MLP/Train"/>
    <Info name="Training events" value="17790"/>
    <Info name="TrainingTime" value="6.81028257e+02"/>
    <Info name="AnalysisType" value="Regression"/>
  </GeneralInfo>
  <Options>
    <Option name="NCycles" modified="Yes">20000</Option>
    <Option name="HiddenLayers" modified="Yes">N,N</Option>
    <Option name="NeuronType" modified="Yes">tanh</Option>
    <Option name="RandomSeed" modified="No">1</Option>
    <Option name="EstimatorType" modified="No">MSE</Option>
    <Option name="NeuronInputType" modified="No">sum</Option>
    <Option name="V" modified="Yes">False</Option>
    <Option name="VerbosityLevel" modified="No">Default</Option>
    <Option name="VarTransform" modified="Yes">Norm</Option>
    <Option name="H" modified="Yes">False</Option>
    <Option name="CreateMVAPdfs" modified="No">False</Option>
    <Option name="IgnoreNegWeightsInTraining" modified="No">False</Option>
    <Option name="TrainingMethod" modified="Yes">BFGS</Option>
    <Option name="LearningRate" modified="No">2.000000e-02</Option>
    <Option name="DecayRate" modified="No">1.000000e-02</Option>
    <Option name="TestRate" modified="Yes">6</Option>
    <Option name="EpochMonitoring" modified="No">False</Option>
    <Option name="Sampling" modified="Yes">3.000000e-01</Option>
    <Option name="SamplingEpoch" modified="Yes">8.000000e-01</Option>
    <Option name="SamplingImportance" modified="No">1.000000e+00</Option>
    <Option name="SamplingTraining" modified="No">True</Option>
    <Option name="SamplingTesting" modified="No">False</Option>
    <Option name="ResetStep" modified="No">50</Option>
    <Option name="Tau" modified="No">3.000000e+00</Option>
    <Option name="BPMode" modified="No">sequential</Option>
    <Option name="BatchSize" modified="No">-1</Option>
    <Option name="ConvergenceImprove" modified="Yes">1.000000e-06</Option>
    <Option name="ConvergenceTests" modified="Yes">15</Option>
    <Option name="UseRegulator" modified="Yes">False</Option>
    <Option name="UpdateLimit" modified="No">10000</Option>
    <Option name="CalculateErrors" modified="No">False</Option>
    <Option name="WeightRange" modified="No">1.000000e+00</Option>
  </Options>
  <Variables NVar="9">
    <Variable VarIndex="0" Expression="U5" Label="U5" Title="U 235" Unit="FractionIsotopic" Internal="U5" Type="F" Min="2.62645772e-03" Max="5.00135981e-02"/>
    <Variable VarIndex="1" Expression="U8" Label="U8" Title="U 238" Unit="FractionIsotopic" Internal="U8" Type="F" Min="9.12375093e-01" Max="9.91633654e-01"/>
    <Variable VarIndex="2" Expression="Pu8" Label="Pu8" Title="Pu 238" Unit="FractionIsotopic" Internal="Pu8" Type="F" Min="2.42847864e-06" Max="2.94582150e-03"/>
    <Variable VarIndex="3" Expression="Pu9" Label="Pu9" Title="Pu 239" Unit="FractionIsotopic" Internal="Pu9" Type="F" Min="2.72685829e-05" Max="2.46766936e-02"/>
    <Variable VarIndex="4" Expression="Pu10" Label="Pu10" Title="Pu 240" Unit="FractionIsotopic" Internal="Pu10" Type="F" Min="1.36823164e-05" Max="1.54153146e-02"/>
    <Variable VarIndex="5" Expression="Pu11" Label="Pu11" Title="Pu 241" Unit="FractionIsotopic" Internal="Pu11" Type="F" Min="5.21284107e-07" Max="8.27966351e-03"/>
    <Variable VarIndex="6" Expression="Pu12" Label="Pu12" Title="Pu 242" Unit="FractionIsotopic" Internal="Pu12" Type="F" Min="1.39559679e-05" Max="1.32520972e-02"/>
    <Variable VarIndex="7" Expression="Am1" Label="Am1" Title="Am 241" Unit="FractionIsotopic" Internal="Am1" Type="F" Min="1.16816601e-07" Max="3.22229858e-03"/>
    <Variable VarIndex="8" Expression="Time" Label="Time" Title="Time" Unit="seconds" Internal="Time" Type="F" Min="0.00000000e+00" Max="1.89328304e+08"/>
  </Variables>
  <Spectators NSpec="0"/>
  <Classes NClass="1">
    <Class Name="Regression" Index="0"/>
  </Classes>
  <Targets NTrgt="1">
    <Target TargetIndex="0" Expression="XS_91_232_0_cap" Label="XS_91_232_0_cap" Title="XS_91_232_0_cap" Unit="" Internal="XS_91_232_0_cap" Type="F" Min="9.21543312e+00" Max="4.60596199e+01"/>
  </Targets>
  <Transformations NTransformations="1">
    <Transform Name="Normalize">
      <Selection>
        <Input NInputs="10">
          <Input Type="Variable" Label="U5" Expression="U5"/>
          <Input Type="Variable" Label="U8" Expression="U8"/>
          <Input Type="Variable" Label="Pu8" Expression="Pu8"/>
          <Input Type="Variable" Label="Pu9" Expression="Pu9"/>
          <Input Type="Variable" Label="Pu10" Expression="Pu10"/>
          <Input Type="Variable" Label="Pu11" Expression="Pu11"/>
          <Input Type="Variable" Label="Pu12" Expression="Pu12"/>
          <Input Type="Variable" Label="Am1" Expression="Am1"/>
          <Input Type="Variable" Label="Time" Expression="Time"/>
          <Input Type="Target" Label="XS_91_232_0_cap" Expression="XS_91_232_0_cap"/>
        </Input>
        <Output NOutputs="10">
          <Output Type="Variable" Label="U5" Expression="U5"/>
          <Output Type="Variable" Label="U8" Expression="U8"/>
          <Output Type="Variable" Label="Pu8" Expression="Pu8"/>
          <Output Type="Variable" Label="Pu9" Expression="Pu9"/>
          <Output Type="Variable" Label="Pu10" Expression="Pu10"/>
          <Output Type="Variable" Label="Pu11" Expression="Pu11"/>
          <Output Type="Variable" Label="Pu12" Expression="Pu12"/>
          <Output Type="Variable" Label="Am1" Expression="Am1"/>
          <Output Type="Variable" Label="Time" Expression="Time"/>
          <Output Type="Target" Label="XS_91_232_0_cap" Expression="XS_91_232_0_cap"/>
        </Output>
      </Selection>
      <Class ClassIndex="0">
        <Ranges>
          <Range Index="0" Min="2.6264577172696590e-03" Max="5.0013598054647446e-02"/>
          <Range Index="1" Min="9.1237509250640869e-01" Max="9.9163365364074707e-01"/>
          <Range Index="2" Min="2.4284786377393175e-06" Max="2.9458214994519949e-03"/>
          <Range Index="3" Min="2.7268582925898954e-05" Max="2.4676693603396416e-02"/>
          <Range Index="4" Min="1.3682316421181895e-05" Max="1.5415314584970474e-02"/>
          <Range Index="5" Min="5.2128410743534914e-07" Max="8.2796635106205940e-03"/>
          <Range Index="6" Min="1.3955967915535439e-05" Max="1.3252097181975842e-02"/>
          <Range Index="7" Min="1.1681660083695533e-07" Max="3.2222985755652189e-03"/>
          <Range Index="8" Min="0.0000000000000000e+00" Max="1.8932830400000000e+08"/>
          <Range Index="9" Min="9.2154331207275391e+00" Max="4.6059619903564453e+01"/>
        </Ranges>
      </Class>
    </Transform>
  </Transformations>
  <MVAPdfs/>
  <Weights>
    <Layout NLayers="4">
      <Layer Index="0" NNeurons="10">
        <Neuron NSynapses="9">
          -1.1913190529176454e+00 4.0154481576530933e-02 -6.3889267480473844e-01 1.0115396548756252e+00 -5.2629405373461935e-01 -1.6325668359967910e-01 -1.4763287555193697e-01 1.3301085227059124e+00 -1.0734340124073489e+00 
        </Neuron>
        <Neuron NSynapses="9">
          -9.3326263264437159e-01 -8.9721250194146851e-01 -9.4294010350710222e-01 -1.1074025237903184e+00 -1.6397345839543265e+00 -1.1083233079547670e+00 9.7765461874456527e-01 -4.6761573678126594e-01 1.2601524780960998e+00 
        </Neuron>
        <Neuron NSynapses="9">
          -1.3435450026440619e-02 4.6910829028107691e-02 -4.1416678601426650e-02 2.5827235833202916e-01 6.8425817764930641e-01 6.4932033733030206e-02 -5.5184391112164710e-01 1.9984518260233477e-02 -1.2230218321259727e-01 
        </Neuron>
        <Neuron NSynapses="9">
          -1.1070428773626260e+00 -2.0443738491332802e-01 1.6916151074682739e-01 7.5778257937463933e-01 2.0677625764837404e+00 1.0456849253695577e-01 -7.5988355297736165e-01 9.6783598460996079e-01 -2.8119299168997230e-01 
        </Neuron>
        <Neuron NSynapses="9">
          -5.1816143224488276e-01 6.7541615017489498e-01 -3.2910078549220723e-01 1.0447461974181627e+00 1.4683246344708369e+00 9.1802115756357036e-02 8.3159856817600541e-01 1.2277900668306529e+00 -8.1472329576851621e-01 
        </Neuron>
        <Neuron NSynapses="9">
          -3.2053795566203064e-01 -1.6853012727639091e-01 7.8677094839911463e-02 2.9436012215443119e-01 1.6331050580202935e+00 1.5295478268884537e-02 1.9245932807935592e-01 -6.4770841595001882e-01 7.5617315195880469e-02 
        </Neuron>
        <Neuron NSynapses="9">
          -1.3088305200368175e-01 2.8815509300854952e-01 -1.9435881182483725e-01 4.8660958416294298e-01 1.4651755576455068e+00 2.8576804302302385e-02 -6.8691474952282977e-02 1.4551405873108056e-01 3.3391329481661242e-01 
        </Neuron>
        <Neuron NSynapses="9">
          -7.6153830121674787e-02 1.2620776334137340e-01 1.1505664407605115e-02 2.6113647173856769e-01 -8.5627119290387788e-01 3.8738737156637275e-02 4.2774165794583002e-01 5.5908943909579067e-01 -6.4931769995159413e-02 
        </Neuron>
        <Neuron NSynapses="9">
          9.7058132716264778e-01 1.9617643558712918e+00 1.5965859257052533e+00 8.9442857524895447e-02 -1.4172334571537308e+00 -1.1065961128354719e-01 1.8479968940408589e+00 8.7704677597747549e-01 1.8306341151327314e+00 
        </Neuron>
        <Neuron NSynapses="9">
          1.0865700460423350e-01 1.4280406638463976e+00 2.5702916217085843e+00 -9.4253763997104878e-01 1.3542032168666740e-01 1.2115748826052077e+00 -2.7682947335898209e+00 -1.2896260180116157e+00 -6.7119400721458500e-01 
        </Neuron>
      </Layer>
      <Layer Index="1" NNeurons="10">
        <Neuron NSynapses="9">
          1.4133523134173913e+00 -8.1581497792051993e-01 1.1458360487635360e+00 -1.5933998274294001e+00 -3.4661840702905172e-01 1.6698752710635152e+00 -9.5145483829607025e-01 -1.3061014510303772e+00 -1.3630172579049769e+00 
        </Neuron>
        <Neuron NSynapses="9">
          -3.2191030996815889e-01 -1.8702008230213001e+00 -6.1553556253146635e-01 2.8330719675830951e-01 7.0343563556258870e-02 -1.1186512071373231e+00 1.3064567128242568e+00 -1.8057733168316954e+00 -6.4199177070219993e-01 
        </Neuron>
        <Neuron NSynapses="9">
          -5.2407515331379037e-02 2.6693358686382102e-01 -2.5365034424787609e+00 3.4197593550917071e+00 1.2288672392178541e+00 4.1781370919427030e-01 -1.2681967569831547e+00 1.9902935493361562e+00 4.5307752038195964e-01 
        </Neuron>
        <Neuron NSynapses="9">
          -6.4178435565763636e-01 9.1238154557481732e-01 -1.0338130577316822e+00 1.3191539260738400e-02 9.6627558164829361e-02 -3.4111150088566994e-01 1.5061475615825737e+00 -5.6382504748346107e-02 5.6693227604702259e-02 
        </Neuron>
        <Neuron NSynapses="9">
          -4.6046528931297792e-01 -1.7774626140925318e-01 -5.5506496024822560e-01 -1.7821399004653213e-01 6.5293898656643224e-03 -1.7494628111574717e+00 1.1646462458550855e+00 -5.4161449286015073e-01 -1.4586071410938034e-01 
        </Neuron>
        <Neuron NSynapses="9">
          1.2193846574073937e+00 1.6453010576921123e+00 -2.0577735555492347e+00 2.8862463596520715e-01 1.6826392987982355e+00 1.5588729735877953e+00 5.9723682526287114e-01 -9.6672627699535441e-01 -3.8824415490752129e-01 
        </Neuron>
        <Neuron NSynapses="9">
          -1.3139510891691042e+00 1.3758927043715858e+00 6.4655519695159647e-01 1.2185500027458585e+00 -1.2672012464216700e-01 1.4101580185021112e-01 -1.4746398745411693e+00 1.8958569115790916e-01 1.6856766758170716e+00 
        </Neuron>
        <Neuron NSynapses="9">
          -2.7119939068653498e-01 -9.2037180041334071e-02 2.8171823872262619e-01 1.2479304710393559e+00 -1.9707199940158578e-02 9.3904124225774477e-01 -1.3177956117321190e+00 1.4785034024177763e+00 9.0430583147978716e-01 
        </Neuron>
        <Neuron NSynapses="9">
          -2.1688725676373663e-01 1.4261259890590772e-01 3.6528909451426755e-01 -2.3552275016428295e-01 -3.8066675748004507e-02 7.4343053807314630e-01 -1.1024534695618515e+00 -6.9313472418958488e-01 1.4616865988008398e+00 
        </Neuron>
        <Neuron NSynapses="9">
          2.1384289686457145e+00 -4.0832812253963652e-01 9.7200376516935250e-01 2.3103839262621668e+00 -2.4529984352755085e+00 7.6796022280066278e-01 1.0907595205755340e-01 5.9334384463138001e-01 -1.8229104287868472e+00 
        </Neuron>
      </Layer>
      <Layer Index="2" NNeurons="10">
        <Neuron NSynapses="1">
          1.3521552830617558e+00 
        </Neuron>
        <Neuron NSynapses="1">
          -3.5921013767922394e-02 
        </Neuron>
        <Neuron NSynapses="1">
          2.5591339879717429e-02 
        </Neuron>
        <Neuron NSynapses="1">
          -2.7764005463908310e+00 
        </Neuron>
        <Neuron NSynapses="1">
          -3.8920515866901356e-01 
        </Neuron>
        <Neuron NSynapses="1">
          -1.2638136058137409e-03 
        </Neuron>
        <Neuron NSynapses="1">
          -2.8598697546942603e-03 
        </Neuron>
        <Neuron NSynapses="1">
          -1.0179134783337380e-02 
        </Neuron>
        <Neuron NSynapses="1">
          -5.7525618374381704e-01 
        </Neuron>
        <Neuron NSynapses="1">
          2.1840975155684880e-01 
        </Neuron>
      </Layer>
      <Layer Index="3" NNeurons="1">
        <Neuron NSynapses="0"/>
      </Layer>
    </Layout>
  </Weights>
</MethodSetup>
