<?xml version="1.0"?>
<MethodSetup Method="MLP::XS_55_134_0_cap">
  <GeneralInfo>
    <Info name="TMVA Release" value="4.2.0 [262656]"/>
    <Info name="ROOT Release" value="5.34/18 [336402]"/>
    <Info name="Creator" value="leniau"/>
    <Info name="Date" value="Wed Jul  2 02:17:21 2014"/>
    <Info name="Host" value="Linux nansl3.in2p3.fr 2.6.32-358.11.1.el6.x86_64 #1 SMP Tue Jun 11 17:23:30 CDT 2013 x86_64 x86_64 x86_64 GNU/Linux"/>
    <Info name="Dir" value="/scratch/spallati/leniau/Projets_CLASS/TMVA/BASE_MONOMOX_MLP/Build_XS_Predictor"/>
    <Info name="Training events" value="25811"/>
    <Info name="TrainingTime" value="2.05775569e+03"/>
    <Info name="AnalysisType" value="Regression"/>
  </GeneralInfo>
  <Options>
    <Option name="NCycles" modified="Yes">20000</Option>
    <Option name="HiddenLayers" modified="Yes">N,N</Option>
    <Option name="NeuronType" modified="Yes">tanh</Option>
    <Option name="RandomSeed" modified="No">1</Option>
    <Option name="EstimatorType" modified="No">MSE</Option>
    <Option name="NeuronInputType" modified="No">sum</Option>
    <Option name="V" modified="Yes">False</Option>
    <Option name="VerbosityLevel" modified="No">Default</Option>
    <Option name="VarTransform" modified="Yes">Norm</Option>
    <Option name="H" modified="Yes">False</Option>
    <Option name="CreateMVAPdfs" modified="No">False</Option>
    <Option name="IgnoreNegWeightsInTraining" modified="No">False</Option>
    <Option name="TrainingMethod" modified="Yes">BFGS</Option>
    <Option name="LearningRate" modified="No">2.000000e-02</Option>
    <Option name="DecayRate" modified="No">1.000000e-02</Option>
    <Option name="TestRate" modified="Yes">6</Option>
    <Option name="EpochMonitoring" modified="No">False</Option>
    <Option name="Sampling" modified="Yes">3.000000e-01</Option>
    <Option name="SamplingEpoch" modified="Yes">8.000000e-01</Option>
    <Option name="SamplingImportance" modified="No">1.000000e+00</Option>
    <Option name="SamplingTraining" modified="No">True</Option>
    <Option name="SamplingTesting" modified="No">False</Option>
    <Option name="ResetStep" modified="No">50</Option>
    <Option name="Tau" modified="No">3.000000e+00</Option>
    <Option name="BPMode" modified="No">sequential</Option>
    <Option name="BatchSize" modified="No">-1</Option>
    <Option name="ConvergenceImprove" modified="Yes">1.000000e-06</Option>
    <Option name="ConvergenceTests" modified="Yes">15</Option>
    <Option name="UseRegulator" modified="Yes">False</Option>
    <Option name="UpdateLimit" modified="No">10000</Option>
    <Option name="CalculateErrors" modified="No">False</Option>
    <Option name="WeightRange" modified="No">1.000000e+00</Option>
  </Options>
  <Variables NVar="9">
    <Variable VarIndex="0" Expression="U5" Label="U5" Title="U 235" Unit="FractionIsotopic" Internal="U5" Type="F" Min="1.70790544e-03" Max="3.82024585e-03"/>
    <Variable VarIndex="1" Expression="U8" Label="U8" Title="U 238" Unit="FractionIsotopic" Internal="U8" Type="F" Min="8.46877456e-01" Max="9.57599878e-01"/>
    <Variable VarIndex="2" Expression="Pu8" Label="Pu8" Title="Pu 238" Unit="FractionIsotopic" Internal="Pu8" Type="F" Min="2.04457741e-04" Max="1.07518081e-02"/>
    <Variable VarIndex="3" Expression="Pu9" Label="Pu9" Title="Pu 239" Unit="FractionIsotopic" Internal="Pu9" Type="F" Min="1.34624317e-02" Max="1.10575892e-01"/>
    <Variable VarIndex="4" Expression="Pu10" Label="Pu10" Title="Pu 240" Unit="FractionIsotopic" Internal="Pu10" Type="F" Min="5.54009527e-03" Max="4.70738448e-02"/>
    <Variable VarIndex="5" Expression="Pu11" Label="Pu11" Title="Pu 241" Unit="FractionIsotopic" Internal="Pu11" Type="F" Min="2.52286321e-03" Max="2.77698915e-02"/>
    <Variable VarIndex="6" Expression="Pu12" Label="Pu12" Title="Pu 242" Unit="FractionIsotopic" Internal="Pu12" Type="F" Min="6.26901106e-04" Max="3.05664930e-02"/>
    <Variable VarIndex="7" Expression="Am1" Label="Am1" Title="Am 241" Unit="FractionIsotopic" Internal="Am1" Type="F" Min="2.08963102e-05" Max="1.11369798e-02"/>
    <Variable VarIndex="8" Expression="Time" Label="Time" Title="Time" Unit="seconds" Internal="Time" Type="F" Min="0.00000000e+00" Max="1.57788000e+08"/>
  </Variables>
  <Spectators NSpec="0"/>
  <Classes NClass="1">
    <Class Name="Regression" Index="0"/>
  </Classes>
  <Targets NTrgt="1">
    <Target TargetIndex="0" Expression="XS_55_134_0_cap" Label="XS_55_134_0_cap" Title="XS_55_134_0_cap" Unit="" Internal="XS_55_134_0_cap" Type="F" Min="2.56932974e+00" Max="8.06070042e+00"/>
  </Targets>
  <Transformations NTransformations="1">
    <Transform Name="Normalize">
      <Selection>
        <Input NInputs="10">
          <Input Type="Variable" Label="U5" Expression="U5"/>
          <Input Type="Variable" Label="U8" Expression="U8"/>
          <Input Type="Variable" Label="Pu8" Expression="Pu8"/>
          <Input Type="Variable" Label="Pu9" Expression="Pu9"/>
          <Input Type="Variable" Label="Pu10" Expression="Pu10"/>
          <Input Type="Variable" Label="Pu11" Expression="Pu11"/>
          <Input Type="Variable" Label="Pu12" Expression="Pu12"/>
          <Input Type="Variable" Label="Am1" Expression="Am1"/>
          <Input Type="Variable" Label="Time" Expression="Time"/>
          <Input Type="Target" Label="XS_55_134_0_cap" Expression="XS_55_134_0_cap"/>
        </Input>
        <Output NOutputs="10">
          <Output Type="Variable" Label="U5" Expression="U5"/>
          <Output Type="Variable" Label="U8" Expression="U8"/>
          <Output Type="Variable" Label="Pu8" Expression="Pu8"/>
          <Output Type="Variable" Label="Pu9" Expression="Pu9"/>
          <Output Type="Variable" Label="Pu10" Expression="Pu10"/>
          <Output Type="Variable" Label="Pu11" Expression="Pu11"/>
          <Output Type="Variable" Label="Pu12" Expression="Pu12"/>
          <Output Type="Variable" Label="Am1" Expression="Am1"/>
          <Output Type="Variable" Label="Time" Expression="Time"/>
          <Output Type="Target" Label="XS_55_134_0_cap" Expression="XS_55_134_0_cap"/>
        </Output>
      </Selection>
      <Class ClassIndex="0">
        <Ranges>
          <Range Index="0" Min="1.7079054377973080e-03" Max="3.8202458526939154e-03"/>
          <Range Index="1" Min="8.4687745571136475e-01" Max="9.5759987831115723e-01"/>
          <Range Index="2" Min="2.0445774134714156e-04" Max="1.0751808062195778e-02"/>
          <Range Index="3" Min="1.3462431728839874e-02" Max="1.1057589203119278e-01"/>
          <Range Index="4" Min="5.5400952696800232e-03" Max="4.7073844820261002e-02"/>
          <Range Index="5" Min="2.5228632148355246e-03" Max="2.7769891545176506e-02"/>
          <Range Index="6" Min="6.2690110644325614e-04" Max="3.0566493049263954e-02"/>
          <Range Index="7" Min="2.0896310161333531e-05" Max="1.1136979795992374e-02"/>
          <Range Index="8" Min="0.0000000000000000e+00" Max="1.5778800000000000e+08"/>
          <Range Index="9" Min="2.5693297386169434e+00" Max="8.0607004165649414e+00"/>
        </Ranges>
      </Class>
    </Transform>
  </Transformations>
  <MVAPdfs/>
  <Weights>
    <Layout NLayers="4">
      <Layer Index="0" NNeurons="10">
        <Neuron NSynapses="9">
          -4.5754472155070364e-02 -1.6213523674588372e-02 -2.7456173343972084e-02 4.0207144393787933e-02 2.1585139743891518e-02 6.6126456320037886e-04 -1.3365851974332021e-01 8.7006696896397373e-01 4.1970137292254808e-02 
        </Neuron>
        <Neuron NSynapses="9">
          -1.5865151167038332e+00 -2.1694982207729701e+00 -1.3766598074021448e+00 -1.0373828808387617e+00 2.1285007262642161e-01 -1.0457539049800144e+00 8.5709381290771347e-01 -2.5593482803306472e-01 2.3853287488905148e+00 
        </Neuron>
        <Neuron NSynapses="9">
          3.1434252644263105e-01 2.2525694289794601e-01 -1.6333223387030688e-01 3.8972972555375818e-01 1.0003340290071805e-01 5.8729546421268292e-02 -5.7156272799780833e-02 1.6290528430579490e-01 1.0193948898650462e+00 
        </Neuron>
        <Neuron NSynapses="9">
          -2.2569276154381512e+00 -7.4996563946285200e-01 -8.5946358902327924e-01 1.4362419258405739e+00 1.4106372007729142e+00 6.8197515335632686e-01 4.2389143939771684e-01 1.0389744161978818e+00 -2.0975809765572637e+00 
        </Neuron>
        <Neuron NSynapses="9">
          -8.0865961070092551e-01 4.2520548926359553e-01 -7.6317791996126272e-01 5.2605065951637597e-01 4.6907172809157704e-01 3.1907737196361441e-01 1.6163293951922442e+00 1.1385281246724113e+00 1.0114682705070653e-02 
        </Neuron>
        <Neuron NSynapses="9">
          -6.8275694075133497e-01 -3.8877113617342707e-01 -8.4115009586419931e-02 6.9129285531299822e-01 3.6913586994543168e-01 7.3054467232157014e-02 1.3724307468914365e+00 -8.3841639214345942e-01 2.6082470772442085e-01 
        </Neuron>
        <Neuron NSynapses="9">
          -8.6259952562307229e-01 -2.3488087287735707e-01 -4.1096559523667203e-01 -5.1474809441915115e-01 1.5295693152650031e-01 -1.3165868864798405e-01 -6.0896904344155189e-01 4.3167983664264026e-01 9.1522739247251084e-01 
        </Neuron>
        <Neuron NSynapses="9">
          -3.8321720378606261e-01 3.6136157502396474e-02 -6.9225144369476965e-02 6.4588157644346322e-01 1.7246606627650385e-01 9.9755322929390697e-02 2.9150819887355212e-01 5.6014263068905569e-03 -3.2439886754387953e-01 
        </Neuron>
        <Neuron NSynapses="9">
          2.6464374049964801e-01 3.2420803313508834e-01 1.1363294376473623e+00 -9.8847136840591310e-01 -3.1645267994134729e-01 -2.7601142717185467e-01 -8.5332480540555880e-02 -4.3578689789468161e-01 7.0671209416613368e-01 
        </Neuron>
        <Neuron NSynapses="9">
          2.1100219644198859e+00 1.7003322155993765e+00 1.4542220486394397e+00 -2.3568838434793600e+00 3.0346021167477949e-01 1.7083620354791824e+00 -2.8760703373894652e+00 -3.3659557092065238e+00 -9.4044859910823220e-01 
        </Neuron>
      </Layer>
      <Layer Index="1" NNeurons="10">
        <Neuron NSynapses="9">
          2.3429717019078505e-01 8.8420615516697398e-01 1.3074418797097167e+00 -1.3931988174391063e+00 -5.9508188652219207e-01 1.5920137762864930e+00 -8.2036914515981363e-01 -1.5784378516979241e+00 -1.5560906327204427e+00 
        </Neuron>
        <Neuron NSynapses="9">
          7.2530939769893055e-02 -1.8957719501814145e+00 -1.7175679696124762e+00 -2.6765033459384091e-01 7.6288757778571392e-01 -1.4494536155067057e+00 1.6092476960600717e+00 -6.4420726437232023e-01 -7.8351157644142611e-01 
        </Neuron>
        <Neuron NSynapses="9">
          1.5711191060709542e-01 -1.4488828138721166e+00 -1.4705671077220868e+00 1.2178403274072027e+00 -6.5363128003022863e-01 -3.5414530351324752e-01 -7.7354265730257576e-01 1.0960684802002574e+00 3.3375210255082616e-01 
        </Neuron>
        <Neuron NSynapses="9">
          -9.0189444424999243e-01 1.0269063627067510e-01 -1.5000600308622380e+00 6.4342941658714445e-02 -4.1071389975764389e-01 2.8900764222269844e-02 1.5534389837565667e+00 5.7609527075428191e-01 4.9967651403393140e-02 
        </Neuron>
        <Neuron NSynapses="9">
          -7.0268166614414584e-01 1.1692180471442823e+00 -1.3022260575682942e+00 3.9834965797038990e-01 1.1227891908977667e+00 -8.6535793845470377e-01 8.0541045152029234e-01 -1.3849713157851051e+00 7.6754075864473192e-02 
        </Neuron>
        <Neuron NSynapses="9">
          9.9373169722230437e-01 1.9479257970460904e+00 -1.4556838639643288e+00 7.6952824021452160e-01 2.1692036096319898e+00 1.9943347651502705e+00 3.8280554210215162e-01 -1.7535875536214180e+00 -2.5334475167819948e-01 
        </Neuron>
        <Neuron NSynapses="9">
          -9.6036477529250475e-01 -2.9339605195074175e-01 5.7000981894136604e-01 1.1303652143639621e-01 -5.9513621508478420e-01 9.3357226906058743e-02 -1.1910969805138722e+00 2.5113470841691776e-01 1.7429100454370337e+00 
        </Neuron>
        <Neuron NSynapses="9">
          -8.3862412557237653e-01 -9.7998429696108535e-01 -4.0911582120036644e-01 2.8799531224940805e-01 -1.8492407304932290e-02 2.9008180056740562e-01 -1.6291063789578064e+00 1.2139412545628614e+00 8.4073794766852905e-01 
        </Neuron>
        <Neuron NSynapses="9">
          1.2190850698048024e-01 -7.4069862634395037e-02 1.2885020673064009e+00 -1.3470319096940365e-02 -6.0214082806825797e-01 3.1103527688605387e-01 4.5313822114221713e-01 -4.6926852259853885e-01 1.4589099964536547e+00 
        </Neuron>
        <Neuron NSynapses="9">
          1.7175502691377647e+00 4.2222781587921843e-01 1.3974618939273642e+00 1.9035212679901958e+00 -2.0271878922967628e+00 8.4184589080622318e-01 1.7870666797224814e-02 4.2245022800340748e-01 -1.7807023615702582e+00 
        </Neuron>
      </Layer>
      <Layer Index="2" NNeurons="10">
        <Neuron NSynapses="1">
          4.2432428344208395e-01 
        </Neuron>
        <Neuron NSynapses="1">
          -1.6903577085164020e-01 
        </Neuron>
        <Neuron NSynapses="1">
          3.7497539117098736e-03 
        </Neuron>
        <Neuron NSynapses="1">
          -1.9553255087611410e+00 
        </Neuron>
        <Neuron NSynapses="1">
          -6.8760274258530189e-04 
        </Neuron>
        <Neuron NSynapses="1">
          8.3134428587207410e-01 
        </Neuron>
        <Neuron NSynapses="1">
          -1.1539552908996155e-01 
        </Neuron>
        <Neuron NSynapses="1">
          5.6304376703069570e-01 
        </Neuron>
        <Neuron NSynapses="1">
          -6.9887052516241333e-01 
        </Neuron>
        <Neuron NSynapses="1">
          -6.0628975432633792e-02 
        </Neuron>
      </Layer>
      <Layer Index="3" NNeurons="1">
        <Neuron NSynapses="0"/>
      </Layer>
    </Layout>
  </Weights>
</MethodSetup>
