<?xml version="1.0"?>
<MethodSetup Method="MLP::XS_36_84_0_n2n">
  <GeneralInfo>
    <Info name="TMVA Release" value="4.2.0 [262656]"/>
    <Info name="ROOT Release" value="5.34/14 [336398]"/>
    <Info name="Creator" value="mouginot"/>
    <Info name="Date" value="Tue Apr 28 13:59:21 2015"/>
    <Info name="Host" value="Linux nansl3.in2p3.fr 2.6.32-431.20.3.el6.x86_64 #1 SMP Thu Jun 19 14:01:59 CDT 2014 x86_64 x86_64 x86_64 GNU/Linux"/>
    <Info name="Dir" value="/scratch/spallati/mouginot/Combustible/Analyse/MLP_PuAm/XSM/Train"/>
    <Info name="Training events" value="35904"/>
    <Info name="TrainingTime" value="1.62398695e+03"/>
    <Info name="AnalysisType" value="Regression"/>
  </GeneralInfo>
  <Options>
    <Option name="NCycles" modified="Yes">20000</Option>
    <Option name="HiddenLayers" modified="Yes">N,N</Option>
    <Option name="NeuronType" modified="Yes">tanh</Option>
    <Option name="RandomSeed" modified="No">1</Option>
    <Option name="EstimatorType" modified="No">MSE</Option>
    <Option name="NeuronInputType" modified="No">sum</Option>
    <Option name="V" modified="Yes">False</Option>
    <Option name="VerbosityLevel" modified="No">Default</Option>
    <Option name="VarTransform" modified="Yes">Norm</Option>
    <Option name="H" modified="Yes">False</Option>
    <Option name="CreateMVAPdfs" modified="No">False</Option>
    <Option name="IgnoreNegWeightsInTraining" modified="No">False</Option>
    <Option name="TrainingMethod" modified="Yes">BFGS</Option>
    <Option name="LearningRate" modified="No">2.000000e-02</Option>
    <Option name="DecayRate" modified="No">1.000000e-02</Option>
    <Option name="TestRate" modified="Yes">6</Option>
    <Option name="EpochMonitoring" modified="No">False</Option>
    <Option name="Sampling" modified="Yes">3.000000e-01</Option>
    <Option name="SamplingEpoch" modified="Yes">8.000000e-01</Option>
    <Option name="SamplingImportance" modified="No">1.000000e+00</Option>
    <Option name="SamplingTraining" modified="No">True</Option>
    <Option name="SamplingTesting" modified="No">False</Option>
    <Option name="ResetStep" modified="No">50</Option>
    <Option name="Tau" modified="No">3.000000e+00</Option>
    <Option name="BPMode" modified="No">sequential</Option>
    <Option name="BatchSize" modified="No">-1</Option>
    <Option name="ConvergenceImprove" modified="Yes">1.000000e-06</Option>
    <Option name="ConvergenceTests" modified="Yes">15</Option>
    <Option name="UseRegulator" modified="Yes">False</Option>
    <Option name="UpdateLimit" modified="No">10000</Option>
    <Option name="CalculateErrors" modified="No">False</Option>
    <Option name="WeightRange" modified="No">1.000000e+00</Option>
  </Options>
  <Variables NVar="11">
    <Variable VarIndex="0" Expression="U5" Label="U5" Title="U 235" Unit="FractionIsotopic" Internal="U5" Type="F" Min="1.70676806e-03" Max="3.86267412e-03"/>
    <Variable VarIndex="1" Expression="U8" Label="U8" Title="U 238" Unit="FractionIsotopic" Internal="U8" Type="F" Min="8.46656263e-01" Max="9.67921793e-01"/>
    <Variable VarIndex="2" Expression="Pu8" Label="Pu8" Title="Pu 238" Unit="FractionIsotopic" Internal="Pu8" Type="F" Min="9.54120769e-05" Max="1.02889920e-02"/>
    <Variable VarIndex="3" Expression="Pu9" Label="Pu9" Title="Pu 239" Unit="FractionIsotopic" Internal="Pu9" Type="F" Min="6.84304768e-03" Max="1.03770845e-01"/>
    <Variable VarIndex="4" Expression="Pu10" Label="Pu10" Title="Pu 240" Unit="FractionIsotopic" Internal="Pu10" Type="F" Min="4.30373754e-03" Max="4.21657786e-02"/>
    <Variable VarIndex="5" Expression="Pu11" Label="Pu11" Title="Pu 241" Unit="FractionIsotopic" Internal="Pu11" Type="F" Min="3.67950233e-05" Max="2.75353342e-02"/>
    <Variable VarIndex="6" Expression="Pu12" Label="Pu12" Title="Pu 242" Unit="FractionIsotopic" Internal="Pu12" Type="F" Min="7.64389639e-04" Max="2.53406931e-02"/>
    <Variable VarIndex="7" Expression="Am1" Label="Am1" Title="Am 241" Unit="FractionIsotopic" Internal="Am1" Type="F" Min="7.62663092e-07" Max="1.72295030e-02"/>
    <Variable VarIndex="8" Expression="Am2" Label="Am2" Title="Am 242" Unit="FractionIsotopic" Internal="Am2" Type="F" Min="1.01304298e-09" Max="2.95403443e-05"/>
    <Variable VarIndex="9" Expression="Am3" Label="Am3" Title="Am 243" Unit="FractionIsotopic" Internal="Am3" Type="F" Min="7.64972924e-07" Max="7.47120613e-03"/>
    <Variable VarIndex="10" Expression="Time" Label="Time" Title="Time" Unit="seconds" Internal="Time" Type="F" Min="0.00000000e+00" Max="1.57788000e+08"/>
  </Variables>
  <Spectators NSpec="0"/>
  <Classes NClass="1">
    <Class Name="Regression" Index="0"/>
  </Classes>
  <Targets NTrgt="1">
    <Target TargetIndex="0" Expression="XS_36_84_0_n2n" Label="XS_36_84_0_n2n" Title="XS_36_84_0_n2n" Unit="" Internal="XS_36_84_0_n2n" Type="F" Min="1.44581645e-04" Max="3.87012435e-04"/>
  </Targets>
  <Transformations NTransformations="1">
    <Transform Name="Normalize">
      <Selection>
        <Input NInputs="12">
          <Input Type="Variable" Label="U5" Expression="U5"/>
          <Input Type="Variable" Label="U8" Expression="U8"/>
          <Input Type="Variable" Label="Pu8" Expression="Pu8"/>
          <Input Type="Variable" Label="Pu9" Expression="Pu9"/>
          <Input Type="Variable" Label="Pu10" Expression="Pu10"/>
          <Input Type="Variable" Label="Pu11" Expression="Pu11"/>
          <Input Type="Variable" Label="Pu12" Expression="Pu12"/>
          <Input Type="Variable" Label="Am1" Expression="Am1"/>
          <Input Type="Variable" Label="Am2" Expression="Am2"/>
          <Input Type="Variable" Label="Am3" Expression="Am3"/>
          <Input Type="Variable" Label="Time" Expression="Time"/>
          <Input Type="Target" Label="XS_36_84_0_n2n" Expression="XS_36_84_0_n2n"/>
        </Input>
        <Output NOutputs="12">
          <Output Type="Variable" Label="U5" Expression="U5"/>
          <Output Type="Variable" Label="U8" Expression="U8"/>
          <Output Type="Variable" Label="Pu8" Expression="Pu8"/>
          <Output Type="Variable" Label="Pu9" Expression="Pu9"/>
          <Output Type="Variable" Label="Pu10" Expression="Pu10"/>
          <Output Type="Variable" Label="Pu11" Expression="Pu11"/>
          <Output Type="Variable" Label="Pu12" Expression="Pu12"/>
          <Output Type="Variable" Label="Am1" Expression="Am1"/>
          <Output Type="Variable" Label="Am2" Expression="Am2"/>
          <Output Type="Variable" Label="Am3" Expression="Am3"/>
          <Output Type="Variable" Label="Time" Expression="Time"/>
          <Output Type="Target" Label="XS_36_84_0_n2n" Expression="XS_36_84_0_n2n"/>
        </Output>
      </Selection>
      <Class ClassIndex="0">
        <Ranges>
          <Range Index="0" Min="1.7067680601030588e-03" Max="3.8626741152256727e-03"/>
          <Range Index="1" Min="8.4665626287460327e-01" Max="9.6792179346084595e-01"/>
          <Range Index="2" Min="9.5412076916545630e-05" Max="1.0288991965353489e-02"/>
          <Range Index="3" Min="6.8430476821959019e-03" Max="1.0377084463834763e-01"/>
          <Range Index="4" Min="4.3037375435233116e-03" Max="4.2165778577327728e-02"/>
          <Range Index="5" Min="3.6795023333979771e-05" Max="2.7535334229469299e-02"/>
          <Range Index="6" Min="7.6438963878899813e-04" Max="2.5340693071484566e-02"/>
          <Range Index="7" Min="7.6266309179118252e-07" Max="1.7229503020644188e-02"/>
          <Range Index="8" Min="1.0130429828336673e-09" Max="2.9540344257839024e-05"/>
          <Range Index="9" Min="7.6497292411659146e-07" Max="7.4712061323225498e-03"/>
          <Range Index="10" Min="0.0000000000000000e+00" Max="1.5778800000000000e+08"/>
          <Range Index="11" Min="1.4458164514508098e-04" Max="3.8701243465766311e-04"/>
        </Ranges>
      </Class>
    </Transform>
  </Transformations>
  <MVAPdfs/>
  <Weights>
    <Layout NLayers="4">
      <Layer Index="0" NNeurons="12">
        <Neuron NSynapses="11">
          -1.7697421038185690e-01 1.1197460479183043e+00 2.5702443930814889e-01 1.6730044784176727e+00 -1.2953668275451937e+00 -1.4416346013608141e+00 -8.1897374264914169e-01 1.3228172977642441e+00 6.8334827169723583e-03 -2.6700261850721896e-01 -1.9857751011189975e-01 
        </Neuron>
        <Neuron NSynapses="11">
          1.1445403410830699e+00 -9.0484882204452133e-01 -8.5427336726088862e-02 3.0238120540431895e-01 1.0749929064253361e+00 9.5159876215493377e-02 2.2959196441113758e+00 1.2522449216076565e+00 1.8150053324738857e+00 1.4644533346291588e-01 6.2658759269957487e-01 
        </Neuron>
        <Neuron NSynapses="11">
          4.7822338905379391e-01 1.4881181319600250e+00 -1.3448745087045242e+00 -1.6172940145575804e-01 1.5707738745353024e+00 -5.1388879247118957e-01 -8.8406246786261600e-01 3.9339420617854842e-01 6.8893806275616720e-01 6.2985755868842608e-01 9.1834643598682453e-01 
        </Neuron>
        <Neuron NSynapses="11">
          -1.3628407452284417e+00 7.5893377661853334e-02 -7.4148872828130152e-02 -2.2377078389489697e+00 1.2026172865561962e+00 -1.8665426592955965e+00 8.7042639744442540e-01 1.1557677072594558e-01 3.8033637080237770e-01 1.6659040897804880e+00 -1.4710533149884708e-01 
        </Neuron>
        <Neuron NSynapses="11">
          -2.2672681711099401e+00 -2.6544616159939576e+00 8.6307384404213955e-02 -3.2900873121297920e-02 1.9225197521121982e+00 1.0837681155338035e+00 1.5674584245962468e+00 1.6346296127731437e+00 -6.5022642428014188e-01 -1.0032157269625637e-01 -2.6514925790073822e+00 
        </Neuron>
        <Neuron NSynapses="11">
          -1.4882545218526280e+00 -1.6082888145315841e+00 -2.5691679006675763e+00 1.4138229317295190e+00 1.4638436742296772e+00 -1.4327016374297719e+00 -1.1531804943056017e+00 -2.8746903302404390e-02 3.4156206248040477e-01 2.1775822382305168e+00 6.5517463477281046e-02 
        </Neuron>
        <Neuron NSynapses="11">
          -9.4963843067158060e-01 -4.3697300913816889e-01 6.2469229277454352e-01 -5.7426650147034308e-01 -3.3283709575696757e-01 -1.6019473404284705e+00 -8.3227366029400063e-01 2.4535878809593903e-01 1.4975130933251894e+00 8.2564122213756502e-02 -1.4351336124588312e+00 
        </Neuron>
        <Neuron NSynapses="11">
          -1.1612324897272641e+00 -2.8553148303589715e-01 3.7739688261151477e-01 1.4953604066735307e+00 6.8280956395134440e-01 1.1089862818153833e+00 3.8190822764696325e-01 2.7286230468354090e-02 -1.7035459120324209e-01 2.6833430871874681e-01 -4.2465545672944027e-01 
        </Neuron>
        <Neuron NSynapses="11">
          -4.6687046128702270e-01 -1.5375847777411891e+00 7.0019577728567450e-01 -1.5751399259766630e+00 1.8682113540311103e+00 -1.3900829347353267e+00 -3.0237434507604560e-01 1.6628377310375766e+00 -9.3389420328315276e-01 -1.9345283698322349e+00 -5.9844574048746946e-01 
        </Neuron>
        <Neuron NSynapses="11">
          2.6503739579374441e-01 -1.6681595367036852e+00 -3.3162253377457468e-01 -1.1546327562952305e-02 1.6357212687770661e+00 -6.8817422340012024e-01 7.3614955647359681e-01 -6.9095028624101495e-01 -5.9471150723206287e-02 5.3527566885485922e-01 3.7334108758076918e-02 
        </Neuron>
        <Neuron NSynapses="11">
          -1.2037461826737961e+00 -2.2198676550297412e-02 8.3936213073338029e-01 -1.2085641974762817e+00 -1.7772430117636147e+00 2.5229582439012188e+00 3.1181927703925116e-01 -1.9290232223426989e+00 3.0334065488666337e-02 1.4271345073237560e-02 -9.2186857738386113e-02 
        </Neuron>
        <Neuron NSynapses="11">
          3.7112501779561041e-01 -2.1277060472684761e-01 1.5407877420477403e+00 4.5799341494584239e-01 -6.9645465474623403e-01 -2.7456284500597811e-01 3.6914825193364775e-01 -2.4716892750135044e+00 3.4458248580863143e-01 3.9394659138001431e-01 -2.6268197182151218e+00 
        </Neuron>
      </Layer>
      <Layer Index="1" NNeurons="12">
        <Neuron NSynapses="11">
          3.3786383933612679e-01 -2.3132767530161376e+00 7.2871746224635792e-01 6.2742659747591645e-01 1.5816959864214666e+00 -2.5778572483119646e+00 2.6111833031016196e-01 1.1700661283556721e+00 1.2953227774548774e+00 -4.2251564452139118e-01 -1.3342204091740812e+00 
        </Neuron>
        <Neuron NSynapses="11">
          -1.9388361776313928e-01 -1.5983978480008654e+00 1.1049409629215403e+00 1.2527616340630909e+00 -5.0310682357150771e-01 -1.9195081103288353e-01 8.9377409944928021e-01 -1.5369404649321967e+00 6.7126270182851955e-01 2.2252317897425651e+00 -6.6399849157999047e-01 
        </Neuron>
        <Neuron NSynapses="11">
          -8.1537846294412042e-01 7.6429648343962722e-02 5.4504122380629372e-01 4.4398225746699094e-01 1.1026234410957518e+00 -1.5962030932885491e+00 6.3865905045411153e-01 3.9570886752949680e-01 5.8835735215634521e-01 5.7854120531147180e-01 8.9227959806082746e-01 
        </Neuron>
        <Neuron NSynapses="11">
          -4.9409526170232432e-01 -1.9340726076364198e-01 1.4496707314025314e+00 -8.7310637369148569e-01 -8.1557134096087791e-01 1.0763634159424775e+00 2.3767827158940297e-01 -5.3135139546508869e-01 1.9105623932811500e+00 2.0198548510996668e+00 -1.7693830865324243e+00 
        </Neuron>
        <Neuron NSynapses="11">
          7.8340934099843540e-01 -3.2121962062205134e-01 6.6409040278832054e-01 -1.3945639648056416e+00 -1.2185219061827706e+00 8.9549192446153403e-01 1.7542324407048635e+00 -1.4739296062737410e+00 -1.4111544446308535e-01 -3.3923432947363646e-01 3.6293979209371463e-01 
        </Neuron>
        <Neuron NSynapses="11">
          1.3727278528652809e+00 -1.6267475268129983e-01 -3.3496218952032386e-01 -1.3964608352455945e+00 1.9041560556582116e+00 1.6944012554053418e+00 -3.6726737581147195e-01 2.2512325751634636e-02 -6.5746098809884312e-01 -1.9002781784215714e+00 1.0976724214632754e+00 
        </Neuron>
        <Neuron NSynapses="11">
          -1.4412846366997607e+00 -7.5824680717319670e-01 -7.1313066555686933e-01 1.3938626735666410e-01 -4.0229401447196791e-02 -1.7523109891183768e+00 1.5518140787927877e+00 5.4480047423588485e-01 -5.9734730211419063e-01 -5.7236390172381513e-01 1.7659073833259766e+00 
        </Neuron>
        <Neuron NSynapses="11">
          1.1262545979718841e+00 -9.2785303353988047e-02 -2.0183552388152101e-02 -1.9507061467846745e+00 -1.7123523324144041e+00 1.9615421242591888e+00 1.8810769704528938e+00 1.2724525315290749e+00 1.2812448420819417e-01 2.0967026530290722e+00 -1.7907993974004071e+00 
        </Neuron>
        <Neuron NSynapses="11">
          -1.8580165442684022e+00 -3.5904488885983749e-01 -1.5622094108846827e+00 1.1482256681400782e+00 1.4052060534427322e+00 -7.6813746327310395e-01 8.8644671676964837e-01 -2.5716315702154285e-01 -1.8387766496694669e+00 -1.5559989343835050e+00 1.2997958527193165e+00 
        </Neuron>
        <Neuron NSynapses="11">
          9.3898072673055955e-01 1.5840696690154399e+00 -2.2476166963258821e+00 2.0331576387985550e+00 -1.2454223705177125e+00 5.3288653780828976e-01 -1.9773297218279766e+00 -1.7162778453570728e+00 -1.0837786505201992e+00 -1.6328049301900223e+00 -4.1545186000739887e-01 
        </Neuron>
        <Neuron NSynapses="11">
          -2.4500686122296931e+00 -1.3688605462735270e+00 -1.0573259434811353e+00 1.0205159458495320e-02 -1.0843250032662357e+00 -1.3471713114586197e+00 4.8524567025641130e-01 -9.5816794125775884e-01 -1.6307229987997007e-01 -1.0795561902035355e+00 4.9720165679451234e-01 
        </Neuron>
        <Neuron NSynapses="11">
          1.5738084213933796e+00 8.3006821450471024e-01 -1.4598299549370430e+00 -1.4188590288395837e+00 -8.0136661066646109e-01 -1.4287922313600063e+00 -2.6024754439475943e+00 -1.0152594223857070e-01 3.4530528295830998e-01 1.7727221863944902e+00 -4.2881570751183140e-01 
        </Neuron>
      </Layer>
      <Layer Index="2" NNeurons="12">
        <Neuron NSynapses="1">
          3.7978043164657048e-02 
        </Neuron>
        <Neuron NSynapses="1">
          1.5169583283508774e-02 
        </Neuron>
        <Neuron NSynapses="1">
          -2.8499647838156943e-02 
        </Neuron>
        <Neuron NSynapses="1">
          -1.5578490657352251e-02 
        </Neuron>
        <Neuron NSynapses="1">
          -8.6219427373527419e-03 
        </Neuron>
        <Neuron NSynapses="1">
          1.6696957251576165e-02 
        </Neuron>
        <Neuron NSynapses="1">
          -1.4480369215682115e-01 
        </Neuron>
        <Neuron NSynapses="1">
          3.4963282633502053e-03 
        </Neuron>
        <Neuron NSynapses="1">
          -6.9436161087592652e-03 
        </Neuron>
        <Neuron NSynapses="1">
          2.9123497623026053e-02 
        </Neuron>
        <Neuron NSynapses="1">
          -8.8653722469882162e-03 
        </Neuron>
        <Neuron NSynapses="1">
          -2.4606786679103779e-01 
        </Neuron>
      </Layer>
      <Layer Index="3" NNeurons="1">
        <Neuron NSynapses="0"/>
      </Layer>
    </Layout>
  </Weights>
</MethodSetup>
