<?xml version="1.0"?>
<MethodSetup Method="MLP::XS_48_116_0_n2n">
  <GeneralInfo>
    <Info name="TMVA Release" value="4.2.0 [262656]"/>
    <Info name="ROOT Release" value="5.34/14 [336398]"/>
    <Info name="Creator" value="mouginot"/>
    <Info name="Date" value="Tue Apr 28 21:16:51 2015"/>
    <Info name="Host" value="Linux nansl3.in2p3.fr 2.6.32-431.20.3.el6.x86_64 #1 SMP Thu Jun 19 14:01:59 CDT 2014 x86_64 x86_64 x86_64 GNU/Linux"/>
    <Info name="Dir" value="/scratch/spallati/mouginot/Combustible/Analyse/MLP_PuAm/XSM/Train"/>
    <Info name="Training events" value="35904"/>
    <Info name="TrainingTime" value="2.29584951e+03"/>
    <Info name="AnalysisType" value="Regression"/>
  </GeneralInfo>
  <Options>
    <Option name="NCycles" modified="Yes">20000</Option>
    <Option name="HiddenLayers" modified="Yes">N,N</Option>
    <Option name="NeuronType" modified="Yes">tanh</Option>
    <Option name="RandomSeed" modified="No">1</Option>
    <Option name="EstimatorType" modified="No">MSE</Option>
    <Option name="NeuronInputType" modified="No">sum</Option>
    <Option name="V" modified="Yes">False</Option>
    <Option name="VerbosityLevel" modified="No">Default</Option>
    <Option name="VarTransform" modified="Yes">Norm</Option>
    <Option name="H" modified="Yes">False</Option>
    <Option name="CreateMVAPdfs" modified="No">False</Option>
    <Option name="IgnoreNegWeightsInTraining" modified="No">False</Option>
    <Option name="TrainingMethod" modified="Yes">BFGS</Option>
    <Option name="LearningRate" modified="No">2.000000e-02</Option>
    <Option name="DecayRate" modified="No">1.000000e-02</Option>
    <Option name="TestRate" modified="Yes">6</Option>
    <Option name="EpochMonitoring" modified="No">False</Option>
    <Option name="Sampling" modified="Yes">3.000000e-01</Option>
    <Option name="SamplingEpoch" modified="Yes">8.000000e-01</Option>
    <Option name="SamplingImportance" modified="No">1.000000e+00</Option>
    <Option name="SamplingTraining" modified="No">True</Option>
    <Option name="SamplingTesting" modified="No">False</Option>
    <Option name="ResetStep" modified="No">50</Option>
    <Option name="Tau" modified="No">3.000000e+00</Option>
    <Option name="BPMode" modified="No">sequential</Option>
    <Option name="BatchSize" modified="No">-1</Option>
    <Option name="ConvergenceImprove" modified="Yes">1.000000e-06</Option>
    <Option name="ConvergenceTests" modified="Yes">15</Option>
    <Option name="UseRegulator" modified="Yes">False</Option>
    <Option name="UpdateLimit" modified="No">10000</Option>
    <Option name="CalculateErrors" modified="No">False</Option>
    <Option name="WeightRange" modified="No">1.000000e+00</Option>
  </Options>
  <Variables NVar="11">
    <Variable VarIndex="0" Expression="U5" Label="U5" Title="U 235" Unit="FractionIsotopic" Internal="U5" Type="F" Min="1.70676806e-03" Max="3.86267412e-03"/>
    <Variable VarIndex="1" Expression="U8" Label="U8" Title="U 238" Unit="FractionIsotopic" Internal="U8" Type="F" Min="8.46656263e-01" Max="9.67921793e-01"/>
    <Variable VarIndex="2" Expression="Pu8" Label="Pu8" Title="Pu 238" Unit="FractionIsotopic" Internal="Pu8" Type="F" Min="9.54120769e-05" Max="1.02889920e-02"/>
    <Variable VarIndex="3" Expression="Pu9" Label="Pu9" Title="Pu 239" Unit="FractionIsotopic" Internal="Pu9" Type="F" Min="6.84304768e-03" Max="1.03770845e-01"/>
    <Variable VarIndex="4" Expression="Pu10" Label="Pu10" Title="Pu 240" Unit="FractionIsotopic" Internal="Pu10" Type="F" Min="4.30373754e-03" Max="4.21657786e-02"/>
    <Variable VarIndex="5" Expression="Pu11" Label="Pu11" Title="Pu 241" Unit="FractionIsotopic" Internal="Pu11" Type="F" Min="3.67950233e-05" Max="2.75353342e-02"/>
    <Variable VarIndex="6" Expression="Pu12" Label="Pu12" Title="Pu 242" Unit="FractionIsotopic" Internal="Pu12" Type="F" Min="7.64389639e-04" Max="2.53406931e-02"/>
    <Variable VarIndex="7" Expression="Am1" Label="Am1" Title="Am 241" Unit="FractionIsotopic" Internal="Am1" Type="F" Min="7.62663092e-07" Max="1.72295030e-02"/>
    <Variable VarIndex="8" Expression="Am2" Label="Am2" Title="Am 242" Unit="FractionIsotopic" Internal="Am2" Type="F" Min="1.01304298e-09" Max="2.95403443e-05"/>
    <Variable VarIndex="9" Expression="Am3" Label="Am3" Title="Am 243" Unit="FractionIsotopic" Internal="Am3" Type="F" Min="7.64972924e-07" Max="7.47120613e-03"/>
    <Variable VarIndex="10" Expression="Time" Label="Time" Title="Time" Unit="seconds" Internal="Time" Type="F" Min="0.00000000e+00" Max="1.57788000e+08"/>
  </Variables>
  <Spectators NSpec="0"/>
  <Classes NClass="1">
    <Class Name="Regression" Index="0"/>
  </Classes>
  <Targets NTrgt="1">
    <Target TargetIndex="0" Expression="XS_48_116_0_n2n" Label="XS_48_116_0_n2n" Title="XS_48_116_0_n2n" Unit="" Internal="XS_48_116_0_n2n" Type="F" Min="5.27758501e-04" Max="9.88025218e-04"/>
  </Targets>
  <Transformations NTransformations="1">
    <Transform Name="Normalize">
      <Selection>
        <Input NInputs="12">
          <Input Type="Variable" Label="U5" Expression="U5"/>
          <Input Type="Variable" Label="U8" Expression="U8"/>
          <Input Type="Variable" Label="Pu8" Expression="Pu8"/>
          <Input Type="Variable" Label="Pu9" Expression="Pu9"/>
          <Input Type="Variable" Label="Pu10" Expression="Pu10"/>
          <Input Type="Variable" Label="Pu11" Expression="Pu11"/>
          <Input Type="Variable" Label="Pu12" Expression="Pu12"/>
          <Input Type="Variable" Label="Am1" Expression="Am1"/>
          <Input Type="Variable" Label="Am2" Expression="Am2"/>
          <Input Type="Variable" Label="Am3" Expression="Am3"/>
          <Input Type="Variable" Label="Time" Expression="Time"/>
          <Input Type="Target" Label="XS_48_116_0_n2n" Expression="XS_48_116_0_n2n"/>
        </Input>
        <Output NOutputs="12">
          <Output Type="Variable" Label="U5" Expression="U5"/>
          <Output Type="Variable" Label="U8" Expression="U8"/>
          <Output Type="Variable" Label="Pu8" Expression="Pu8"/>
          <Output Type="Variable" Label="Pu9" Expression="Pu9"/>
          <Output Type="Variable" Label="Pu10" Expression="Pu10"/>
          <Output Type="Variable" Label="Pu11" Expression="Pu11"/>
          <Output Type="Variable" Label="Pu12" Expression="Pu12"/>
          <Output Type="Variable" Label="Am1" Expression="Am1"/>
          <Output Type="Variable" Label="Am2" Expression="Am2"/>
          <Output Type="Variable" Label="Am3" Expression="Am3"/>
          <Output Type="Variable" Label="Time" Expression="Time"/>
          <Output Type="Target" Label="XS_48_116_0_n2n" Expression="XS_48_116_0_n2n"/>
        </Output>
      </Selection>
      <Class ClassIndex="0">
        <Ranges>
          <Range Index="0" Min="1.7067680601030588e-03" Max="3.8626741152256727e-03"/>
          <Range Index="1" Min="8.4665626287460327e-01" Max="9.6792179346084595e-01"/>
          <Range Index="2" Min="9.5412076916545630e-05" Max="1.0288991965353489e-02"/>
          <Range Index="3" Min="6.8430476821959019e-03" Max="1.0377084463834763e-01"/>
          <Range Index="4" Min="4.3037375435233116e-03" Max="4.2165778577327728e-02"/>
          <Range Index="5" Min="3.6795023333979771e-05" Max="2.7535334229469299e-02"/>
          <Range Index="6" Min="7.6438963878899813e-04" Max="2.5340693071484566e-02"/>
          <Range Index="7" Min="7.6266309179118252e-07" Max="1.7229503020644188e-02"/>
          <Range Index="8" Min="1.0130429828336673e-09" Max="2.9540344257839024e-05"/>
          <Range Index="9" Min="7.6497292411659146e-07" Max="7.4712061323225498e-03"/>
          <Range Index="10" Min="0.0000000000000000e+00" Max="1.5778800000000000e+08"/>
          <Range Index="11" Min="5.2775850053876638e-04" Max="9.8802521824836731e-04"/>
        </Ranges>
      </Class>
    </Transform>
  </Transformations>
  <MVAPdfs/>
  <Weights>
    <Layout NLayers="4">
      <Layer Index="0" NNeurons="12">
        <Neuron NSynapses="11">
          -5.8832601587276467e-01 1.7201713392795439e+00 -1.5299428820412439e-01 1.6287741441737875e+00 -1.9691999679045120e+00 -8.5747644949917246e-01 -2.0194536791384871e-01 7.9090857007806370e-01 9.2195629124124559e-02 -6.6283532047551552e-01 -5.9985519221772610e-01 
        </Neuron>
        <Neuron NSynapses="11">
          7.4114103493544481e-01 -1.0212531465392303e+00 -3.5215547452039186e-01 6.7905455704968665e-01 5.8529430373261693e-01 3.8141051894960148e-01 2.1777282481588127e+00 6.8124464268672613e-01 1.7203209141556901e+00 3.1235048219653083e-01 4.1570619852312163e-01 
        </Neuron>
        <Neuron NSynapses="11">
          4.9615807784655852e-01 1.5645313351375016e+00 -5.2962584504604970e-01 -1.3394266976903508e+00 3.0328037405557451e-01 -1.2808456049532482e+00 1.1219785916251697e-02 2.4238421135474247e-01 1.4872256756616553e-01 5.0245997759030225e-01 4.4557483783310226e-01 
        </Neuron>
        <Neuron NSynapses="11">
          -9.7757798840796839e-01 6.3163157514322354e-01 -6.7802724259635377e-02 -2.5495487186750996e+00 1.5008149786745830e+00 -1.5424347561294836e+00 8.9139778236779432e-01 5.6109903090276592e-01 4.8621788152822359e-01 1.6417236360779650e+00 -7.6288078734632170e-02 
        </Neuron>
        <Neuron NSynapses="11">
          -2.5339185880728525e+00 -2.2754429216349839e+00 6.0325542785120356e-01 9.5002728292101594e-03 2.5086959911187483e+00 7.1912878863144125e-01 3.7721535980104332e-01 1.1105614469770981e+00 -1.5379191537861461e-01 1.0500854231138738e-01 -1.9168051600690406e+00 
        </Neuron>
        <Neuron NSynapses="11">
          -6.6738118607899288e-01 -2.0803758830162158e+00 -3.1638826130774595e+00 1.7595691475368958e+00 8.5002757585301059e-01 -3.3985759703565552e+00 -7.6956540696133036e-01 1.9767136359225501e-01 6.0822088960625154e-01 1.7086173738354222e+00 2.0492253285486645e-01 
        </Neuron>
        <Neuron NSynapses="11">
          -7.0783617986718683e-01 -1.3099239189675593e+00 4.2276583456172473e-01 -7.6399850862676610e-01 7.8787338132145418e-02 -1.8101415750839427e+00 7.3435926426074405e-01 -3.2731559963197471e-01 4.3779502641724466e-01 3.4131535382692174e-01 -1.8542893388474555e+00 
        </Neuron>
        <Neuron NSynapses="11">
          -7.5214327000099057e-01 -2.3685830469948913e-01 -7.8416041705759165e-02 1.0784852440840214e+00 -3.1922062757382430e-01 1.6632759810839440e-01 2.1954196089032149e-01 -1.7354369143189083e-01 -1.5816056533666484e-01 3.0121938820049743e-01 3.0725961480279124e-01 
        </Neuron>
        <Neuron NSynapses="11">
          -4.4896421272348525e-01 -1.9981152596729259e+00 2.0061415223324716e-01 -1.0190820158723402e+00 4.5338493144915404e-01 -1.7338057773631470e+00 -2.2394240967050275e-01 8.9352412391088554e-01 -9.1063063484834145e-02 -1.7193275290393115e+00 -4.2392863519014684e-01 
        </Neuron>
        <Neuron NSynapses="11">
          -3.9899005392456216e-01 -1.5147134425903708e+00 5.9134036013388847e-01 2.5893328026377410e-01 2.4593897156641273e+00 -9.2912936186973039e-01 2.9453814049224919e-01 -6.9703041091451562e-02 1.9706578924183316e-02 6.1045229045482197e-01 -8.0159427509629588e-01 
        </Neuron>
        <Neuron NSynapses="11">
          -1.5674712067000562e+00 -1.7379138004404573e-01 1.2852362278607803e+00 -1.0411841866969695e+00 -1.1195872694760070e+00 5.6763910941120221e-01 2.6777696475915613e-01 -1.4196470073208407e+00 -1.1025883295971455e-01 -8.3074173771378407e-02 -5.8826056090835466e-02 
        </Neuron>
        <Neuron NSynapses="11">
          2.4650170636273541e-01 -5.7188514570225968e-01 1.9500296709759797e+00 3.8747502337500211e-01 -8.1918756046878455e-02 2.0198387307426885e-01 4.2898935630126439e-01 -1.6344609960117933e+00 4.2985891786863661e-01 1.2139836190106094e-01 -2.6768574562447180e+00 
        </Neuron>
      </Layer>
      <Layer Index="1" NNeurons="12">
        <Neuron NSynapses="11">
          1.2317223971946929e+00 -1.6938359096271940e+00 5.7597440036513459e-01 7.7233105600211371e-01 8.9195724706865620e-01 -3.0944855150222601e+00 6.4321992692306339e-03 9.8095942269106395e-01 2.1100639407082791e-01 1.0401722385280132e+00 -1.9273899604294114e+00 
        </Neuron>
        <Neuron NSynapses="11">
          -2.2415927423176910e-01 -8.0979491004515092e-01 1.7075228444429562e+00 1.5157262719151747e+00 -1.4597361488498906e+00 -6.2977247701338912e-01 1.8769398308164942e-01 -1.6672862132459814e+00 7.6756963492597696e-01 2.3206032700402428e+00 -7.9495501139926461e-01 
        </Neuron>
        <Neuron NSynapses="11">
          -7.7138160888052487e-01 -2.2111520250126793e-01 8.1813650218491552e-01 7.0842093861914945e-01 9.8312240115064842e-01 -1.2333850812468248e+00 6.8546464317743894e-01 4.0291520424953048e-01 6.5743312771918394e-01 5.2669968622051566e-01 9.6188953475548788e-01 
        </Neuron>
        <Neuron NSynapses="11">
          -8.2158390866309405e-01 -1.5510253642760830e-01 1.4997548364475934e+00 -7.6226673221978669e-01 1.4541176265423719e-01 1.0267647138752523e+00 2.8443709135513728e-01 -3.4104213442755071e-01 1.5820098816562544e+00 1.7473834298361706e+00 -1.8443460274751982e+00 
        </Neuron>
        <Neuron NSynapses="11">
          5.9859736021969712e-01 8.8762745518610228e-02 3.7857270744190280e-01 -1.4556992784118521e+00 -4.0320044586494919e-01 6.6767301078340646e-01 7.2813717631127628e-01 -1.3553639156069310e+00 -4.3403436554588792e-01 4.0404851133972297e-02 1.2541242721777038e-01 
        </Neuron>
        <Neuron NSynapses="11">
          -3.1975509063868773e-01 -4.5760384392699827e-01 -9.3128194547202825e-01 -9.6070548003416101e-01 1.8902268574499412e+00 3.4876161660920107e-01 2.4490979811879479e-01 -4.5373572115596694e-01 -9.2169245305391734e-01 -1.9204092377206079e+00 8.6612391991995974e-01 
        </Neuron>
        <Neuron NSynapses="11">
          -7.0478899235966708e-01 -1.8134320677119948e+00 -6.7387888724567668e-01 3.2277887924773579e-01 -2.2366930806331800e-01 -1.8483268353653899e+00 7.0524574765330705e-01 4.8179835906192486e-01 -1.0632626933320783e+00 -3.9690857161420878e-01 1.7186760140940611e+00 
        </Neuron>
        <Neuron NSynapses="11">
          1.1873596038934022e+00 -5.1107373958337221e-01 -6.9770836872475450e-01 -1.7928846077341334e+00 -1.0746513566845493e+00 1.6975200274917668e+00 1.0638347528901302e+00 1.0858818784809272e+00 4.7320099089920459e-01 2.0018392578516160e+00 -1.9564312366536580e+00 
        </Neuron>
        <Neuron NSynapses="11">
          -2.5063217549590120e+00 -4.7245923918132243e-01 -5.0360261808714935e-01 1.1270609013872570e+00 1.5435849479631039e+00 -9.2473684058282934e-01 7.3959498471264817e-01 -3.4684862470404848e-01 -2.4425682468337935e+00 -1.7368503822020194e+00 1.4762798603240013e+00 
        </Neuron>
        <Neuron NSynapses="11">
          6.3363485900436856e-01 1.0784793768406913e+00 -1.6528502138385979e+00 2.0998756640552290e+00 -2.0978427998905778e+00 4.3228866796859100e-01 -8.9500777893825589e-01 -1.4698885643343049e+00 -1.2807437227681489e+00 -1.4163926392506396e+00 -8.2169888566766186e-02 
        </Neuron>
        <Neuron NSynapses="11">
          -2.3897679025071321e+00 -1.1555858904666729e+00 -6.7724695424313208e-01 1.7099486316627455e-01 -1.1104441548566144e+00 -1.7177549626191466e+00 1.7254467513436697e-01 -1.7676155887474494e+00 6.0526736280048874e-03 -1.4147207795383974e+00 -2.8275876470244647e-02 
        </Neuron>
        <Neuron NSynapses="11">
          1.5502925955663152e+00 9.8414207425692368e-01 -1.2291713034948002e+00 -1.6859918848700064e+00 -8.6600416523338763e-01 -1.2168436988964626e+00 -2.7005655652480240e+00 2.3642419951456255e-02 3.9589508473577624e-02 1.6290902841792434e+00 -1.9153446281781304e-02 
        </Neuron>
      </Layer>
      <Layer Index="2" NNeurons="12">
        <Neuron NSynapses="1">
          3.2290062772693570e-02 
        </Neuron>
        <Neuron NSynapses="1">
          2.4159372716016713e-02 
        </Neuron>
        <Neuron NSynapses="1">
          -6.0911221931920959e-02 
        </Neuron>
        <Neuron NSynapses="1">
          -1.2220122051468081e-02 
        </Neuron>
        <Neuron NSynapses="1">
          -1.5027038252279558e-02 
        </Neuron>
        <Neuron NSynapses="1">
          2.1323567609704316e-02 
        </Neuron>
        <Neuron NSynapses="1">
          -9.8095759344191635e-01 
        </Neuron>
        <Neuron NSynapses="1">
          -1.0144147083633301e-02 
        </Neuron>
        <Neuron NSynapses="1">
          2.3038849581913649e-02 
        </Neuron>
        <Neuron NSynapses="1">
          4.8432478083494594e-02 
        </Neuron>
        <Neuron NSynapses="1">
          -1.1675129138003547e-02 
        </Neuron>
        <Neuron NSynapses="1">
          -9.4212717923175515e-01 
        </Neuron>
      </Layer>
      <Layer Index="3" NNeurons="1">
        <Neuron NSynapses="0"/>
      </Layer>
    </Layout>
  </Weights>
</MethodSetup>
