<?xml version="1.0"?>
<MethodSetup Method="MLP::XS_48_106_0_n2n">
  <GeneralInfo>
    <Info name="TMVA Release" value="4.2.0 [262656]"/>
    <Info name="ROOT Release" value="5.34/14 [336398]"/>
    <Info name="Creator" value="courtin"/>
    <Info name="Date" value="Thu Dec 17 21:27:02 2015"/>
    <Info name="Host" value="Linux nansl3.in2p3.fr 2.6.32-431.20.3.el6.x86_64 #1 SMP Thu Jun 19 14:01:59 CDT 2014 x86_64 x86_64 x86_64 GNU/Linux"/>
    <Info name="Dir" value="/scratch/spallati/courtin/WORK/BdD_MOxEUS/MOxEUS_NN/XSM/MLP/Train"/>
    <Info name="Training events" value="59870"/>
    <Info name="TrainingTime" value="1.13986684e+03"/>
    <Info name="AnalysisType" value="Regression"/>
  </GeneralInfo>
  <Options>
    <Option name="NCycles" modified="Yes">20000</Option>
    <Option name="HiddenLayers" modified="Yes">N,N</Option>
    <Option name="NeuronType" modified="Yes">tanh</Option>
    <Option name="RandomSeed" modified="No">1</Option>
    <Option name="EstimatorType" modified="No">MSE</Option>
    <Option name="NeuronInputType" modified="No">sum</Option>
    <Option name="V" modified="Yes">False</Option>
    <Option name="VerbosityLevel" modified="No">Default</Option>
    <Option name="VarTransform" modified="Yes">Norm</Option>
    <Option name="H" modified="Yes">False</Option>
    <Option name="CreateMVAPdfs" modified="No">False</Option>
    <Option name="IgnoreNegWeightsInTraining" modified="No">False</Option>
    <Option name="TrainingMethod" modified="Yes">BFGS</Option>
    <Option name="LearningRate" modified="No">2.000000e-02</Option>
    <Option name="DecayRate" modified="No">1.000000e-02</Option>
    <Option name="TestRate" modified="Yes">6</Option>
    <Option name="EpochMonitoring" modified="No">False</Option>
    <Option name="Sampling" modified="Yes">3.000000e-01</Option>
    <Option name="SamplingEpoch" modified="Yes">8.000000e-01</Option>
    <Option name="SamplingImportance" modified="No">1.000000e+00</Option>
    <Option name="SamplingTraining" modified="No">True</Option>
    <Option name="SamplingTesting" modified="No">False</Option>
    <Option name="ResetStep" modified="No">50</Option>
    <Option name="Tau" modified="No">3.000000e+00</Option>
    <Option name="BPMode" modified="No">sequential</Option>
    <Option name="BatchSize" modified="No">-1</Option>
    <Option name="ConvergenceImprove" modified="Yes">1.000000e-06</Option>
    <Option name="ConvergenceTests" modified="Yes">15</Option>
    <Option name="UseRegulator" modified="Yes">False</Option>
    <Option name="UpdateLimit" modified="No">10000</Option>
    <Option name="CalculateErrors" modified="No">False</Option>
    <Option name="WeightRange" modified="No">1.000000e+00</Option>
  </Options>
  <Variables NVar="9">
    <Variable VarIndex="0" Expression="U5" Label="U5" Title="U 235" Unit="FractionIsotopic" Internal="U5" Type="F" Min="2.30270298e-03" Max="4.67000641e-02"/>
    <Variable VarIndex="1" Expression="U8" Label="U8" Title="U 238" Unit="FractionIsotopic" Internal="U8" Type="F" Min="8.04198325e-01" Max="9.53872919e-01"/>
    <Variable VarIndex="2" Expression="Pu8" Label="Pu8" Title="Pu 238" Unit="FractionIsotopic" Internal="Pu8" Type="F" Min="2.39272078e-04" Max="1.25759691e-02"/>
    <Variable VarIndex="3" Expression="Pu9" Label="Pu9" Title="Pu 239" Unit="FractionIsotopic" Internal="Pu9" Type="F" Min="3.92307848e-04" Max="1.18448287e-01"/>
    <Variable VarIndex="4" Expression="Pu10" Label="Pu10" Title="Pu 240" Unit="FractionIsotopic" Internal="Pu10" Type="F" Min="4.57230024e-03" Max="6.08281456e-02"/>
    <Variable VarIndex="5" Expression="Pu11" Label="Pu11" Title="Pu 241" Unit="FractionIsotopic" Internal="Pu11" Type="F" Min="2.07281264e-05" Max="3.61828022e-02"/>
    <Variable VarIndex="6" Expression="Pu12" Label="Pu12" Title="Pu 242" Unit="FractionIsotopic" Internal="Pu12" Type="F" Min="6.52248855e-04" Max="5.31211868e-02"/>
    <Variable VarIndex="7" Expression="Am1" Label="Am1" Title="Am 241" Unit="FractionIsotopic" Internal="Am1" Type="F" Min="6.82462883e-07" Max="1.22549152e-02"/>
    <Variable VarIndex="8" Expression="Time" Label="Time" Title="Time" Unit="seconds" Internal="Time" Type="F" Min="0.00000000e+00" Max="1.89328304e+08"/>
  </Variables>
  <Spectators NSpec="0"/>
  <Classes NClass="1">
    <Class Name="Regression" Index="0"/>
  </Classes>
  <Targets NTrgt="1">
    <Target TargetIndex="0" Expression="XS_48_106_0_n2n" Label="XS_48_106_0_n2n" Title="XS_48_106_0_n2n" Unit="" Internal="XS_48_106_0_n2n" Type="F" Min="4.11957008e-05" Max="1.77680093e-04"/>
  </Targets>
  <Transformations NTransformations="1">
    <Transform Name="Normalize">
      <Selection>
        <Input NInputs="10">
          <Input Type="Variable" Label="U5" Expression="U5"/>
          <Input Type="Variable" Label="U8" Expression="U8"/>
          <Input Type="Variable" Label="Pu8" Expression="Pu8"/>
          <Input Type="Variable" Label="Pu9" Expression="Pu9"/>
          <Input Type="Variable" Label="Pu10" Expression="Pu10"/>
          <Input Type="Variable" Label="Pu11" Expression="Pu11"/>
          <Input Type="Variable" Label="Pu12" Expression="Pu12"/>
          <Input Type="Variable" Label="Am1" Expression="Am1"/>
          <Input Type="Variable" Label="Time" Expression="Time"/>
          <Input Type="Target" Label="XS_48_106_0_n2n" Expression="XS_48_106_0_n2n"/>
        </Input>
        <Output NOutputs="10">
          <Output Type="Variable" Label="U5" Expression="U5"/>
          <Output Type="Variable" Label="U8" Expression="U8"/>
          <Output Type="Variable" Label="Pu8" Expression="Pu8"/>
          <Output Type="Variable" Label="Pu9" Expression="Pu9"/>
          <Output Type="Variable" Label="Pu10" Expression="Pu10"/>
          <Output Type="Variable" Label="Pu11" Expression="Pu11"/>
          <Output Type="Variable" Label="Pu12" Expression="Pu12"/>
          <Output Type="Variable" Label="Am1" Expression="Am1"/>
          <Output Type="Variable" Label="Time" Expression="Time"/>
          <Output Type="Target" Label="XS_48_106_0_n2n" Expression="XS_48_106_0_n2n"/>
        </Output>
      </Selection>
      <Class ClassIndex="0">
        <Ranges>
          <Range Index="0" Min="2.3027029819786549e-03" Max="4.6700064092874527e-02"/>
          <Range Index="1" Min="8.0419832468032837e-01" Max="9.5387291908264160e-01"/>
          <Range Index="2" Min="2.3927207803353667e-04" Max="1.2575969099998474e-02"/>
          <Range Index="3" Min="3.9230784750543535e-04" Max="1.1844828724861145e-01"/>
          <Range Index="4" Min="4.5723002403974533e-03" Max="6.0828145593404770e-02"/>
          <Range Index="5" Min="2.0728126401081681e-05" Max="3.6182802170515060e-02"/>
          <Range Index="6" Min="6.5224885474890471e-04" Max="5.3121186792850494e-02"/>
          <Range Index="7" Min="6.8246288265072508e-07" Max="1.2254915200173855e-02"/>
          <Range Index="8" Min="0.0000000000000000e+00" Max="1.8932830400000000e+08"/>
          <Range Index="9" Min="4.1195700759999454e-05" Max="1.7768009274732322e-04"/>
        </Ranges>
      </Class>
    </Transform>
  </Transformations>
  <MVAPdfs/>
  <Weights>
    <Layout NLayers="4">
      <Layer Index="0" NNeurons="10">
        <Neuron NSynapses="9">
          -5.2037031110704013e-01 4.1752091197501923e-01 7.4931340613771369e-01 5.4845059441183075e-01 -1.8843099612551548e+00 -1.1476269754861681e+00 -1.2067280017257083e+00 2.6440921314949251e-01 -9.0495270052722798e-01 
        </Neuron>
        <Neuron NSynapses="9">
          -1.8149019900920047e+00 -1.9475498255834114e+00 6.6475523497208711e-01 -1.2159188277199606e+00 6.7999727649177921e-01 -4.1501338405619254e-01 6.0211067900627691e-01 8.9317269848681269e-01 1.1068823184066114e+00 
        </Neuron>
        <Neuron NSynapses="9">
          2.8990669742185643e-01 7.2796700304531814e-01 6.3070343615702559e-03 -5.6595274183891287e-01 4.7857178881285217e-01 4.8755892757318453e-02 2.1268088321730758e-01 -9.1989834760946701e-02 2.3016658872012212e+00 
        </Neuron>
        <Neuron NSynapses="9">
          -1.6149274163986855e+00 -1.2040837175390358e+00 -6.9106148277899593e-01 6.0770976249936015e-01 1.8386815280312863e+00 4.8221352847447602e-01 1.6344366088446660e-01 6.2310810706220847e-02 3.1031614593402501e-01 
        </Neuron>
        <Neuron NSynapses="9">
          -9.4450148090400354e-01 2.4560772210673227e+00 -7.0051888898302239e-01 1.2988459006218234e+00 7.0515618320351492e-01 1.4307932590956327e+00 1.7525852563008477e+00 8.3298745834151622e-01 -4.7034725517806145e-02 
        </Neuron>
        <Neuron NSynapses="9">
          -1.3236223592905219e+00 3.6695219416371982e-01 -4.9814605870902490e-01 2.4413777981623279e+00 2.3261342051678477e+00 1.5346710979292790e+00 1.8937956664005087e+00 -1.3648473615048824e+00 1.9750465486135751e+00 
        </Neuron>
        <Neuron NSynapses="9">
          -1.5515945163278859e+00 -6.0829631430003017e-01 -1.3275195383055549e-01 -4.8894439356240232e-01 1.7999322360199055e+00 1.5846579163331728e-01 -5.1270036088672821e-01 2.3352285111993787e-01 2.4066055543733336e-01 
        </Neuron>
        <Neuron NSynapses="9">
          -2.2739231911898864e-02 1.5851002666404166e+00 -2.9718887790592080e-01 1.4000474114410005e-01 2.4178396115062187e-01 2.1090482399165572e-01 3.6504090729048838e-01 1.2726494314704581e-01 -7.2244860700235269e-01 
        </Neuron>
        <Neuron NSynapses="9">
          4.4378300350576694e-01 2.4380305837801588e+00 1.3774725164268131e-01 -3.0307471459818264e-01 -3.7011580018418944e-01 -6.2758727401493380e-02 4.9975630703193380e-01 -1.6751677462349022e+00 1.0035832227723855e+00 
        </Neuron>
        <Neuron NSynapses="9">
          1.9384645790180370e+00 1.0563087812117231e+00 -2.0534674749645001e+00 -1.4240679840871557e+00 -2.3640419132265782e+00 -1.2921154672057222e-01 -2.1740182065243032e+00 -2.4579304905496673e+00 -2.7174611818126602e+00 
        </Neuron>
      </Layer>
      <Layer Index="1" NNeurons="10">
        <Neuron NSynapses="9">
          2.7498155651403372e-01 -1.7182347885006133e-01 2.7822399183420639e+00 -1.6645723992640633e+00 -9.6937146409384312e-01 1.5192237431029263e+00 -6.1114955005221883e-01 -1.1405598858384507e+00 -2.3634508633006757e+00 
        </Neuron>
        <Neuron NSynapses="9">
          4.5773782938516910e-01 -6.4800629102043705e-01 -7.3157861966749416e-01 -1.0153275400613342e+00 9.4392150546863507e-01 -1.2199991690249199e+00 2.5423114447752471e+00 -1.2307687282605685e-02 -2.2002777353861550e-01 
        </Neuron>
        <Neuron NSynapses="9">
          -3.4353846818735839e-01 2.3832608226042332e-01 -1.4052766698590493e+00 7.1015745268827102e-01 1.8238963349550139e+00 -3.8422114157998405e-01 -1.3811548518002115e+00 1.3495824002364387e+00 4.9402577962619813e-02 
        </Neuron>
        <Neuron NSynapses="9">
          8.0641811342573355e-01 1.0753272838237902e+00 -3.8268871888727130e-01 -1.6140309523722387e+00 7.3280571283226814e-01 -5.1336384840620009e-01 1.4969327919987645e+00 -7.6989211859200393e-02 1.1384385020899386e+00 
        </Neuron>
        <Neuron NSynapses="9">
          -3.4993056347989665e-01 1.1460345740882938e+00 -2.1797384423370478e+00 -3.8162507969382331e-01 -2.5008056769477693e-01 -1.1022597179747666e+00 4.4487877668254011e-01 -1.5026553188019740e+00 6.8535306949978092e-01 
        </Neuron>
        <Neuron NSynapses="9">
          1.6245718920084837e+00 2.2673504818588608e+00 -1.2023673407368103e+00 -1.0559885762611352e+00 5.7420089779689121e-01 2.3186668708699925e+00 -5.8522315611408704e-01 -2.5541237562506136e-01 3.7575063831470260e-02 
        </Neuron>
        <Neuron NSynapses="9">
          -3.5910137533810477e-01 1.4911498698013652e+00 7.3731625204461235e-02 -9.0307296152728345e-01 -4.0922116521358182e-01 2.8182737775206396e-01 -1.2395339007509671e+00 -7.8107406137985114e-02 6.4556970224189036e-01 
        </Neuron>
        <Neuron NSynapses="9">
          -3.2161922252632180e-01 -6.9202210550511001e-01 -5.6576777705325398e-01 1.3827048137550313e+00 2.5788674891143015e-01 6.7867013365913320e-01 -1.1513066010305055e+00 1.2922771351637743e+00 1.6071368378750328e+00 
        </Neuron>
        <Neuron NSynapses="9">
          -5.8832743214602956e-01 3.2920243359962698e-01 3.9299892985480193e-02 -6.1030247330862974e-01 -2.5661647931528847e-01 7.8646605235634937e-01 -8.1247400278618609e-01 -9.1820428684468725e-01 6.1670503105174357e-01 
        </Neuron>
        <Neuron NSynapses="9">
          2.5874330413334667e+00 -2.0005424290040716e-01 2.7503762144696333e+00 1.7774197207845295e+00 -2.3807154819338785e+00 7.5735650213595984e-01 2.9040019124762756e-01 8.7980754218052026e-01 -2.9026475407743946e+00 
        </Neuron>
      </Layer>
      <Layer Index="2" NNeurons="10">
        <Neuron NSynapses="1">
          1.2479046736993218e+00 
        </Neuron>
        <Neuron NSynapses="1">
          1.9550313177681113e-02 
        </Neuron>
        <Neuron NSynapses="1">
          7.6500430536817809e-01 
        </Neuron>
        <Neuron NSynapses="1">
          -1.1963660490114865e-02 
        </Neuron>
        <Neuron NSynapses="1">
          -2.2925622666595973e+00 
        </Neuron>
        <Neuron NSynapses="1">
          5.1794469959286814e-03 
        </Neuron>
        <Neuron NSynapses="1">
          -1.3146043534740505e-02 
        </Neuron>
        <Neuron NSynapses="1">
          -7.5849815484935856e-02 
        </Neuron>
        <Neuron NSynapses="1">
          2.8606398004945679e+00 
        </Neuron>
        <Neuron NSynapses="1">
          -1.5950378124942008e+00 
        </Neuron>
      </Layer>
      <Layer Index="3" NNeurons="1">
        <Neuron NSynapses="0"/>
      </Layer>
    </Layout>
  </Weights>
</MethodSetup>
