<?xml version="1.0"?>
<MethodSetup Method="MLP::XS_100_255_0_cap">
  <GeneralInfo>
    <Info name="TMVA Release" value="4.2.0 [262656]"/>
    <Info name="ROOT Release" value="5.34/14 [336398]"/>
    <Info name="Creator" value="courtin"/>
    <Info name="Date" value="Fri Dec 18 01:38:41 2015"/>
    <Info name="Host" value="Linux nansl3.in2p3.fr 2.6.32-431.20.3.el6.x86_64 #1 SMP Thu Jun 19 14:01:59 CDT 2014 x86_64 x86_64 x86_64 GNU/Linux"/>
    <Info name="Dir" value="/scratch/spallati/courtin/WORK/BdD_MOxEUS/MOxEUS_NN/XSM/MLP/Train"/>
    <Info name="Training events" value="59870"/>
    <Info name="TrainingTime" value="2.38454719e+03"/>
    <Info name="AnalysisType" value="Regression"/>
  </GeneralInfo>
  <Options>
    <Option name="NCycles" modified="Yes">20000</Option>
    <Option name="HiddenLayers" modified="Yes">N,N</Option>
    <Option name="NeuronType" modified="Yes">tanh</Option>
    <Option name="RandomSeed" modified="No">1</Option>
    <Option name="EstimatorType" modified="No">MSE</Option>
    <Option name="NeuronInputType" modified="No">sum</Option>
    <Option name="V" modified="Yes">False</Option>
    <Option name="VerbosityLevel" modified="No">Default</Option>
    <Option name="VarTransform" modified="Yes">Norm</Option>
    <Option name="H" modified="Yes">False</Option>
    <Option name="CreateMVAPdfs" modified="No">False</Option>
    <Option name="IgnoreNegWeightsInTraining" modified="No">False</Option>
    <Option name="TrainingMethod" modified="Yes">BFGS</Option>
    <Option name="LearningRate" modified="No">2.000000e-02</Option>
    <Option name="DecayRate" modified="No">1.000000e-02</Option>
    <Option name="TestRate" modified="Yes">6</Option>
    <Option name="EpochMonitoring" modified="No">False</Option>
    <Option name="Sampling" modified="Yes">3.000000e-01</Option>
    <Option name="SamplingEpoch" modified="Yes">8.000000e-01</Option>
    <Option name="SamplingImportance" modified="No">1.000000e+00</Option>
    <Option name="SamplingTraining" modified="No">True</Option>
    <Option name="SamplingTesting" modified="No">False</Option>
    <Option name="ResetStep" modified="No">50</Option>
    <Option name="Tau" modified="No">3.000000e+00</Option>
    <Option name="BPMode" modified="No">sequential</Option>
    <Option name="BatchSize" modified="No">-1</Option>
    <Option name="ConvergenceImprove" modified="Yes">1.000000e-06</Option>
    <Option name="ConvergenceTests" modified="Yes">15</Option>
    <Option name="UseRegulator" modified="Yes">False</Option>
    <Option name="UpdateLimit" modified="No">10000</Option>
    <Option name="CalculateErrors" modified="No">False</Option>
    <Option name="WeightRange" modified="No">1.000000e+00</Option>
  </Options>
  <Variables NVar="9">
    <Variable VarIndex="0" Expression="U5" Label="U5" Title="U 235" Unit="FractionIsotopic" Internal="U5" Type="F" Min="2.30270298e-03" Max="4.67000641e-02"/>
    <Variable VarIndex="1" Expression="U8" Label="U8" Title="U 238" Unit="FractionIsotopic" Internal="U8" Type="F" Min="8.04198325e-01" Max="9.53872919e-01"/>
    <Variable VarIndex="2" Expression="Pu8" Label="Pu8" Title="Pu 238" Unit="FractionIsotopic" Internal="Pu8" Type="F" Min="2.39272078e-04" Max="1.25759691e-02"/>
    <Variable VarIndex="3" Expression="Pu9" Label="Pu9" Title="Pu 239" Unit="FractionIsotopic" Internal="Pu9" Type="F" Min="3.92307848e-04" Max="1.18448287e-01"/>
    <Variable VarIndex="4" Expression="Pu10" Label="Pu10" Title="Pu 240" Unit="FractionIsotopic" Internal="Pu10" Type="F" Min="4.57230024e-03" Max="6.08281456e-02"/>
    <Variable VarIndex="5" Expression="Pu11" Label="Pu11" Title="Pu 241" Unit="FractionIsotopic" Internal="Pu11" Type="F" Min="2.07281264e-05" Max="3.61828022e-02"/>
    <Variable VarIndex="6" Expression="Pu12" Label="Pu12" Title="Pu 242" Unit="FractionIsotopic" Internal="Pu12" Type="F" Min="6.52248855e-04" Max="5.31211868e-02"/>
    <Variable VarIndex="7" Expression="Am1" Label="Am1" Title="Am 241" Unit="FractionIsotopic" Internal="Am1" Type="F" Min="6.82462883e-07" Max="1.22549152e-02"/>
    <Variable VarIndex="8" Expression="Time" Label="Time" Title="Time" Unit="seconds" Internal="Time" Type="F" Min="0.00000000e+00" Max="1.89328304e+08"/>
  </Variables>
  <Spectators NSpec="0"/>
  <Classes NClass="1">
    <Class Name="Regression" Index="0"/>
  </Classes>
  <Targets NTrgt="1">
    <Target TargetIndex="0" Expression="XS_100_255_0_cap" Label="XS_100_255_0_cap" Title="XS_100_255_0_cap" Unit="" Internal="XS_100_255_0_cap" Type="F" Min="2.21761990e+00" Max="3.70599294e+00"/>
  </Targets>
  <Transformations NTransformations="1">
    <Transform Name="Normalize">
      <Selection>
        <Input NInputs="10">
          <Input Type="Variable" Label="U5" Expression="U5"/>
          <Input Type="Variable" Label="U8" Expression="U8"/>
          <Input Type="Variable" Label="Pu8" Expression="Pu8"/>
          <Input Type="Variable" Label="Pu9" Expression="Pu9"/>
          <Input Type="Variable" Label="Pu10" Expression="Pu10"/>
          <Input Type="Variable" Label="Pu11" Expression="Pu11"/>
          <Input Type="Variable" Label="Pu12" Expression="Pu12"/>
          <Input Type="Variable" Label="Am1" Expression="Am1"/>
          <Input Type="Variable" Label="Time" Expression="Time"/>
          <Input Type="Target" Label="XS_100_255_0_cap" Expression="XS_100_255_0_cap"/>
        </Input>
        <Output NOutputs="10">
          <Output Type="Variable" Label="U5" Expression="U5"/>
          <Output Type="Variable" Label="U8" Expression="U8"/>
          <Output Type="Variable" Label="Pu8" Expression="Pu8"/>
          <Output Type="Variable" Label="Pu9" Expression="Pu9"/>
          <Output Type="Variable" Label="Pu10" Expression="Pu10"/>
          <Output Type="Variable" Label="Pu11" Expression="Pu11"/>
          <Output Type="Variable" Label="Pu12" Expression="Pu12"/>
          <Output Type="Variable" Label="Am1" Expression="Am1"/>
          <Output Type="Variable" Label="Time" Expression="Time"/>
          <Output Type="Target" Label="XS_100_255_0_cap" Expression="XS_100_255_0_cap"/>
        </Output>
      </Selection>
      <Class ClassIndex="0">
        <Ranges>
          <Range Index="0" Min="2.3027029819786549e-03" Max="4.6700064092874527e-02"/>
          <Range Index="1" Min="8.0419832468032837e-01" Max="9.5387291908264160e-01"/>
          <Range Index="2" Min="2.3927207803353667e-04" Max="1.2575969099998474e-02"/>
          <Range Index="3" Min="3.9230784750543535e-04" Max="1.1844828724861145e-01"/>
          <Range Index="4" Min="4.5723002403974533e-03" Max="6.0828145593404770e-02"/>
          <Range Index="5" Min="2.0728126401081681e-05" Max="3.6182802170515060e-02"/>
          <Range Index="6" Min="6.5224885474890471e-04" Max="5.3121186792850494e-02"/>
          <Range Index="7" Min="6.8246288265072508e-07" Max="1.2254915200173855e-02"/>
          <Range Index="8" Min="0.0000000000000000e+00" Max="1.8932830400000000e+08"/>
          <Range Index="9" Min="2.2176198959350586e+00" Max="3.7059929370880127e+00"/>
        </Ranges>
      </Class>
    </Transform>
  </Transformations>
  <MVAPdfs/>
  <Weights>
    <Layout NLayers="4">
      <Layer Index="0" NNeurons="10">
        <Neuron NSynapses="9">
          -4.5277068678634802e-01 1.6004844926988335e+00 -3.2053536529540766e-01 9.8229635130740689e-01 -1.6144996847010700e+00 2.7808759460498725e-02 -4.3383263234015923e-01 1.3276438317204089e+00 -5.3732773746461016e-01 
        </Neuron>
        <Neuron NSynapses="9">
          -1.8527350358917603e+00 -3.2980984272116234e+00 -1.4676217342949480e+00 -3.2210476952712780e-01 -1.4042737036611412e+00 -5.1386292536263545e-01 6.5477957546493792e-01 -1.9158877366868661e+00 2.5408589542014193e+00 
        </Neuron>
        <Neuron NSynapses="9">
          -6.1926092094653502e-02 1.2582029768413823e+00 -1.5450516213144866e-01 4.8053255190089045e-01 5.3932678954262225e-01 3.5973591470629736e-02 -4.3559494423280826e-01 2.2597112662914867e-01 4.5042569297346258e-01 
        </Neuron>
        <Neuron NSynapses="9">
          -1.0594323130647965e+00 9.3898257184361511e-01 -6.0415479417480078e-01 7.5523662510977252e-01 3.0297120600722782e+00 2.9994975287182041e-01 4.9444876558794182e-01 2.4579190298737266e+00 -6.7256766801541479e-01 
        </Neuron>
        <Neuron NSynapses="9">
          -2.3636672245630966e-01 2.0174162025930427e+00 -7.8873060731700240e-01 1.3129574790894813e+00 8.4711734007562511e-01 2.4996274199652671e-01 1.6773918922064530e+00 1.3387051766268496e+00 -9.4039712890141647e-01 
        </Neuron>
        <Neuron NSynapses="9">
          -6.5085864240127955e-01 7.4800352210410070e-01 2.2247645394354601e-02 1.4136981915971449e+00 1.5580930371071295e+00 -7.1881320535574250e-02 1.6276563806739364e+00 2.9027995941883689e-01 6.3904586200684055e-01 
        </Neuron>
        <Neuron NSynapses="9">
          -5.1425145481948342e-01 -6.7390173751691174e-01 -5.5479155223722187e-01 -2.2894032492976332e-01 4.3389096500456309e-01 -5.7157919092131700e-02 -1.7095061745418896e-01 4.0165958297592824e-01 -1.2119014160076201e-01 
        </Neuron>
        <Neuron NSynapses="9">
          -6.6924339024772739e-02 1.3220093554129726e+00 -6.2349907157279366e-02 5.1235022774194794e-01 -4.4257788710181789e-01 4.6358330188662741e-02 3.6274786242834461e-01 9.7434859170047861e-01 -3.5690619308017779e-01 
        </Neuron>
        <Neuron NSynapses="9">
          5.9923602548238197e-02 3.0649033266351372e-01 5.8447623820041039e-01 -4.0338010353087184e-01 -7.4244764649859640e-01 -8.9035338214509610e-02 3.1166255808029203e-01 1.8076924117158955e-01 6.3129531799375949e-01 
        </Neuron>
        <Neuron NSynapses="9">
          2.7783902757429474e-01 1.8799019130267600e-01 1.3668645138060096e+00 -2.9772928170147757e+00 6.6079620063129021e-02 1.0191128205558628e+00 -2.9010228264481253e+00 -2.6553997217960696e+00 -2.5200445932210247e+00 
        </Neuron>
      </Layer>
      <Layer Index="1" NNeurons="10">
        <Neuron NSynapses="9">
          6.8518237124166959e-01 2.7215407029161792e-01 4.9050954768117178e-01 -1.1647172132184922e+00 -1.2948038360696643e+00 2.1307032547395370e+00 -4.7637332273855809e-01 -1.7733822095868204e+00 -1.8471049146818537e+00 
        </Neuron>
        <Neuron NSynapses="9">
          6.6709141188368870e-01 -1.5875660867029084e+00 -1.6396363012677551e+00 1.7881879467938553e+00 6.2914877703329111e-02 -7.0165681258410562e-01 8.9949695425978549e-01 -1.0858124643096387e+00 -4.5340176654306891e-01 
        </Neuron>
        <Neuron NSynapses="9">
          5.0998921470714365e-01 2.3125612843893029e-01 -2.0205943109091984e+00 2.5332010115568928e+00 1.2013232145107486e+00 4.1371743358407004e-01 -2.0413736195437209e+00 1.2866702065302238e+00 1.9052804458579065e-01 
        </Neuron>
        <Neuron NSynapses="9">
          -5.2295380251095591e-01 5.1391494676704574e-01 -8.3236311188615941e-01 1.0030778402138005e-01 7.6603213153089419e-02 -7.6804315651351374e-01 1.3267909016032720e+00 1.0907509776109023e+00 4.5693368508684157e-01 
        </Neuron>
        <Neuron NSynapses="9">
          -8.9044130498108032e-01 1.3831843971147420e-01 -1.0784996573936645e+00 -1.6997341560230299e-02 -9.8162923328798026e-03 -1.7109989404524280e+00 -9.5553840570624174e-02 -1.1070177881098293e+00 3.6917050572568821e-01 
        </Neuron>
        <Neuron NSynapses="9">
          8.9412182197264323e-01 2.4245507792684524e+00 -1.6690908568413989e+00 2.8517929424923030e+00 1.4189626009491334e+00 1.6816249187464867e+00 6.4601797065300681e-01 -1.2230379310217299e+00 -2.9825105399955667e-02 
        </Neuron>
        <Neuron NSynapses="9">
          -6.7421296381763718e-01 8.4831597611398490e-01 1.5707417533722547e+00 1.0555410159532923e+00 -1.0697457498495701e-01 7.4180861496548789e-02 -1.4656930511350841e+00 3.6219385207877763e-01 1.4515414239667490e+00 
        </Neuron>
        <Neuron NSynapses="9">
          -8.3935122665126105e-01 -1.0971336929036868e+00 2.2778181350250717e-01 7.2984741628035499e-01 3.1948731023657466e-02 6.1479868421951422e-01 -1.1505588831050559e+00 1.6534428074640346e+00 1.0770742313424984e+00 
        </Neuron>
        <Neuron NSynapses="9">
          -3.7621164154799425e-01 -3.3985827069632074e-01 1.6329621015497346e+00 1.3212059266545972e-01 -3.1967471923429913e-02 5.2748638972324802e-01 -9.7350845380743678e-01 -9.5501424633853538e-01 1.0582658690066387e+00 
        </Neuron>
        <Neuron NSynapses="9">
          2.3813054187306060e+00 2.7587161047341263e-01 4.5080880106544763e-01 2.0698681474595086e+00 -1.8042498266221421e+00 1.2529473572352710e+00 1.0911970751129385e-01 2.5051732220782230e-01 -2.1648140521500499e+00 
        </Neuron>
      </Layer>
      <Layer Index="2" NNeurons="10">
        <Neuron NSynapses="1">
          4.2652663251544415e-01 
        </Neuron>
        <Neuron NSynapses="1">
          -2.1314512384066134e-01 
        </Neuron>
        <Neuron NSynapses="1">
          1.0992420269452142e-02 
        </Neuron>
        <Neuron NSynapses="1">
          -1.0421769449385532e+00 
        </Neuron>
        <Neuron NSynapses="1">
          -2.5168373696005433e+00 
        </Neuron>
        <Neuron NSynapses="1">
          1.8523665903843697e-01 
        </Neuron>
        <Neuron NSynapses="1">
          1.3573176864634337e-01 
        </Neuron>
        <Neuron NSynapses="1">
          -9.2334668967185743e-02 
        </Neuron>
        <Neuron NSynapses="1">
          6.3118542381726062e-01 
        </Neuron>
        <Neuron NSynapses="1">
          -7.6518614332271861e-01 
        </Neuron>
      </Layer>
      <Layer Index="3" NNeurons="1">
        <Neuron NSynapses="0"/>
      </Layer>
    </Layout>
  </Weights>
</MethodSetup>
